svm_type c_svc
kernel_type rbf
gamma 0.5
nr_class 2
total_sv 6776
rho -0.0753332
label 1 2
nr_sv 3555 3221
SV
0.9875768904664155 1:0.95232557 2:-0.40367972 3:-0.59014405 4:-0.77325539 5:-0.20000967 6:-0.20289119 7:-0.24341116 8:-0.23785049 9:-0.12916647 10:-0.13197532 11:-0.13984631 12:-0.12631849 13:0.45904741 14:1.2489493 15:-0.4370267 16:-0.17027899 17:0.73577823 18:1.179773 19:0.95707901 20:1.5357423 21:1.7582526 22:1.2995712 23:2.661132 24:-0.24593117 25:-0.47393793 26:-0.32151881 27:0.53318077 28:1.1352117 29:1.4084892 30:-0.12810315 31:-0.47914547 32:-0.10271824 33:1.5255349 34:1.8893893 35:1.928591 36:-0.30647524 
0.9235522780055349 1:-0.98463841 2:-0.40367972 3:-0.59014405 4:1.2088662 5:-0.20000967 6:3.6899575 7:-0.24341116 8:-0.23785049 9:-0.12916647 10:-0.13197532 11:-0.13984631 12:-0.12631849 13:0.45904741 14:-0.74767313 15:-0.4370267 16:-0.17027899 17:0.73577823 18:-0.79285163 19:0.95707901 20:-0.60176117 21:1.7582526 22:1.2995712 23:-0.3203615 24:-0.24593117 25:-0.47393793 26:-0.32151881 27:0.53318077 28:-0.8247039 29:-0.65956639 30:-0.12810315 31:-0.47914547 32:-0.10271824 33:1.5255349 34:-0.47995792 35:1.928591 36:-0.30647524 
0.1263410083176669 1:0.95232557 2:-0.40367972 3:-0.59014405 4:-0.77325539 5:-0.20000967 6:-0.20289119 7:-0.24341116 8:-0.23785049 9:-0.12916647 10:-0.13197532 11:-0.13984631 12:-0.12631849 13:-1.9658385 14:1.2489493 15:-0.4370267 16:-0.17027899 17:0.73577823 18:1.179773 19:0.95707901 20:1.5357423 21:-0.5197573 22:1.2995712 23:-0.3203615 24:-0.24593117 25:-0.47393793 26:-0.32151881 27:0.53318077 28:-0.8247039 29:1.4084892 30:-0.12810315 31:-0.47914547 32:-0.10271824 33:-0.60606164 34:-0.47995792 35:-0.46904288 36:-0.30647524 
0.946182206756956 1:0.95232557 2:-0.40367972 3:-0.59014405 4:-0.77325539 5:-0.20000967 6:-0.20289119 7:-0.24341116 8:-0.23785049 9:-0.12916647 10:-0.13197532 11:-0.13984631 12:-0.12631849 13:-1.9658385 14:-0.74767313 15:-0.4370267 16:-0.17027899 17:0.73577823 18:1.179773 19:0.95707901 20:-0.60176117 21:-0.5197573 22:-0.71750206 23:-0.3203615 24:-0.24593117 25:1.9108248 26:-0.32151881 27:0.53318077 28:1.1352117 29:1.4084892 30:-0.12810315 31:-0.47914547 32:-0.10271824 33:1.5255349 34:1.8893893 35:-0.46904288 36:-0.30647524 
0.6819873958238946 1:0.95232557 2:-0.40367972 3:-0.59014405 4:-0.77325539 5:-0.20000967 6:-0.20289119 7:-0.24341116 8:-0.23785049 9:-0.12916647 10:-0.13197532 11:-0.13984631 12:-0.12631849 13:-1.9658385 14:1.2489493 15:-0.4370267 16:-0.17027899 17:0.73577823 18:1.179773 19:0.95707901 20:1.5357423 21:-0.5197573 22:1.2995712 23:-0.3203615 24:-0.24593117 25:-0.47393793 26:-0.32151881 27:0.53318077 28:-0.8247039 29:-0.65956639 30:-0.12810315 31:1.892256 32:-0.10271824 33:-0.60606164 34:-0.47995792 35:-0.46904288 36:-0.30647524 
0.9226133190108496 1:0.95232557 2:-0.40367972 3:-0.59014405 4:-0.77325539 5:-0.20000967 6:-0.20289119 7:-0.24341116 8:-0.23785049 9:-0.12916647 10:-0.13197532 11:-0.13984631 12:-0.12631849 13:0.45904741 14:-0.74767313 15:-0.4370267 16:-0.17027899 17:-1.2684543 18:-0.79285163 19:-0.9797567 20:-0.60176117 21:-0.5197573 22:-0.71750206 23:-0.3203615 24:-0.24593117 25:-0.47393793 26:-0.32151881 27:0.53318077 28:1.1352117 29:1.4084892 30:-0.12810315 31:1.892256 32:-0.10271824 33:1.5255349 34:-0.47995792 35:1.928591 36:-0.30647524 
0.8587867256682441 1:0.95232557 2:-0.40367972 3:-0.59014405 4:-0.77325539 5:-0.20000967 6:-0.20289119 7:3.2680404 8:-0.23785049 9:-0.12916647 10:-0.13197532 11:-0.13984631 12:-0.12631849 13:0.45904741 14:1.2489493 15:-0.4370267 16:-0.17027899 17:0.73577823 18:-0.79285163 19:0.95707901 20:1.5357423 21:-0.5197573 22:1.2995712 23:-0.3203615 24:-0.24593117 25:-0.47393793 26:-0.32151881 27:0.53318077 28:1.1352117 29:-0.65956639 30:-0.12810315 31:-0.47914547 32:-0.10271824 33:1.5255349 34:-0.47995792 35:1.928591 36:-0.30647524 
0.925063375999182 1:-0.98463841 2:-0.40367972 3:-0.59014405 4:1.2088662 5:-0.20000967 6:-0.20289119 7:-0.24341116 8:-0.23785049 9:-0.12916647 10:-0.13197532 11:-0.13984631 12:-0.12631849 13:0.45904741 14:-0.74767313 15:-0.4370267 16:4.0981952 17:-1.2684543 18:-0.79285163 19:-0.9797567 20:-0.60176117 21:-0.5197573 22:-0.71750206 23:-0.3203615 24:-0.24593117 25:-0.47393793 26:-0.32151881 27:-1.7177937 28:-0.8247039 29:-0.65956639 30:-0.12810315 31:-0.47914547 32:-0.10271824 33:-0.60606164 34:-0.47995792 35:-0.46904288 36:2.7554218 
0.9332008518267618 1:0.95232557 2:-0.40367972 3:-0.59014405 4:-0.77325539 5:-0.20000967 6:3.6899575 7:-0.24341116 8:-0.23785049 9:-0.12916647 10:-0.13197532 11:-0.13984631 12:-0.12631849 13:0.45904741 14:-0.74767313 15:-0.4370267 16:-0.17027899 17:0.73577823 18:1.179773 19:0.95707901 20:1.5357423 21:-0.5197573 22:1.2995712 23:-0.3203615 24:-0.24593117 25:-0.47393793 26:-0.32151881 27:0.53318077 28:1.1352117 29:-0.65956639 30:-0.12810315 31:1.892256 32:-0.10271824 33:1.5255349 34:-0.47995792 35:-0.46904288 36:-0.30647524 
0.9250117794665811 1:-0.98463841 2:-0.40367972 3:-0.59014405 4:1.2088662 5:-0.20000967 6:3.6899575 7:-0.24341116 8:-0.23785049 9:4.7213612 10:-0.13197532 11:-0.13984631 12:-0.12631849 13:0.45904741 14:1.2489493 15:-0.4370267 16:-0.17027899 17:0.73577823 18:1.179773 19:-0.9797567 20:-0.60176117 21:-0.5197573 22:-0.71750206 23:-0.3203615 24:-0.24593117 25:-0.47393793 26:-0.32151881 27:0.53318077 28:-0.8247039 29:-0.65956639 30:-0.12810315 31:-0.47914547 32:-0.10271824 33:-0.60606164 34:-0.47995792 35:-0.46904288 36:2.7554218 
0.8813342416026521 1:0.95232557 2:-0.40367972 3:-0.59014405 4:-0.77325539 5:-0.20000967 6:-0.20289119 7:-0.24341116 8:-0.23785049 9:-0.12916647 10:-0.13197532 11:-0.13984631 12:-0.12631849 13:0.45904741 14:1.2489493 15:-0.4370267 16:-0.17027899 17:0.73577823 18:-0.79285163 19:0.95707901 20:-0.60176117 21:1.7582526 22:1.2995712 23:-0.3203615 24:-0.24593117 25:-0.47393793 26:2.653532 27:0.53318077 28:1.1352117 29:-0.65956639 30:-0.12810315 31:-0.47914547 32:-0.10271824 33:1.5255349 34:-0.47995792 35:-0.46904288 36:-0.30647524 
0.8110942153884192 1:-0.98463841 2:-0.40367972 3:-0.59014405 4:1.2088662 5:-0.20000967 6:-0.20289119 7:-0.24341116 8:-0.23785049 9:-0.12916647 10:-0.13197532 11:-0.13984631 12:-0.12631849 13:0.45904741 14:1.2489493 15:-0.4370267 16:-0.17027899 17:-1.2684543 18:-0.79285163 19:-0.9797567 20:-0.60176117 21:-0.5197573 22:-0.71750206 23:-0.3203615 24:-0.24593117 25:-0.47393793 26:-0.32151881 27:0.53318077 28:1.1352117 29:1.4084892 30:-0.12810315 31:1.892256 32:-0.10271824 33:1.5255349 34:-0.47995792 35:-0.46904288 36:-0.30647524 
0.9249466568446635 1:-0.98463841 2:-0.40367972 3:-0.59014405 4:1.2088662 5:-0.20000967 6:-0.20289119 7:-0.24341116 8:-0.23785049 9:4.7213612 10:-0.13197532 11:-0.13984631 12:-0.12631849 13:0.45904741 14:1.2489493 15:-0.4370267 16:4.0981952 17:0.73577823 18:1.179773 19:-0.9797567 20:-0.60176117 21:-0.5197573 22:-0.71750206 23:-0.3203615 24:-0.24593117 25:-0.47393793 26:2.653532 27:0.53318077 28:-0.8247039 29:-0.65956639 30:-0.12810315 31:-0.47914547 32:-0.10271824 33:-0.60606164 34:-0.47995792 35:-0.46904288 36:2.7554218 
0.9655238646572883 1:0.95232557 2:-0.40367972 3:1.563971 4:-0.77325539 5:-0.20000967 6:-0.20289119 7:-0.24341116 8:-0.23785049 9:-0.12916647 10:-0.13197532 11:-0.13984631 12:-0.12631849 13:0.45904741 14:-0.74767313 15:-0.4370267 16:-0.17027899 17:0.73577823 18:1.179773 19:0.95707901 20:1.5357423 21:-0.5197573 22:1.2995712 23:2.661132 24:-0.24593117 25:-0.47393793 26:-0.32151881 27:0.53318077 28:1.1352117 29:1.4084892 30:-0.12810315 31:-0.47914547 32:-0.10271824 33:1.5255349 34:-0.47995792 35:1.928591 36:-0.30647524 
0.8984944474988338 1:-0.98463841 2:-0.40367972 3:-0.59014405 4:1.2088662 5:-0.20000967 6:-0.20289119 7:3.2680404 8:-0.23785049 9:-0.12916647 10:-0.13197532 11:-0.13984631 12:-0.12631849 13:0.45904741 14:1.2489493 15:-0.4370267 16:-0.17027899 17:0.73577823 18:-0.79285163 19:0.95707901 20:1.5357423 21:-0.5197573 22:1.2995712 23:-0.3203615 24:-0.24593117 25:-0.47393793 26:-0.32151881 27:0.53318077 28:-0.8247039 29:1.4084892 30:-0.12810315 31:-0.47914547 32:-0.10271824 33:-0.60606164 34:-0.47995792 35:-0.46904288 36:-0.30647524 
0.9262313147274116 1:0.95232557 2:-0.40367972 3:-0.59014405 4:1.2088662 5:-0.20000967 6:-0.20289119 7:-0.24341116 8:-0.23785049 9:-0.12916647 10:4.6744165 11:-0.13984631 12:-0.12631849 13:0.45904741 14:-0.74767313 15:-0.4370267 16:-0.17027899 17:0.73577823 18:1.179773 19:-0.9797567 20:-0.60176117 21:-0.5197573 22:-0.71750206 23:-0.3203615 24:-0.24593117 25:-0.47393793 26:-0.32151881 27:0.53318077 28:1.1352117 29:1.4084892 30:-0.12810315 31:1.892256 32:-0.10271824 33:-0.60606164 34:-0.47995792 35:1.928591 36:-0.30647524 
0.929601689289425 1:0.95232557 2:-0.40367972 3:1.563971 4:-0.77325539 5:-0.20000967 6:-0.20289119 7:3.2680404 8:-0.23785049 9:-0.12916647 10:-0.13197532 11:-0.13984631 12:-0.12631849 13:0.45904741 14:1.2489493 15:-0.4370267 16:-0.17027899 17:0.73577823 18:1.179773 19:0.95707901 20:-0.60176117 21:1.7582526 22:1.2995712 23:-0.3203615 24:-0.24593117 25:1.9108248 26:-0.32151881 27:0.53318077 28:1.1352117 29:1.4084892 30:-0.12810315 31:-0.47914547 32:-0.10271824 33:1.5255349 34:1.8893893 35:1.928591 36:-0.30647524 
1 1:-0.98463841 2:-0.40367972 3:-0.59014405 4:1.2088662 5:-0.20000967 6:-0.20289119 7:-0.24341116 8:-0.23785049 9:-0.12916647 10:-0.13197532 11:-0.13984631 12:-0.12631849 13:-1.9658385 14:-0.74767313 15:-0.4370267 16:4.0981952 17:-1.2684543 18:-0.79285163 19:-0.9797567 20:-0.60176117 21:-0.5197573 22:-0.71750206 23:-0.3203615 24:-0.24593117 25:-0.47393793 26:-0.32151881 27:-1.7177937 28:-0.8247039 29:-0.65956639 30:-0.12810315 31:-0.47914547 32:-0.10271824 33:-0.60606164 34:-0.47995792 35:-0.46904288 36:2.7554218 
0.9245309700595145 1:0.95232557 2:-0.40367972 3:-0.59014405 4:-0.77325539 5:-0.20000967 6:-0.20289119 7:-0.24341116 8:3.3210566 9:-0.12916647 10:-0.13197532 11:-0.13984631 12:-0.12631849 13:0.45904741 14:1.2489493 15:-0.4370267 16:-0.17027899 17:0.73577823 18:-0.79285163 19:0.95707901 20:-0.60176117 21:1.7582526 22:-0.71750206 23:-0.3203615 24:3.2444831 25:-0.47393793 26:-0.32151881 27:0.53318077 28:1.1352117 29:-0.65956639 30:-0.12810315 31:-0.47914547 32:-0.10271824 33:-0.60606164 34:1.8893893 35:-0.46904288 36:-0.30647524 
0.8595370299483878 1:0.95232557 2:2.1988005 3:-0.59014405 4:-0.77325539 5:-0.20000967 6:-0.20289119 7:-0.24341116 8:-0.23785049 9:-0.12916647 10:-0.13197532 11:-0.13984631 12:-0.12631849 13:-1.9658385 14:-0.74767313 15:2.0527872 16:-0.17027899 17:-1.2684543 18:-0.79285163 19:-0.9797567 20:-0.60176117 21:-0.5197573 22:-0.71750206 23:-0.3203615 24:-0.24593117 25:-0.47393793 26:-0.32151881 27:0.53318077 28:-0.8247039 29:-0.65956639 30:-0.12810315 31:-0.47914547 32:-0.10271824 33:-0.60606164 34:-0.47995792 35:1.928591 36:-0.30647524 
0.9388227851802464 1:0.95232557 2:-0.40367972 3:-0.59014405 4:-0.77325539 5:-0.20000967 6:-0.20289119 7:3.2680404 8:-0.23785049 9:-0.12916647 10:-0.13197532 11:-0.13984631 12:-0.12631849 13:0.45904741 14:-0.74767313 15:-0.4370267 16:-0.17027899 17:0.73577823 18:1.179773 19:0.95707901 20:1.5357423 21:-0.5197573 22:1.2995712 23:-0.3203615 24:-0.24593117 25:-0.47393793 26:-0.32151881 27:0.53318077 28:1.1352117 29:-0.65956639 30:-0.12810315 31:-0.47914547 32:-0.10271824 33:-0.60606164 34:-0.47995792 35:1.928591 36:-0.30647524 
0.9029705032859485 1:0.95232557 2:-0.40367972 3:-0.59014405 4:-0.77325539 5:-0.20000967 6:-0.20289119 7:-0.24341116 8:-0.23785049 9:-0.12916647 10:-0.13197532 11:-0.13984631 12:-0.12631849 13:0.45904741 14:-0.74767313 15:-0.4370267 16:-0.17027899 17:0.73577823 18:1.179773 19:-0.9797567 20:-0.60176117 21:-0.5197573 22:-0.71750206 23:-0.3203615 24:-0.24593117 25:-0.47393793 26:-0.32151881 27:0.53318077 28:1.1352117 29:-0.65956639 30:-0.12810315 31:-0.47914547 32:-0.10271824 33:-0.60606164 34:1.8893893 35:1.928591 36:-0.30647524 
1 1:-0.98463841 2:-0.40367972 3:1.563971 4:-0.77325539 5:-0.20000967 6:-0.20289119 7:-0.24341116 8:-0.23785049 9:-0.12916647 10:-0.13197532 11:-0.13984631 12:-0.12631849 13:0.45904741 14:-0.74767313 15:-0.4370267 16:-0.17027899 17:0.73577823 18:1.179773 19:-0.9797567 20:-0.60176117 21:-0.5197573 22:-0.71750206 23:-0.3203615 24:-0.24593117 25:-0.47393793 26:2.653532 27:0.53318077 28:1.1352117 29:-0.65956639 30:-0.12810315 31:-0.47914547 32:-0.10271824 33:1.5255349 34:-0.47995792 35:-0.46904288 36:-0.30647524 
0.9464642524613598 1:0.95232557 2:2.1988005 3:-0.59014405 4:-0.77325539 5:-0.20000967 6:3.6899575 7:-0.24341116 8:-0.23785049 9:-0.12916647 10:-0.13197532 11:-0.13984631 12:-0.12631849 13:-1.9658385 14:-0.74767313 15:2.0527872 16:-0.17027899 17:0.73577823 18:1.179773 19:-0.9797567 20:-0.60176117 21:-0.5197573 22:-0.71750206 23:-0.3203615 24:-0.24593117 25:-0.47393793 26:-0.32151881 27:0.53318077 28:1.1352117 29:-0.65956639 30:-0.12810315 31:-0.47914547 32:-0.10271824 33:-0.60606164 34:-0.47995792 35:-0.46904288 36:-0.30647524 
0.8185429416946117 1:0.95232557 2:-0.40367972 3:-0.59014405 4:-0.77325539 5:-0.20000967 6:-0.20289119 7:3.2680404 8:-0.23785049 9:-0.12916647 10:-0.13197532 11:-0.13984631 12:-0.12631849 13:0.45904741 14:1.2489493 15:-0.4370267 16:-0.17027899 17:0.73577823 18:-0.79285163 19:0.95707901 20:1.5357423 21:-0.5197573 22:1.2995712 23:-0.3203615 24:-0.24593117 25:-0.47393793 26:-0.32151881 27:0.53318077 28:-0.8247039 29:-0.65956639 30:-0.12810315 31:-0.47914547 32:-0.10271824 33:-0.60606164 34:-0.47995792 35:1.928591 36:-0.30647524 
0.9247284037264417 1:0.95232557 2:2.1988005 3:-0.59014405 4:-0.77325539 5:-0.20000967 6:-0.20289119 7:-0.24341116 8:-0.23785049 9:-0.12916647 10:-0.13197532 11:-0.13984631 12:-0.12631849 13:-1.9658385 14:-0.74767313 15:2.0527872 16:-0.17027899 17:0.73577823 18:1.179773 19:0.95707901 20:1.5357423 21:-0.5197573 22:1.2995712 23:-0.3203615 24:-0.24593117 25:-0.47393793 26:-0.32151881 27:0.53318077 28:-0.8247039 29:1.4084892 30:-0.12810315 31:-0.47914547 32:-0.10271824 33:1.5255349 34:1.8893893 35:1.928591 36:-0.30647524 
0.9139290153103221 1:0.95232557 2:-0.40367972 3:-0.59014405 4:-0.77325539 5:-0.20000967 6:-0.20289119 7:-0.24341116 8:-0.23785049 9:-0.12916647 10:-0.13197532 11:-0.13984631 12:-0.12631849 13:-1.9658385 14:1.2489493 15:-0.4370267 16:-0.17027899 17:0.73577823 18:-0.79285163 19:0.95707901 20:-0.60176117 21:1.7582526 22:1.2995712 23:-0.3203615 24:-0.24593117 25:-0.47393793 26:2.653532 27:0.53318077 28:-0.8247039 29:-0.65956639 30:-0.12810315 31:1.892256 32:-0.10271824 33:-0.60606164 34:-0.47995792 35:1.928591 36:-0.30647524 
0.8942292429584917 1:-0.98463841 2:-0.40367972 3:-0.59014405 4:1.2088662 5:-0.20000967 6:-0.20289119 7:-0.24341116 8:-0.23785049 9:-0.12916647 10:4.6744165 11:-0.13984631 12:-0.12631849 13:0.45904741 14:-0.74767313 15:-0.4370267 16:-0.17027899 17:-1.2684543 18:-0.79285163 19:-0.9797567 20:-0.60176117 21:-0.5197573 22:-0.71750206 23:-0.3203615 24:-0.24593117 25:-0.47393793 26:-0.32151881 27:-1.7177937 28:-0.8247039 29:-0.65956639 30:-0.12810315 31:-0.47914547 32:-0.10271824 33:-0.60606164 34:-0.47995792 35:-0.46904288 36:-0.30647524 
0.9244628397294438 1:0.95232557 2:-0.40367972 3:-0.59014405 4:-0.77325539 5:-0.20000967 6:-0.20289119 7:3.2680404 8:-0.23785049 9:-0.12916647 10:-0.13197532 11:-0.13984631 12:-0.12631849 13:0.45904741 14:-0.74767313 15:2.0527872 16:-0.17027899 17:-1.2684543 18:-0.79285163 19:-0.9797567 20:-0.60176117 21:-0.5197573 22:-0.71750206 23:-0.3203615 24:-0.24593117 25:-0.47393793 26:-0.32151881 27:0.53318077 28:-0.8247039 29:-0.65956639 30:-0.12810315 31:1.892256 32:-0.10271824 33:-0.60606164 34:-0.47995792 35:1.928591 36:-0.30647524 
0.9244477355843255 1:0.95232557 2:2.1988005 3:-0.59014405 4:1.2088662 5:-0.20000967 6:-0.20289119 7:-0.24341116 8:-0.23785049 9:-0.12916647 10:4.6744165 11:-0.13984631 12:-0.12631849 13:0.45904741 14:-0.74767313 15:2.0527872 16:-0.17027899 17:0.73577823 18:1.179773 19:-0.9797567 20:-0.60176117 21:-0.5197573 22:-0.71750206 23:-0.3203615 24:-0.24593117 25:-0.47393793 26:-0.32151881 27:0.53318077 28:1.1352117 29:-0.65956639 30:-0.12810315 31:-0.47914547 32:-0.10271824 33:1.5255349 34:-0.47995792 35:-0.46904288 36:-0.30647524 
1 1:0.95232557 2:-0.40367972 3:-0.59014405 4:-0.77325539 5:-0.20000967 6:-0.20289119 7:-0.24341116 8:-0.23785049 9:-0.12916647 10:-0.13197532 11:-0.13984631 12:-0.12631849 13:0.45904741 14:-0.74767313 15:-0.4370267 16:-0.17027899 17:0.73577823 18:-0.79285163 19:0.95707901 20:1.5357423 21:-0.5197573 22:1.2995712 23:-0.3203615 24:-0.24593117 25:-0.47393793 26:-0.32151881 27:0.53318077 28:-0.8247039 29:-0.65956639 30:-0.12810315 31:-0.47914547 32:-0.10271824 33:-0.60606164 34:1.8893893 35:-0.46904288 36:-0.30647524 
0.9244682694230141 1:0.95232557 2:-0.40367972 3:-0.59014405 4:-0.77325539 5:-0.20000967 6:-0.20289119 7:3.2680404 8:3.3210566 9:-0.12916647 10:-0.13197532 11:-0.13984631 12:-0.12631849 13:0.45904741 14:1.2489493 15:-0.4370267 16:-0.17027899 17:0.73577823 18:1.179773 19:-0.9797567 20:-0.60176117 21:-0.5197573 22:-0.71750206 23:-0.3203615 24:-0.24593117 25:-0.47393793 26:-0.32151881 27:0.53318077 28:1.1352117 29:-0.65956639 30:-0.12810315 31:-0.47914547 32:-0.10271824 33:1.5255349 34:-0.47995792 35:-0.46904288 36:-0.30647524 
1 1:0.95232557 2:-0.40367972 3:-0.59014405 4:-0.77325539 5:-0.20000967 6:-0.20289119 7:-0.24341116 8:-0.23785049 9:-0.12916647 10:-0.13197532 11:-0.13984631 12:-0.12631849 13:0.45904741 14:-0.74767313 15:-0.4370267 16:-0.17027899 17:-1.2684543 18:-0.79285163 19:-0.9797567 20:-0.60176117 21:-0.5197573 22:-0.71750206 23:-0.3203615 24:-0.24593117 25:-0.47393793 26:-0.32151881 27:0.53318077 28:-0.8247039 29:-0.65956639 30:-0.12810315 31:-0.47914547 32:-0.10271824 33:-0.60606164 34:-0.47995792 35:1.928591 36:-0.30647524 
1 1:0.95232557 2:-0.40367972 3:-0.59014405 4:-0.77325539 5:-0.20000967 6:-0.20289119 7:-0.24341116 8:-0.23785049 9:-0.12916647 10:-0.13197532 11:-0.13984631 12:-0.12631849 13:0.45904741 14:-0.74767313 15:-0.4370267 16:-0.17027899 17:0.73577823 18:-0.79285163 19:0.95707901 20:-0.60176117 21:-0.5197573 22:-0.71750206 23:-0.3203615 24:-0.24593117 25:1.9108248 26:-0.32151881 27:0.53318077 28:1.1352117 29:1.4084892 30:-0.12810315 31:-0.47914547 32:-0.10271824 33:1.5255349 34:1.8893893 35:-0.46904288 36:-0.30647524 
0.924254382574599 1:0.95232557 2:-0.40367972 3:-0.59014405 4:-0.77325539 5:-0.20000967 6:-0.20289119 7:-0.24341116 8:-0.23785049 9:-0.12916647 10:-0.13197532 11:4.5464618 12:-0.12631849 13:-1.9658385 14:-0.74767313 15:2.0527872 16:-0.17027899 17:0.73577823 18:-0.79285163 19:0.95707901 20:-0.60176117 21:1.7582526 22:1.2995712 23:-0.3203615 24:-0.24593117 25:1.9108248 26:-0.32151881 27:0.53318077 28:1.1352117 29:-0.65956639 30:-0.12810315 31:-0.47914547 32:-0.10271824 33:-0.60606164 34:-0.47995792 35:-0.46904288 36:-0.30647524 
0.9247705516411383 1:0.95232557 2:-0.40367972 3:-0.59014405 4:-0.77325539 5:-0.20000967 6:-0.20289119 7:-0.24341116 8:-0.23785049 9:-0.12916647 10:4.6744165 11:-0.13984631 12:-0.12631849 13:-1.9658385 14:-0.74767313 15:-0.4370267 16:-0.17027899 17:0.73577823 18:-0.79285163 19:0.95707901 20:-0.60176117 21:1.7582526 22:1.2995712 23:-0.3203615 24:-0.24593117 25:-0.47393793 26:-0.32151881 27:0.53318077 28:-0.8247039 29:-0.65956639 30:-0.12810315 31:-0.47914547 32:-0.10271824 33:-0.60606164 34:-0.47995792 35:-0.46904288 36:-0.30647524 
0.6602332535817793 1:0.95232557 2:-0.40367972 3:-0.59014405 4:-0.77325539 5:-0.20000967 6:-0.20289119 7:-0.24341116 8:-0.23785049 9:-0.12916647 10:-0.13197532 11:-0.13984631 12:-0.12631849 13:0.45904741 14:-0.74767313 15:-0.4370267 16:-0.17027899 17:0.73577823 18:-0.79285163 19:0.95707901 20:-0.60176117 21:1.7582526 22:1.2995712 23:-0.3203615 24:-0.24593117 25:-0.47393793 26:-0.32151881 27:0.53318077 28:-0.8247039 29:-0.65956639 30:-0.12810315 31:1.892256 32:-0.10271824 33:-0.60606164 34:-0.47995792 35:-0.46904288 36:-0.30647524 
0.8982052477938052 1:-0.98463841 2:2.1988005 3:-0.59014405 4:1.2088662 5:-0.20000967 6:-0.20289119 7:3.2680404 8:-0.23785049 9:-0.12916647 10:-0.13197532 11:-0.13984631 12:-0.12631849 13:0.45904741 14:-0.74767313 15:2.0527872 16:-0.17027899 17:-1.2684543 18:-0.79285163 19:-0.9797567 20:-0.60176117 21:-0.5197573 22:-0.71750206 23:-0.3203615 24:-0.24593117 25:-0.47393793 26:-0.32151881 27:0.53318077 28:-0.8247039 29:-0.65956639 30:-0.12810315 31:-0.47914547 32:-0.10271824 33:1.5255349 34:-0.47995792 35:-0.46904288 36:-0.30647524 
1 1:0.95232557 2:-0.40367972 3:-0.59014405 4:-0.77325539 5:-0.20000967 6:-0.20289119 7:-0.24341116 8:-0.23785049 9:-0.12916647 10:-0.13197532 11:-0.13984631 12:-0.12631849 13:-1.9658385 14:-0.74767313 15:-0.4370267 16:-0.17027899 17:0.73577823 18:-0.79285163 19:0.95707901 20:1.5357423 21:-0.5197573 22:1.2995712 23:-0.3203615 24:-0.24593117 25:-0.47393793 26:-0.32151881 27:0.53318077 28:-0.8247039 29:1.4084892 30:-0.12810315 31:-0.47914547 32:-0.10271824 33:-0.60606164 34:-0.47995792 35:-0.46904288 36:-0.30647524 
0.9262787785281976 1:-0.98463841 2:-0.40367972 3:-0.59014405 4:1.2088662 5:-0.20000967 6:-0.20289119 7:-0.24341116 8:3.3210566 9:4.7213612 10:-0.13197532 11:-0.13984631 12:-0.12631849 13:-1.9658385 14:-0.74767313 15:-0.4370267 16:4.0981952 17:-1.2684543 18:-0.79285163 19:-0.9797567 20:-0.60176117 21:-0.5197573 22:-0.71750206 23:-0.3203615 24:-0.24593117 25:-0.47393793 26:-0.32151881 27:-1.7177937 28:-0.8247039 29:-0.65956639 30:-0.12810315 31:-0.47914547 32:-0.10271824 33:-0.60606164 34:-0.47995792 35:-0.46904288 36:-0.30647524 
0.9249549631431929 1:0.95232557 2:2.1988005 3:-0.59014405 4:1.2088662 5:-0.20000967 6:-0.20289119 7:-0.24341116 8:3.3210566 9:-0.12916647 10:-0.13197532 11:-0.13984631 12:-0.12631849 13:0.45904741 14:1.2489493 15:2.0527872 16:-0.17027899 17:0.73577823 18:1.179773 19:0.95707901 20:1.5357423 21:1.7582526 22:1.2995712 23:2.661132 24:-0.24593117 25:-0.47393793 26:-0.32151881 27:0.53318077 28:-0.8247039 29:-0.65956639 30:-0.12810315 31:-0.47914547 32:-0.10271824 33:-0.60606164 34:-0.47995792 35:-0.46904288 36:-0.30647524 
0.922394115658433 1:0.95232557 2:2.1988005 3:-0.59014405 4:-0.77325539 5:-0.20000967 6:-0.20289119 7:-0.24341116 8:-0.23785049 9:-0.12916647 10:-0.13197532 11:-0.13984631 12:-0.12631849 13:0.45904741 14:-0.74767313 15:2.0527872 16:-0.17027899 17:-1.2684543 18:-0.79285163 19:-0.9797567 20:-0.60176117 21:-0.5197573 22:-0.71750206 23:-0.3203615 24:-0.24593117 25:-0.47393793 26:2.653532 27:0.53318077 28:1.1352117 29:1.4084892 30:-0.12810315 31:-0.47914547 32:-0.10271824 33:1.5255349 34:1.8893893 35:1.928591 36:-0.30647524 
1 1:0.95232557 2:-0.40367972 3:1.563971 4:-0.77325539 5:-0.20000967 6:-0.20289119 7:-0.24341116 8:-0.23785049 9:-0.12916647 10:-0.13197532 11:-0.13984631 12:-0.12631849 13:0.45904741 14:1.2489493 15:-0.4370267 16:-0.17027899 17:0.73577823 18:1.179773 19:0.95707901 20:-0.60176117 21:1.7582526 22:-0.71750206 23:-0.3203615 24:3.2444831 25:1.9108248 26:-0.32151881 27:0.53318077 28:1.1352117 29:1.4084892 30:-0.12810315 31:-0.47914547 32:-0.10271824 33:-0.60606164 34:-0.47995792 35:-0.46904288 36:-0.30647524 
0.9247544802739512 1:0.95232557 2:2.1988005 3:-0.59014405 4:1.2088662 5:3.7233507 6:3.6899575 7:-0.24341116 8:-0.23785049 9:-0.12916647 10:-0.13197532 11:-0.13984631 12:-0.12631849 13:-1.9658385 14:1.2489493 15:2.0527872 16:-0.17027899 17:-1.2684543 18:-0.79285163 19:-0.9797567 20:-0.60176117 21:-0.5197573 22:-0.71750206 23:-0.3203615 24:-0.24593117 25:-0.47393793 26:-0.32151881 27:0.53318077 28:1.1352117 29:1.4084892 30:-0.12810315 31:-0.47914547 32:-0.10271824 33:1.5255349 34:1.8893893 35:-0.46904288 36:-0.30647524 
0.9027083822089708 1:-0.98463841 2:2.1988005 3:-0.59014405 4:-0.77325539 5:-0.20000967 6:-0.20289119 7:-0.24341116 8:-0.23785049 9:-0.12916647 10:-0.13197532 11:-0.13984631 12:-0.12631849 13:-1.9658385 14:-0.74767313 15:-0.4370267 16:-0.17027899 17:-1.2684543 18:-0.79285163 19:-0.9797567 20:-0.60176117 21:-0.5197573 22:-0.71750206 23:-0.3203615 24:-0.24593117 25:-0.47393793 26:-0.32151881 27:0.53318077 28:-0.8247039 29:-0.65956639 30:-0.12810315 31:-0.47914547 32:-0.10271824 33:-0.60606164 34:-0.47995792 35:1.928591 36:-0.30647524 
1 1:0.95232557 2:-0.40367972 3:-0.59014405 4:-0.77325539 5:3.7233507 6:-0.20289119 7:-0.24341116 8:-0.23785049 9:-0.12916647 10:-0.13197532 11:-0.13984631 12:-0.12631849 13:0.45904741 14:-0.74767313 15:-0.4370267 16:-0.17027899 17:-1.2684543 18:-0.79285163 19:-0.9797567 20:-0.60176117 21:-0.5197573 22:-0.71750206 23:-0.3203615 24:-0.24593117 25:-0.47393793 26:-0.32151881 27:0.53318077 28:1.1352117 29:1.4084892 30:-0.12810315 31:-0.47914547 32:-0.10271824 33:1.5255349 34:1.8893893 35:-0.46904288 36:-0.30647524 
0.710146722768064 1:0.95232557 2:-0.40367972 3:-0.59014405 4:-0.77325539 5:-0.20000967 6:-0.20289119 7:-0.24341116 8:-0.23785049 9:-0.12916647 10:-0.13197532 11:-0.13984631 12:-0.12631849 13:-1.9658385 14:1.2489493 15:-0.4370267 16:-0.17027899 17:0.73577823 18:-0.79285163 19:0.95707901 20:-0.60176117 21:1.7582526 22:1.2995712 23:-0.3203615 24:-0.24593117 25:-0.47393793 26:-0.32151881 27:0.53318077 28:1.1352117 29:-0.65956639 30:-0.12810315 31:-0.47914547 32:-0.10271824 33:-0.60606164 34:-0.47995792 35:1.928591 36:-0.30647524 
0.9680448930951652 1:0.95232557 2:-0.40367972 3:-0.59014405 4:-0.77325539 5:-0.20000967 6:-0.20289119 7:3.2680404 8:-0.23785049 9:-0.12916647 10:-0.13197532 11:-0.13984631 12:-0.12631849 13:0.45904741 14:1.2489493 15:-0.4370267 16:-0.17027899 17:0.73577823 18:-0.79285163 19:0.95707901 20:1.5357423 21:-0.5197573 22:1.2995712 23:-0.3203615 24:-0.24593117 25:-0.47393793 26:-0.32151881 27:0.53318077 28:-0.8247039 29:1.4084892 30:-0.12810315 31:-0.47914547 32:-0.10271824 33:1.5255349 34:1.8893893 35:-0.46904288 36:-0.30647524 
0.7253479836227573 1:0.95232557 2:2.1988005 3:-0.59014405 4:-0.77325539 5:-0.20000967 6:-0.20289119 7:-0.24341116 8:-0.23785049 9:-0.12916647 10:-0.13197532 11:-0.13984631 12:-0.12631849 13:0.45904741 14:1.2489493 15:2.0527872 16:-0.17027899 17:0.73577823 18:-0.79285163 19:0.95707901 20:-0.60176117 21:1.7582526 22:1.2995712 23:-0.3203615 24:-0.24593117 25:-0.47393793 26:-0.32151881 27:0.53318077 28:1.1352117 29:1.4084892 30:-0.12810315 31:-0.47914547 32:-0.10271824 33:1.5255349 34:-0.47995792 35:1.928591 36:-0.30647524 
0.9333135496566433 1:-0.98463841 2:-0.40367972 3:1.563971 4:-0.77325539 5:-0.20000967 6:-0.20289119 7:-0.24341116 8:-0.23785049 9:-0.12916647 10:-0.13197532 11:-0.13984631 12:-0.12631849 13:-1.9658385 14:-0.74767313 15:-0.4370267 16:-0.17027899 17:0.73577823 18:-0.79285163 19:0.95707901 20:-0.60176117 21:1.7582526 22:1.2995712 23:-0.3203615 24:-0.24593117 25:-0.47393793 26:-0.32151881 27:0.53318077 28:1.1352117 29:-0.65956639 30:-0.12810315 31:-0.47914547 32:-0.10271824 33:1.5255349 34:-0.47995792 35:-0.46904288 36:-0.30647524 
0.9155754639591142 1:0.95232557 2:-0.40367972 3:-0.59014405 4:1.2088662 5:-0.20000967 6:-0.20289119 7:-0.24341116 8:-0.23785049 9:-0.12916647 10:-0.13197532 11:-0.13984631 12:-0.12631849 13:0.45904741 14:-0.74767313 15:-0.4370267 16:-0.17027899 17:0.73577823 18:1.179773 19:0.95707901 20:-0.60176117 21:1.7582526 22:1.2995712 23:-0.3203615 24:-0.24593117 25:-0.47393793 26:-0.32151881 27:0.53318077 28:-0.8247039 29:1.4084892 30:-0.12810315 31:-0.47914547 32:-0.10271824 33:-0.60606164 34:-0.47995792 35:1.928591 36:-0.30647524 
0.898698791889446 1:0.95232557 2:2.1988005 3:-0.59014405 4:-0.77325539 5:-0.20000967 6:-0.20289119 7:-0.24341116 8:-0.23785049 9:-0.12916647 10:-0.13197532 11:-0.13984631 12:-0.12631849 13:0.45904741 14:1.2489493 15:2.0527872 16:-0.17027899 17:0.73577823 18:-0.79285163 19:0.95707901 20:-0.60176117 21:-0.5197573 22:-0.71750206 23:-0.3203615 24:-0.24593117 25:1.9108248 26:-0.32151881 27:0.53318077 28:-0.8247039 29:-0.65956639 30:-0.12810315 31:-0.47914547 32:-0.10271824 33:-0.60606164 34:-0.47995792 35:-0.46904288 36:-0.30647524 
0.8452328736040785 1:0.95232557 2:-0.40367972 3:-0.59014405 4:-0.77325539 5:-0.20000967 6:-0.20289119 7:-0.24341116 8:-0.23785049 9:-0.12916647 10:-0.13197532 11:-0.13984631 12:-0.12631849 13:0.45904741 14:1.2489493 15:2.0527872 16:-0.17027899 17:-1.2684543 18:-0.79285163 19:-0.9797567 20:-0.60176117 21:-0.5197573 22:-0.71750206 23:-0.3203615 24:-0.24593117 25:-0.47393793 26:-0.32151881 27:0.53318077 28:1.1352117 29:-0.65956639 30:-0.12810315 31:-0.47914547 32:-0.10271824 33:1.5255349 34:-0.47995792 35:-0.46904288 36:-0.30647524 
0.9159337456252858 1:-0.98463841 2:-0.40367972 3:1.563971 4:-0.77325539 5:-0.20000967 6:-0.20289119 7:3.2680404 8:-0.23785049 9:-0.12916647 10:-0.13197532 11:-0.13984631 12:-0.12631849 13:0.45904741 14:1.2489493 15:-0.4370267 16:-0.17027899 17:0.73577823 18:1.179773 19:0.95707901 20:1.5357423 21:-0.5197573 22:1.2995712 23:-0.3203615 24:-0.24593117 25:-0.47393793 26:-0.32151881 27:0.53318077 28:-0.8247039 29:-0.65956639 30:-0.12810315 31:-0.47914547 32:-0.10271824 33:-0.60606164 34:1.8893893 35:-0.46904288 36:-0.30647524 
1 1:0.95232557 2:-0.40367972 3:-0.59014405 4:-0.77325539 5:-0.20000967 6:-0.20289119 7:-0.24341116 8:-0.23785049 9:-0.12916647 10:-0.13197532 11:-0.13984631 12:-0.12631849 13:0.45904741 14:1.2489493 15:2.0527872 16:-0.17027899 17:-1.2684543 18:-0.79285163 19:-0.9797567 20:-0.60176117 21:-0.5197573 22:-0.71750206 23:-0.3203615 24:-0.24593117 25:-0.47393793 26:-0.32151881 27:0.53318077 28:1.1352117 29:-0.65956639 30:-0.12810315 31:-0.47914547 32:-0.10271824 33:-0.60606164 34:-0.47995792 35:-0.46904288 36:-0.30647524 
0.5505263853874349 1:0.95232557 2:-0.40367972 3:-0.59014405 4:-0.77325539 5:-0.20000967 6:-0.20289119 7:-0.24341116 8:-0.23785049 9:-0.12916647 10:-0.13197532 11:-0.13984631 12:-0.12631849 13:-1.9658385 14:1.2489493 15:-0.4370267 16:-0.17027899 17:0.73577823 18:-0.79285163 19:0.95707901 20:-0.60176117 21:1.7582526 22:1.2995712 23:-0.3203615 24:-0.24593117 25:-0.47393793 26:-0.32151881 27:0.53318077 28:1.1352117 29:-0.65956639 30:-0.12810315 31:1.892256 32:-0.10271824 33:-0.60606164 34:-0.47995792 35:-0.46904288 36:-0.30647524 
0.9989483676124972 1:-0.98463841 2:-0.40367972 3:-0.59014405 4:1.2088662 5:-0.20000967 6:3.6899575 7:-0.24341116 8:-0.23785049 9:-0.12916647 10:-0.13197532 11:-0.13984631 12:-0.12631849 13:0.45904741 14:-0.74767313 15:-0.4370267 16:-0.17027899 17:-1.2684543 18:-0.79285163 19:-0.9797567 20:-0.60176117 21:-0.5197573 22:-0.71750206 23:-0.3203615 24:-0.24593117 25:-0.47393793 26:-0.32151881 27:-1.7177937 28:-0.8247039 29:-0.65956639 30:-0.12810315 31:-0.47914547 32:-0.10271824 33:-0.60606164 34:-0.47995792 35:-0.46904288 36:2.7554218 
0.9338004239530651 1:0.95232557 2:-0.40367972 3:-0.59014405 4:1.2088662 5:-0.20000967 6:-0.20289119 7:-0.24341116 8:-0.23785049 9:-0.12916647 10:-0.13197532 11:-0.13984631 12:-0.12631849 13:0.45904741 14:1.2489493 15:-0.4370267 16:-0.17027899 17:0.73577823 18:-0.79285163 19:0.95707901 20:-0.60176117 21:1.7582526 22:1.2995712 23:-0.3203615 24:-0.24593117 25:-0.47393793 26:2.653532 27:0.53318077 28:1.1352117 29:1.4084892 30:-0.12810315 31:-0.47914547 32:-0.10271824 33:-0.60606164 34:-0.47995792 35:1.928591 36:-0.30647524 
0.8255645134424289 1:0.95232557 2:-0.40367972 3:-0.59014405 4:-0.77325539 5:-0.20000967 6:-0.20289119 7:-0.24341116 8:-0.23785049 9:-0.12916647 10:-0.13197532 11:-0.13984631 12:-0.12631849 13:0.45904741 14:-0.74767313 15:-0.4370267 16:-0.17027899 17:0.73577823 18:-0.79285163 19:0.95707901 20:-0.60176117 21:1.7582526 22:1.2995712 23:-0.3203615 24:-0.24593117 25:-0.47393793 26:-0.32151881 27:0.53318077 28:1.1352117 29:1.4084892 30:-0.12810315 31:1.892256 32:-0.10271824 33:1.5255349 34:1.8893893 35:1.928591 36:-0.30647524 
0.8441808164471811 1:0.95232557 2:2.1988005 3:1.563971 4:-0.77325539 5:-0.20000967 6:-0.20289119 7:-0.24341116 8:-0.23785049 9:-0.12916647 10:-0.13197532 11:-0.13984631 12:-0.12631849 13:0.45904741 14:1.2489493 15:2.0527872 16:-0.17027899 17:0.73577823 18:1.179773 19:-0.9797567 20:-0.60176117 21:-0.5197573 22:-0.71750206 23:-0.3203615 24:-0.24593117 25:-0.47393793 26:-0.32151881 27:0.53318077 28:1.1352117 29:1.4084892 30:-0.12810315 31:1.892256 32:-0.10271824 33:1.5255349 34:-0.47995792 35:-0.46904288 36:-0.30647524 
0.9628617094575881 1:0.95232557 2:2.1988005 3:-0.59014405 4:-0.77325539 5:-0.20000967 6:-0.20289119 7:3.2680404 8:-0.23785049 9:-0.12916647 10:-0.13197532 11:-0.13984631 12:-0.12631849 13:-1.9658385 14:-0.74767313 15:-0.4370267 16:-0.17027899 17:-1.2684543 18:-0.79285163 19:-0.9797567 20:-0.60176117 21:-0.5197573 22:-0.71750206 23:-0.3203615 24:-0.24593117 25:-0.47393793 26:-0.32151881 27:-1.7177937 28:-0.8247039 29:-0.65956639 30:-0.12810315 31:-0.47914547 32:-0.10271824 33:-0.60606164 34:-0.47995792 35:-0.46904288 36:-0.30647524 
0.7932664867263969 1:0.95232557 2:2.1988005 3:-0.59014405 4:-0.77325539 5:-0.20000967 6:-0.20289119 7:-0.24341116 8:-0.23785049 9:-0.12916647 10:-0.13197532 11:-0.13984631 12:-0.12631849 13:0.45904741 14:-0.74767313 15:2.0527872 16:-0.17027899 17:0.73577823 18:1.179773 19:0.95707901 20:-0.60176117 21:1.7582526 22:1.2995712 23:-0.3203615 24:-0.24593117 25:-0.47393793 26:-0.32151881 27:0.53318077 28:1.1352117 29:-0.65956639 30:-0.12810315 31:-0.47914547 32:-0.10271824 33:-0.60606164 34:-0.47995792 35:-0.46904288 36:-0.30647524 
1 1:0.95232557 2:2.1988005 3:-0.59014405 4:-0.77325539 5:-0.20000967 6:-0.20289119 7:-0.24341116 8:-0.23785049 9:-0.12916647 10:-0.13197532 11:-0.13984631 12:-0.12631849 13:-1.9658385 14:-0.74767313 15:2.0527872 16:-0.17027899 17:-1.2684543 18:-0.79285163 19:-0.9797567 20:-0.60176117 21:-0.5197573 22:-0.71750206 23:-0.3203615 24:-0.24593117 25:-0.47393793 26:-0.32151881 27:0.53318077 28:1.1352117 29:1.4084892 30:-0.12810315 31:-0.47914547 32:-0.10271824 33:1.5255349 34:1.8893893 35:-0.46904288 36:-0.30647524 
0.9169322965173705 1:0.95232557 2:-0.40367972 3:-0.59014405 4:1.2088662 5:-0.20000967 6:-0.20289119 7:-0.24341116 8:-0.23785049 9:-0.12916647 10:-0.13197532 11:-0.13984631 12:-0.12631849 13:0.45904741 14:1.2489493 15:2.0527872 16:-0.17027899 17:0.73577823 18:1.179773 19:-0.9797567 20:-0.60176117 21:-0.5197573 22:-0.71750206 23:-0.3203615 24:-0.24593117 25:-0.47393793 26:-0.32151881 27:0.53318077 28:1.1352117 29:-0.65956639 30:-0.12810315 31:-0.47914547 32:-0.10271824 33:-0.60606164 34:-0.47995792 35:-0.46904288 36:-0.30647524 
0.8736429328634077 1:0.95232557 2:-0.40367972 3:-0.59014405 4:-0.77325539 5:-0.20000967 6:-0.20289119 7:-0.24341116 8:3.3210566 9:-0.12916647 10:-0.13197532 11:-0.13984631 12:-0.12631849 13:0.45904741 14:-0.74767313 15:-0.4370267 16:-0.17027899 17:0.73577823 18:1.179773 19:0.95707901 20:-0.60176117 21:-0.5197573 22:-0.71750206 23:-0.3203615 24:-0.24593117 25:1.9108248 26:-0.32151881 27:0.53318077 28:1.1352117 29:-0.65956639 30:-0.12810315 31:-0.47914547 32:-0.10271824 33:-0.60606164 34:-0.47995792 35:-0.46904288 36:-0.30647524 
0.719611488704365 1:0.95232557 2:-0.40367972 3:-0.59014405 4:-0.77325539 5:-0.20000967 6:-0.20289119 7:-0.24341116 8:-0.23785049 9:-0.12916647 10:-0.13197532 11:-0.13984631 12:-0.12631849 13:-1.9658385 14:1.2489493 15:-0.4370267 16:-0.17027899 17:0.73577823 18:-0.79285163 19:0.95707901 20:-0.60176117 21:-0.5197573 22:-0.71750206 23:-0.3203615 24:-0.24593117 25:1.9108248 26:-0.32151881 27:0.53318077 28:1.1352117 29:-0.65956639 30:-0.12810315 31:1.892256 32:-0.10271824 33:-0.60606164 34:-0.47995792 35:-0.46904288 36:-0.30647524 
0.9161662139983114 1:0.95232557 2:2.1988005 3:-0.59014405 4:-0.77325539 5:-0.20000967 6:-0.20289119 7:-0.24341116 8:-0.23785049 9:-0.12916647 10:-0.13197532 11:-0.13984631 12:-0.12631849 13:-1.9658385 14:-0.74767313 15:-0.4370267 16:-0.17027899 17:0.73577823 18:-0.79285163 19:0.95707901 20:-0.60176117 21:1.7582526 22:1.2995712 23:-0.3203615 24:3.2444831 25:-0.47393793 26:-0.32151881 27:0.53318077 28:-0.8247039 29:-0.65956639 30:-0.12810315 31:-0.47914547 32:-0.10271824 33:-0.60606164 34:-0.47995792 35:1.928591 36:-0.30647524 
0.8747242929266437 1:0.95232557 2:2.1988005 3:-0.59014405 4:-0.77325539 5:-0.20000967 6:-0.20289119 7:-0.24341116 8:-0.23785049 9:-0.12916647 10:-0.13197532 11:-0.13984631 12:-0.12631849 13:0.45904741 14:1.2489493 15:2.0527872 16:-0.17027899 17:-1.2684543 18:-0.79285163 19:-0.9797567 20:-0.60176117 21:-0.5197573 22:-0.71750206 23:-0.3203615 24:-0.24593117 25:-0.47393793 26:-0.32151881 27:0.53318077 28:1.1352117 29:-0.65956639 30:-0.12810315 31:-0.47914547 32:-0.10271824 33:1.5255349 34:-0.47995792 35:1.928591 36:-0.30647524 
0.9245766734684122 1:0.95232557 2:-0.40367972 3:-0.59014405 4:-0.77325539 5:-0.20000967 6:-0.20289119 7:-0.24341116 8:3.3210566 9:-0.12916647 10:4.6744165 11:-0.13984631 12:-0.12631849 13:0.45904741 14:-0.74767313 15:-0.4370267 16:-0.17027899 17:-1.2684543 18:-0.79285163 19:-0.9797567 20:-0.60176117 21:-0.5197573 22:-0.71750206 23:-0.3203615 24:-0.24593117 25:-0.47393793 26:-0.32151881 27:0.53318077 28:1.1352117 29:-0.65956639 30:-0.12810315 31:-0.47914547 32:-0.10271824 33:-0.60606164 34:-0.47995792 35:-0.46904288 36:-0.30647524 
1 1:-0.98463841 2:-0.40367972 3:1.563971 4:-0.77325539 5:-0.20000967 6:-0.20289119 7:-0.24341116 8:-0.23785049 9:-0.12916647 10:-0.13197532 11:-0.13984631 12:-0.12631849 13:0.45904741 14:-0.74767313 15:-0.4370267 16:-0.17027899 17:0.73577823 18:1.179773 19:-0.9797567 20:-0.60176117 21:-0.5197573 22:-0.71750206 23:-0.3203615 24:-0.24593117 25:-0.47393793 26:-0.32151881 27:0.53318077 28:-0.8247039 29:-0.65956639 30:-0.12810315 31:-0.47914547 32:-0.10271824 33:-0.60606164 34:-0.47995792 35:-0.46904288 36:-0.30647524 
0.9200526069042043 1:0.95232557 2:-0.40367972 3:-0.59014405 4:-0.77325539 5:-0.20000967 6:-0.20289119 7:-0.24341116 8:3.3210566 9:-0.12916647 10:-0.13197532 11:-0.13984631 12:-0.12631849 13:0.45904741 14:-0.74767313 15:-0.4370267 16:-0.17027899 17:0.73577823 18:1.179773 19:-0.9797567 20:-0.60176117 21:-0.5197573 22:-0.71750206 23:-0.3203615 24:-0.24593117 25:-0.47393793 26:-0.32151881 27:0.53318077 28:-0.8247039 29:1.4084892 30:-0.12810315 31:-0.47914547 32:-0.10271824 33:-0.60606164 34:1.8893893 35:-0.46904288 36:-0.30647524 
1 1:0.95232557 2:-0.40367972 3:-0.59014405 4:1.2088662 5:-0.20000967 6:-0.20289119 7:-0.24341116 8:-0.23785049 9:-0.12916647 10:-0.13197532 11:-0.13984631 12:-0.12631849 13:0.45904741 14:1.2489493 15:-0.4370267 16:-0.17027899 17:0.73577823 18:-0.79285163 19:0.95707901 20:1.5357423 21:1.7582526 22:1.2995712 23:-0.3203615 24:-0.24593117 25:-0.47393793 26:-0.32151881 27:0.53318077 28:-0.8247039 29:-0.65956639 30:-0.12810315 31:-0.47914547 32:-0.10271824 33:-0.60606164 34:-0.47995792 35:-0.46904288 36:-0.30647524 
1 1:0.95232557 2:-0.40367972 3:-0.59014405 4:-0.77325539 5:-0.20000967 6:-0.20289119 7:-0.24341116 8:-0.23785049 9:-0.12916647 10:-0.13197532 11:-0.13984631 12:-0.12631849 13:-1.9658385 14:-0.74767313 15:-0.4370267 16:-0.17027899 17:0.73577823 18:-0.79285163 19:0.95707901 20:1.5357423 21:1.7582526 22:1.2995712 23:-0.3203615 24:-0.24593117 25:-0.47393793 26:-0.32151881 27:0.53318077 28:-0.8247039 29:-0.65956639 30:-0.12810315 31:-0.47914547 32:-0.10271824 33:-0.60606164 34:-0.47995792 35:1.928591 36:-0.30647524 
0.9094648019562356 1:-0.98463841 2:-0.40367972 3:-0.59014405 4:1.2088662 5:-0.20000967 6:-0.20289119 7:-0.24341116 8:-0.23785049 9:-0.12916647 10:-0.13197532 11:-0.13984631 12:-0.12631849 13:0.45904741 14:-0.74767313 15:-0.4370267 16:-0.17027899 17:0.73577823 18:1.179773 19:0.95707901 20:-0.60176117 21:-0.5197573 22:-0.71750206 23:-0.3203615 24:-0.24593117 25:1.9108248 26:-0.32151881 27:0.53318077 28:-0.8247039 29:-0.65956639 30:-0.12810315 31:-0.47914547 32:-0.10271824 33:-0.60606164 34:-0.47995792 35:-0.46904288 36:-0.30647524 
0.8704237972502992 1:-0.98463841 2:2.1988005 3:-0.59014405 4:-0.77325539 5:-0.20000967 6:-0.20289119 7:-0.24341116 8:-0.23785049 9:-0.12916647 10:-0.13197532 11:-0.13984631 12:-0.12631849 13:0.45904741 14:-0.74767313 15:2.0527872 16:-0.17027899 17:0.73577823 18:1.179773 19:0.95707901 20:1.5357423 21:-0.5197573 22:-0.71750206 23:2.661132 24:-0.24593117 25:-0.47393793 26:-0.32151881 27:0.53318077 28:1.1352117 29:1.4084892 30:-0.12810315 31:-0.47914547 32:-0.10271824 33:-0.60606164 34:-0.47995792 35:-0.46904288 36:-0.30647524 
1 1:-0.98463841 2:-0.40367972 3:-0.59014405 4:-0.77325539 5:-0.20000967 6:-0.20289119 7:-0.24341116 8:-0.23785049 9:4.7213612 10:-0.13197532 11:-0.13984631 12:-0.12631849 13:0.45904741 14:-0.74767313 15:-0.4370267 16:4.0981952 17:-1.2684543 18:-0.79285163 19:-0.9797567 20:-0.60176117 21:-0.5197573 22:-0.71750206 23:-0.3203615 24:-0.24593117 25:-0.47393793 26:-0.32151881 27:-1.7177937 28:-0.8247039 29:-0.65956639 30:-0.12810315 31:-0.47914547 32:-0.10271824 33:-0.60606164 34:-0.47995792 35:-0.46904288 36:-0.30647524 
1 1:-0.98463841 2:-0.40367972 3:1.563971 4:-0.77325539 5:-0.20000967 6:-0.20289119 7:-0.24341116 8:-0.23785049 9:-0.12916647 10:-0.13197532 11:-0.13984631 12:-0.12631849 13:0.45904741 14:-0.74767313 15:-0.4370267 16:-0.17027899 17:0.73577823 18:-0.79285163 19:0.95707901 20:-0.60176117 21:-0.5197573 22:-0.71750206 23:-0.3203615 24:-0.24593117 25:1.9108248 26:-0.32151881 27:0.53318077 28:1.1352117 29:-0.65956639 30:-0.12810315 31:-0.47914547 32:-0.10271824 33:-0.60606164 34:-0.47995792 35:-0.46904288 36:-0.30647524 
1 1:-0.98463841 2:-0.40367972 3:-0.59014405 4:-0.77325539 5:-0.20000967 6:3.6899575 7:-0.24341116 8:-0.23785049 9:-0.12916647 10:-0.13197532 11:-0.13984631 12:-0.12631849 13:0.45904741 14:-0.74767313 15:-0.4370267 16:-0.17027899 17:0.73577823 18:1.179773 19:0.95707901 20:-0.60176117 21:1.7582526 22:1.2995712 23:-0.3203615 24:-0.24593117 25:-0.47393793 26:-0.32151881 27:0.53318077 28:1.1352117 29:-0.65956639 30:-0.12810315 31:-0.47914547 32:-0.10271824 33:-0.60606164 34:-0.47995792 35:-0.46904288 36:-0.30647524 
0.8714957881854514 1:0.95232557 2:2.1988005 3:-0.59014405 4:-0.77325539 5:-0.20000967 6:-0.20289119 7:-0.24341116 8:-0.23785049 9:-0.12916647 10:-0.13197532 11:-0.13984631 12:-0.12631849 13:0.45904741 14:-0.74767313 15:-0.4370267 16:-0.17027899 17:0.73577823 18:-0.79285163 19:0.95707901 20:-0.60176117 21:1.7582526 22:1.2995712 23:-0.3203615 24:-0.24593117 25:-0.47393793 26:-0.32151881 27:0.53318077 28:-0.8247039 29:-0.65956639 30:-0.12810315 31:-0.47914547 32:-0.10271824 33:1.5255349 34:-0.47995792 35:-0.46904288 36:-0.30647524 
0.7519824217839014 1:0.95232557 2:2.1988005 3:-0.59014405 4:-0.77325539 5:-0.20000967 6:-0.20289119 7:-0.24341116 8:-0.23785049 9:-0.12916647 10:-0.13197532 11:-0.13984631 12:-0.12631849 13:-1.9658385 14:-0.74767313 15:2.0527872 16:-0.17027899 17:0.73577823 18:1.179773 19:0.95707901 20:-0.60176117 21:-0.5197573 22:-0.71750206 23:-0.3203615 24:-0.24593117 25:1.9108248 26:-0.32151881 27:0.53318077 28:-0.8247039 29:1.4084892 30:-0.12810315 31:-0.47914547 32:-0.10271824 33:-0.60606164 34:-0.47995792 35:-0.46904288 36:-0.30647524 
0.9238091157662407 1:0.95232557 2:2.1988005 3:-0.59014405 4:1.2088662 5:-0.20000967 6:-0.20289119 7:-0.24341116 8:-0.23785049 9:-0.12916647 10:-0.13197532 11:-0.13984631 12:-0.12631849 13:0.45904741 14:1.2489493 15:-0.4370267 16:-0.17027899 17:-1.2684543 18:-0.79285163 19:-0.9797567 20:-0.60176117 21:-0.5197573 22:-0.71750206 23:-0.3203615 24:-0.24593117 25:-0.47393793 26:-0.32151881 27:0.53318077 28:-0.8247039 29:-0.65956639 30:-0.12810315 31:1.892256 32:-0.10271824 33:1.5255349 34:-0.47995792 35:-0.46904288 36:2.7554218 
0.6941313986048877 1:0.95232557 2:2.1988005 3:-0.59014405 4:-0.77325539 5:-0.20000967 6:-0.20289119 7:-0.24341116 8:-0.23785049 9:-0.12916647 10:-0.13197532 11:-0.13984631 12:-0.12631849 13:-1.9658385 14:-0.74767313 15:2.0527872 16:-0.17027899 17:0.73577823 18:-0.79285163 19:0.95707901 20:-0.60176117 21:-0.5197573 22:-0.71750206 23:-0.3203615 24:-0.24593117 25:1.9108248 26:-0.32151881 27:0.53318077 28:1.1352117 29:-0.65956639 30:-0.12810315 31:-0.47914547 32:-0.10271824 33:1.5255349 34:1.8893893 35:-0.46904288 36:-0.30647524 
0.8001213560038789 1:-0.98463841 2:-0.40367972 3:-0.59014405 4:-0.77325539 5:-0.20000967 6:-0.20289119 7:-0.24341116 8:-0.23785049 9:-0.12916647 10:-0.13197532 11:-0.13984631 12:-0.12631849 13:-1.9658385 14:-0.74767313 15:-0.4370267 16:-0.17027899 17:-1.2684543 18:-0.79285163 19:-0.9797567 20:-0.60176117 21:-0.5197573 22:-0.71750206 23:-0.3203615 24:-0.24593117 25:-0.47393793 26:-0.32151881 27:0.53318077 28:-0.8247039 29:1.4084892 30:-0.12810315 31:-0.47914547 32:-0.10271824 33:1.5255349 34:1.8893893 35:-0.46904288 36:-0.30647524 
0.7270593987069188 1:-0.98463841 2:-0.40367972 3:-0.59014405 4:1.2088662 5:-0.20000967 6:-0.20289119 7:-0.24341116 8:-0.23785049 9:-0.12916647 10:-0.13197532 11:-0.13984631 12:-0.12631849 13:0.45904741 14:1.2489493 15:-0.4370267 16:-0.17027899 17:0.73577823 18:-0.79285163 19:0.95707901 20:-0.60176117 21:1.7582526 22:1.2995712 23:-0.3203615 24:-0.24593117 25:-0.47393793 26:-0.32151881 27:0.53318077 28:-0.8247039 29:-0.65956639 30:-0.12810315 31:-0.47914547 32:-0.10271824 33:-0.60606164 34:-0.47995792 35:1.928591 36:-0.30647524 
1 1:0.95232557 2:-0.40367972 3:-0.59014405 4:-0.77325539 5:-0.20000967 6:-0.20289119 7:-0.24341116 8:-0.23785049 9:-0.12916647 10:-0.13197532 11:-0.13984631 12:-0.12631849 13:0.45904741 14:1.2489493 15:-0.4370267 16:-0.17027899 17:0.73577823 18:-0.79285163 19:0.95707901 20:-0.60176117 21:1.7582526 22:1.2995712 23:-0.3203615 24:-0.24593117 25:-0.47393793 26:-0.32151881 27:0.53318077 28:-0.8247039 29:-0.65956639 30:-0.12810315 31:-0.47914547 32:-0.10271824 33:-0.60606164 34:-0.47995792 35:1.928591 36:-0.30647524 
0.958632220121336 1:0.95232557 2:-0.40367972 3:-0.59014405 4:-0.77325539 5:-0.20000967 6:-0.20289119 7:-0.24341116 8:-0.23785049 9:-0.12916647 10:-0.13197532 11:-0.13984631 12:-0.12631849 13:0.45904741 14:-0.74767313 15:-0.4370267 16:-0.17027899 17:0.73577823 18:1.179773 19:0.95707901 20:1.5357423 21:-0.5197573 22:1.2995712 23:-0.3203615 24:-0.24593117 25:-0.47393793 26:-0.32151881 27:0.53318077 28:-0.8247039 29:-0.65956639 30:-0.12810315 31:-0.47914547 32:-0.10271824 33:-0.60606164 34:-0.47995792 35:1.928591 36:-0.30647524 
0.8478067940589659 1:0.95232557 2:-0.40367972 3:-0.59014405 4:1.2088662 5:-0.20000967 6:-0.20289119 7:-0.24341116 8:-0.23785049 9:-0.12916647 10:-0.13197532 11:-0.13984631 12:-0.12631849 13:0.45904741 14:1.2489493 15:-0.4370267 16:4.0981952 17:0.73577823 18:-0.79285163 19:0.95707901 20:-0.60176117 21:1.7582526 22:1.2995712 23:-0.3203615 24:-0.24593117 25:-0.47393793 26:-0.32151881 27:0.53318077 28:-0.8247039 29:1.4084892 30:-0.12810315 31:-0.47914547 32:-0.10271824 33:-0.60606164 34:-0.47995792 35:-0.46904288 36:-0.30647524 
1 1:0.95232557 2:-0.40367972 3:-0.59014405 4:-0.77325539 5:-0.20000967 6:-0.20289119 7:-0.24341116 8:-0.23785049 9:-0.12916647 10:-0.13197532 11:-0.13984631 12:-0.12631849 13:0.45904741 14:-0.74767313 15:-0.4370267 16:-0.17027899 17:0.73577823 18:1.179773 19:-0.9797567 20:-0.60176117 21:-0.5197573 22:-0.71750206 23:-0.3203615 24:-0.24593117 25:-0.47393793 26:-0.32151881 27:0.53318077 28:-0.8247039 29:-0.65956639 30:-0.12810315 31:-0.47914547 32:-0.10271824 33:-0.60606164 34:1.8893893 35:-0.46904288 36:-0.30647524 
0.8647882332489818 1:-0.98463841 2:-0.40367972 3:1.563971 4:1.2088662 5:-0.20000967 6:-0.20289119 7:-0.24341116 8:-0.23785049 9:-0.12916647 10:-0.13197532 11:-0.13984631 12:-0.12631849 13:0.45904741 14:-0.74767313 15:-0.4370267 16:-0.17027899 17:0.73577823 18:1.179773 19:0.95707901 20:-0.60176117 21:1.7582526 22:1.2995712 23:-0.3203615 24:-0.24593117 25:-0.47393793 26:-0.32151881 27:0.53318077 28:1.1352117 29:1.4084892 30:-0.12810315 31:-0.47914547 32:-0.10271824 33:1.5255349 34:1.8893893 35:-0.46904288 36:-0.30647524 
0.8173514054949038 1:0.95232557 2:2.1988005 3:-0.59014405 4:-0.77325539 5:-0.20000967 6:-0.20289119 7:-0.24341116 8:-0.23785049 9:-0.12916647 10:-0.13197532 11:-0.13984631 12:-0.12631849 13:0.45904741 14:1.2489493 15:2.0527872 16:-0.17027899 17:0.73577823 18:-0.79285163 19:0.95707901 20:-0.60176117 21:1.7582526 22:1.2995712 23:-0.3203615 24:-0.24593117 25:-0.47393793 26:-0.32151881 27:0.53318077 28:1.1352117 29:1.4084892 30:-0.12810315 31:-0.47914547 32:-0.10271824 33:-0.60606164 34:-0.47995792 35:1.928591 36:-0.30647524 
0.9238050719071389 1:0.95232557 2:-0.40367972 3:-0.59014405 4:1.2088662 5:-0.20000967 6:-0.20289119 7:-0.24341116 8:3.3210566 9:-0.12916647 10:-0.13197532 11:-0.13984631 12:-0.12631849 13:0.45904741 14:1.2489493 15:-0.4370267 16:-0.17027899 17:0.73577823 18:1.179773 19:0.95707901 20:-0.60176117 21:1.7582526 22:1.2995712 23:-0.3203615 24:-0.24593117 25:-0.47393793 26:-0.32151881 27:0.53318077 28:1.1352117 29:-0.65956639 30:-0.12810315 31:-0.47914547 32:-0.10271824 33:-0.60606164 34:-0.47995792 35:-0.46904288 36:2.7554218 
0.9244663776340679 1:-0.98463841 2:-0.40367972 3:-0.59014405 4:1.2088662 5:-0.20000967 6:-0.20289119 7:-0.24341116 8:3.3210566 9:-0.12916647 10:-0.13197532 11:4.5464618 12:-0.12631849 13:0.45904741 14:-0.74767313 15:2.0527872 16:-0.17027899 17:0.73577823 18:1.179773 19:0.95707901 20:1.5357423 21:-0.5197573 22:1.2995712 23:-0.3203615 24:-0.24593117 25:-0.47393793 26:2.653532 27:0.53318077 28:-0.8247039 29:-0.65956639 30:-0.12810315 31:-0.47914547 32:-0.10271824 33:-0.60606164 34:-0.47995792 35:-0.46904288 36:-0.30647524 
0.911947561653128 1:0.95232557 2:2.1988005 3:-0.59014405 4:-0.77325539 5:-0.20000967 6:-0.20289119 7:-0.24341116 8:-0.23785049 9:-0.12916647 10:-0.13197532 11:-0.13984631 12:-0.12631849 13:0.45904741 14:-0.74767313 15:2.0527872 16:-0.17027899 17:0.73577823 18:1.179773 19:0.95707901 20:-0.60176117 21:1.7582526 22:1.2995712 23:-0.3203615 24:-0.24593117 25:-0.47393793 26:-0.32151881 27:0.53318077 28:-0.8247039 29:-0.65956639 30:-0.12810315 31:1.892256 32:-0.10271824 33:-0.60606164 34:-0.47995792 35:-0.46904288 36:-0.30647524 
1 1:0.95232557 2:-0.40367972 3:-0.59014405 4:1.2088662 5:-0.20000967 6:-0.20289119 7:-0.24341116 8:-0.23785049 9:-0.12916647 10:-0.13197532 11:-0.13984631 12:-0.12631849 13:0.45904741 14:-0.74767313 15:-0.4370267 16:-0.17027899 17:0.73577823 18:1.179773 19:-0.9797567 20:-0.60176117 21:-0.5197573 22:-0.71750206 23:-0.3203615 24:-0.24593117 25:-0.47393793 26:-0.32151881 27:0.53318077 28:1.1352117 29:-0.65956639 30:-0.12810315 31:-0.47914547 32:-0.10271824 33:-0.60606164 34:-0.47995792 35:-0.46904288 36:-0.30647524 
0.8058570551317714 1:0.95232557 2:2.1988005 3:-0.59014405 4:-0.77325539 5:-0.20000967 6:-0.20289119 7:-0.24341116 8:-0.23785049 9:-0.12916647 10:-0.13197532 11:-0.13984631 12:-0.12631849 13:0.45904741 14:-0.74767313 15:-0.4370267 16:-0.17027899 17:-1.2684543 18:-0.79285163 19:-0.9797567 20:-0.60176117 21:-0.5197573 22:-0.71750206 23:-0.3203615 24:-0.24593117 25:-0.47393793 26:-0.32151881 27:0.53318077 28:-0.8247039 29:-0.65956639 30:-0.12810315 31:-0.47914547 32:-0.10271824 33:-0.60606164 34:-0.47995792 35:-0.46904288 36:-0.30647524 
0.5350489605208805 1:0.95232557 2:-0.40367972 3:-0.59014405 4:1.2088662 5:-0.20000967 6:-0.20289119 7:-0.24341116 8:-0.23785049 9:-0.12916647 10:-0.13197532 11:-0.13984631 12:-0.12631849 13:0.45904741 14:-0.74767313 15:-0.4370267 16:-0.17027899 17:0.73577823 18:1.179773 19:0.95707901 20:1.5357423 21:-0.5197573 22:1.2995712 23:-0.3203615 24:-0.24593117 25:-0.47393793 26:-0.32151881 27:0.53318077 28:-0.8247039 29:-0.65956639 30:-0.12810315 31:-0.47914547 32:-0.10271824 33:-0.60606164 34:-0.47995792 35:-0.46904288 36:-0.30647524 
0.9573586917645606 1:0.95232557 2:-0.40367972 3:-0.59014405 4:-0.77325539 5:-0.20000967 6:-0.20289119 7:-0.24341116 8:3.3210566 9:-0.12916647 10:-0.13197532 11:-0.13984631 12:-0.12631849 13:0.45904741 14:-0.74767313 15:-0.4370267 16:-0.17027899 17:0.73577823 18:1.179773 19:0.95707901 20:-0.60176117 21:-0.5197573 22:-0.71750206 23:-0.3203615 24:-0.24593117 25:1.9108248 26:-0.32151881 27:0.53318077 28:-0.8247039 29:-0.65956639 30:-0.12810315 31:-0.47914547 32:-0.10271824 33:-0.60606164 34:-0.47995792 35:-0.46904288 36:-0.30647524 
0.9246160441298192 1:-0.98463841 2:-0.40367972 3:-0.59014405 4:1.2088662 5:-0.20000967 6:-0.20289119 7:-0.24341116 8:-0.23785049 9:-0.12916647 10:-0.13197532 11:-0.13984631 12:-0.12631849 13:0.45904741 14:-0.74767313 15:-0.4370267 16:-0.17027899 17:0.73577823 18:1.179773 19:0.95707901 20:1.5357423 21:1.7582526 22:1.2995712 23:-0.3203615 24:3.2444831 25:-0.47393793 26:2.653532 27:0.53318077 28:-0.8247039 29:-0.65956639 30:-0.12810315 31:-0.47914547 32:-0.10271824 33:-0.60606164 34:1.8893893 35:-0.46904288 36:-0.30647524 
0.9178240267813204 1:0.95232557 2:2.1988005 3:-0.59014405 4:-0.77325539 5:-0.20000967 6:-0.20289119 7:-0.24341116 8:-0.23785049 9:-0.12916647 10:-0.13197532 11:-0.13984631 12:-0.12631849 13:0.45904741 14:-0.74767313 15:2.0527872 16:-0.17027899 17:0.73577823 18:1.179773 19:-0.9797567 20:-0.60176117 21:-0.5197573 22:-0.71750206 23:-0.3203615 24:-0.24593117 25:-0.47393793 26:2.653532 27:0.53318077 28:-0.8247039 29:-0.65956639 30:-0.12810315 31:-0.47914547 32:-0.10271824 33:1.5255349 34:-0.47995792 35:-0.46904288 36:-0.30647524 
1 1:0.95232557 2:-0.40367972 3:-0.59014405 4:1.2088662 5:-0.20000967 6:-0.20289119 7:-0.24341116 8:-0.23785049 9:-0.12916647 10:-0.13197532 11:-0.13984631 12:-0.12631849 13:0.45904741 14:1.2489493 15:-0.4370267 16:-0.17027899 17:0.73577823 18:1.179773 19:0.95707901 20:-0.60176117 21:1.7582526 22:1.2995712 23:-0.3203615 24:-0.24593117 25:-0.47393793 26:-0.32151881 27:0.53318077 28:-0.8247039 29:1.4084892 30:-0.12810315 31:-0.47914547 32:-0.10271824 33:-0.60606164 34:-0.47995792 35:-0.46904288 36:-0.30647524 
1 1:0.95232557 2:-0.40367972 3:-0.59014405 4:-0.77325539 5:-0.20000967 6:-0.20289119 7:3.2680404 8:-0.23785049 9:-0.12916647 10:-0.13197532 11:-0.13984631 12:-0.12631849 13:0.45904741 14:-0.74767313 15:-0.4370267 16:-0.17027899 17:-1.2684543 18:-0.79285163 19:-0.9797567 20:-0.60176117 21:-0.5197573 22:-0.71750206 23:-0.3203615 24:-0.24593117 25:-0.47393793 26:-0.32151881 27:0.53318077 28:-0.8247039 29:1.4084892 30:-0.12810315 31:-0.47914547 32:-0.10271824 33:-0.60606164 34:1.8893893 35:-0.46904288 36:-0.30647524 
0.9219005559951841 1:0.95232557 2:-0.40367972 3:-0.59014405 4:-0.77325539 5:-0.20000967 6:-0.20289119 7:3.2680404 8:-0.23785049 9:-0.12916647 10:-0.13197532 11:-0.13984631 12:-0.12631849 13:0.45904741 14:1.2489493 15:-0.4370267 16:-0.17027899 17:0.73577823 18:-0.79285163 19:-0.9797567 20:-0.60176117 21:-0.5197573 22:-0.71750206 23:-0.3203615 24:-0.24593117 25:-0.47393793 26:-0.32151881 27:0.53318077 28:-0.8247039 29:1.4084892 30:-0.12810315 31:-0.47914547 32:-0.10271824 33:1.5255349 34:1.8893893 35:-0.46904288 36:-0.30647524 
1 1:0.95232557 2:-0.40367972 3:-0.59014405 4:-0.77325539 5:-0.20000967 6:-0.20289119 7:-0.24341116 8:-0.23785049 9:-0.12916647 10:-0.13197532 11:-0.13984631 12:-0.12631849 13:0.45904741 14:1.2489493 15:-0.4370267 16:-0.17027899 17:0.73577823 18:1.179773 19:-0.9797567 20:-0.60176117 21:-0.5197573 22:-0.71750206 23:-0.3203615 24:-0.24593117 25:-0.47393793 26:-0.32151881 27:0.53318077 28:-0.8247039 29:-0.65956639 30:-0.12810315 31:1.892256 32:-0.10271824 33:-0.60606164 34:-0.47995792 35:-0.46904288 36:-0.30647524 
0.9220614042293535 1:-0.98463841 2:-0.40367972 3:1.563971 4:1.2088662 5:-0.20000967 6:-0.20289119 7:-0.24341116 8:3.3210566 9:-0.12916647 10:-0.13197532 11:-0.13984631 12:-0.12631849 13:0.45904741 14:1.2489493 15:-0.4370267 16:-0.17027899 17:0.73577823 18:1.179773 19:-0.9797567 20:-0.60176117 21:-0.5197573 22:-0.71750206 23:-0.3203615 24:-0.24593117 25:-0.47393793 26:-0.32151881 27:0.53318077 28:-0.8247039 29:1.4084892 30:-0.12810315 31:-0.47914547 32:-0.10271824 33:-0.60606164 34:1.8893893 35:-0.46904288 36:-0.30647524 
0.9246601707125209 1:-0.98463841 2:-0.40367972 3:1.563971 4:-0.77325539 5:-0.20000967 6:-0.20289119 7:-0.24341116 8:3.3210566 9:-0.12916647 10:-0.13197532 11:-0.13984631 12:-0.12631849 13:0.45904741 14:1.2489493 15:-0.4370267 16:-0.17027899 17:-1.2684543 18:-0.79285163 19:-0.9797567 20:-0.60176117 21:-0.5197573 22:-0.71750206 23:-0.3203615 24:-0.24593117 25:-0.47393793 26:2.653532 27:0.53318077 28:1.1352117 29:-0.65956639 30:-0.12810315 31:-0.47914547 32:-0.10271824 33:-0.60606164 34:1.8893893 35:-0.46904288 36:2.7554218 
0.9309633065776807 1:0.95232557 2:-0.40367972 3:-0.59014405 4:1.2088662 5:-0.20000967 6:-0.20289119 7:-0.24341116 8:-0.23785049 9:-0.12916647 10:-0.13197532 11:-0.13984631 12:-0.12631849 13:0.45904741 14:-0.74767313 15:-0.4370267 16:-0.17027899 17:0.73577823 18:-0.79285163 19:0.95707901 20:1.5357423 21:-0.5197573 22:1.2995712 23:-0.3203615 24:-0.24593117 25:1.9108248 26:-0.32151881 27:0.53318077 28:-0.8247039 29:-0.65956639 30:-0.12810315 31:-0.47914547 32:-0.10271824 33:1.5255349 34:1.8893893 35:1.928591 36:-0.30647524 
1 1:0.95232557 2:-0.40367972 3:1.563971 4:-0.77325539 5:-0.20000967 6:-0.20289119 7:-0.24341116 8:-0.23785049 9:-0.12916647 10:-0.13197532 11:-0.13984631 12:-0.12631849 13:0.45904741 14:1.2489493 15:-0.4370267 16:-0.17027899 17:0.73577823 18:1.179773 19:0.95707901 20:-0.60176117 21:1.7582526 22:1.2995712 23:-0.3203615 24:-0.24593117 25:-0.47393793 26:-0.32151881 27:0.53318077 28:1.1352117 29:-0.65956639 30:-0.12810315 31:-0.47914547 32:-0.10271824 33:-0.60606164 34:-0.47995792 35:1.928591 36:-0.30647524 
0.6881165307283592 1:0.95232557 2:2.1988005 3:-0.59014405 4:-0.77325539 5:-0.20000967 6:-0.20289119 7:-0.24341116 8:-0.23785049 9:-0.12916647 10:-0.13197532 11:-0.13984631 12:-0.12631849 13:0.45904741 14:1.2489493 15:-0.4370267 16:-0.17027899 17:-1.2684543 18:-0.79285163 19:-0.9797567 20:-0.60176117 21:-0.5197573 22:-0.71750206 23:-0.3203615 24:-0.24593117 25:-0.47393793 26:-0.32151881 27:0.53318077 28:-0.8247039 29:-0.65956639 30:-0.12810315 31:-0.47914547 32:-0.10271824 33:-0.60606164 34:-0.47995792 35:-0.46904288 36:-0.30647524 
0.9024102868391899 1:-0.98463841 2:2.1988005 3:1.563971 4:1.2088662 5:-0.20000967 6:-0.20289119 7:-0.24341116 8:-0.23785049 9:-0.12916647 10:-0.13197532 11:-0.13984631 12:-0.12631849 13:-1.9658385 14:1.2489493 15:2.0527872 16:-0.17027899 17:0.73577823 18:-0.79285163 19:0.95707901 20:1.5357423 21:-0.5197573 22:-0.71750206 23:2.661132 24:-0.24593117 25:-0.47393793 26:-0.32151881 27:0.53318077 28:1.1352117 29:1.4084892 30:-0.12810315 31:-0.47914547 32:-0.10271824 33:-0.60606164 34:-0.47995792 35:-0.46904288 36:-0.30647524 
0.9415445910751822 1:-0.98463841 2:-0.40367972 3:-0.59014405 4:-0.77325539 5:-0.20000967 6:-0.20289119 7:-0.24341116 8:-0.23785049 9:-0.12916647 10:-0.13197532 11:-0.13984631 12:-0.12631849 13:0.45904741 14:-0.74767313 15:-0.4370267 16:-0.17027899 17:-1.2684543 18:-0.79285163 19:-0.9797567 20:-0.60176117 21:-0.5197573 22:-0.71750206 23:-0.3203615 24:-0.24593117 25:-0.47393793 26:2.653532 27:0.53318077 28:-0.8247039 29:-0.65956639 30:-0.12810315 31:-0.47914547 32:-0.10271824 33:-0.60606164 34:-0.47995792 35:-0.46904288 36:-0.30647524 
0.6922004200142184 1:-0.98463841 2:-0.40367972 3:-0.59014405 4:1.2088662 5:-0.20000967 6:3.6899575 7:-0.24341116 8:-0.23785049 9:-0.12916647 10:-0.13197532 11:-0.13984631 12:-0.12631849 13:0.45904741 14:-0.74767313 15:-0.4370267 16:-0.17027899 17:-1.2684543 18:-0.79285163 19:-0.9797567 20:-0.60176117 21:-0.5197573 22:-0.71750206 23:-0.3203615 24:-0.24593117 25:-0.47393793 26:-0.32151881 27:0.53318077 28:-0.8247039 29:-0.65956639 30:-0.12810315 31:-0.47914547 32:-0.10271824 33:1.5255349 34:-0.47995792 35:-0.46904288 36:-0.30647524 
0.9239612864782918 1:-0.98463841 2:2.1988005 3:-0.59014405 4:-0.77325539 5:-0.20000967 6:-0.20289119 7:3.2680404 8:-0.23785049 9:-0.12916647 10:-0.13197532 11:-0.13984631 12:-0.12631849 13:0.45904741 14:1.2489493 15:2.0527872 16:-0.17027899 17:0.73577823 18:-0.79285163 19:0.95707901 20:-0.60176117 21:1.7582526 22:1.2995712 23:-0.3203615 24:-0.24593117 25:-0.47393793 26:-0.32151881 27:0.53318077 28:1.1352117 29:1.4084892 30:-0.12810315 31:1.892256 32:-0.10271824 33:-0.60606164 34:-0.47995792 35:-0.46904288 36:-0.30647524 
0.9052365150052192 1:-0.98463841 2:-0.40367972 3:1.563971 4:1.2088662 5:-0.20000967 6:-0.20289119 7:-0.24341116 8:-0.23785049 9:-0.12916647 10:-0.13197532 11:-0.13984631 12:-0.12631849 13:0.45904741 14:-0.74767313 15:-0.4370267 16:-0.17027899 17:0.73577823 18:1.179773 19:0.95707901 20:-0.60176117 21:1.7582526 22:1.2995712 23:-0.3203615 24:-0.24593117 25:-0.47393793 26:-0.32151881 27:0.53318077 28:-0.8247039 29:1.4084892 30:-0.12810315 31:-0.47914547 32:-0.10271824 33:1.5255349 34:-0.47995792 35:-0.46904288 36:-0.30647524 
0.9316519461104609 1:-0.98463841 2:-0.40367972 3:-0.59014405 4:-0.77325539 5:-0.20000967 6:-0.20289119 7:-0.24341116 8:-0.23785049 9:-0.12916647 10:-0.13197532 11:4.5464618 12:-0.12631849 13:0.45904741 14:-0.74767313 15:-0.4370267 16:-0.17027899 17:0.73577823 18:-0.79285163 19:0.95707901 20:1.5357423 21:-0.5197573 22:1.2995712 23:-0.3203615 24:-0.24593117 25:-0.47393793 26:-0.32151881 27:0.53318077 28:-0.8247039 29:-0.65956639 30:-0.12810315 31:-0.47914547 32:-0.10271824 33:-0.60606164 34:-0.47995792 35:-0.46904288 36:-0.30647524 
1 1:-0.98463841 2:-0.40367972 3:-0.59014405 4:1.2088662 5:-0.20000967 6:-0.20289119 7:-0.24341116 8:3.3210566 9:-0.12916647 10:-0.13197532 11:-0.13984631 12:-0.12631849 13:0.45904741 14:-0.74767313 15:-0.4370267 16:-0.17027899 17:0.73577823 18:-0.79285163 19:0.95707901 20:-0.60176117 21:-0.5197573 22:-0.71750206 23:2.661132 24:-0.24593117 25:-0.47393793 26:-0.32151881 27:0.53318077 28:-0.8247039 29:-0.65956639 30:-0.12810315 31:-0.47914547 32:-0.10271824 33:-0.60606164 34:-0.47995792 35:-0.46904288 36:-0.30647524 
1 1:0.95232557 2:-0.40367972 3:1.563971 4:-0.77325539 5:-0.20000967 6:-0.20289119 7:-0.24341116 8:-0.23785049 9:-0.12916647 10:-0.13197532 11:-0.13984631 12:-0.12631849 13:0.45904741 14:-0.74767313 15:-0.4370267 16:-0.17027899 17:0.73577823 18:1.179773 19:-0.9797567 20:-0.60176117 21:-0.5197573 22:-0.71750206 23:-0.3203615 24:-0.24593117 25:-0.47393793 26:-0.32151881 27:0.53318077 28:-0.8247039 29:-0.65956639 30:-0.12810315 31:-0.47914547 32:-0.10271824 33:-0.60606164 34:1.8893893 35:-0.46904288 36:2.7554218 
0.9355004836649131 1:-0.98463841 2:-0.40367972 3:1.563971 4:-0.77325539 5:-0.20000967 6:-0.20289119 7:-0.24341116 8:-0.23785049 9:-0.12916647 10:-0.13197532 11:-0.13984631 12:-0.12631849 13:-1.9658385 14:1.2489493 15:-0.4370267 16:-0.17027899 17:0.73577823 18:-0.79285163 19:0.95707901 20:1.5357423 21:1.7582526 22:1.2995712 23:2.661132 24:-0.24593117 25:1.9108248 26:-0.32151881 27:0.53318077 28:1.1352117 29:-0.65956639 30:-0.12810315 31:-0.47914547 32:-0.10271824 33:-0.60606164 34:-0.47995792 35:-0.46904288 36:-0.30647524 
1 1:-0.98463841 2:-0.40367972 3:1.563971 4:-0.77325539 5:-0.20000967 6:-0.20289119 7:-0.24341116 8:-0.23785049 9:-0.12916647 10:-0.13197532 11:-0.13984631 12:-0.12631849 13:-1.9658385 14:1.2489493 15:-0.4370267 16:-0.17027899 17:0.73577823 18:-0.79285163 19:0.95707901 20:-0.60176117 21:1.7582526 22:1.2995712 23:-0.3203615 24:-0.24593117 25:-0.47393793 26:-0.32151881 27:0.53318077 28:-0.8247039 29:1.4084892 30:-0.12810315 31:-0.47914547 32:-0.10271824 33:-0.60606164 34:-0.47995792 35:-0.46904288 36:-0.30647524 
0.6544756561082933 1:0.95232557 2:2.1988005 3:-0.59014405 4:-0.77325539 5:-0.20000967 6:-0.20289119 7:-0.24341116 8:-0.23785049 9:-0.12916647 10:-0.13197532 11:-0.13984631 12:-0.12631849 13:-1.9658385 14:1.2489493 15:2.0527872 16:-0.17027899 17:0.73577823 18:-0.79285163 19:0.95707901 20:-0.60176117 21:-0.5197573 22:-0.71750206 23:-0.3203615 24:-0.24593117 25:1.9108248 26:-0.32151881 27:0.53318077 28:1.1352117 29:-0.65956639 30:-0.12810315 31:-0.47914547 32:-0.10271824 33:1.5255349 34:-0.47995792 35:-0.46904288 36:-0.30647524 
0.7542288676099812 1:-0.98463841 2:2.1988005 3:-0.59014405 4:1.2088662 5:-0.20000967 6:-0.20289119 7:-0.24341116 8:-0.23785049 9:-0.12916647 10:-0.13197532 11:-0.13984631 12:-0.12631849 13:-1.9658385 14:1.2489493 15:2.0527872 16:-0.17027899 17:-1.2684543 18:-0.79285163 19:-0.9797567 20:-0.60176117 21:-0.5197573 22:-0.71750206 23:-0.3203615 24:-0.24593117 25:-0.47393793 26:-0.32151881 27:0.53318077 28:-0.8247039 29:1.4084892 30:-0.12810315 31:-0.47914547 32:-0.10271824 33:-0.60606164 34:-0.47995792 35:-0.46904288 36:-0.30647524 
1 1:-0.98463841 2:-0.40367972 3:1.563971 4:-0.77325539 5:-0.20000967 6:-0.20289119 7:-0.24341116 8:-0.23785049 9:-0.12916647 10:-0.13197532 11:-0.13984631 12:-0.12631849 13:0.45904741 14:-0.74767313 15:-0.4370267 16:-0.17027899 17:-1.2684543 18:-0.79285163 19:-0.9797567 20:-0.60176117 21:-0.5197573 22:-0.71750206 23:-0.3203615 24:-0.24593117 25:-0.47393793 26:-0.32151881 27:0.53318077 28:-0.8247039 29:-0.65956639 30:-0.12810315 31:-0.47914547 32:-0.10271824 33:-0.60606164 34:-0.47995792 35:-0.46904288 36:-0.30647524 
0.9980726172699177 1:-0.98463841 2:-0.40367972 3:-0.59014405 4:-0.77325539 5:3.7233507 6:-0.20289119 7:-0.24341116 8:-0.23785049 9:-0.12916647 10:-0.13197532 11:-0.13984631 12:-0.12631849 13:0.45904741 14:-0.74767313 15:-0.4370267 16:-0.17027899 17:-1.2684543 18:-0.79285163 19:-0.9797567 20:-0.60176117 21:-0.5197573 22:-0.71750206 23:-0.3203615 24:-0.24593117 25:-0.47393793 26:-0.32151881 27:-1.7177937 28:-0.8247039 29:-0.65956639 30:-0.12810315 31:1.892256 32:-0.10271824 33:-0.60606164 34:-0.47995792 35:-0.46904288 36:-0.30647524 
0.9320382478986375 1:-0.98463841 2:2.1988005 3:1.563971 4:1.2088662 5:-0.20000967 6:-0.20289119 7:-0.24341116 8:-0.23785049 9:-0.12916647 10:-0.13197532 11:-0.13984631 12:-0.12631849 13:0.45904741 14:1.2489493 15:2.0527872 16:-0.17027899 17:0.73577823 18:1.179773 19:-0.9797567 20:-0.60176117 21:-0.5197573 22:-0.71750206 23:-0.3203615 24:-0.24593117 25:-0.47393793 26:-0.32151881 27:0.53318077 28:1.1352117 29:-0.65956639 30:-0.12810315 31:-0.47914547 32:-0.10271824 33:1.5255349 34:1.8893893 35:-0.46904288 36:-0.30647524 
0.890374731799835 1:-0.98463841 2:-0.40367972 3:-0.59014405 4:1.2088662 5:-0.20000967 6:-0.20289119 7:-0.24341116 8:-0.23785049 9:4.7213612 10:-0.13197532 11:-0.13984631 12:-0.12631849 13:0.45904741 14:-0.74767313 15:-0.4370267 16:-0.17027899 17:0.73577823 18:1.179773 19:-0.9797567 20:-0.60176117 21:-0.5197573 22:-0.71750206 23:-0.3203615 24:-0.24593117 25:-0.47393793 26:2.653532 27:0.53318077 28:-0.8247039 29:-0.65956639 30:-0.12810315 31:-0.47914547 32:-0.10271824 33:-0.60606164 34:-0.47995792 35:-0.46904288 36:2.7554218 
0.9246265991596855 1:0.95232557 2:-0.40367972 3:-0.59014405 4:-0.77325539 5:3.7233507 6:-0.20289119 7:-0.24341116 8:-0.23785049 9:-0.12916647 10:-0.13197532 11:-0.13984631 12:-0.12631849 13:0.45904741 14:-0.74767313 15:-0.4370267 16:-0.17027899 17:0.73577823 18:-0.79285163 19:0.95707901 20:-0.60176117 21:1.7582526 22:1.2995712 23:-0.3203615 24:-0.24593117 25:-0.47393793 26:2.653532 27:0.53318077 28:1.1352117 29:-0.65956639 30:-0.12810315 31:-0.47914547 32:-0.10271824 33:-0.60606164 34:1.8893893 35:-0.46904288 36:-0.30647524 
0.9632835213343148 1:0.95232557 2:-0.40367972 3:-0.59014405 4:-0.77325539 5:-0.20000967 6:-0.20289119 7:-0.24341116 8:-0.23785049 9:-0.12916647 10:-0.13197532 11:-0.13984631 12:-0.12631849 13:0.45904741 14:1.2489493 15:-0.4370267 16:-0.17027899 17:0.73577823 18:1.179773 19:-0.9797567 20:-0.60176117 21:-0.5197573 22:-0.71750206 23:-0.3203615 24:-0.24593117 25:-0.47393793 26:-0.32151881 27:0.53318077 28:1.1352117 29:1.4084892 30:-0.12810315 31:-0.47914547 32:-0.10271824 33:-0.60606164 34:-0.47995792 35:-0.46904288 36:-0.30647524 
0.9247732443061161 1:-0.98463841 2:-0.40367972 3:1.563971 4:-0.77325539 5:-0.20000967 6:-0.20289119 7:-0.24341116 8:-0.23785049 9:-0.12916647 10:-0.13197532 11:-0.13984631 12:-0.12631849 13:0.45904741 14:1.2489493 15:-0.4370267 16:-0.17027899 17:0.73577823 18:1.179773 19:0.95707901 20:1.5357423 21:-0.5197573 22:-0.71750206 23:-0.3203615 24:3.2444831 25:-0.47393793 26:-0.32151881 27:0.53318077 28:1.1352117 29:1.4084892 30:-0.12810315 31:1.892256 32:-0.10271824 33:1.5255349 34:1.8893893 35:-0.46904288 36:-0.30647524 
0.5388001632802638 1:-0.98463841 2:2.1988005 3:-0.59014405 4:1.2088662 5:-0.20000967 6:-0.20289119 7:-0.24341116 8:-0.23785049 9:-0.12916647 10:-0.13197532 11:-0.13984631 12:-0.12631849 13:0.45904741 14:-0.74767313 15:2.0527872 16:-0.17027899 17:-1.2684543 18:-0.79285163 19:-0.9797567 20:-0.60176117 21:-0.5197573 22:-0.71750206 23:-0.3203615 24:-0.24593117 25:-0.47393793 26:-0.32151881 27:0.53318077 28:-0.8247039 29:-0.65956639 30:-0.12810315 31:-0.47914547 32:-0.10271824 33:-0.60606164 34:-0.47995792 35:-0.46904288 36:-0.30647524 
1 1:-0.98463841 2:-0.40367972 3:-0.59014405 4:-0.77325539 5:-0.20000967 6:-0.20289119 7:-0.24341116 8:-0.23785049 9:-0.12916647 10:-0.13197532 11:4.5464618 12:-0.12631849 13:0.45904741 14:1.2489493 15:-0.4370267 16:-0.17027899 17:-1.2684543 18:-0.79285163 19:-0.9797567 20:-0.60176117 21:-0.5197573 22:-0.71750206 23:-0.3203615 24:-0.24593117 25:-0.47393793 26:-0.32151881 27:-1.7177937 28:-0.8247039 29:-0.65956639 30:-0.12810315 31:-0.47914547 32:-0.10271824 33:-0.60606164 34:-0.47995792 35:-0.46904288 36:-0.30647524 
0.8068030720046423 1:-0.98463841 2:-0.40367972 3:-0.59014405 4:1.2088662 5:-0.20000967 6:-0.20289119 7:-0.24341116 8:-0.23785049 9:4.7213612 10:-0.13197532 11:-0.13984631 12:-0.12631849 13:0.45904741 14:1.2489493 15:-0.4370267 16:-0.17027899 17:0.73577823 18:1.179773 19:-0.9797567 20:-0.60176117 21:-0.5197573 22:-0.71750206 23:-0.3203615 24:-0.24593117 25:-0.47393793 26:2.653532 27:0.53318077 28:-0.8247039 29:-0.65956639 30:-0.12810315 31:1.892256 32:-0.10271824 33:-0.60606164 34:-0.47995792 35:-0.46904288 36:-0.30647524 
0.7472444466329127 1:0.95232557 2:2.1988005 3:-0.59014405 4:1.2088662 5:-0.20000967 6:-0.20289119 7:-0.24341116 8:-0.23785049 9:-0.12916647 10:-0.13197532 11:-0.13984631 12:-0.12631849 13:0.45904741 14:-0.74767313 15:2.0527872 16:-0.17027899 17:-1.2684543 18:-0.79285163 19:-0.9797567 20:-0.60176117 21:-0.5197573 22:-0.71750206 23:-0.3203615 24:-0.24593117 25:-0.47393793 26:-0.32151881 27:-1.7177937 28:-0.8247039 29:-0.65956639 30:-0.12810315 31:1.892256 32:-0.10271824 33:-0.60606164 34:-0.47995792 35:-0.46904288 36:-0.30647524 
0.7610526676246079 1:-0.98463841 2:-0.40367972 3:-0.59014405 4:1.2088662 5:-0.20000967 6:-0.20289119 7:-0.24341116 8:-0.23785049 9:4.7213612 10:-0.13197532 11:-0.13984631 12:-0.12631849 13:0.45904741 14:-0.74767313 15:-0.4370267 16:-0.17027899 17:0.73577823 18:1.179773 19:-0.9797567 20:-0.60176117 21:-0.5197573 22:-0.71750206 23:-0.3203615 24:-0.24593117 25:-0.47393793 26:-0.32151881 27:0.53318077 28:-0.8247039 29:-0.65956639 30:-0.12810315 31:-0.47914547 32:-0.10271824 33:-0.60606164 34:-0.47995792 35:-0.46904288 36:-0.30647524 
0.7793037436255081 1:-0.98463841 2:2.1988005 3:-0.59014405 4:1.2088662 5:-0.20000967 6:-0.20289119 7:-0.24341116 8:-0.23785049 9:-0.12916647 10:-0.13197532 11:-0.13984631 12:-0.12631849 13:0.45904741 14:-0.74767313 15:2.0527872 16:-0.17027899 17:-1.2684543 18:-0.79285163 19:-0.9797567 20:-0.60176117 21:-0.5197573 22:-0.71750206 23:-0.3203615 24:-0.24593117 25:-0.47393793 26:-0.32151881 27:0.53318077 28:1.1352117 29:-0.65956639 30:-0.12810315 31:-0.47914547 32:-0.10271824 33:1.5255349 34:-0.47995792 35:-0.46904288 36:-0.30647524 
0.8929390097297725 1:0.95232557 2:-0.40367972 3:-0.59014405 4:-0.77325539 5:-0.20000967 6:-0.20289119 7:-0.24341116 8:3.3210566 9:-0.12916647 10:-0.13197532 11:-0.13984631 12:-0.12631849 13:0.45904741 14:-0.74767313 15:-0.4370267 16:-0.17027899 17:0.73577823 18:-0.79285163 19:0.95707901 20:-0.60176117 21:1.7582526 22:1.2995712 23:-0.3203615 24:-0.24593117 25:1.9108248 26:-0.32151881 27:0.53318077 28:1.1352117 29:-0.65956639 30:-0.12810315 31:-0.47914547 32:-0.10271824 33:1.5255349 34:-0.47995792 35:1.928591 36:-0.30647524 
1 1:0.95232557 2:-0.40367972 3:1.563971 4:-0.77325539 5:-0.20000967 6:-0.20289119 7:-0.24341116 8:-0.23785049 9:-0.12916647 10:-0.13197532 11:-0.13984631 12:-0.12631849 13:0.45904741 14:1.2489493 15:-0.4370267 16:-0.17027899 17:0.73577823 18:-0.79285163 19:0.95707901 20:-0.60176117 21:1.7582526 22:1.2995712 23:-0.3203615 24:-0.24593117 25:1.9108248 26:-0.32151881 27:0.53318077 28:1.1352117 29:-0.65956639 30:-0.12810315 31:1.892256 32:-0.10271824 33:-0.60606164 34:-0.47995792 35:-0.46904288 36:-0.30647524 
0.9437334931963235 1:0.95232557 2:-0.40367972 3:1.563971 4:-0.77325539 5:-0.20000967 6:-0.20289119 7:-0.24341116 8:-0.23785049 9:-0.12916647 10:-0.13197532 11:-0.13984631 12:-0.12631849 13:0.45904741 14:-0.74767313 15:-0.4370267 16:-0.17027899 17:-1.2684543 18:-0.79285163 19:-0.9797567 20:-0.60176117 21:-0.5197573 22:-0.71750206 23:-0.3203615 24:-0.24593117 25:-0.47393793 26:-0.32151881 27:0.53318077 28:-0.8247039 29:-0.65956639 30:-0.12810315 31:1.892256 32:-0.10271824 33:-0.60606164 34:-0.47995792 35:-0.46904288 36:-0.30647524 
0.9243590144149469 1:-0.98463841 2:-0.40367972 3:-0.59014405 4:1.2088662 5:-0.20000967 6:-0.20289119 7:-0.24341116 8:-0.23785049 9:-0.12916647 10:-0.13197532 11:4.5464618 12:-0.12631849 13:0.45904741 14:-0.74767313 15:-0.4370267 16:-0.17027899 17:0.73577823 18:1.179773 19:-0.9797567 20:-0.60176117 21:-0.5197573 22:-0.71750206 23:-0.3203615 24:-0.24593117 25:-0.47393793 26:-0.32151881 27:0.53318077 28:-0.8247039 29:-0.65956639 30:-0.12810315 31:-0.47914547 32:-0.10271824 33:-0.60606164 34:-0.47995792 35:-0.46904288 36:-0.30647524 
0.7395536715487021 1:0.95232557 2:-0.40367972 3:-0.59014405 4:-0.77325539 5:-0.20000967 6:-0.20289119 7:-0.24341116 8:-0.23785049 9:-0.12916647 10:-0.13197532 11:-0.13984631 12:-0.12631849 13:0.45904741 14:-0.74767313 15:2.0527872 16:-0.17027899 17:0.73577823 18:1.179773 19:-0.9797567 20:-0.60176117 21:-0.5197573 22:-0.71750206 23:-0.3203615 24:-0.24593117 25:-0.47393793 26:-0.32151881 27:0.53318077 28:-0.8247039 29:-0.65956639 30:-0.12810315 31:-0.47914547 32:-0.10271824 33:1.5255349 34:-0.47995792 35:-0.46904288 36:-0.30647524 
0.9303175762349597 1:0.95232557 2:-0.40367972 3:1.563971 4:-0.77325539 5:-0.20000967 6:-0.20289119 7:-0.24341116 8:-0.23785049 9:-0.12916647 10:-0.13197532 11:-0.13984631 12:-0.12631849 13:0.45904741 14:1.2489493 15:2.0527872 16:-0.17027899 17:0.73577823 18:1.179773 19:0.95707901 20:1.5357423 21:-0.5197573 22:1.2995712 23:-0.3203615 24:-0.24593117 25:-0.47393793 26:-0.32151881 27:0.53318077 28:-0.8247039 29:1.4084892 30:-0.12810315 31:-0.47914547 32:-0.10271824 33:-0.60606164 34:-0.47995792 35:-0.46904288 36:-0.30647524 
0.8023850681443288 1:0.95232557 2:-0.40367972 3:-0.59014405 4:1.2088662 5:-0.20000967 6:-0.20289119 7:-0.24341116 8:-0.23785049 9:-0.12916647 10:-0.13197532 11:-0.13984631 12:-0.12631849 13:0.45904741 14:-0.74767313 15:-0.4370267 16:-0.17027899 17:0.73577823 18:-0.79285163 19:0.95707901 20:-0.60176117 21:1.7582526 22:1.2995712 23:-0.3203615 24:-0.24593117 25:-0.47393793 26:-0.32151881 27:0.53318077 28:1.1352117 29:-0.65956639 30:-0.12810315 31:-0.47914547 32:-0.10271824 33:-0.60606164 34:1.8893893 35:-0.46904288 36:-0.30647524 
0.905570700076917 1:-0.98463841 2:-0.40367972 3:-0.59014405 4:1.2088662 5:-0.20000967 6:-0.20289119 7:-0.24341116 8:-0.23785049 9:4.7213612 10:-0.13197532 11:-0.13984631 12:-0.12631849 13:0.45904741 14:1.2489493 15:-0.4370267 16:-0.17027899 17:0.73577823 18:1.179773 19:0.95707901 20:1.5357423 21:-0.5197573 22:1.2995712 23:-0.3203615 24:-0.24593117 25:-0.47393793 26:-0.32151881 27:0.53318077 28:1.1352117 29:-0.65956639 30:-0.12810315 31:-0.47914547 32:-0.10271824 33:-0.60606164 34:-0.47995792 35:-0.46904288 36:-0.30647524 
0.925394935166764 1:0.95232557 2:-0.40367972 3:-0.59014405 4:-0.77325539 5:-0.20000967 6:-0.20289119 7:-0.24341116 8:-0.23785049 9:-0.12916647 10:-0.13197532 11:-0.13984631 12:-0.12631849 13:0.45904741 14:1.2489493 15:-0.4370267 16:-0.17027899 17:0.73577823 18:-0.79285163 19:0.95707901 20:-0.60176117 21:1.7582526 22:1.2995712 23:-0.3203615 24:-0.24593117 25:-0.47393793 26:2.653532 27:0.53318077 28:-0.8247039 29:1.4084892 30:-0.12810315 31:1.892256 32:-0.10271824 33:1.5255349 34:1.8893893 35:-0.46904288 36:-0.30647524 
0.001974638312445393 1:0.95232557 2:-0.40367972 3:-0.59014405 4:-0.77325539 5:-0.20000967 6:-0.20289119 7:-0.24341116 8:-0.23785049 9:-0.12916647 10:-0.13197532 11:-0.13984631 12:-0.12631849 13:0.45904741 14:1.2489493 15:-0.4370267 16:-0.17027899 17:0.73577823 18:1.179773 19:0.95707901 20:1.5357423 21:-0.5197573 22:1.2995712 23:-0.3203615 24:-0.24593117 25:-0.47393793 26:-0.32151881 27:0.53318077 28:1.1352117 29:1.4084892 30:-0.12810315 31:-0.47914547 32:-0.10271824 33:1.5255349 34:1.8893893 35:-0.46904288 36:-0.30647524 
0.9223117292809354 1:0.95232557 2:2.1988005 3:-0.59014405 4:-0.77325539 5:-0.20000967 6:-0.20289119 7:3.2680404 8:-0.23785049 9:-0.12916647 10:-0.13197532 11:-0.13984631 12:-0.12631849 13:0.45904741 14:-0.74767313 15:2.0527872 16:-0.17027899 17:0.73577823 18:-0.79285163 19:0.95707901 20:1.5357423 21:-0.5197573 22:1.2995712 23:2.661132 24:-0.24593117 25:-0.47393793 26:-0.32151881 27:0.53318077 28:-0.8247039 29:1.4084892 30:-0.12810315 31:-0.47914547 32:-0.10271824 33:-0.60606164 34:-0.47995792 35:-0.46904288 36:-0.30647524 
0.9244998008762979 1:0.95232557 2:2.1988005 3:1.563971 4:1.2088662 5:-0.20000967 6:-0.20289119 7:-0.24341116 8:-0.23785049 9:-0.12916647 10:-0.13197532 11:-0.13984631 12:-0.12631849 13:0.45904741 14:-0.74767313 15:-0.4370267 16:-0.17027899 17:0.73577823 18:1.179773 19:0.95707901 20:1.5357423 21:1.7582526 22:1.2995712 23:2.661132 24:-0.24593117 25:-0.47393793 26:2.653532 27:0.53318077 28:1.1352117 29:1.4084892 30:-0.12810315 31:-0.47914547 32:-0.10271824 33:1.5255349 34:-0.47995792 35:-0.46904288 36:-0.30647524 
1 1:0.95232557 2:-0.40367972 3:-0.59014405 4:-0.77325539 5:-0.20000967 6:-0.20289119 7:-0.24341116 8:-0.23785049 9:-0.12916647 10:-0.13197532 11:-0.13984631 12:-0.12631849 13:0.45904741 14:1.2489493 15:-0.4370267 16:-0.17027899 17:0.73577823 18:1.179773 19:0.95707901 20:1.5357423 21:-0.5197573 22:1.2995712 23:-0.3203615 24:-0.24593117 25:-0.47393793 26:-0.32151881 27:0.53318077 28:1.1352117 29:1.4084892 30:-0.12810315 31:-0.47914547 32:-0.10271824 33:1.5255349 34:1.8893893 35:-0.46904288 36:-0.30647524 
0.9313843797847901 1:0.95232557 2:-0.40367972 3:-0.59014405 4:-0.77325539 5:3.7233507 6:-0.20289119 7:-0.24341116 8:-0.23785049 9:-0.12916647 10:-0.13197532 11:-0.13984631 12:-0.12631849 13:0.45904741 14:1.2489493 15:-0.4370267 16:-0.17027899 17:0.73577823 18:-0.79285163 19:0.95707901 20:1.5357423 21:-0.5197573 22:1.2995712 23:-0.3203615 24:-0.24593117 25:-0.47393793 26:-0.32151881 27:0.53318077 28:-0.8247039 29:-0.65956639 30:-0.12810315 31:1.892256 32:-0.10271824 33:-0.60606164 34:-0.47995792 35:-0.46904288 36:-0.30647524 
0.474308917389315 1:-0.98463841 2:-0.40367972 3:-0.59014405 4:-0.77325539 5:-0.20000967 6:-0.20289119 7:-0.24341116 8:-0.23785049 9:4.7213612 10:-0.13197532 11:-0.13984631 12:-0.12631849 13:0.45904741 14:-0.74767313 15:-0.4370267 16:-0.17027899 17:0.73577823 18:1.179773 19:-0.9797567 20:-0.60176117 21:-0.5197573 22:-0.71750206 23:-0.3203615 24:-0.24593117 25:-0.47393793 26:2.653532 27:0.53318077 28:-0.8247039 29:-0.65956639 30:-0.12810315 31:-0.47914547 32:-0.10271824 33:-0.60606164 34:-0.47995792 35:-0.46904288 36:-0.30647524 
1 1:0.95232557 2:-0.40367972 3:1.563971 4:-0.77325539 5:-0.20000967 6:-0.20289119 7:-0.24341116 8:-0.23785049 9:-0.12916647 10:-0.13197532 11:-0.13984631 12:-0.12631849 13:0.45904741 14:1.2489493 15:-0.4370267 16:-0.17027899 17:0.73577823 18:1.179773 19:0.95707901 20:1.5357423 21:-0.5197573 22:1.2995712 23:-0.3203615 24:-0.24593117 25:-0.47393793 26:-0.32151881 27:0.53318077 28:1.1352117 29:1.4084892 30:-0.12810315 31:1.892256 32:-0.10271824 33:1.5255349 34:-0.47995792 35:-0.46904288 36:-0.30647524 
0.9779302967611657 1:-0.98463841 2:-0.40367972 3:1.563971 4:-0.77325539 5:-0.20000967 6:-0.20289119 7:-0.24341116 8:-0.23785049 9:-0.12916647 10:-0.13197532 11:-0.13984631 12:-0.12631849 13:-1.9658385 14:1.2489493 15:-0.4370267 16:-0.17027899 17:0.73577823 18:1.179773 19:0.95707901 20:1.5357423 21:-0.5197573 22:-0.71750206 23:2.661132 24:-0.24593117 25:-0.47393793 26:-0.32151881 27:0.53318077 28:1.1352117 29:1.4084892 30:-0.12810315 31:-0.47914547 32:-0.10271824 33:1.5255349 34:1.8893893 35:-0.46904288 36:-0.30647524 
0.7593396634663944 1:-0.98463841 2:-0.40367972 3:-0.59014405 4:1.2088662 5:-0.20000967 6:-0.20289119 7:-0.24341116 8:-0.23785049 9:-0.12916647 10:-0.13197532 11:-0.13984631 12:-0.12631849 13:0.45904741 14:1.2489493 15:-0.4370267 16:-0.17027899 17:0.73577823 18:1.179773 19:0.95707901 20:1.5357423 21:-0.5197573 22:1.2995712 23:-0.3203615 24:-0.24593117 25:-0.47393793 26:-0.32151881 27:0.53318077 28:1.1352117 29:-0.65956639 30:-0.12810315 31:1.892256 32:-0.10271824 33:-0.60606164 34:-0.47995792 35:1.928591 36:-0.30647524 
0.916913829226119 1:0.95232557 2:-0.40367972 3:-0.59014405 4:1.2088662 5:-0.20000967 6:-0.20289119 7:-0.24341116 8:3.3210566 9:-0.12916647 10:-0.13197532 11:-0.13984631 12:-0.12631849 13:0.45904741 14:1.2489493 15:-0.4370267 16:-0.17027899 17:-1.2684543 18:-0.79285163 19:-0.9797567 20:-0.60176117 21:-0.5197573 22:-0.71750206 23:-0.3203615 24:-0.24593117 25:-0.47393793 26:-0.32151881 27:0.53318077 28:1.1352117 29:-0.65956639 30:-0.12810315 31:-0.47914547 32:-0.10271824 33:1.5255349 34:-0.47995792 35:-0.46904288 36:-0.30647524 
0.7241419931453502 1:0.95232557 2:-0.40367972 3:-0.59014405 4:-0.77325539 5:-0.20000967 6:-0.20289119 7:-0.24341116 8:-0.23785049 9:-0.12916647 10:-0.13197532 11:-0.13984631 12:-0.12631849 13:0.45904741 14:-0.74767313 15:-0.4370267 16:-0.17027899 17:0.73577823 18:1.179773 19:0.95707901 20:1.5357423 21:-0.5197573 22:1.2995712 23:-0.3203615 24:-0.24593117 25:-0.47393793 26:-0.32151881 27:0.53318077 28:1.1352117 29:1.4084892 30:-0.12810315 31:-0.47914547 32:-0.10271824 33:-0.60606164 34:-0.47995792 35:-0.46904288 36:-0.30647524 
0.8819729318557296 1:0.95232557 2:-0.40367972 3:-0.59014405 4:-0.77325539 5:-0.20000967 6:-0.20289119 7:-0.24341116 8:-0.23785049 9:-0.12916647 10:-0.13197532 11:-0.13984631 12:-0.12631849 13:-1.9658385 14:-0.74767313 15:2.0527872 16:-0.17027899 17:0.73577823 18:-0.79285163 19:0.95707901 20:1.5357423 21:-0.5197573 22:1.2995712 23:-0.3203615 24:-0.24593117 25:-0.47393793 26:-0.32151881 27:0.53318077 28:1.1352117 29:-0.65956639 30:-0.12810315 31:-0.47914547 32:-0.10271824 33:1.5255349 34:-0.47995792 35:-0.46904288 36:-0.30647524 
1 1:0.95232557 2:-0.40367972 3:1.563971 4:-0.77325539 5:-0.20000967 6:-0.20289119 7:-0.24341116 8:-0.23785049 9:-0.12916647 10:-0.13197532 11:-0.13984631 12:-0.12631849 13:0.45904741 14:-0.74767313 15:-0.4370267 16:-0.17027899 17:0.73577823 18:1.179773 19:0.95707901 20:1.5357423 21:1.7582526 22:1.2995712 23:-0.3203615 24:-0.24593117 25:-0.47393793 26:-0.32151881 27:0.53318077 28:1.1352117 29:1.4084892 30:-0.12810315 31:-0.47914547 32:-0.10271824 33:-0.60606164 34:-0.47995792 35:-0.46904288 36:-0.30647524 
0.9214239636127929 1:0.95232557 2:-0.40367972 3:-0.59014405 4:-0.77325539 5:-0.20000967 6:-0.20289119 7:-0.24341116 8:-0.23785049 9:-0.12916647 10:-0.13197532 11:-0.13984631 12:-0.12631849 13:0.45904741 14:-0.74767313 15:2.0527872 16:-0.17027899 17:0.73577823 18:1.179773 19:0.95707901 20:-0.60176117 21:1.7582526 22:1.2995712 23:-0.3203615 24:-0.24593117 25:1.9108248 26:-0.32151881 27:0.53318077 28:1.1352117 29:-0.65956639 30:-0.12810315 31:-0.47914547 32:-0.10271824 33:1.5255349 34:-0.47995792 35:-0.46904288 36:2.7554218 
0.8159678881796654 1:0.95232557 2:-0.40367972 3:-0.59014405 4:-0.77325539 5:-0.20000967 6:-0.20289119 7:-0.24341116 8:-0.23785049 9:-0.12916647 10:-0.13197532 11:-0.13984631 12:-0.12631849 13:0.45904741 14:1.2489493 15:-0.4370267 16:-0.17027899 17:0.73577823 18:1.179773 19:0.95707901 20:1.5357423 21:-0.5197573 22:1.2995712 23:-0.3203615 24:-0.24593117 25:-0.47393793 26:-0.32151881 27:0.53318077 28:-0.8247039 29:-0.65956639 30:-0.12810315 31:1.892256 32:-0.10271824 33:-0.60606164 34:-0.47995792 35:1.928591 36:-0.30647524 
0.9333274525197035 1:-0.98463841 2:-0.40367972 3:1.563971 4:1.2088662 5:-0.20000967 6:-0.20289119 7:-0.24341116 8:-0.23785049 9:-0.12916647 10:-0.13197532 11:-0.13984631 12:-0.12631849 13:0.45904741 14:-0.74767313 15:-0.4370267 16:-0.17027899 17:0.73577823 18:1.179773 19:-0.9797567 20:-0.60176117 21:-0.5197573 22:-0.71750206 23:-0.3203615 24:-0.24593117 25:-0.47393793 26:-0.32151881 27:0.53318077 28:-0.8247039 29:-0.65956639 30:4.7393122 31:-0.47914547 32:-0.10271824 33:-0.60606164 34:-0.47995792 35:1.928591 36:-0.30647524 
0.9244823791133664 1:-0.98463841 2:-0.40367972 3:-0.59014405 4:-0.77325539 5:3.7233507 6:3.6899575 7:-0.24341116 8:-0.23785049 9:-0.12916647 10:-0.13197532 11:-0.13984631 12:-0.12631849 13:0.45904741 14:-0.74767313 15:-0.4370267 16:-0.17027899 17:0.73577823 18:1.179773 19:0.95707901 20:1.5357423 21:-0.5197573 22:1.2995712 23:-0.3203615 24:-0.24593117 25:-0.47393793 26:-0.32151881 27:0.53318077 28:1.1352117 29:-0.65956639 30:-0.12810315 31:-0.47914547 32:-0.10271824 33:-0.60606164 34:1.8893893 35:-0.46904288 36:-0.30647524 
0.9271887533359926 1:0.95232557 2:2.1988005 3:1.563971 4:-0.77325539 5:-0.20000967 6:-0.20289119 7:-0.24341116 8:-0.23785049 9:-0.12916647 10:-0.13197532 11:-0.13984631 12:-0.12631849 13:0.45904741 14:-0.74767313 15:2.0527872 16:-0.17027899 17:0.73577823 18:1.179773 19:0.95707901 20:1.5357423 21:1.7582526 22:1.2995712 23:-0.3203615 24:-0.24593117 25:-0.47393793 26:-0.32151881 27:0.53318077 28:1.1352117 29:1.4084892 30:-0.12810315 31:-0.47914547 32:-0.10271824 33:1.5255349 34:1.8893893 35:1.928591 36:-0.30647524 
0.732657956390417 1:0.95232557 2:-0.40367972 3:-0.59014405 4:-0.77325539 5:-0.20000967 6:-0.20289119 7:-0.24341116 8:-0.23785049 9:-0.12916647 10:-0.13197532 11:-0.13984631 12:-0.12631849 13:0.45904741 14:-0.74767313 15:-0.4370267 16:-0.17027899 17:0.73577823 18:1.179773 19:0.95707901 20:-0.60176117 21:1.7582526 22:1.2995712 23:-0.3203615 24:-0.24593117 25:-0.47393793 26:-0.32151881 27:0.53318077 28:1.1352117 29:1.4084892 30:-0.12810315 31:-0.47914547 32:-0.10271824 33:1.5255349 34:-0.47995792 35:1.928591 36:-0.30647524 
0.9820566684372565 1:0.95232557 2:-0.40367972 3:1.563971 4:-0.77325539 5:-0.20000967 6:-0.20289119 7:-0.24341116 8:-0.23785049 9:-0.12916647 10:-0.13197532 11:-0.13984631 12:-0.12631849 13:0.45904741 14:1.2489493 15:-0.4370267 16:-0.17027899 17:0.73577823 18:1.179773 19:-0.9797567 20:-0.60176117 21:-0.5197573 22:-0.71750206 23:-0.3203615 24:-0.24593117 25:-0.47393793 26:-0.32151881 27:0.53318077 28:1.1352117 29:1.4084892 30:-0.12810315 31:-0.47914547 32:-0.10271824 33:1.5255349 34:1.8893893 35:-0.46904288 36:-0.30647524 
0.9249194386135036 1:0.95232557 2:-0.40367972 3:-0.59014405 4:-0.77325539 5:-0.20000967 6:3.6899575 7:-0.24341116 8:-0.23785049 9:-0.12916647 10:-0.13197532 11:-0.13984631 12:-0.12631849 13:0.45904741 14:1.2489493 15:-0.4370267 16:-0.17027899 17:0.73577823 18:1.179773 19:0.95707901 20:1.5357423 21:1.7582526 22:1.2995712 23:2.661132 24:-0.24593117 25:-0.47393793 26:-0.32151881 27:0.53318077 28:-0.8247039 29:-0.65956639 30:-0.12810315 31:1.892256 32:-0.10271824 33:-0.60606164 34:-0.47995792 35:-0.46904288 36:-0.30647524 
1 1:0.95232557 2:-0.40367972 3:1.563971 4:-0.77325539 5:-0.20000967 6:-0.20289119 7:-0.24341116 8:-0.23785049 9:-0.12916647 10:-0.13197532 11:-0.13984631 12:-0.12631849 13:0.45904741 14:1.2489493 15:-0.4370267 16:-0.17027899 17:0.73577823 18:1.179773 19:0.95707901 20:1.5357423 21:-0.5197573 22:1.2995712 23:-0.3203615 24:-0.24593117 25:-0.47393793 26:-0.32151881 27:0.53318077 28:1.1352117 29:1.4084892 30:-0.12810315 31:-0.47914547 32:-0.10271824 33:-0.60606164 34:-0.47995792 35:-0.46904288 36:-0.30647524 
0.9019540779419191 1:0.95232557 2:2.1988005 3:-0.59014405 4:-0.77325539 5:-0.20000967 6:-0.20289119 7:-0.24341116 8:-0.23785049 9:-0.12916647 10:-0.13197532 11:-0.13984631 12:-0.12631849 13:0.45904741 14:1.2489493 15:2.0527872 16:-0.17027899 17:0.73577823 18:-0.79285163 19:0.95707901 20:1.5357423 21:1.7582526 22:1.2995712 23:-0.3203615 24:-0.24593117 25:-0.47393793 26:-0.32151881 27:0.53318077 28:1.1352117 29:1.4084892 30:-0.12810315 31:-0.47914547 32:-0.10271824 33:-0.60606164 34:-0.47995792 35:-0.46904288 36:-0.30647524 
0.8871209927121506 1:0.95232557 2:2.1988005 3:-0.59014405 4:-0.77325539 5:-0.20000967 6:-0.20289119 7:-0.24341116 8:-0.23785049 9:-0.12916647 10:-0.13197532 11:-0.13984631 12:-0.12631849 13:-1.9658385 14:-0.74767313 15:2.0527872 16:-0.17027899 17:0.73577823 18:-0.79285163 19:0.95707901 20:1.5357423 21:-0.5197573 22:1.2995712 23:-0.3203615 24:-0.24593117 25:-0.47393793 26:-0.32151881 27:0.53318077 28:1.1352117 29:-0.65956639 30:-0.12810315 31:-0.47914547 32:-0.10271824 33:1.5255349 34:-0.47995792 35:-0.46904288 36:-0.30647524 
0.9246008651270408 1:0.95232557 2:2.1988005 3:-0.59014405 4:-0.77325539 5:-0.20000967 6:-0.20289119 7:-0.24341116 8:-0.23785049 9:-0.12916647 10:-0.13197532 11:-0.13984631 12:-0.12631849 13:-1.9658385 14:-0.74767313 15:2.0527872 16:-0.17027899 17:0.73577823 18:1.179773 19:0.95707901 20:1.5357423 21:1.7582526 22:-0.71750206 23:2.661132 24:3.2444831 25:-0.47393793 26:-0.32151881 27:0.53318077 28:-0.8247039 29:-0.65956639 30:-0.12810315 31:-0.47914547 32:-0.10271824 33:-0.60606164 34:-0.47995792 35:-0.46904288 36:-0.30647524 
0.8146278607102074 1:-0.98463841 2:-0.40367972 3:1.563971 4:-0.77325539 5:-0.20000967 6:-0.20289119 7:-0.24341116 8:-0.23785049 9:-0.12916647 10:-0.13197532 11:-0.13984631 12:-0.12631849 13:0.45904741 14:-0.74767313 15:-0.4370267 16:-0.17027899 17:0.73577823 18:1.179773 19:0.95707901 20:-0.60176117 21:1.7582526 22:1.2995712 23:-0.3203615 24:-0.24593117 25:-0.47393793 26:-0.32151881 27:0.53318077 28:1.1352117 29:-0.65956639 30:-0.12810315 31:-0.47914547 32:-0.10271824 33:1.5255349 34:1.8893893 35:-0.46904288 36:-0.30647524 
0.9247234400830507 1:-0.98463841 2:2.1988005 3:-0.59014405 4:-0.77325539 5:-0.20000967 6:-0.20289119 7:-0.24341116 8:-0.23785049 9:-0.12916647 10:4.6744165 11:-0.13984631 12:-0.12631849 13:0.45904741 14:-0.74767313 15:2.0527872 16:-0.17027899 17:0.73577823 18:1.179773 19:0.95707901 20:1.5357423 21:-0.5197573 22:1.2995712 23:2.661132 24:-0.24593117 25:-0.47393793 26:-0.32151881 27:0.53318077 28:1.1352117 29:-0.65956639 30:-0.12810315 31:-0.47914547 32:-0.10271824 33:1.5255349 34:1.8893893 35:-0.46904288 36:-0.30647524 
0.6935242127179034 1:0.95232557 2:-0.40367972 3:-0.59014405 4:-0.77325539 5:-0.20000967 6:-0.20289119 7:-0.24341116 8:-0.23785049 9:-0.12916647 10:-0.13197532 11:-0.13984631 12:-0.12631849 13:0.45904741 14:1.2489493 15:-0.4370267 16:-0.17027899 17:0.73577823 18:1.179773 19:0.95707901 20:-0.60176117 21:1.7582526 22:1.2995712 23:-0.3203615 24:-0.24593117 25:-0.47393793 26:-0.32151881 27:0.53318077 28:-0.8247039 29:1.4084892 30:-0.12810315 31:-0.47914547 32:-0.10271824 33:1.5255349 34:-0.47995792 35:-0.46904288 36:-0.30647524 
0.9239342851129212 1:-0.98463841 2:-0.40367972 3:1.563971 4:-0.77325539 5:-0.20000967 6:-0.20289119 7:-0.24341116 8:3.3210566 9:-0.12916647 10:-0.13197532 11:-0.13984631 12:-0.12631849 13:0.45904741 14:1.2489493 15:-0.4370267 16:-0.17027899 17:0.73577823 18:-0.79285163 19:0.95707901 20:-0.60176117 21:1.7582526 22:1.2995712 23:-0.3203615 24:-0.24593117 25:-0.47393793 26:2.653532 27:0.53318077 28:-0.8247039 29:1.4084892 30:-0.12810315 31:-0.47914547 32:-0.10271824 33:1.5255349 34:1.8893893 35:1.928591 36:-0.30647524 
0.9250028392718297 1:-0.98463841 2:-0.40367972 3:1.563971 4:-0.77325539 5:-0.20000967 6:-0.20289119 7:-0.24341116 8:-0.23785049 9:-0.12916647 10:-0.13197532 11:4.5464618 12:-0.12631849 13:-1.9658385 14:-0.74767313 15:-0.4370267 16:-0.17027899 17:0.73577823 18:-0.79285163 19:0.95707901 20:-0.60176117 21:-0.5197573 22:-0.71750206 23:-0.3203615 24:-0.24593117 25:1.9108248 26:-0.32151881 27:0.53318077 28:1.1352117 29:1.4084892 30:-0.12810315 31:1.892256 32:-0.10271824 33:-0.60606164 34:1.8893893 35:-0.46904288 36:-0.30647524 
0.9243728186885698 1:0.95232557 2:-0.40367972 3:1.563971 4:-0.77325539 5:3.7233507 6:-0.20289119 7:-0.24341116 8:-0.23785049 9:4.7213612 10:-0.13197532 11:-0.13984631 12:-0.12631849 13:0.45904741 14:1.2489493 15:-0.4370267 16:-0.17027899 17:0.73577823 18:1.179773 19:0.95707901 20:1.5357423 21:1.7582526 22:1.2995712 23:-0.3203615 24:-0.24593117 25:1.9108248 26:-0.32151881 27:0.53318077 28:1.1352117 29:1.4084892 30:-0.12810315 31:-0.47914547 32:-0.10271824 33:1.5255349 34:1.8893893 35:1.928591 36:-0.30647524 
1 1:0.95232557 2:-0.40367972 3:-0.59014405 4:-0.77325539 5:-0.20000967 6:-0.20289119 7:-0.24341116 8:-0.23785049 9:-0.12916647 10:-0.13197532 11:-0.13984631 12:-0.12631849 13:0.45904741 14:-0.74767313 15:-0.4370267 16:-0.17027899 17:0.73577823 18:1.179773 19:-0.9797567 20:-0.60176117 21:-0.5197573 22:-0.71750206 23:-0.3203615 24:-0.24593117 25:-0.47393793 26:2.653532 27:0.53318077 28:1.1352117 29:-0.65956639 30:-0.12810315 31:-0.47914547 32:-0.10271824 33:-0.60606164 34:-0.47995792 35:-0.46904288 36:-0.30647524 
0.9241487216630758 1:0.95232557 2:-0.40367972 3:1.563971 4:-0.77325539 5:-0.20000967 6:-0.20289119 7:-0.24341116 8:3.3210566 9:-0.12916647 10:-0.13197532 11:-0.13984631 12:-0.12631849 13:0.45904741 14:1.2489493 15:-0.4370267 16:-0.17027899 17:0.73577823 18:1.179773 19:0.95707901 20:1.5357423 21:1.7582526 22:1.2995712 23:-0.3203615 24:-0.24593117 25:1.9108248 26:-0.32151881 27:0.53318077 28:1.1352117 29:1.4084892 30:-0.12810315 31:1.892256 32:-0.10271824 33:1.5255349 34:1.8893893 35:-0.46904288 36:-0.30647524 
0.9239990621376275 1:0.95232557 2:-0.40367972 3:-0.59014405 4:-0.77325539 5:-0.20000967 6:-0.20289119 7:-0.24341116 8:3.3210566 9:-0.12916647 10:-0.13197532 11:-0.13984631 12:-0.12631849 13:0.45904741 14:1.2489493 15:-0.4370267 16:-0.17027899 17:0.73577823 18:1.179773 19:0.95707901 20:1.5357423 21:1.7582526 22:1.2995712 23:-0.3203615 24:-0.24593117 25:1.9108248 26:-0.32151881 27:0.53318077 28:1.1352117 29:1.4084892 30:-0.12810315 31:-0.47914547 32:-0.10271824 33:-0.60606164 34:1.8893893 35:-0.46904288 36:-0.30647524 
0.9268721164449403 1:-0.98463841 2:-0.40367972 3:-0.59014405 4:1.2088662 5:-0.20000967 6:3.6899575 7:-0.24341116 8:-0.23785049 9:-0.12916647 10:-0.13197532 11:-0.13984631 12:-0.12631849 13:0.45904741 14:-0.74767313 15:-0.4370267 16:-0.17027899 17:0.73577823 18:1.179773 19:-0.9797567 20:-0.60176117 21:-0.5197573 22:-0.71750206 23:-0.3203615 24:-0.24593117 25:-0.47393793 26:-0.32151881 27:0.53318077 28:-0.8247039 29:1.4084892 30:-0.12810315 31:-0.47914547 32:-0.10271824 33:-0.60606164 34:1.8893893 35:-0.46904288 36:-0.30647524 
0.7163270478501621 1:-0.98463841 2:2.1988005 3:-0.59014405 4:-0.77325539 5:-0.20000967 6:-0.20289119 7:-0.24341116 8:-0.23785049 9:-0.12916647 10:-0.13197532 11:-0.13984631 12:-0.12631849 13:-1.9658385 14:-0.74767313 15:2.0527872 16:-0.17027899 17:0.73577823 18:1.179773 19:-0.9797567 20:-0.60176117 21:-0.5197573 22:-0.71750206 23:-0.3203615 24:-0.24593117 25:-0.47393793 26:-0.32151881 27:0.53318077 28:-0.8247039 29:1.4084892 30:-0.12810315 31:-0.47914547 32:-0.10271824 33:-0.60606164 34:-0.47995792 35:-0.46904288 36:-0.30647524 
0.9244054323422766 1:0.95232557 2:-0.40367972 3:-0.59014405 4:1.2088662 5:-0.20000967 6:-0.20289119 7:-0.24341116 8:-0.23785049 9:-0.12916647 10:4.6744165 11:-0.13984631 12:-0.12631849 13:0.45904741 14:1.2489493 15:-0.4370267 16:-0.17027899 17:0.73577823 18:1.179773 19:0.95707901 20:-0.60176117 21:1.7582526 22:1.2995712 23:-0.3203615 24:-0.24593117 25:1.9108248 26:2.653532 27:0.53318077 28:1.1352117 29:1.4084892 30:-0.12810315 31:1.892256 32:-0.10271824 33:1.5255349 34:1.8893893 35:1.928591 36:2.7554218 
0.8958998148715921 1:-0.98463841 2:-0.40367972 3:-0.59014405 4:1.2088662 5:-0.20000967 6:-0.20289119 7:-0.24341116 8:-0.23785049 9:-0.12916647 10:-0.13197532 11:-0.13984631 12:-0.12631849 13:0.45904741 14:-0.74767313 15:-0.4370267 16:-0.17027899 17:-1.2684543 18:-0.79285163 19:-0.9797567 20:-0.60176117 21:-0.5197573 22:-0.71750206 23:-0.3203615 24:-0.24593117 25:-0.47393793 26:-0.32151881 27:0.53318077 28:1.1352117 29:-0.65956639 30:-0.12810315 31:-0.47914547 32:-0.10271824 33:1.5255349 34:-0.47995792 35:-0.46904288 36:2.7554218 
0.9249517698192307 1:0.95232557 2:-0.40367972 3:-0.59014405 4:1.2088662 5:3.7233507 6:-0.20289119 7:-0.24341116 8:-0.23785049 9:-0.12916647 10:-0.13197532 11:-0.13984631 12:-0.12631849 13:0.45904741 14:1.2489493 15:-0.4370267 16:-0.17027899 17:0.73577823 18:1.179773 19:0.95707901 20:-0.60176117 21:1.7582526 22:1.2995712 23:-0.3203615 24:3.2444831 25:1.9108248 26:-0.32151881 27:0.53318077 28:1.1352117 29:1.4084892 30:-0.12810315 31:-0.47914547 32:-0.10271824 33:1.5255349 34:1.8893893 35:1.928591 36:-0.30647524 
0.9269868533381328 1:0.95232557 2:-0.40367972 3:1.563971 4:1.2088662 5:3.7233507 6:3.6899575 7:-0.24341116 8:-0.23785049 9:-0.12916647 10:-0.13197532 11:-0.13984631 12:-0.12631849 13:0.45904741 14:-0.74767313 15:-0.4370267 16:-0.17027899 17:0.73577823 18:1.179773 19:0.95707901 20:-0.60176117 21:1.7582526 22:1.2995712 23:-0.3203615 24:-0.24593117 25:1.9108248 26:-0.32151881 27:0.53318077 28:1.1352117 29:1.4084892 30:-0.12810315 31:-0.47914547 32:-0.10271824 33:1.5255349 34:1.8893893 35:-0.46904288 36:-0.30647524 
0.9244061015747649 1:-0.98463841 2:-0.40367972 3:1.563971 4:-0.77325539 5:-0.20000967 6:-0.20289119 7:-0.24341116 8:3.3210566 9:-0.12916647 10:-0.13197532 11:-0.13984631 12:-0.12631849 13:0.45904741 14:-0.74767313 15:-0.4370267 16:-0.17027899 17:0.73577823 18:1.179773 19:0.95707901 20:-0.60176117 21:1.7582526 22:1.2995712 23:-0.3203615 24:3.2444831 25:-0.47393793 26:-0.32151881 27:0.53318077 28:-0.8247039 29:1.4084892 30:-0.12810315 31:-0.47914547 32:-0.10271824 33:1.5255349 34:1.8893893 35:1.928591 36:-0.30647524 
0.5725771151740439 1:0.95232557 2:-0.40367972 3:-0.59014405 4:-0.77325539 5:-0.20000967 6:-0.20289119 7:-0.24341116 8:-0.23785049 9:-0.12916647 10:-0.13197532 11:-0.13984631 12:-0.12631849 13:0.45904741 14:1.2489493 15:-0.4370267 16:-0.17027899 17:0.73577823 18:1.179773 19:0.95707901 20:-0.60176117 21:-0.5197573 22:-0.71750206 23:-0.3203615 24:-0.24593117 25:1.9108248 26:-0.32151881 27:0.53318077 28:1.1352117 29:1.4084892 30:-0.12810315 31:-0.47914547 32:-0.10271824 33:-0.60606164 34:-0.47995792 35:-0.46904288 36:-0.30647524 
0.9406392336687968 1:0.95232557 2:-0.40367972 3:1.563971 4:-0.77325539 5:-0.20000967 6:-0.20289119 7:-0.24341116 8:-0.23785049 9:-0.12916647 10:-0.13197532 11:-0.13984631 12:-0.12631849 13:0.45904741 14:1.2489493 15:-0.4370267 16:-0.17027899 17:0.73577823 18:1.179773 19:0.95707901 20:-0.60176117 21:1.7582526 22:1.2995712 23:-0.3203615 24:3.2444831 25:-0.47393793 26:-0.32151881 27:0.53318077 28:1.1352117 29:1.4084892 30:-0.12810315 31:-0.47914547 32:-0.10271824 33:1.5255349 34:-0.47995792 35:1.928591 36:-0.30647524 
0.9273673023515359 1:0.95232557 2:-0.40367972 3:-0.59014405 4:-0.77325539 5:-0.20000967 6:3.6899575 7:-0.24341116 8:-0.23785049 9:-0.12916647 10:-0.13197532 11:-0.13984631 12:-0.12631849 13:-1.9658385 14:-0.74767313 15:-0.4370267 16:-0.17027899 17:0.73577823 18:-0.79285163 19:0.95707901 20:-0.60176117 21:-0.5197573 22:-0.71750206 23:-0.3203615 24:-0.24593117 25:1.9108248 26:-0.32151881 27:0.53318077 28:1.1352117 29:1.4084892 30:-0.12810315 31:-0.47914547 32:-0.10271824 33:-0.60606164 34:1.8893893 35:-0.46904288 36:-0.30647524 
0.9247554306663329 1:0.95232557 2:-0.40367972 3:-0.59014405 4:1.2088662 5:-0.20000967 6:3.6899575 7:-0.24341116 8:-0.23785049 9:-0.12916647 10:-0.13197532 11:-0.13984631 12:-0.12631849 13:0.45904741 14:-0.74767313 15:-0.4370267 16:-0.17027899 17:0.73577823 18:1.179773 19:0.95707901 20:1.5357423 21:1.7582526 22:1.2995712 23:-0.3203615 24:-0.24593117 25:-0.47393793 26:2.653532 27:0.53318077 28:1.1352117 29:1.4084892 30:-0.12810315 31:1.892256 32:-0.10271824 33:-0.60606164 34:1.8893893 35:-0.46904288 36:2.7554218 
0.4170321688097242 1:0.95232557 2:-0.40367972 3:-0.59014405 4:-0.77325539 5:-0.20000967 6:-0.20289119 7:-0.24341116 8:-0.23785049 9:-0.12916647 10:-0.13197532 11:-0.13984631 12:-0.12631849 13:0.45904741 14:-0.74767313 15:-0.4370267 16:-0.17027899 17:0.73577823 18:-0.79285163 19:0.95707901 20:-0.60176117 21:1.7582526 22:1.2995712 23:-0.3203615 24:-0.24593117 25:-0.47393793 26:-0.32151881 27:0.53318077 28:1.1352117 29:-0.65956639 30:-0.12810315 31:-0.47914547 32:-0.10271824 33:-0.60606164 34:-0.47995792 35:-0.46904288 36:-0.30647524 
0.9194295186967375 1:0.95232557 2:-0.40367972 3:1.563971 4:-0.77325539 5:-0.20000967 6:-0.20289119 7:-0.24341116 8:-0.23785049 9:-0.12916647 10:-0.13197532 11:-0.13984631 12:-0.12631849 13:0.45904741 14:1.2489493 15:-0.4370267 16:-0.17027899 17:0.73577823 18:1.179773 19:0.95707901 20:1.5357423 21:-0.5197573 22:-0.71750206 23:2.661132 24:-0.24593117 25:-0.47393793 26:2.653532 27:0.53318077 28:1.1352117 29:-0.65956639 30:-0.12810315 31:1.892256 32:-0.10271824 33:-0.60606164 34:-0.47995792 35:-0.46904288 36:-0.30647524 
