svm_type c_svc
kernel_type rbf
gamma 0.5
nr_class 2
total_sv 5222
rho -0.664563
label 2 1
nr_sv 3740 1482
SV
0.3352221714375684 1:1.0673786 2:-0.71156751 3:-0.71407343 4:-0.9633101 5:-0.58490062 6:-0.5966517 7:-0.62158296 8:-0.6080682 9:-0.58386408 10:-0.58397925 11:-0.58674344 12:-0.62192989 13:-0.15771959 14:1.9770423 15:-0.73560565 16:-0.58996993 17:2.4637776 18:0.70008552 19:2.7174592 20:2.6049825 21:1.1289751 22:0.78618329 23:3.5114776 24:-0.59908068 25:-0.66396316 26:-0.62365909 27:4.5881137 28:3.2850945 29:5.6451937 30:-0.58323151 31:-0.77824064 32:-0.57764536 33:0.88727064 34:1.2173329 35:1.3543399 36:-0.63196549 
0.3272515805008471 1:-0.93680462 2:-0.71156751 3:-0.71407343 4:1.0380097 5:-0.58490062 6:1.6758943 7:-0.62158296 8:-0.6080682 9:-0.58386408 10:-0.58397925 11:-0.58674344 12:-0.62192989 13:-0.15771959 14:-0.72165881 15:-0.73560565 16:-0.58996993 17:0.065536497 18:-0.72644143 19:0.4016948 20:-0.69574834 21:1.1289751 22:0.78618329 23:-0.62336575 24:-0.59908068 25:-0.66396316 26:-0.62365909 27:0.72805161 28:-0.73489894 29:-0.7299542 30:-0.58323151 31:-0.77824064 32:-0.57764536 33:0.88727064 34:-0.65072536 35:1.3543399 36:-0.63196549 
0.1342425855817193 1:1.0673786 2:-0.71156751 3:-0.71407343 4:-0.9633101 5:-0.58490062 6:-0.5966517 7:-0.62158296 8:-0.6080682 9:-0.58386408 10:-0.58397925 11:-0.58674344 12:-0.62192989 13:-1.0837421 14:0.62769177 15:-0.73560565 16:-0.58996993 17:0.8649502 18:0.70008552 19:0.4016948 20:0.9546171 21:-0.68403008 22:0.78618329 23:-0.62336575 24:-0.59908068 25:-0.66396316 26:-0.62365909 27:0.72805161 28:-0.73489894 29:0.86383279 30:-0.58323151 31:-0.77824064 32:-0.57764536 33:-0.70003315 34:-0.65072536 35:-0.65947062 36:-0.63196549 
0.3205571784817441 1:1.0673786 2:-0.71156751 3:-0.71407343 4:-0.9633101 5:-0.58490062 6:-0.5966517 7:-0.62158296 8:-0.6080682 9:-0.58386408 10:-0.58397925 11:-0.58674344 12:-0.62192989 13:-1.0837421 14:-0.72165881 15:-0.73560565 16:-0.58996993 17:1.6643639 18:0.70008552 19:1.559577 20:-0.69574834 21:-0.68403008 22:-0.73817993 23:-0.62336575 24:-0.59908068 25:3.2190305 26:-0.62365909 27:1.7807958 28:3.2850945 29:0.86383279 30:-0.58323151 31:-0.77824064 32:-0.57764536 33:2.4745744 34:3.0853912 35:-0.65947062 36:-0.63196549 
0.157085092995693 1:1.0673786 2:-0.71156751 3:-0.71407343 4:-0.9633101 5:-0.58490062 6:-0.5966517 7:-0.62158296 8:-0.6080682 9:-0.58386408 10:-0.58397925 11:-0.58674344 12:-0.62192989 13:-1.0837421 14:0.62769177 15:-0.73560565 16:-0.58996993 17:0.8649502 18:0.70008552 19:0.4016948 20:0.9546171 21:-0.68403008 22:0.78618329 23:-0.62336575 24:-0.59908068 25:-0.66396316 26:-0.62365909 27:0.026222142 28:-0.73489894 29:-0.7299542 30:-0.58323151 31:0.94147822 32:-0.57764536 33:-0.70003315 34:-0.65072536 35:-0.65947062 36:-0.63196549 
0.2996759316127369 1:1.0673786 2:-0.71156751 3:-0.71407343 4:-0.9633101 5:-0.58490062 6:-0.5966517 7:-0.62158296 8:-0.6080682 9:-0.58386408 10:-0.58397925 11:-0.58674344 12:-0.62192989 13:1.6943254 14:-0.72165881 15:-0.73560565 16:-0.58996993 17:-0.73387721 18:-0.72644143 19:-0.75618743 20:-0.69574834 21:-0.68403008 22:-0.73817993 23:-0.62336575 24:-0.59908068 25:-0.66396316 26:-0.62365909 27:0.72805161 28:0.60509886 29:0.86383279 30:-0.58323151 31:0.94147822 32:-0.57764536 33:0.88727064 34:-0.65072536 35:1.3543399 36:-0.63196549 
0.2666114873768021 1:1.0673786 2:-0.71156751 3:-0.71407343 4:-0.9633101 5:-0.58490062 6:-0.5966517 7:1.6086754 8:-0.6080682 9:-0.58386408 10:-0.58397925 11:-0.58674344 12:-0.62192989 13:0.76830292 14:0.62769177 15:-0.73560565 16:-0.58996993 17:0.065536497 18:-0.72644143 19:0.4016948 20:0.9546171 21:-0.68403008 22:0.78618329 23:-0.62336575 24:-0.59908068 25:-0.66396316 26:-0.62365909 27:0.72805161 28:0.60509886 29:-0.7299542 30:-0.58323151 31:-0.77824064 32:-0.57764536 33:0.88727064 34:-0.65072536 35:1.3543399 36:-0.63196549 
0.1648866274633317 1:-0.93680462 2:-0.71156751 3:-0.71407343 4:1.0380097 5:-0.58490062 6:-0.5966517 7:-0.62158296 8:-0.6080682 9:-0.58386408 10:-0.58397925 11:-0.58674344 12:-0.62192989 13:-0.15771959 14:-0.72165881 15:-0.73560565 16:1.6909173 17:-0.73387721 18:-0.72644143 19:-0.75618743 20:-0.69574834 21:-0.68403008 22:-0.73817993 23:-0.62336575 24:-0.59908068 25:-0.66396316 26:-0.62365909 27:-0.67560732 28:-0.73489894 29:-0.7299542 30:-0.58323151 31:-0.77824064 32:-0.57764536 33:-0.70003315 34:-0.65072536 35:-0.65947062 36:1.5528668 
0.3308403963180241 1:1.0673786 2:-0.71156751 3:-0.71407343 4:-0.9633101 5:-0.58490062 6:1.6758943 7:-0.62158296 8:-0.6080682 9:-0.58386408 10:-0.58397925 11:-0.58674344 12:-0.62192989 13:3.5463705 14:-0.72165881 15:-0.73560565 16:-0.58996993 17:0.8649502 18:0.70008552 19:0.4016948 20:0.9546171 21:-0.68403008 22:0.78618329 23:-0.62336575 24:-0.59908068 25:-0.66396316 26:-0.62365909 27:1.0789663 28:0.60509886 29:-0.7299542 30:-0.58323151 31:0.94147822 32:-0.57764536 33:0.88727064 34:-0.65072536 35:-0.65947062 36:-0.63196549 
0.3298863613394282 1:-0.93680462 2:-0.71156751 3:-0.71407343 4:1.0380097 5:-0.58490062 6:1.6758943 7:-0.62158296 8:-0.6080682 9:1.7125993 10:-0.58397925 11:-0.58674344 12:-0.62192989 13:0.76830292 14:0.62769177 15:-0.73560565 16:-0.58996993 17:0.065536497 18:0.70008552 19:-0.75618743 20:-0.69574834 21:-0.68403008 22:-0.73817993 23:-0.62336575 24:-0.59908068 25:-0.66396316 26:-0.62365909 27:-0.32469259 28:-0.73489894 29:-0.7299542 30:-0.58323151 31:-0.77824064 32:-0.57764536 33:-0.70003315 34:-0.65072536 35:-0.65947062 36:1.5528668 
0.3336529265990149 1:1.0673786 2:-0.71156751 3:-0.71407343 4:-0.9633101 5:-0.58490062 6:-0.5966517 7:-0.62158296 8:-0.6080682 9:-0.58386408 10:-0.58397925 11:-0.58674344 12:-0.62192989 13:-0.15771959 14:1.9770423 15:-0.73560565 16:-0.58996993 17:0.065536497 18:-0.72644143 19:0.4016948 20:-0.69574834 21:1.1289751 22:0.78618329 23:-0.62336575 24:-0.59908068 25:-0.66396316 26:1.4995134 27:1.0789663 28:1.9450967 29:-0.7299542 30:-0.58323151 31:-0.77824064 32:-0.57764536 33:2.4745744 34:-0.65072536 35:-0.65947062 36:-0.63196549 
0.3420149820772595 1:-0.93680462 2:-0.71156751 3:-0.71407343 4:1.0380097 5:-0.58490062 6:-0.5966517 7:-0.62158296 8:-0.6080682 9:-0.58386408 10:-0.58397925 11:-0.58674344 12:-0.62192989 13:0.76830292 14:1.9770423 15:-0.73560565 16:-0.58996993 17:-0.73387721 18:-0.72644143 19:-0.75618743 20:-0.69574834 21:-0.68403008 22:-0.73817993 23:-0.62336575 24:-0.59908068 25:-0.66396316 26:-0.62365909 27:0.72805161 28:1.9450967 29:2.4576198 30:-0.58323151 31:0.94147822 32:-0.57764536 33:0.88727064 34:-0.65072536 35:-0.65947062 36:-0.63196549 
0.3105207264131539 1:-0.93680462 2:-0.71156751 3:-0.71407343 4:1.0380097 5:-0.58490062 6:-0.5966517 7:-0.62158296 8:-0.6080682 9:-0.58386408 10:-0.58397925 11:-0.58674344 12:-0.62192989 13:-0.15771959 14:1.9770423 15:-0.73560565 16:-0.58996993 17:-0.73387721 18:-0.72644143 19:-0.75618743 20:-0.69574834 21:-0.68403008 22:-0.73817993 23:-0.62336575 24:-0.59908068 25:-0.66396316 26:-0.62365909 27:0.026222142 28:0.60509886 29:-0.7299542 30:-0.58323151 31:-0.77824064 32:-0.57764536 33:2.4745744 34:-0.65072536 35:-0.65947062 36:-0.63196549 
0.3326631489568005 1:-0.93680462 2:-0.71156751 3:-0.71407343 4:1.0380097 5:-0.58490062 6:-0.5966517 7:-0.62158296 8:-0.6080682 9:1.7125993 10:-0.58397925 11:-0.58674344 12:-0.62192989 13:-0.15771959 14:0.62769177 15:-0.73560565 16:1.6909173 17:0.065536497 18:0.70008552 19:-0.75618743 20:-0.69574834 21:-0.68403008 22:-0.73817993 23:-0.62336575 24:-0.59908068 25:-0.66396316 26:1.4995134 27:0.026222142 28:-0.73489894 29:-0.7299542 30:-0.58323151 31:-0.77824064 32:-0.57764536 33:-0.70003315 34:-0.65072536 35:-0.65947062 36:1.5528668 
0.1719306950988989 1:1.0673786 2:-0.71156751 3:-0.71407343 4:-0.9633101 5:-0.58490062 6:-0.5966517 7:-0.62158296 8:-0.6080682 9:-0.58386408 10:-0.58397925 11:-0.58674344 12:-0.62192989 13:-0.15771959 14:-0.72165881 15:-0.73560565 16:-0.58996993 17:0.065536497 18:-0.72644143 19:0.4016948 20:0.9546171 21:-0.68403008 22:0.78618329 23:-0.62336575 24:-0.59908068 25:-0.66396316 26:-0.62365909 27:0.37713688 28:0.60509886 29:-0.7299542 30:-0.58323151 31:-0.77824064 32:-0.57764536 33:0.88727064 34:-0.65072536 35:1.3543399 36:-0.63196549 
0.3353682685482999 1:1.0673786 2:-0.71156751 3:1.4003114 4:-0.9633101 5:-0.58490062 6:-0.5966517 7:-0.62158296 8:-0.6080682 9:-0.58386408 10:-0.58397925 11:-0.58674344 12:-0.62192989 13:1.6943254 14:-0.72165881 15:-0.73560565 16:-0.58996993 17:4.8620187 18:4.9796664 19:1.559577 20:2.6049825 21:-0.68403008 22:0.78618329 23:1.4440559 24:-0.59908068 25:-0.66396316 26:-0.62365909 27:4.2371989 28:3.2850945 29:0.86383279 30:-0.58323151 31:-0.77824064 32:-0.57764536 33:5.649182 34:-0.65072536 35:1.3543399 36:-0.63196549 
0.3246499392698671 1:-0.93680462 2:-0.71156751 3:-0.71407343 4:1.0380097 5:-0.58490062 6:-0.5966517 7:1.6086754 8:-0.6080682 9:-0.58386408 10:-0.58397925 11:-0.58674344 12:-0.62192989 13:2.6203479 14:0.62769177 15:-0.73560565 16:-0.58996993 17:0.065536497 18:-0.72644143 19:0.4016948 20:0.9546171 21:-0.68403008 22:0.78618329 23:-0.62336575 24:-0.59908068 25:-0.66396316 26:-0.62365909 27:0.37713688 28:-0.73489894 29:0.86383279 30:-0.58323151 31:-0.77824064 32:-0.57764536 33:-0.70003315 34:-0.65072536 35:-0.65947062 36:-0.63196549 
0.1826223019173119 1:1.0673786 2:1.4052429 3:-0.71407343 4:-0.9633101 5:-0.58490062 6:-0.5966517 7:-0.62158296 8:-0.6080682 9:-0.58386408 10:-0.58397925 11:-0.58674344 12:-0.62192989 13:-1.0837421 14:-0.72165881 15:3.1331244 16:-0.58996993 17:0.065536497 18:0.70008552 19:-0.75618743 20:-0.69574834 21:-0.68403008 22:-0.73817993 23:-0.62336575 24:-0.59908068 25:-0.66396316 26:-0.62365909 27:0.72805161 28:-0.73489894 29:-0.7299542 30:-0.58323151 31:-0.77824064 32:-0.57764536 33:0.88727064 34:-0.65072536 35:-0.65947062 36:-0.63196549 
0.3333954055893552 1:1.0673786 2:-0.71156751 3:-0.71407343 4:1.0380097 5:-0.58490062 6:-0.5966517 7:-0.62158296 8:-0.6080682 9:-0.58386408 10:1.7122615 11:-0.58674344 12:-0.62192989 13:0.76830292 14:-0.72165881 15:-0.73560565 16:-0.58996993 17:0.065536497 18:0.70008552 19:-0.75618743 20:-0.69574834 21:-0.68403008 22:-0.73817993 23:-0.62336575 24:-0.59908068 25:-0.66396316 26:-0.62365909 27:0.72805161 28:0.60509886 29:0.86383279 30:-0.58323151 31:0.94147822 32:-0.57764536 33:-0.70003315 34:-0.65072536 35:1.3543399 36:-0.63196549 
0.335235540075924 1:1.0673786 2:-0.71156751 3:1.4003114 4:-0.9633101 5:-0.58490062 6:-0.5966517 7:1.6086754 8:-0.6080682 9:-0.58386408 10:-0.58397925 11:-0.58674344 12:-0.62192989 13:-0.15771959 14:1.9770423 15:-0.73560565 16:-0.58996993 17:1.6643639 18:0.70008552 19:1.559577 20:-0.69574834 21:1.1289751 22:0.78618329 23:-0.62336575 24:-0.59908068 25:1.2775337 26:-0.62365909 27:2.83354 28:4.6250923 29:0.86383279 30:-0.58323151 31:-0.77824064 32:-0.57764536 33:2.4745744 34:1.2173329 35:1.3543399 36:-0.63196549 
0.3352941109590377 1:1.0673786 2:-0.71156751 3:-0.71407343 4:-0.9633101 5:-0.58490062 6:-0.5966517 7:-0.62158296 8:1.6444294 9:-0.58386408 10:-0.58397925 11:-0.58674344 12:-0.62192989 13:0.76830292 14:1.9770423 15:-0.73560565 16:-0.58996993 17:0.065536497 18:-0.72644143 19:0.4016948 20:-0.69574834 21:1.1289751 22:-0.73817993 23:-0.62336575 24:1.5945949 25:-0.66396316 26:-0.62365909 27:2.1317105 28:0.60509886 29:-0.7299542 30:-0.58323151 31:-0.77824064 32:-0.57764536 33:-0.70003315 34:1.2173329 35:-0.65947062 36:-0.63196549 
0.2247378446220606 1:1.0673786 2:1.4052429 3:-0.71407343 4:-0.9633101 5:-0.58490062 6:-0.5966517 7:-0.62158296 8:-0.6080682 9:-0.58386408 10:-0.58397925 11:-0.58674344 12:-0.62192989 13:-1.0837421 14:-0.72165881 15:1.1987594 16:-0.58996993 17:-0.73387721 18:-0.72644143 19:-0.75618743 20:-0.69574834 21:-0.68403008 22:-0.73817993 23:-0.62336575 24:-0.59908068 25:-0.66396316 26:-0.62365909 27:0.026222142 28:-0.73489894 29:-0.7299542 30:-0.58323151 31:-0.77824064 32:-0.57764536 33:-0.70003315 34:-0.65072536 35:1.3543399 36:-0.63196549 
0.2940252882727413 1:1.0673786 2:-0.71156751 3:-0.71407343 4:-0.9633101 5:-0.58490062 6:-0.5966517 7:1.6086754 8:-0.6080682 9:-0.58386408 10:-0.58397925 11:-0.58674344 12:-0.62192989 13:1.6943254 14:-0.72165881 15:-0.73560565 16:-0.58996993 17:0.8649502 18:0.70008552 19:0.4016948 20:0.9546171 21:-0.68403008 22:0.78618329 23:-0.62336575 24:-0.59908068 25:-0.66396316 26:-0.62365909 27:0.72805161 28:0.60509886 29:-0.7299542 30:-0.58323151 31:-0.77824064 32:-0.57764536 33:-0.70003315 34:-0.65072536 35:1.3543399 36:-0.63196549 
0.2590598469962345 1:1.0673786 2:-0.71156751 3:-0.71407343 4:-0.9633101 5:-0.58490062 6:-0.5966517 7:-0.62158296 8:-0.6080682 9:-0.58386408 10:-0.58397925 11:-0.58674344 12:-0.62192989 13:-0.15771959 14:-0.72165881 15:-0.73560565 16:-0.58996993 17:0.8649502 18:2.1266125 19:-0.75618743 20:-0.69574834 21:-0.68403008 22:-0.73817993 23:-0.62336575 24:-0.59908068 25:-0.66396316 26:-0.62365909 27:0.72805161 28:0.60509886 29:-0.7299542 30:-0.58323151 31:-0.77824064 32:-0.57764536 33:-0.70003315 34:1.2173329 35:1.3543399 36:-0.63196549 
0.3285424249644857 1:-0.93680462 2:-0.71156751 3:1.4003114 4:-0.9633101 5:-0.58490062 6:-0.5966517 7:-0.62158296 8:-0.6080682 9:-0.58386408 10:-0.58397925 11:-0.58674344 12:-0.62192989 13:1.6943254 14:-0.72165881 15:-0.73560565 16:-0.58996993 17:0.065536497 18:0.70008552 19:-0.75618743 20:-0.69574834 21:-0.68403008 22:-0.73817993 23:-0.62336575 24:-0.59908068 25:-0.66396316 26:1.4995134 27:0.72805161 28:1.9450967 29:-0.7299542 30:-0.58323151 31:-0.77824064 32:-0.57764536 33:2.4745744 34:-0.65072536 35:-0.65947062 36:-0.63196549 
0.299062114755286 1:1.0673786 2:1.4052429 3:-0.71407343 4:-0.9633101 5:-0.58490062 6:1.6758943 7:-0.62158296 8:-0.6080682 9:-0.58386408 10:-0.58397925 11:-0.58674344 12:-0.62192989 13:-1.0837421 14:-0.72165881 15:1.1987594 16:-0.58996993 17:0.065536497 18:0.70008552 19:-0.75618743 20:-0.69574834 21:-0.68403008 22:-0.73817993 23:-0.62336575 24:-0.59908068 25:-0.66396316 26:-0.62365909 27:0.026222142 28:0.60509886 29:-0.7299542 30:-0.58323151 31:-0.77824064 32:-0.57764536 33:-0.70003315 34:-0.65072536 35:-0.65947062 36:-0.63196549 
0.1221374244737141 1:1.0673786 2:-0.71156751 3:-0.71407343 4:-0.9633101 5:-0.58490062 6:-0.5966517 7:-0.62158296 8:-0.6080682 9:-0.58386408 10:-0.58397925 11:-0.58674344 12:-0.62192989 13:0.76830292 14:-0.72165881 15:-0.73560565 16:-0.58996993 17:0.8649502 18:0.70008552 19:0.4016948 20:0.9546171 21:-0.68403008 22:0.78618329 23:-0.62336575 24:-0.59908068 25:-0.66396316 26:-0.62365909 27:1.4298811 28:1.9450967 29:-0.7299542 30:-0.58323151 31:-0.77824064 32:-0.57764536 33:0.88727064 34:-0.65072536 35:1.3543399 36:-0.63196549 
0.2131028581001152 1:1.0673786 2:-0.71156751 3:-0.71407343 4:-0.9633101 5:-0.58490062 6:-0.5966517 7:1.6086754 8:-0.6080682 9:-0.58386408 10:-0.58397925 11:-0.58674344 12:-0.62192989 13:-0.15771959 14:0.62769177 15:-0.73560565 16:-0.58996993 17:0.065536497 18:-0.72644143 19:0.4016948 20:0.9546171 21:-0.68403008 22:0.78618329 23:-0.62336575 24:-0.59908068 25:-0.66396316 26:-0.62365909 27:0.37713688 28:-0.73489894 29:-0.7299542 30:-0.58323151 31:-0.77824064 32:-0.57764536 33:-0.70003315 34:-0.65072536 35:1.3543399 36:-0.63196549 
0.3375912686548435 1:1.0673786 2:1.4052429 3:-0.71407343 4:-0.9633101 5:-0.58490062 6:-0.5966517 7:-0.62158296 8:-0.6080682 9:-0.58386408 10:-0.58397925 11:-0.58674344 12:-0.62192989 13:-1.0837421 14:-0.72165881 15:1.1987594 16:-0.58996993 17:1.6643639 18:2.1266125 19:0.4016948 20:0.9546171 21:-0.68403008 22:0.78618329 23:-0.62336575 24:-0.59908068 25:-0.66396316 26:-0.62365909 27:1.4298811 28:-0.73489894 29:0.86383279 30:-0.58323151 31:-0.77824064 32:-0.57764536 33:0.88727064 34:1.2173329 35:1.3543399 36:-0.63196549 
0.3353037110093103 1:1.0673786 2:-0.71156751 3:-0.71407343 4:-0.9633101 5:-0.58490062 6:-0.5966517 7:-0.62158296 8:-0.6080682 9:-0.58386408 10:-0.58397925 11:-0.58674344 12:-0.62192989 13:-1.0837421 14:1.9770423 15:-0.73560565 16:-0.58996993 17:0.8649502 18:-0.72644143 19:1.559577 20:-0.69574834 21:2.9419803 22:2.3105465 23:-0.62336575 24:-0.59908068 25:-0.66396316 26:1.4995134 27:1.7807958 28:-0.73489894 29:-0.7299542 30:-0.58323151 31:0.94147822 32:-0.57764536 33:-0.70003315 34:-0.65072536 35:3.3681505 36:-0.63196549 
0.1914686557979831 1:-0.93680462 2:-0.71156751 3:-0.71407343 4:1.0380097 5:-0.58490062 6:-0.5966517 7:-0.62158296 8:-0.6080682 9:-0.58386408 10:1.7122615 11:-0.58674344 12:-0.62192989 13:-0.15771959 14:-0.72165881 15:-0.73560565 16:-0.58996993 17:-0.73387721 18:-0.72644143 19:-0.75618743 20:-0.69574834 21:-0.68403008 22:-0.73817993 23:-0.62336575 24:-0.59908068 25:-0.66396316 26:-0.62365909 27:-0.67560732 28:-0.73489894 29:-0.7299542 30:-0.58323151 31:-0.77824064 32:-0.57764536 33:-0.70003315 34:-0.65072536 35:-0.65947062 36:-0.63196549 
0.335673345512213 1:1.0673786 2:-0.71156751 3:-0.71407343 4:-0.9633101 5:-0.58490062 6:-0.5966517 7:1.6086754 8:-0.6080682 9:-0.58386408 10:-0.58397925 11:-0.58674344 12:-0.62192989 13:-0.15771959 14:-0.72165881 15:3.1331244 16:-0.58996993 17:-0.73387721 18:-0.72644143 19:-0.75618743 20:-0.69574834 21:-0.68403008 22:-0.73817993 23:-0.62336575 24:-0.59908068 25:-0.66396316 26:-0.62365909 27:-0.32469259 28:-0.73489894 29:-0.7299542 30:-0.58323151 31:0.94147822 32:-0.57764536 33:-0.70003315 34:-0.65072536 35:1.3543399 36:-0.63196549 
0.3347651281189929 1:1.0673786 2:1.4052429 3:-0.71407343 4:1.0380097 5:-0.58490062 6:-0.5966517 7:-0.62158296 8:-0.6080682 9:-0.58386408 10:1.7122615 11:-0.58674344 12:-0.62192989 13:3.5463705 14:-0.72165881 15:1.1987594 16:-0.58996993 17:0.8649502 18:2.1266125 19:-0.75618743 20:-0.69574834 21:-0.68403008 22:-0.73817993 23:-0.62336575 24:-0.59908068 25:-0.66396316 26:-0.62365909 27:1.0789663 28:0.60509886 29:-0.7299542 30:-0.58323151 31:-0.77824064 32:-0.57764536 33:0.88727064 34:-0.65072536 35:-0.65947062 36:-0.63196549 
0.5379439969198963 1:1.0673786 2:-0.71156751 3:-0.71407343 4:-0.9633101 5:-0.58490062 6:-0.5966517 7:-0.62158296 8:-0.6080682 9:-0.58386408 10:-0.58397925 11:-0.58674344 12:-0.62192989 13:0.76830292 14:-0.72165881 15:-0.73560565 16:-0.58996993 17:0.065536497 18:-0.72644143 19:0.4016948 20:0.9546171 21:-0.68403008 22:0.78618329 23:-0.62336575 24:-0.59908068 25:-0.66396316 26:-0.62365909 27:0.37713688 28:-0.73489894 29:-0.7299542 30:-0.58323151 31:-0.77824064 32:-0.57764536 33:-0.70003315 34:3.0853912 35:-0.65947062 36:-0.63196549 
0.3244139659570282 1:1.0673786 2:-0.71156751 3:-0.71407343 4:-0.9633101 5:-0.58490062 6:-0.5966517 7:1.6086754 8:1.6444294 9:-0.58386408 10:-0.58397925 11:-0.58674344 12:-0.62192989 13:-0.15771959 14:0.62769177 15:-0.73560565 16:-0.58996993 17:0.065536497 18:0.70008552 19:-0.75618743 20:-0.69574834 21:-0.68403008 22:-0.73817993 23:-0.62336575 24:-0.59908068 25:-0.66396316 26:-0.62365909 27:1.0789663 28:0.60509886 29:-0.7299542 30:-0.58323151 31:-0.77824064 32:-0.57764536 33:0.88727064 34:-0.65072536 35:-0.65947062 36:-0.63196549 
0.263819124085819 1:-0.93680462 2:-0.71156751 3:-0.71407343 4:1.0380097 5:-0.58490062 6:-0.5966517 7:-0.62158296 8:-0.6080682 9:-0.58386408 10:-0.58397925 11:-0.58674344 12:-0.62192989 13:0.76830292 14:-0.72165881 15:-0.73560565 16:-0.58996993 17:1.6643639 18:2.1266125 19:0.4016948 20:0.9546171 21:-0.68403008 22:0.78618329 23:-0.62336575 24:-0.59908068 25:-0.66396316 26:-0.62365909 27:0.72805161 28:-0.73489894 29:-0.7299542 30:-0.58323151 31:-0.77824064 32:-0.57764536 33:-0.70003315 34:-0.65072536 35:1.3543399 36:-0.63196549 
0.18376121649918 1:1.0673786 2:-0.71156751 3:-0.71407343 4:-0.9633101 5:-0.58490062 6:-0.5966517 7:-0.62158296 8:-0.6080682 9:-0.58386408 10:-0.58397925 11:-0.58674344 12:-0.62192989 13:-0.15771959 14:-0.72165881 15:-0.73560565 16:-0.58996993 17:0.065536497 18:-0.72644143 19:0.4016948 20:-0.69574834 21:-0.68403008 22:-0.73817993 23:-0.62336575 24:-0.59908068 25:1.2775337 26:-0.62365909 27:0.37713688 28:0.60509886 29:0.86383279 30:-0.58323151 31:-0.77824064 32:-0.57764536 33:0.88727064 34:1.2173329 35:-0.65947062 36:-0.63196549 
0.3357337387126318 1:1.0673786 2:-0.71156751 3:-0.71407343 4:-0.9633101 5:-0.58490062 6:-0.5966517 7:-0.62158296 8:-0.6080682 9:-0.58386408 10:-0.58397925 11:1.7041949 12:-0.62192989 13:-1.0837421 14:-0.72165881 15:5.0674895 16:-0.58996993 17:1.6643639 18:-0.72644143 19:2.7174592 20:-0.69574834 21:1.1289751 22:0.78618329 23:-0.62336575 24:-0.59908068 25:3.2190305 26:-0.62365909 27:0.72805161 28:0.60509886 29:-0.7299542 30:-0.58323151 31:-0.77824064 32:-0.57764536 33:-0.70003315 34:-0.65072536 35:-0.65947062 36:-0.63196549 
0.3205039733451364 1:1.0673786 2:-0.71156751 3:-0.71407343 4:-0.9633101 5:-0.58490062 6:-0.5966517 7:-0.62158296 8:-0.6080682 9:-0.58386408 10:1.7122615 11:-0.58674344 12:-0.62192989 13:-1.0837421 14:-0.72165881 15:-0.73560565 16:-0.58996993 17:0.065536497 18:-0.72644143 19:0.4016948 20:-0.69574834 21:1.1289751 22:0.78618329 23:-0.62336575 24:-0.59908068 25:-0.66396316 26:-0.62365909 27:0.026222142 28:-0.73489894 29:-0.7299542 30:-0.58323151 31:-0.77824064 32:-0.57764536 33:-0.70003315 34:-0.65072536 35:-0.65947062 36:-0.63196549 
0.2451809987321312 1:1.0673786 2:-0.71156751 3:-0.71407343 4:-0.9633101 5:-0.58490062 6:-0.5966517 7:-0.62158296 8:-0.6080682 9:-0.58386408 10:-0.58397925 11:-0.58674344 12:-0.62192989 13:-0.15771959 14:-0.72165881 15:-0.73560565 16:-0.58996993 17:0.065536497 18:-0.72644143 19:0.4016948 20:-0.69574834 21:1.1289751 22:0.78618329 23:-0.62336575 24:-0.59908068 25:-0.66396316 26:-0.62365909 27:0.026222142 28:-0.73489894 29:-0.7299542 30:-0.58323151 31:0.94147822 32:-0.57764536 33:-0.70003315 34:-0.65072536 35:-0.65947062 36:-0.63196549 
0.2777978004980749 1:-0.93680462 2:1.4052429 3:-0.71407343 4:1.0380097 5:-0.58490062 6:-0.5966517 7:1.6086754 8:-0.6080682 9:-0.58386408 10:-0.58397925 11:-0.58674344 12:-0.62192989 13:-0.15771959 14:-0.72165881 15:1.1987594 16:-0.58996993 17:-0.73387721 18:-0.72644143 19:-0.75618743 20:-0.69574834 21:-0.68403008 22:-0.73817993 23:-0.62336575 24:-0.59908068 25:-0.66396316 26:-0.62365909 27:-0.32469259 28:-0.73489894 29:-0.7299542 30:-0.58323151 31:-0.77824064 32:-0.57764536 33:0.88727064 34:-0.65072536 35:-0.65947062 36:-0.63196549 
0.3735167828746672 1:1.0673786 2:-0.71156751 3:-0.71407343 4:-0.9633101 5:-0.58490062 6:-0.5966517 7:-0.62158296 8:-0.6080682 9:-0.58386408 10:-0.58397925 11:-0.58674344 12:-0.62192989 13:-1.0837421 14:-0.72165881 15:-0.73560565 16:-0.58996993 17:0.065536497 18:-0.72644143 19:0.4016948 20:0.9546171 21:-0.68403008 22:0.78618329 23:-0.62336575 24:-0.59908068 25:-0.66396316 26:-0.62365909 27:0.72805161 28:-0.73489894 29:2.4576198 30:-0.58323151 31:-0.77824064 32:-0.57764536 33:-0.70003315 34:-0.65072536 35:-0.65947062 36:-0.63196549 
0.3301597305258602 1:-0.93680462 2:-0.71156751 3:-0.71407343 4:1.0380097 5:-0.58490062 6:-0.5966517 7:-0.62158296 8:1.6444294 9:1.7125993 10:-0.58397925 11:-0.58674344 12:-0.62192989 13:-1.0837421 14:-0.72165881 15:-0.73560565 16:1.6909173 17:-0.73387721 18:-0.72644143 19:-0.75618743 20:-0.69574834 21:-0.68403008 22:-0.73817993 23:-0.62336575 24:-0.59908068 25:-0.66396316 26:-0.62365909 27:-0.67560732 28:-0.73489894 29:-0.7299542 30:-0.58323151 31:-0.77824064 32:-0.57764536 33:-0.70003315 34:-0.65072536 35:-0.65947062 36:-0.63196549 
0.3354535626892537 1:1.0673786 2:1.4052429 3:-0.71407343 4:1.0380097 5:-0.58490062 6:-0.5966517 7:-0.62158296 8:1.6444294 9:-0.58386408 10:-0.58397925 11:-0.58674344 12:-0.62192989 13:-0.15771959 14:1.9770423 15:1.1987594 16:-0.58996993 17:2.4637776 18:0.70008552 19:2.7174592 20:2.6049825 21:1.1289751 22:2.3105465 23:1.4440559 24:-0.59908068 25:-0.66396316 26:-0.62365909 27:1.0789663 28:-0.73489894 29:-0.7299542 30:-0.58323151 31:-0.77824064 32:-0.57764536 33:-0.70003315 34:-0.65072536 35:-0.65947062 36:-0.63196549 
0.335481158326133 1:1.0673786 2:1.4052429 3:-0.71407343 4:-0.9633101 5:-0.58490062 6:-0.5966517 7:-0.62158296 8:-0.6080682 9:-0.58386408 10:-0.58397925 11:-0.58674344 12:-0.62192989 13:0.76830292 14:-0.72165881 15:1.1987594 16:-0.58996993 17:-0.73387721 18:-0.72644143 19:-0.75618743 20:-0.69574834 21:-0.68403008 22:-0.73817993 23:-0.62336575 24:-0.59908068 25:-0.66396316 26:3.6226859 27:2.1317105 28:1.9450967 29:0.86383279 30:-0.58323151 31:-0.77824064 32:-0.57764536 33:0.88727064 34:1.2173329 35:1.3543399 36:-0.63196549 
0.08754217385081496 1:-0.93680462 2:-0.71156751 3:-0.71407343 4:1.0380097 5:-0.58490062 6:-0.5966517 7:-0.62158296 8:-0.6080682 9:-0.58386408 10:-0.58397925 11:-0.58674344 12:-0.62192989 13:-0.15771959 14:0.62769177 15:-0.73560565 16:-0.58996993 17:0.8649502 18:0.70008552 19:0.4016948 20:0.9546171 21:-0.68403008 22:0.78618329 23:-0.62336575 24:-0.59908068 25:-0.66396316 26:-0.62365909 27:0.026222142 28:-0.73489894 29:-0.7299542 30:-0.58323151 31:-0.77824064 32:-0.57764536 33:-0.70003315 34:-0.65072536 35:-0.65947062 36:-0.63196549 
0.3353757567594502 1:1.0673786 2:-0.71156751 3:1.4003114 4:-0.9633101 5:-0.58490062 6:-0.5966517 7:-0.62158296 8:-0.6080682 9:-0.58386408 10:-0.58397925 11:-0.58674344 12:-0.62192989 13:1.6943254 14:1.9770423 15:-0.73560565 16:-0.58996993 17:2.4637776 18:2.1266125 19:1.559577 20:-0.69574834 21:1.1289751 22:-0.73817993 23:-0.62336575 24:1.5945949 25:1.2775337 26:-0.62365909 27:2.83354 28:1.9450967 29:2.4576198 30:-0.58323151 31:-0.77824064 32:-0.57764536 33:-0.70003315 34:-0.65072536 35:-0.65947062 36:-0.63196549 
0.335333342538619 1:1.0673786 2:1.4052429 3:-0.71407343 4:1.0380097 5:1.7095643 6:1.6758943 7:-0.62158296 8:-0.6080682 9:-0.58386408 10:-0.58397925 11:-0.58674344 12:-0.62192989 13:-1.0837421 14:1.9770423 15:1.1987594 16:-0.58996993 17:-0.73387721 18:-0.72644143 19:-0.75618743 20:-0.69574834 21:-0.68403008 22:-0.73817993 23:-0.62336575 24:-0.59908068 25:-0.66396316 26:-0.62365909 27:0.37713688 28:0.60509886 29:2.4576198 30:-0.58323151 31:-0.77824064 32:-0.57764536 33:0.88727064 34:1.2173329 35:-0.65947062 36:-0.63196549 
0.3798774815553013 1:-0.93680462 2:1.4052429 3:-0.71407343 4:-0.9633101 5:-0.58490062 6:-0.5966517 7:-0.62158296 8:-0.6080682 9:-0.58386408 10:-0.58397925 11:-0.58674344 12:-0.62192989 13:-1.0837421 14:-0.72165881 15:-0.73560565 16:-0.58996993 17:-0.73387721 18:-0.72644143 19:-0.75618743 20:-0.69574834 21:-0.68403008 22:-0.73817993 23:-0.62336575 24:-0.59908068 25:-0.66396316 26:-0.62365909 27:0.37713688 28:-0.73489894 29:-0.7299542 30:-0.58323151 31:-0.77824064 32:-0.57764536 33:-0.70003315 34:-0.65072536 35:1.3543399 36:-0.63196549 
0.3128626779828573 1:1.0673786 2:-0.71156751 3:-0.71407343 4:-0.9633101 5:1.7095643 6:-0.5966517 7:-0.62158296 8:-0.6080682 9:-0.58386408 10:-0.58397925 11:-0.58674344 12:-0.62192989 13:1.6943254 14:-0.72165881 15:-0.73560565 16:-0.58996993 17:-0.73387721 18:-0.72644143 19:-0.75618743 20:-0.69574834 21:-0.68403008 22:-0.73817993 23:-0.62336575 24:-0.59908068 25:-0.66396316 26:-0.62365909 27:0.026222142 28:0.60509886 29:0.86383279 30:-0.58323151 31:-0.77824064 32:-0.57764536 33:0.88727064 34:1.2173329 35:-0.65947062 36:-0.63196549 
0.1452560126050267 1:-0.93680462 2:1.4052429 3:-0.71407343 4:-0.9633101 5:-0.58490062 6:-0.5966517 7:-0.62158296 8:-0.6080682 9:-0.58386408 10:-0.58397925 11:-0.58674344 12:-0.62192989 13:-1.0837421 14:-0.72165881 15:1.1987594 16:-0.58996993 17:0.8649502 18:0.70008552 19:0.4016948 20:0.9546171 21:-0.68403008 22:-0.73817993 23:1.4440559 24:-0.59908068 25:-0.66396316 26:-0.62365909 27:0.026222142 28:-0.73489894 29:-0.7299542 30:-0.58323151 31:-0.77824064 32:-0.57764536 33:-0.70003315 34:-0.65072536 35:-0.65947062 36:-0.63196549 
0.154486274830929 1:1.0673786 2:-0.71156751 3:-0.71407343 4:-0.9633101 5:-0.58490062 6:-0.5966517 7:-0.62158296 8:-0.6080682 9:-0.58386408 10:-0.58397925 11:-0.58674344 12:-0.62192989 13:-1.0837421 14:0.62769177 15:-0.73560565 16:-0.58996993 17:0.065536497 18:-0.72644143 19:0.4016948 20:-0.69574834 21:1.1289751 22:0.78618329 23:-0.62336575 24:-0.59908068 25:-0.66396316 26:-0.62365909 27:0.72805161 28:0.60509886 29:-0.7299542 30:-0.58323151 31:-0.77824064 32:-0.57764536 33:-0.70003315 34:-0.65072536 35:1.3543399 36:-0.63196549 
0.2209653632459631 1:1.0673786 2:1.4052429 3:-0.71407343 4:1.0380097 5:-0.58490062 6:-0.5966517 7:-0.62158296 8:-0.6080682 9:-0.58386408 10:-0.58397925 11:-0.58674344 12:-0.62192989 13:0.76830292 14:-0.72165881 15:1.1987594 16:-0.58996993 17:-0.73387721 18:-0.72644143 19:-0.75618743 20:-0.69574834 21:-0.68403008 22:-0.73817993 23:-0.62336575 24:-0.59908068 25:-0.66396316 26:-0.62365909 27:0.72805161 28:-0.73489894 29:-0.7299542 30:-0.58323151 31:-0.77824064 32:-0.57764536 33:-0.70003315 34:-0.65072536 35:1.3543399 36:-0.63196549 
0.1285712261415397 1:1.0673786 2:1.4052429 3:-0.71407343 4:-0.9633101 5:-0.58490062 6:-0.5966517 7:-0.62158296 8:-0.6080682 9:-0.58386408 10:-0.58397925 11:-0.58674344 12:-0.62192989 13:-1.0837421 14:-0.72165881 15:1.1987594 16:-0.58996993 17:0.8649502 18:0.70008552 19:0.4016948 20:-0.69574834 21:1.1289751 22:0.78618329 23:-0.62336575 24:-0.59908068 25:-0.66396316 26:-0.62365909 27:1.0789663 28:0.60509886 29:-0.7299542 30:-0.58323151 31:-0.77824064 32:-0.57764536 33:-0.70003315 34:-0.65072536 35:1.3543399 36:-0.63196549 
0.3098217799839549 1:1.0673786 2:-0.71156751 3:-0.71407343 4:-0.9633101 5:-0.58490062 6:-0.5966517 7:1.6086754 8:-0.6080682 9:-0.58386408 10:-0.58397925 11:-0.58674344 12:-0.62192989 13:-0.15771959 14:0.62769177 15:-0.73560565 16:-0.58996993 17:0.065536497 18:-0.72644143 19:0.4016948 20:0.9546171 21:-0.68403008 22:0.78618329 23:-0.62336575 24:-0.59908068 25:-0.66396316 26:-0.62365909 27:0.37713688 28:-0.73489894 29:0.86383279 30:-0.58323151 31:-0.77824064 32:-0.57764536 33:0.88727064 34:1.2173329 35:-0.65947062 36:-0.63196549 
0.3353798258476944 1:1.0673786 2:1.4052429 3:-0.71407343 4:-0.9633101 5:-0.58490062 6:-0.5966517 7:-0.62158296 8:-0.6080682 9:-0.58386408 10:-0.58397925 11:-0.58674344 12:-0.62192989 13:2.6203479 14:0.62769177 15:3.1331244 16:-0.58996993 17:0.8649502 18:-0.72644143 19:1.559577 20:-0.69574834 21:2.9419803 22:2.3105465 23:-0.62336575 24:-0.59908068 25:-0.66396316 26:-0.62365909 27:2.1317105 28:0.60509886 29:0.86383279 30:-0.58323151 31:-0.77824064 32:-0.57764536 33:0.88727064 34:-0.65072536 35:1.3543399 36:-0.63196549 
0.86740448844055 1:-0.93680462 2:-0.71156751 3:1.4003114 4:-0.9633101 5:-0.58490062 6:-0.5966517 7:-0.62158296 8:-0.6080682 9:-0.58386408 10:-0.58397925 11:-0.58674344 12:-0.62192989 13:-1.0837421 14:-0.72165881 15:-0.73560565 16:-0.58996993 17:0.065536497 18:-0.72644143 19:0.4016948 20:-0.69574834 21:1.1289751 22:0.78618329 23:-0.62336575 24:-0.59908068 25:-0.66396316 26:-0.62365909 27:0.026222142 28:0.60509886 29:-0.7299542 30:-0.58323151 31:-0.77824064 32:-0.57764536 33:0.88727064 34:-0.65072536 35:-0.65947062 36:-0.63196549 
0.285015333409662 1:1.0673786 2:-0.71156751 3:-0.71407343 4:1.0380097 5:-0.58490062 6:-0.5966517 7:-0.62158296 8:-0.6080682 9:-0.58386408 10:-0.58397925 11:-0.58674344 12:-0.62192989 13:0.76830292 14:-0.72165881 15:-0.73560565 16:-0.58996993 17:0.8649502 18:0.70008552 19:0.4016948 20:-0.69574834 21:1.1289751 22:0.78618329 23:-0.62336575 24:-0.59908068 25:-0.66396316 26:-0.62365909 27:0.72805161 28:-0.73489894 29:0.86383279 30:-0.58323151 31:-0.77824064 32:-0.57764536 33:-0.70003315 34:-0.65072536 35:1.3543399 36:-0.63196549 
0.2670799153276298 1:1.0673786 2:1.4052429 3:-0.71407343 4:-0.9633101 5:-0.58490062 6:-0.5966517 7:-0.62158296 8:-0.6080682 9:-0.58386408 10:-0.58397925 11:-0.58674344 12:-0.62192989 13:0.76830292 14:0.62769177 15:1.1987594 16:-0.58996993 17:0.065536497 18:-0.72644143 19:0.4016948 20:-0.69574834 21:-0.68403008 22:-0.73817993 23:-0.62336575 24:-0.59908068 25:1.2775337 26:-0.62365909 27:0.026222142 28:-0.73489894 29:-0.7299542 30:-0.58323151 31:-0.77824064 32:-0.57764536 33:-0.70003315 34:-0.65072536 35:-0.65947062 36:-0.63196549 
0.3339166647066888 1:1.0673786 2:-0.71156751 3:-0.71407343 4:-0.9633101 5:-0.58490062 6:-0.5966517 7:-0.62158296 8:-0.6080682 9:-0.58386408 10:-0.58397925 11:-0.58674344 12:-0.62192989 13:-0.15771959 14:0.62769177 15:1.1987594 16:-0.58996993 17:-0.73387721 18:-0.72644143 19:-0.75618743 20:-0.69574834 21:-0.68403008 22:-0.73817993 23:-0.62336575 24:-0.59908068 25:-0.66396316 26:-0.62365909 27:0.37713688 28:1.9450967 29:-0.7299542 30:-0.58323151 31:-0.77824064 32:-0.57764536 33:0.88727064 34:-0.65072536 35:-0.65947062 36:-0.63196549 
0.3341503121493722 1:-0.93680462 2:-0.71156751 3:1.4003114 4:-0.9633101 5:-0.58490062 6:-0.5966517 7:1.6086754 8:-0.6080682 9:-0.58386408 10:-0.58397925 11:-0.58674344 12:-0.62192989 13:-0.15771959 14:1.9770423 15:-0.73560565 16:-0.58996993 17:0.8649502 18:0.70008552 19:0.4016948 20:0.9546171 21:-0.68403008 22:0.78618329 23:-0.62336575 24:-0.59908068 25:-0.66396316 26:-0.62365909 27:0.37713688 28:-0.73489894 29:-0.7299542 30:-0.58323151 31:-0.77824064 32:-0.57764536 33:-0.70003315 34:1.2173329 35:-0.65947062 36:-0.63196549 
0.3707567397782371 1:1.0673786 2:-0.71156751 3:-0.71407343 4:-0.9633101 5:-0.58490062 6:-0.5966517 7:-0.62158296 8:-0.6080682 9:-0.58386408 10:-0.58397925 11:-0.58674344 12:-0.62192989 13:0.76830292 14:0.62769177 15:1.1987594 16:-0.58996993 17:-0.73387721 18:-0.72644143 19:-0.75618743 20:-0.69574834 21:-0.68403008 22:-0.73817993 23:-0.62336575 24:-0.59908068 25:-0.66396316 26:-0.62365909 27:0.026222142 28:0.60509886 29:-0.7299542 30:-0.58323151 31:-0.77824064 32:-0.57764536 33:-0.70003315 34:-0.65072536 35:-0.65947062 36:-0.63196549 
0.2391076486221425 1:1.0673786 2:-0.71156751 3:-0.71407343 4:-0.9633101 5:-0.58490062 6:-0.5966517 7:-0.62158296 8:-0.6080682 9:-0.58386408 10:-0.58397925 11:-0.58674344 12:-0.62192989 13:-1.0837421 14:0.62769177 15:-0.73560565 16:-0.58996993 17:0.065536497 18:-0.72644143 19:0.4016948 20:-0.69574834 21:1.1289751 22:0.78618329 23:-0.62336575 24:-0.59908068 25:-0.66396316 26:-0.62365909 27:0.37713688 28:1.9450967 29:-0.7299542 30:-0.58323151 31:0.94147822 32:-0.57764536 33:-0.70003315 34:-0.65072536 35:-0.65947062 36:-0.63196549 
0.240130757441186 1:-0.93680462 2:-0.71156751 3:-0.71407343 4:1.0380097 5:-0.58490062 6:1.6758943 7:-0.62158296 8:-0.6080682 9:-0.58386408 10:-0.58397925 11:-0.58674344 12:-0.62192989 13:0.76830292 14:-0.72165881 15:-0.73560565 16:-0.58996993 17:-0.73387721 18:-0.72644143 19:-0.75618743 20:-0.69574834 21:-0.68403008 22:-0.73817993 23:-0.62336575 24:-0.59908068 25:-0.66396316 26:-0.62365909 27:-0.67560732 28:-0.73489894 29:-0.7299542 30:-0.58323151 31:-0.77824064 32:-0.57764536 33:-0.70003315 34:-0.65072536 35:-0.65947062 36:1.5528668 
0.3349778457796062 1:1.0673786 2:-0.71156751 3:-0.71407343 4:1.0380097 5:-0.58490062 6:-0.5966517 7:-0.62158296 8:-0.6080682 9:-0.58386408 10:-0.58397925 11:-0.58674344 12:-0.62192989 13:4.472393 14:4.6757435 15:-0.73560565 16:-0.58996993 17:0.8649502 18:-0.72644143 19:1.559577 20:-0.69574834 21:2.9419803 22:2.3105465 23:-0.62336575 24:-0.59908068 25:-0.66396316 26:3.6226859 27:3.1844547 28:3.2850945 29:0.86383279 30:-0.58323151 31:-0.77824064 32:-0.57764536 33:-0.70003315 34:-0.65072536 35:3.3681505 36:-0.63196549 
0.3354814682607823 1:1.0673786 2:-0.71156751 3:-0.71407343 4:-0.9633101 5:-0.58490062 6:-0.5966517 7:-0.62158296 8:-0.6080682 9:-0.58386408 10:-0.58397925 11:-0.58674344 12:-0.62192989 13:5.3984155 14:-0.72165881 15:-0.73560565 16:-0.58996993 17:0.065536497 18:-0.72644143 19:0.4016948 20:-0.69574834 21:1.1289751 22:0.78618329 23:-0.62336575 24:-0.59908068 25:-0.66396316 26:-0.62365909 27:1.4298811 28:0.60509886 29:0.86383279 30:-0.58323151 31:0.94147822 32:-0.57764536 33:0.88727064 34:1.2173329 35:1.3543399 36:-0.63196549 
0.3357347195147082 1:1.0673786 2:1.4052429 3:1.4003114 4:-0.9633101 5:-0.58490062 6:-0.5966517 7:-0.62158296 8:-0.6080682 9:-0.58386408 10:-0.58397925 11:-0.58674344 12:-0.62192989 13:1.6943254 14:4.6757435 15:1.1987594 16:-0.58996993 17:0.065536497 18:0.70008552 19:-0.75618743 20:-0.69574834 21:-0.68403008 22:-0.73817993 23:-0.62336575 24:-0.59908068 25:-0.66396316 26:-0.62365909 27:2.1317105 28:5.9650901 29:0.86383279 30:-0.58323151 31:0.94147822 32:-0.57764536 33:2.4745744 34:-0.65072536 35:-0.65947062 36:-0.63196549 
0.3414423133824524 1:1.0673786 2:-0.71156751 3:-0.71407343 4:-0.9633101 5:-0.58490062 6:-0.5966517 7:-0.62158296 8:-0.6080682 9:-0.58386408 10:-0.58397925 11:-0.58674344 12:-0.62192989 13:-0.15771959 14:-0.72165881 15:-0.73560565 16:-0.58996993 17:-0.73387721 18:-0.72644143 19:-0.75618743 20:-0.69574834 21:-0.68403008 22:-0.73817993 23:-0.62336575 24:-0.59908068 25:-0.66396316 26:-0.62365909 27:0.72805161 28:0.60509886 29:-0.7299542 30:-0.58323151 31:-0.77824064 32:-0.57764536 33:-0.70003315 34:-0.65072536 35:-0.65947062 36:-0.63196549 
0.3370560196669579 1:-0.93680462 2:-0.71156751 3:1.4003114 4:-0.9633101 5:-0.58490062 6:-0.5966517 7:1.6086754 8:-0.6080682 9:-0.58386408 10:-0.58397925 11:-0.58674344 12:-0.62192989 13:-0.15771959 14:0.62769177 15:-0.73560565 16:-0.58996993 17:0.8649502 18:0.70008552 19:0.4016948 20:0.9546171 21:-0.68403008 22:0.78618329 23:-0.62336575 24:-0.59908068 25:-0.66396316 26:-0.62365909 27:0.72805161 28:0.60509886 29:-0.7299542 30:-0.58323151 31:-0.77824064 32:-0.57764536 33:0.88727064 34:-0.65072536 35:-0.65947062 36:-0.63196549 
0.4283163985168588 1:1.0673786 2:1.4052429 3:-0.71407343 4:-0.9633101 5:-0.58490062 6:-0.5966517 7:1.6086754 8:-0.6080682 9:-0.58386408 10:-0.58397925 11:-0.58674344 12:-0.62192989 13:-1.0837421 14:-0.72165881 15:-0.73560565 16:-0.58996993 17:-0.73387721 18:-0.72644143 19:-0.75618743 20:-0.69574834 21:-0.68403008 22:-0.73817993 23:-0.62336575 24:-0.59908068 25:-0.66396316 26:-0.62365909 27:-0.67560732 28:-0.73489894 29:-0.7299542 30:-0.58323151 31:-0.77824064 32:-0.57764536 33:-0.70003315 34:-0.65072536 35:-0.65947062 36:-0.63196549 
0.3285839279220215 1:1.0673786 2:1.4052429 3:-0.71407343 4:1.0380097 5:-0.58490062 6:-0.5966517 7:-0.62158296 8:-0.6080682 9:-0.58386408 10:-0.58397925 11:-0.58674344 12:-0.62192989 13:4.472393 14:0.62769177 15:1.1987594 16:-0.58996993 17:-0.73387721 18:-0.72644143 19:-0.75618743 20:-0.69574834 21:-0.68403008 22:-0.73817993 23:-0.62336575 24:-0.59908068 25:-0.66396316 26:-0.62365909 27:0.026222142 28:0.60509886 29:0.86383279 30:-0.58323151 31:-0.77824064 32:-0.57764536 33:0.88727064 34:1.2173329 35:-0.65947062 36:-0.63196549 
1 1:-0.93680462 2:-0.71156751 3:-0.71407343 4:-0.9633101 5:-0.58490062 6:-0.5966517 7:-0.62158296 8:-0.6080682 9:-0.58386408 10:-0.58397925 11:-0.58674344 12:1.607778 13:-0.15771959 14:-0.72165881 15:-0.73560565 16:-0.58996993 17:-0.73387721 18:-0.72644143 19:-0.75618743 20:-0.69574834 21:-0.68403008 22:-0.73817993 23:-0.62336575 24:-0.59908068 25:-0.66396316 26:-0.62365909 27:-0.67560732 28:-0.73489894 29:-0.7299542 30:-0.58323151 31:2.6611971 32:-0.57764536 33:-0.70003315 34:-0.65072536 35:-0.65947062 36:-0.63196549 
0.2250615786141854 1:1.0673786 2:1.4052429 3:-0.71407343 4:-0.9633101 5:-0.58490062 6:-0.5966517 7:1.6086754 8:-0.6080682 9:-0.58386408 10:-0.58397925 11:-0.58674344 12:-0.62192989 13:-1.0837421 14:1.9770423 15:1.1987594 16:-0.58996993 17:-0.73387721 18:-0.72644143 19:-0.75618743 20:-0.69574834 21:-0.68403008 22:-0.73817993 23:-0.62336575 24:-0.59908068 25:-0.66396316 26:-0.62365909 27:0.026222142 28:0.60509886 29:-0.7299542 30:-0.58323151 31:-0.77824064 32:-0.57764536 33:0.88727064 34:-0.65072536 35:-0.65947062 36:-0.63196549 
0.3331239634262902 1:1.0673786 2:1.4052429 3:-0.71407343 4:-0.9633101 5:-0.58490062 6:-0.5966517 7:-0.62158296 8:-0.6080682 9:-0.58386408 10:-0.58397925 11:-0.58674344 12:-0.62192989 13:3.5463705 14:-0.72165881 15:1.1987594 16:-0.58996993 17:0.8649502 18:0.70008552 19:0.4016948 20:-0.69574834 21:1.1289751 22:0.78618329 23:-0.62336575 24:-0.59908068 25:-0.66396316 26:-0.62365909 27:1.4298811 28:1.9450967 29:-0.7299542 30:-0.58323151 31:-0.77824064 32:-0.57764536 33:-0.70003315 34:-0.65072536 35:-0.65947062 36:-0.63196549 
0.3271663509281605 1:1.0673786 2:1.4052429 3:-0.71407343 4:-0.9633101 5:-0.58490062 6:-0.5966517 7:-0.62158296 8:-0.6080682 9:-0.58386408 10:-0.58397925 11:-0.58674344 12:-0.62192989 13:-1.0837421 14:-0.72165881 15:3.1331244 16:-0.58996993 17:-0.73387721 18:-0.72644143 19:-0.75618743 20:-0.69574834 21:-0.68403008 22:-0.73817993 23:-0.62336575 24:-0.59908068 25:-0.66396316 26:-0.62365909 27:1.0789663 28:1.9450967 29:2.4576198 30:-0.58323151 31:-0.77824064 32:-0.57764536 33:0.88727064 34:1.2173329 35:-0.65947062 36:-0.63196549 
0.2432044299169872 1:1.0673786 2:-0.71156751 3:-0.71407343 4:1.0380097 5:-0.58490062 6:-0.5966517 7:-0.62158296 8:-0.6080682 9:-0.58386408 10:-0.58397925 11:-0.58674344 12:-0.62192989 13:0.76830292 14:0.62769177 15:1.1987594 16:-0.58996993 17:0.065536497 18:0.70008552 19:-0.75618743 20:-0.69574834 21:-0.68403008 22:-0.73817993 23:-0.62336575 24:-0.59908068 25:-0.66396316 26:-0.62365909 27:0.026222142 28:0.60509886 29:-0.7299542 30:-0.58323151 31:-0.77824064 32:-0.57764536 33:-0.70003315 34:-0.65072536 35:-0.65947062 36:-0.63196549 
0.2092356314492684 1:1.0673786 2:-0.71156751 3:-0.71407343 4:-0.9633101 5:-0.58490062 6:-0.5966517 7:-0.62158296 8:1.6444294 9:-0.58386408 10:-0.58397925 11:-0.58674344 12:-0.62192989 13:-0.15771959 14:-0.72165881 15:-0.73560565 16:-0.58996993 17:0.8649502 18:0.70008552 19:0.4016948 20:-0.69574834 21:-0.68403008 22:-0.73817993 23:-0.62336575 24:-0.59908068 25:1.2775337 26:-0.62365909 27:0.72805161 28:0.60509886 29:-0.7299542 30:-0.58323151 31:-0.77824064 32:-0.57764536 33:-0.70003315 34:-0.65072536 35:-0.65947062 36:-0.63196549 
0.1170899918843612 1:1.0673786 2:-0.71156751 3:-0.71407343 4:-0.9633101 5:-0.58490062 6:-0.5966517 7:-0.62158296 8:-0.6080682 9:-0.58386408 10:-0.58397925 11:-0.58674344 12:-0.62192989 13:-1.0837421 14:0.62769177 15:-0.73560565 16:-0.58996993 17:0.065536497 18:-0.72644143 19:0.4016948 20:-0.69574834 21:-0.68403008 22:-0.73817993 23:-0.62336575 24:-0.59908068 25:1.2775337 26:-0.62365909 27:0.026222142 28:0.60509886 29:-0.7299542 30:-0.58323151 31:0.94147822 32:-0.57764536 33:-0.70003315 34:-0.65072536 35:-0.65947062 36:-0.63196549 
0.3242843330380694 1:1.0673786 2:1.4052429 3:-0.71407343 4:-0.9633101 5:-0.58490062 6:-0.5966517 7:-0.62158296 8:-0.6080682 9:-0.58386408 10:-0.58397925 11:-0.58674344 12:-0.62192989 13:-1.0837421 14:-0.72165881 15:-0.73560565 16:-0.58996993 17:0.8649502 18:-0.72644143 19:1.559577 20:-0.69574834 21:2.9419803 22:0.78618329 23:-0.62336575 24:1.5945949 25:-0.66396316 26:-0.62365909 27:0.37713688 28:-0.73489894 29:-0.7299542 30:-0.58323151 31:-0.77824064 32:-0.57764536 33:-0.70003315 34:-0.65072536 35:1.3543399 36:-0.63196549 
0.2828514233936051 1:1.0673786 2:1.4052429 3:-0.71407343 4:-0.9633101 5:-0.58490062 6:-0.5966517 7:-0.62158296 8:-0.6080682 9:-0.58386408 10:-0.58397925 11:-0.58674344 12:-0.62192989 13:0.76830292 14:0.62769177 15:1.1987594 16:-0.58996993 17:-0.73387721 18:-0.72644143 19:-0.75618743 20:-0.69574834 21:-0.68403008 22:-0.73817993 23:-0.62336575 24:-0.59908068 25:-0.66396316 26:-0.62365909 27:0.72805161 28:0.60509886 29:-0.7299542 30:-0.58323151 31:-0.77824064 32:-0.57764536 33:0.88727064 34:-0.65072536 35:1.3543399 36:-0.63196549 
0.4497202650246698 1:1.0673786 2:-0.71156751 3:-0.71407343 4:-0.9633101 5:-0.58490062 6:-0.5966517 7:-0.62158296 8:1.6444294 9:-0.58386408 10:1.7122615 11:-0.58674344 12:-0.62192989 13:0.76830292 14:-0.72165881 15:-0.73560565 16:-0.58996993 17:-0.73387721 18:-0.72644143 19:-0.75618743 20:-0.69574834 21:-0.68403008 22:-0.73817993 23:-0.62336575 24:-0.59908068 25:-0.66396316 26:-0.62365909 27:-0.32469259 28:0.60509886 29:-0.7299542 30:-0.58323151 31:-0.77824064 32:-0.57764536 33:-0.70003315 34:-0.65072536 35:-0.65947062 36:-0.63196549 
0.1855396567631083 1:-0.93680462 2:-0.71156751 3:1.4003114 4:-0.9633101 5:-0.58490062 6:-0.5966517 7:-0.62158296 8:-0.6080682 9:-0.58386408 10:-0.58397925 11:-0.58674344 12:-0.62192989 13:-0.15771959 14:-0.72165881 15:-0.73560565 16:-0.58996993 17:0.8649502 18:2.1266125 19:-0.75618743 20:-0.69574834 21:-0.68403008 22:-0.73817993 23:-0.62336575 24:-0.59908068 25:-0.66396316 26:-0.62365909 27:0.37713688 28:-0.73489894 29:-0.7299542 30:-0.58323151 31:-0.77824064 32:-0.57764536 33:-0.70003315 34:-0.65072536 35:-0.65947062 36:-0.63196549 
0.2977703773661205 1:1.0673786 2:-0.71156751 3:-0.71407343 4:-0.9633101 5:-0.58490062 6:-0.5966517 7:-0.62158296 8:1.6444294 9:-0.58386408 10:-0.58397925 11:-0.58674344 12:-0.62192989 13:-0.15771959 14:-0.72165881 15:-0.73560565 16:-0.58996993 17:0.065536497 18:0.70008552 19:-0.75618743 20:-0.69574834 21:-0.68403008 22:-0.73817993 23:-0.62336575 24:-0.59908068 25:-0.66396316 26:-0.62365909 27:0.026222142 28:-0.73489894 29:0.86383279 30:-0.58323151 31:-0.77824064 32:-0.57764536 33:-0.70003315 34:1.2173329 35:-0.65947062 36:-0.63196549 
0.1509881923773519 1:1.0673786 2:-0.71156751 3:-0.71407343 4:1.0380097 5:-0.58490062 6:-0.5966517 7:-0.62158296 8:-0.6080682 9:-0.58386408 10:-0.58397925 11:-0.58674344 12:-0.62192989 13:-0.15771959 14:0.62769177 15:-0.73560565 16:-0.58996993 17:0.8649502 18:-0.72644143 19:1.559577 20:0.9546171 21:1.1289751 22:2.3105465 23:-0.62336575 24:-0.59908068 25:-0.66396316 26:-0.62365909 27:0.37713688 28:-0.73489894 29:-0.7299542 30:-0.58323151 31:-0.77824064 32:-0.57764536 33:-0.70003315 34:-0.65072536 35:-0.65947062 36:-0.63196549 
0.2654981405846677 1:-0.93680462 2:-0.71156751 3:-0.71407343 4:1.0380097 5:-0.58490062 6:-0.5966517 7:-0.62158296 8:-0.6080682 9:-0.58386408 10:-0.58397925 11:-0.58674344 12:-0.62192989 13:-0.15771959 14:-0.72165881 15:-0.73560565 16:-0.58996993 17:0.8649502 18:0.70008552 19:0.4016948 20:0.9546171 21:-0.68403008 22:0.78618329 23:-0.62336575 24:-0.59908068 25:-0.66396316 26:1.4995134 27:0.37713688 28:-0.73489894 29:-0.7299542 30:-0.58323151 31:-0.77824064 32:-0.57764536 33:-0.70003315 34:-0.65072536 35:-0.65947062 36:-0.63196549 
0.05630464414472266 1:1.0673786 2:-0.71156751 3:-0.71407343 4:1.0380097 5:-0.58490062 6:-0.5966517 7:-0.62158296 8:-0.6080682 9:-0.58386408 10:-0.58397925 11:-0.58674344 12:-0.62192989 13:0.76830292 14:-0.72165881 15:-0.73560565 16:-0.58996993 17:0.8649502 18:0.70008552 19:0.4016948 20:0.9546171 21:-0.68403008 22:0.78618329 23:-0.62336575 24:-0.59908068 25:-0.66396316 26:-0.62365909 27:0.026222142 28:-0.73489894 29:-0.7299542 30:-0.58323151 31:-0.77824064 32:-0.57764536 33:-0.70003315 34:-0.65072536 35:-0.65947062 36:-0.63196549 
0.3791131322201369 1:-0.93680462 2:-0.71156751 3:-0.71407343 4:1.0380097 5:-0.58490062 6:-0.5966517 7:-0.62158296 8:-0.6080682 9:-0.58386408 10:-0.58397925 11:-0.58674344 12:-0.62192989 13:-0.15771959 14:-0.72165881 15:-0.73560565 16:-0.58996993 17:0.8649502 18:0.70008552 19:0.4016948 20:-0.69574834 21:-0.68403008 22:-0.73817993 23:-0.62336575 24:-0.59908068 25:1.2775337 26:-0.62365909 27:0.72805161 28:-0.73489894 29:-0.7299542 30:-0.58323151 31:-0.77824064 32:-0.57764536 33:-0.70003315 34:-0.65072536 35:-0.65947062 36:-0.63196549 
0.344939175491226 1:-0.93680462 2:1.4052429 3:-0.71407343 4:-0.9633101 5:-0.58490062 6:-0.5966517 7:-0.62158296 8:-0.6080682 9:-0.58386408 10:-0.58397925 11:-0.58674344 12:-0.62192989 13:-0.15771959 14:-0.72165881 15:1.1987594 16:-0.58996993 17:0.8649502 18:0.70008552 19:0.4016948 20:0.9546171 21:-0.68403008 22:-0.73817993 23:1.4440559 24:-0.59908068 25:-0.66396316 26:-0.62365909 27:1.0789663 28:0.60509886 29:0.86383279 30:-0.58323151 31:-0.77824064 32:-0.57764536 33:-0.70003315 34:-0.65072536 35:-0.65947062 36:-0.63196549 
0.2289754414280158 1:-0.93680462 2:-0.71156751 3:-0.71407343 4:-0.9633101 5:-0.58490062 6:-0.5966517 7:-0.62158296 8:-0.6080682 9:1.7125993 10:-0.58397925 11:-0.58674344 12:-0.62192989 13:-0.15771959 14:-0.72165881 15:-0.73560565 16:1.6909173 17:-0.73387721 18:-0.72644143 19:-0.75618743 20:-0.69574834 21:-0.68403008 22:-0.73817993 23:-0.62336575 24:-0.59908068 25:-0.66396316 26:-0.62365909 27:-0.67560732 28:-0.73489894 29:-0.7299542 30:-0.58323151 31:-0.77824064 32:-0.57764536 33:-0.70003315 34:-0.65072536 35:-0.65947062 36:-0.63196549 
0.3090560134696322 1:-0.93680462 2:-0.71156751 3:1.4003114 4:-0.9633101 5:-0.58490062 6:-0.5966517 7:-0.62158296 8:-0.6080682 9:-0.58386408 10:-0.58397925 11:-0.58674344 12:-0.62192989 13:1.6943254 14:-0.72165881 15:-0.73560565 16:-0.58996993 17:0.065536497 18:-0.72644143 19:0.4016948 20:-0.69574834 21:-0.68403008 22:-0.73817993 23:-0.62336575 24:-0.59908068 25:1.2775337 26:-0.62365909 27:0.026222142 28:0.60509886 29:-0.7299542 30:-0.58323151 31:-0.77824064 32:-0.57764536 33:-0.70003315 34:-0.65072536 35:-0.65947062 36:-0.63196549 
0.4339596656559916 1:-0.93680462 2:-0.71156751 3:-0.71407343 4:-0.9633101 5:-0.58490062 6:1.6758943 7:-0.62158296 8:-0.6080682 9:-0.58386408 10:-0.58397925 11:-0.58674344 12:-0.62192989 13:-0.15771959 14:-0.72165881 15:-0.73560565 16:-0.58996993 17:0.8649502 18:0.70008552 19:0.4016948 20:-0.69574834 21:1.1289751 22:0.78618329 23:-0.62336575 24:-0.59908068 25:-0.66396316 26:-0.62365909 27:0.37713688 28:0.60509886 29:-0.7299542 30:-0.58323151 31:-0.77824064 32:-0.57764536 33:-0.70003315 34:-0.65072536 35:-0.65947062 36:-0.63196549 
0.2598883070102875 1:1.0673786 2:1.4052429 3:-0.71407343 4:-0.9633101 5:-0.58490062 6:-0.5966517 7:-0.62158296 8:-0.6080682 9:-0.58386408 10:-0.58397925 11:-0.58674344 12:-0.62192989 13:-0.15771959 14:-0.72165881 15:-0.73560565 16:-0.58996993 17:0.065536497 18:-0.72644143 19:0.4016948 20:-0.69574834 21:1.1289751 22:0.78618329 23:-0.62336575 24:-0.59908068 25:-0.66396316 26:-0.62365909 27:0.37713688 28:-0.73489894 29:-0.7299542 30:-0.58323151 31:-0.77824064 32:-0.57764536 33:0.88727064 34:-0.65072536 35:-0.65947062 36:-0.63196549 
0.3791845586679491 1:1.0673786 2:1.4052429 3:-0.71407343 4:-0.9633101 5:-0.58490062 6:-0.5966517 7:-0.62158296 8:-0.6080682 9:-0.58386408 10:-0.58397925 11:-0.58674344 12:-0.62192989 13:-1.0837421 14:-0.72165881 15:1.1987594 16:-0.58996993 17:0.8649502 18:0.70008552 19:0.4016948 20:-0.69574834 21:-0.68403008 22:-0.73817993 23:-0.62336575 24:-0.59908068 25:1.2775337 26:-0.62365909 27:0.37713688 28:-0.73489894 29:0.86383279 30:-0.58323151 31:-0.77824064 32:-0.57764536 33:-0.70003315 34:-0.65072536 35:-0.65947062 36:-0.63196549 
0.176059912385178 1:-0.93680462 2:-0.71156751 3:-0.71407343 4:1.0380097 5:-0.58490062 6:-0.5966517 7:-0.62158296 8:-0.6080682 9:-0.58386408 10:-0.58397925 11:-0.58674344 12:-0.62192989 13:2.6203479 14:-0.72165881 15:-0.73560565 16:-0.58996993 17:0.065536497 18:0.70008552 19:-0.75618743 20:-0.69574834 21:-0.68403008 22:-0.73817993 23:-0.62336575 24:-0.59908068 25:-0.66396316 26:-0.62365909 27:0.026222142 28:0.60509886 29:-0.7299542 30:-0.58323151 31:-0.77824064 32:-0.57764536 33:-0.70003315 34:-0.65072536 35:-0.65947062 36:-0.63196549 
1 1:-0.93680462 2:-0.71156751 3:-0.71407343 4:-0.9633101 5:-0.58490062 6:-0.5966517 7:-0.62158296 8:-0.6080682 9:-0.58386408 10:-0.58397925 11:-0.58674344 12:-0.62192989 13:-1.0837421 14:-0.72165881 15:-0.73560565 16:-0.58996993 17:-0.73387721 18:-0.72644143 19:-0.75618743 20:-0.69574834 21:-0.68403008 22:-0.73817993 23:-0.62336575 24:-0.59908068 25:-0.66396316 26:-0.62365909 27:-0.67560732 28:-0.73489894 29:-0.7299542 30:-0.58323151 31:-0.77824064 32:-0.57764536 33:-0.70003315 34:-0.65072536 35:-0.65947062 36:-0.63196549 
0.3281696171529892 1:1.0673786 2:1.4052429 3:-0.71407343 4:1.0380097 5:-0.58490062 6:-0.5966517 7:-0.62158296 8:-0.6080682 9:-0.58386408 10:-0.58397925 11:-0.58674344 12:-0.62192989 13:1.6943254 14:0.62769177 15:-0.73560565 16:-0.58996993 17:-0.73387721 18:-0.72644143 19:-0.75618743 20:-0.69574834 21:-0.68403008 22:-0.73817993 23:-0.62336575 24:-0.59908068 25:-0.66396316 26:-0.62365909 27:-0.32469259 28:-0.73489894 29:-0.7299542 30:-0.58323151 31:0.94147822 32:-0.57764536 33:0.88727064 34:-0.65072536 35:-0.65947062 36:1.5528668 
0.2121696478376742 1:1.0673786 2:1.4052429 3:-0.71407343 4:-0.9633101 5:-0.58490062 6:-0.5966517 7:-0.62158296 8:-0.6080682 9:-0.58386408 10:-0.58397925 11:-0.58674344 12:-0.62192989 13:-1.0837421 14:-0.72165881 15:1.1987594 16:-0.58996993 17:0.065536497 18:-0.72644143 19:0.4016948 20:-0.69574834 21:-0.68403008 22:-0.73817993 23:-0.62336575 24:-0.59908068 25:1.2775337 26:-0.62365909 27:0.37713688 28:0.60509886 29:-0.7299542 30:-0.58323151 31:-0.77824064 32:-0.57764536 33:0.88727064 34:1.2173329 35:-0.65947062 36:-0.63196549 
1 1:-0.93680462 2:-0.71156751 3:-0.71407343 4:-0.9633101 5:-0.58490062 6:-0.5966517 7:-0.62158296 8:-0.6080682 9:-0.58386408 10:-0.58397925 11:-0.58674344 12:-0.62192989 13:-1.0837421 14:-0.72165881 15:-0.73560565 16:-0.58996993 17:-0.73387721 18:-0.72644143 19:-0.75618743 20:-0.69574834 21:-0.68403008 22:-0.73817993 23:-0.62336575 24:-0.59908068 25:-0.66396316 26:-0.62365909 27:-0.32469259 28:-0.73489894 29:0.86383279 30:-0.58323151 31:-0.77824064 32:-0.57764536 33:0.88727064 34:1.2173329 35:-0.65947062 36:-0.63196549 
0.1432943471255139 1:-0.93680462 2:-0.71156751 3:-0.71407343 4:1.0380097 5:-0.58490062 6:-0.5966517 7:-0.62158296 8:-0.6080682 9:-0.58386408 10:-0.58397925 11:-0.58674344 12:-0.62192989 13:-0.15771959 14:0.62769177 15:-0.73560565 16:-0.58996993 17:0.065536497 18:-0.72644143 19:0.4016948 20:-0.69574834 21:1.1289751 22:0.78618329 23:-0.62336575 24:-0.59908068 25:-0.66396316 26:-0.62365909 27:0.026222142 28:-0.73489894 29:-0.7299542 30:-0.58323151 31:-0.77824064 32:-0.57764536 33:-0.70003315 34:-0.65072536 35:1.3543399 36:-0.63196549 
0.2586284019669522 1:1.0673786 2:-0.71156751 3:-0.71407343 4:-0.9633101 5:-0.58490062 6:-0.5966517 7:-0.62158296 8:-0.6080682 9:-0.58386408 10:-0.58397925 11:-0.58674344 12:-0.62192989 13:1.6943254 14:0.62769177 15:-0.73560565 16:-0.58996993 17:0.065536497 18:-0.72644143 19:0.4016948 20:-0.69574834 21:1.1289751 22:0.78618329 23:-0.62336575 24:-0.59908068 25:-0.66396316 26:-0.62365909 27:0.026222142 28:-0.73489894 29:-0.7299542 30:-0.58323151 31:-0.77824064 32:-0.57764536 33:-0.70003315 34:-0.65072536 35:1.3543399 36:-0.63196549 
0.05214684533902655 1:-0.93680462 2:-0.71156751 3:-0.71407343 4:-0.9633101 5:-0.58490062 6:-0.5966517 7:-0.62158296 8:-0.6080682 9:1.7125993 10:-0.58397925 11:-0.58674344 12:-0.62192989 13:-0.15771959 14:-0.72165881 15:-0.73560565 16:-0.58996993 17:0.065536497 18:0.70008552 19:-0.75618743 20:-0.69574834 21:-0.68403008 22:-0.73817993 23:-0.62336575 24:-0.59908068 25:-0.66396316 26:1.4995134 27:0.026222142 28:-0.73489894 29:-0.7299542 30:-0.58323151 31:-0.77824064 32:-0.57764536 33:-0.70003315 34:-0.65072536 35:-0.65947062 36:-0.63196549 
0.1754513799850972 1:1.0673786 2:-0.71156751 3:-0.71407343 4:-0.9633101 5:-0.58490062 6:-0.5966517 7:-0.62158296 8:-0.6080682 9:-0.58386408 10:-0.58397925 11:-0.58674344 12:-0.62192989 13:1.6943254 14:-0.72165881 15:-0.73560565 16:-0.58996993 17:0.8649502 18:0.70008552 19:0.4016948 20:0.9546171 21:-0.68403008 22:0.78618329 23:-0.62336575 24:-0.59908068 25:-0.66396316 26:-0.62365909 27:0.37713688 28:-0.73489894 29:-0.7299542 30:-0.58323151 31:-0.77824064 32:-0.57764536 33:-0.70003315 34:-0.65072536 35:1.3543399 36:-0.63196549 
0.3356519981994363 1:1.0673786 2:-0.71156751 3:-0.71407343 4:1.0380097 5:-0.58490062 6:-0.5966517 7:-0.62158296 8:-0.6080682 9:-0.58386408 10:-0.58397925 11:-0.58674344 12:-0.62192989 13:1.6943254 14:4.6757435 15:-0.73560565 16:1.6909173 17:0.8649502 18:-0.72644143 19:1.559577 20:-0.69574834 21:2.9419803 22:2.3105465 23:-0.62336575 24:-0.59908068 25:-0.66396316 26:-0.62365909 27:1.0789663 28:-0.73489894 29:2.4576198 30:-0.58323151 31:-0.77824064 32:-0.57764536 33:-0.70003315 34:-0.65072536 35:-0.65947062 36:-0.63196549 
0.3252251773594585 1:1.0673786 2:-0.71156751 3:-0.71407343 4:-0.9633101 5:-0.58490062 6:-0.5966517 7:-0.62158296 8:-0.6080682 9:-0.58386408 10:-0.58397925 11:-0.58674344 12:-0.62192989 13:-0.15771959 14:-0.72165881 15:-0.73560565 16:-0.58996993 17:0.065536497 18:0.70008552 19:-0.75618743 20:-0.69574834 21:-0.68403008 22:-0.73817993 23:-0.62336575 24:-0.59908068 25:-0.66396316 26:-0.62365909 27:0.37713688 28:-0.73489894 29:-0.7299542 30:-0.58323151 31:-0.77824064 32:-0.57764536 33:-0.70003315 34:1.2173329 35:-0.65947062 36:-0.63196549 
0.3357297174436097 1:-0.93680462 2:-0.71156751 3:1.4003114 4:1.0380097 5:-0.58490062 6:-0.5966517 7:-0.62158296 8:-0.6080682 9:-0.58386408 10:-0.58397925 11:-0.58674344 12:-0.62192989 13:-0.15771959 14:-0.72165881 15:-0.73560565 16:-0.58996993 17:0.8649502 18:0.70008552 19:0.4016948 20:-0.69574834 21:1.1289751 22:0.78618329 23:-0.62336575 24:-0.59908068 25:-0.66396316 26:-0.62365909 27:2.4826253 28:4.6250923 29:0.86383279 30:-0.58323151 31:-0.77824064 32:-0.57764536 33:4.0618782 34:1.2173329 35:-0.65947062 36:-0.63196549 
0.3624391916790273 1:1.0673786 2:1.4052429 3:-0.71407343 4:-0.9633101 5:-0.58490062 6:-0.5966517 7:-0.62158296 8:-0.6080682 9:-0.58386408 10:-0.58397925 11:-0.58674344 12:-0.62192989 13:0.76830292 14:0.62769177 15:1.1987594 16:-0.58996993 17:0.065536497 18:-0.72644143 19:0.4016948 20:-0.69574834 21:1.1289751 22:0.78618329 23:-0.62336575 24:-0.59908068 25:-0.66396316 26:-0.62365909 27:1.0789663 28:0.60509886 29:0.86383279 30:-0.58323151 31:-0.77824064 32:-0.57764536 33:-0.70003315 34:-0.65072536 35:1.3543399 36:-0.63196549 
0.335421252476144 1:1.0673786 2:-0.71156751 3:-0.71407343 4:1.0380097 5:-0.58490062 6:-0.5966517 7:-0.62158296 8:1.6444294 9:-0.58386408 10:-0.58397925 11:-0.58674344 12:-0.62192989 13:4.472393 14:3.3263929 15:-0.73560565 16:-0.58996993 17:3.2631913 18:2.1266125 19:2.7174592 20:-0.69574834 21:4.7549854 22:3.8349097 23:-0.62336575 24:-0.59908068 25:-0.66396316 26:-0.62365909 27:1.7807958 28:0.60509886 29:-0.7299542 30:-0.58323151 31:-0.77824064 32:-0.57764536 33:-0.70003315 34:-0.65072536 35:-0.65947062 36:1.5528668 
0.3353835379900356 1:-0.93680462 2:-0.71156751 3:-0.71407343 4:1.0380097 5:-0.58490062 6:-0.5966517 7:-0.62158296 8:1.6444294 9:-0.58386408 10:-0.58397925 11:1.7041949 12:-0.62192989 13:0.76830292 14:-0.72165881 15:1.1987594 16:-0.58996993 17:1.6643639 18:0.70008552 19:1.559577 20:2.6049825 21:-0.68403008 22:2.3105465 23:-0.62336575 24:-0.59908068 25:-0.66396316 26:1.4995134 27:1.4298811 28:-0.73489894 29:-0.7299542 30:-0.58323151 31:-0.77824064 32:-0.57764536 33:-0.70003315 34:-0.65072536 35:-0.65947062 36:-0.63196549 
0.333812787146709 1:1.0673786 2:1.4052429 3:-0.71407343 4:-0.9633101 5:-0.58490062 6:-0.5966517 7:-0.62158296 8:-0.6080682 9:-0.58386408 10:-0.58397925 11:-0.58674344 12:-0.62192989 13:3.5463705 14:-0.72165881 15:1.1987594 16:-0.58996993 17:0.8649502 18:0.70008552 19:0.4016948 20:-0.69574834 21:1.1289751 22:0.78618329 23:-0.62336575 24:-0.59908068 25:-0.66396316 26:-0.62365909 27:0.026222142 28:-0.73489894 29:-0.7299542 30:-0.58323151 31:0.94147822 32:-0.57764536 33:-0.70003315 34:-0.65072536 35:-0.65947062 36:-0.63196549 
0.2827722725623836 1:1.0673786 2:-0.71156751 3:-0.71407343 4:1.0380097 5:-0.58490062 6:-0.5966517 7:-0.62158296 8:-0.6080682 9:-0.58386408 10:-0.58397925 11:-0.58674344 12:-0.62192989 13:0.76830292 14:-0.72165881 15:-0.73560565 16:-0.58996993 17:0.8649502 18:0.70008552 19:-0.75618743 20:-0.69574834 21:-0.68403008 22:-0.73817993 23:-0.62336575 24:-0.59908068 25:-0.66396316 26:-0.62365909 27:1.0789663 28:1.9450967 29:-0.7299542 30:-0.58323151 31:-0.77824064 32:-0.57764536 33:-0.70003315 34:-0.65072536 35:-0.65947062 36:-0.63196549 
0.310127343901309 1:-0.93680462 2:1.4052429 3:-0.71407343 4:1.0380097 5:-0.58490062 6:-0.5966517 7:-0.62158296 8:-0.6080682 9:-0.58386408 10:-0.58397925 11:-0.58674344 12:-0.62192989 13:1.6943254 14:-0.72165881 15:1.1987594 16:-0.58996993 17:-0.73387721 18:-0.72644143 19:-0.75618743 20:-0.69574834 21:-0.68403008 22:-0.73817993 23:-0.62336575 24:-0.59908068 25:-0.66396316 26:-0.62365909 27:-0.67560732 28:-0.73489894 29:-0.7299542 30:-0.58323151 31:-0.77824064 32:-0.57764536 33:-0.70003315 34:-0.65072536 35:-0.65947062 36:-0.63196549 
0.1050879649319268 1:1.0673786 2:-0.71156751 3:-0.71407343 4:1.0380097 5:-0.58490062 6:-0.5966517 7:-0.62158296 8:-0.6080682 9:-0.58386408 10:-0.58397925 11:-0.58674344 12:-0.62192989 13:0.76830292 14:-0.72165881 15:-0.73560565 16:-0.58996993 17:0.8649502 18:0.70008552 19:0.4016948 20:0.9546171 21:-0.68403008 22:0.78618329 23:-0.62336575 24:-0.59908068 25:-0.66396316 26:-0.62365909 27:0.72805161 28:-0.73489894 29:-0.7299542 30:-0.58323151 31:-0.77824064 32:-0.57764536 33:-0.70003315 34:-0.65072536 35:-0.65947062 36:-0.63196549 
1 1:-0.93680462 2:-0.71156751 3:-0.71407343 4:-0.9633101 5:-0.58490062 6:-0.5966517 7:-0.62158296 8:-0.6080682 9:-0.58386408 10:-0.58397925 11:-0.58674344 12:-0.62192989 13:-0.15771959 14:-0.72165881 15:-0.73560565 16:-0.58996993 17:0.065536497 18:-0.72644143 19:0.4016948 20:0.9546171 21:-0.68403008 22:0.78618329 23:-0.62336575 24:-0.59908068 25:-0.66396316 26:-0.62365909 27:0.026222142 28:-0.73489894 29:-0.7299542 30:-0.58323151 31:-0.77824064 32:-0.57764536 33:-0.70003315 34:-0.65072536 35:-0.65947062 36:-0.63196549 
0.2137384459790568 1:1.0673786 2:-0.71156751 3:-0.71407343 4:-0.9633101 5:-0.58490062 6:-0.5966517 7:-0.62158296 8:1.6444294 9:-0.58386408 10:-0.58397925 11:-0.58674344 12:-0.62192989 13:-0.15771959 14:-0.72165881 15:-0.73560565 16:-0.58996993 17:0.8649502 18:0.70008552 19:0.4016948 20:-0.69574834 21:-0.68403008 22:-0.73817993 23:-0.62336575 24:-0.59908068 25:1.2775337 26:-0.62365909 27:0.72805161 28:-0.73489894 29:-0.7299542 30:-0.58323151 31:-0.77824064 32:-0.57764536 33:-0.70003315 34:-0.65072536 35:-0.65947062 36:-0.63196549 
0.3356870808505857 1:-0.93680462 2:-0.71156751 3:-0.71407343 4:1.0380097 5:-0.58490062 6:-0.5966517 7:-0.62158296 8:-0.6080682 9:-0.58386408 10:-0.58397925 11:-0.58674344 12:-0.62192989 13:4.472393 14:-0.72165881 15:-0.73560565 16:-0.58996993 17:1.6643639 18:0.70008552 19:1.559577 20:0.9546171 21:1.1289751 22:0.78618329 23:-0.62336575 24:1.5945949 25:-0.66396316 26:1.4995134 27:1.4298811 28:-0.73489894 29:-0.7299542 30:-0.58323151 31:-0.77824064 32:-0.57764536 33:-0.70003315 34:1.2173329 35:-0.65947062 36:-0.63196549 
1 1:-0.93680462 2:-0.71156751 3:-0.71407343 4:-0.9633101 5:-0.58490062 6:-0.5966517 7:-0.62158296 8:-0.6080682 9:-0.58386408 10:-0.58397925 11:-0.58674344 12:-0.62192989 13:-0.15771959 14:-0.72165881 15:-0.73560565 16:-0.58996993 17:-0.73387721 18:-0.72644143 19:-0.75618743 20:-0.69574834 21:-0.68403008 22:-0.73817993 23:-0.62336575 24:-0.59908068 25:-0.66396316 26:-0.62365909 27:-0.67560732 28:-0.73489894 29:-0.7299542 30:-0.58323151 31:-0.77824064 32:-0.57764536 33:-0.70003315 34:-0.65072536 35:-0.65947062 36:-0.63196549 
0.3353909093955437 1:1.0673786 2:1.4052429 3:-0.71407343 4:-0.9633101 5:-0.58490062 6:-0.5966517 7:-0.62158296 8:-0.6080682 9:-0.58386408 10:-0.58397925 11:-0.58674344 12:-0.62192989 13:0.76830292 14:-0.72165881 15:3.1331244 16:-0.58996993 17:0.065536497 18:0.70008552 19:-0.75618743 20:-0.69574834 21:-0.68403008 22:-0.73817993 23:-0.62336575 24:-0.59908068 25:-0.66396316 26:1.4995134 27:1.4298811 28:-0.73489894 29:-0.7299542 30:-0.58323151 31:-0.77824064 32:-0.57764536 33:5.649182 34:-0.65072536 35:-0.65947062 36:-0.63196549 
0.3063005096824167 1:1.0673786 2:-0.71156751 3:-0.71407343 4:1.0380097 5:-0.58490062 6:-0.5966517 7:-0.62158296 8:-0.6080682 9:-0.58386408 10:-0.58397925 11:-0.58674344 12:-0.62192989 13:2.6203479 14:1.9770423 15:-0.73560565 16:-0.58996993 17:0.8649502 18:0.70008552 19:0.4016948 20:-0.69574834 21:1.1289751 22:0.78618329 23:-0.62336575 24:-0.59908068 25:-0.66396316 26:-0.62365909 27:0.72805161 28:-0.73489894 29:0.86383279 30:-0.58323151 31:-0.77824064 32:-0.57764536 33:-0.70003315 34:-0.65072536 35:-0.65947062 36:-0.63196549 
0.3391006575942407 1:1.0673786 2:-0.71156751 3:-0.71407343 4:-0.9633101 5:-0.58490062 6:-0.5966517 7:1.6086754 8:-0.6080682 9:-0.58386408 10:-0.58397925 11:-0.58674344 12:-0.62192989 13:1.6943254 14:-0.72165881 15:-0.73560565 16:-0.58996993 17:-0.73387721 18:-0.72644143 19:-0.75618743 20:-0.69574834 21:-0.68403008 22:-0.73817993 23:-0.62336575 24:-0.59908068 25:-0.66396316 26:-0.62365909 27:-0.32469259 28:-0.73489894 29:0.86383279 30:-0.58323151 31:-0.77824064 32:-0.57764536 33:-0.70003315 34:1.2173329 35:-0.65947062 36:-0.63196549 
0.1782964606205386 1:1.0673786 2:-0.71156751 3:-0.71407343 4:1.0380097 5:-0.58490062 6:-0.5966517 7:-0.62158296 8:-0.6080682 9:-0.58386408 10:-0.58397925 11:-0.58674344 12:-0.62192989 13:4.472393 14:-0.72165881 15:-0.73560565 16:-0.58996993 17:-0.73387721 18:-0.72644143 19:-0.75618743 20:-0.69574834 21:-0.68403008 22:-0.73817993 23:-0.62336575 24:-0.59908068 25:-0.66396316 26:-0.62365909 27:-0.32469259 28:-0.73489894 29:-0.7299542 30:-0.58323151 31:-0.77824064 32:-0.57764536 33:-0.70003315 34:-0.65072536 35:-0.65947062 36:-0.63196549 
0.3355232897454921 1:1.0673786 2:-0.71156751 3:-0.71407343 4:-0.9633101 5:-0.58490062 6:-0.5966517 7:1.6086754 8:-0.6080682 9:-0.58386408 10:-0.58397925 11:-0.58674344 12:-0.62192989 13:6.324438 14:0.62769177 15:-0.73560565 16:-0.58996993 17:0.065536497 18:-0.72644143 19:-0.75618743 20:-0.69574834 21:-0.68403008 22:-0.73817993 23:-0.62336575 24:-0.59908068 25:-0.66396316 26:-0.62365909 27:1.4298811 28:-0.73489894 29:2.4576198 30:-0.58323151 31:-0.77824064 32:-0.57764536 33:4.0618782 34:1.2173329 35:-0.65947062 36:-0.63196549 
0.5959953715575572 1:1.0673786 2:-0.71156751 3:-0.71407343 4:-0.9633101 5:-0.58490062 6:-0.5966517 7:-0.62158296 8:-0.6080682 9:-0.58386408 10:-0.58397925 11:-0.58674344 12:-0.62192989 13:1.6943254 14:0.62769177 15:-0.73560565 16:-0.58996993 17:-0.73387721 18:-0.72644143 19:-0.75618743 20:-0.69574834 21:-0.68403008 22:-0.73817993 23:-0.62336575 24:-0.59908068 25:-0.66396316 26:-0.62365909 27:-0.32469259 28:-0.73489894 29:-0.7299542 30:-0.58323151 31:0.94147822 32:-0.57764536 33:-0.70003315 34:-0.65072536 35:-0.65947062 36:-0.63196549 
0.3481756876825398 1:1.0673786 2:-0.71156751 3:-0.71407343 4:-0.9633101 5:-0.58490062 6:-0.5966517 7:-0.62158296 8:-0.6080682 9:-0.58386408 10:-0.58397925 11:-0.58674344 12:-0.62192989 13:3.5463705 14:1.9770423 15:-0.73560565 16:-0.58996993 17:0.8649502 18:2.1266125 19:-0.75618743 20:-0.69574834 21:-0.68403008 22:-0.73817993 23:-0.62336575 24:-0.59908068 25:-0.66396316 26:-0.62365909 27:0.37713688 28:-0.73489894 29:-0.7299542 30:-0.58323151 31:0.94147822 32:-0.57764536 33:-0.70003315 34:-0.65072536 35:-0.65947062 36:-0.63196549 
0.3354142733008142 1:-0.93680462 2:-0.71156751 3:1.4003114 4:1.0380097 5:-0.58490062 6:-0.5966517 7:-0.62158296 8:1.6444294 9:-0.58386408 10:-0.58397925 11:-0.58674344 12:-0.62192989 13:-0.15771959 14:0.62769177 15:-0.73560565 16:-0.58996993 17:0.065536497 18:0.70008552 19:-0.75618743 20:-0.69574834 21:-0.68403008 22:-0.73817993 23:-0.62336575 24:-0.59908068 25:-0.66396316 26:-0.62365909 27:1.0789663 28:-0.73489894 29:2.4576198 30:-0.58323151 31:-0.77824064 32:-0.57764536 33:-0.70003315 34:3.0853912 35:-0.65947062 36:-0.63196549 
0.3357364522562871 1:-0.93680462 2:-0.71156751 3:1.4003114 4:-0.9633101 5:-0.58490062 6:-0.5966517 7:-0.62158296 8:1.6444294 9:-0.58386408 10:-0.58397925 11:-0.58674344 12:-0.62192989 13:0.76830292 14:1.9770423 15:-0.73560565 16:-0.58996993 17:-0.73387721 18:-0.72644143 19:-0.75618743 20:-0.69574834 21:-0.68403008 22:-0.73817993 23:-0.62336575 24:-0.59908068 25:-0.66396316 26:1.4995134 27:1.0789663 28:0.60509886 29:-0.7299542 30:-0.58323151 31:-0.77824064 32:-0.57764536 33:-0.70003315 34:1.2173329 35:-0.65947062 36:1.5528668 
0.3352921545442063 1:1.0673786 2:-0.71156751 3:-0.71407343 4:1.0380097 5:-0.58490062 6:-0.5966517 7:-0.62158296 8:-0.6080682 9:-0.58386408 10:-0.58397925 11:-0.58674344 12:-0.62192989 13:4.472393 14:-0.72165881 15:-0.73560565 16:-0.58996993 17:0.8649502 18:-0.72644143 19:1.559577 20:0.9546171 21:-0.68403008 22:0.78618329 23:-0.62336575 24:-0.59908068 25:1.2775337 26:-0.62365909 27:1.4298811 28:-0.73489894 29:-0.7299542 30:-0.58323151 31:-0.77824064 32:-0.57764536 33:0.88727064 34:1.2173329 35:1.3543399 36:-0.63196549 
0.2839541453855708 1:1.0673786 2:-0.71156751 3:1.4003114 4:-0.9633101 5:-0.58490062 6:-0.5966517 7:-0.62158296 8:-0.6080682 9:-0.58386408 10:-0.58397925 11:-0.58674344 12:-0.62192989 13:-0.15771959 14:0.62769177 15:-0.73560565 16:-0.58996993 17:0.8649502 18:0.70008552 19:0.4016948 20:-0.69574834 21:1.1289751 22:0.78618329 23:-0.62336575 24:-0.59908068 25:-0.66396316 26:-0.62365909 27:1.4298811 28:0.60509886 29:-0.7299542 30:-0.58323151 31:-0.77824064 32:-0.57764536 33:-0.70003315 34:-0.65072536 35:1.3543399 36:-0.63196549 
0.2186693470925205 1:1.0673786 2:1.4052429 3:-0.71407343 4:-0.9633101 5:-0.58490062 6:-0.5966517 7:-0.62158296 8:-0.6080682 9:-0.58386408 10:-0.58397925 11:-0.58674344 12:-0.62192989 13:1.6943254 14:0.62769177 15:-0.73560565 16:-0.58996993 17:-0.73387721 18:-0.72644143 19:-0.75618743 20:-0.69574834 21:-0.68403008 22:-0.73817993 23:-0.62336575 24:-0.59908068 25:-0.66396316 26:-0.62365909 27:-0.32469259 28:-0.73489894 29:-0.7299542 30:-0.58323151 31:-0.77824064 32:-0.57764536 33:-0.70003315 34:-0.65072536 35:-0.65947062 36:-0.63196549 
0.3364354113478304 1:-0.93680462 2:1.4052429 3:1.4003114 4:1.0380097 5:-0.58490062 6:-0.5966517 7:-0.62158296 8:-0.6080682 9:-0.58386408 10:-0.58397925 11:-0.58674344 12:-0.62192989 13:-1.0837421 14:3.3263929 15:1.1987594 16:-0.58996993 17:0.065536497 18:-0.72644143 19:0.4016948 20:0.9546171 21:-0.68403008 22:-0.73817993 23:1.4440559 24:-0.59908068 25:-0.66396316 26:-0.62365909 27:0.72805161 28:0.60509886 29:0.86383279 30:-0.58323151 31:-0.77824064 32:-0.57764536 33:-0.70003315 34:-0.65072536 35:-0.65947062 36:-0.63196549 
1 1:-0.93680462 2:-0.71156751 3:-0.71407343 4:-0.9633101 5:-0.58490062 6:-0.5966517 7:-0.62158296 8:-0.6080682 9:-0.58386408 10:-0.58397925 11:-0.58674344 12:-0.62192989 13:-0.15771959 14:-0.72165881 15:-0.73560565 16:-0.58996993 17:-0.73387721 18:-0.72644143 19:-0.75618743 20:-0.69574834 21:-0.68403008 22:-0.73817993 23:-0.62336575 24:-0.59908068 25:-0.66396316 26:1.4995134 27:-0.32469259 28:-0.73489894 29:-0.7299542 30:-0.58323151 31:-0.77824064 32:-0.57764536 33:-0.70003315 34:-0.65072536 35:-0.65947062 36:-0.63196549 
0.2547238566139503 1:-0.93680462 2:-0.71156751 3:-0.71407343 4:1.0380097 5:-0.58490062 6:1.6758943 7:-0.62158296 8:-0.6080682 9:-0.58386408 10:-0.58397925 11:-0.58674344 12:-0.62192989 13:2.6203479 14:-0.72165881 15:-0.73560565 16:-0.58996993 17:-0.73387721 18:-0.72644143 19:-0.75618743 20:-0.69574834 21:-0.68403008 22:-0.73817993 23:-0.62336575 24:-0.59908068 25:-0.66396316 26:-0.62365909 27:-0.32469259 28:-0.73489894 29:-0.7299542 30:-0.58323151 31:-0.77824064 32:-0.57764536 33:0.88727064 34:-0.65072536 35:-0.65947062 36:-0.63196549 
0.3351424691421636 1:-0.93680462 2:1.4052429 3:-0.71407343 4:-0.9633101 5:-0.58490062 6:-0.5966517 7:1.6086754 8:-0.6080682 9:-0.58386408 10:-0.58397925 11:-0.58674344 12:-0.62192989 13:2.6203479 14:3.3263929 15:1.1987594 16:-0.58996993 17:0.065536497 18:-0.72644143 19:0.4016948 20:-0.69574834 21:1.1289751 22:0.78618329 23:-0.62336575 24:-0.59908068 25:-0.66396316 26:-0.62365909 27:1.7807958 28:1.9450967 29:2.4576198 30:-0.58323151 31:2.6611971 32:-0.57764536 33:-0.70003315 34:-0.65072536 35:-0.65947062 36:-0.63196549 
0.3332546261291019 1:-0.93680462 2:-0.71156751 3:1.4003114 4:1.0380097 5:-0.58490062 6:-0.5966517 7:-0.62158296 8:-0.6080682 9:-0.58386408 10:-0.58397925 11:-0.58674344 12:-0.62192989 13:-0.15771959 14:-0.72165881 15:-0.73560565 16:-0.58996993 17:1.6643639 18:0.70008552 19:1.559577 20:-0.69574834 21:2.9419803 22:2.3105465 23:-0.62336575 24:-0.59908068 25:-0.66396316 26:-0.62365909 27:1.4298811 28:-0.73489894 29:0.86383279 30:-0.58323151 31:-0.77824064 32:-0.57764536 33:0.88727064 34:-0.65072536 35:-0.65947062 36:-0.63196549 
0.3693185910395869 1:-0.93680462 2:-0.71156751 3:-0.71407343 4:-0.9633101 5:-0.58490062 6:-0.5966517 7:-0.62158296 8:-0.6080682 9:-0.58386408 10:-0.58397925 11:1.7041949 12:-0.62192989 13:3.5463705 14:-0.72165881 15:-0.73560565 16:-0.58996993 17:0.065536497 18:-0.72644143 19:0.4016948 20:0.9546171 21:-0.68403008 22:0.78618329 23:-0.62336575 24:-0.59908068 25:-0.66396316 26:-0.62365909 27:0.37713688 28:-0.73489894 29:-0.7299542 30:-0.58323151 31:-0.77824064 32:-0.57764536 33:-0.70003315 34:-0.65072536 35:-0.65947062 36:-0.63196549 
0.3054481106153752 1:-0.93680462 2:-0.71156751 3:-0.71407343 4:1.0380097 5:-0.58490062 6:-0.5966517 7:-0.62158296 8:1.6444294 9:-0.58386408 10:-0.58397925 11:-0.58674344 12:-0.62192989 13:2.6203479 14:-0.72165881 15:-0.73560565 16:-0.58996993 17:0.065536497 18:-0.72644143 19:0.4016948 20:-0.69574834 21:-0.68403008 22:-0.73817993 23:1.4440559 24:-0.59908068 25:-0.66396316 26:-0.62365909 27:0.026222142 28:-0.73489894 29:-0.7299542 30:-0.58323151 31:-0.77824064 32:-0.57764536 33:-0.70003315 34:-0.65072536 35:-0.65947062 36:-0.63196549 
0.3167639336422559 1:-0.93680462 2:1.4052429 3:-0.71407343 4:-0.9633101 5:-0.58490062 6:-0.5966517 7:-0.62158296 8:-0.6080682 9:-0.58386408 10:-0.58397925 11:-0.58674344 12:-0.62192989 13:-1.0837421 14:-0.72165881 15:1.1987594 16:-0.58996993 17:-0.73387721 18:-0.72644143 19:-0.75618743 20:-0.69574834 21:-0.68403008 22:-0.73817993 23:-0.62336575 24:-0.59908068 25:-0.66396316 26:-0.62365909 27:-0.32469259 28:-0.73489894 29:0.86383279 30:-0.58323151 31:-0.77824064 32:-0.57764536 33:-0.70003315 34:-0.65072536 35:-0.65947062 36:-0.63196549 
0.2992459982613782 1:1.0673786 2:-0.71156751 3:1.4003114 4:-0.9633101 5:-0.58490062 6:-0.5966517 7:-0.62158296 8:-0.6080682 9:-0.58386408 10:-0.58397925 11:-0.58674344 12:-0.62192989 13:-0.15771959 14:-0.72165881 15:-0.73560565 16:-0.58996993 17:0.065536497 18:0.70008552 19:-0.75618743 20:-0.69574834 21:-0.68403008 22:-0.73817993 23:-0.62336575 24:-0.59908068 25:-0.66396316 26:-0.62365909 27:0.37713688 28:-0.73489894 29:-0.7299542 30:-0.58323151 31:-0.77824064 32:-0.57764536 33:-0.70003315 34:1.2173329 35:-0.65947062 36:1.5528668 
0.3316834593829488 1:-0.93680462 2:-0.71156751 3:1.4003114 4:-0.9633101 5:-0.58490062 6:-0.5966517 7:-0.62158296 8:-0.6080682 9:-0.58386408 10:-0.58397925 11:-0.58674344 12:-0.62192989 13:-1.0837421 14:0.62769177 15:-0.73560565 16:-0.58996993 17:1.6643639 18:-0.72644143 19:2.7174592 20:0.9546171 21:1.1289751 22:0.78618329 23:1.4440559 24:-0.59908068 25:1.2775337 26:-0.62365909 27:1.4298811 28:1.9450967 29:-0.7299542 30:-0.58323151 31:-0.77824064 32:-0.57764536 33:-0.70003315 34:-0.65072536 35:-0.65947062 36:-0.63196549 
0.566585622293505 1:-0.93680462 2:-0.71156751 3:1.4003114 4:-0.9633101 5:-0.58490062 6:-0.5966517 7:-0.62158296 8:-0.6080682 9:-0.58386408 10:-0.58397925 11:-0.58674344 12:-0.62192989 13:-1.0837421 14:0.62769177 15:-0.73560565 16:-0.58996993 17:0.065536497 18:-0.72644143 19:0.4016948 20:-0.69574834 21:1.1289751 22:0.78618329 23:-0.62336575 24:-0.59908068 25:-0.66396316 26:-0.62365909 27:0.37713688 28:-0.73489894 29:0.86383279 30:-0.58323151 31:-0.77824064 32:-0.57764536 33:-0.70003315 34:-0.65072536 35:-0.65947062 36:-0.63196549 
0.2626399043747867 1:1.0673786 2:1.4052429 3:-0.71407343 4:-0.9633101 5:-0.58490062 6:-0.5966517 7:-0.62158296 8:-0.6080682 9:-0.58386408 10:-0.58397925 11:-0.58674344 12:-0.62192989 13:-1.0837421 14:0.62769177 15:1.1987594 16:-0.58996993 17:0.065536497 18:-0.72644143 19:0.4016948 20:-0.69574834 21:-0.68403008 22:-0.73817993 23:-0.62336575 24:-0.59908068 25:1.2775337 26:-0.62365909 27:0.72805161 28:3.2850945 29:-0.7299542 30:-0.58323151 31:-0.77824064 32:-0.57764536 33:0.88727064 34:-0.65072536 35:-0.65947062 36:-0.63196549 
0.2301004610779692 1:-0.93680462 2:1.4052429 3:-0.71407343 4:1.0380097 5:-0.58490062 6:-0.5966517 7:-0.62158296 8:-0.6080682 9:-0.58386408 10:-0.58397925 11:-0.58674344 12:-0.62192989 13:-1.0837421 14:0.62769177 15:1.1987594 16:-0.58996993 17:-0.73387721 18:-0.72644143 19:-0.75618743 20:-0.69574834 21:-0.68403008 22:-0.73817993 23:-0.62336575 24:-0.59908068 25:-0.66396316 26:-0.62365909 27:0.37713688 28:-0.73489894 29:0.86383279 30:-0.58323151 31:-0.77824064 32:-0.57764536 33:-0.70003315 34:-0.65072536 35:-0.65947062 36:-0.63196549 
0.3218163569778443 1:-0.93680462 2:-0.71156751 3:1.4003114 4:1.0380097 5:-0.58490062 6:-0.5966517 7:-0.62158296 8:-0.6080682 9:-0.58386408 10:-0.58397925 11:-0.58674344 12:-0.62192989 13:0.76830292 14:3.3263929 15:-0.73560565 16:-0.58996993 17:0.8649502 18:2.1266125 19:-0.75618743 20:-0.69574834 21:-0.68403008 22:-0.73817993 23:-0.62336575 24:-0.59908068 25:-0.66396316 26:-0.62365909 27:1.0789663 28:-0.73489894 29:0.86383279 30:-0.58323151 31:-0.77824064 32:-0.57764536 33:0.88727064 34:-0.65072536 35:-0.65947062 36:-0.63196549 
0.5082361161233974 1:-0.93680462 2:1.4052429 3:-0.71407343 4:-0.9633101 5:-0.58490062 6:-0.5966517 7:-0.62158296 8:-0.6080682 9:-0.58386408 10:-0.58397925 11:-0.58674344 12:-0.62192989 13:-1.0837421 14:-0.72165881 15:1.1987594 16:-0.58996993 17:0.065536497 18:-0.72644143 19:0.4016948 20:-0.69574834 21:1.1289751 22:0.78618329 23:-0.62336575 24:-0.59908068 25:-0.66396316 26:-0.62365909 27:0.026222142 28:-0.73489894 29:-0.7299542 30:-0.58323151 31:-0.77824064 32:-0.57764536 33:-0.70003315 34:-0.65072536 35:-0.65947062 36:-0.63196549 
0.3275419722608294 1:-0.93680462 2:-0.71156751 3:-0.71407343 4:-0.9633101 5:1.7095643 6:-0.5966517 7:-0.62158296 8:-0.6080682 9:-0.58386408 10:-0.58397925 11:-0.58674344 12:-0.62192989 13:-0.15771959 14:-0.72165881 15:-0.73560565 16:-0.58996993 17:-0.73387721 18:-0.72644143 19:-0.75618743 20:-0.69574834 21:-0.68403008 22:-0.73817993 23:-0.62336575 24:-0.59908068 25:-0.66396316 26:-0.62365909 27:-0.67560732 28:-0.73489894 29:-0.7299542 30:-0.58323151 31:0.94147822 32:-0.57764536 33:-0.70003315 34:-0.65072536 35:-0.65947062 36:-0.63196549 
0.3348884606182375 1:-0.93680462 2:1.4052429 3:1.4003114 4:1.0380097 5:-0.58490062 6:-0.5966517 7:-0.62158296 8:-0.6080682 9:-0.58386408 10:-0.58397925 11:-0.58674344 12:-0.62192989 13:0.76830292 14:1.9770423 15:1.1987594 16:-0.58996993 17:1.6643639 18:3.5531394 19:-0.75618743 20:-0.69574834 21:-0.68403008 22:-0.73817993 23:-0.62336575 24:-0.59908068 25:-0.66396316 26:-0.62365909 27:1.7807958 28:0.60509886 29:-0.7299542 30:-0.58323151 31:-0.77824064 32:-0.57764536 33:2.4745744 34:1.2173329 35:-0.65947062 36:-0.63196549 
0.3315408025328664 1:-0.93680462 2:-0.71156751 3:-0.71407343 4:1.0380097 5:-0.58490062 6:-0.5966517 7:-0.62158296 8:-0.6080682 9:1.7125993 10:-0.58397925 11:-0.58674344 12:-0.62192989 13:2.6203479 14:-0.72165881 15:-0.73560565 16:-0.58996993 17:0.8649502 18:2.1266125 19:-0.75618743 20:-0.69574834 21:-0.68403008 22:-0.73817993 23:-0.62336575 24:-0.59908068 25:-0.66396316 26:1.4995134 27:0.37713688 28:-0.73489894 29:-0.7299542 30:-0.58323151 31:-0.77824064 32:-0.57764536 33:-0.70003315 34:-0.65072536 35:-0.65947062 36:1.5528668 
0.2076023695486032 1:-0.93680462 2:-0.71156751 3:-0.71407343 4:1.0380097 5:-0.58490062 6:-0.5966517 7:-0.62158296 8:-0.6080682 9:-0.58386408 10:-0.58397925 11:-0.58674344 12:-0.62192989 13:-0.15771959 14:-0.72165881 15:-0.73560565 16:-0.58996993 17:0.8649502 18:0.70008552 19:0.4016948 20:-0.69574834 21:1.1289751 22:0.78618329 23:-0.62336575 24:-0.59908068 25:-0.66396316 26:-0.62365909 27:0.72805161 28:0.60509886 29:-0.7299542 30:-0.58323151 31:-0.77824064 32:-0.57764536 33:-0.70003315 34:-0.65072536 35:-0.65947062 36:-0.63196549 
0.335562767455143 1:1.0673786 2:-0.71156751 3:-0.71407343 4:-0.9633101 5:1.7095643 6:-0.5966517 7:-0.62158296 8:-0.6080682 9:-0.58386408 10:-0.58397925 11:-0.58674344 12:-0.62192989 13:2.6203479 14:-0.72165881 15:-0.73560565 16:-0.58996993 17:0.8649502 18:-0.72644143 19:1.559577 20:-0.69574834 21:2.9419803 22:2.3105465 23:-0.62336575 24:-0.59908068 25:-0.66396316 26:1.4995134 27:1.0789663 28:0.60509886 29:-0.7299542 30:-0.58323151 31:-0.77824064 32:-0.57764536 33:-0.70003315 34:1.2173329 35:-0.65947062 36:-0.63196549 
0.3356346490331516 1:-0.93680462 2:-0.71156751 3:1.4003114 4:-0.9633101 5:-0.58490062 6:-0.5966517 7:-0.62158296 8:-0.6080682 9:-0.58386408 10:-0.58397925 11:-0.58674344 12:-0.62192989 13:1.6943254 14:0.62769177 15:-0.73560565 16:-0.58996993 17:3.2631913 18:4.9796664 19:0.4016948 20:0.9546171 21:-0.68403008 22:-0.73817993 23:-0.62336575 24:1.5945949 25:-0.66396316 26:-0.62365909 27:3.1844547 28:3.2850945 29:4.0514068 30:-0.58323151 31:0.94147822 32:-0.57764536 33:2.4745744 34:1.2173329 35:-0.65947062 36:-0.63196549 
0.07146309917943125 1:1.0673786 2:-0.71156751 3:-0.71407343 4:-0.9633101 5:-0.58490062 6:-0.5966517 7:-0.62158296 8:-0.6080682 9:-0.58386408 10:-0.58397925 11:-0.58674344 12:-0.62192989 13:-0.15771959 14:-0.72165881 15:-0.73560565 16:-0.58996993 17:0.8649502 18:2.1266125 19:-0.75618743 20:-0.69574834 21:-0.68403008 22:-0.73817993 23:-0.62336575 24:-0.59908068 25:-0.66396316 26:-0.62365909 27:0.026222142 28:-0.73489894 29:-0.7299542 30:-0.58323151 31:-0.77824064 32:-0.57764536 33:-0.70003315 34:-0.65072536 35:-0.65947062 36:-0.63196549 
0.07411198087501425 1:-0.93680462 2:1.4052429 3:-0.71407343 4:1.0380097 5:-0.58490062 6:-0.5966517 7:-0.62158296 8:-0.6080682 9:-0.58386408 10:-0.58397925 11:-0.58674344 12:-0.62192989 13:1.6943254 14:-0.72165881 15:1.1987594 16:-0.58996993 17:-0.73387721 18:-0.72644143 19:-0.75618743 20:-0.69574834 21:-0.68403008 22:-0.73817993 23:-0.62336575 24:-0.59908068 25:-0.66396316 26:-0.62365909 27:-0.32469259 28:-0.73489894 29:-0.7299542 30:-0.58323151 31:-0.77824064 32:-0.57764536 33:-0.70003315 34:-0.65072536 35:-0.65947062 36:-0.63196549 
0.3338909347473899 1:-0.93680462 2:-0.71156751 3:-0.71407343 4:1.0380097 5:-0.58490062 6:-0.5966517 7:-0.62158296 8:-0.6080682 9:1.7125993 10:-0.58397925 11:-0.58674344 12:-0.62192989 13:5.3984155 14:1.9770423 15:-0.73560565 16:-0.58996993 17:0.065536497 18:0.70008552 19:-0.75618743 20:-0.69574834 21:-0.68403008 22:-0.73817993 23:-0.62336575 24:-0.59908068 25:-0.66396316 26:1.4995134 27:0.026222142 28:-0.73489894 29:-0.7299542 30:-0.58323151 31:0.94147822 32:-0.57764536 33:-0.70003315 34:-0.65072536 35:-0.65947062 36:-0.63196549 
0.2274155243359847 1:1.0673786 2:1.4052429 3:-0.71407343 4:1.0380097 5:-0.58490062 6:-0.5966517 7:-0.62158296 8:-0.6080682 9:-0.58386408 10:-0.58397925 11:-0.58674344 12:-0.62192989 13:1.6943254 14:-0.72165881 15:1.1987594 16:-0.58996993 17:-0.73387721 18:-0.72644143 19:-0.75618743 20:-0.69574834 21:-0.68403008 22:-0.73817993 23:-0.62336575 24:-0.59908068 25:-0.66396316 26:-0.62365909 27:-0.67560732 28:-0.73489894 29:-0.7299542 30:-0.58323151 31:0.94147822 32:-0.57764536 33:-0.70003315 34:-0.65072536 35:-0.65947062 36:-0.63196549 
0.2716881306565705 1:-0.93680462 2:-0.71156751 3:-0.71407343 4:1.0380097 5:-0.58490062 6:-0.5966517 7:-0.62158296 8:-0.6080682 9:1.7125993 10:-0.58397925 11:-0.58674344 12:-0.62192989 13:3.5463705 14:-0.72165881 15:-0.73560565 16:-0.58996993 17:0.065536497 18:0.70008552 19:-0.75618743 20:-0.69574834 21:-0.68403008 22:-0.73817993 23:-0.62336575 24:-0.59908068 25:-0.66396316 26:-0.62365909 27:-0.32469259 28:-0.73489894 29:-0.7299542 30:-0.58323151 31:-0.77824064 32:-0.57764536 33:-0.70003315 34:-0.65072536 35:-0.65947062 36:-0.63196549 
0.2494301802852002 1:-0.93680462 2:1.4052429 3:-0.71407343 4:1.0380097 5:-0.58490062 6:-0.5966517 7:-0.62158296 8:-0.6080682 9:-0.58386408 10:-0.58397925 11:-0.58674344 12:-0.62192989 13:-0.15771959 14:-0.72165881 15:1.1987594 16:-0.58996993 17:-0.73387721 18:-0.72644143 19:-0.75618743 20:-0.69574834 21:-0.68403008 22:-0.73817993 23:-0.62336575 24:-0.59908068 25:-0.66396316 26:-0.62365909 27:-0.32469259 28:0.60509886 29:-0.7299542 30:-0.58323151 31:-0.77824064 32:-0.57764536 33:0.88727064 34:-0.65072536 35:-0.65947062 36:-0.63196549 
0.3353388810371433 1:1.0673786 2:-0.71156751 3:-0.71407343 4:-0.9633101 5:-0.58490062 6:-0.5966517 7:-0.62158296 8:1.6444294 9:-0.58386408 10:-0.58397925 11:-0.58674344 12:-0.62192989 13:-0.15771959 14:-0.72165881 15:-0.73560565 16:-0.58996993 17:2.4637776 18:-0.72644143 19:3.8753415 20:-0.69574834 21:1.1289751 22:0.78618329 23:-0.62336575 24:-0.59908068 25:5.1605273 26:-0.62365909 27:1.7807958 28:1.9450967 29:-0.7299542 30:-0.58323151 31:-0.77824064 32:-0.57764536 33:0.88727064 34:-0.65072536 35:1.3543399 36:-0.63196549 
0.3351075068561761 1:1.0673786 2:-0.71156751 3:1.4003114 4:-0.9633101 5:-0.58490062 6:-0.5966517 7:-0.62158296 8:-0.6080682 9:-0.58386408 10:-0.58397925 11:-0.58674344 12:-0.62192989 13:2.6203479 14:0.62769177 15:-0.73560565 16:-0.58996993 17:1.6643639 18:-0.72644143 19:2.7174592 20:-0.69574834 21:2.9419803 22:2.3105465 23:-0.62336575 24:-0.59908068 25:1.2775337 26:-0.62365909 27:1.7807958 28:1.9450967 29:-0.7299542 30:-0.58323151 31:0.94147822 32:-0.57764536 33:-0.70003315 34:-0.65072536 35:-0.65947062 36:-0.63196549 
0.02229059545857386 1:1.0673786 2:-0.71156751 3:1.4003114 4:-0.9633101 5:-0.58490062 6:-0.5966517 7:-0.62158296 8:-0.6080682 9:-0.58386408 10:-0.58397925 11:-0.58674344 12:-0.62192989 13:0.76830292 14:-0.72165881 15:-0.73560565 16:-0.58996993 17:-0.73387721 18:-0.72644143 19:-0.75618743 20:-0.69574834 21:-0.68403008 22:-0.73817993 23:-0.62336575 24:-0.59908068 25:-0.66396316 26:-0.62365909 27:-0.32469259 28:-0.73489894 29:-0.7299542 30:-0.58323151 31:0.94147822 32:-0.57764536 33:-0.70003315 34:-0.65072536 35:-0.65947062 36:-0.63196549 
0.03520694572109546 1:1.0673786 2:1.4052429 3:-0.71407343 4:-0.9633101 5:-0.58490062 6:-0.5966517 7:-0.62158296 8:-0.6080682 9:-0.58386408 10:-0.58397925 11:-0.58674344 12:-0.62192989 13:0.76830292 14:-0.72165881 15:-0.73560565 16:-0.58996993 17:-0.73387721 18:-0.72644143 19:-0.75618743 20:-0.69574834 21:-0.68403008 22:-0.73817993 23:-0.62336575 24:-0.59908068 25:-0.66396316 26:-0.62365909 27:-0.67560732 28:-0.73489894 29:-0.7299542 30:-0.58323151 31:-0.77824064 32:-0.57764536 33:-0.70003315 34:-0.65072536 35:-0.65947062 36:-0.63196549 
0.2468662106436126 1:-0.93680462 2:-0.71156751 3:-0.71407343 4:1.0380097 5:-0.58490062 6:-0.5966517 7:-0.62158296 8:-0.6080682 9:-0.58386408 10:-0.58397925 11:1.7041949 12:-0.62192989 13:-0.15771959 14:-0.72165881 15:-0.73560565 16:-0.58996993 17:0.065536497 18:0.70008552 19:-0.75618743 20:-0.69574834 21:-0.68403008 22:-0.73817993 23:-0.62336575 24:-0.59908068 25:-0.66396316 26:-0.62365909 27:-0.32469259 28:-0.73489894 29:-0.7299542 30:-0.58323151 31:-0.77824064 32:-0.57764536 33:-0.70003315 34:-0.65072536 35:-0.65947062 36:-0.63196549 
0.3554026354157701 1:-0.93680462 2:-0.71156751 3:-0.71407343 4:1.0380097 5:-0.58490062 6:-0.5966517 7:-0.62158296 8:-0.6080682 9:-0.58386408 10:-0.58397925 11:-0.58674344 12:-0.62192989 13:3.5463705 14:0.62769177 15:-0.73560565 16:-0.58996993 17:-0.73387721 18:-0.72644143 19:-0.75618743 20:-0.69574834 21:-0.68403008 22:-0.73817993 23:-0.62336575 24:-0.59908068 25:-0.66396316 26:-0.62365909 27:-0.32469259 28:-0.73489894 29:0.86383279 30:-0.58323151 31:0.94147822 32:-0.57764536 33:-0.70003315 34:-0.65072536 35:-0.65947062 36:-0.63196549 
0.2887265847102037 1:1.0673786 2:-0.71156751 3:-0.71407343 4:-0.9633101 5:-0.58490062 6:-0.5966517 7:-0.62158296 8:-0.6080682 9:-0.58386408 10:-0.58397925 11:-0.58674344 12:-0.62192989 13:-0.15771959 14:-0.72165881 15:1.1987594 16:-0.58996993 17:0.8649502 18:2.1266125 19:-0.75618743 20:-0.69574834 21:-0.68403008 22:-0.73817993 23:-0.62336575 24:-0.59908068 25:-0.66396316 26:-0.62365909 27:0.026222142 28:-0.73489894 29:-0.7299542 30:-0.58323151 31:-0.77824064 32:-0.57764536 33:0.88727064 34:-0.65072536 35:-0.65947062 36:-0.63196549 
0.3352877648299497 1:1.0673786 2:-0.71156751 3:1.4003114 4:-0.9633101 5:-0.58490062 6:-0.5966517 7:-0.62158296 8:-0.6080682 9:-0.58386408 10:-0.58397925 11:-0.58674344 12:-0.62192989 13:1.6943254 14:1.9770423 15:1.1987594 16:-0.58996993 17:1.6643639 18:2.1266125 19:0.4016948 20:0.9546171 21:-0.68403008 22:0.78618329 23:-0.62336575 24:-0.59908068 25:-0.66396316 26:-0.62365909 27:1.4298811 28:-0.73489894 29:0.86383279 30:-0.58323151 31:-0.77824064 32:-0.57764536 33:-0.70003315 34:-0.65072536 35:-0.65947062 36:-0.63196549 
0.3138948887453076 1:1.0673786 2:-0.71156751 3:-0.71407343 4:1.0380097 5:-0.58490062 6:-0.5966517 7:-0.62158296 8:-0.6080682 9:-0.58386408 10:-0.58397925 11:-0.58674344 12:-0.62192989 13:2.6203479 14:-0.72165881 15:-0.73560565 16:-0.58996993 17:0.065536497 18:-0.72644143 19:0.4016948 20:-0.69574834 21:1.1289751 22:0.78618329 23:-0.62336575 24:-0.59908068 25:-0.66396316 26:-0.62365909 27:0.72805161 28:0.60509886 29:-0.7299542 30:-0.58323151 31:-0.77824064 32:-0.57764536 33:-0.70003315 34:1.2173329 35:-0.65947062 36:-0.63196549 
0.3190832313446071 1:-0.93680462 2:-0.71156751 3:-0.71407343 4:1.0380097 5:-0.58490062 6:-0.5966517 7:-0.62158296 8:-0.6080682 9:1.7125993 10:-0.58397925 11:-0.58674344 12:-0.62192989 13:0.76830292 14:0.62769177 15:-0.73560565 16:-0.58996993 17:1.6643639 18:0.70008552 19:1.559577 20:2.6049825 21:-0.68403008 22:2.3105465 23:-0.62336575 24:-0.59908068 25:-0.66396316 26:-0.62365909 27:1.0789663 28:0.60509886 29:-0.7299542 30:-0.58323151 31:-0.77824064 32:-0.57764536 33:-0.70003315 34:-0.65072536 35:-0.65947062 36:-0.63196549 
0.3344456352135244 1:1.0673786 2:-0.71156751 3:-0.71407343 4:-0.9633101 5:-0.58490062 6:-0.5966517 7:-0.62158296 8:-0.6080682 9:-0.58386408 10:-0.58397925 11:-0.58674344 12:-0.62192989 13:2.6203479 14:0.62769177 15:-0.73560565 16:-0.58996993 17:0.065536497 18:-0.72644143 19:0.4016948 20:-0.69574834 21:1.1289751 22:0.78618329 23:-0.62336575 24:-0.59908068 25:-0.66396316 26:1.4995134 27:0.72805161 28:-0.73489894 29:2.4576198 30:-0.58323151 31:0.94147822 32:-0.57764536 33:0.88727064 34:1.2173329 35:-0.65947062 36:-0.63196549 
0.3349548655039525 1:1.0673786 2:-0.71156751 3:-0.71407343 4:-0.9633101 5:-0.58490062 6:-0.5966517 7:-0.62158296 8:-0.6080682 9:-0.58386408 10:-0.58397925 11:-0.58674344 12:-0.62192989 13:2.6203479 14:1.9770423 15:-0.73560565 16:-0.58996993 17:3.2631913 18:2.1266125 19:1.559577 20:2.6049825 21:-0.68403008 22:2.3105465 23:-0.62336575 24:-0.59908068 25:-0.66396316 26:-0.62365909 27:2.83354 28:1.9450967 29:2.4576198 30:-0.58323151 31:-0.77824064 32:-0.57764536 33:2.4745744 34:1.2173329 35:-0.65947062 36:-0.63196549 
0.3314052227272057 1:1.0673786 2:1.4052429 3:-0.71407343 4:-0.9633101 5:-0.58490062 6:-0.5966517 7:1.6086754 8:-0.6080682 9:-0.58386408 10:-0.58397925 11:-0.58674344 12:-0.62192989 13:-0.15771959 14:-0.72165881 15:1.1987594 16:-0.58996993 17:0.8649502 18:-0.72644143 19:1.559577 20:2.6049825 21:-0.68403008 22:0.78618329 23:1.4440559 24:-0.59908068 25:-0.66396316 26:-0.62365909 27:1.7807958 28:-0.73489894 29:0.86383279 30:-0.58323151 31:-0.77824064 32:-0.57764536 33:-0.70003315 34:-0.65072536 35:-0.65947062 36:-0.63196549 
0.3351170188448949 1:1.0673786 2:1.4052429 3:1.4003114 4:1.0380097 5:-0.58490062 6:-0.5966517 7:-0.62158296 8:-0.6080682 9:-0.58386408 10:-0.58397925 11:-0.58674344 12:-0.62192989 13:6.324438 14:-0.72165881 15:-0.73560565 16:-0.58996993 17:6.4608462 18:6.4061933 19:3.8753415 20:0.9546171 21:2.9419803 22:3.8349097 23:1.4440559 24:-0.59908068 25:-0.66396316 26:1.4995134 27:5.2899431 28:1.9450967 29:0.86383279 30:-0.58323151 31:-0.77824064 32:-0.57764536 33:0.88727064 34:-0.65072536 35:-0.65947062 36:-0.63196549 
0.3510680922219022 1:1.0673786 2:-0.71156751 3:-0.71407343 4:-0.9633101 5:-0.58490062 6:-0.5966517 7:-0.62158296 8:-0.6080682 9:-0.58386408 10:-0.58397925 11:-0.58674344 12:-0.62192989 13:-0.15771959 14:0.62769177 15:-0.73560565 16:-0.58996993 17:0.8649502 18:0.70008552 19:0.4016948 20:0.9546171 21:-0.68403008 22:0.78618329 23:-0.62336575 24:-0.59908068 25:-0.66396316 26:-0.62365909 27:1.0789663 28:0.60509886 29:0.86383279 30:-0.58323151 31:-0.77824064 32:-0.57764536 33:2.4745744 34:1.2173329 35:-0.65947062 36:-0.63196549 
0.317023792508993 1:1.0673786 2:-0.71156751 3:-0.71407343 4:-0.9633101 5:1.7095643 6:-0.5966517 7:-0.62158296 8:-0.6080682 9:-0.58386408 10:-0.58397925 11:-0.58674344 12:-0.62192989 13:-0.15771959 14:0.62769177 15:-0.73560565 16:-0.58996993 17:0.065536497 18:-0.72644143 19:0.4016948 20:0.9546171 21:-0.68403008 22:0.78618329 23:-0.62336575 24:-0.59908068 25:-0.66396316 26:-0.62365909 27:-0.32469259 28:-0.73489894 29:-0.7299542 30:-0.58323151 31:0.94147822 32:-0.57764536 33:-0.70003315 34:-0.65072536 35:-0.65947062 36:-0.63196549 
0.3351055533100347 1:1.0673786 2:-0.71156751 3:1.4003114 4:-0.9633101 5:-0.58490062 6:-0.5966517 7:-0.62158296 8:-0.6080682 9:-0.58386408 10:-0.58397925 11:-0.58674344 12:-0.62192989 13:5.3984155 14:3.3263929 15:-0.73560565 16:-0.58996993 17:4.8620187 18:6.4061933 19:1.559577 20:2.6049825 21:-0.68403008 22:2.3105465 23:-0.62336575 24:-0.59908068 25:-0.66396316 26:-0.62365909 27:4.9390284 28:5.9650901 29:2.4576198 30:-0.58323151 31:2.6611971 32:-0.57764536 33:7.2364858 34:-0.65072536 35:-0.65947062 36:-0.63196549 
0.3350459108039028 1:-0.93680462 2:-0.71156751 3:1.4003114 4:-0.9633101 5:-0.58490062 6:-0.5966517 7:-0.62158296 8:-0.6080682 9:-0.58386408 10:-0.58397925 11:-0.58674344 12:-0.62192989 13:-1.0837421 14:1.9770423 15:-0.73560565 16:-0.58996993 17:4.8620187 18:4.9796664 19:2.7174592 20:0.9546171 21:-0.68403008 22:-0.73817993 23:5.5788992 24:-0.59908068 25:-0.66396316 26:-0.62365909 27:3.5353695 28:0.60509886 29:2.4576198 30:-0.58323151 31:-0.77824064 32:-0.57764536 33:2.4745744 34:4.9534494 35:-0.65947062 36:-0.63196549 
0.2736251265534349 1:-0.93680462 2:-0.71156751 3:-0.71407343 4:1.0380097 5:-0.58490062 6:-0.5966517 7:-0.62158296 8:-0.6080682 9:-0.58386408 10:-0.58397925 11:-0.58674344 12:-0.62192989 13:-0.15771959 14:0.62769177 15:-0.73560565 16:-0.58996993 17:0.8649502 18:0.70008552 19:0.4016948 20:0.9546171 21:-0.68403008 22:0.78618329 23:-0.62336575 24:-0.59908068 25:-0.66396316 26:-0.62365909 27:1.4298811 28:0.60509886 29:-0.7299542 30:-0.58323151 31:0.94147822 32:-0.57764536 33:-0.70003315 34:-0.65072536 35:1.3543399 36:-0.63196549 
0.3242319989988024 1:1.0673786 2:-0.71156751 3:-0.71407343 4:1.0380097 5:-0.58490062 6:-0.5966517 7:-0.62158296 8:1.6444294 9:-0.58386408 10:-0.58397925 11:-0.58674344 12:-0.62192989 13:1.6943254 14:0.62769177 15:-0.73560565 16:-0.58996993 17:-0.73387721 18:-0.72644143 19:-0.75618743 20:-0.69574834 21:-0.68403008 22:-0.73817993 23:-0.62336575 24:-0.59908068 25:-0.66396316 26:-0.62365909 27:-0.32469259 28:0.60509886 29:-0.7299542 30:-0.58323151 31:-0.77824064 32:-0.57764536 33:2.4745744 34:-0.65072536 35:-0.65947062 36:-0.63196549 
0.1414194829035284 1:1.0673786 2:-0.71156751 3:-0.71407343 4:-0.9633101 5:-0.58490062 6:-0.5966517 7:-0.62158296 8:-0.6080682 9:-0.58386408 10:-0.58397925 11:-0.58674344 12:-0.62192989 13:0.76830292 14:-0.72165881 15:-0.73560565 16:-0.58996993 17:0.8649502 18:0.70008552 19:0.4016948 20:0.9546171 21:-0.68403008 22:0.78618329 23:-0.62336575 24:-0.59908068 25:-0.66396316 26:-0.62365909 27:0.72805161 28:0.60509886 29:0.86383279 30:-0.58323151 31:-0.77824064 32:-0.57764536 33:-0.70003315 34:-0.65072536 35:-0.65947062 36:-0.63196549 
0.3411240101918153 1:1.0673786 2:-0.71156751 3:-0.71407343 4:-0.9633101 5:-0.58490062 6:-0.5966517 7:-0.62158296 8:-0.6080682 9:-0.58386408 10:-0.58397925 11:-0.58674344 12:-0.62192989 13:-1.0837421 14:-0.72165881 15:3.1331244 16:-0.58996993 17:0.065536497 18:-0.72644143 19:0.4016948 20:0.9546171 21:-0.68403008 22:0.78618329 23:-0.62336575 24:-0.59908068 25:-0.66396316 26:-0.62365909 27:0.026222142 28:0.60509886 29:-0.7299542 30:-0.58323151 31:-0.77824064 32:-0.57764536 33:0.88727064 34:-0.65072536 35:-0.65947062 36:-0.63196549 
0.01315046108293879 1:1.0673786 2:-0.71156751 3:-0.71407343 4:-0.9633101 5:-0.58490062 6:-0.5966517 7:-0.62158296 8:-0.6080682 9:-0.58386408 10:-0.58397925 11:-0.58674344 12:-0.62192989 13:1.6943254 14:0.62769177 15:-0.73560565 16:-0.58996993 17:0.8649502 18:0.70008552 19:0.4016948 20:0.9546171 21:-0.68403008 22:0.78618329 23:-0.62336575 24:-0.59908068 25:-0.66396316 26:-0.62365909 27:0.72805161 28:0.60509886 29:0.86383279 30:-0.58323151 31:0.94147822 32:-0.57764536 33:-0.70003315 34:-0.65072536 35:-0.65947062 36:-0.63196549 
0.3364818961130078 1:1.0673786 2:-0.71156751 3:1.4003114 4:-0.9633101 5:-0.58490062 6:-0.5966517 7:-0.62158296 8:-0.6080682 9:-0.58386408 10:-0.58397925 11:-0.58674344 12:-0.62192989 13:2.6203479 14:-0.72165881 15:-0.73560565 16:-0.58996993 17:2.4637776 18:0.70008552 19:2.7174592 20:2.6049825 21:1.1289751 22:3.8349097 23:-0.62336575 24:-0.59908068 25:-0.66396316 26:-0.62365909 27:2.4826253 28:1.9450967 29:2.4576198 30:-0.58323151 31:-0.77824064 32:-0.57764536 33:-0.70003315 34:-0.65072536 35:-0.65947062 36:-0.63196549 
0.3357633981828247 1:1.0673786 2:-0.71156751 3:-0.71407343 4:-0.9633101 5:-0.58490062 6:-0.5966517 7:-0.62158296 8:-0.6080682 9:-0.58386408 10:-0.58397925 11:-0.58674344 12:-0.62192989 13:0.76830292 14:-0.72165881 15:1.1987594 16:-0.58996993 17:3.2631913 18:2.1266125 19:2.7174592 20:-0.69574834 21:2.9419803 22:2.3105465 23:-0.62336575 24:-0.59908068 25:1.2775337 26:-0.62365909 27:2.83354 28:0.60509886 29:-0.7299542 30:-0.58323151 31:-0.77824064 32:-0.57764536 33:0.88727064 34:-0.65072536 35:-0.65947062 36:1.5528668 
0.2148147629418375 1:1.0673786 2:-0.71156751 3:-0.71407343 4:-0.9633101 5:-0.58490062 6:-0.5966517 7:-0.62158296 8:-0.6080682 9:-0.58386408 10:-0.58397925 11:-0.58674344 12:-0.62192989 13:1.6943254 14:0.62769177 15:-0.73560565 16:-0.58996993 17:0.8649502 18:0.70008552 19:0.4016948 20:0.9546171 21:-0.68403008 22:0.78618329 23:-0.62336575 24:-0.59908068 25:-0.66396316 26:-0.62365909 27:1.0789663 28:-0.73489894 29:-0.7299542 30:-0.58323151 31:0.94147822 32:-0.57764536 33:-0.70003315 34:-0.65072536 35:1.3543399 36:-0.63196549 
0.3317106658942063 1:-0.93680462 2:-0.71156751 3:1.4003114 4:1.0380097 5:-0.58490062 6:-0.5966517 7:-0.62158296 8:-0.6080682 9:-0.58386408 10:-0.58397925 11:-0.58674344 12:-0.62192989 13:0.76830292 14:-0.72165881 15:-0.73560565 16:-0.58996993 17:0.065536497 18:0.70008552 19:-0.75618743 20:-0.69574834 21:-0.68403008 22:-0.73817993 23:-0.62336575 24:-0.59908068 25:-0.66396316 26:-0.62365909 27:0.72805161 28:-0.73489894 29:-0.7299542 30:3.9566357 31:-0.77824064 32:-0.57764536 33:-0.70003315 34:-0.65072536 35:1.3543399 36:-0.63196549 
0.3353093691672671 1:-0.93680462 2:-0.71156751 3:-0.71407343 4:-0.9633101 5:1.7095643 6:1.6758943 7:-0.62158296 8:-0.6080682 9:-0.58386408 10:-0.58397925 11:-0.58674344 12:-0.62192989 13:-0.15771959 14:-0.72165881 15:-0.73560565 16:-0.58996993 17:3.2631913 18:2.1266125 19:2.7174592 20:4.255348 21:-0.68403008 22:3.8349097 23:-0.62336575 24:-0.59908068 25:-0.66396316 26:-0.62365909 27:2.1317105 28:0.60509886 29:-0.7299542 30:-0.58323151 31:-0.77824064 32:-0.57764536 33:-0.70003315 34:1.2173329 35:-0.65947062 36:-0.63196549 
0.3356970308534102 1:1.0673786 2:1.4052429 3:1.4003114 4:-0.9633101 5:-0.58490062 6:-0.5966517 7:-0.62158296 8:-0.6080682 9:-0.58386408 10:-0.58397925 11:-0.58674344 12:-0.62192989 13:5.3984155 14:-0.72165881 15:1.1987594 16:-0.58996993 17:5.6614324 18:3.5531394 19:5.0332237 20:0.9546171 21:6.5679906 22:6.8836362 23:-0.62336575 24:-0.59908068 25:-0.66396316 26:-0.62365909 27:7.0445168 28:3.2850945 29:4.0514068 30:-0.58323151 31:-0.77824064 32:-0.57764536 33:2.4745744 34:6.8215077 35:3.3681505 36:-0.63196549 
0.2019671718761428 1:-0.93680462 2:1.4052429 3:-0.71407343 4:-0.9633101 5:-0.58490062 6:-0.5966517 7:1.6086754 8:-0.6080682 9:-0.58386408 10:-0.58397925 11:-0.58674344 12:-0.62192989 13:-0.15771959 14:-0.72165881 15:1.1987594 16:-0.58996993 17:1.6643639 18:0.70008552 19:1.559577 20:2.6049825 21:-0.68403008 22:0.78618329 23:1.4440559 24:-0.59908068 25:-0.66396316 26:-0.62365909 27:1.0789663 28:-0.73489894 29:-0.7299542 30:-0.58323151 31:-0.77824064 32:-0.57764536 33:-0.70003315 34:-0.65072536 35:-0.65947062 36:-0.63196549 
0.3354931281346239 1:1.0673786 2:-0.71156751 3:-0.71407343 4:-0.9633101 5:-0.58490062 6:-0.5966517 7:-0.62158296 8:-0.6080682 9:-0.58386408 10:-0.58397925 11:-0.58674344 12:-0.62192989 13:2.6203479 14:-0.72165881 15:-0.73560565 16:-0.58996993 17:3.2631913 18:4.9796664 19:0.4016948 20:-0.69574834 21:1.1289751 22:0.78618329 23:-0.62336575 24:-0.59908068 25:-0.66396316 26:-0.62365909 27:3.5353695 28:1.9450967 29:0.86383279 30:-0.58323151 31:-0.77824064 32:-0.57764536 33:0.88727064 34:-0.65072536 35:1.3543399 36:-0.63196549 
0.3280225162383131 1:1.0673786 2:-0.71156751 3:1.4003114 4:-0.9633101 5:-0.58490062 6:-0.5966517 7:-0.62158296 8:-0.6080682 9:-0.58386408 10:-0.58397925 11:-0.58674344 12:-0.62192989 13:-0.15771959 14:0.62769177 15:-0.73560565 16:-0.58996993 17:0.8649502 18:2.1266125 19:-0.75618743 20:-0.69574834 21:-0.68403008 22:-0.73817993 23:-0.62336575 24:-0.59908068 25:-0.66396316 26:-0.62365909 27:2.1317105 28:0.60509886 29:2.4576198 30:-0.58323151 31:-0.77824064 32:-0.57764536 33:2.4745744 34:1.2173329 35:-0.65947062 36:-0.63196549 
