svm_type c_svc
kernel_type rbf
gamma 0.000976562
nr_class 2
total_sv 1749
rho -3.13079
label 2 1
nr_sv 879 870
SV
32 1:2.0753802 2:-0.40725733 3:-0.50369515 4:-0.52850341 5:-0.14857039 6:-0.16731001 7:-0.22311291 8:-0.2399966 9:-0.11748633 10:-0.15504428 11:-0.17600619 12:-0.29826289 13:0.62410227 14:-0.62482871 15:-0.45702737 16:-0.1534491 17:1.0106248 18:-0.61249221 19:1.1910716 20:-0.54229764 21:2.1380249 22:1.6734604 23:-0.32546006 24:-0.26524341 25:-0.37125383 26:-0.32369263 27:0.79758045 28:-0.63137154 29:-0.5994546 30:-0.14857039 31:1.9559822 32:-0.099786623 33:-0.48383147 34:-0.44723455 35:-0.29168004 36:-0.24862892 
32 1:2.0753802 2:-0.40725733 3:-0.50369515 4:-0.52850341 5:-0.14857039 6:-0.16731001 7:-0.22311291 8:-0.2399966 9:-0.11748633 10:-0.15504428 11:-0.17600619 12:-0.29826289 13:-1.6015489 14:-0.62482871 15:-0.45702737 16:-0.1534491 17:1.0106248 18:-0.61249221 19:1.1910716 20:1.8431397 21:-0.46750172 22:1.6734604 23:-0.32546006 24:-0.26524341 25:-0.37125383 26:-0.32369263 27:0.79758045 28:-0.63137154 29:1.6673995 30:-0.14857039 31:-0.51101195 32:-0.099786623 33:-0.48383147 34:-0.44723455 35:-0.29168004 36:-0.24862892 
7.030017472134395 1:2.0753802 2:2.4542966 3:-0.50369515 4:-0.52850341 5:-0.14857039 6:-0.16731001 7:-0.22311291 8:-0.2399966 9:-0.11748633 10:-0.15504428 11:-0.17600619 12:-0.29826289 13:0.62410227 14:-0.62482871 15:2.187025 16:-0.1534491 17:-0.98902218 18:-0.61249221 19:-0.83918574 20:-0.54229764 21:-0.46750172 22:-0.59728351 23:-0.32546006 24:-0.26524341 25:-0.37125383 26:3.0878995 27:0.79758045 28:1.5831095 29:1.6673995 30:-0.14857039 31:-0.51101195 32:-0.099786623 33:2.0658646 34:2.234913 35:3.4268039 36:-0.24862892 
32 1:-0.48161311 2:2.4542966 3:-0.50369515 4:-0.52850341 5:-0.14857039 6:-0.16731001 7:-0.22311291 8:-0.2399966 9:-0.11748633 10:-0.15504428 11:-0.17600619 12:-0.29826289 13:-1.6015489 14:-0.62482871 15:-0.45702737 16:-0.1534491 17:-0.98902218 18:-0.61249221 19:-0.83918574 20:-0.54229764 21:-0.46750172 22:-0.59728351 23:-0.32546006 24:-0.26524341 25:-0.37125383 26:-0.32369263 27:0.79758045 28:-0.63137154 29:-0.5994546 30:-0.14857039 31:-0.51101195 32:-0.099786623 33:-0.48383147 34:-0.44723455 35:3.4268039 36:-0.24862892 
32 1:-0.48161311 2:-0.40725733 3:1.9843953 4:-0.52850341 5:-0.14857039 6:-0.16731001 7:-0.22311291 8:-0.2399966 9:-0.11748633 10:-0.15504428 11:-0.17600619 12:-0.29826289 13:-1.6015489 14:-0.62482871 15:-0.45702737 16:-0.1534491 17:1.0106248 18:-0.61249221 19:1.1910716 20:-0.54229764 21:2.1380249 22:1.6734604 23:-0.32546006 24:-0.26524341 25:-0.37125383 26:-0.32369263 27:0.79758045 28:1.5831095 29:-0.5994546 30:-0.14857039 31:-0.51101195 32:-0.099786623 33:2.0658646 34:-0.44723455 35:-0.29168004 36:-0.24862892 
32 1:2.0753802 2:-0.40725733 3:-0.50369515 4:-0.52850341 5:-0.14857039 6:-0.16731001 7:-0.22311291 8:-0.2399966 9:-0.11748633 10:-0.15504428 11:-0.17600619 12:-0.29826289 13:0.62410227 14:1.5996869 15:2.187025 16:-0.1534491 17:-0.98902218 18:-0.61249221 19:-0.83918574 20:-0.54229764 21:-0.46750172 22:-0.59728351 23:-0.32546006 24:-0.26524341 25:-0.37125383 26:-0.32369263 27:0.79758045 28:1.5831095 29:-0.5994546 30:-0.14857039 31:-0.51101195 32:-0.099786623 33:-0.48383147 34:-0.44723455 35:-0.29168004 36:-0.24862892 
32 1:-0.48161311 2:-0.40725733 3:-0.50369515 4:-0.52850341 5:-0.14857039 6:-0.16731001 7:-0.22311291 8:-0.2399966 9:-0.11748633 10:-0.15504428 11:-0.17600619 12:3.3511721 13:0.62410227 14:-0.62482871 15:-0.45702737 16:-0.1534491 17:-0.98902218 18:-0.61249221 19:-0.83918574 20:-0.54229764 21:-0.46750172 22:-0.59728351 23:-0.32546006 24:-0.26524341 25:-0.37125383 26:-0.32369263 27:-1.2532031 28:-0.63137154 29:-0.5994546 30:-0.14857039 31:1.9559822 32:-0.099786623 33:-0.48383147 34:-0.44723455 35:-0.29168004 36:-0.24862892 
32 1:2.0753802 2:-0.40725733 3:-0.50369515 4:-0.52850341 5:-0.14857039 6:-0.16731001 7:-0.22311291 8:4.1647686 9:-0.11748633 10:6.446741 11:-0.17600619 12:-0.29826289 13:0.62410227 14:-0.62482871 15:-0.45702737 16:-0.1534491 17:-0.98902218 18:-0.61249221 19:-0.83918574 20:-0.54229764 21:-0.46750172 22:-0.59728351 23:-0.32546006 24:-0.26524341 25:-0.37125383 26:-0.32369263 27:0.79758045 28:1.5831095 29:-0.5994546 30:-0.14857039 31:-0.51101195 32:-0.099786623 33:-0.48383147 34:-0.44723455 35:-0.29168004 36:-0.24862892 
32 1:-0.48161311 2:-0.40725733 3:-0.50369515 4:1.8912466 5:-0.14857039 6:-0.16731001 7:-0.22311291 8:-0.2399966 9:-0.11748633 10:-0.15504428 11:-0.17600619 12:-0.29826289 13:0.62410227 14:-0.62482871 15:-0.45702737 16:-0.1534491 17:1.0106248 18:1.631907 19:1.1910716 20:-0.54229764 21:-0.46750172 22:-0.59728351 23:-0.32546006 24:-0.26524341 25:2.6923097 26:-0.32369263 27:0.79758045 28:-0.63137154 29:-0.5994546 30:-0.14857039 31:-0.51101195 32:-0.099786623 33:-0.48383147 34:-0.44723455 35:-0.29168004 36:-0.24862892 
32 1:-0.48161311 2:2.4542966 3:-0.50369515 4:-0.52850341 5:-0.14857039 6:-0.16731001 7:-0.22311291 8:-0.2399966 9:-0.11748633 10:-0.15504428 11:-0.17600619 12:-0.29826289 13:0.62410227 14:-0.62482871 15:2.187025 16:-0.1534491 17:1.0106248 18:1.631907 19:1.1910716 20:1.8431397 21:-0.46750172 22:-0.59728351 23:3.0711305 24:-0.26524341 25:-0.37125383 26:-0.32369263 27:0.79758045 28:1.5831095 29:1.6673995 30:-0.14857039 31:-0.51101195 32:-0.099786623 33:-0.48383147 34:-0.44723455 35:-0.29168004 36:-0.24862892 
32 1:-0.48161311 2:-0.40725733 3:1.9843953 4:-0.52850341 5:-0.14857039 6:-0.16731001 7:-0.22311291 8:-0.2399966 9:-0.11748633 10:-0.15504428 11:-0.17600619 12:-0.29826289 13:0.62410227 14:-0.62482871 15:-0.45702737 16:-0.1534491 17:1.0106248 18:-0.61249221 19:1.1910716 20:-0.54229764 21:-0.46750172 22:-0.59728351 23:-0.32546006 24:-0.26524341 25:2.6923097 26:-0.32369263 27:0.79758045 28:1.5831095 29:-0.5994546 30:-0.14857039 31:-0.51101195 32:-0.099786623 33:-0.48383147 34:-0.44723455 35:-0.29168004 36:-0.24862892 
32 1:-0.48161311 2:-0.40725733 3:-0.50369515 4:-0.52850341 5:-0.14857039 6:-0.16731001 7:-0.22311291 8:-0.2399966 9:-0.11748633 10:-0.15504428 11:-0.17600619 12:-0.29826289 13:-1.6015489 14:-0.62482871 15:-0.45702737 16:-0.1534491 17:-0.98902218 18:-0.61249221 19:-0.83918574 20:-0.54229764 21:-0.46750172 22:-0.59728351 23:-0.32546006 24:-0.26524341 25:-0.37125383 26:-0.32369263 27:-1.2532031 28:-0.63137154 29:-0.5994546 30:-0.14857039 31:-0.51101195 32:-0.099786623 33:-0.48383147 34:-0.44723455 35:-0.29168004 36:-0.24862892 
32 1:-0.48161311 2:-0.40725733 3:-0.50369515 4:-0.52850341 5:-0.14857039 6:-0.16731001 7:-0.22311291 8:-0.2399966 9:-0.11748633 10:-0.15504428 11:-0.17600619 12:-0.29826289 13:-1.6015489 14:-0.62482871 15:-0.45702737 16:-0.1534491 17:-0.98902218 18:-0.61249221 19:-0.83918574 20:-0.54229764 21:-0.46750172 22:-0.59728351 23:-0.32546006 24:-0.26524341 25:-0.37125383 26:-0.32369263 27:0.79758045 28:-0.63137154 29:1.6673995 30:-0.14857039 31:-0.51101195 32:-0.099786623 33:2.0658646 34:2.234913 35:-0.29168004 36:-0.24862892 
32 1:-0.48161311 2:-0.40725733 3:-0.50369515 4:-0.52850341 5:-0.14857039 6:-0.16731001 7:-0.22311291 8:-0.2399966 9:-0.11748633 10:-0.15504428 11:-0.17600619 12:-0.29826289 13:0.62410227 14:-0.62482871 15:-0.45702737 16:-0.1534491 17:1.0106248 18:-0.61249221 19:1.1910716 20:1.8431397 21:-0.46750172 22:1.6734604 23:-0.32546006 24:-0.26524341 25:-0.37125383 26:-0.32369263 27:0.79758045 28:-0.63137154 29:-0.5994546 30:-0.14857039 31:-0.51101195 32:-0.099786623 33:-0.48383147 34:-0.44723455 35:-0.29168004 36:-0.24862892 
32 1:-0.48161311 2:-0.40725733 3:-0.50369515 4:1.8912466 5:-0.14857039 6:-0.16731001 7:-0.22311291 8:-0.2399966 9:-0.11748633 10:-0.15504428 11:-0.17600619 12:-0.29826289 13:0.62410227 14:-0.62482871 15:-0.45702737 16:-0.1534491 17:1.0106248 18:1.631907 19:1.1910716 20:1.8431397 21:2.1380249 22:1.6734604 23:-0.32546006 24:3.7683511 25:-0.37125383 26:3.0878995 27:0.79758045 28:-0.63137154 29:-0.5994546 30:-0.14857039 31:-0.51101195 32:-0.099786623 33:-0.48383147 34:2.234913 35:-0.29168004 36:-0.24862892 
32 1:-0.48161311 2:-0.40725733 3:-0.50369515 4:-0.52850341 5:-0.14857039 6:-0.16731001 7:-0.22311291 8:-0.2399966 9:-0.11748633 10:-0.15504428 11:-0.17600619 12:-0.29826289 13:0.62410227 14:-0.62482871 15:-0.45702737 16:-0.1534491 17:-0.98902218 18:-0.61249221 19:-0.83918574 20:-0.54229764 21:-0.46750172 22:-0.59728351 23:-0.32546006 24:-0.26524341 25:-0.37125383 26:-0.32369263 27:-1.2532031 28:-0.63137154 29:-0.5994546 30:-0.14857039 31:-0.51101195 32:-0.099786623 33:-0.48383147 34:-0.44723455 35:-0.29168004 36:-0.24862892 
32 1:-0.48161311 2:-0.40725733 3:-0.50369515 4:-0.52850341 5:-0.14857039 6:-0.16731001 7:-0.22311291 8:-0.2399966 9:-0.11748633 10:-0.15504428 11:-0.17600619 12:-0.29826289 13:0.62410227 14:-0.62482871 15:-0.45702737 16:-0.1534491 17:-0.98902218 18:-0.61249221 19:-0.83918574 20:-0.54229764 21:-0.46750172 22:-0.59728351 23:-0.32546006 24:-0.26524341 25:-0.37125383 26:3.0878995 27:0.79758045 28:-0.63137154 29:-0.5994546 30:-0.14857039 31:-0.51101195 32:-0.099786623 33:-0.48383147 34:-0.44723455 35:-0.29168004 36:-0.24862892 
32 1:-0.48161311 2:2.4542966 3:-0.50369515 4:-0.52850341 5:-0.14857039 6:-0.16731001 7:4.4799304 8:-0.2399966 9:-0.11748633 10:-0.15504428 11:-0.17600619 12:-0.29826289 13:0.62410227 14:1.5996869 15:2.187025 16:-0.1534491 17:1.0106248 18:-0.61249221 19:1.1910716 20:-0.54229764 21:2.1380249 22:1.6734604 23:-0.32546006 24:-0.26524341 25:-0.37125383 26:-0.32369263 27:0.79758045 28:1.5831095 29:1.6673995 30:-0.14857039 31:1.9559822 32:-0.099786623 33:-0.48383147 34:-0.44723455 35:-0.29168004 36:-0.24862892 
32 1:-0.48161311 2:-0.40725733 3:-0.50369515 4:-0.52850341 5:-0.14857039 6:-0.16731001 7:-0.22311291 8:-0.2399966 9:-0.11748633 10:-0.15504428 11:5.6789497 12:-0.29826289 13:0.62410227 14:-0.62482871 15:-0.45702737 16:-0.1534491 17:1.0106248 18:-0.61249221 19:1.1910716 20:1.8431397 21:-0.46750172 22:1.6734604 23:-0.32546006 24:-0.26524341 25:-0.37125383 26:-0.32369263 27:0.79758045 28:-0.63137154 29:-0.5994546 30:-0.14857039 31:-0.51101195 32:-0.099786623 33:-0.48383147 34:-0.44723455 35:-0.29168004 36:-0.24862892 
32 1:-0.48161311 2:2.4542966 3:-0.50369515 4:-0.52850341 5:-0.14857039 6:-0.16731001 7:-0.22311291 8:-0.2399966 9:-0.11748633 10:-0.15504428 11:-0.17600619 12:-0.29826289 13:-1.6015489 14:-0.62482871 15:2.187025 16:-0.1534491 17:-0.98902218 18:-0.61249221 19:-0.83918574 20:-0.54229764 21:-0.46750172 22:-0.59728351 23:-0.32546006 24:-0.26524341 25:-0.37125383 26:-0.32369263 27:0.79758045 28:-0.63137154 29:1.6673995 30:-0.14857039 31:-0.51101195 32:-0.099786623 33:-0.48383147 34:-0.44723455 35:-0.29168004 36:-0.24862892 
32 1:-0.48161311 2:-0.40725733 3:1.9843953 4:-0.52850341 5:-0.14857039 6:-0.16731001 7:-0.22311291 8:-0.2399966 9:-0.11748633 10:-0.15504428 11:-0.17600619 12:-0.29826289 13:-1.6015489 14:1.5996869 15:-0.45702737 16:-0.1534491 17:1.0106248 18:-0.61249221 19:1.1910716 20:-0.54229764 21:2.1380249 22:1.6734604 23:-0.32546006 24:-0.26524341 25:-0.37125383 26:-0.32369263 27:0.79758045 28:-0.63137154 29:1.6673995 30:-0.14857039 31:-0.51101195 32:-0.099786623 33:-0.48383147 34:-0.44723455 35:-0.29168004 36:-0.24862892 
32 1:-0.48161311 2:2.4542966 3:-0.50369515 4:-0.52850341 5:-0.14857039 6:-0.16731001 7:-0.22311291 8:-0.2399966 9:-0.11748633 10:-0.15504428 11:-0.17600619 12:-0.29826289 13:-1.6015489 14:-0.62482871 15:2.187025 16:-0.1534491 17:1.0106248 18:-0.61249221 19:1.1910716 20:-0.54229764 21:2.1380249 22:1.6734604 23:-0.32546006 24:-0.26524341 25:-0.37125383 26:-0.32369263 27:0.79758045 28:-0.63137154 29:-0.5994546 30:-0.14857039 31:-0.51101195 32:-0.099786623 33:-0.48383147 34:-0.44723455 35:-0.29168004 36:-0.24862892 
32 1:-0.48161311 2:-0.40725733 3:1.9843953 4:-0.52850341 5:-0.14857039 6:-0.16731001 7:-0.22311291 8:-0.2399966 9:-0.11748633 10:-0.15504428 11:-0.17600619 12:-0.29826289 13:0.62410227 14:1.5996869 15:-0.45702737 16:-0.1534491 17:1.0106248 18:1.631907 19:1.1910716 20:1.8431397 21:-0.46750172 22:-0.59728351 23:-0.32546006 24:3.7683511 25:-0.37125383 26:-0.32369263 27:0.79758045 28:1.5831095 29:1.6673995 30:-0.14857039 31:1.9559822 32:-0.099786623 33:2.0658646 34:2.234913 35:-0.29168004 36:-0.24862892 
32 1:2.0753802 2:-0.40725733 3:-0.50369515 4:-0.52850341 5:-0.14857039 6:-0.16731001 7:-0.22311291 8:-0.2399966 9:-0.11748633 10:-0.15504428 11:-0.17600619 12:-0.29826289 13:0.62410227 14:1.5996869 15:-0.45702737 16:-0.1534491 17:1.0106248 18:-0.61249221 19:1.1910716 20:-0.54229764 21:2.1380249 22:1.6734604 23:-0.32546006 24:-0.26524341 25:-0.37125383 26:3.0878995 27:0.79758045 28:-0.63137154 29:1.6673995 30:-0.14857039 31:1.9559822 32:-0.099786623 33:2.0658646 34:2.234913 35:-0.29168004 36:-0.24862892 
32 1:-0.48161311 2:-0.40725733 3:1.9843953 4:-0.52850341 5:-0.14857039 6:-0.16731001 7:-0.22311291 8:-0.2399966 9:-0.11748633 10:-0.15504428 11:-0.17600619 12:-0.29826289 13:-1.6015489 14:1.5996869 15:-0.45702737 16:-0.1534491 17:1.0106248 18:1.631907 19:1.1910716 20:1.8431397 21:-0.46750172 22:-0.59728351 23:3.0711305 24:-0.26524341 25:-0.37125383 26:-0.32369263 27:0.79758045 28:1.5831095 29:1.6673995 30:-0.14857039 31:-0.51101195 32:-0.099786623 33:2.0658646 34:2.234913 35:-0.29168004 36:-0.24862892 
32 1:-0.48161311 2:-0.40725733 3:1.9843953 4:-0.52850341 5:-0.14857039 6:-0.16731001 7:-0.22311291 8:-0.2399966 9:-0.11748633 10:-0.15504428 11:-0.17600619 12:-0.29826289 13:0.62410227 14:-0.62482871 15:-0.45702737 16:-0.1534491 17:1.0106248 18:1.631907 19:1.1910716 20:-0.54229764 21:2.1380249 22:1.6734604 23:-0.32546006 24:-0.26524341 25:-0.37125383 26:-0.32369263 27:0.79758045 28:1.5831095 29:-0.5994546 30:-0.14857039 31:-0.51101195 32:-0.099786623 33:2.0658646 34:2.234913 35:-0.29168004 36:-0.24862892 
32 1:-0.48161311 2:2.4542966 3:-0.50369515 4:-0.52850341 5:-0.14857039 6:-0.16731001 7:-0.22311291 8:-0.2399966 9:-0.11748633 10:6.446741 11:-0.17600619 12:-0.29826289 13:0.62410227 14:-0.62482871 15:2.187025 16:-0.1534491 17:1.0106248 18:1.631907 19:1.1910716 20:1.8431397 21:-0.46750172 22:1.6734604 23:3.0711305 24:-0.26524341 25:-0.37125383 26:-0.32369263 27:0.79758045 28:1.5831095 29:-0.5994546 30:-0.14857039 31:-0.51101195 32:-0.099786623 33:2.0658646 34:2.234913 35:-0.29168004 36:-0.24862892 
32 1:-0.48161311 2:2.4542966 3:-0.50369515 4:-0.52850341 5:-0.14857039 6:-0.16731001 7:-0.22311291 8:-0.2399966 9:-0.11748633 10:-0.15504428 11:-0.17600619 12:-0.29826289 13:-1.6015489 14:-0.62482871 15:2.187025 16:-0.1534491 17:1.0106248 18:1.631907 19:-0.83918574 20:-0.54229764 21:-0.46750172 22:-0.59728351 23:-0.32546006 24:-0.26524341 25:-0.37125383 26:-0.32369263 27:0.79758045 28:-0.63137154 29:1.6673995 30:-0.14857039 31:-0.51101195 32:-0.099786623 33:-0.48383147 34:-0.44723455 35:-0.29168004 36:-0.24862892 
32 1:-0.48161311 2:2.4542966 3:-0.50369515 4:-0.52850341 5:-0.14857039 6:-0.16731001 7:-0.22311291 8:-0.2399966 9:-0.11748633 10:-0.15504428 11:-0.17600619 12:-0.29826289 13:-1.6015489 14:-0.62482871 15:2.187025 16:-0.1534491 17:-0.98902218 18:-0.61249221 19:-0.83918574 20:-0.54229764 21:-0.46750172 22:-0.59728351 23:-0.32546006 24:-0.26524341 25:-0.37125383 26:-0.32369263 27:-1.2532031 28:-0.63137154 29:-0.5994546 30:-0.14857039 31:-0.51101195 32:-0.099786623 33:-0.48383147 34:-0.44723455 35:-0.29168004 36:-0.24862892 
32 1:2.0753802 2:-0.40725733 3:-0.50369515 4:-0.52850341 5:-0.14857039 6:-0.16731001 7:-0.22311291 8:4.1647686 9:-0.11748633 10:-0.15504428 11:-0.17600619 12:-0.29826289 13:0.62410227 14:-0.62482871 15:-0.45702737 16:-0.1534491 17:1.0106248 18:1.631907 19:1.1910716 20:1.8431397 21:2.1380249 22:1.6734604 23:-0.32546006 24:-0.26524341 25:2.6923097 26:-0.32369263 27:0.79758045 28:1.5831095 29:-0.5994546 30:-0.14857039 31:-0.51101195 32:-0.099786623 33:2.0658646 34:2.234913 35:-0.29168004 36:-0.24862892 
32 1:-0.48161311 2:-0.40725733 3:-0.50369515 4:-0.52850341 5:-0.14857039 6:5.9741213 7:-0.22311291 8:-0.2399966 9:-0.11748633 10:-0.15504428 11:-0.17600619 12:-0.29826289 13:0.62410227 14:-0.62482871 15:-0.45702737 16:-0.1534491 17:-0.98902218 18:-0.61249221 19:-0.83918574 20:-0.54229764 21:-0.46750172 22:-0.59728351 23:-0.32546006 24:-0.26524341 25:-0.37125383 26:-0.32369263 27:0.79758045 28:1.5831095 29:-0.5994546 30:-0.14857039 31:-0.51101195 32:-0.099786623 33:2.0658646 34:-0.44723455 35:-0.29168004 36:-0.24862892 
32 1:-0.48161311 2:-0.40725733 3:-0.50369515 4:1.8912466 5:-0.14857039 6:-0.16731001 7:-0.22311291 8:-0.2399966 9:-0.11748633 10:-0.15504428 11:-0.17600619 12:-0.29826289 13:0.62410227 14:1.5996869 15:-0.45702737 16:-0.1534491 17:-0.98902218 18:-0.61249221 19:-0.83918574 20:-0.54229764 21:-0.46750172 22:-0.59728351 23:-0.32546006 24:-0.26524341 25:-0.37125383 26:-0.32369263 27:0.79758045 28:-0.63137154 29:1.6673995 30:-0.14857039 31:1.9559822 32:-0.099786623 33:-0.48383147 34:-0.44723455 35:-0.29168004 36:-0.24862892 
32 1:-0.48161311 2:-0.40725733 3:-0.50369515 4:-0.52850341 5:-0.14857039 6:-0.16731001 7:-0.22311291 8:-0.2399966 9:-0.11748633 10:-0.15504428 11:-0.17600619 12:-0.29826289 13:0.62410227 14:-0.62482871 15:-0.45702737 16:-0.1534491 17:-0.98902218 18:-0.61249221 19:-0.83918574 20:-0.54229764 21:-0.46750172 22:-0.59728351 23:-0.32546006 24:-0.26524341 25:-0.37125383 26:-0.32369263 27:-1.2532031 28:-0.63137154 29:-0.5994546 30:-0.14857039 31:-0.51101195 32:-0.099786623 33:-0.48383147 34:-0.44723455 35:-0.29168004 36:-0.24862892 
32 1:-0.48161311 2:-0.40725733 3:1.9843953 4:-0.52850341 5:6.7276548 6:-0.16731001 7:-0.22311291 8:-0.2399966 9:-0.11748633 10:-0.15504428 11:-0.17600619 12:-0.29826289 13:0.62410227 14:-0.62482871 15:-0.45702737 16:-0.1534491 17:1.0106248 18:1.631907 19:1.1910716 20:1.8431397 21:-0.46750172 22:-0.59728351 23:3.0711305 24:-0.26524341 25:-0.37125383 26:-0.32369263 27:0.79758045 28:1.5831095 29:1.6673995 30:-0.14857039 31:-0.51101195 32:-0.099786623 33:2.0658646 34:2.234913 35:-0.29168004 36:4.0201692 
32 1:-0.48161311 2:-0.40725733 3:1.9843953 4:-0.52850341 5:-0.14857039 6:-0.16731001 7:-0.22311291 8:-0.2399966 9:-0.11748633 10:-0.15504428 11:-0.17600619 12:-0.29826289 13:-1.6015489 14:1.5996869 15:-0.45702737 16:-0.1534491 17:1.0106248 18:-0.61249221 19:1.1910716 20:1.8431397 21:2.1380249 22:-0.59728351 23:3.0711305 24:3.7683511 25:-0.37125383 26:-0.32369263 27:0.79758045 28:1.5831095 29:1.6673995 30:-0.14857039 31:-0.51101195 32:-0.099786623 33:-0.48383147 34:-0.44723455 35:-0.29168004 36:-0.24862892 
32 1:-0.48161311 2:-0.40725733 3:1.9843953 4:-0.52850341 5:-0.14857039 6:-0.16731001 7:-0.22311291 8:-0.2399966 9:-0.11748633 10:-0.15504428 11:-0.17600619 12:-0.29826289 13:0.62410227 14:1.5996869 15:-0.45702737 16:-0.1534491 17:1.0106248 18:-0.61249221 19:1.1910716 20:-0.54229764 21:2.1380249 22:1.6734604 23:-0.32546006 24:-0.26524341 25:-0.37125383 26:-0.32369263 27:0.79758045 28:1.5831095 29:1.6673995 30:-0.14857039 31:-0.51101195 32:-0.099786623 33:-0.48383147 34:-0.44723455 35:-0.29168004 36:-0.24862892 
32 1:-0.48161311 2:-0.40725733 3:-0.50369515 4:-0.52850341 5:-0.14857039 6:-0.16731001 7:-0.22311291 8:-0.2399966 9:-0.11748633 10:6.446741 11:-0.17600619 12:-0.29826289 13:0.62410227 14:-0.62482871 15:-0.45702737 16:-0.1534491 17:1.0106248 18:-0.61249221 19:1.1910716 20:1.8431397 21:-0.46750172 22:1.6734604 23:-0.32546006 24:-0.26524341 25:-0.37125383 26:-0.32369263 27:0.79758045 28:-0.63137154 29:-0.5994546 30:-0.14857039 31:1.9559822 32:-0.099786623 33:-0.48383147 34:-0.44723455 35:-0.29168004 36:-0.24862892 
32 1:-0.48161311 2:2.4542966 3:-0.50369515 4:-0.52850341 5:-0.14857039 6:-0.16731001 7:-0.22311291 8:-0.2399966 9:-0.11748633 10:-0.15504428 11:-0.17600619 12:-0.29826289 13:-1.6015489 14:1.5996869 15:2.187025 16:-0.1534491 17:1.0106248 18:1.631907 19:1.1910716 20:-0.54229764 21:2.1380249 22:1.6734604 23:-0.32546006 24:-0.26524341 25:-0.37125383 26:-0.32369263 27:0.79758045 28:1.5831095 29:1.6673995 30:-0.14857039 31:-0.51101195 32:-0.099786623 33:-0.48383147 34:-0.44723455 35:-0.29168004 36:-0.24862892 
32 1:-0.48161311 2:2.4542966 3:-0.50369515 4:-0.52850341 5:-0.14857039 6:-0.16731001 7:-0.22311291 8:-0.2399966 9:-0.11748633 10:-0.15504428 11:-0.17600619 12:-0.29826289 13:-1.6015489 14:-0.62482871 15:2.187025 16:-0.1534491 17:-0.98902218 18:-0.61249221 19:-0.83918574 20:-0.54229764 21:-0.46750172 22:-0.59728351 23:-0.32546006 24:-0.26524341 25:-0.37125383 26:-0.32369263 27:-1.2532031 28:-0.63137154 29:-0.5994546 30:-0.14857039 31:-0.51101195 32:-0.099786623 33:-0.48383147 34:-0.44723455 35:-0.29168004 36:-0.24862892 
32 1:-0.48161311 2:-0.40725733 3:1.9843953 4:-0.52850341 5:-0.14857039 6:-0.16731001 7:-0.22311291 8:-0.2399966 9:-0.11748633 10:-0.15504428 11:-0.17600619 12:-0.29826289 13:-1.6015489 14:-0.62482871 15:-0.45702737 16:-0.1534491 17:1.0106248 18:-0.61249221 19:1.1910716 20:-0.54229764 21:2.1380249 22:1.6734604 23:-0.32546006 24:-0.26524341 25:-0.37125383 26:3.0878995 27:0.79758045 28:-0.63137154 29:1.6673995 30:-0.14857039 31:-0.51101195 32:-0.099786623 33:-0.48383147 34:-0.44723455 35:-0.29168004 36:-0.24862892 
32 1:-0.48161311 2:-0.40725733 3:1.9843953 4:-0.52850341 5:-0.14857039 6:-0.16731001 7:-0.22311291 8:-0.2399966 9:-0.11748633 10:-0.15504428 11:-0.17600619 12:-0.29826289 13:0.62410227 14:1.5996869 15:-0.45702737 16:-0.1534491 17:1.0106248 18:1.631907 19:1.1910716 20:-0.54229764 21:2.1380249 22:1.6734604 23:-0.32546006 24:-0.26524341 25:2.6923097 26:3.0878995 27:0.79758045 28:1.5831095 29:1.6673995 30:-0.14857039 31:-0.51101195 32:-0.099786623 33:2.0658646 34:2.234913 35:3.4268039 36:-0.24862892 
32 1:-0.48161311 2:-0.40725733 3:1.9843953 4:-0.52850341 5:-0.14857039 6:-0.16731001 7:-0.22311291 8:-0.2399966 9:-0.11748633 10:-0.15504428 11:-0.17600619 12:-0.29826289 13:0.62410227 14:1.5996869 15:-0.45702737 16:-0.1534491 17:1.0106248 18:1.631907 19:1.1910716 20:1.8431397 21:-0.46750172 22:-0.59728351 23:3.0711305 24:3.7683511 25:-0.37125383 26:-0.32369263 27:0.79758045 28:1.5831095 29:1.6673995 30:-0.14857039 31:-0.51101195 32:-0.099786623 33:-0.48383147 34:-0.44723455 35:-0.29168004 36:-0.24862892 
32 1:2.0753802 2:-0.40725733 3:-0.50369515 4:-0.52850341 5:-0.14857039 6:-0.16731001 7:-0.22311291 8:-0.2399966 9:-0.11748633 10:-0.15504428 11:-0.17600619 12:-0.29826289 13:-1.6015489 14:1.5996869 15:-0.45702737 16:-0.1534491 17:1.0106248 18:-0.61249221 19:1.1910716 20:1.8431397 21:-0.46750172 22:1.6734604 23:-0.32546006 24:-0.26524341 25:-0.37125383 26:-0.32369263 27:0.79758045 28:-0.63137154 29:1.6673995 30:-0.14857039 31:-0.51101195 32:-0.099786623 33:-0.48383147 34:-0.44723455 35:-0.29168004 36:-0.24862892 
32 1:2.0753802 2:-0.40725733 3:-0.50369515 4:-0.52850341 5:-0.14857039 6:-0.16731001 7:-0.22311291 8:-0.2399966 9:-0.11748633 10:-0.15504428 11:-0.17600619 12:-0.29826289 13:0.62410227 14:1.5996869 15:-0.45702737 16:-0.1534491 17:1.0106248 18:1.631907 19:1.1910716 20:-0.54229764 21:2.1380249 22:1.6734604 23:-0.32546006 24:-0.26524341 25:-0.37125383 26:-0.32369263 27:0.79758045 28:1.5831095 29:1.6673995 30:-0.14857039 31:-0.51101195 32:-0.099786623 33:2.0658646 34:2.234913 35:-0.29168004 36:-0.24862892 
32 1:-0.48161311 2:2.4542966 3:-0.50369515 4:-0.52850341 5:-0.14857039 6:-0.16731001 7:-0.22311291 8:-0.2399966 9:-0.11748633 10:-0.15504428 11:-0.17600619 12:-0.29826289 13:0.62410227 14:-0.62482871 15:-0.45702737 16:-0.1534491 17:1.0106248 18:-0.61249221 19:1.1910716 20:-0.54229764 21:-0.46750172 22:-0.59728351 23:3.0711305 24:-0.26524341 25:-0.37125383 26:-0.32369263 27:0.79758045 28:-0.63137154 29:-0.5994546 30:-0.14857039 31:-0.51101195 32:-0.099786623 33:-0.48383147 34:-0.44723455 35:-0.29168004 36:-0.24862892 
32 1:-0.48161311 2:-0.40725733 3:1.9843953 4:-0.52850341 5:-0.14857039 6:-0.16731001 7:-0.22311291 8:-0.2399966 9:-0.11748633 10:-0.15504428 11:-0.17600619 12:-0.29826289 13:0.62410227 14:-0.62482871 15:-0.45702737 16:-0.1534491 17:1.0106248 18:1.631907 19:1.1910716 20:-0.54229764 21:2.1380249 22:1.6734604 23:-0.32546006 24:-0.26524341 25:-0.37125383 26:-0.32369263 27:0.79758045 28:1.5831095 29:-0.5994546 30:-0.14857039 31:-0.51101195 32:-0.099786623 33:-0.48383147 34:2.234913 35:-0.29168004 36:-0.24862892 
32 1:-0.48161311 2:-0.40725733 3:1.9843953 4:-0.52850341 5:-0.14857039 6:-0.16731001 7:-0.22311291 8:-0.2399966 9:-0.11748633 10:-0.15504428 11:-0.17600619 12:-0.29826289 13:0.62410227 14:-0.62482871 15:-0.45702737 16:-0.1534491 17:1.0106248 18:1.631907 19:1.1910716 20:-0.54229764 21:2.1380249 22:1.6734604 23:-0.32546006 24:-0.26524341 25:-0.37125383 26:-0.32369263 27:0.79758045 28:-0.63137154 29:-0.5994546 30:-0.14857039 31:-0.51101195 32:-0.099786623 33:-0.48383147 34:-0.44723455 35:-0.29168004 36:-0.24862892 
32 1:-0.48161311 2:-0.40725733 3:-0.50369515 4:1.8912466 5:-0.14857039 6:-0.16731001 7:-0.22311291 8:-0.2399966 9:-0.11748633 10:-0.15504428 11:-0.17600619 12:-0.29826289 13:0.62410227 14:1.5996869 15:-0.45702737 16:-0.1534491 17:1.0106248 18:-0.61249221 19:1.1910716 20:-0.54229764 21:2.1380249 22:1.6734604 23:-0.32546006 24:-0.26524341 25:-0.37125383 26:-0.32369263 27:0.79758045 28:-0.63137154 29:1.6673995 30:-0.14857039 31:-0.51101195 32:-0.099786623 33:-0.48383147 34:-0.44723455 35:-0.29168004 36:-0.24862892 
32 1:2.0753802 2:-0.40725733 3:-0.50369515 4:-0.52850341 5:-0.14857039 6:-0.16731001 7:-0.22311291 8:-0.2399966 9:-0.11748633 10:-0.15504428 11:-0.17600619 12:-0.29826289 13:0.62410227 14:1.5996869 15:-0.45702737 16:-0.1534491 17:1.0106248 18:-0.61249221 19:1.1910716 20:-0.54229764 21:2.1380249 22:1.6734604 23:-0.32546006 24:-0.26524341 25:-0.37125383 26:-0.32369263 27:0.79758045 28:1.5831095 29:-0.5994546 30:-0.14857039 31:-0.51101195 32:-0.099786623 33:-0.48383147 34:-0.44723455 35:-0.29168004 36:-0.24862892 
32 1:-0.48161311 2:2.4542966 3:-0.50369515 4:-0.52850341 5:-0.14857039 6:-0.16731001 7:-0.22311291 8:-0.2399966 9:-0.11748633 10:-0.15504428 11:-0.17600619 12:-0.29826289 13:-1.6015489 14:1.5996869 15:2.187025 16:-0.1534491 17:1.0106248 18:1.631907 19:1.1910716 20:-0.54229764 21:2.1380249 22:1.6734604 23:-0.32546006 24:-0.26524341 25:-0.37125383 26:-0.32369263 27:0.79758045 28:-0.63137154 29:1.6673995 30:-0.14857039 31:-0.51101195 32:-0.099786623 33:-0.48383147 34:-0.44723455 35:-0.29168004 36:-0.24862892 
32 1:-0.48161311 2:2.4542966 3:-0.50369515 4:-0.52850341 5:-0.14857039 6:-0.16731001 7:-0.22311291 8:-0.2399966 9:-0.11748633 10:-0.15504428 11:-0.17600619 12:-0.29826289 13:-1.6015489 14:1.5996869 15:-0.45702737 16:-0.1534491 17:-0.98902218 18:-0.61249221 19:-0.83918574 20:-0.54229764 21:-0.46750172 22:-0.59728351 23:-0.32546006 24:-0.26524341 25:-0.37125383 26:-0.32369263 27:0.79758045 28:1.5831095 29:-0.5994546 30:-0.14857039 31:-0.51101195 32:-0.099786623 33:-0.48383147 34:-0.44723455 35:-0.29168004 36:-0.24862892 
32 1:-0.48161311 2:-0.40725733 3:1.9843953 4:-0.52850341 5:-0.14857039 6:-0.16731001 7:-0.22311291 8:-0.2399966 9:-0.11748633 10:-0.15504428 11:-0.17600619 12:-0.29826289 13:-1.6015489 14:-0.62482871 15:-0.45702737 16:-0.1534491 17:-0.98902218 18:-0.61249221 19:-0.83918574 20:-0.54229764 21:-0.46750172 22:-0.59728351 23:-0.32546006 24:-0.26524341 25:-0.37125383 26:-0.32369263 27:0.79758045 28:-0.63137154 29:1.6673995 30:-0.14857039 31:-0.51101195 32:-0.099786623 33:-0.48383147 34:-0.44723455 35:-0.29168004 36:-0.24862892 
32 1:-0.48161311 2:-0.40725733 3:-0.50369515 4:1.8912466 5:-0.14857039 6:-0.16731001 7:-0.22311291 8:-0.2399966 9:-0.11748633 10:-0.15504428 11:-0.17600619 12:-0.29826289 13:0.62410227 14:1.5996869 15:-0.45702737 16:-0.1534491 17:1.0106248 18:-0.61249221 19:1.1910716 20:-0.54229764 21:2.1380249 22:1.6734604 23:-0.32546006 24:-0.26524341 25:2.6923097 26:-0.32369263 27:0.79758045 28:-0.63137154 29:1.6673995 30:-0.14857039 31:-0.51101195 32:-0.099786623 33:-0.48383147 34:-0.44723455 35:-0.29168004 36:-0.24862892 
32 1:2.0753802 2:-0.40725733 3:-0.50369515 4:-0.52850341 5:-0.14857039 6:-0.16731001 7:-0.22311291 8:-0.2399966 9:-0.11748633 10:-0.15504428 11:-0.17600619 12:-0.29826289 13:0.62410227 14:-0.62482871 15:-0.45702737 16:-0.1534491 17:1.0106248 18:1.631907 19:1.1910716 20:-0.54229764 21:2.1380249 22:1.6734604 23:-0.32546006 24:-0.26524341 25:-0.37125383 26:-0.32369263 27:0.79758045 28:-0.63137154 29:1.6673995 30:-0.14857039 31:-0.51101195 32:-0.099786623 33:2.0658646 34:2.234913 35:-0.29168004 36:-0.24862892 
32 1:-0.48161311 2:-0.40725733 3:-0.50369515 4:-0.52850341 5:-0.14857039 6:-0.16731001 7:-0.22311291 8:-0.2399966 9:-0.11748633 10:-0.15504428 11:-0.17600619 12:-0.29826289 13:0.62410227 14:-0.62482871 15:-0.45702737 16:-0.1534491 17:-0.98902218 18:-0.61249221 19:-0.83918574 20:-0.54229764 21:-0.46750172 22:-0.59728351 23:-0.32546006 24:-0.26524341 25:-0.37125383 26:-0.32369263 27:-1.2532031 28:-0.63137154 29:-0.5994546 30:-0.14857039 31:-0.51101195 32:-0.099786623 33:-0.48383147 34:-0.44723455 35:-0.29168004 36:-0.24862892 
32 1:-0.48161311 2:-0.40725733 3:-0.50369515 4:1.8912466 5:-0.14857039 6:-0.16731001 7:-0.22311291 8:-0.2399966 9:-0.11748633 10:-0.15504428 11:-0.17600619 12:-0.29826289 13:0.62410227 14:-0.62482871 15:-0.45702737 16:-0.1534491 17:1.0106248 18:1.631907 19:-0.83918574 20:-0.54229764 21:-0.46750172 22:-0.59728351 23:-0.32546006 24:-0.26524341 25:-0.37125383 26:-0.32369263 27:0.79758045 28:1.5831095 29:-0.5994546 30:-0.14857039 31:-0.51101195 32:-0.099786623 33:2.0658646 34:-0.44723455 35:-0.29168004 36:-0.24862892 
32 1:-0.48161311 2:-0.40725733 3:-0.50369515 4:1.8912466 5:-0.14857039 6:-0.16731001 7:-0.22311291 8:-0.2399966 9:-0.11748633 10:-0.15504428 11:-0.17600619 12:-0.29826289 13:0.62410227 14:1.5996869 15:-0.45702737 16:-0.1534491 17:1.0106248 18:-0.61249221 19:1.1910716 20:1.8431397 21:-0.46750172 22:1.6734604 23:-0.32546006 24:-0.26524341 25:-0.37125383 26:-0.32369263 27:0.79758045 28:-0.63137154 29:1.6673995 30:-0.14857039 31:1.9559822 32:-0.099786623 33:-0.48383147 34:-0.44723455 35:-0.29168004 36:-0.24862892 
32 1:-0.48161311 2:-0.40725733 3:-0.50369515 4:-0.52850341 5:-0.14857039 6:-0.16731001 7:-0.22311291 8:-0.2399966 9:-0.11748633 10:-0.15504428 11:-0.17600619 12:-0.29826289 13:0.62410227 14:-0.62482871 15:-0.45702737 16:-0.1534491 17:-0.98902218 18:-0.61249221 19:-0.83918574 20:-0.54229764 21:-0.46750172 22:-0.59728351 23:-0.32546006 24:-0.26524341 25:-0.37125383 26:-0.32369263 27:-1.2532031 28:-0.63137154 29:-0.5994546 30:-0.14857039 31:-0.51101195 32:-0.099786623 33:-0.48383147 34:-0.44723455 35:-0.29168004 36:-0.24862892 
32 1:-0.48161311 2:-0.40725733 3:-0.50369515 4:-0.52850341 5:-0.14857039 6:-0.16731001 7:-0.22311291 8:-0.2399966 9:-0.11748633 10:-0.15504428 11:-0.17600619 12:3.3511721 13:0.62410227 14:-0.62482871 15:-0.45702737 16:-0.1534491 17:-0.98902218 18:-0.61249221 19:-0.83918574 20:-0.54229764 21:-0.46750172 22:-0.59728351 23:-0.32546006 24:-0.26524341 25:-0.37125383 26:-0.32369263 27:-1.2532031 28:-0.63137154 29:-0.5994546 30:-0.14857039 31:1.9559822 32:-0.099786623 33:-0.48383147 34:-0.44723455 35:-0.29168004 36:-0.24862892 
32 1:-0.48161311 2:-0.40725733 3:1.9843953 4:-0.52850341 5:-0.14857039 6:-0.16731001 7:-0.22311291 8:-0.2399966 9:-0.11748633 10:-0.15504428 11:-0.17600619 12:-0.29826289 13:0.62410227 14:1.5996869 15:-0.45702737 16:-0.1534491 17:1.0106248 18:-0.61249221 19:1.1910716 20:1.8431397 21:-0.46750172 22:-0.59728351 23:3.0711305 24:-0.26524341 25:-0.37125383 26:3.0878995 27:0.79758045 28:1.5831095 29:1.6673995 30:-0.14857039 31:-0.51101195 32:-0.099786623 33:-0.48383147 34:-0.44723455 35:3.4268039 36:-0.24862892 
32 1:-0.48161311 2:-0.40725733 3:-0.50369515 4:-0.52850341 5:-0.14857039 6:-0.16731001 7:-0.22311291 8:-0.2399966 9:-0.11748633 10:-0.15504428 11:-0.17600619 12:3.3511721 13:0.62410227 14:-0.62482871 15:-0.45702737 16:-0.1534491 17:-0.98902218 18:-0.61249221 19:-0.83918574 20:-0.54229764 21:-0.46750172 22:-0.59728351 23:-0.32546006 24:-0.26524341 25:-0.37125383 26:-0.32369263 27:-1.2532031 28:-0.63137154 29:-0.5994546 30:-0.14857039 31:1.9559822 32:-0.099786623 33:-0.48383147 34:-0.44723455 35:-0.29168004 36:-0.24862892 
32 1:-0.48161311 2:-0.40725733 3:-0.50369515 4:-0.52850341 5:-0.14857039 6:-0.16731001 7:-0.22311291 8:-0.2399966 9:-0.11748633 10:-0.15504428 11:-0.17600619 12:-0.29826289 13:0.62410227 14:-0.62482871 15:-0.45702737 16:-0.1534491 17:-0.98902218 18:-0.61249221 19:-0.83918574 20:-0.54229764 21:-0.46750172 22:-0.59728351 23:-0.32546006 24:-0.26524341 25:-0.37125383 26:-0.32369263 27:-1.2532031 28:-0.63137154 29:-0.5994546 30:-0.14857039 31:-0.51101195 32:-0.099786623 33:-0.48383147 34:-0.44723455 35:-0.29168004 36:-0.24862892 
32 1:2.0753802 2:-0.40725733 3:-0.50369515 4:-0.52850341 5:-0.14857039 6:-0.16731001 7:-0.22311291 8:4.1647686 9:-0.11748633 10:6.446741 11:-0.17600619 12:-0.29826289 13:0.62410227 14:1.5996869 15:-0.45702737 16:6.5137578 17:1.0106248 18:-0.61249221 19:1.1910716 20:1.8431397 21:-0.46750172 22:1.6734604 23:-0.32546006 24:-0.26524341 25:-0.37125383 26:-0.32369263 27:0.79758045 28:-0.63137154 29:-0.5994546 30:-0.14857039 31:-0.51101195 32:-0.099786623 33:-0.48383147 34:-0.44723455 35:-0.29168004 36:-0.24862892 
32 1:-0.48161311 2:-0.40725733 3:1.9843953 4:-0.52850341 5:-0.14857039 6:-0.16731001 7:-0.22311291 8:-0.2399966 9:-0.11748633 10:-0.15504428 11:-0.17600619 12:-0.29826289 13:0.62410227 14:1.5996869 15:-0.45702737 16:-0.1534491 17:-0.98902218 18:-0.61249221 19:-0.83918574 20:-0.54229764 21:-0.46750172 22:-0.59728351 23:-0.32546006 24:-0.26524341 25:-0.37125383 26:3.0878995 27:0.79758045 28:1.5831095 29:1.6673995 30:-0.14857039 31:-0.51101195 32:-0.099786623 33:-0.48383147 34:-0.44723455 35:-0.29168004 36:-0.24862892 
32 1:-0.48161311 2:-0.40725733 3:1.9843953 4:-0.52850341 5:-0.14857039 6:-0.16731001 7:-0.22311291 8:-0.2399966 9:-0.11748633 10:-0.15504428 11:-0.17600619 12:-0.29826289 13:0.62410227 14:-0.62482871 15:-0.45702737 16:-0.1534491 17:1.0106248 18:-0.61249221 19:1.1910716 20:-0.54229764 21:2.1380249 22:1.6734604 23:-0.32546006 24:-0.26524341 25:-0.37125383 26:-0.32369263 27:0.79758045 28:1.5831095 29:1.6673995 30:-0.14857039 31:-0.51101195 32:-0.099786623 33:2.0658646 34:2.234913 35:-0.29168004 36:-0.24862892 
32 1:-0.48161311 2:-0.40725733 3:-0.50369515 4:-0.52850341 5:-0.14857039 6:-0.16731001 7:-0.22311291 8:-0.2399966 9:-0.11748633 10:-0.15504428 11:-0.17600619 12:3.3511721 13:0.62410227 14:-0.62482871 15:-0.45702737 16:-0.1534491 17:-0.98902218 18:-0.61249221 19:-0.83918574 20:-0.54229764 21:-0.46750172 22:-0.59728351 23:-0.32546006 24:-0.26524341 25:-0.37125383 26:-0.32369263 27:-1.2532031 28:-0.63137154 29:-0.5994546 30:-0.14857039 31:1.9559822 32:-0.099786623 33:-0.48383147 34:-0.44723455 35:-0.29168004 36:-0.24862892 
32 1:-0.48161311 2:-0.40725733 3:-0.50369515 4:-0.52850341 5:-0.14857039 6:-0.16731001 7:-0.22311291 8:-0.2399966 9:-0.11748633 10:-0.15504428 11:-0.17600619 12:3.3511721 13:0.62410227 14:-0.62482871 15:-0.45702737 16:-0.1534491 17:-0.98902218 18:-0.61249221 19:-0.83918574 20:-0.54229764 21:-0.46750172 22:-0.59728351 23:-0.32546006 24:-0.26524341 25:-0.37125383 26:-0.32369263 27:-1.2532031 28:-0.63137154 29:-0.5994546 30:-0.14857039 31:1.9559822 32:-0.099786623 33:-0.48383147 34:-0.44723455 35:-0.29168004 36:-0.24862892 
32 1:-0.48161311 2:-0.40725733 3:-0.50369515 4:-0.52850341 5:-0.14857039 6:-0.16731001 7:-0.22311291 8:-0.2399966 9:-0.11748633 10:-0.15504428 11:-0.17600619 12:3.3511721 13:0.62410227 14:-0.62482871 15:-0.45702737 16:-0.1534491 17:-0.98902218 18:-0.61249221 19:-0.83918574 20:-0.54229764 21:-0.46750172 22:-0.59728351 23:-0.32546006 24:-0.26524341 25:-0.37125383 26:-0.32369263 27:-1.2532031 28:-0.63137154 29:-0.5994546 30:-0.14857039 31:1.9559822 32:-0.099786623 33:-0.48383147 34:-0.44723455 35:-0.29168004 36:-0.24862892 
32 1:-0.48161311 2:-0.40725733 3:-0.50369515 4:-0.52850341 5:-0.14857039 6:-0.16731001 7:-0.22311291 8:4.1647686 9:-0.11748633 10:-0.15504428 11:-0.17600619 12:-0.29826289 13:0.62410227 14:-0.62482871 15:-0.45702737 16:6.5137578 17:1.0106248 18:-0.61249221 19:1.1910716 20:-0.54229764 21:2.1380249 22:1.6734604 23:-0.32546006 24:-0.26524341 25:-0.37125383 26:-0.32369263 27:0.79758045 28:-0.63137154 29:-0.5994546 30:-0.14857039 31:-0.51101195 32:-0.099786623 33:-0.48383147 34:-0.44723455 35:-0.29168004 36:-0.24862892 
32 1:-0.48161311 2:-0.40725733 3:-0.50369515 4:-0.52850341 5:6.7276548 6:-0.16731001 7:-0.22311291 8:-0.2399966 9:-0.11748633 10:-0.15504428 11:-0.17600619 12:-0.29826289 13:-1.6015489 14:1.5996869 15:-0.45702737 16:-0.1534491 17:1.0106248 18:1.631907 19:-0.83918574 20:-0.54229764 21:-0.46750172 22:-0.59728351 23:-0.32546006 24:-0.26524341 25:-0.37125383 26:3.0878995 27:0.79758045 28:-0.63137154 29:1.6673995 30:-0.14857039 31:-0.51101195 32:-0.099786623 33:-0.48383147 34:2.234913 35:-0.29168004 36:-0.24862892 
32 1:-0.48161311 2:-0.40725733 3:1.9843953 4:-0.52850341 5:-0.14857039 6:-0.16731001 7:-0.22311291 8:-0.2399966 9:-0.11748633 10:-0.15504428 11:-0.17600619 12:-0.29826289 13:0.62410227 14:1.5996869 15:2.187025 16:-0.1534491 17:1.0106248 18:-0.61249221 19:1.1910716 20:-0.54229764 21:2.1380249 22:-0.59728351 23:-0.32546006 24:3.7683511 25:2.6923097 26:-0.32369263 27:0.79758045 28:1.5831095 29:-0.5994546 30:-0.14857039 31:1.9559822 32:-0.099786623 33:-0.48383147 34:-0.44723455 35:-0.29168004 36:-0.24862892 
32 1:-0.48161311 2:-0.40725733 3:-0.50369515 4:1.8912466 5:-0.14857039 6:-0.16731001 7:-0.22311291 8:-0.2399966 9:-0.11748633 10:-0.15504428 11:-0.17600619 12:-0.29826289 13:0.62410227 14:1.5996869 15:2.187025 16:-0.1534491 17:1.0106248 18:1.631907 19:1.1910716 20:1.8431397 21:-0.46750172 22:1.6734604 23:-0.32546006 24:-0.26524341 25:2.6923097 26:-0.32369263 27:0.79758045 28:1.5831095 29:1.6673995 30:-0.14857039 31:-0.51101195 32:-0.099786623 33:2.0658646 34:-0.44723455 35:-0.29168004 36:-0.24862892 
32 1:-0.48161311 2:-0.40725733 3:-0.50369515 4:-0.52850341 5:-0.14857039 6:-0.16731001 7:4.4799304 8:-0.2399966 9:-0.11748633 10:-0.15504428 11:-0.17600619 12:-0.29826289 13:0.62410227 14:-0.62482871 15:-0.45702737 16:-0.1534491 17:-0.98902218 18:-0.61249221 19:-0.83918574 20:-0.54229764 21:-0.46750172 22:-0.59728351 23:-0.32546006 24:-0.26524341 25:-0.37125383 26:-0.32369263 27:0.79758045 28:-0.63137154 29:-0.5994546 30:-0.14857039 31:-0.51101195 32:-0.099786623 33:-0.48383147 34:2.234913 35:-0.29168004 36:-0.24862892 
32 1:2.0753802 2:-0.40725733 3:-0.50369515 4:-0.52850341 5:-0.14857039 6:-0.16731001 7:-0.22311291 8:-0.2399966 9:-0.11748633 10:-0.15504428 11:-0.17600619 12:-0.29826289 13:-1.6015489 14:-0.62482871 15:-0.45702737 16:-0.1534491 17:1.0106248 18:-0.61249221 19:1.1910716 20:-0.54229764 21:2.1380249 22:1.6734604 23:-0.32546006 24:-0.26524341 25:-0.37125383 26:-0.32369263 27:0.79758045 28:-0.63137154 29:1.6673995 30:-0.14857039 31:-0.51101195 32:-0.099786623 33:-0.48383147 34:-0.44723455 35:-0.29168004 36:-0.24862892 
32 1:-0.48161311 2:-0.40725733 3:-0.50369515 4:-0.52850341 5:-0.14857039 6:-0.16731001 7:-0.22311291 8:4.1647686 9:-0.11748633 10:-0.15504428 11:-0.17600619 12:-0.29826289 13:0.62410227 14:-0.62482871 15:-0.45702737 16:-0.1534491 17:-0.98902218 18:-0.61249221 19:-0.83918574 20:-0.54229764 21:-0.46750172 22:-0.59728351 23:-0.32546006 24:-0.26524341 25:-0.37125383 26:-0.32369263 27:-1.2532031 28:-0.63137154 29:-0.5994546 30:-0.14857039 31:-0.51101195 32:-0.099786623 33:-0.48383147 34:-0.44723455 35:-0.29168004 36:-0.24862892 
32 1:-0.48161311 2:-0.40725733 3:-0.50369515 4:1.8912466 5:-0.14857039 6:-0.16731001 7:-0.22311291 8:-0.2399966 9:-0.11748633 10:-0.15504428 11:-0.17600619 12:-0.29826289 13:-1.6015489 14:1.5996869 15:-0.45702737 16:-0.1534491 17:-0.98902218 18:-0.61249221 19:-0.83918574 20:-0.54229764 21:-0.46750172 22:-0.59728351 23:-0.32546006 24:-0.26524341 25:-0.37125383 26:-0.32369263 27:0.79758045 28:-0.63137154 29:1.6673995 30:-0.14857039 31:-0.51101195 32:-0.099786623 33:-0.48383147 34:-0.44723455 35:-0.29168004 36:-0.24862892 
32 1:-0.48161311 2:-0.40725733 3:-0.50369515 4:-0.52850341 5:-0.14857039 6:-0.16731001 7:-0.22311291 8:-0.2399966 9:-0.11748633 10:-0.15504428 11:5.6789497 12:-0.29826289 13:-1.6015489 14:1.5996869 15:-0.45702737 16:-0.1534491 17:1.0106248 18:1.631907 19:-0.83918574 20:-0.54229764 21:-0.46750172 22:-0.59728351 23:-0.32546006 24:-0.26524341 25:-0.37125383 26:-0.32369263 27:0.79758045 28:-0.63137154 29:-0.5994546 30:-0.14857039 31:1.9559822 32:-0.099786623 33:-0.48383147 34:-0.44723455 35:-0.29168004 36:-0.24862892 
32 1:-0.48161311 2:-0.40725733 3:1.9843953 4:-0.52850341 5:-0.14857039 6:-0.16731001 7:-0.22311291 8:-0.2399966 9:-0.11748633 10:-0.15504428 11:-0.17600619 12:-0.29826289 13:0.62410227 14:-0.62482871 15:-0.45702737 16:-0.1534491 17:1.0106248 18:-0.61249221 19:1.1910716 20:1.8431397 21:-0.46750172 22:1.6734604 23:-0.32546006 24:-0.26524341 25:-0.37125383 26:-0.32369263 27:0.79758045 28:-0.63137154 29:-0.5994546 30:-0.14857039 31:-0.51101195 32:-0.099786623 33:-0.48383147 34:-0.44723455 35:-0.29168004 36:-0.24862892 
32 1:-0.48161311 2:2.4542966 3:-0.50369515 4:-0.52850341 5:-0.14857039 6:-0.16731001 7:-0.22311291 8:-0.2399966 9:-0.11748633 10:-0.15504428 11:-0.17600619 12:-0.29826289 13:0.62410227 14:1.5996869 15:2.187025 16:-0.1534491 17:-0.98902218 18:-0.61249221 19:-0.83918574 20:-0.54229764 21:-0.46750172 22:-0.59728351 23:-0.32546006 24:-0.26524341 25:-0.37125383 26:3.0878995 27:0.79758045 28:-0.63137154 29:-0.5994546 30:-0.14857039 31:1.9559822 32:-0.099786623 33:-0.48383147 34:-0.44723455 35:-0.29168004 36:-0.24862892 
32 1:-0.48161311 2:-0.40725733 3:1.9843953 4:-0.52850341 5:-0.14857039 6:-0.16731001 7:-0.22311291 8:-0.2399966 9:-0.11748633 10:-0.15504428 11:-0.17600619 12:-0.29826289 13:0.62410227 14:-0.62482871 15:-0.45702737 16:-0.1534491 17:1.0106248 18:1.631907 19:-0.83918574 20:-0.54229764 21:-0.46750172 22:-0.59728351 23:-0.32546006 24:-0.26524341 25:-0.37125383 26:-0.32369263 27:0.79758045 28:-0.63137154 29:1.6673995 30:-0.14857039 31:-0.51101195 32:-0.099786623 33:-0.48383147 34:-0.44723455 35:-0.29168004 36:-0.24862892 
32 1:-0.48161311 2:2.4542966 3:-0.50369515 4:-0.52850341 5:-0.14857039 6:-0.16731001 7:-0.22311291 8:-0.2399966 9:-0.11748633 10:-0.15504428 11:-0.17600619 12:-0.29826289 13:-1.6015489 14:-0.62482871 15:2.187025 16:-0.1534491 17:1.0106248 18:-0.61249221 19:1.1910716 20:1.8431397 21:-0.46750172 22:-0.59728351 23:3.0711305 24:-0.26524341 25:-0.37125383 26:-0.32369263 27:0.79758045 28:-0.63137154 29:-0.5994546 30:-0.14857039 31:-0.51101195 32:-0.099786623 33:2.0658646 34:-0.44723455 35:-0.29168004 36:-0.24862892 
32 1:-0.48161311 2:2.4542966 3:-0.50369515 4:-0.52850341 5:-0.14857039 6:-0.16731001 7:-0.22311291 8:-0.2399966 9:-0.11748633 10:-0.15504428 11:-0.17600619 12:-0.29826289 13:-1.6015489 14:-0.62482871 15:2.187025 16:-0.1534491 17:1.0106248 18:-0.61249221 19:1.1910716 20:1.8431397 21:-0.46750172 22:-0.59728351 23:3.0711305 24:-0.26524341 25:-0.37125383 26:3.0878995 27:0.79758045 28:-0.63137154 29:-0.5994546 30:-0.14857039 31:-0.51101195 32:-0.099786623 33:-0.48383147 34:-0.44723455 35:-0.29168004 36:-0.24862892 
32 1:-0.48161311 2:-0.40725733 3:-0.50369515 4:-0.52850341 5:-0.14857039 6:-0.16731001 7:-0.22311291 8:-0.2399966 9:-0.11748633 10:-0.15504428 11:-0.17600619 12:-0.29826289 13:-1.6015489 14:-0.62482871 15:-0.45702737 16:-0.1534491 17:-0.98902218 18:-0.61249221 19:-0.83918574 20:-0.54229764 21:-0.46750172 22:-0.59728351 23:-0.32546006 24:-0.26524341 25:-0.37125383 26:-0.32369263 27:0.79758045 28:-0.63137154 29:1.6673995 30:-0.14857039 31:-0.51101195 32:-0.099786623 33:-0.48383147 34:-0.44723455 35:-0.29168004 36:-0.24862892 
32 1:-0.48161311 2:-0.40725733 3:1.9843953 4:-0.52850341 5:-0.14857039 6:-0.16731001 7:-0.22311291 8:-0.2399966 9:-0.11748633 10:-0.15504428 11:-0.17600619 12:-0.29826289 13:0.62410227 14:-0.62482871 15:-0.45702737 16:-0.1534491 17:1.0106248 18:1.631907 19:1.1910716 20:1.8431397 21:-0.46750172 22:1.6734604 23:-0.32546006 24:-0.26524341 25:-0.37125383 26:-0.32369263 27:0.79758045 28:1.5831095 29:-0.5994546 30:-0.14857039 31:-0.51101195 32:-0.099786623 33:2.0658646 34:2.234913 35:-0.29168004 36:-0.24862892 
32 1:-0.48161311 2:-0.40725733 3:-0.50369515 4:1.8912466 5:-0.14857039 6:-0.16731001 7:-0.22311291 8:-0.2399966 9:-0.11748633 10:-0.15504428 11:-0.17600619 12:-0.29826289 13:0.62410227 14:1.5996869 15:-0.45702737 16:-0.1534491 17:1.0106248 18:-0.61249221 19:1.1910716 20:-0.54229764 21:2.1380249 22:1.6734604 23:-0.32546006 24:-0.26524341 25:-0.37125383 26:-0.32369263 27:0.79758045 28:-0.63137154 29:-0.5994546 30:-0.14857039 31:1.9559822 32:-0.099786623 33:-0.48383147 34:-0.44723455 35:-0.29168004 36:-0.24862892 
9.632818981921082 1:-0.48161311 2:-0.40725733 3:1.9843953 4:-0.52850341 5:-0.14857039 6:-0.16731001 7:4.4799304 8:-0.2399966 9:-0.11748633 10:-0.15504428 11:-0.17600619 12:-0.29826289 13:0.62410227 14:-0.62482871 15:-0.45702737 16:-0.1534491 17:1.0106248 18:1.631907 19:-0.83918574 20:-0.54229764 21:-0.46750172 22:-0.59728351 23:-0.32546006 24:-0.26524341 25:-0.37125383 26:-0.32369263 27:0.79758045 28:-0.63137154 29:1.6673995 30:-0.14857039 31:1.9559822 32:-0.099786623 33:2.0658646 34:2.234913 35:3.4268039 36:4.0201692 
32 1:2.0753802 2:2.4542966 3:-0.50369515 4:-0.52850341 5:-0.14857039 6:-0.16731001 7:-0.22311291 8:-0.2399966 9:-0.11748633 10:-0.15504428 11:-0.17600619 12:-0.29826289 13:0.62410227 14:1.5996869 15:-0.45702737 16:-0.1534491 17:-0.98902218 18:-0.61249221 19:-0.83918574 20:-0.54229764 21:-0.46750172 22:-0.59728351 23:-0.32546006 24:-0.26524341 25:-0.37125383 26:-0.32369263 27:0.79758045 28:1.5831095 29:1.6673995 30:-0.14857039 31:-0.51101195 32:-0.099786623 33:2.0658646 34:2.234913 35:-0.29168004 36:-0.24862892 
32 1:-0.48161311 2:-0.40725733 3:-0.50369515 4:1.8912466 5:-0.14857039 6:-0.16731001 7:-0.22311291 8:-0.2399966 9:-0.11748633 10:-0.15504428 11:-0.17600619 12:-0.29826289 13:0.62410227 14:-0.62482871 15:-0.45702737 16:-0.1534491 17:-0.98902218 18:-0.61249221 19:-0.83918574 20:-0.54229764 21:-0.46750172 22:-0.59728351 23:-0.32546006 24:-0.26524341 25:-0.37125383 26:3.0878995 27:0.79758045 28:1.5831095 29:-0.5994546 30:-0.14857039 31:-0.51101195 32:-0.099786623 33:-0.48383147 34:-0.44723455 35:-0.29168004 36:-0.24862892 
31.95258421014069 1:-0.48161311 2:-0.40725733 3:-0.50369515 4:1.8912466 5:-0.14857039 6:-0.16731001 7:-0.22311291 8:-0.2399966 9:-0.11748633 10:-0.15504428 11:-0.17600619 12:-0.29826289 13:-1.6015489 14:1.5996869 15:-0.45702737 16:-0.1534491 17:-0.98902218 18:-0.61249221 19:-0.83918574 20:-0.54229764 21:-0.46750172 22:-0.59728351 23:-0.32546006 24:-0.26524341 25:-0.37125383 26:-0.32369263 27:-1.2532031 28:-0.63137154 29:-0.5994546 30:-0.14857039 31:1.9559822 32:-0.099786623 33:-0.48383147 34:-0.44723455 35:-0.29168004 36:-0.24862892 
32 1:-0.48161311 2:-0.40725733 3:1.9843953 4:-0.52850341 5:-0.14857039 6:-0.16731001 7:-0.22311291 8:-0.2399966 9:-0.11748633 10:-0.15504428 11:-0.17600619 12:-0.29826289 13:-1.6015489 14:-0.62482871 15:-0.45702737 16:-0.1534491 17:1.0106248 18:-0.61249221 19:1.1910716 20:-0.54229764 21:2.1380249 22:-0.59728351 23:-0.32546006 24:3.7683511 25:-0.37125383 26:-0.32369263 27:0.79758045 28:-0.63137154 29:-0.5994546 30:-0.14857039 31:1.9559822 32:-0.099786623 33:-0.48383147 34:-0.44723455 35:-0.29168004 36:-0.24862892 
32 1:-0.48161311 2:-0.40725733 3:-0.50369515 4:1.8912466 5:-0.14857039 6:-0.16731001 7:-0.22311291 8:-0.2399966 9:-0.11748633 10:-0.15504428 11:-0.17600619 12:-0.29826289 13:0.62410227 14:-0.62482871 15:-0.45702737 16:-0.1534491 17:-0.98902218 18:-0.61249221 19:-0.83918574 20:-0.54229764 21:-0.46750172 22:-0.59728351 23:-0.32546006 24:-0.26524341 25:-0.37125383 26:-0.32369263 27:-1.2532031 28:-0.63137154 29:-0.5994546 30:6.7276548 31:-0.51101195 32:-0.099786623 33:-0.48383147 34:-0.44723455 35:-0.29168004 36:-0.24862892 
32 1:2.0753802 2:2.4542966 3:-0.50369515 4:-0.52850341 5:-0.14857039 6:-0.16731001 7:-0.22311291 8:-0.2399966 9:-0.11748633 10:-0.15504428 11:-0.17600619 12:-0.29826289 13:0.62410227 14:1.5996869 15:2.187025 16:-0.1534491 17:1.0106248 18:1.631907 19:1.1910716 20:-0.54229764 21:2.1380249 22:1.6734604 23:-0.32546006 24:3.7683511 25:2.6923097 26:-0.32369263 27:0.79758045 28:1.5831095 29:1.6673995 30:-0.14857039 31:1.9559822 32:-0.099786623 33:2.0658646 34:2.234913 35:-0.29168004 36:-0.24862892 
8.978899879640114 1:-0.48161311 2:-0.40725733 3:-0.50369515 4:1.8912466 5:-0.14857039 6:-0.16731001 7:-0.22311291 8:-0.2399966 9:-0.11748633 10:-0.15504428 11:-0.17600619 12:-0.29826289 13:-1.6015489 14:1.5996869 15:-0.45702737 16:-0.1534491 17:1.0106248 18:1.631907 19:1.1910716 20:-0.54229764 21:2.1380249 22:1.6734604 23:-0.32546006 24:-0.26524341 25:2.6923097 26:-0.32369263 27:0.79758045 28:1.5831095 29:1.6673995 30:-0.14857039 31:-0.51101195 32:-0.099786623 33:-0.48383147 34:-0.44723455 35:-0.29168004 36:-0.24862892 
32 1:-0.48161311 2:-0.40725733 3:1.9843953 4:-0.52850341 5:-0.14857039 6:-0.16731001 7:-0.22311291 8:-0.2399966 9:-0.11748633 10:-0.15504428 11:-0.17600619 12:-0.29826289 13:-1.6015489 14:1.5996869 15:-0.45702737 16:-0.1534491 17:1.0106248 18:-0.61249221 19:1.1910716 20:1.8431397 21:2.1380249 22:1.6734604 23:-0.32546006 24:-0.26524341 25:-0.37125383 26:-0.32369263 27:0.79758045 28:1.5831095 29:1.6673995 30:-0.14857039 31:1.9559822 32:-0.099786623 33:2.0658646 34:2.234913 35:3.4268039 36:-0.24862892 
32 1:-0.48161311 2:-0.40725733 3:-0.50369515 4:-0.52850341 5:6.7276548 6:-0.16731001 7:-0.22311291 8:-0.2399966 9:-0.11748633 10:-0.15504428 11:-0.17600619 12:-0.29826289 13:0.62410227 14:-0.62482871 15:-0.45702737 16:-0.1534491 17:1.0106248 18:-0.61249221 19:1.1910716 20:1.8431397 21:2.1380249 22:1.6734604 23:-0.32546006 24:-0.26524341 25:-0.37125383 26:-0.32369263 27:0.79758045 28:1.5831095 29:1.6673995 30:-0.14857039 31:-0.51101195 32:-0.099786623 33:2.0658646 34:2.234913 35:3.4268039 36:-0.24862892 
32 1:-0.48161311 2:-0.40725733 3:-0.50369515 4:1.8912466 5:-0.14857039 6:-0.16731001 7:-0.22311291 8:-0.2399966 9:-0.11748633 10:-0.15504428 11:-0.17600619 12:-0.29826289 13:0.62410227 14:1.5996869 15:-0.45702737 16:-0.1534491 17:1.0106248 18:1.631907 19:1.1910716 20:1.8431397 21:-0.46750172 22:1.6734604 23:-0.32546006 24:-0.26524341 25:2.6923097 26:-0.32369263 27:0.79758045 28:1.5831095 29:-0.5994546 30:-0.14857039 31:-0.51101195 32:-0.099786623 33:-0.48383147 34:-0.44723455 35:-0.29168004 36:-0.24862892 
32 1:-0.48161311 2:2.4542966 3:1.9843953 4:-0.52850341 5:-0.14857039 6:-0.16731001 7:-0.22311291 8:-0.2399966 9:-0.11748633 10:-0.15504428 11:-0.17600619 12:-0.29826289 13:0.62410227 14:1.5996869 15:-0.45702737 16:-0.1534491 17:1.0106248 18:1.631907 19:1.1910716 20:1.8431397 21:-0.46750172 22:1.6734604 23:3.0711305 24:-0.26524341 25:2.6923097 26:-0.32369263 27:0.79758045 28:1.5831095 29:1.6673995 30:-0.14857039 31:1.9559822 32:-0.099786623 33:2.0658646 34:-0.44723455 35:-0.29168004 36:-0.24862892 
32 1:-0.48161311 2:2.4542966 3:-0.50369515 4:-0.52850341 5:-0.14857039 6:-0.16731001 7:-0.22311291 8:-0.2399966 9:-0.11748633 10:-0.15504428 11:-0.17600619 12:-0.29826289 13:0.62410227 14:-0.62482871 15:2.187025 16:-0.1534491 17:1.0106248 18:1.631907 19:1.1910716 20:1.8431397 21:2.1380249 22:1.6734604 23:3.0711305 24:-0.26524341 25:-0.37125383 26:-0.32369263 27:0.79758045 28:-0.63137154 29:-0.5994546 30:-0.14857039 31:-0.51101195 32:-0.099786623 33:-0.48383147 34:-0.44723455 35:-0.29168004 36:-0.24862892 
3.001585142560844 1:2.0753802 2:-0.40725733 3:-0.50369515 4:-0.52850341 5:6.7276548 6:-0.16731001 7:-0.22311291 8:-0.2399966 9:-0.11748633 10:-0.15504428 11:-0.17600619 12:-0.29826289 13:0.62410227 14:1.5996869 15:-0.45702737 16:-0.1534491 17:1.0106248 18:1.631907 19:1.1910716 20:1.8431397 21:2.1380249 22:1.6734604 23:-0.32546006 24:-0.26524341 25:2.6923097 26:-0.32369263 27:0.79758045 28:1.5831095 29:-0.5994546 30:-0.14857039 31:-0.51101195 32:-0.099786623 33:2.0658646 34:2.234913 35:-0.29168004 36:-0.24862892 
32 1:2.0753802 2:-0.40725733 3:-0.50369515 4:-0.52850341 5:-0.14857039 6:-0.16731001 7:-0.22311291 8:-0.2399966 9:-0.11748633 10:-0.15504428 11:-0.17600619 12:-0.29826289 13:-1.6015489 14:1.5996869 15:2.187025 16:-0.1534491 17:1.0106248 18:1.631907 19:-0.83918574 20:-0.54229764 21:-0.46750172 22:-0.59728351 23:-0.32546006 24:-0.26524341 25:-0.37125383 26:-0.32369263 27:0.79758045 28:1.5831095 29:1.6673995 30:-0.14857039 31:-0.51101195 32:-0.099786623 33:-0.48383147 34:-0.44723455 35:-0.29168004 36:-0.24862892 
32 1:-0.48161311 2:-0.40725733 3:-0.50369515 4:-0.52850341 5:-0.14857039 6:-0.16731001 7:-0.22311291 8:-0.2399966 9:-0.11748633 10:-0.15504428 11:5.6789497 12:-0.29826289 13:0.62410227 14:1.5996869 15:-0.45702737 16:-0.1534491 17:-0.98902218 18:-0.61249221 19:-0.83918574 20:-0.54229764 21:-0.46750172 22:-0.59728351 23:-0.32546006 24:-0.26524341 25:-0.37125383 26:-0.32369263 27:0.79758045 28:-0.63137154 29:1.6673995 30:-0.14857039 31:-0.51101195 32:-0.099786623 33:-0.48383147 34:-0.44723455 35:-0.29168004 36:-0.24862892 
32 1:-0.48161311 2:-0.40725733 3:-0.50369515 4:-0.52850341 5:-0.14857039 6:-0.16731001 7:-0.22311291 8:-0.2399966 9:-0.11748633 10:-0.15504428 11:-0.17600619 12:-0.29826289 13:0.62410227 14:-0.62482871 15:-0.45702737 16:6.5137578 17:1.0106248 18:-0.61249221 19:1.1910716 20:1.8431397 21:2.1380249 22:1.6734604 23:-0.32546006 24:-0.26524341 25:-0.37125383 26:-0.32369263 27:0.79758045 28:-0.63137154 29:-0.5994546 30:-0.14857039 31:-0.51101195 32:-0.099786623 33:-0.48383147 34:-0.44723455 35:-0.29168004 36:-0.24862892 
32 1:-0.48161311 2:-0.40725733 3:-0.50369515 4:-0.52850341 5:-0.14857039 6:-0.16731001 7:-0.22311291 8:4.1647686 9:-0.11748633 10:-0.15504428 11:-0.17600619 12:-0.29826289 13:0.62410227 14:-0.62482871 15:-0.45702737 16:-0.1534491 17:1.0106248 18:1.631907 19:-0.83918574 20:-0.54229764 21:-0.46750172 22:-0.59728351 23:-0.32546006 24:-0.26524341 25:-0.37125383 26:-0.32369263 27:0.79758045 28:-0.63137154 29:-0.5994546 30:-0.14857039 31:-0.51101195 32:-0.099786623 33:-0.48383147 34:-0.44723455 35:-0.29168004 36:-0.24862892 
22.65140123053678 1:-0.48161311 2:-0.40725733 3:-0.50369515 4:1.8912466 5:-0.14857039 6:-0.16731001 7:-0.22311291 8:-0.2399966 9:-0.11748633 10:-0.15504428 11:-0.17600619 12:-0.29826289 13:-1.6015489 14:1.5996869 15:-0.45702737 16:-0.1534491 17:1.0106248 18:1.631907 19:-0.83918574 20:-0.54229764 21:-0.46750172 22:-0.59728351 23:-0.32546006 24:-0.26524341 25:-0.37125383 26:-0.32369263 27:0.79758045 28:-0.63137154 29:-0.5994546 30:-0.14857039 31:-0.51101195 32:-0.099786623 33:-0.48383147 34:-0.44723455 35:-0.29168004 36:-0.24862892 
32 1:-0.48161311 2:-0.40725733 3:-0.50369515 4:-0.52850341 5:-0.14857039 6:-0.16731001 7:-0.22311291 8:-0.2399966 9:-0.11748633 10:-0.15504428 11:5.6789497 12:-0.29826289 13:-1.6015489 14:1.5996869 15:-0.45702737 16:-0.1534491 17:1.0106248 18:-0.61249221 19:1.1910716 20:-0.54229764 21:-0.46750172 22:-0.59728351 23:-0.32546006 24:-0.26524341 25:2.6923097 26:-0.32369263 27:0.79758045 28:1.5831095 29:1.6673995 30:-0.14857039 31:-0.51101195 32:-0.099786623 33:2.0658646 34:2.234913 35:-0.29168004 36:-0.24862892 
32 1:2.0753802 2:2.4542966 3:-0.50369515 4:-0.52850341 5:-0.14857039 6:-0.16731001 7:-0.22311291 8:-0.2399966 9:-0.11748633 10:-0.15504428 11:-0.17600619 12:-0.29826289 13:-1.6015489 14:1.5996869 15:-0.45702737 16:-0.1534491 17:1.0106248 18:-0.61249221 19:1.1910716 20:1.8431397 21:-0.46750172 22:-0.59728351 23:3.0711305 24:-0.26524341 25:-0.37125383 26:3.0878995 27:0.79758045 28:1.5831095 29:1.6673995 30:-0.14857039 31:1.9559822 32:-0.099786623 33:2.0658646 34:-0.44723455 35:3.4268039 36:-0.24862892 
32 1:-0.48161311 2:-0.40725733 3:-0.50369515 4:-0.52850341 5:-0.14857039 6:-0.16731001 7:-0.22311291 8:-0.2399966 9:-0.11748633 10:-0.15504428 11:-0.17600619 12:-0.29826289 13:-1.6015489 14:-0.62482871 15:-0.45702737 16:-0.1534491 17:-0.98902218 18:-0.61249221 19:-0.83918574 20:-0.54229764 21:-0.46750172 22:-0.59728351 23:-0.32546006 24:-0.26524341 25:-0.37125383 26:-0.32369263 27:-1.2532031 28:-0.63137154 29:-0.5994546 30:-0.14857039 31:1.9559822 32:-0.099786623 33:-0.48383147 34:-0.44723455 35:-0.29168004 36:-0.24862892 
32 1:-0.48161311 2:-0.40725733 3:-0.50369515 4:-0.52850341 5:-0.14857039 6:-0.16731001 7:-0.22311291 8:-0.2399966 9:-0.11748633 10:-0.15504428 11:-0.17600619 12:-0.29826289 13:-1.6015489 14:1.5996869 15:-0.45702737 16:-0.1534491 17:-0.98902218 18:-0.61249221 19:-0.83918574 20:-0.54229764 21:-0.46750172 22:-0.59728351 23:-0.32546006 24:-0.26524341 25:-0.37125383 26:-0.32369263 27:0.79758045 28:-0.63137154 29:1.6673995 30:-0.14857039 31:1.9559822 32:-0.099786623 33:-0.48383147 34:-0.44723455 35:-0.29168004 36:-0.24862892 
32 1:-0.48161311 2:-0.40725733 3:1.9843953 4:-0.52850341 5:-0.14857039 6:-0.16731001 7:-0.22311291 8:-0.2399966 9:-0.11748633 10:-0.15504428 11:-0.17600619 12:-0.29826289 13:0.62410227 14:-0.62482871 15:-0.45702737 16:-0.1534491 17:1.0106248 18:-0.61249221 19:1.1910716 20:-0.54229764 21:2.1380249 22:-0.59728351 23:-0.32546006 24:3.7683511 25:-0.37125383 26:-0.32369263 27:0.79758045 28:1.5831095 29:-0.5994546 30:-0.14857039 31:-0.51101195 32:-0.099786623 33:-0.48383147 34:-0.44723455 35:-0.29168004 36:-0.24862892 
32 1:-0.48161311 2:-0.40725733 3:1.9843953 4:-0.52850341 5:-0.14857039 6:-0.16731001 7:-0.22311291 8:-0.2399966 9:-0.11748633 10:-0.15504428 11:-0.17600619 12:-0.29826289 13:0.62410227 14:-0.62482871 15:-0.45702737 16:-0.1534491 17:1.0106248 18:1.631907 19:1.1910716 20:-0.54229764 21:-0.46750172 22:-0.59728351 23:-0.32546006 24:-0.26524341 25:2.6923097 26:-0.32369263 27:0.79758045 28:1.5831095 29:-0.5994546 30:-0.14857039 31:-0.51101195 32:-0.099786623 33:2.0658646 34:-0.44723455 35:-0.29168004 36:-0.24862892 
32 1:-0.48161311 2:-0.40725733 3:-0.50369515 4:-0.52850341 5:-0.14857039 6:5.9741213 7:-0.22311291 8:-0.2399966 9:-0.11748633 10:-0.15504428 11:-0.17600619 12:-0.29826289 13:-1.6015489 14:-0.62482871 15:-0.45702737 16:-0.1534491 17:-0.98902218 18:-0.61249221 19:-0.83918574 20:-0.54229764 21:-0.46750172 22:-0.59728351 23:-0.32546006 24:-0.26524341 25:-0.37125383 26:-0.32369263 27:-1.2532031 28:-0.63137154 29:-0.5994546 30:-0.14857039 31:1.9559822 32:-0.099786623 33:-0.48383147 34:-0.44723455 35:-0.29168004 36:-0.24862892 
32 1:-0.48161311 2:-0.40725733 3:1.9843953 4:-0.52850341 5:-0.14857039 6:-0.16731001 7:-0.22311291 8:-0.2399966 9:-0.11748633 10:-0.15504428 11:-0.17600619 12:-0.29826289 13:0.62410227 14:1.5996869 15:-0.45702737 16:-0.1534491 17:1.0106248 18:-0.61249221 19:1.1910716 20:-0.54229764 21:2.1380249 22:-0.59728351 23:-0.32546006 24:3.7683511 25:-0.37125383 26:-0.32369263 27:0.79758045 28:1.5831095 29:-0.5994546 30:-0.14857039 31:-0.51101195 32:-0.099786623 33:2.0658646 34:-0.44723455 35:-0.29168004 36:-0.24862892 
32 1:-0.48161311 2:-0.40725733 3:-0.50369515 4:1.8912466 5:-0.14857039 6:-0.16731001 7:-0.22311291 8:-0.2399966 9:-0.11748633 10:-0.15504428 11:-0.17600619 12:-0.29826289 13:0.62410227 14:1.5996869 15:-0.45702737 16:-0.1534491 17:-0.98902218 18:-0.61249221 19:-0.83918574 20:-0.54229764 21:-0.46750172 22:-0.59728351 23:-0.32546006 24:-0.26524341 25:-0.37125383 26:-0.32369263 27:-1.2532031 28:-0.63137154 29:-0.5994546 30:-0.14857039 31:1.9559822 32:-0.099786623 33:-0.48383147 34:-0.44723455 35:-0.29168004 36:4.0201692 
32 1:-0.48161311 2:-0.40725733 3:-0.50369515 4:-0.52850341 5:-0.14857039 6:5.9741213 7:-0.22311291 8:-0.2399966 9:-0.11748633 10:-0.15504428 11:-0.17600619 12:-0.29826289 13:0.62410227 14:-0.62482871 15:-0.45702737 16:-0.1534491 17:-0.98902218 18:-0.61249221 19:-0.83918574 20:-0.54229764 21:-0.46750172 22:-0.59728351 23:-0.32546006 24:-0.26524341 25:-0.37125383 26:-0.32369263 27:-1.2532031 28:-0.63137154 29:-0.5994546 30:-0.14857039 31:1.9559822 32:-0.099786623 33:-0.48383147 34:-0.44723455 35:-0.29168004 36:-0.24862892 
32 1:-0.48161311 2:-0.40725733 3:-0.50369515 4:-0.52850341 5:-0.14857039 6:-0.16731001 7:-0.22311291 8:-0.2399966 9:-0.11748633 10:-0.15504428 11:-0.17600619 12:-0.29826289 13:0.62410227 14:-0.62482871 15:-0.45702737 16:-0.1534491 17:-0.98902218 18:-0.61249221 19:-0.83918574 20:-0.54229764 21:-0.46750172 22:-0.59728351 23:-0.32546006 24:-0.26524341 25:-0.37125383 26:-0.32369263 27:-1.2532031 28:-0.63137154 29:-0.5994546 30:-0.14857039 31:1.9559822 32:-0.099786623 33:-0.48383147 34:-0.44723455 35:-0.29168004 36:-0.24862892 
32 1:-0.48161311 2:-0.40725733 3:-0.50369515 4:-0.52850341 5:-0.14857039 6:-0.16731001 7:-0.22311291 8:-0.2399966 9:-0.11748633 10:-0.15504428 11:-0.17600619 12:-0.29826289 13:0.62410227 14:-0.62482871 15:-0.45702737 16:-0.1534491 17:-0.98902218 18:-0.61249221 19:-0.83918574 20:-0.54229764 21:-0.46750172 22:-0.59728351 23:-0.32546006 24:-0.26524341 25:-0.37125383 26:-0.32369263 27:-1.2532031 28:-0.63137154 29:-0.5994546 30:-0.14857039 31:1.9559822 32:-0.099786623 33:-0.48383147 34:-0.44723455 35:-0.29168004 36:-0.24862892 
32 1:-0.48161311 2:-0.40725733 3:-0.50369515 4:-0.52850341 5:-0.14857039 6:-0.16731001 7:-0.22311291 8:-0.2399966 9:-0.11748633 10:-0.15504428 11:-0.17600619 12:-0.29826289 13:-1.6015489 14:-0.62482871 15:-0.45702737 16:-0.1534491 17:-0.98902218 18:-0.61249221 19:-0.83918574 20:-0.54229764 21:-0.46750172 22:-0.59728351 23:-0.32546006 24:-0.26524341 25:-0.37125383 26:-0.32369263 27:-1.2532031 28:-0.63137154 29:-0.5994546 30:-0.14857039 31:1.9559822 32:-0.099786623 33:-0.48383147 34:-0.44723455 35:-0.29168004 36:-0.24862892 
32 1:-0.48161311 2:-0.40725733 3:-0.50369515 4:-0.52850341 5:-0.14857039 6:-0.16731001 7:-0.22311291 8:-0.2399966 9:-0.11748633 10:-0.15504428 11:-0.17600619 12:-0.29826289 13:0.62410227 14:-0.62482871 15:-0.45702737 16:-0.1534491 17:-0.98902218 18:-0.61249221 19:-0.83918574 20:-0.54229764 21:-0.46750172 22:-0.59728351 23:-0.32546006 24:-0.26524341 25:-0.37125383 26:-0.32369263 27:-1.2532031 28:-0.63137154 29:-0.5994546 30:-0.14857039 31:1.9559822 32:-0.099786623 33:-0.48383147 34:-0.44723455 35:-0.29168004 36:-0.24862892 
32 1:-0.48161311 2:-0.40725733 3:-0.50369515 4:-0.52850341 5:-0.14857039 6:-0.16731001 7:-0.22311291 8:-0.2399966 9:-0.11748633 10:-0.15504428 11:-0.17600619 12:-0.29826289 13:-1.6015489 14:-0.62482871 15:-0.45702737 16:-0.1534491 17:-0.98902218 18:-0.61249221 19:-0.83918574 20:-0.54229764 21:-0.46750172 22:-0.59728351 23:-0.32546006 24:-0.26524341 25:-0.37125383 26:-0.32369263 27:-1.2532031 28:-0.63137154 29:-0.5994546 30:-0.14857039 31:1.9559822 32:-0.099786623 33:-0.48383147 34:-0.44723455 35:-0.29168004 36:-0.24862892 
32 1:-0.48161311 2:-0.40725733 3:-0.50369515 4:1.8912466 5:-0.14857039 6:-0.16731001 7:-0.22311291 8:-0.2399966 9:-0.11748633 10:-0.15504428 11:-0.17600619 12:-0.29826289 13:0.62410227 14:1.5996869 15:-0.45702737 16:-0.1534491 17:-0.98902218 18:-0.61249221 19:-0.83918574 20:-0.54229764 21:-0.46750172 22:-0.59728351 23:-0.32546006 24:-0.26524341 25:-0.37125383 26:-0.32369263 27:0.79758045 28:-0.63137154 29:1.6673995 30:-0.14857039 31:-0.51101195 32:-0.099786623 33:-0.48383147 34:2.234913 35:-0.29168004 36:-0.24862892 
32 1:-0.48161311 2:-0.40725733 3:-0.50369515 4:-0.52850341 5:-0.14857039 6:-0.16731001 7:-0.22311291 8:-0.2399966 9:-0.11748633 10:-0.15504428 11:-0.17600619 12:-0.29826289 13:0.62410227 14:-0.62482871 15:-0.45702737 16:-0.1534491 17:-0.98902218 18:-0.61249221 19:-0.83918574 20:-0.54229764 21:-0.46750172 22:-0.59728351 23:-0.32546006 24:-0.26524341 25:-0.37125383 26:-0.32369263 27:-1.2532031 28:-0.63137154 29:-0.5994546 30:-0.14857039 31:1.9559822 32:-0.099786623 33:-0.48383147 34:-0.44723455 35:-0.29168004 36:-0.24862892 
32 1:-0.48161311 2:-0.40725733 3:-0.50369515 4:-0.52850341 5:-0.14857039 6:-0.16731001 7:-0.22311291 8:-0.2399966 9:-0.11748633 10:-0.15504428 11:-0.17600619 12:-0.29826289 13:-1.6015489 14:-0.62482871 15:-0.45702737 16:-0.1534491 17:-0.98902218 18:-0.61249221 19:-0.83918574 20:-0.54229764 21:-0.46750172 22:-0.59728351 23:-0.32546006 24:-0.26524341 25:-0.37125383 26:-0.32369263 27:-1.2532031 28:-0.63137154 29:-0.5994546 30:-0.14857039 31:1.9559822 32:-0.099786623 33:-0.48383147 34:-0.44723455 35:-0.29168004 36:-0.24862892 
32 1:-0.48161311 2:-0.40725733 3:-0.50369515 4:-0.52850341 5:-0.14857039 6:-0.16731001 7:-0.22311291 8:-0.2399966 9:-0.11748633 10:-0.15504428 11:-0.17600619 12:-0.29826289 13:-1.6015489 14:-0.62482871 15:-0.45702737 16:-0.1534491 17:-0.98902218 18:-0.61249221 19:-0.83918574 20:-0.54229764 21:-0.46750172 22:-0.59728351 23:-0.32546006 24:-0.26524341 25:-0.37125383 26:-0.32369263 27:-1.2532031 28:-0.63137154 29:-0.5994546 30:-0.14857039 31:1.9559822 32:-0.099786623 33:-0.48383147 34:-0.44723455 35:-0.29168004 36:-0.24862892 
32 1:-0.48161311 2:-0.40725733 3:-0.50369515 4:-0.52850341 5:-0.14857039 6:-0.16731001 7:-0.22311291 8:-0.2399966 9:-0.11748633 10:-0.15504428 11:-0.17600619 12:-0.29826289 13:0.62410227 14:1.5996869 15:-0.45702737 16:-0.1534491 17:-0.98902218 18:-0.61249221 19:-0.83918574 20:-0.54229764 21:-0.46750172 22:-0.59728351 23:-0.32546006 24:-0.26524341 25:-0.37125383 26:-0.32369263 27:-1.2532031 28:-0.63137154 29:-0.5994546 30:-0.14857039 31:1.9559822 32:-0.099786623 33:-0.48383147 34:-0.44723455 35:-0.29168004 36:-0.24862892 
32 1:-0.48161311 2:-0.40725733 3:-0.50369515 4:-0.52850341 5:-0.14857039 6:-0.16731001 7:-0.22311291 8:-0.2399966 9:-0.11748633 10:-0.15504428 11:-0.17600619 12:-0.29826289 13:-1.6015489 14:-0.62482871 15:-0.45702737 16:-0.1534491 17:-0.98902218 18:-0.61249221 19:-0.83918574 20:-0.54229764 21:-0.46750172 22:-0.59728351 23:-0.32546006 24:-0.26524341 25:-0.37125383 26:-0.32369263 27:-1.2532031 28:-0.63137154 29:-0.5994546 30:-0.14857039 31:1.9559822 32:-0.099786623 33:-0.48383147 34:-0.44723455 35:-0.29168004 36:-0.24862892 
17.88394407673225 1:2.0753802 2:-0.40725733 3:-0.50369515 4:-0.52850341 5:-0.14857039 6:-0.16731001 7:-0.22311291 8:-0.2399966 9:-0.11748633 10:-0.15504428 11:-0.17600619 12:-0.29826289 13:0.62410227 14:-0.62482871 15:-0.45702737 16:-0.1534491 17:-0.98902218 18:-0.61249221 19:-0.83918574 20:-0.54229764 21:-0.46750172 22:-0.59728351 23:-0.32546006 24:-0.26524341 25:-0.37125383 26:-0.32369263 27:-1.2532031 28:-0.63137154 29:-0.5994546 30:-0.14857039 31:-0.51101195 32:-0.099786623 33:2.0658646 34:-0.44723455 35:-0.29168004 36:4.0201692 
32 1:-0.48161311 2:-0.40725733 3:-0.50369515 4:-0.52850341 5:-0.14857039 6:5.9741213 7:-0.22311291 8:-0.2399966 9:-0.11748633 10:-0.15504428 11:-0.17600619 12:-0.29826289 13:0.62410227 14:-0.62482871 15:-0.45702737 16:-0.1534491 17:-0.98902218 18:-0.61249221 19:-0.83918574 20:-0.54229764 21:-0.46750172 22:-0.59728351 23:-0.32546006 24:-0.26524341 25:-0.37125383 26:-0.32369263 27:-1.2532031 28:-0.63137154 29:-0.5994546 30:-0.14857039 31:1.9559822 32:-0.099786623 33:-0.48383147 34:-0.44723455 35:-0.29168004 36:-0.24862892 
32 1:-0.48161311 2:-0.40725733 3:1.9843953 4:-0.52850341 5:-0.14857039 6:-0.16731001 7:-0.22311291 8:-0.2399966 9:-0.11748633 10:-0.15504428 11:-0.17600619 12:-0.29826289 13:0.62410227 14:-0.62482871 15:-0.45702737 16:-0.1534491 17:1.0106248 18:-0.61249221 19:1.1910716 20:-0.54229764 21:2.1380249 22:1.6734604 23:-0.32546006 24:-0.26524341 25:-0.37125383 26:-0.32369263 27:0.79758045 28:-0.63137154 29:-0.5994546 30:-0.14857039 31:-0.51101195 32:-0.099786623 33:-0.48383147 34:-0.44723455 35:-0.29168004 36:-0.24862892 
32 1:-0.48161311 2:-0.40725733 3:-0.50369515 4:-0.52850341 5:-0.14857039 6:-0.16731001 7:-0.22311291 8:-0.2399966 9:-0.11748633 10:-0.15504428 11:-0.17600619 12:-0.29826289 13:-1.6015489 14:-0.62482871 15:-0.45702737 16:-0.1534491 17:-0.98902218 18:-0.61249221 19:-0.83918574 20:-0.54229764 21:-0.46750172 22:-0.59728351 23:-0.32546006 24:-0.26524341 25:-0.37125383 26:-0.32369263 27:-1.2532031 28:-0.63137154 29:-0.5994546 30:-0.14857039 31:1.9559822 32:-0.099786623 33:-0.48383147 34:-0.44723455 35:-0.29168004 36:-0.24862892 
32 1:-0.48161311 2:-0.40725733 3:1.9843953 4:-0.52850341 5:-0.14857039 6:-0.16731001 7:-0.22311291 8:-0.2399966 9:-0.11748633 10:-0.15504428 11:-0.17600619 12:-0.29826289 13:0.62410227 14:-0.62482871 15:-0.45702737 16:-0.1534491 17:1.0106248 18:1.631907 19:1.1910716 20:1.8431397 21:2.1380249 22:1.6734604 23:-0.32546006 24:-0.26524341 25:-0.37125383 26:3.0878995 27:0.79758045 28:1.5831095 29:1.6673995 30:-0.14857039 31:-0.51101195 32:-0.099786623 33:2.0658646 34:2.234913 35:3.4268039 36:4.0201692 
32 1:-0.48161311 2:-0.40725733 3:-0.50369515 4:1.8912466 5:-0.14857039 6:-0.16731001 7:-0.22311291 8:-0.2399966 9:-0.11748633 10:-0.15504428 11:-0.17600619 12:-0.29826289 13:0.62410227 14:1.5996869 15:-0.45702737 16:-0.1534491 17:1.0106248 18:-0.61249221 19:1.1910716 20:1.8431397 21:-0.46750172 22:1.6734604 23:-0.32546006 24:-0.26524341 25:-0.37125383 26:-0.32369263 27:0.79758045 28:-0.63137154 29:1.6673995 30:-0.14857039 31:1.9559822 32:-0.099786623 33:-0.48383147 34:-0.44723455 35:-0.29168004 36:-0.24862892 
32 1:-0.48161311 2:-0.40725733 3:-0.50369515 4:-0.52850341 5:-0.14857039 6:-0.16731001 7:-0.22311291 8:-0.2399966 9:-0.11748633 10:-0.15504428 11:-0.17600619 12:-0.29826289 13:0.62410227 14:-0.62482871 15:-0.45702737 16:-0.1534491 17:-0.98902218 18:-0.61249221 19:-0.83918574 20:-0.54229764 21:-0.46750172 22:-0.59728351 23:-0.32546006 24:-0.26524341 25:-0.37125383 26:-0.32369263 27:-1.2532031 28:-0.63137154 29:-0.5994546 30:-0.14857039 31:1.9559822 32:-0.099786623 33:-0.48383147 34:-0.44723455 35:-0.29168004 36:-0.24862892 
32 1:-0.48161311 2:-0.40725733 3:-0.50369515 4:-0.52850341 5:-0.14857039 6:-0.16731001 7:-0.22311291 8:-0.2399966 9:-0.11748633 10:-0.15504428 11:5.6789497 12:-0.29826289 13:-1.6015489 14:-0.62482871 15:2.187025 16:-0.1534491 17:1.0106248 18:-0.61249221 19:1.1910716 20:1.8431397 21:-0.46750172 22:-0.59728351 23:3.0711305 24:-0.26524341 25:-0.37125383 26:-0.32369263 27:0.79758045 28:-0.63137154 29:1.6673995 30:-0.14857039 31:-0.51101195 32:-0.099786623 33:-0.48383147 34:-0.44723455 35:-0.29168004 36:-0.24862892 
32 1:-0.48161311 2:2.4542966 3:-0.50369515 4:-0.52850341 5:-0.14857039 6:-0.16731001 7:-0.22311291 8:-0.2399966 9:-0.11748633 10:-0.15504428 11:-0.17600619 12:-0.29826289 13:-1.6015489 14:-0.62482871 15:2.187025 16:-0.1534491 17:1.0106248 18:1.631907 19:1.1910716 20:1.8431397 21:-0.46750172 22:-0.59728351 23:3.0711305 24:-0.26524341 25:-0.37125383 26:-0.32369263 27:0.79758045 28:1.5831095 29:-0.5994546 30:-0.14857039 31:-0.51101195 32:-0.099786623 33:2.0658646 34:-0.44723455 35:-0.29168004 36:-0.24862892 
32 1:-0.48161311 2:-0.40725733 3:-0.50369515 4:-0.52850341 5:-0.14857039 6:-0.16731001 7:4.4799304 8:-0.2399966 9:-0.11748633 10:-0.15504428 11:-0.17600619 12:-0.29826289 13:0.62410227 14:-0.62482871 15:-0.45702737 16:-0.1534491 17:1.0106248 18:-0.61249221 19:1.1910716 20:1.8431397 21:-0.46750172 22:1.6734604 23:-0.32546006 24:-0.26524341 25:-0.37125383 26:-0.32369263 27:0.79758045 28:-0.63137154 29:-0.5994546 30:-0.14857039 31:-0.51101195 32:-0.099786623 33:-0.48383147 34:2.234913 35:-0.29168004 36:-0.24862892 
32 1:-0.48161311 2:-0.40725733 3:-0.50369515 4:-0.52850341 5:-0.14857039 6:-0.16731001 7:-0.22311291 8:-0.2399966 9:-0.11748633 10:-0.15504428 11:-0.17600619 12:-0.29826289 13:0.62410227 14:1.5996869 15:-0.45702737 16:-0.1534491 17:1.0106248 18:1.631907 19:-0.83918574 20:-0.54229764 21:-0.46750172 22:-0.59728351 23:-0.32546006 24:-0.26524341 25:-0.37125383 26:-0.32369263 27:0.79758045 28:1.5831095 29:-0.5994546 30:-0.14857039 31:1.9559822 32:-0.099786623 33:2.0658646 34:-0.44723455 35:-0.29168004 36:-0.24862892 
18.85808372652349 1:-0.48161311 2:-0.40725733 3:-0.50369515 4:1.8912466 5:-0.14857039 6:-0.16731001 7:-0.22311291 8:-0.2399966 9:-0.11748633 10:-0.15504428 11:-0.17600619 12:3.3511721 13:0.62410227 14:-0.62482871 15:-0.45702737 16:-0.1534491 17:1.0106248 18:-0.61249221 19:1.1910716 20:-0.54229764 21:-0.46750172 22:-0.59728351 23:-0.32546006 24:-0.26524341 25:2.6923097 26:-0.32369263 27:0.79758045 28:-0.63137154 29:1.6673995 30:-0.14857039 31:1.9559822 32:-0.099786623 33:-0.48383147 34:-0.44723455 35:-0.29168004 36:4.0201692 
32 1:-0.48161311 2:-0.40725733 3:-0.50369515 4:-0.52850341 5:-0.14857039 6:-0.16731001 7:-0.22311291 8:-0.2399966 9:-0.11748633 10:-0.15504428 11:-0.17600619 12:-0.29826289 13:0.62410227 14:1.5996869 15:-0.45702737 16:-0.1534491 17:1.0106248 18:-0.61249221 19:1.1910716 20:1.8431397 21:-0.46750172 22:1.6734604 23:-0.32546006 24:-0.26524341 25:-0.37125383 26:-0.32369263 27:0.79758045 28:-0.63137154 29:-0.5994546 30:-0.14857039 31:1.9559822 32:-0.099786623 33:-0.48383147 34:-0.44723455 35:-0.29168004 36:-0.24862892 
32 1:-0.48161311 2:2.4542966 3:-0.50369515 4:-0.52850341 5:-0.14857039 6:-0.16731001 7:-0.22311291 8:-0.2399966 9:-0.11748633 10:-0.15504428 11:-0.17600619 12:-0.29826289 13:-1.6015489 14:-0.62482871 15:-0.45702737 16:6.5137578 17:1.0106248 18:-0.61249221 19:1.1910716 20:1.8431397 21:-0.46750172 22:-0.59728351 23:3.0711305 24:-0.26524341 25:-0.37125383 26:-0.32369263 27:0.79758045 28:1.5831095 29:-0.5994546 30:-0.14857039 31:-0.51101195 32:-0.099786623 33:-0.48383147 34:-0.44723455 35:-0.29168004 36:-0.24862892 
32 1:-0.48161311 2:-0.40725733 3:-0.50369515 4:1.8912466 5:-0.14857039 6:-0.16731001 7:-0.22311291 8:4.1647686 9:-0.11748633 10:-0.15504428 11:-0.17600619 12:-0.29826289 13:0.62410227 14:1.5996869 15:-0.45702737 16:-0.1534491 17:1.0106248 18:1.631907 19:1.1910716 20:1.8431397 21:-0.46750172 22:1.6734604 23:-0.32546006 24:-0.26524341 25:-0.37125383 26:-0.32369263 27:0.79758045 28:1.5831095 29:-0.5994546 30:-0.14857039 31:-0.51101195 32:-0.099786623 33:2.0658646 34:-0.44723455 35:-0.29168004 36:-0.24862892 
32 1:-0.48161311 2:-0.40725733 3:-0.50369515 4:-0.52850341 5:-0.14857039 6:-0.16731001 7:-0.22311291 8:-0.2399966 9:-0.11748633 10:-0.15504428 11:-0.17600619 12:-0.29826289 13:-1.6015489 14:-0.62482871 15:2.187025 16:-0.1534491 17:1.0106248 18:1.631907 19:-0.83918574 20:-0.54229764 21:-0.46750172 22:-0.59728351 23:-0.32546006 24:-0.26524341 25:-0.37125383 26:-0.32369263 27:0.79758045 28:-0.63137154 29:1.6673995 30:-0.14857039 31:-0.51101195 32:-0.099786623 33:2.0658646 34:2.234913 35:-0.29168004 36:-0.24862892 
32 1:-0.48161311 2:-0.40725733 3:1.9843953 4:-0.52850341 5:-0.14857039 6:-0.16731001 7:-0.22311291 8:-0.2399966 9:-0.11748633 10:-0.15504428 11:-0.17600619 12:-0.29826289 13:0.62410227 14:-0.62482871 15:-0.45702737 16:-0.1534491 17:-0.98902218 18:-0.61249221 19:-0.83918574 20:-0.54229764 21:-0.46750172 22:-0.59728351 23:-0.32546006 24:-0.26524341 25:-0.37125383 26:-0.32369263 27:0.79758045 28:-0.63137154 29:-0.5994546 30:-0.14857039 31:-0.51101195 32:-0.099786623 33:-0.48383147 34:-0.44723455 35:-0.29168004 36:4.0201692 
32 1:-0.48161311 2:-0.40725733 3:-0.50369515 4:-0.52850341 5:-0.14857039 6:-0.16731001 7:-0.22311291 8:-0.2399966 9:-0.11748633 10:-0.15504428 11:-0.17600619 12:3.3511721 13:0.62410227 14:-0.62482871 15:-0.45702737 16:-0.1534491 17:-0.98902218 18:-0.61249221 19:-0.83918574 20:-0.54229764 21:-0.46750172 22:-0.59728351 23:-0.32546006 24:-0.26524341 25:-0.37125383 26:-0.32369263 27:-1.2532031 28:-0.63137154 29:-0.5994546 30:-0.14857039 31:1.9559822 32:-0.099786623 33:-0.48383147 34:-0.44723455 35:-0.29168004 36:-0.24862892 
32 1:-0.48161311 2:2.4542966 3:-0.50369515 4:-0.52850341 5:-0.14857039 6:-0.16731001 7:-0.22311291 8:-0.2399966 9:-0.11748633 10:-0.15504428 11:-0.17600619 12:-0.29826289 13:-1.6015489 14:1.5996869 15:2.187025 16:-0.1534491 17:1.0106248 18:1.631907 19:1.1910716 20:1.8431397 21:-0.46750172 22:-0.59728351 23:3.0711305 24:-0.26524341 25:-0.37125383 26:-0.32369263 27:0.79758045 28:1.5831095 29:1.6673995 30:-0.14857039 31:-0.51101195 32:-0.099786623 33:-0.48383147 34:-0.44723455 35:3.4268039 36:4.0201692 
2.946512770812759 1:-0.48161311 2:-0.40725733 3:-0.50369515 4:1.8912466 5:-0.14857039 6:-0.16731001 7:-0.22311291 8:-0.2399966 9:-0.11748633 10:6.446741 11:-0.17600619 12:-0.29826289 13:0.62410227 14:1.5996869 15:-0.45702737 16:6.5137578 17:1.0106248 18:-0.61249221 19:1.1910716 20:-0.54229764 21:2.1380249 22:1.6734604 23:-0.32546006 24:-0.26524341 25:-0.37125383 26:-0.32369263 27:0.79758045 28:-0.63137154 29:1.6673995 30:-0.14857039 31:-0.51101195 32:-0.099786623 33:-0.48383147 34:-0.44723455 35:-0.29168004 36:-0.24862892 
32 1:-0.48161311 2:2.4542966 3:-0.50369515 4:-0.52850341 5:-0.14857039 6:-0.16731001 7:4.4799304 8:-0.2399966 9:-0.11748633 10:-0.15504428 11:-0.17600619 12:-0.29826289 13:-1.6015489 14:-0.62482871 15:2.187025 16:-0.1534491 17:1.0106248 18:-0.61249221 19:1.1910716 20:-0.54229764 21:2.1380249 22:-0.59728351 23:-0.32546006 24:3.7683511 25:-0.37125383 26:-0.32369263 27:0.79758045 28:-0.63137154 29:-0.5994546 30:-0.14857039 31:-0.51101195 32:-0.099786623 33:-0.48383147 34:-0.44723455 35:-0.29168004 36:-0.24862892 
32 1:-0.48161311 2:-0.40725733 3:-0.50369515 4:-0.52850341 5:-0.14857039 6:-0.16731001 7:-0.22311291 8:-0.2399966 9:-0.11748633 10:-0.15504428 11:-0.17600619 12:-0.29826289 13:0.62410227 14:-0.62482871 15:-0.45702737 16:-0.1534491 17:-0.98902218 18:-0.61249221 19:-0.83918574 20:-0.54229764 21:-0.46750172 22:-0.59728351 23:-0.32546006 24:-0.26524341 25:-0.37125383 26:-0.32369263 27:-1.2532031 28:-0.63137154 29:-0.5994546 30:-0.14857039 31:-0.51101195 32:-0.099786623 33:-0.48383147 34:-0.44723455 35:-0.29168004 36:-0.24862892 
32 1:-0.48161311 2:-0.40725733 3:-0.50369515 4:-0.52850341 5:-0.14857039 6:-0.16731001 7:4.4799304 8:-0.2399966 9:-0.11748633 10:-0.15504428 11:-0.17600619 12:-0.29826289 13:0.62410227 14:1.5996869 15:-0.45702737 16:-0.1534491 17:1.0106248 18:-0.61249221 19:1.1910716 20:1.8431397 21:-0.46750172 22:1.6734604 23:-0.32546006 24:-0.26524341 25:-0.37125383 26:-0.32369263 27:0.79758045 28:-0.63137154 29:1.6673995 30:-0.14857039 31:-0.51101195 32:-0.099786623 33:-0.48383147 34:2.234913 35:3.4268039 36:-0.24862892 
32 1:2.0753802 2:-0.40725733 3:-0.50369515 4:-0.52850341 5:-0.14857039 6:-0.16731001 7:-0.22311291 8:-0.2399966 9:-0.11748633 10:-0.15504428 11:-0.17600619 12:-0.29826289 13:0.62410227 14:1.5996869 15:-0.45702737 16:-0.1534491 17:1.0106248 18:1.631907 19:1.1910716 20:1.8431397 21:-0.46750172 22:1.6734604 23:-0.32546006 24:-0.26524341 25:2.6923097 26:-0.32369263 27:0.79758045 28:1.5831095 29:1.6673995 30:-0.14857039 31:-0.51101195 32:-0.099786623 33:2.0658646 34:2.234913 35:3.4268039 36:4.0201692 
32 1:-0.48161311 2:2.4542966 3:-0.50369515 4:-0.52850341 5:-0.14857039 6:-0.16731001 7:-0.22311291 8:-0.2399966 9:-0.11748633 10:-0.15504428 11:-0.17600619 12:-0.29826289 13:-1.6015489 14:-0.62482871 15:2.187025 16:-0.1534491 17:1.0106248 18:-0.61249221 19:1.1910716 20:1.8431397 21:2.1380249 22:-0.59728351 23:3.0711305 24:3.7683511 25:-0.37125383 26:-0.32369263 27:0.79758045 28:1.5831095 29:-0.5994546 30:-0.14857039 31:-0.51101195 32:-0.099786623 33:-0.48383147 34:-0.44723455 35:3.4268039 36:-0.24862892 
32 1:2.0753802 2:-0.40725733 3:-0.50369515 4:-0.52850341 5:-0.14857039 6:-0.16731001 7:-0.22311291 8:-0.2399966 9:-0.11748633 10:-0.15504428 11:-0.17600619 12:-0.29826289 13:0.62410227 14:1.5996869 15:-0.45702737 16:-0.1534491 17:1.0106248 18:-0.61249221 19:1.1910716 20:1.8431397 21:-0.46750172 22:1.6734604 23:-0.32546006 24:-0.26524341 25:-0.37125383 26:-0.32369263 27:0.79758045 28:-0.63137154 29:-0.5994546 30:-0.14857039 31:-0.51101195 32:-0.099786623 33:-0.48383147 34:-0.44723455 35:-0.29168004 36:-0.24862892 
32 1:-0.48161311 2:-0.40725733 3:1.9843953 4:-0.52850341 5:-0.14857039 6:-0.16731001 7:-0.22311291 8:-0.2399966 9:-0.11748633 10:-0.15504428 11:-0.17600619 12:-0.29826289 13:-1.6015489 14:1.5996869 15:-0.45702737 16:-0.1534491 17:1.0106248 18:-0.61249221 19:1.1910716 20:1.8431397 21:-0.46750172 22:-0.59728351 23:3.0711305 24:-0.26524341 25:-0.37125383 26:-0.32369263 27:0.79758045 28:1.5831095 29:-0.5994546 30:-0.14857039 31:-0.51101195 32:-0.099786623 33:-0.48383147 34:-0.44723455 35:-0.29168004 36:-0.24862892 
32 1:-0.48161311 2:-0.40725733 3:-0.50369515 4:-0.52850341 5:-0.14857039 6:-0.16731001 7:-0.22311291 8:-0.2399966 9:-0.11748633 10:-0.15504428 11:-0.17600619 12:-0.29826289 13:0.62410227 14:1.5996869 15:-0.45702737 16:-0.1534491 17:1.0106248 18:-0.61249221 19:1.1910716 20:1.8431397 21:2.1380249 22:-0.59728351 23:3.0711305 24:3.7683511 25:-0.37125383 26:-0.32369263 27:0.79758045 28:1.5831095 29:1.6673995 30:-0.14857039 31:-0.51101195 32:-0.099786623 33:-0.48383147 34:-0.44723455 35:-0.29168004 36:-0.24862892 
32 1:-0.48161311 2:-0.40725733 3:1.9843953 4:-0.52850341 5:-0.14857039 6:-0.16731001 7:-0.22311291 8:-0.2399966 9:-0.11748633 10:-0.15504428 11:-0.17600619 12:-0.29826289 13:0.62410227 14:1.5996869 15:-0.45702737 16:-0.1534491 17:1.0106248 18:-0.61249221 19:1.1910716 20:1.8431397 21:-0.46750172 22:1.6734604 23:-0.32546006 24:-0.26524341 25:-0.37125383 26:3.0878995 27:0.79758045 28:1.5831095 29:-0.5994546 30:-0.14857039 31:-0.51101195 32:-0.099786623 33:2.0658646 34:-0.44723455 35:-0.29168004 36:-0.24862892 
32 1:-0.48161311 2:-0.40725733 3:-0.50369515 4:-0.52850341 5:-0.14857039 6:-0.16731001 7:-0.22311291 8:-0.2399966 9:-0.11748633 10:-0.15504428 11:-0.17600619 12:3.3511721 13:0.62410227 14:-0.62482871 15:-0.45702737 16:-0.1534491 17:-0.98902218 18:-0.61249221 19:-0.83918574 20:-0.54229764 21:-0.46750172 22:-0.59728351 23:-0.32546006 24:-0.26524341 25:-0.37125383 26:-0.32369263 27:-1.2532031 28:-0.63137154 29:-0.5994546 30:-0.14857039 31:1.9559822 32:-0.099786623 33:-0.48383147 34:-0.44723455 35:-0.29168004 36:-0.24862892 
32 1:-0.48161311 2:2.4542966 3:-0.50369515 4:-0.52850341 5:-0.14857039 6:-0.16731001 7:-0.22311291 8:-0.2399966 9:-0.11748633 10:-0.15504428 11:-0.17600619 12:-0.29826289 13:-1.6015489 14:-0.62482871 15:2.187025 16:-0.1534491 17:-0.98902218 18:-0.61249221 19:-0.83918574 20:-0.54229764 21:-0.46750172 22:-0.59728351 23:-0.32546006 24:-0.26524341 25:-0.37125383 26:-0.32369263 27:-1.2532031 28:-0.63137154 29:-0.5994546 30:-0.14857039 31:-0.51101195 32:-0.099786623 33:-0.48383147 34:-0.44723455 35:-0.29168004 36:-0.24862892 
32 1:-0.48161311 2:2.4542966 3:-0.50369515 4:-0.52850341 5:-0.14857039 6:-0.16731001 7:-0.22311291 8:-0.2399966 9:-0.11748633 10:-0.15504428 11:-0.17600619 12:-0.29826289 13:-1.6015489 14:-0.62482871 15:2.187025 16:-0.1534491 17:1.0106248 18:-0.61249221 19:1.1910716 20:-0.54229764 21:2.1380249 22:1.6734604 23:-0.32546006 24:-0.26524341 25:-0.37125383 26:-0.32369263 27:0.79758045 28:-0.63137154 29:-0.5994546 30:-0.14857039 31:-0.51101195 32:-0.099786623 33:-0.48383147 34:-0.44723455 35:-0.29168004 36:-0.24862892 
32 1:-0.48161311 2:-0.40725733 3:-0.50369515 4:-0.52850341 5:-0.14857039 6:-0.16731001 7:-0.22311291 8:-0.2399966 9:-0.11748633 10:-0.15504428 11:-0.17600619 12:-0.29826289 13:0.62410227 14:-0.62482871 15:-0.45702737 16:-0.1534491 17:-0.98902218 18:-0.61249221 19:-0.83918574 20:-0.54229764 21:-0.46750172 22:-0.59728351 23:-0.32546006 24:-0.26524341 25:-0.37125383 26:-0.32369263 27:-1.2532031 28:-0.63137154 29:-0.5994546 30:-0.14857039 31:-0.51101195 32:-0.099786623 33:-0.48383147 34:-0.44723455 35:-0.29168004 36:-0.24862892 
32 1:-0.48161311 2:-0.40725733 3:1.9843953 4:-0.52850341 5:-0.14857039 6:-0.16731001 7:-0.22311291 8:-0.2399966 9:-0.11748633 10:-0.15504428 11:-0.17600619 12:-0.29826289 13:-1.6015489 14:-0.62482871 15:-0.45702737 16:-0.1534491 17:1.0106248 18:1.631907 19:1.1910716 20:1.8431397 21:-0.46750172 22:1.6734604 23:-0.32546006 24:-0.26524341 25:-0.37125383 26:-0.32369263 27:0.79758045 28:-0.63137154 29:-0.5994546 30:-0.14857039 31:-0.51101195 32:-0.099786623 33:-0.48383147 34:-0.44723455 35:-0.29168004 36:-0.24862892 
32 1:-0.48161311 2:-0.40725733 3:1.9843953 4:-0.52850341 5:-0.14857039 6:-0.16731001 7:-0.22311291 8:-0.2399966 9:-0.11748633 10:-0.15504428 11:-0.17600619 12:-0.29826289 13:-1.6015489 14:1.5996869 15:2.187025 16:-0.1534491 17:-0.98902218 18:-0.61249221 19:-0.83918574 20:-0.54229764 21:-0.46750172 22:-0.59728351 23:-0.32546006 24:-0.26524341 25:-0.37125383 26:-0.32369263 27:-1.2532031 28:-0.63137154 29:-0.5994546 30:-0.14857039 31:-0.51101195 32:-0.099786623 33:-0.48383147 34:-0.44723455 35:-0.29168004 36:-0.24862892 
32 1:-0.48161311 2:2.4542966 3:1.9843953 4:-0.52850341 5:-0.14857039 6:-0.16731001 7:-0.22311291 8:-0.2399966 9:-0.11748633 10:-0.15504428 11:-0.17600619 12:-0.29826289 13:0.62410227 14:-0.62482871 15:-0.45702737 16:-0.1534491 17:1.0106248 18:1.631907 19:1.1910716 20:1.8431397 21:-0.46750172 22:1.6734604 23:-0.32546006 24:-0.26524341 25:-0.37125383 26:-0.32369263 27:0.79758045 28:-0.63137154 29:1.6673995 30:-0.14857039 31:-0.51101195 32:-0.099786623 33:2.0658646 34:2.234913 35:-0.29168004 36:-0.24862892 
32 1:-0.48161311 2:-0.40725733 3:1.9843953 4:-0.52850341 5:-0.14857039 6:-0.16731001 7:-0.22311291 8:-0.2399966 9:-0.11748633 10:-0.15504428 11:-0.17600619 12:-0.29826289 13:0.62410227 14:-0.62482871 15:-0.45702737 16:-0.1534491 17:1.0106248 18:1.631907 19:1.1910716 20:1.8431397 21:-0.46750172 22:1.6734604 23:-0.32546006 24:-0.26524341 25:-0.37125383 26:-0.32369263 27:0.79758045 28:1.5831095 29:1.6673995 30:-0.14857039 31:-0.51101195 32:-0.099786623 33:2.0658646 34:-0.44723455 35:-0.29168004 36:-0.24862892 
32 1:-0.48161311 2:-0.40725733 3:-0.50369515 4:-0.52850341 5:-0.14857039 6:-0.16731001 7:-0.22311291 8:-0.2399966 9:-0.11748633 10:6.446741 11:-0.17600619 12:-0.29826289 13:-1.6015489 14:-0.62482871 15:-0.45702737 16:-0.1534491 17:-0.98902218 18:-0.61249221 19:-0.83918574 20:-0.54229764 21:-0.46750172 22:-0.59728351 23:-0.32546006 24:-0.26524341 25:-0.37125383 26:-0.32369263 27:-1.2532031 28:-0.63137154 29:-0.5994546 30:-0.14857039 31:1.9559822 32:-0.099786623 33:-0.48383147 34:-0.44723455 35:-0.29168004 36:-0.24862892 
32 1:-0.48161311 2:2.4542966 3:-0.50369515 4:-0.52850341 5:-0.14857039 6:-0.16731001 7:-0.22311291 8:-0.2399966 9:-0.11748633 10:6.446741 11:-0.17600619 12:-0.29826289 13:-1.6015489 14:-0.62482871 15:2.187025 16:6.5137578 17:1.0106248 18:-0.61249221 19:1.1910716 20:-0.54229764 21:2.1380249 22:1.6734604 23:-0.32546006 24:-0.26524341 25:-0.37125383 26:-0.32369263 27:0.79758045 28:1.5831095 29:-0.5994546 30:-0.14857039 31:1.9559822 32:-0.099786623 33:2.0658646 34:-0.44723455 35:-0.29168004 36:-0.24862892 
32 1:-0.48161311 2:-0.40725733 3:1.9843953 4:-0.52850341 5:-0.14857039 6:-0.16731001 7:-0.22311291 8:-0.2399966 9:-0.11748633 10:-0.15504428 11:-0.17600619 12:-0.29826289 13:0.62410227 14:1.5996869 15:-0.45702737 16:-0.1534491 17:-0.98902218 18:-0.61249221 19:-0.83918574 20:-0.54229764 21:-0.46750172 22:-0.59728351 23:-0.32546006 24:-0.26524341 25:-0.37125383 26:3.0878995 27:0.79758045 28:1.5831095 29:1.6673995 30:-0.14857039 31:1.9559822 32:-0.099786623 33:-0.48383147 34:-0.44723455 35:-0.29168004 36:-0.24862892 
32 1:-0.48161311 2:-0.40725733 3:-0.50369515 4:1.8912466 5:-0.14857039 6:-0.16731001 7:-0.22311291 8:-0.2399966 9:-0.11748633 10:-0.15504428 11:-0.17600619 12:-0.29826289 13:0.62410227 14:-0.62482871 15:-0.45702737 16:-0.1534491 17:1.0106248 18:-0.61249221 19:1.1910716 20:-0.54229764 21:2.1380249 22:-0.59728351 23:-0.32546006 24:3.7683511 25:-0.37125383 26:-0.32369263 27:0.79758045 28:-0.63137154 29:-0.5994546 30:-0.14857039 31:-0.51101195 32:-0.099786623 33:-0.48383147 34:2.234913 35:-0.29168004 36:-0.24862892 
32 1:2.0753802 2:-0.40725733 3:-0.50369515 4:-0.52850341 5:-0.14857039 6:-0.16731001 7:-0.22311291 8:-0.2399966 9:-0.11748633 10:-0.15504428 11:-0.17600619 12:-0.29826289 13:-1.6015489 14:-0.62482871 15:-0.45702737 16:-0.1534491 17:1.0106248 18:1.631907 19:-0.83918574 20:-0.54229764 21:-0.46750172 22:-0.59728351 23:-0.32546006 24:-0.26524341 25:-0.37125383 26:-0.32369263 27:0.79758045 28:-0.63137154 29:1.6673995 30:-0.14857039 31:-0.51101195 32:-0.099786623 33:-0.48383147 34:-0.44723455 35:-0.29168004 36:-0.24862892 
32 1:2.0753802 2:-0.40725733 3:-0.50369515 4:-0.52850341 5:-0.14857039 6:-0.16731001 7:-0.22311291 8:-0.2399966 9:-0.11748633 10:-0.15504428 11:-0.17600619 12:-0.29826289 13:0.62410227 14:1.5996869 15:-0.45702737 16:-0.1534491 17:1.0106248 18:1.631907 19:-0.83918574 20:-0.54229764 21:-0.46750172 22:-0.59728351 23:-0.32546006 24:-0.26524341 25:-0.37125383 26:-0.32369263 27:0.79758045 28:1.5831095 29:-0.5994546 30:-0.14857039 31:-0.51101195 32:-0.099786623 33:-0.48383147 34:-0.44723455 35:-0.29168004 36:-0.24862892 
3.852124113403788 1:-0.48161311 2:-0.40725733 3:-0.50369515 4:1.8912466 5:-0.14857039 6:-0.16731001 7:-0.22311291 8:-0.2399966 9:-0.11748633 10:-0.15504428 11:-0.17600619 12:-0.29826289 13:-1.6015489 14:-0.62482871 15:-0.45702737 16:6.5137578 17:-0.98902218 18:-0.61249221 19:-0.83918574 20:-0.54229764 21:-0.46750172 22:-0.59728351 23:-0.32546006 24:-0.26524341 25:-0.37125383 26:-0.32369263 27:-1.2532031 28:-0.63137154 29:-0.5994546 30:-0.14857039 31:-0.51101195 32:-0.099786623 33:-0.48383147 34:-0.44723455 35:-0.29168004 36:4.0201692 
32 1:-0.48161311 2:-0.40725733 3:-0.50369515 4:-0.52850341 5:-0.14857039 6:-0.16731001 7:-0.22311291 8:4.1647686 9:-0.11748633 10:-0.15504428 11:-0.17600619 12:-0.29826289 13:0.62410227 14:-0.62482871 15:-0.45702737 16:-0.1534491 17:1.0106248 18:1.631907 19:-0.83918574 20:-0.54229764 21:-0.46750172 22:-0.59728351 23:-0.32546006 24:-0.26524341 25:-0.37125383 26:-0.32369263 27:0.79758045 28:-0.63137154 29:-0.5994546 30:-0.14857039 31:-0.51101195 32:-0.099786623 33:-0.48383147 34:-0.44723455 35:-0.29168004 36:-0.24862892 
32 1:-0.48161311 2:2.4542966 3:-0.50369515 4:-0.52850341 5:-0.14857039 6:-0.16731001 7:-0.22311291 8:-0.2399966 9:-0.11748633 10:-0.15504428 11:-0.17600619 12:-0.29826289 13:-1.6015489 14:-0.62482871 15:2.187025 16:-0.1534491 17:1.0106248 18:1.631907 19:-0.83918574 20:-0.54229764 21:-0.46750172 22:-0.59728351 23:-0.32546006 24:-0.26524341 25:-0.37125383 26:-0.32369263 27:0.79758045 28:-0.63137154 29:-0.5994546 30:-0.14857039 31:-0.51101195 32:-0.099786623 33:-0.48383147 34:2.234913 35:-0.29168004 36:-0.24862892 
32 1:-0.48161311 2:2.4542966 3:-0.50369515 4:-0.52850341 5:-0.14857039 6:-0.16731001 7:-0.22311291 8:-0.2399966 9:-0.11748633 10:-0.15504428 11:-0.17600619 12:-0.29826289 13:0.62410227 14:-0.62482871 15:-0.45702737 16:-0.1534491 17:-0.98902218 18:-0.61249221 19:-0.83918574 20:-0.54229764 21:-0.46750172 22:-0.59728351 23:-0.32546006 24:-0.26524341 25:-0.37125383 26:-0.32369263 27:-1.2532031 28:-0.63137154 29:-0.5994546 30:-0.14857039 31:-0.51101195 32:-0.099786623 33:-0.48383147 34:2.234913 35:-0.29168004 36:-0.24862892 
24.34748130960427 1:-0.48161311 2:-0.40725733 3:-0.50369515 4:1.8912466 5:-0.14857039 6:-0.16731001 7:-0.22311291 8:-0.2399966 9:-0.11748633 10:-0.15504428 11:-0.17600619 12:-0.29826289 13:0.62410227 14:1.5996869 15:-0.45702737 16:-0.1534491 17:-0.98902218 18:-0.61249221 19:-0.83918574 20:-0.54229764 21:-0.46750172 22:-0.59728351 23:-0.32546006 24:-0.26524341 25:-0.37125383 26:-0.32369263 27:-1.2532031 28:-0.63137154 29:-0.5994546 30:-0.14857039 31:1.9559822 32:-0.099786623 33:-0.48383147 34:-0.44723455 35:-0.29168004 36:4.0201692 
32 1:-0.48161311 2:2.4542966 3:-0.50369515 4:-0.52850341 5:-0.14857039 6:-0.16731001 7:-0.22311291 8:-0.2399966 9:-0.11748633 10:-0.15504428 11:-0.17600619 12:-0.29826289 13:0.62410227 14:-0.62482871 15:-0.45702737 16:-0.1534491 17:-0.98902218 18:-0.61249221 19:-0.83918574 20:-0.54229764 21:-0.46750172 22:-0.59728351 23:-0.32546006 24:-0.26524341 25:-0.37125383 26:-0.32369263 27:0.79758045 28:-0.63137154 29:1.6673995 30:-0.14857039 31:-0.51101195 32:-0.099786623 33:-0.48383147 34:-0.44723455 35:-0.29168004 36:-0.24862892 
32 1:-0.48161311 2:-0.40725733 3:-0.50369515 4:-0.52850341 5:-0.14857039 6:-0.16731001 7:-0.22311291 8:-0.2399966 9:-0.11748633 10:-0.15504428 11:-0.17600619 12:3.3511721 13:0.62410227 14:-0.62482871 15:-0.45702737 16:-0.1534491 17:-0.98902218 18:-0.61249221 19:-0.83918574 20:-0.54229764 21:-0.46750172 22:-0.59728351 23:-0.32546006 24:-0.26524341 25:-0.37125383 26:-0.32369263 27:-1.2532031 28:-0.63137154 29:-0.5994546 30:-0.14857039 31:-0.51101195 32:-0.099786623 33:-0.48383147 34:-0.44723455 35:-0.29168004 36:-0.24862892 
32 1:-0.48161311 2:-0.40725733 3:-0.50369515 4:1.8912466 5:-0.14857039 6:-0.16731001 7:-0.22311291 8:-0.2399966 9:-0.11748633 10:-0.15504428 11:-0.17600619 12:-0.29826289 13:0.62410227 14:1.5996869 15:-0.45702737 16:-0.1534491 17:1.0106248 18:1.631907 19:-0.83918574 20:-0.54229764 21:-0.46750172 22:-0.59728351 23:-0.32546006 24:-0.26524341 25:-0.37125383 26:-0.32369263 27:0.79758045 28:1.5831095 29:1.6673995 30:-0.14857039 31:-0.51101195 32:-0.099786623 33:-0.48383147 34:-0.44723455 35:-0.29168004 36:-0.24862892 
32 1:-0.48161311 2:2.4542966 3:-0.50369515 4:-0.52850341 5:-0.14857039 6:-0.16731001 7:-0.22311291 8:-0.2399966 9:-0.11748633 10:-0.15504428 11:-0.17600619 12:-0.29826289 13:-1.6015489 14:-0.62482871 15:2.187025 16:-0.1534491 17:1.0106248 18:1.631907 19:1.1910716 20:-0.54229764 21:-0.46750172 22:-0.59728351 23:-0.32546006 24:-0.26524341 25:2.6923097 26:-0.32369263 27:0.79758045 28:1.5831095 29:1.6673995 30:-0.14857039 31:-0.51101195 32:-0.099786623 33:-0.48383147 34:-0.44723455 35:-0.29168004 36:-0.24862892 
32 1:-0.48161311 2:-0.40725733 3:-0.50369515 4:-0.52850341 5:-0.14857039 6:-0.16731001 7:-0.22311291 8:-0.2399966 9:-0.11748633 10:-0.15504428 11:-0.17600619 12:-0.29826289 13:-1.6015489 14:-0.62482871 15:2.187025 16:-0.1534491 17:-0.98902218 18:-0.61249221 19:-0.83918574 20:-0.54229764 21:-0.46750172 22:-0.59728351 23:-0.32546006 24:-0.26524341 25:-0.37125383 26:-0.32369263 27:-1.2532031 28:-0.63137154 29:-0.5994546 30:-0.14857039 31:-0.51101195 32:-0.099786623 33:-0.48383147 34:-0.44723455 35:-0.29168004 36:-0.24862892 
32 1:-0.48161311 2:2.4542966 3:-0.50369515 4:-0.52850341 5:-0.14857039 6:-0.16731001 7:-0.22311291 8:-0.2399966 9:-0.11748633 10:-0.15504428 11:-0.17600619 12:-0.29826289 13:-1.6015489 14:1.5996869 15:2.187025 16:-0.1534491 17:1.0106248 18:-0.61249221 19:1.1910716 20:1.8431397 21:-0.46750172 22:-0.59728351 23:3.0711305 24:-0.26524341 25:-0.37125383 26:-0.32369263 27:0.79758045 28:-0.63137154 29:1.6673995 30:-0.14857039 31:-0.51101195 32:-0.099786623 33:-0.48383147 34:-0.44723455 35:-0.29168004 36:-0.24862892 
32 1:2.0753802 2:2.4542966 3:-0.50369515 4:-0.52850341 5:-0.14857039 6:-0.16731001 7:-0.22311291 8:-0.2399966 9:-0.11748633 10:-0.15504428 11:-0.17600619 12:-0.29826289 13:0.62410227 14:1.5996869 15:2.187025 16:-0.1534491 17:1.0106248 18:1.631907 19:1.1910716 20:1.8431397 21:-0.46750172 22:1.6734604 23:-0.32546006 24:-0.26524341 25:2.6923097 26:3.0878995 27:0.79758045 28:1.5831095 29:-0.5994546 30:-0.14857039 31:-0.51101195 32:-0.099786623 33:-0.48383147 34:-0.44723455 35:-0.29168004 36:-0.24862892 
32 1:-0.48161311 2:2.4542966 3:-0.50369515 4:-0.52850341 5:-0.14857039 6:-0.16731001 7:4.4799304 8:-0.2399966 9:-0.11748633 10:-0.15504428 11:-0.17600619 12:-0.29826289 13:-1.6015489 14:-0.62482871 15:-0.45702737 16:-0.1534491 17:-0.98902218 18:-0.61249221 19:-0.83918574 20:-0.54229764 21:-0.46750172 22:-0.59728351 23:-0.32546006 24:-0.26524341 25:-0.37125383 26:-0.32369263 27:0.79758045 28:-0.63137154 29:1.6673995 30:-0.14857039 31:-0.51101195 32:-0.099786623 33:2.0658646 34:2.234913 35:-0.29168004 36:-0.24862892 
32 1:-0.48161311 2:-0.40725733 3:-0.50369515 4:-0.52850341 5:-0.14857039 6:-0.16731001 7:-0.22311291 8:4.1647686 9:-0.11748633 10:-0.15504428 11:-0.17600619 12:-0.29826289 13:0.62410227 14:-0.62482871 15:-0.45702737 16:-0.1534491 17:1.0106248 18:-0.61249221 19:1.1910716 20:1.8431397 21:-0.46750172 22:1.6734604 23:-0.32546006 24:-0.26524341 25:2.6923097 26:-0.32369263 27:0.79758045 28:1.5831095 29:-0.5994546 30:-0.14857039 31:-0.51101195 32:-0.099786623 33:2.0658646 34:2.234913 35:-0.29168004 36:-0.24862892 
32 1:-0.48161311 2:-0.40725733 3:1.9843953 4:-0.52850341 5:-0.14857039 6:-0.16731001 7:-0.22311291 8:-0.2399966 9:-0.11748633 10:-0.15504428 11:-0.17600619 12:-0.29826289 13:0.62410227 14:1.5996869 15:-0.45702737 16:-0.1534491 17:1.0106248 18:1.631907 19:1.1910716 20:1.8431397 21:2.1380249 22:-0.59728351 23:3.0711305 24:3.7683511 25:2.6923097 26:-0.32369263 27:0.79758045 28:1.5831095 29:1.6673995 30:-0.14857039 31:-0.51101195 32:-0.099786623 33:-0.48383147 34:-0.44723455 35:-0.29168004 36:-0.24862892 
32 1:-0.48161311 2:2.4542966 3:-0.50369515 4:-0.52850341 5:-0.14857039 6:-0.16731001 7:-0.22311291 8:-0.2399966 9:-0.11748633 10:-0.15504428 11:-0.17600619 12:-0.29826289 13:0.62410227 14:-0.62482871 15:2.187025 16:-0.1534491 17:1.0106248 18:1.631907 19:1.1910716 20:-0.54229764 21:-0.46750172 22:-0.59728351 23:-0.32546006 24:-0.26524341 25:2.6923097 26:-0.32369263 27:0.79758045 28:-0.63137154 29:-0.5994546 30:-0.14857039 31:1.9559822 32:-0.099786623 33:-0.48383147 34:-0.44723455 35:3.4268039 36:-0.24862892 
32 1:-0.48161311 2:2.4542966 3:-0.50369515 4:-0.52850341 5:-0.14857039 6:-0.16731001 7:-0.22311291 8:-0.2399966 9:-0.11748633 10:-0.15504428 11:-0.17600619 12:-0.29826289 13:-1.6015489 14:-0.62482871 15:2.187025 16:-0.1534491 17:-0.98902218 18:-0.61249221 19:-0.83918574 20:-0.54229764 21:-0.46750172 22:-0.59728351 23:-0.32546006 24:-0.26524341 25:-0.37125383 26:-0.32369263 27:0.79758045 28:-0.63137154 29:-0.5994546 30:-0.14857039 31:-0.51101195 32:-0.099786623 33:-0.48383147 34:-0.44723455 35:-0.29168004 36:-0.24862892 
32 1:-0.48161311 2:-0.40725733 3:1.9843953 4:-0.52850341 5:-0.14857039 6:-0.16731001 7:-0.22311291 8:-0.2399966 9:-0.11748633 10:-0.15504428 11:-0.17600619 12:-0.29826289 13:0.62410227 14:1.5996869 15:-0.45702737 16:-0.1534491 17:1.0106248 18:1.631907 19:1.1910716 20:-0.54229764 21:-0.46750172 22:-0.59728351 23:-0.32546006 24:-0.26524341 25:2.6923097 26:-0.32369263 27:0.79758045 28:1.5831095 29:-0.5994546 30:-0.14857039 31:1.9559822 32:-0.099786623 33:2.0658646 34:2.234913 35:-0.29168004 36:-0.24862892 
32 1:-0.48161311 2:2.4542966 3:-0.50369515 4:-0.52850341 5:-0.14857039 6:-0.16731001 7:-0.22311291 8:-0.2399966 9:-0.11748633 10:-0.15504428 11:-0.17600619 12:-0.29826289 13:-1.6015489 14:-0.62482871 15:2.187025 16:-0.1534491 17:1.0106248 18:1.631907 19:-0.83918574 20:-0.54229764 21:-0.46750172 22:-0.59728351 23:-0.32546006 24:-0.26524341 25:-0.37125383 26:-0.32369263 27:0.79758045 28:-0.63137154 29:-0.5994546 30:-0.14857039 31:-0.51101195 32:-0.099786623 33:-0.48383147 34:2.234913 35:3.4268039 36:-0.24862892 
32 1:-0.48161311 2:2.4542966 3:-0.50369515 4:-0.52850341 5:-0.14857039 6:-0.16731001 7:-0.22311291 8:-0.2399966 9:-0.11748633 10:-0.15504428 11:-0.17600619 12:-0.29826289 13:0.62410227 14:1.5996869 15:2.187025 16:-0.1534491 17:1.0106248 18:1.631907 19:1.1910716 20:-0.54229764 21:-0.46750172 22:-0.59728351 23:-0.32546006 24:-0.26524341 25:2.6923097 26:-0.32369263 27:0.79758045 28:1.5831095 29:-0.5994546 30:-0.14857039 31:1.9559822 32:-0.099786623 33:-0.48383147 34:-0.44723455 35:3.4268039 36:-0.24862892 
32 1:-0.48161311 2:2.4542966 3:1.9843953 4:-0.52850341 5:-0.14857039 6:-0.16731001 7:-0.22311291 8:-0.2399966 9:-0.11748633 10:-0.15504428 11:-0.17600619 12:-0.29826289 13:0.62410227 14:1.5996869 15:2.187025 16:-0.1534491 17:1.0106248 18:1.631907 19:1.1910716 20:-0.54229764 21:2.1380249 22:1.6734604 23:-0.32546006 24:-0.26524341 25:-0.37125383 26:-0.32369263 27:0.79758045 28:-0.63137154 29:1.6673995 30:-0.14857039 31:1.9559822 32:-0.099786623 33:-0.48383147 34:2.234913 35:-0.29168004 36:-0.24862892 
30.81543015537503 1:2.0753802 2:-0.40725733 3:-0.50369515 4:-0.52850341 5:-0.14857039 6:-0.16731001 7:-0.22311291 8:-0.2399966 9:-0.11748633 10:-0.15504428 11:-0.17600619 12:-0.29826289 13:0.62410227 14:-0.62482871 15:-0.45702737 16:-0.1534491 17:1.0106248 18:-0.61249221 19:1.1910716 20:-0.54229764 21:2.1380249 22:1.6734604 23:-0.32546006 24:3.7683511 25:-0.37125383 26:-0.32369263 27:0.79758045 28:-0.63137154 29:1.6673995 30:-0.14857039 31:-0.51101195 32:-0.099786623 33:-0.48383147 34:-0.44723455 35:3.4268039 36:-0.24862892 
32 1:2.0753802 2:-0.40725733 3:-0.50369515 4:-0.52850341 5:-0.14857039 6:-0.16731001 7:-0.22311291 8:-0.2399966 9:-0.11748633 10:-0.15504428 11:-0.17600619 12:-0.29826289 13:-1.6015489 14:-0.62482871 15:-0.45702737 16:-0.1534491 17:1.0106248 18:1.631907 19:-0.83918574 20:-0.54229764 21:-0.46750172 22:-0.59728351 23:-0.32546006 24:-0.26524341 25:-0.37125383 26:-0.32369263 27:0.79758045 28:1.5831095 29:-0.5994546 30:-0.14857039 31:-0.51101195 32:-0.099786623 33:2.0658646 34:-0.44723455 35:-0.29168004 36:-0.24862892 
32 1:2.0753802 2:2.4542966 3:-0.50369515 4:-0.52850341 5:-0.14857039 6:-0.16731001 7:-0.22311291 8:-0.2399966 9:-0.11748633 10:-0.15504428 11:-0.17600619 12:-0.29826289 13:0.62410227 14:-0.62482871 15:2.187025 16:-0.1534491 17:1.0106248 18:1.631907 19:-0.83918574 20:-0.54229764 21:-0.46750172 22:-0.59728351 23:-0.32546006 24:-0.26524341 25:-0.37125383 26:3.0878995 27:0.79758045 28:1.5831095 29:1.6673995 30:-0.14857039 31:-0.51101195 32:-0.099786623 33:2.0658646 34:2.234913 35:-0.29168004 36:-0.24862892 
