svm_type c_svc
kernel_type rbf
gamma 0.5
nr_class 3
total_sv 10725
rho -0.557372 0.0113533 0.537243
label 2 1 3
nr_sv 4658 2950 3117
SV
0.4074314964618372 2 1:0.49096569 2:1.4054277 3:-0.41733162 4:-0.15256912 5:0.90860449 6:1.3884083 7:1.1254849 8:1.7395223 9:1.9814768 10:1.4851236 11:2.9800827 12:-0.2243018 13:-0.41806902 14:-0.29133492 15:0.68190874 16:1.3274026 17:1.5676609 18:-0.1142002 19:-0.53414579 20:-0.087490011 21:1.7367395 22:2.1537934 23:2.3029104 24:-0.26902182 
0.3333783063226713 0.9556349045928589 1:-1.8975788 2:-0.67463021 3:-0.41733162 4:-0.15256912 5:0.90860449 6:1.3884083 7:1.1254849 8:-0.53910532 9:-0.46838571 10:-0.63700309 11:-0.29252495 12:-0.2243018 13:2.1961334 14:-0.29133492 15:0.68190874 16:1.3274026 17:1.5676609 18:-0.1142002 19:-0.53414579 20:-0.087490011 21:1.7367395 22:2.1537934 23:-0.39633641 24:-0.26902182 
0.5867116154866922 1.036848321434383 1:-1.8975788 2:1.4054277 3:-0.41733162 4:-0.15256912 5:0.90860449 6:1.3884083 7:1.1254849 8:1.7395223 9:-0.46838571 10:1.4851236 11:-0.29252495 12:-0.2243018 13:-0.41806902 14:-0.29133492 15:0.68190874 16:-0.71566044 17:-0.6019104 18:-0.1142002 19:1.7546347 20:-0.087490011 21:-0.54002754 22:-0.42724496 23:-0.39633641 24:-0.26902182 
0.4401797560507263 0.97773662588557 1:0.49096569 2:-0.67463021 3:-0.41733162 4:-0.15256912 5:-1.0499788 6:-0.68320228 7:-0.84706457 8:-0.53910532 9:-0.46838571 10:-0.63700309 11:-0.29252495 12:-0.2243018 13:-0.41806902 14:-0.29133492 15:0.68190874 16:1.3274026 17:1.5676609 18:-0.1142002 19:1.7546347 20:-0.087490011 21:1.7367395 22:-0.42724496 23:2.3029104 24:-0.26902182 
0.2763154269077138 1.040296884681233 1:0.49096569 2:1.4054277 3:-0.41733162 4:-0.15256912 5:0.90860449 6:-0.68320228 7:1.1254849 8:1.7395223 9:-0.46838571 10:1.4851236 11:-0.29252495 12:-0.2243018 13:-0.41806902 14:-0.29133492 15:0.68190874 16:1.3274026 17:-0.6019104 18:-0.1142002 19:-0.53414579 20:-0.087490011 21:1.7367395 22:-0.42724496 23:2.3029104 24:-0.26902182 
0.4188727756310018 2 1:0.49096569 2:-0.67463021 3:-0.41733162 4:4.7038512 5:-1.0499788 6:-0.68320228 7:-0.84706457 8:-0.53910532 9:-0.46838571 10:-0.63700309 11:-0.29252495 12:-0.2243018 13:-0.41806902 14:-0.29133492 15:-1.3909512 16:-0.71566044 17:-0.6019104 18:-0.1142002 19:-0.53414579 20:-0.087490011 21:-0.54002754 22:-0.42724496 23:-0.39633641 24:3.1858799 
0.7121648268246442 1.07952079694937 1:0.49096569 2:1.4054277 3:-0.41733162 4:-0.15256912 5:0.90860449 6:-0.68320228 7:1.1254849 8:-0.53910532 9:1.9814768 10:1.4851236 11:-0.29252495 12:-0.2243018 13:-0.41806902 14:2.9899259 15:0.68190874 16:1.3274026 17:-0.6019104 18:-0.1142002 19:-0.53414579 20:-0.087490011 21:1.7367395 22:-0.42724496 23:-0.39633641 24:-0.26902182 
2 2 1:0.49096569 2:1.4054277 3:-0.41733162 4:-0.15256912 5:-1.0499788 6:-0.68320228 7:-0.84706457 8:-0.53910532 9:-0.46838571 10:-0.63700309 11:-0.29252495 12:-0.2243018 13:-0.41806902 14:-0.29133492 15:0.68190874 16:1.3274026 17:1.5676609 18:-0.1142002 19:1.7546347 20:-0.087490011 21:1.7367395 22:-0.42724496 23:-0.39633641 24:-0.26902182 
2 0 1:0.49096569 2:1.4054277 3:-0.41733162 4:-0.15256912 5:-1.0499788 6:-0.68320228 7:-0.84706457 8:-0.53910532 9:-0.46838571 10:-0.63700309 11:-0.29252495 12:-0.2243018 13:-0.41806902 14:-0.29133492 15:0.68190874 16:1.3274026 17:-0.6019104 18:-0.1142002 19:-0.53414579 20:-0.087490011 21:1.7367395 22:-0.42724496 23:-0.39633641 24:-0.26902182 
0.4424951305555255 1.01102396704513 1:0.49096569 2:1.4054277 3:-0.41733162 4:4.7038512 5:0.90860449 6:1.3884083 7:-0.84706457 8:-0.53910532 9:-0.46838571 10:-0.63700309 11:-0.29252495 12:-0.2243018 13:-0.41806902 14:2.9899259 15:0.68190874 16:-0.71566044 17:-0.6019104 18:-0.1142002 19:-0.53414579 20:-0.087490011 21:-0.54002754 22:-0.42724496 23:-0.39633641 24:3.1858799 
0.4219104101554189 1.115232115231349 1:0.49096569 2:-0.67463021 3:-0.41733162 4:-0.15256912 5:0.90860449 6:1.3884083 7:1.1254849 8:1.7395223 9:-0.46838571 10:1.4851236 11:2.9800827 12:-0.2243018 13:-0.41806902 14:-0.29133492 15:0.68190874 16:1.3274026 17:1.5676609 18:-0.1142002 19:-0.53414579 20:-0.087490011 21:1.7367395 22:-0.42724496 23:2.3029104 24:-0.26902182 
1.023540883250194 1.058393072093168 1:-1.8975788 2:-0.67463021 3:2.1996038 4:-0.15256912 5:0.90860449 6:1.3884083 7:-0.84706457 8:-0.53910532 9:-0.46838571 10:-0.63700309 11:-0.29252495 12:-0.2243018 13:-0.41806902 14:-0.29133492 15:0.68190874 16:-0.71566044 17:-0.6019104 18:-0.1142002 19:-0.53414579 20:-0.087490011 21:1.7367395 22:-0.42724496 23:-0.39633641 24:-0.26902182 
0.3778456991986695 1.012515906322558 1:0.49096569 2:-0.67463021 3:-0.41733162 4:-0.15256912 5:0.90860449 6:1.3884083 7:-0.84706457 8:-0.53910532 9:-0.46838571 10:-0.63700309 11:-0.29252495 12:-0.2243018 13:-0.41806902 14:-0.29133492 15:0.68190874 16:1.3274026 17:1.5676609 18:-0.1142002 19:1.7546347 20:-0.087490011 21:-0.54002754 22:-0.42724496 23:2.3029104 24:-0.26902182 
0 0.9411151561733794 1:0.49096569 2:1.4054277 3:-0.41733162 4:-0.15256912 5:0.90860449 6:1.3884083 7:1.1254849 8:-0.53910532 9:1.9814768 10:1.4851236 11:-0.29252495 12:-0.2243018 13:2.1961334 14:-0.29133492 15:0.68190874 16:1.3274026 17:1.5676609 18:-0.1142002 19:-0.53414579 20:-0.087490011 21:1.7367395 22:2.1537934 23:2.3029104 24:-0.26902182 
0 2 1:-1.8975788 2:-0.67463021 3:-0.41733162 4:4.7038512 5:-1.0499788 6:-0.68320228 7:-0.84706457 8:-0.53910532 9:-0.46838571 10:-0.63700309 11:-0.29252495 12:-0.2243018 13:-0.41806902 14:-0.29133492 15:-1.3909512 16:-0.71566044 17:-0.6019104 18:-0.1142002 19:-0.53414579 20:-0.087490011 21:-0.54002754 22:-0.42724496 23:-0.39633641 24:3.1858799 
0.431447091432628 1.050979411996267 1:0.49096569 2:1.4054277 3:-0.41733162 4:-0.15256912 5:0.90860449 6:-0.68320228 7:1.1254849 8:-0.53910532 9:1.9814768 10:-0.63700309 11:-0.29252495 12:3.6549877 13:-0.41806902 14:-0.29133492 15:0.68190874 16:1.3274026 17:-0.6019104 18:-0.1142002 19:-0.53414579 20:-0.087490011 21:-0.54002754 22:2.1537934 23:-0.39633641 24:-0.26902182 
0.3566156580476845 0.8290835015298694 1:-1.8975788 2:-0.67463021 3:2.1996038 4:-0.15256912 5:-1.0499788 6:-0.68320228 7:-0.84706457 8:-0.53910532 9:-0.46838571 10:-0.63700309 11:-0.29252495 12:-0.2243018 13:-0.41806902 14:-0.29133492 15:0.68190874 16:-0.71566044 17:-0.6019104 18:-0.1142002 19:-0.53414579 20:-0.087490011 21:-0.54002754 22:-0.42724496 23:2.3029104 24:-0.26902182 
0 2 1:0.49096569 2:-0.67463021 3:-0.41733162 4:-0.15256912 5:0.90860449 6:1.3884083 7:1.1254849 8:1.7395223 9:-0.46838571 10:1.4851236 11:-0.29252495 12:-0.2243018 13:-0.41806902 14:-0.29133492 15:0.68190874 16:1.3274026 17:-0.6019104 18:-0.1142002 19:-0.53414579 20:-0.087490011 21:-0.54002754 22:-0.42724496 23:2.3029104 24:-0.26902182 
2 0 1:-1.8975788 2:-0.67463021 3:-0.41733162 4:-0.15256912 5:0.90860449 6:-0.68320228 7:1.1254849 8:-0.53910532 9:1.9814768 10:1.4851236 11:-0.29252495 12:-0.2243018 13:-0.41806902 14:-0.29133492 15:0.68190874 16:-0.71566044 17:-0.6019104 18:-0.1142002 19:-0.53414579 20:-0.087490011 21:-0.54002754 22:-0.42724496 23:-0.39633641 24:-0.26902182 
0 1.100117610465635 1:0.49096569 2:-0.67463021 3:-0.41733162 4:-0.15256912 5:0.90860449 6:1.3884083 7:-0.84706457 8:-0.53910532 9:-0.46838571 10:-0.63700309 11:-0.29252495 12:-0.2243018 13:-0.41806902 14:-0.29133492 15:0.68190874 16:1.3274026 17:-0.6019104 18:-0.1142002 19:-0.53414579 20:-0.087490011 21:-0.54002754 22:2.1537934 23:2.3029104 24:-0.26902182 
0 1.22823919376823 1:0.49096569 2:-0.67463021 3:-0.41733162 4:-0.15256912 5:0.90860449 6:1.3884083 7:-0.84706457 8:-0.53910532 9:-0.46838571 10:-0.63700309 11:-0.29252495 12:-0.2243018 13:-0.41806902 14:2.9899259 15:0.68190874 16:1.3274026 17:-0.6019104 18:-0.1142002 19:-0.53414579 20:-0.087490011 21:1.7367395 22:-0.42724496 23:-0.39633641 24:-0.26902182 
2 0 1:-1.8975788 2:-0.67463021 3:2.1996038 4:-0.15256912 5:0.90860449 6:1.3884083 7:-0.84706457 8:-0.53910532 9:-0.46838571 10:-0.63700309 11:-0.29252495 12:-0.2243018 13:-0.41806902 14:-0.29133492 15:0.68190874 16:-0.71566044 17:-0.6019104 18:-0.1142002 19:-0.53414579 20:-0.087490011 21:-0.54002754 22:-0.42724496 23:-0.39633641 24:-0.26902182 
0.259089133986829 2 1:0.49096569 2:1.4054277 3:-0.41733162 4:-0.15256912 5:0.90860449 6:-0.68320228 7:1.1254849 8:1.7395223 9:-0.46838571 10:1.4851236 11:-0.29252495 12:-0.2243018 13:-0.41806902 14:-0.29133492 15:0.68190874 16:-0.71566044 17:-0.6019104 18:-0.1142002 19:-0.53414579 20:-0.087490011 21:-0.54002754 22:-0.42724496 23:2.3029104 24:-0.26902182 
0.4276763856810354 0.9601521420261164 1:-1.8975788 2:-0.67463021 3:2.1996038 4:-0.15256912 5:0.90860449 6:1.3884083 7:1.1254849 8:1.7395223 9:-0.46838571 10:1.4851236 11:-0.29252495 12:-0.2243018 13:-0.41806902 14:-0.29133492 15:0.68190874 16:-0.71566044 17:1.5676609 18:-0.1142002 19:-0.53414579 20:-0.087490011 21:1.7367395 22:2.1537934 23:2.3029104 24:-0.26902182 
0.4393692122187531 1.003725668161286 1:-1.8975788 2:1.4054277 3:-0.41733162 4:-0.15256912 5:0.90860449 6:-0.68320228 7:1.1254849 8:-0.53910532 9:1.9814768 10:1.4851236 11:-0.29252495 12:-0.2243018 13:-0.41806902 14:2.9899259 15:0.68190874 16:-0.71566044 17:-0.6019104 18:-0.1142002 19:1.7546347 20:-0.087490011 21:-0.54002754 22:-0.42724496 23:2.3029104 24:-0.26902182 
0.4063022408283226 0.9500545752391187 1:0.49096569 2:-0.67463021 3:2.1996038 4:-0.15256912 5:-1.0499788 6:-0.68320228 7:-0.84706457 8:-0.53910532 9:-0.46838571 10:-0.63700309 11:-0.29252495 12:-0.2243018 13:-0.41806902 14:-0.29133492 15:0.68190874 16:-0.71566044 17:-0.6019104 18:-0.1142002 19:1.7546347 20:-0.087490011 21:-0.54002754 22:-0.42724496 23:2.3029104 24:-0.26902182 
2 0 1:0.49096569 2:-0.67463021 3:-0.41733162 4:-0.15256912 5:0.90860449 6:-0.68320228 7:1.1254849 8:1.7395223 9:-0.46838571 10:1.4851236 11:-0.29252495 12:-0.2243018 13:-0.41806902 14:-0.29133492 15:0.68190874 16:-0.71566044 17:-0.6019104 18:-0.1142002 19:-0.53414579 20:-0.087490011 21:-0.54002754 22:2.1537934 23:-0.39633641 24:-0.26902182 
0 2 1:0.49096569 2:-0.67463021 3:-0.41733162 4:-0.15256912 5:-1.0499788 6:-0.68320228 7:-0.84706457 8:-0.53910532 9:-0.46838571 10:-0.63700309 11:-0.29252495 12:-0.2243018 13:-0.41806902 14:-0.29133492 15:0.68190874 16:-0.71566044 17:-0.6019104 18:-0.1142002 19:-0.53414579 20:-0.087490011 21:-0.54002754 22:-0.42724496 23:2.3029104 24:-0.26902182 
0 1.256580675796711 1:0.49096569 2:-0.67463021 3:-0.41733162 4:-0.15256912 5:0.90860449 6:-0.68320228 7:1.1254849 8:-0.53910532 9:-0.46838571 10:-0.63700309 11:-0.29252495 12:-0.2243018 13:2.1961334 14:-0.29133492 15:0.68190874 16:1.3274026 17:1.5676609 18:-0.1142002 19:-0.53414579 20:-0.087490011 21:1.7367395 22:2.1537934 23:-0.39633641 24:-0.26902182 
2 0.8211650353960332 1:-1.8975788 2:-0.67463021 3:2.1996038 4:-0.15256912 5:0.90860449 6:-0.68320228 7:1.1254849 8:-0.53910532 9:1.9814768 10:1.4851236 11:-0.29252495 12:-0.2243018 13:2.1961334 14:-0.29133492 15:0.68190874 16:1.3274026 17:-0.6019104 18:-0.1142002 19:-0.53414579 20:-0.087490011 21:-0.54002754 22:-0.42724496 23:-0.39633641 24:-0.26902182 
2 0 1:-1.8975788 2:-0.67463021 3:2.1996038 4:-0.15256912 5:0.90860449 6:1.3884083 7:-0.84706457 8:-0.53910532 9:-0.46838571 10:-0.63700309 11:-0.29252495 12:-0.2243018 13:-0.41806902 14:-0.29133492 15:0.68190874 16:-0.71566044 17:-0.6019104 18:-0.1142002 19:-0.53414579 20:-0.087490011 21:-0.54002754 22:-0.42724496 23:-0.39633641 24:-0.26902182 
2 0 1:-1.8975788 2:-0.67463021 3:-0.41733162 4:-0.15256912 5:0.90860449 6:-0.68320228 7:1.1254849 8:-0.53910532 9:1.9814768 10:1.4851236 11:-0.29252495 12:-0.2243018 13:-0.41806902 14:-0.29133492 15:0.68190874 16:-0.71566044 17:-0.6019104 18:-0.1142002 19:-0.53414579 20:-0.087490011 21:-0.54002754 22:-0.42724496 23:-0.39633641 24:-0.26902182 
2 0 1:0.49096569 2:-0.67463021 3:-0.41733162 4:-0.15256912 5:0.90860449 6:-0.68320228 7:1.1254849 8:-0.53910532 9:1.9814768 10:1.4851236 11:-0.29252495 12:-0.2243018 13:-0.41806902 14:-0.29133492 15:0.68190874 16:-0.71566044 17:-0.6019104 18:-0.1142002 19:1.7546347 20:-0.087490011 21:-0.54002754 22:-0.42724496 23:-0.39633641 24:-0.26902182 
2 0 1:-1.8975788 2:-0.67463021 3:-0.41733162 4:-0.15256912 5:0.90860449 6:-0.68320228 7:1.1254849 8:-0.53910532 9:1.9814768 10:1.4851236 11:-0.29252495 12:-0.2243018 13:-0.41806902 14:-0.29133492 15:0.68190874 16:-0.71566044 17:-0.6019104 18:-0.1142002 19:-0.53414579 20:-0.087490011 21:-0.54002754 22:-0.42724496 23:-0.39633641 24:-0.26902182 
2 1.094459126378185 1:-1.8975788 2:-0.67463021 3:-0.41733162 4:-0.15256912 5:0.90860449 6:-0.68320228 7:1.1254849 8:1.7395223 9:-0.46838571 10:1.4851236 11:-0.29252495 12:-0.2243018 13:-0.41806902 14:-0.29133492 15:0.68190874 16:-0.71566044 17:1.5676609 18:-0.1142002 19:-0.53414579 20:-0.087490011 21:-0.54002754 22:-0.42724496 23:-0.39633641 24:-0.26902182 
2 0 1:0.49096569 2:-0.67463021 3:-0.41733162 4:-0.15256912 5:-1.0499788 6:-0.68320228 7:-0.84706457 8:-0.53910532 9:-0.46838571 10:-0.63700309 11:-0.29252495 12:-0.2243018 13:-0.41806902 14:-0.29133492 15:0.68190874 16:1.3274026 17:-0.6019104 18:-0.1142002 19:-0.53414579 20:-0.087490011 21:1.7367395 22:-0.42724496 23:-0.39633641 24:-0.26902182 
0.3838404643390391 0.9092132317467023 1:0.49096569 2:1.4054277 3:2.1996038 4:-0.15256912 5:0.90860449 6:1.3884083 7:1.1254849 8:1.7395223 9:1.9814768 10:1.4851236 11:2.9800827 12:-0.2243018 13:-0.41806902 14:-0.29133492 15:0.68190874 16:-0.71566044 17:-0.6019104 18:-0.1142002 19:-0.53414579 20:-0.087490011 21:-0.54002754 22:-0.42724496 23:-0.39633641 24:-0.26902182 
0.4423486379181711 1.010753290329038 1:0.49096569 2:-0.67463021 3:2.1996038 4:-0.15256912 5:-1.0499788 6:-0.68320228 7:-0.84706457 8:-0.53910532 9:-0.46838571 10:-0.63700309 11:-0.29252495 12:-0.2243018 13:-0.41806902 14:2.9899259 15:0.68190874 16:1.3274026 17:1.5676609 18:-0.1142002 19:-0.53414579 20:-0.087490011 21:1.7367395 22:2.1537934 23:2.3029104 24:-0.26902182 
0.4210792499378342 2 1:0.49096569 2:1.4054277 3:-0.41733162 4:-0.15256912 5:0.90860449 6:1.3884083 7:1.1254849 8:-0.53910532 9:1.9814768 10:-0.63700309 11:-0.29252495 12:3.6549877 13:2.1961334 14:-0.29133492 15:0.68190874 16:1.3274026 17:1.5676609 18:-0.1142002 19:-0.53414579 20:-0.087490011 21:-0.54002754 22:-0.42724496 23:-0.39633641 24:-0.26902182 
0.3326644525294467 1.07069394859003 1:-1.8975788 2:1.4054277 3:-0.41733162 4:-0.15256912 5:0.90860449 6:-0.68320228 7:1.1254849 8:-0.53910532 9:1.9814768 10:1.4851236 11:-0.29252495 12:-0.2243018 13:-0.41806902 14:-0.29133492 15:0.68190874 16:1.3274026 17:-0.6019104 18:-0.1142002 19:-0.53414579 20:-0.087490011 21:-0.54002754 22:-0.42724496 23:2.3029104 24:-0.26902182 
2 0 1:0.49096569 2:-0.67463021 3:-0.41733162 4:-0.15256912 5:-1.0499788 6:-0.68320228 7:-0.84706457 8:-0.53910532 9:-0.46838571 10:-0.63700309 11:-0.29252495 12:-0.2243018 13:-0.41806902 14:-0.29133492 15:-1.3909512 16:-0.71566044 17:-0.6019104 18:-0.1142002 19:1.7546347 20:-0.087490011 21:-0.54002754 22:-0.42724496 23:-0.39633641 24:-0.26902182 
0 0.7646772078927759 1:-1.8975788 2:-0.67463021 3:2.1996038 4:-0.15256912 5:0.90860449 6:1.3884083 7:1.1254849 8:-0.53910532 9:1.9814768 10:1.4851236 11:-0.29252495 12:-0.2243018 13:-0.41806902 14:-0.29133492 15:0.68190874 16:1.3274026 17:-0.6019104 18:-0.1142002 19:-0.53414579 20:-0.087490011 21:-0.54002754 22:-0.42724496 23:2.3029104 24:-0.26902182 
0.3327285708706963 0.8880969172698479 1:0.49096569 2:1.4054277 3:2.1996038 4:-0.15256912 5:0.90860449 6:-0.68320228 7:1.1254849 8:-0.53910532 9:1.9814768 10:1.4851236 11:-0.29252495 12:-0.2243018 13:-0.41806902 14:-0.29133492 15:0.68190874 16:1.3274026 17:1.5676609 18:-0.1142002 19:-0.53414579 20:-0.087490011 21:1.7367395 22:-0.42724496 23:2.3029104 24:-0.26902182 
0.7623868593220144 2 1:-1.8975788 2:-0.67463021 3:-0.41733162 4:-0.15256912 5:0.90860449 6:-0.68320228 7:1.1254849 8:-0.53910532 9:1.9814768 10:1.4851236 11:-0.29252495 12:-0.2243018 13:-0.41806902 14:-0.29133492 15:0.68190874 16:1.3274026 17:-0.6019104 18:-0.1142002 19:-0.53414579 20:-0.087490011 21:1.7367395 22:-0.42724496 23:-0.39633641 24:-0.26902182 
0 2 1:0.49096569 2:-0.67463021 3:-0.41733162 4:-0.15256912 5:0.90860449 6:1.3884083 7:1.1254849 8:-0.53910532 9:1.9814768 10:1.4851236 11:-0.29252495 12:-0.2243018 13:-0.41806902 14:-0.29133492 15:0.68190874 16:-0.71566044 17:1.5676609 18:-0.1142002 19:-0.53414579 20:-0.087490011 21:-0.54002754 22:-0.42724496 23:2.3029104 24:-0.26902182 
0.6567259710129533 0.8647102352909938 1:0.49096569 2:1.4054277 3:2.1996038 4:-0.15256912 5:0.90860449 6:-0.68320228 7:1.1254849 8:-0.53910532 9:-0.46838571 10:-0.63700309 11:-0.29252495 12:-0.2243018 13:2.1961334 14:-0.29133492 15:0.68190874 16:-0.71566044 17:-0.6019104 18:-0.1142002 19:-0.53414579 20:-0.087490011 21:-0.54002754 22:-0.42724496 23:-0.39633641 24:-0.26902182 
0.4497596243097406 2 1:0.49096569 2:1.4054277 3:-0.41733162 4:-0.15256912 5:0.90860449 6:1.3884083 7:1.1254849 8:1.7395223 9:-0.46838571 10:1.4851236 11:-0.29252495 12:-0.2243018 13:-0.41806902 14:-0.29133492 15:0.68190874 16:-0.71566044 17:-0.6019104 18:-0.1142002 19:-0.53414579 20:-0.087490011 21:-0.54002754 22:2.1537934 23:-0.39633641 24:-0.26902182 
0.5233920281922553 0.7019891157951835 1:-1.8975788 2:1.4054277 3:-0.41733162 4:-0.15256912 5:0.90860449 6:-0.68320228 7:1.1254849 8:-0.53910532 9:1.9814768 10:1.4851236 11:-0.29252495 12:-0.2243018 13:-0.41806902 14:-0.29133492 15:0.68190874 16:1.3274026 17:-0.6019104 18:-0.1142002 19:1.7546347 20:-0.087490011 21:-0.54002754 22:-0.42724496 23:-0.39633641 24:-0.26902182 
0.4306021731455351 1.186162249319575 1:0.49096569 2:1.4054277 3:-0.41733162 4:-0.15256912 5:0.90860449 6:-0.68320228 7:1.1254849 8:-0.53910532 9:1.9814768 10:1.4851236 11:-0.29252495 12:-0.2243018 13:-0.41806902 14:2.9899259 15:0.68190874 16:1.3274026 17:1.5676609 18:-0.1142002 19:-0.53414579 20:-0.087490011 21:-0.54002754 22:-0.42724496 23:2.3029104 24:-0.26902182 
0.384989864777584 1.079894411719572 1:0.49096569 2:-0.67463021 3:-0.41733162 4:-0.15256912 5:0.90860449 6:-0.68320228 7:1.1254849 8:-0.53910532 9:1.9814768 10:1.4851236 11:-0.29252495 12:-0.2243018 13:-0.41806902 14:-0.29133492 15:0.68190874 16:1.3274026 17:1.5676609 18:-0.1142002 19:1.7546347 20:-0.087490011 21:1.7367395 22:2.1537934 23:2.3029104 24:-0.26902182 
2 0 1:-1.8975788 2:-0.67463021 3:-0.41733162 4:-0.15256912 5:-1.0499788 6:-0.68320228 7:-0.84706457 8:-0.53910532 9:-0.46838571 10:-0.63700309 11:-0.29252495 12:-0.2243018 13:-0.41806902 14:-0.29133492 15:-1.3909512 16:-0.71566044 17:-0.6019104 18:-0.1142002 19:-0.53414579 20:-0.087490011 21:-0.54002754 22:-0.42724496 23:-0.39633641 24:-0.26902182 
2 0 1:0.49096569 2:-0.67463021 3:-0.41733162 4:-0.15256912 5:-1.0499788 6:-0.68320228 7:-0.84706457 8:-0.53910532 9:-0.46838571 10:-0.63700309 11:-0.29252495 12:-0.2243018 13:-0.41806902 14:-0.29133492 15:-1.3909512 16:-0.71566044 17:-0.6019104 18:-0.1142002 19:1.7546347 20:-0.087490011 21:-0.54002754 22:-0.42724496 23:-0.39633641 24:-0.26902182 
2 0.8301038089495032 1:0.49096569 2:-0.67463021 3:2.1996038 4:-0.15256912 5:0.90860449 6:1.3884083 7:1.1254849 8:-0.53910532 9:1.9814768 10:1.4851236 11:-0.29252495 12:-0.2243018 13:-0.41806902 14:-0.29133492 15:0.68190874 16:1.3274026 17:-0.6019104 18:-0.1142002 19:-0.53414579 20:-0.087490011 21:-0.54002754 22:-0.42724496 23:-0.39633641 24:-0.26902182 
2 2 1:-1.8975788 2:-0.67463021 3:2.1996038 4:-0.15256912 5:-1.0499788 6:-0.68320228 7:-0.84706457 8:-0.53910532 9:-0.46838571 10:-0.63700309 11:-0.29252495 12:-0.2243018 13:-0.41806902 14:-0.29133492 15:0.68190874 16:1.3274026 17:1.5676609 18:-0.1142002 19:-0.53414579 20:-0.087490011 21:1.7367395 22:2.1537934 23:-0.39633641 24:-0.26902182 
0 1.198774923920687 1:0.49096569 2:-0.67463021 3:-0.41733162 4:-0.15256912 5:0.90860449 6:1.3884083 7:1.1254849 8:-0.53910532 9:-0.46838571 10:-0.63700309 11:-0.29252495 12:-0.2243018 13:2.1961334 14:-0.29133492 15:0.68190874 16:1.3274026 17:-0.6019104 18:-0.1142002 19:-0.53414579 20:-0.087490011 21:-0.54002754 22:-0.42724496 23:-0.39633641 24:-0.26902182 
0.2270201141891995 0.6178584582533319 1:-1.8975788 2:1.4054277 3:-0.41733162 4:-0.15256912 5:0.90860449 6:-0.68320228 7:1.1254849 8:-0.53910532 9:-0.46838571 10:-0.63700309 11:-0.29252495 12:-0.2243018 13:2.1961334 14:-0.29133492 15:0.68190874 16:1.3274026 17:-0.6019104 18:-0.1142002 19:1.7546347 20:-0.087490011 21:-0.54002754 22:-0.42724496 23:-0.39633641 24:-0.26902182 
0.3959868114784393 0.9006419772342004 1:-1.8975788 2:-0.67463021 3:-0.41733162 4:-0.15256912 5:0.90860449 6:-0.68320228 7:1.1254849 8:-0.53910532 9:1.9814768 10:1.4851236 11:-0.29252495 12:3.6549877 13:-0.41806902 14:-0.29133492 15:0.68190874 16:-0.71566044 17:-0.6019104 18:-0.1142002 19:-0.53414579 20:-0.087490011 21:-0.54002754 22:-0.42724496 23:2.3029104 24:-0.26902182 
0.4248795307497657 1.114511561540362 1:0.49096569 2:1.4054277 3:2.1996038 4:-0.15256912 5:-1.0499788 6:-0.68320228 7:-0.84706457 8:-0.53910532 9:-0.46838571 10:-0.63700309 11:-0.29252495 12:-0.2243018 13:-0.41806902 14:-0.29133492 15:0.68190874 16:1.3274026 17:-0.6019104 18:-0.1142002 19:-0.53414579 20:-0.087490011 21:1.7367395 22:-0.42724496 23:2.3029104 24:-0.26902182 
0 2 1:0.49096569 2:-0.67463021 3:-0.41733162 4:-0.15256912 5:0.90860449 6:1.3884083 7:-0.84706457 8:-0.53910532 9:-0.46838571 10:-0.63700309 11:-0.29252495 12:-0.2243018 13:-0.41806902 14:-0.29133492 15:0.68190874 16:-0.71566044 17:1.5676609 18:-0.1142002 19:-0.53414579 20:-0.087490011 21:-0.54002754 22:2.1537934 23:-0.39633641 24:-0.26902182 
0 1.017414445448115 1:0.49096569 2:1.4054277 3:-0.41733162 4:-0.15256912 5:0.90860449 6:-0.68320228 7:1.1254849 8:1.7395223 9:1.9814768 10:1.4851236 11:-0.29252495 12:-0.2243018 13:-0.41806902 14:-0.29133492 15:0.68190874 16:-0.71566044 17:-0.6019104 18:-0.1142002 19:-0.53414579 20:-0.087490011 21:-0.54002754 22:-0.42724496 23:-0.39633641 24:-0.26902182 
2 0 1:-1.8975788 2:-0.67463021 3:2.1996038 4:-0.15256912 5:-1.0499788 6:-0.68320228 7:-0.84706457 8:-0.53910532 9:-0.46838571 10:-0.63700309 11:-0.29252495 12:-0.2243018 13:-0.41806902 14:-0.29133492 15:-1.3909512 16:-0.71566044 17:-0.6019104 18:-0.1142002 19:-0.53414579 20:-0.087490011 21:-0.54002754 22:-0.42724496 23:-0.39633641 24:-0.26902182 
2 0 1:-1.8975788 2:-0.67463021 3:-0.41733162 4:-0.15256912 5:-1.0499788 6:-0.68320228 7:-0.84706457 8:-0.53910532 9:-0.46838571 10:-0.63700309 11:-0.29252495 12:-0.2243018 13:-0.41806902 14:-0.29133492 15:-1.3909512 16:-0.71566044 17:-0.6019104 18:-0.1142002 19:-0.53414579 20:-0.087490011 21:-0.54002754 22:-0.42724496 23:-0.39633641 24:-0.26902182 
2 0 1:0.49096569 2:-0.67463021 3:-0.41733162 4:-0.15256912 5:-1.0499788 6:-0.68320228 7:-0.84706457 8:-0.53910532 9:-0.46838571 10:-0.63700309 11:-0.29252495 12:-0.2243018 13:-0.41806902 14:-0.29133492 15:-1.3909512 16:-0.71566044 17:-0.6019104 18:-0.1142002 19:1.7546347 20:-0.087490011 21:-0.54002754 22:-0.42724496 23:-0.39633641 24:-0.26902182 
0 2 1:0.49096569 2:-0.67463021 3:-0.41733162 4:-0.15256912 5:0.90860449 6:1.3884083 7:1.1254849 8:-0.53910532 9:-0.46838571 10:-0.63700309 11:-0.29252495 12:-0.2243018 13:2.1961334 14:-0.29133492 15:0.68190874 16:-0.71566044 17:-0.6019104 18:-0.1142002 19:-0.53414579 20:-0.087490011 21:-0.54002754 22:-0.42724496 23:-0.39633641 24:-0.26902182 
0.4800775572045885 1.014584244061686 1:0.49096569 2:-0.67463021 3:2.1996038 4:-0.15256912 5:0.90860449 6:1.3884083 7:1.1254849 8:1.7395223 9:-0.46838571 10:-0.63700309 11:2.9800827 12:-0.2243018 13:-0.41806902 14:-0.29133492 15:0.68190874 16:1.3274026 17:1.5676609 18:-0.1142002 19:-0.53414579 20:-0.087490011 21:-0.54002754 22:-0.42724496 23:-0.39633641 24:-0.26902182 
2 0 1:0.49096569 2:1.4054277 3:-0.41733162 4:-0.15256912 5:-1.0499788 6:-0.68320228 7:-0.84706457 8:-0.53910532 9:-0.46838571 10:-0.63700309 11:-0.29252495 12:-0.2243018 13:-0.41806902 14:-0.29133492 15:-1.3909512 16:-0.71566044 17:-0.6019104 18:-0.1142002 19:1.7546347 20:-0.087490011 21:-0.54002754 22:-0.42724496 23:-0.39633641 24:-0.26902182 
2 2 1:0.49096569 2:-0.67463021 3:-0.41733162 4:4.7038512 5:-1.0499788 6:-0.68320228 7:-0.84706457 8:-0.53910532 9:-0.46838571 10:-0.63700309 11:-0.29252495 12:-0.2243018 13:-0.41806902 14:-0.29133492 15:-1.3909512 16:-0.71566044 17:-0.6019104 18:-0.1142002 19:-0.53414579 20:-0.087490011 21:-0.54002754 22:-0.42724496 23:-0.39633641 24:-0.26902182 
2 0 1:-1.8975788 2:-0.67463021 3:-0.41733162 4:4.7038512 5:-1.0499788 6:-0.68320228 7:-0.84706457 8:-0.53910532 9:-0.46838571 10:-0.63700309 11:-0.29252495 12:-0.2243018 13:-0.41806902 14:-0.29133492 15:-1.3909512 16:-0.71566044 17:-0.6019104 18:-0.1142002 19:1.7546347 20:-0.087490011 21:-0.54002754 22:-0.42724496 23:-0.39633641 24:-0.26902182 
2 0 1:0.49096569 2:-0.67463021 3:-0.41733162 4:-0.15256912 5:0.90860449 6:-0.68320228 7:1.1254849 8:-0.53910532 9:1.9814768 10:1.4851236 11:-0.29252495 12:-0.2243018 13:-0.41806902 14:-0.29133492 15:0.68190874 16:-0.71566044 17:-0.6019104 18:-0.1142002 19:-0.53414579 20:-0.087490011 21:1.7367395 22:-0.42724496 23:-0.39633641 24:-0.26902182 
2 0.806751089192248 1:-1.8975788 2:-0.67463021 3:2.1996038 4:-0.15256912 5:0.90860449 6:1.3884083 7:1.1254849 8:-0.53910532 9:-0.46838571 10:-0.63700309 11:-0.29252495 12:-0.2243018 13:2.1961334 14:-0.29133492 15:0.68190874 16:-0.71566044 17:1.5676609 18:-0.1142002 19:-0.53414579 20:-0.087490011 21:-0.54002754 22:-0.42724496 23:-0.39633641 24:-0.26902182 
2 0 1:-1.8975788 2:-0.67463021 3:-0.41733162 4:-0.15256912 5:-1.0499788 6:-0.68320228 7:-0.84706457 8:-0.53910532 9:-0.46838571 10:-0.63700309 11:-0.29252495 12:-0.2243018 13:-0.41806902 14:-0.29133492 15:-1.3909512 16:-0.71566044 17:-0.6019104 18:-0.1142002 19:-0.53414579 20:-0.087490011 21:-0.54002754 22:-0.42724496 23:-0.39633641 24:-0.26902182 
0.4101617920171169 0.9995142502253564 1:0.49096569 2:1.4054277 3:-0.41733162 4:-0.15256912 5:-1.0499788 6:-0.68320228 7:-0.84706457 8:-0.53910532 9:-0.46838571 10:-0.63700309 11:-0.29252495 12:-0.2243018 13:-0.41806902 14:-0.29133492 15:0.68190874 16:-0.71566044 17:-0.6019104 18:-0.1142002 19:1.7546347 20:-0.087490011 21:1.7367395 22:-0.42724496 23:-0.39633641 24:3.1858799 
0.3164289075932391 0.7331053008505548 1:-1.8975788 2:-0.67463021 3:2.1996038 4:-0.15256912 5:0.90860449 6:-0.68320228 7:1.1254849 8:-0.53910532 9:-0.46838571 10:-0.63700309 11:-0.29252495 12:-0.2243018 13:2.1961334 14:-0.29133492 15:0.68190874 16:1.3274026 17:-0.6019104 18:-0.1142002 19:-0.53414579 20:-0.087490011 21:1.7367395 22:2.1537934 23:-0.39633641 24:-0.26902182 
0 1.018837207290687 1:0.49096569 2:1.4054277 3:-0.41733162 4:-0.15256912 5:0.90860449 6:-0.68320228 7:1.1254849 8:-0.53910532 9:1.9814768 10:1.4851236 11:-0.29252495 12:-0.2243018 13:-0.41806902 14:-0.29133492 15:0.68190874 16:-0.71566044 17:-0.6019104 18:-0.1142002 19:-0.53414579 20:-0.087490011 21:-0.54002754 22:-0.42724496 23:2.3029104 24:-0.26902182 
2 0 1:0.49096569 2:-0.67463021 3:-0.41733162 4:-0.15256912 5:-1.0499788 6:-0.68320228 7:-0.84706457 8:-0.53910532 9:-0.46838571 10:-0.63700309 11:-0.29252495 12:-0.2243018 13:-0.41806902 14:-0.29133492 15:-1.3909512 16:-0.71566044 17:-0.6019104 18:-0.1142002 19:1.7546347 20:-0.087490011 21:-0.54002754 22:-0.42724496 23:-0.39633641 24:-0.26902182 
0 2 1:0.49096569 2:-0.67463021 3:-0.41733162 4:-0.15256912 5:0.90860449 6:1.3884083 7:1.1254849 8:-0.53910532 9:1.9814768 10:1.4851236 11:-0.29252495 12:-0.2243018 13:-0.41806902 14:-0.29133492 15:0.68190874 16:1.3274026 17:1.5676609 18:-0.1142002 19:-0.53414579 20:-0.087490011 21:1.7367395 22:2.1537934 23:-0.39633641 24:-0.26902182 
0.4091193588804918 0.9201445089278942 1:0.49096569 2:1.4054277 3:2.1996038 4:-0.15256912 5:0.90860449 6:-0.68320228 7:1.1254849 8:-0.53910532 9:1.9814768 10:1.4851236 11:-0.29252495 12:-0.2243018 13:-0.41806902 14:-0.29133492 15:0.68190874 16:1.3274026 17:1.5676609 18:-0.1142002 19:-0.53414579 20:-0.087490011 21:-0.54002754 22:-0.42724496 23:2.3029104 24:-0.26902182 
0.4377423494176472 0.8781541067239971 1:0.49096569 2:-0.67463021 3:2.1996038 4:-0.15256912 5:0.90860449 6:1.3884083 7:1.1254849 8:-0.53910532 9:1.9814768 10:1.4851236 11:-0.29252495 12:-0.2243018 13:-0.41806902 14:-0.29133492 15:0.68190874 16:-0.71566044 17:-0.6019104 18:-0.1142002 19:1.7546347 20:-0.087490011 21:-0.54002754 22:-0.42724496 23:-0.39633641 24:-0.26902182 
2 0 1:0.49096569 2:-0.67463021 3:-0.41733162 4:-0.15256912 5:-1.0499788 6:-0.68320228 7:-0.84706457 8:-0.53910532 9:-0.46838571 10:-0.63700309 11:-0.29252495 12:-0.2243018 13:-0.41806902 14:-0.29133492 15:0.68190874 16:-0.71566044 17:1.5676609 18:-0.1142002 19:-0.53414579 20:-0.087490011 21:-0.54002754 22:-0.42724496 23:-0.39633641 24:-0.26902182 
0 2 1:0.49096569 2:-0.67463021 3:-0.41733162 4:-0.15256912 5:0.90860449 6:1.3884083 7:1.1254849 8:-0.53910532 9:-0.46838571 10:-0.63700309 11:-0.29252495 12:-0.2243018 13:2.1961334 14:-0.29133492 15:0.68190874 16:-0.71566044 17:-0.6019104 18:-0.1142002 19:-0.53414579 20:-0.087490011 21:-0.54002754 22:-0.42724496 23:-0.39633641 24:-0.26902182 
0.4431237634543439 1.016898707173395 1:0.49096569 2:-0.67463021 3:-0.41733162 4:-0.15256912 5:0.90860449 6:1.3884083 7:1.1254849 8:1.7395223 9:1.9814768 10:1.4851236 11:-0.29252495 12:3.6549877 13:-0.41806902 14:2.9899259 15:0.68190874 16:-0.71566044 17:-0.6019104 18:-0.1142002 19:-0.53414579 20:-0.087490011 21:-0.54002754 22:2.1537934 23:-0.39633641 24:-0.26902182 
0.4432929691759523 1.005235420425325 1:0.49096569 2:-0.67463021 3:2.1996038 4:-0.15256912 5:0.90860449 6:1.3884083 7:-0.84706457 8:-0.53910532 9:-0.46838571 10:-0.63700309 11:-0.29252495 12:-0.2243018 13:-0.41806902 14:2.9899259 15:0.68190874 16:-0.71566044 17:-0.6019104 18:-0.1142002 19:-0.53414579 20:-0.087490011 21:1.7367395 22:-0.42724496 23:-0.39633641 24:-0.26902182 
0 2 1:0.49096569 2:-0.67463021 3:-0.41733162 4:-0.15256912 5:-1.0499788 6:-0.68320228 7:-0.84706457 8:-0.53910532 9:-0.46838571 10:-0.63700309 11:-0.29252495 12:-0.2243018 13:-0.41806902 14:-0.29133492 15:0.68190874 16:-0.71566044 17:1.5676609 18:-0.1142002 19:-0.53414579 20:-0.087490011 21:-0.54002754 22:2.1537934 23:-0.39633641 24:-0.26902182 
0.3328908712009461 0.8380178645051019 1:0.49096569 2:1.4054277 3:-0.41733162 4:-0.15256912 5:0.90860449 6:-0.68320228 7:-0.84706457 8:-0.53910532 9:-0.46838571 10:-0.63700309 11:-0.29252495 12:-0.2243018 13:-0.41806902 14:-0.29133492 15:0.68190874 16:-0.71566044 17:1.5676609 18:-0.1142002 19:-0.53414579 20:-0.087490011 21:1.7367395 22:2.1537934 23:-0.39633641 24:-0.26902182 
0 0.6773327358875902 1:0.49096569 2:1.4054277 3:-0.41733162 4:-0.15256912 5:0.90860449 6:1.3884083 7:-0.84706457 8:-0.53910532 9:-0.46838571 10:-0.63700309 11:-0.29252495 12:-0.2243018 13:-0.41806902 14:-0.29133492 15:0.68190874 16:-0.71566044 17:-0.6019104 18:-0.1142002 19:1.7546347 20:-0.087490011 21:-0.54002754 22:-0.42724496 23:-0.39633641 24:-0.26902182 
0.3968151518401721 1.495322877277518 1:0.49096569 2:1.4054277 3:-0.41733162 4:-0.15256912 5:0.90860449 6:1.3884083 7:-0.84706457 8:-0.53910532 9:-0.46838571 10:-0.63700309 11:-0.29252495 12:-0.2243018 13:-0.41806902 14:-0.29133492 15:0.68190874 16:-0.71566044 17:1.5676609 18:-0.1142002 19:-0.53414579 20:-0.087490011 21:-0.54002754 22:2.1537934 23:-0.39633641 24:-0.26902182 
0.4647411764058635 1.017323353128402 1:0.49096569 2:1.4054277 3:-0.41733162 4:-0.15256912 5:-1.0499788 6:-0.68320228 7:-0.84706457 8:-0.53910532 9:-0.46838571 10:-0.63700309 11:-0.29252495 12:-0.2243018 13:-0.41806902 14:2.9899259 15:0.68190874 16:1.3274026 17:-0.6019104 18:-0.1142002 19:-0.53414579 20:-0.087490011 21:-0.54002754 22:2.1537934 23:-0.39633641 24:3.1858799 
0.4359039284707675 1.030558889413725 1:0.49096569 2:-0.67463021 3:-0.41733162 4:-0.15256912 5:0.90860449 6:-0.68320228 7:1.1254849 8:1.7395223 9:-0.46838571 10:1.4851236 11:-0.29252495 12:-0.2243018 13:2.1961334 14:-0.29133492 15:0.68190874 16:-0.71566044 17:-0.6019104 18:-0.1142002 19:-0.53414579 20:-0.087490011 21:1.7367395 22:2.1537934 23:2.3029104 24:-0.26902182 
0.3031184986733888 2 1:0.49096569 2:1.4054277 3:-0.41733162 4:-0.15256912 5:0.90860449 6:1.3884083 7:1.1254849 8:-0.53910532 9:1.9814768 10:1.4851236 11:-0.29252495 12:-0.2243018 13:-0.41806902 14:-0.29133492 15:0.68190874 16:1.3274026 17:-0.6019104 18:-0.1142002 19:-0.53414579 20:-0.087490011 21:-0.54002754 22:-0.42724496 23:2.3029104 24:-0.26902182 
2 2 1:0.49096569 2:-0.67463021 3:-0.41733162 4:-0.15256912 5:-1.0499788 6:-0.68320228 7:-0.84706457 8:-0.53910532 9:-0.46838571 10:-0.63700309 11:-0.29252495 12:-0.2243018 13:-0.41806902 14:2.9899259 15:0.68190874 16:-0.71566044 17:-0.6019104 18:-0.1142002 19:-0.53414579 20:-0.087490011 21:-0.54002754 22:-0.42724496 23:-0.39633641 24:-0.26902182 
2 0 1:0.49096569 2:-0.67463021 3:-0.41733162 4:-0.15256912 5:-1.0499788 6:-0.68320228 7:-0.84706457 8:-0.53910532 9:-0.46838571 10:-0.63700309 11:-0.29252495 12:-0.2243018 13:-0.41806902 14:-0.29133492 15:-1.3909512 16:-0.71566044 17:-0.6019104 18:-0.1142002 19:1.7546347 20:-0.087490011 21:-0.54002754 22:-0.42724496 23:-0.39633641 24:-0.26902182 
0.4020144284112353 0.8894394384524082 1:0.49096569 2:1.4054277 3:2.1996038 4:-0.15256912 5:0.90860449 6:-0.68320228 7:1.1254849 8:-0.53910532 9:1.9814768 10:1.4851236 11:-0.29252495 12:-0.2243018 13:-0.41806902 14:-0.29133492 15:0.68190874 16:1.3274026 17:1.5676609 18:-0.1142002 19:1.7546347 20:-0.087490011 21:-0.54002754 22:-0.42724496 23:-0.39633641 24:-0.26902182 
0.292679427753253 2 1:0.49096569 2:-0.67463021 3:-0.41733162 4:-0.15256912 5:0.90860449 6:1.3884083 7:1.1254849 8:-0.53910532 9:1.9814768 10:1.4851236 11:-0.29252495 12:-0.2243018 13:-0.41806902 14:-0.29133492 15:0.68190874 16:-0.71566044 17:1.5676609 18:-0.1142002 19:-0.53414579 20:-0.087490011 21:1.7367395 22:-0.42724496 23:-0.39633641 24:-0.26902182 
0.1755317045290867 0 1:0.49096569 2:1.4054277 3:-0.41733162 4:-0.15256912 5:0.90860449 6:-0.68320228 7:1.1254849 8:1.7395223 9:-0.46838571 10:1.4851236 11:-0.29252495 12:-0.2243018 13:-0.41806902 14:-0.29133492 15:0.68190874 16:-0.71566044 17:1.5676609 18:-0.1142002 19:-0.53414579 20:-0.087490011 21:-0.54002754 22:-0.42724496 23:-0.39633641 24:-0.26902182 
0.4474869115616232 1.016338753090494 1:-1.8975788 2:1.4054277 3:-0.41733162 4:-0.15256912 5:0.90860449 6:-0.68320228 7:1.1254849 8:1.7395223 9:1.9814768 10:1.4851236 11:2.9800827 12:-0.2243018 13:2.1961334 14:-0.29133492 15:0.68190874 16:1.3274026 17:-0.6019104 18:-0.1142002 19:-0.53414579 20:-0.087490011 21:-0.54002754 22:-0.42724496 23:-0.39633641 24:-0.26902182 
2 0 1:-1.8975788 2:1.4054277 3:-0.41733162 4:-0.15256912 5:0.90860449 6:-0.68320228 7:1.1254849 8:-0.53910532 9:1.9814768 10:1.4851236 11:-0.29252495 12:-0.2243018 13:-0.41806902 14:-0.29133492 15:0.68190874 16:-0.71566044 17:1.5676609 18:-0.1142002 19:-0.53414579 20:-0.087490011 21:-0.54002754 22:-0.42724496 23:-0.39633641 24:-0.26902182 
2 0 1:-1.8975788 2:-0.67463021 3:2.1996038 4:-0.15256912 5:0.90860449 6:-0.68320228 7:1.1254849 8:-0.53910532 9:1.9814768 10:1.4851236 11:-0.29252495 12:-0.2243018 13:-0.41806902 14:-0.29133492 15:0.68190874 16:-0.71566044 17:-0.6019104 18:-0.1142002 19:-0.53414579 20:-0.087490011 21:-0.54002754 22:-0.42724496 23:-0.39633641 24:-0.26902182 
2 0 1:0.49096569 2:-0.67463021 3:-0.41733162 4:-0.15256912 5:-1.0499788 6:-0.68320228 7:-0.84706457 8:-0.53910532 9:-0.46838571 10:-0.63700309 11:-0.29252495 12:-0.2243018 13:-0.41806902 14:-0.29133492 15:-1.3909512 16:-0.71566044 17:-0.6019104 18:-0.1142002 19:1.7546347 20:-0.087490011 21:-0.54002754 22:-0.42724496 23:-0.39633641 24:-0.26902182 
0.3922094036737107 0.9880690771632664 1:0.49096569 2:1.4054277 3:2.1996038 4:-0.15256912 5:0.90860449 6:1.3884083 7:-0.84706457 8:-0.53910532 9:-0.46838571 10:-0.63700309 11:-0.29252495 12:-0.2243018 13:-0.41806902 14:-0.29133492 15:0.68190874 16:1.3274026 17:-0.6019104 18:-0.1142002 19:-0.53414579 20:-0.087490011 21:1.7367395 22:2.1537934 23:-0.39633641 24:-0.26902182 
0 1.028930598946274 1:0.49096569 2:-0.67463021 3:-0.41733162 4:-0.15256912 5:0.90860449 6:1.3884083 7:-0.84706457 8:-0.53910532 9:-0.46838571 10:-0.63700309 11:-0.29252495 12:-0.2243018 13:-0.41806902 14:2.9899259 15:0.68190874 16:-0.71566044 17:-0.6019104 18:-0.1142002 19:-0.53414579 20:-0.087490011 21:-0.54002754 22:-0.42724496 23:-0.39633641 24:3.1858799 
0.6137367799891331 1.060400250632762 1:0.49096569 2:-0.67463021 3:-0.41733162 4:-0.15256912 5:0.90860449 6:-0.68320228 7:1.1254849 8:-0.53910532 9:1.9814768 10:1.4851236 11:-0.29252495 12:-0.2243018 13:-0.41806902 14:2.9899259 15:0.68190874 16:1.3274026 17:-0.6019104 18:-0.1142002 19:-0.53414579 20:-0.087490011 21:-0.54002754 22:2.1537934 23:-0.39633641 24:-0.26902182 
0.4485450776308906 1.011700910062061 1:0.49096569 2:1.4054277 3:-0.41733162 4:-0.15256912 5:0.90860449 6:1.3884083 7:1.1254849 8:1.7395223 9:-0.46838571 10:-0.63700309 11:-0.29252495 12:3.6549877 13:-0.41806902 14:-0.29133492 15:0.68190874 16:1.3274026 17:1.5676609 18:-0.1142002 19:1.7546347 20:-0.087490011 21:1.7367395 22:2.1537934 23:-0.39633641 24:-0.26902182 
2 0 1:0.49096569 2:-0.67463021 3:-0.41733162 4:-0.15256912 5:-1.0499788 6:-0.68320228 7:-0.84706457 8:-0.53910532 9:-0.46838571 10:-0.63700309 11:-0.29252495 12:-0.2243018 13:-0.41806902 14:-0.29133492 15:0.68190874 16:-0.71566044 17:1.5676609 18:-0.1142002 19:-0.53414579 20:-0.087490011 21:-0.54002754 22:-0.42724496 23:-0.39633641 24:-0.26902182 
2 0 1:-1.8975788 2:-0.67463021 3:2.1996038 4:-0.15256912 5:-1.0499788 6:-0.68320228 7:-0.84706457 8:-0.53910532 9:-0.46838571 10:-0.63700309 11:-0.29252495 12:-0.2243018 13:-0.41806902 14:-0.29133492 15:-1.3909512 16:-0.71566044 17:-0.6019104 18:-0.1142002 19:-0.53414579 20:-0.087490011 21:-0.54002754 22:-0.42724496 23:-0.39633641 24:-0.26902182 
2 0 1:-1.8975788 2:1.4054277 3:2.1996038 4:-0.15256912 5:-1.0499788 6:-0.68320228 7:-0.84706457 8:-0.53910532 9:-0.46838571 10:-0.63700309 11:-0.29252495 12:-0.2243018 13:-0.41806902 14:-0.29133492 15:-1.3909512 16:-0.71566044 17:-0.6019104 18:-0.1142002 19:-0.53414579 20:-0.087490011 21:-0.54002754 22:-0.42724496 23:-0.39633641 24:-0.26902182 
2 0 1:-1.8975788 2:-0.67463021 3:2.1996038 4:-0.15256912 5:-1.0499788 6:-0.68320228 7:-0.84706457 8:-0.53910532 9:-0.46838571 10:-0.63700309 11:-0.29252495 12:-0.2243018 13:-0.41806902 14:-0.29133492 15:-1.3909512 16:-0.71566044 17:-0.6019104 18:-0.1142002 19:-0.53414579 20:-0.087490011 21:-0.54002754 22:-0.42724496 23:-0.39633641 24:-0.26902182 
2 0 1:0.49096569 2:-0.67463021 3:2.1996038 4:-0.15256912 5:-1.0499788 6:-0.68320228 7:-0.84706457 8:-0.53910532 9:-0.46838571 10:-0.63700309 11:-0.29252495 12:-0.2243018 13:-0.41806902 14:-0.29133492 15:-1.3909512 16:-0.71566044 17:-0.6019104 18:-0.1142002 19:1.7546347 20:-0.087490011 21:-0.54002754 22:-0.42724496 23:-0.39633641 24:-0.26902182 
0.3509329254999132 2 1:0.49096569 2:-0.67463021 3:-0.41733162 4:-0.15256912 5:0.90860449 6:-0.68320228 7:1.1254849 8:-0.53910532 9:1.9814768 10:1.4851236 11:-0.29252495 12:-0.2243018 13:2.1961334 14:-0.29133492 15:0.68190874 16:1.3274026 17:-0.6019104 18:-0.1142002 19:-0.53414579 20:-0.087490011 21:1.7367395 22:-0.42724496 23:2.3029104 24:-0.26902182 
2 0 1:0.49096569 2:-0.67463021 3:-0.41733162 4:-0.15256912 5:-1.0499788 6:-0.68320228 7:-0.84706457 8:-0.53910532 9:-0.46838571 10:-0.63700309 11:-0.29252495 12:-0.2243018 13:-0.41806902 14:-0.29133492 15:-1.3909512 16:-0.71566044 17:-0.6019104 18:-0.1142002 19:1.7546347 20:-0.087490011 21:-0.54002754 22:-0.42724496 23:-0.39633641 24:-0.26902182 
0 1.149015651562178 1:0.49096569 2:-0.67463021 3:-0.41733162 4:-0.15256912 5:-1.0499788 6:-0.68320228 7:-0.84706457 8:-0.53910532 9:-0.46838571 10:-0.63700309 11:-0.29252495 12:-0.2243018 13:-0.41806902 14:-0.29133492 15:0.68190874 16:-0.71566044 17:-0.6019104 18:-0.1142002 19:1.7546347 20:-0.087490011 21:-0.54002754 22:-0.42724496 23:-0.39633641 24:-0.26902182 
2 0 1:0.49096569 2:1.4054277 3:-0.41733162 4:-0.15256912 5:-1.0499788 6:-0.68320228 7:-0.84706457 8:-0.53910532 9:-0.46838571 10:-0.63700309 11:-0.29252495 12:-0.2243018 13:-0.41806902 14:-0.29133492 15:0.68190874 16:-0.71566044 17:1.5676609 18:-0.1142002 19:1.7546347 20:-0.087490011 21:-0.54002754 22:-0.42724496 23:-0.39633641 24:-0.26902182 
0.390076391051884 0.7991361393341589 1:0.49096569 2:1.4054277 3:2.1996038 4:-0.15256912 5:0.90860449 6:1.3884083 7:1.1254849 8:1.7395223 9:-0.46838571 10:1.4851236 11:-0.29252495 12:-0.2243018 13:-0.41806902 14:-0.29133492 15:0.68190874 16:-0.71566044 17:1.5676609 18:-0.1142002 19:-0.53414579 20:-0.087490011 21:-0.54002754 22:-0.42724496 23:-0.39633641 24:-0.26902182 
0.4551509936566859 1.020407341890536 1:0.49096569 2:1.4054277 3:-0.41733162 4:-0.15256912 5:0.90860449 6:-0.68320228 7:1.1254849 8:-0.53910532 9:1.9814768 10:1.4851236 11:-0.29252495 12:-0.2243018 13:-0.41806902 14:2.9899259 15:0.68190874 16:-0.71566044 17:1.5676609 18:-0.1142002 19:1.7546347 20:-0.087490011 21:1.7367395 22:2.1537934 23:-0.39633641 24:-0.26902182 
0 1.149687153254976 1:0.49096569 2:1.4054277 3:-0.41733162 4:-0.15256912 5:0.90860449 6:1.3884083 7:1.1254849 8:1.7395223 9:-0.46838571 10:1.4851236 11:-0.29252495 12:-0.2243018 13:-0.41806902 14:-0.29133492 15:0.68190874 16:1.3274026 17:1.5676609 18:-0.1142002 19:-0.53414579 20:-0.087490011 21:1.7367395 22:2.1537934 23:-0.39633641 24:-0.26902182 
0.607758717190401 0.9788772198947825 1:0.49096569 2:-0.67463021 3:2.1996038 4:-0.15256912 5:0.90860449 6:-0.68320228 7:1.1254849 8:1.7395223 9:-0.46838571 10:1.4851236 11:2.9800827 12:-0.2243018 13:-0.41806902 14:-0.29133492 15:0.68190874 16:-0.71566044 17:1.5676609 18:-0.1142002 19:-0.53414579 20:-0.087490011 21:-0.54002754 22:-0.42724496 23:-0.39633641 24:-0.26902182 
0.4477162427157983 1.010113725833763 1:0.49096569 2:-0.67463021 3:-0.41733162 4:-0.15256912 5:0.90860449 6:1.3884083 7:1.1254849 8:1.7395223 9:1.9814768 10:1.4851236 11:2.9800827 12:-0.2243018 13:-0.41806902 14:2.9899259 15:0.68190874 16:1.3274026 17:1.5676609 18:-0.1142002 19:-0.53414579 20:-0.087490011 21:1.7367395 22:-0.42724496 23:-0.39633641 24:-0.26902182 
0 2 1:0.49096569 2:1.4054277 3:-0.41733162 4:-0.15256912 5:0.90860449 6:1.3884083 7:1.1254849 8:1.7395223 9:-0.46838571 10:1.4851236 11:-0.29252495 12:-0.2243018 13:-0.41806902 14:-0.29133492 15:0.68190874 16:1.3274026 17:1.5676609 18:-0.1142002 19:-0.53414579 20:-0.087490011 21:1.7367395 22:2.1537934 23:-0.39633641 24:-0.26902182 
0 1.196737258013498 1:0.49096569 2:1.4054277 3:-0.41733162 4:-0.15256912 5:0.90860449 6:-0.68320228 7:1.1254849 8:1.7395223 9:-0.46838571 10:1.4851236 11:-0.29252495 12:-0.2243018 13:-0.41806902 14:-0.29133492 15:0.68190874 16:-0.71566044 17:-0.6019104 18:-0.1142002 19:1.7546347 20:-0.087490011 21:-0.54002754 22:-0.42724496 23:-0.39633641 24:-0.26902182 
0.2654776721269632 0.8568422486043427 1:0.49096569 2:1.4054277 3:-0.41733162 4:-0.15256912 5:0.90860449 6:1.3884083 7:1.1254849 8:1.7395223 9:-0.46838571 10:1.4851236 11:-0.29252495 12:-0.2243018 13:-0.41806902 14:-0.29133492 15:0.68190874 16:1.3274026 17:1.5676609 18:-0.1142002 19:1.7546347 20:-0.087490011 21:1.7367395 22:-0.42724496 23:-0.39633641 24:-0.26902182 
0.4492458070189151 1.061936202685621 1:-1.8975788 2:1.4054277 3:-0.41733162 4:-0.15256912 5:0.90860449 6:1.3884083 7:1.1254849 8:1.7395223 9:-0.46838571 10:-0.63700309 11:2.9800827 12:-0.2243018 13:-0.41806902 14:-0.29133492 15:0.68190874 16:1.3274026 17:1.5676609 18:-0.1142002 19:-0.53414579 20:-0.087490011 21:1.7367395 22:2.1537934 23:-0.39633641 24:-0.26902182 
2 0 1:0.49096569 2:1.4054277 3:-0.41733162 4:-0.15256912 5:-1.0499788 6:-0.68320228 7:-0.84706457 8:-0.53910532 9:-0.46838571 10:-0.63700309 11:-0.29252495 12:-0.2243018 13:-0.41806902 14:-0.29133492 15:0.68190874 16:1.3274026 17:-0.6019104 18:-0.1142002 19:-0.53414579 20:-0.087490011 21:1.7367395 22:-0.42724496 23:-0.39633641 24:-0.26902182 
0.2334415996200208 0.6600483985957231 1:0.49096569 2:-0.67463021 3:-0.41733162 4:-0.15256912 5:0.90860449 6:1.3884083 7:1.1254849 8:1.7395223 9:-0.46838571 10:1.4851236 11:-0.29252495 12:-0.2243018 13:-0.41806902 14:-0.29133492 15:0.68190874 16:1.3274026 17:1.5676609 18:-0.1142002 19:-0.53414579 20:-0.087490011 21:-0.54002754 22:-0.42724496 23:-0.39633641 24:-0.26902182 
0 0.948506282107024 1:-1.8975788 2:-0.67463021 3:2.1996038 4:-0.15256912 5:0.90860449 6:-0.68320228 7:1.1254849 8:1.7395223 9:-0.46838571 10:1.4851236 11:-0.29252495 12:-0.2243018 13:-0.41806902 14:-0.29133492 15:0.68190874 16:1.3274026 17:-0.6019104 18:-0.1142002 19:-0.53414579 20:-0.087490011 21:1.7367395 22:-0.42724496 23:-0.39633641 24:-0.26902182 
0.3195445246362813 2 1:0.49096569 2:-0.67463021 3:-0.41733162 4:-0.15256912 5:0.90860449 6:1.3884083 7:1.1254849 8:1.7395223 9:1.9814768 10:1.4851236 11:-0.29252495 12:-0.2243018 13:-0.41806902 14:-0.29133492 15:0.68190874 16:1.3274026 17:1.5676609 18:-0.1142002 19:-0.53414579 20:-0.087490011 21:-0.54002754 22:-0.42724496 23:-0.39633641 24:-0.26902182 
0.4136621421237291 0.9439420473096706 1:0.49096569 2:-0.67463021 3:2.1996038 4:-0.15256912 5:0.90860449 6:1.3884083 7:1.1254849 8:-0.53910532 9:1.9814768 10:1.4851236 11:-0.29252495 12:-0.2243018 13:2.1961334 14:-0.29133492 15:0.68190874 16:1.3274026 17:-0.6019104 18:-0.1142002 19:-0.53414579 20:-0.087490011 21:1.7367395 22:-0.42724496 23:-0.39633641 24:3.1858799 
0.2904869548786737 2 1:0.49096569 2:1.4054277 3:-0.41733162 4:-0.15256912 5:0.90860449 6:1.3884083 7:1.1254849 8:1.7395223 9:-0.46838571 10:1.4851236 11:-0.29252495 12:-0.2243018 13:-0.41806902 14:-0.29133492 15:0.68190874 16:-0.71566044 17:-0.6019104 18:-0.1142002 19:1.7546347 20:-0.087490011 21:-0.54002754 22:-0.42724496 23:2.3029104 24:-0.26902182 
0.4313378451311157 1.015664910251961 1:0.49096569 2:-0.67463021 3:-0.41733162 4:-0.15256912 5:0.90860449 6:1.3884083 7:-0.84706457 8:-0.53910532 9:-0.46838571 10:-0.63700309 11:-0.29252495 12:-0.2243018 13:-0.41806902 14:-0.29133492 15:0.68190874 16:-0.71566044 17:-0.6019104 18:5.478263 19:-0.53414579 20:-0.087490011 21:-0.54002754 22:-0.42724496 23:2.3029104 24:-0.26902182 
0.4834410543974577 1.295831167291021 1:0.49096569 2:-0.67463021 3:2.1996038 4:-0.15256912 5:0.90860449 6:1.3884083 7:1.1254849 8:1.7395223 9:1.9814768 10:1.4851236 11:-0.29252495 12:-0.2243018 13:-0.41806902 14:-0.29133492 15:0.68190874 16:1.3274026 17:1.5676609 18:-0.1142002 19:-0.53414579 20:-0.087490011 21:1.7367395 22:2.1537934 23:2.3029104 24:-0.26902182 
0.2857193621631013 1.093377206180468 1:0.49096569 2:-0.67463021 3:-0.41733162 4:-0.15256912 5:0.90860449 6:1.3884083 7:1.1254849 8:-0.53910532 9:1.9814768 10:1.4851236 11:-0.29252495 12:-0.2243018 13:-0.41806902 14:-0.29133492 15:0.68190874 16:1.3274026 17:1.5676609 18:-0.1142002 19:-0.53414579 20:-0.087490011 21:1.7367395 22:-0.42724496 23:2.3029104 24:-0.26902182 
0.4163140344205435 0.9558085617358352 1:0.49096569 2:1.4054277 3:-0.41733162 4:-0.15256912 5:0.90860449 6:1.3884083 7:1.1254849 8:1.7395223 9:1.9814768 10:1.4851236 11:2.9800827 12:-0.2243018 13:-0.41806902 14:-0.29133492 15:0.68190874 16:-0.71566044 17:-0.6019104 18:-0.1142002 19:1.7546347 20:-0.087490011 21:-0.54002754 22:-0.42724496 23:-0.39633641 24:-0.26902182 
0 2 1:0.49096569 2:1.4054277 3:-0.41733162 4:-0.15256912 5:0.90860449 6:1.3884083 7:1.1254849 8:1.7395223 9:-0.46838571 10:1.4851236 11:-0.29252495 12:-0.2243018 13:-0.41806902 14:-0.29133492 15:0.68190874 16:1.3274026 17:1.5676609 18:-0.1142002 19:-0.53414579 20:-0.087490011 21:-0.54002754 22:-0.42724496 23:-0.39633641 24:-0.26902182 
2 0 1:0.49096569 2:1.4054277 3:-0.41733162 4:-0.15256912 5:-1.0499788 6:-0.68320228 7:-0.84706457 8:-0.53910532 9:-0.46838571 10:-0.63700309 11:-0.29252495 12:-0.2243018 13:-0.41806902 14:-0.29133492 15:-1.3909512 16:-0.71566044 17:-0.6019104 18:-0.1142002 19:1.7546347 20:-0.087490011 21:-0.54002754 22:-0.42724496 23:-0.39633641 24:-0.26902182 
0.4981490120198132 0.9263812708231228 1:0.49096569 2:1.4054277 3:2.1996038 4:-0.15256912 5:0.90860449 6:-0.68320228 7:1.1254849 8:1.7395223 9:1.9814768 10:1.4851236 11:-0.29252495 12:-0.2243018 13:-0.41806902 14:-0.29133492 15:0.68190874 16:1.3274026 17:1.5676609 18:-0.1142002 19:-0.53414579 20:-0.087490011 21:-0.54002754 22:-0.42724496 23:-0.39633641 24:-0.26902182 
0.3053942971012426 1.85533357481054 1:-1.8975788 2:-0.67463021 3:2.1996038 4:-0.15256912 5:0.90860449 6:-0.68320228 7:1.1254849 8:1.7395223 9:-0.46838571 10:1.4851236 11:-0.29252495 12:-0.2243018 13:-0.41806902 14:-0.29133492 15:0.68190874 16:1.3274026 17:-0.6019104 18:-0.1142002 19:-0.53414579 20:-0.087490011 21:1.7367395 22:-0.42724496 23:-0.39633641 24:-0.26902182 
0.4680802279742718 1.000050855732197 1:-1.8975788 2:-0.67463021 3:2.1996038 4:-0.15256912 5:0.90860449 6:1.3884083 7:1.1254849 8:1.7395223 9:1.9814768 10:-0.63700309 11:2.9800827 12:3.6549877 13:-0.41806902 14:-0.29133492 15:0.68190874 16:-0.71566044 17:-0.6019104 18:-0.1142002 19:-0.53414579 20:-0.087490011 21:-0.54002754 22:-0.42724496 23:-0.39633641 24:-0.26902182 
2 0 1:-1.8975788 2:-0.67463021 3:2.1996038 4:-0.15256912 5:-1.0499788 6:-0.68320228 7:-0.84706457 8:-0.53910532 9:-0.46838571 10:-0.63700309 11:-0.29252495 12:-0.2243018 13:-0.41806902 14:-0.29133492 15:-1.3909512 16:-0.71566044 17:-0.6019104 18:-0.1142002 19:-0.53414579 20:-0.087490011 21:-0.54002754 22:-0.42724496 23:-0.39633641 24:-0.26902182 
0.6548484478590353 0.9698259447792762 1:0.49096569 2:-0.67463021 3:-0.41733162 4:-0.15256912 5:0.90860449 6:1.3884083 7:1.1254849 8:-0.53910532 9:1.9814768 10:1.4851236 11:-0.29252495 12:-0.2243018 13:-0.41806902 14:-0.29133492 15:0.68190874 16:1.3274026 17:-0.6019104 18:-0.1142002 19:-0.53414579 20:-0.087490011 21:1.7367395 22:2.1537934 23:-0.39633641 24:-0.26902182 
0.4299129916675732 1.102434320750847 1:0.49096569 2:-0.67463021 3:2.1996038 4:-0.15256912 5:0.90860449 6:1.3884083 7:1.1254849 8:1.7395223 9:-0.46838571 10:1.4851236 11:2.9800827 12:-0.2243018 13:-0.41806902 14:-0.29133492 15:0.68190874 16:1.3274026 17:-0.6019104 18:-0.1142002 19:-0.53414579 20:-0.087490011 21:1.7367395 22:2.1537934 23:-0.39633641 24:-0.26902182 
0.2641690390329315 0.7414046221646546 1:0.49096569 2:1.4054277 3:-0.41733162 4:-0.15256912 5:0.90860449 6:1.3884083 7:1.1254849 8:-0.53910532 9:1.9814768 10:1.4851236 11:-0.29252495 12:-0.2243018 13:-0.41806902 14:-0.29133492 15:0.68190874 16:-0.71566044 17:1.5676609 18:-0.1142002 19:-0.53414579 20:-0.087490011 21:1.7367395 22:-0.42724496 23:-0.39633641 24:-0.26902182 
0.3923036062491294 0.9190083224326797 1:0.49096569 2:1.4054277 3:-0.41733162 4:-0.15256912 5:0.90860449 6:-0.68320228 7:1.1254849 8:-0.53910532 9:1.9814768 10:1.4851236 11:-0.29252495 12:-0.2243018 13:-0.41806902 14:2.9899259 15:0.68190874 16:-0.71566044 17:1.5676609 18:-0.1142002 19:-0.53414579 20:-0.087490011 21:1.7367395 22:2.1537934 23:2.3029104 24:-0.26902182 
0.4191302836514648 0.9428017290741957 1:-1.8975788 2:-0.67463021 3:-0.41733162 4:-0.15256912 5:0.90860449 6:-0.68320228 7:1.1254849 8:-0.53910532 9:-0.46838571 10:-0.63700309 11:-0.29252495 12:-0.2243018 13:2.1961334 14:-0.29133492 15:0.68190874 16:1.3274026 17:1.5676609 18:-0.1142002 19:1.7546347 20:-0.087490011 21:-0.54002754 22:2.1537934 23:-0.39633641 24:-0.26902182 
2 2 1:0.49096569 2:-0.67463021 3:-0.41733162 4:-0.15256912 5:0.90860449 6:1.3884083 7:-0.84706457 8:-0.53910532 9:-0.46838571 10:-0.63700309 11:-0.29252495 12:-0.2243018 13:-0.41806902 14:2.9899259 15:0.68190874 16:1.3274026 17:-0.6019104 18:-0.1142002 19:-0.53414579 20:-0.087490011 21:-0.54002754 22:-0.42724496 23:-0.39633641 24:-0.26902182 
0.532619805728336 1.15687920739257 1:0.49096569 2:1.4054277 3:-0.41733162 4:-0.15256912 5:0.90860449 6:1.3884083 7:1.1254849 8:1.7395223 9:1.9814768 10:1.4851236 11:-0.29252495 12:-0.2243018 13:2.1961334 14:-0.29133492 15:0.68190874 16:1.3274026 17:1.5676609 18:-0.1142002 19:1.7546347 20:-0.087490011 21:1.7367395 22:2.1537934 23:-0.39633641 24:-0.26902182 
0.6238952083273943 2 1:0.49096569 2:1.4054277 3:-0.41733162 4:-0.15256912 5:0.90860449 6:1.3884083 7:1.1254849 8:1.7395223 9:1.9814768 10:1.4851236 11:-0.29252495 12:-0.2243018 13:2.1961334 14:-0.29133492 15:0.68190874 16:1.3274026 17:1.5676609 18:-0.1142002 19:-0.53414579 20:-0.087490011 21:-0.54002754 22:2.1537934 23:-0.39633641 24:-0.26902182 
0 2 1:0.49096569 2:-0.67463021 3:-0.41733162 4:-0.15256912 5:0.90860449 6:1.3884083 7:-0.84706457 8:-0.53910532 9:-0.46838571 10:-0.63700309 11:-0.29252495 12:-0.2243018 13:-0.41806902 14:-0.29133492 15:0.68190874 16:-0.71566044 17:1.5676609 18:-0.1142002 19:-0.53414579 20:-0.087490011 21:-0.54002754 22:2.1537934 23:-0.39633641 24:-0.26902182 
2 0 1:-1.8975788 2:-0.67463021 3:2.1996038 4:-0.15256912 5:0.90860449 6:1.3884083 7:-0.84706457 8:-0.53910532 9:-0.46838571 10:-0.63700309 11:-0.29252495 12:-0.2243018 13:-0.41806902 14:-0.29133492 15:0.68190874 16:-0.71566044 17:1.5676609 18:-0.1142002 19:-0.53414579 20:-0.087490011 21:-0.54002754 22:-0.42724496 23:-0.39633641 24:-0.26902182 
0.4385267289047018 1.005647068768819 1:0.49096569 2:1.4054277 3:-0.41733162 4:-0.15256912 5:0.90860449 6:1.3884083 7:1.1254849 8:-0.53910532 9:1.9814768 10:1.4851236 11:-0.29252495 12:-0.2243018 13:2.1961334 14:2.9899259 15:0.68190874 16:1.3274026 17:1.5676609 18:-0.1142002 19:1.7546347 20:-0.087490011 21:1.7367395 22:2.1537934 23:2.3029104 24:3.1858799 
1.178168521516763 0 1:0.49096569 2:-0.67463021 3:-0.41733162 4:-0.15256912 5:0.90860449 6:-0.68320228 7:1.1254849 8:-0.53910532 9:1.9814768 10:1.4851236 11:-0.29252495 12:-0.2243018 13:-0.41806902 14:-0.29133492 15:0.68190874 16:-0.71566044 17:-0.6019104 18:-0.1142002 19:-0.53414579 20:-0.087490011 21:-0.54002754 22:-0.42724496 23:-0.39633641 24:-0.26902182 
0.5039225829681966 0.9440600188387196 1:0.49096569 2:-0.67463021 3:-0.41733162 4:-0.15256912 5:-1.0499788 6:-0.68320228 7:-0.84706457 8:-0.53910532 9:-0.46838571 10:-0.63700309 11:-0.29252495 12:-0.2243018 13:-0.41806902 14:-0.29133492 15:0.68190874 16:1.3274026 17:-0.6019104 18:-0.1142002 19:-0.53414579 20:-0.087490011 21:1.7367395 22:-0.42724496 23:-0.39633641 24:3.1858799 
0.4251961773915919 1.136608228742608 1:0.49096569 2:1.4054277 3:-0.41733162 4:-0.15256912 5:0.90860449 6:1.3884083 7:1.1254849 8:-0.53910532 9:1.9814768 10:1.4851236 11:-0.29252495 12:3.6549877 13:2.1961334 14:-0.29133492 15:0.68190874 16:1.3274026 17:1.5676609 18:-0.1142002 19:-0.53414579 20:-0.087490011 21:1.7367395 22:2.1537934 23:2.3029104 24:-0.26902182 
0 2 1:0.49096569 2:-0.67463021 3:-0.41733162 4:-0.15256912 5:0.90860449 6:1.3884083 7:1.1254849 8:-0.53910532 9:1.9814768 10:1.4851236 11:-0.29252495 12:-0.2243018 13:2.1961334 14:-0.29133492 15:0.68190874 16:1.3274026 17:1.5676609 18:-0.1142002 19:-0.53414579 20:-0.087490011 21:1.7367395 22:2.1537934 23:-0.39633641 24:-0.26902182 
2 0 1:-1.8975788 2:-0.67463021 3:2.1996038 4:-0.15256912 5:-1.0499788 6:-0.68320228 7:-0.84706457 8:-0.53910532 9:-0.46838571 10:-0.63700309 11:-0.29252495 12:-0.2243018 13:-0.41806902 14:-0.29133492 15:-1.3909512 16:-0.71566044 17:-0.6019104 18:-0.1142002 19:-0.53414579 20:-0.087490011 21:-0.54002754 22:-0.42724496 23:-0.39633641 24:-0.26902182 
0.5578036493513835 1.132294384058751 1:0.49096569 2:-0.67463021 3:-0.41733162 4:-0.15256912 5:0.90860449 6:1.3884083 7:1.1254849 8:-0.53910532 9:1.9814768 10:1.4851236 11:-0.29252495 12:3.6549877 13:-0.41806902 14:-0.29133492 15:0.68190874 16:-0.71566044 17:1.5676609 18:-0.1142002 19:-0.53414579 20:-0.087490011 21:1.7367395 22:2.1537934 23:2.3029104 24:-0.26902182 
2 0 1:0.49096569 2:1.4054277 3:-0.41733162 4:-0.15256912 5:0.90860449 6:1.3884083 7:1.1254849 8:-0.53910532 9:-0.46838571 10:-0.63700309 11:-0.29252495 12:-0.2243018 13:2.1961334 14:-0.29133492 15:0.68190874 16:1.3274026 17:1.5676609 18:-0.1142002 19:-0.53414579 20:-0.087490011 21:-0.54002754 22:-0.42724496 23:-0.39633641 24:-0.26902182 
0.4263749955455547 1.0242667395919 1:0.49096569 2:1.4054277 3:-0.41733162 4:-0.15256912 5:0.90860449 6:1.3884083 7:1.1254849 8:-0.53910532 9:1.9814768 10:1.4851236 11:-0.29252495 12:3.6549877 13:-0.41806902 14:-0.29133492 15:0.68190874 16:1.3274026 17:1.5676609 18:-0.1142002 19:-0.53414579 20:-0.087490011 21:1.7367395 22:-0.42724496 23:2.3029104 24:-0.26902182 
0.3255588685510749 0.9371584013116139 1:-1.8975788 2:-0.67463021 3:-0.41733162 4:-0.15256912 5:0.90860449 6:-0.68320228 7:1.1254849 8:-0.53910532 9:-0.46838571 10:-0.63700309 11:-0.29252495 12:-0.2243018 13:2.1961334 14:-0.29133492 15:0.68190874 16:1.3274026 17:1.5676609 18:-0.1142002 19:-0.53414579 20:-0.087490011 21:-0.54002754 22:2.1537934 23:-0.39633641 24:-0.26902182 
0.4410004270615624 1.013768547141787 1:0.49096569 2:-0.67463021 3:-0.41733162 4:-0.15256912 5:0.90860449 6:1.3884083 7:1.1254849 8:1.7395223 9:1.9814768 10:1.4851236 11:-0.29252495 12:-0.2243018 13:-0.41806902 14:2.9899259 15:0.68190874 16:1.3274026 17:1.5676609 18:-0.1142002 19:1.7546347 20:-0.087490011 21:-0.54002754 22:2.1537934 23:-0.39633641 24:3.1858799 
0 2 1:0.49096569 2:-0.67463021 3:-0.41733162 4:-0.15256912 5:0.90860449 6:-0.68320228 7:1.1254849 8:-0.53910532 9:1.9814768 10:1.4851236 11:-0.29252495 12:-0.2243018 13:-0.41806902 14:-0.29133492 15:0.68190874 16:1.3274026 17:-0.6019104 18:-0.1142002 19:-0.53414579 20:-0.087490011 21:-0.54002754 22:-0.42724496 23:-0.39633641 24:-0.26902182 
0.4948414397967043 1.004664252251681 1:0.49096569 2:1.4054277 3:-0.41733162 4:-0.15256912 5:0.90860449 6:1.3884083 7:1.1254849 8:1.7395223 9:-0.46838571 10:1.4851236 11:-0.29252495 12:-0.2243018 13:2.1961334 14:-0.29133492 15:0.68190874 16:1.3274026 17:1.5676609 18:-0.1142002 19:1.7546347 20:-0.087490011 21:1.7367395 22:2.1537934 23:-0.39633641 24:3.1858799 
0.4412282638056928 0.9836638278716635 1:-1.8975788 2:-0.67463021 3:-0.41733162 4:-0.15256912 5:0.90860449 6:-0.68320228 7:1.1254849 8:-0.53910532 9:1.9814768 10:1.4851236 11:-0.29252495 12:3.6549877 13:-0.41806902 14:-0.29133492 15:0.68190874 16:1.3274026 17:-0.6019104 18:-0.1142002 19:-0.53414579 20:-0.087490011 21:-0.54002754 22:-0.42724496 23:-0.39633641 24:-0.26902182 
2 1.058348442683126 1:0.49096569 2:-0.67463021 3:-0.41733162 4:-0.15256912 5:0.90860449 6:1.3884083 7:1.1254849 8:1.7395223 9:1.9814768 10:1.4851236 11:-0.29252495 12:-0.2243018 13:2.1961334 14:-0.29133492 15:0.68190874 16:1.3274026 17:-0.6019104 18:-0.1142002 19:-0.53414579 20:-0.087490011 21:1.7367395 22:2.1537934 23:-0.39633641 24:-0.26902182 
0.2862338374580748 2 1:0.49096569 2:1.4054277 3:-0.41733162 4:-0.15256912 5:0.90860449 6:-0.68320228 7:1.1254849 8:-0.53910532 9:1.9814768 10:1.4851236 11:-0.29252495 12:-0.2243018 13:-0.41806902 14:-0.29133492 15:0.68190874 16:-0.71566044 17:-0.6019104 18:-0.1142002 19:-0.53414579 20:-0.087490011 21:-0.54002754 22:-0.42724496 23:2.3029104 24:-0.26902182 
2 2 1:0.49096569 2:-0.67463021 3:-0.41733162 4:-0.15256912 5:0.90860449 6:1.3884083 7:1.1254849 8:-0.53910532 9:1.9814768 10:1.4851236 11:-0.29252495 12:-0.2243018 13:-0.41806902 14:2.9899259 15:0.68190874 16:1.3274026 17:1.5676609 18:-0.1142002 19:-0.53414579 20:-0.087490011 21:1.7367395 22:2.1537934 23:2.3029104 24:-0.26902182 
2 0 1:-1.8975788 2:-0.67463021 3:2.1996038 4:-0.15256912 5:-1.0499788 6:-0.68320228 7:-0.84706457 8:-0.53910532 9:-0.46838571 10:-0.63700309 11:-0.29252495 12:-0.2243018 13:-0.41806902 14:-0.29133492 15:-1.3909512 16:-0.71566044 17:-0.6019104 18:-0.1142002 19:-0.53414579 20:-0.087490011 21:-0.54002754 22:-0.42724496 23:-0.39633641 24:-0.26902182 
2 0 1:0.49096569 2:-0.67463021 3:-0.41733162 4:-0.15256912 5:-1.0499788 6:-0.68320228 7:-0.84706457 8:-0.53910532 9:-0.46838571 10:-0.63700309 11:-0.29252495 12:-0.2243018 13:-0.41806902 14:-0.29133492 15:0.68190874 16:1.3274026 17:-0.6019104 18:-0.1142002 19:-0.53414579 20:-0.087490011 21:1.7367395 22:-0.42724496 23:-0.39633641 24:-0.26902182 
0.3978846170233287 1.054539173224563 1:0.49096569 2:-0.67463021 3:2.1996038 4:-0.15256912 5:0.90860449 6:-0.68320228 7:1.1254849 8:-0.53910532 9:1.9814768 10:1.4851236 11:-0.29252495 12:-0.2243018 13:2.1961334 14:-0.29133492 15:0.68190874 16:1.3274026 17:-0.6019104 18:-0.1142002 19:-0.53414579 20:-0.087490011 21:-0.54002754 22:-0.42724496 23:2.3029104 24:-0.26902182 
0.4588085916507022 1.11230505860679 1:0.49096569 2:-0.67463021 3:-0.41733162 4:-0.15256912 5:0.90860449 6:-0.68320228 7:1.1254849 8:-0.53910532 9:1.9814768 10:1.4851236 11:-0.29252495 12:-0.2243018 13:-0.41806902 14:-0.29133492 15:0.68190874 16:1.3274026 17:-0.6019104 18:-0.1142002 19:1.7546347 20:-0.087490011 21:-0.54002754 22:-0.42724496 23:-0.39633641 24:-0.26902182 
2 0 1:0.49096569 2:1.4054277 3:-0.41733162 4:-0.15256912 5:-1.0499788 6:-0.68320228 7:-0.84706457 8:-0.53910532 9:-0.46838571 10:-0.63700309 11:-0.29252495 12:-0.2243018 13:-0.41806902 14:-0.29133492 15:0.68190874 16:-0.71566044 17:1.5676609 18:-0.1142002 19:1.7546347 20:-0.087490011 21:-0.54002754 22:-0.42724496 23:-0.39633641 24:-0.26902182 
0.3714428253715563 2 1:0.49096569 2:1.4054277 3:-0.41733162 4:-0.15256912 5:0.90860449 6:1.3884083 7:1.1254849 8:1.7395223 9:-0.46838571 10:1.4851236 11:2.9800827 12:-0.2243018 13:-0.41806902 14:-0.29133492 15:0.68190874 16:-0.71566044 17:-0.6019104 18:-0.1142002 19:-0.53414579 20:-0.087490011 21:-0.54002754 22:-0.42724496 23:-0.39633641 24:-0.26902182 
0.4201710838275122 0.9607380227233479 1:-1.8975788 2:1.4054277 3:-0.41733162 4:-0.15256912 5:0.90860449 6:-0.68320228 7:1.1254849 8:1.7395223 9:1.9814768 10:-0.63700309 11:2.9800827 12:3.6549877 13:-0.41806902 14:-0.29133492 15:0.68190874 16:1.3274026 17:1.5676609 18:-0.1142002 19:-0.53414579 20:-0.087490011 21:-0.54002754 22:-0.42724496 23:-0.39633641 24:-0.26902182 
0.323377380828605 0.8235702660220808 1:0.49096569 2:1.4054277 3:2.1996038 4:-0.15256912 5:-1.0499788 6:-0.68320228 7:-0.84706457 8:-0.53910532 9:-0.46838571 10:-0.63700309 11:-0.29252495 12:-0.2243018 13:-0.41806902 14:-0.29133492 15:0.68190874 16:1.3274026 17:1.5676609 18:-0.1142002 19:-0.53414579 20:-0.087490011 21:1.7367395 22:2.1537934 23:-0.39633641 24:-0.26902182 
0.3110229575220531 0.7854636976900579 1:-1.8975788 2:1.4054277 3:2.1996038 4:-0.15256912 5:0.90860449 6:-0.68320228 7:1.1254849 8:1.7395223 9:-0.46838571 10:-0.63700309 11:2.9800827 12:-0.2243018 13:-0.41806902 14:-0.29133492 15:0.68190874 16:1.3274026 17:1.5676609 18:-0.1142002 19:-0.53414579 20:-0.087490011 21:-0.54002754 22:-0.42724496 23:2.3029104 24:-0.26902182 
2 0 1:0.49096569 2:1.4054277 3:-0.41733162 4:-0.15256912 5:-1.0499788 6:-0.68320228 7:-0.84706457 8:-0.53910532 9:-0.46838571 10:-0.63700309 11:-0.29252495 12:-0.2243018 13:-0.41806902 14:-0.29133492 15:-1.3909512 16:-0.71566044 17:-0.6019104 18:-0.1142002 19:1.7546347 20:-0.087490011 21:-0.54002754 22:-0.42724496 23:-0.39633641 24:-0.26902182 
2 0 1:0.49096569 2:-0.67463021 3:-0.41733162 4:-0.15256912 5:-1.0499788 6:-0.68320228 7:-0.84706457 8:-0.53910532 9:-0.46838571 10:-0.63700309 11:-0.29252495 12:-0.2243018 13:-0.41806902 14:-0.29133492 15:0.68190874 16:-0.71566044 17:1.5676609 18:-0.1142002 19:-0.53414579 20:-0.087490011 21:-0.54002754 22:-0.42724496 23:-0.39633641 24:-0.26902182 
0.6129697669041009 0.7610446973075287 1:-1.8975788 2:1.4054277 3:2.1996038 4:-0.15256912 5:0.90860449 6:1.3884083 7:1.1254849 8:-0.53910532 9:1.9814768 10:1.4851236 11:-0.29252495 12:-0.2243018 13:-0.41806902 14:-0.29133492 15:0.68190874 16:1.3274026 17:1.5676609 18:-0.1142002 19:-0.53414579 20:-0.087490011 21:-0.54002754 22:-0.42724496 23:-0.39633641 24:-0.26902182 
2 0 1:-1.8975788 2:-0.67463021 3:2.1996038 4:-0.15256912 5:-1.0499788 6:-0.68320228 7:-0.84706457 8:-0.53910532 9:-0.46838571 10:-0.63700309 11:-0.29252495 12:-0.2243018 13:-0.41806902 14:-0.29133492 15:-1.3909512 16:-0.71566044 17:-0.6019104 18:-0.1142002 19:-0.53414579 20:-0.087490011 21:-0.54002754 22:-0.42724496 23:-0.39633641 24:-0.26902182 
2 0 1:-1.8975788 2:-0.67463021 3:-0.41733162 4:-0.15256912 5:0.90860449 6:-0.68320228 7:1.1254849 8:-0.53910532 9:1.9814768 10:1.4851236 11:-0.29252495 12:-0.2243018 13:-0.41806902 14:-0.29133492 15:0.68190874 16:-0.71566044 17:-0.6019104 18:-0.1142002 19:-0.53414579 20:-0.087490011 21:-0.54002754 22:-0.42724496 23:-0.39633641 24:-0.26902182 
0.4423079262949137 1.010586999710783 1:-1.8975788 2:-0.67463021 3:-0.41733162 4:-0.15256912 5:0.90860449 6:1.3884083 7:1.1254849 8:-0.53910532 9:1.9814768 10:1.4851236 11:-0.29252495 12:-0.2243018 13:-0.41806902 14:-0.29133492 15:0.68190874 16:-0.71566044 17:-0.6019104 18:-0.1142002 19:-0.53414579 20:-0.087490011 21:-0.54002754 22:2.1537934 23:-0.39633641 24:3.1858799 
0.4437979697808105 1.058327079737622 1:-1.8975788 2:-0.67463021 3:-0.41733162 4:-0.15256912 5:0.90860449 6:-0.68320228 7:1.1254849 8:-0.53910532 9:1.9814768 10:1.4851236 11:-0.29252495 12:-0.2243018 13:-0.41806902 14:2.9899259 15:0.68190874 16:-0.71566044 17:1.5676609 18:-0.1142002 19:-0.53414579 20:-0.087490011 21:-0.54002754 22:-0.42724496 23:-0.39633641 24:-0.26902182 
2 0 1:-1.8975788 2:-0.67463021 3:2.1996038 4:-0.15256912 5:0.90860449 6:-0.68320228 7:1.1254849 8:-0.53910532 9:-0.46838571 10:-0.63700309 11:-0.29252495 12:-0.2243018 13:2.1961334 14:-0.29133492 15:0.68190874 16:-0.71566044 17:-0.6019104 18:-0.1142002 19:-0.53414579 20:-0.087490011 21:-0.54002754 22:-0.42724496 23:-0.39633641 24:-0.26902182 
0 2 1:0.49096569 2:-0.67463021 3:-0.41733162 4:-0.15256912 5:0.90860449 6:1.3884083 7:1.1254849 8:-0.53910532 9:-0.46838571 10:-0.63700309 11:-0.29252495 12:-0.2243018 13:2.1961334 14:-0.29133492 15:0.68190874 16:1.3274026 17:-0.6019104 18:-0.1142002 19:-0.53414579 20:-0.087490011 21:1.7367395 22:-0.42724496 23:-0.39633641 24:-0.26902182 
0.3036790430429549 0.7212903543211547 1:0.49096569 2:1.4054277 3:-0.41733162 4:-0.15256912 5:0.90860449 6:-0.68320228 7:1.1254849 8:-0.53910532 9:-0.46838571 10:-0.63700309 11:-0.29252495 12:-0.2243018 13:2.1961334 14:-0.29133492 15:0.68190874 16:-0.71566044 17:1.5676609 18:-0.1142002 19:-0.53414579 20:-0.087490011 21:1.7367395 22:-0.42724496 23:-0.39633641 24:-0.26902182 
0.4054229364121499 2 1:0.49096569 2:1.4054277 3:-0.41733162 4:-0.15256912 5:0.90860449 6:1.3884083 7:1.1254849 8:1.7395223 9:-0.46838571 10:1.4851236 11:2.9800827 12:-0.2243018 13:-0.41806902 14:-0.29133492 15:0.68190874 16:1.3274026 17:1.5676609 18:-0.1142002 19:-0.53414579 20:-0.087490011 21:1.7367395 22:-0.42724496 23:-0.39633641 24:-0.26902182 
0.4486548585529264 1.004502945396956 1:0.49096569 2:1.4054277 3:-0.41733162 4:-0.15256912 5:0.90860449 6:1.3884083 7:1.1254849 8:1.7395223 9:-0.46838571 10:-0.63700309 11:2.9800827 12:3.6549877 13:-0.41806902 14:-0.29133492 15:0.68190874 16:1.3274026 17:1.5676609 18:-0.1142002 19:-0.53414579 20:-0.087490011 21:-0.54002754 22:-0.42724496 23:-0.39633641 24:-0.26902182 
2 0 1:-1.8975788 2:-0.67463021 3:-0.41733162 4:-0.15256912 5:0.90860449 6:-0.68320228 7:1.1254849 8:-0.53910532 9:1.9814768 10:1.4851236 11:-0.29252495 12:-0.2243018 13:-0.41806902 14:-0.29133492 15:0.68190874 16:-0.71566044 17:-0.6019104 18:-0.1142002 19:-0.53414579 20:-0.087490011 21:-0.54002754 22:-0.42724496 23:-0.39633641 24:-0.26902182 
0.3890966838948828 1.148764804618544 1:0.49096569 2:-0.67463021 3:-0.41733162 4:-0.15256912 5:0.90860449 6:1.3884083 7:1.1254849 8:1.7395223 9:1.9814768 10:1.4851236 11:-0.29252495 12:-0.2243018 13:-0.41806902 14:-0.29133492 15:0.68190874 16:-0.71566044 17:-0.6019104 18:-0.1142002 19:-0.53414579 20:-0.087490011 21:-0.54002754 22:-0.42724496 23:-0.39633641 24:3.1858799 
0.523985576984896 0.630867175293522 1:-1.8975788 2:1.4054277 3:-0.41733162 4:-0.15256912 5:0.90860449 6:-0.68320228 7:1.1254849 8:1.7395223 9:-0.46838571 10:1.4851236 11:-0.29252495 12:-0.2243018 13:-0.41806902 14:-0.29133492 15:0.68190874 16:-0.71566044 17:1.5676609 18:-0.1142002 19:-0.53414579 20:-0.087490011 21:-0.54002754 22:-0.42724496 23:-0.39633641 24:-0.26902182 
0.2756370680962326 2 1:0.49096569 2:-0.67463021 3:-0.41733162 4:-0.15256912 5:0.90860449 6:1.3884083 7:1.1254849 8:1.7395223 9:-0.46838571 10:1.4851236 11:-0.29252495 12:-0.2243018 13:2.1961334 14:-0.29133492 15:0.68190874 16:1.3274026 17:-0.6019104 18:-0.1142002 19:-0.53414579 20:-0.087490011 21:-0.54002754 22:-0.42724496 23:-0.39633641 24:-0.26902182 
0.521787452180748 1.249388415274002 1:0.49096569 2:1.4054277 3:-0.41733162 4:-0.15256912 5:0.90860449 6:1.3884083 7:1.1254849 8:-0.53910532 9:1.9814768 10:1.4851236 11:-0.29252495 12:-0.2243018 13:2.1961334 14:-0.29133492 15:0.68190874 16:-0.71566044 17:1.5676609 18:-0.1142002 19:-0.53414579 20:-0.087490011 21:1.7367395 22:-0.42724496 23:-0.39633641 24:-0.26902182 
0.2418615014368019 0.5673146441111357 1:0.49096569 2:-0.67463021 3:-0.41733162 4:-0.15256912 5:0.90860449 6:-0.68320228 7:1.1254849 8:-0.53910532 9:-0.46838571 10:-0.63700309 11:-0.29252495 12:-0.2243018 13:2.1961334 14:-0.29133492 15:0.68190874 16:-0.71566044 17:1.5676609 18:-0.1142002 19:-0.53414579 20:-0.087490011 21:1.7367395 22:-0.42724496 23:-0.39633641 24:-0.26902182 
0.4106663428731603 2 1:0.49096569 2:1.4054277 3:-0.41733162 4:-0.15256912 5:0.90860449 6:1.3884083 7:1.1254849 8:-0.53910532 9:1.9814768 10:1.4851236 11:-0.29252495 12:-0.2243018 13:-0.41806902 14:-0.29133492 15:0.68190874 16:1.3274026 17:1.5676609 18:-0.1142002 19:-0.53414579 20:-0.087490011 21:1.7367395 22:2.1537934 23:-0.39633641 24:-0.26902182 
0.398789951260797 1.171675327144231 1:0.49096569 2:-0.67463021 3:-0.41733162 4:-0.15256912 5:0.90860449 6:-0.68320228 7:1.1254849 8:-0.53910532 9:-0.46838571 10:-0.63700309 11:2.9800827 12:-0.2243018 13:-0.41806902 14:-0.29133492 15:0.68190874 16:-0.71566044 17:-0.6019104 18:-0.1142002 19:-0.53414579 20:-0.087490011 21:-0.54002754 22:-0.42724496 23:-0.39633641 24:-0.26902182 
0.380993307553345 0.9654653276665728 1:0.49096569 2:1.4054277 3:-0.41733162 4:-0.15256912 5:0.90860449 6:-0.68320228 7:1.1254849 8:1.7395223 9:1.9814768 10:1.4851236 11:-0.29252495 12:-0.2243018 13:-0.41806902 14:-0.29133492 15:0.68190874 16:1.3274026 17:1.5676609 18:-0.1142002 19:1.7546347 20:-0.087490011 21:-0.54002754 22:-0.42724496 23:-0.39633641 24:-0.26902182 
0.2680671073731903 0.6424056366038178 1:0.49096569 2:1.4054277 3:-0.41733162 4:-0.15256912 5:0.90860449 6:-0.68320228 7:-0.84706457 8:-0.53910532 9:-0.46838571 10:-0.63700309 11:-0.29252495 12:-0.2243018 13:-0.41806902 14:-0.29133492 15:0.68190874 16:1.3274026 17:-0.6019104 18:-0.1142002 19:1.7546347 20:-0.087490011 21:-0.54002754 22:-0.42724496 23:-0.39633641 24:-0.26902182 
0 0.9913579715113243 1:-1.8975788 2:-0.67463021 3:2.1996038 4:-0.15256912 5:0.90860449 6:1.3884083 7:-0.84706457 8:-0.53910532 9:-0.46838571 10:-0.63700309 11:-0.29252495 12:-0.2243018 13:-0.41806902 14:-0.29133492 15:0.68190874 16:1.3274026 17:1.5676609 18:-0.1142002 19:-0.53414579 20:-0.087490011 21:-0.54002754 22:-0.42724496 23:-0.39633641 24:-0.26902182 
0.2427146833169951 2 1:0.49096569 2:-0.67463021 3:-0.41733162 4:-0.15256912 5:0.90860449 6:1.3884083 7:1.1254849 8:-0.53910532 9:1.9814768 10:1.4851236 11:-0.29252495 12:-0.2243018 13:-0.41806902 14:-0.29133492 15:0.68190874 16:1.3274026 17:-0.6019104 18:-0.1142002 19:-0.53414579 20:-0.087490011 21:-0.54002754 22:-0.42724496 23:2.3029104 24:-0.26902182 
0 1.049030450750737 1:0.49096569 2:-0.67463021 3:-0.41733162 4:-0.15256912 5:0.90860449 6:1.3884083 7:1.1254849 8:1.7395223 9:-0.46838571 10:1.4851236 11:-0.29252495 12:-0.2243018 13:-0.41806902 14:-0.29133492 15:0.68190874 16:1.3274026 17:-0.6019104 18:-0.1142002 19:-0.53414579 20:-0.087490011 21:1.7367395 22:-0.42724496 23:2.3029104 24:-0.26902182 
0 0.6687785179085779 1:0.49096569 2:-0.67463021 3:-0.41733162 4:-0.15256912 5:0.90860449 6:-0.68320228 7:1.1254849 8:-0.53910532 9:-0.46838571 10:-0.63700309 11:-0.29252495 12:-0.2243018 13:2.1961334 14:-0.29133492 15:0.68190874 16:-0.71566044 17:1.5676609 18:-0.1142002 19:-0.53414579 20:-0.087490011 21:-0.54002754 22:-0.42724496 23:-0.39633641 24:-0.26902182 
2 0 1:-1.8975788 2:1.4054277 3:-0.41733162 4:-0.15256912 5:0.90860449 6:-0.68320228 7:1.1254849 8:-0.53910532 9:1.9814768 10:1.4851236 11:-0.29252495 12:-0.2243018 13:-0.41806902 14:-0.29133492 15:0.68190874 16:-0.71566044 17:1.5676609 18:-0.1142002 19:-0.53414579 20:-0.087490011 21:-0.54002754 22:-0.42724496 23:-0.39633641 24:-0.26902182 
0.3362780079665055 0.8652159230375071 1:-1.8975788 2:1.4054277 3:2.1996038 4:-0.15256912 5:0.90860449 6:1.3884083 7:1.1254849 8:-0.53910532 9:1.9814768 10:1.4851236 11:-0.29252495 12:-0.2243018 13:2.1961334 14:-0.29133492 15:0.68190874 16:1.3274026 17:1.5676609 18:-0.1142002 19:-0.53414579 20:-0.087490011 21:1.7367395 22:2.1537934 23:2.3029104 24:-0.26902182 
0 2 1:0.49096569 2:-0.67463021 3:-0.41733162 4:-0.15256912 5:0.90860449 6:-0.68320228 7:1.1254849 8:-0.53910532 9:-0.46838571 10:-0.63700309 11:-0.29252495 12:-0.2243018 13:2.1961334 14:-0.29133492 15:0.68190874 16:-0.71566044 17:1.5676609 18:-0.1142002 19:-0.53414579 20:-0.087490011 21:-0.54002754 22:-0.42724496 23:-0.39633641 24:-0.26902182 
0.4315367205905945 0.990143061732445 1:0.49096569 2:1.4054277 3:2.1996038 4:-0.15256912 5:0.90860449 6:1.3884083 7:1.1254849 8:-0.53910532 9:1.9814768 10:1.4851236 11:-0.29252495 12:-0.2243018 13:-0.41806902 14:2.9899259 15:0.68190874 16:1.3274026 17:1.5676609 18:-0.1142002 19:-0.53414579 20:-0.087490011 21:1.7367395 22:2.1537934 23:-0.39633641 24:-0.26902182 
2 0 1:-1.8975788 2:-0.67463021 3:2.1996038 4:-0.15256912 5:0.90860449 6:1.3884083 7:1.1254849 8:-0.53910532 9:1.9814768 10:1.4851236 11:-0.29252495 12:-0.2243018 13:-0.41806902 14:-0.29133492 15:0.68190874 16:-0.71566044 17:-0.6019104 18:-0.1142002 19:-0.53414579 20:-0.087490011 21:-0.54002754 22:-0.42724496 23:-0.39633641 24:-0.26902182 
0.5263196337011657 1.161640465327355 1:0.49096569 2:-0.67463021 3:-0.41733162 4:-0.15256912 5:0.90860449 6:-0.68320228 7:1.1254849 8:1.7395223 9:-0.46838571 10:-0.63700309 11:2.9800827 12:-0.2243018 13:-0.41806902 14:-0.29133492 15:0.68190874 16:-0.71566044 17:1.5676609 18:-0.1142002 19:-0.53414579 20:-0.087490011 21:-0.54002754 22:-0.42724496 23:-0.39633641 24:-0.26902182 
0 2 1:0.49096569 2:1.4054277 3:-0.41733162 4:-0.15256912 5:0.90860449 6:1.3884083 7:-0.84706457 8:-0.53910532 9:-0.46838571 10:-0.63700309 11:-0.29252495 12:-0.2243018 13:-0.41806902 14:-0.29133492 15:0.68190874 16:-0.71566044 17:-0.6019104 18:-0.1142002 19:1.7546347 20:-0.087490011 21:-0.54002754 22:-0.42724496 23:-0.39633641 24:-0.26902182 
0 1.189835614808229 1:0.49096569 2:-0.67463021 3:-0.41733162 4:-0.15256912 5:0.90860449 6:1.3884083 7:1.1254849 8:1.7395223 9:-0.46838571 10:1.4851236 11:-0.29252495 12:-0.2243018 13:-0.41806902 14:-0.29133492 15:0.68190874 16:-0.71566044 17:1.5676609 18:-0.1142002 19:-0.53414579 20:-0.087490011 21:-0.54002754 22:2.1537934 23:-0.39633641 24:-0.26902182 
2 0 1:-1.8975788 2:-0.67463021 3:-0.41733162 4:-0.15256912 5:-1.0499788 6:-0.68320228 7:-0.84706457 8:-0.53910532 9:-0.46838571 10:-0.63700309 11:-0.29252495 12:-0.2243018 13:-0.41806902 14:-0.29133492 15:0.68190874 16:-0.71566044 17:1.5676609 18:-0.1142002 19:-0.53414579 20:-0.087490011 21:-0.54002754 22:-0.42724496 23:-0.39633641 24:-0.26902182 
0.5885995771068356 1.095236802404773 1:0.49096569 2:-0.67463021 3:-0.41733162 4:-0.15256912 5:0.90860449 6:1.3884083 7:-0.84706457 8:-0.53910532 9:-0.46838571 10:-0.63700309 11:-0.29252495 12:-0.2243018 13:-0.41806902 14:-0.29133492 15:0.68190874 16:1.3274026 17:1.5676609 18:-0.1142002 19:-0.53414579 20:-0.087490011 21:-0.54002754 22:-0.42724496 23:-0.39633641 24:3.1858799 
0.3340600525848175 0.9148402350703687 1:0.49096569 2:1.4054277 3:-0.41733162 4:-0.15256912 5:0.90860449 6:1.3884083 7:1.1254849 8:-0.53910532 9:1.9814768 10:1.4851236 11:-0.29252495 12:-0.2243018 13:-0.41806902 14:2.9899259 15:0.68190874 16:1.3274026 17:1.5676609 18:-0.1142002 19:-0.53414579 20:-0.087490011 21:1.7367395 22:2.1537934 23:2.3029104 24:-0.26902182 
0.3789962602480889 1.050749303555995 1:-1.8975788 2:-0.67463021 3:-0.41733162 4:-0.15256912 5:0.90860449 6:1.3884083 7:1.1254849 8:1.7395223 9:-0.46838571 10:1.4851236 11:-0.29252495 12:-0.2243018 13:-0.41806902 14:-0.29133492 15:0.68190874 16:1.3274026 17:1.5676609 18:-0.1142002 19:-0.53414579 20:-0.087490011 21:-0.54002754 22:2.1537934 23:-0.39633641 24:-0.26902182 
0.4043317506253244 0.7136531562234649 1:0.49096569 2:-0.67463021 3:-0.41733162 4:-0.15256912 5:0.90860449 6:1.3884083 7:1.1254849 8:-0.53910532 9:1.9814768 10:1.4851236 11:-0.29252495 12:-0.2243018 13:-0.41806902 14:-0.29133492 15:0.68190874 16:1.3274026 17:-0.6019104 18:-0.1142002 19:-0.53414579 20:-0.087490011 21:-0.54002754 22:2.1537934 23:-0.39633641 24:-0.26902182 
0.4177839320428061 0.9694563442888946 1:-1.8975788 2:1.4054277 3:-0.41733162 4:-0.15256912 5:0.90860449 6:1.3884083 7:-0.84706457 8:-0.53910532 9:-0.46838571 10:-0.63700309 11:-0.29252495 12:-0.2243018 13:-0.41806902 14:-0.29133492 15:0.68190874 16:-0.71566044 17:-0.6019104 18:-0.1142002 19:1.7546347 20:-0.087490011 21:-0.54002754 22:-0.42724496 23:-0.39633641 24:3.1858799 
1.138949856014931 0 1:0.49096569 2:-0.67463021 3:-0.41733162 4:-0.15256912 5:0.90860449 6:-0.68320228 7:1.1254849 8:-0.53910532 9:-0.46838571 10:-0.63700309 11:2.9800827 12:-0.2243018 13:-0.41806902 14:-0.29133492 15:0.68190874 16:-0.71566044 17:1.5676609 18:-0.1142002 19:-0.53414579 20:-0.087490011 21:-0.54002754 22:-0.42724496 23:-0.39633641 24:-0.26902182 
0.448711574170727 2 1:0.49096569 2:1.4054277 3:-0.41733162 4:-0.15256912 5:0.90860449 6:1.3884083 7:1.1254849 8:1.7395223 9:-0.46838571 10:-0.63700309 11:2.9800827 12:-0.2243018 13:-0.41806902 14:2.9899259 15:0.68190874 16:-0.71566044 17:-0.6019104 18:-0.1142002 19:-0.53414579 20:-0.087490011 21:-0.54002754 22:2.1537934 23:-0.39633641 24:-0.26902182 
2 0.5632221183676269 1:0.49096569 2:1.4054277 3:2.1996038 4:-0.15256912 5:0.90860449 6:1.3884083 7:1.1254849 8:-0.53910532 9:1.9814768 10:1.4851236 11:-0.29252495 12:-0.2243018 13:-0.41806902 14:-0.29133492 15:0.68190874 16:1.3274026 17:1.5676609 18:-0.1142002 19:-0.53414579 20:-0.087490011 21:-0.54002754 22:-0.42724496 23:-0.39633641 24:-0.26902182 
0 2 1:0.49096569 2:1.4054277 3:-0.41733162 4:-0.15256912 5:0.90860449 6:1.3884083 7:1.1254849 8:-0.53910532 9:1.9814768 10:1.4851236 11:-0.29252495 12:-0.2243018 13:-0.41806902 14:-0.29133492 15:0.68190874 16:1.3274026 17:1.5676609 18:-0.1142002 19:-0.53414579 20:-0.087490011 21:1.7367395 22:-0.42724496 23:-0.39633641 24:-0.26902182 
0.4484815354510411 2 1:0.49096569 2:1.4054277 3:-0.41733162 4:-0.15256912 5:0.90860449 6:-0.68320228 7:1.1254849 8:1.7395223 9:-0.46838571 10:-0.63700309 11:2.9800827 12:-0.2243018 13:2.1961334 14:-0.29133492 15:0.68190874 16:1.3274026 17:-0.6019104 18:-0.1142002 19:-0.53414579 20:-0.087490011 21:-0.54002754 22:2.1537934 23:-0.39633641 24:-0.26902182 
0 1.173299230476577 1:0.49096569 2:1.4054277 3:-0.41733162 4:-0.15256912 5:0.90860449 6:1.3884083 7:1.1254849 8:-0.53910532 9:1.9814768 10:1.4851236 11:-0.29252495 12:-0.2243018 13:-0.41806902 14:-0.29133492 15:0.68190874 16:1.3274026 17:1.5676609 18:-0.1142002 19:-0.53414579 20:-0.087490011 21:1.7367395 22:2.1537934 23:2.3029104 24:-0.26902182 
0 0.8018654446424629 1:0.49096569 2:-0.67463021 3:-0.41733162 4:-0.15256912 5:0.90860449 6:1.3884083 7:1.1254849 8:1.7395223 9:-0.46838571 10:1.4851236 11:-0.29252495 12:-0.2243018 13:-0.41806902 14:-0.29133492 15:0.68190874 16:-0.71566044 17:-0.6019104 18:-0.1142002 19:-0.53414579 20:-0.087490011 21:-0.54002754 22:-0.42724496 23:2.3029104 24:-0.26902182 
0 2 1:0.49096569 2:-0.67463021 3:-0.41733162 4:-0.15256912 5:0.90860449 6:1.3884083 7:-0.84706457 8:-0.53910532 9:-0.46838571 10:-0.63700309 11:-0.29252495 12:-0.2243018 13:-0.41806902 14:-0.29133492 15:0.68190874 16:1.3274026 17:1.5676609 18:-0.1142002 19:-0.53414579 20:-0.087490011 21:-0.54002754 22:-0.42724496 23:-0.39633641 24:-0.26902182 
2 0.8244587997387397 1:-1.8975788 2:1.4054277 3:2.1996038 4:-0.15256912 5:0.90860449 6:1.3884083 7:1.1254849 8:-0.53910532 9:1.9814768 10:1.4851236 11:-0.29252495 12:-0.2243018 13:-0.41806902 14:-0.29133492 15:0.68190874 16:-0.71566044 17:1.5676609 18:-0.1142002 19:-0.53414579 20:-0.087490011 21:-0.54002754 22:-0.42724496 23:-0.39633641 24:-0.26902182 
1.166250884729351 0 1:-1.8975788 2:1.4054277 3:-0.41733162 4:-0.15256912 5:-1.0499788 6:-0.68320228 7:-0.84706457 8:-0.53910532 9:-0.46838571 10:-0.63700309 11:-0.29252495 12:-0.2243018 13:-0.41806902 14:-0.29133492 15:0.68190874 16:1.3274026 17:-0.6019104 18:-0.1142002 19:-0.53414579 20:-0.087490011 21:-0.54002754 22:-0.42724496 23:-0.39633641 24:-0.26902182 
0.3743613362335298 1.861466872745126 1:0.49096569 2:-0.67463021 3:-0.41733162 4:-0.15256912 5:0.90860449 6:1.3884083 7:-0.84706457 8:-0.53910532 9:-0.46838571 10:-0.63700309 11:-0.29252495 12:-0.2243018 13:-0.41806902 14:-0.29133492 15:0.68190874 16:1.3274026 17:-0.6019104 18:-0.1142002 19:-0.53414579 20:-0.087490011 21:-0.54002754 22:2.1537934 23:2.3029104 24:-0.26902182 
2 0 1:-1.8975788 2:-0.67463021 3:-0.41733162 4:-0.15256912 5:-1.0499788 6:-0.68320228 7:-0.84706457 8:-0.53910532 9:-0.46838571 10:-0.63700309 11:-0.29252495 12:-0.2243018 13:-0.41806902 14:-0.29133492 15:0.68190874 16:-0.71566044 17:1.5676609 18:-0.1142002 19:-0.53414579 20:-0.087490011 21:-0.54002754 22:-0.42724496 23:-0.39633641 24:-0.26902182 
0.4596592335898596 1.009595275955581 1:-1.8975788 2:1.4054277 3:-0.41733162 4:-0.15256912 5:0.90860449 6:-0.68320228 7:1.1254849 8:1.7395223 9:1.9814768 10:1.4851236 11:-0.29252495 12:-0.2243018 13:-0.41806902 14:-0.29133492 15:0.68190874 16:1.3274026 17:-0.6019104 18:-0.1142002 19:1.7546347 20:-0.087490011 21:-0.54002754 22:2.1537934 23:-0.39633641 24:-0.26902182 
0 2 1:0.49096569 2:1.4054277 3:-0.41733162 4:-0.15256912 5:0.90860449 6:1.3884083 7:1.1254849 8:-0.53910532 9:1.9814768 10:1.4851236 11:-0.29252495 12:-0.2243018 13:2.1961334 14:-0.29133492 15:0.68190874 16:1.3274026 17:1.5676609 18:-0.1142002 19:-0.53414579 20:-0.087490011 21:1.7367395 22:2.1537934 23:2.3029104 24:-0.26902182 
2 2 1:0.49096569 2:-0.67463021 3:-0.41733162 4:-0.15256912 5:0.90860449 6:1.3884083 7:1.1254849 8:-0.53910532 9:1.9814768 10:1.4851236 11:-0.29252495 12:-0.2243018 13:-0.41806902 14:-0.29133492 15:0.68190874 16:-0.71566044 17:1.5676609 18:-0.1142002 19:-0.53414579 20:-0.087490011 21:1.7367395 22:2.1537934 23:-0.39633641 24:-0.26902182 
0.4474844339967733 1.043808878726906 1:0.49096569 2:-0.67463021 3:-0.41733162 4:-0.15256912 5:0.90860449 6:1.3884083 7:1.1254849 8:1.7395223 9:1.9814768 10:1.4851236 11:-0.29252495 12:3.6549877 13:-0.41806902 14:-0.29133492 15:0.68190874 16:1.3274026 17:-0.6019104 18:-0.1142002 19:-0.53414579 20:-0.087490011 21:1.7367395 22:-0.42724496 23:-0.39633641 24:3.1858799 
0.494380871394685 1.131823973450426 1:0.49096569 2:1.4054277 3:-0.41733162 4:-0.15256912 5:0.90860449 6:1.3884083 7:1.1254849 8:1.7395223 9:-0.46838571 10:1.4851236 11:-0.29252495 12:-0.2243018 13:-0.41806902 14:2.9899259 15:0.68190874 16:-0.71566044 17:-0.6019104 18:-0.1142002 19:1.7546347 20:-0.087490011 21:-0.54002754 22:-0.42724496 23:-0.39633641 24:-0.26902182 
0 1.113877093828633 1:0.49096569 2:-0.67463021 3:-0.41733162 4:-0.15256912 5:0.90860449 6:1.3884083 7:1.1254849 8:1.7395223 9:-0.46838571 10:1.4851236 11:-0.29252495 12:-0.2243018 13:-0.41806902 14:-0.29133492 15:0.68190874 16:-0.71566044 17:-0.6019104 18:-0.1142002 19:-0.53414579 20:-0.087490011 21:1.7367395 22:-0.42724496 23:-0.39633641 24:-0.26902182 
0.6543227371782332 1.033864198772089 1:-1.8975788 2:1.4054277 3:-0.41733162 4:-0.15256912 5:0.90860449 6:-0.68320228 7:1.1254849 8:1.7395223 9:1.9814768 10:1.4851236 11:-0.29252495 12:3.6549877 13:-0.41806902 14:-0.29133492 15:0.68190874 16:1.3274026 17:1.5676609 18:-0.1142002 19:1.7546347 20:-0.087490011 21:-0.54002754 22:-0.42724496 23:-0.39633641 24:-0.26902182 
2 0 1:0.49096569 2:-0.67463021 3:-0.41733162 4:-0.15256912 5:-1.0499788 6:-0.68320228 7:-0.84706457 8:-0.53910532 9:-0.46838571 10:-0.63700309 11:-0.29252495 12:-0.2243018 13:-0.41806902 14:-0.29133492 15:-1.3909512 16:-0.71566044 17:-0.6019104 18:-0.1142002 19:1.7546347 20:-0.087490011 21:-0.54002754 22:-0.42724496 23:-0.39633641 24:-0.26902182 
0.5070619551856553 0.8574573339882271 1:0.49096569 2:1.4054277 3:2.1996038 4:-0.15256912 5:0.90860449 6:-0.68320228 7:1.1254849 8:1.7395223 9:-0.46838571 10:1.4851236 11:-0.29252495 12:-0.2243018 13:-0.41806902 14:-0.29133492 15:0.68190874 16:1.3274026 17:1.5676609 18:-0.1142002 19:1.7546347 20:-0.087490011 21:-0.54002754 22:-0.42724496 23:-0.39633641 24:-0.26902182 
0.5383884866887432 1.1809387414394 1:0.49096569 2:1.4054277 3:-0.41733162 4:-0.15256912 5:0.90860449 6:-0.68320228 7:1.1254849 8:1.7395223 9:-0.46838571 10:1.4851236 11:-0.29252495 12:-0.2243018 13:-0.41806902 14:-0.29133492 15:0.68190874 16:-0.71566044 17:1.5676609 18:-0.1142002 19:-0.53414579 20:-0.087490011 21:1.7367395 22:2.1537934 23:-0.39633641 24:3.1858799 
2 0 1:0.49096569 2:-0.67463021 3:-0.41733162 4:-0.15256912 5:-1.0499788 6:-0.68320228 7:-0.84706457 8:-0.53910532 9:-0.46838571 10:-0.63700309 11:-0.29252495 12:-0.2243018 13:-0.41806902 14:-0.29133492 15:-1.3909512 16:-0.71566044 17:-0.6019104 18:-0.1142002 19:1.7546347 20:-0.087490011 21:-0.54002754 22:-0.42724496 23:-0.39633641 24:-0.26902182 
0.4027197474185348 1.023929990114689 1:0.49096569 2:1.4054277 3:2.1996038 4:-0.15256912 5:0.90860449 6:1.3884083 7:-0.84706457 8:-0.53910532 9:-0.46838571 10:-0.63700309 11:-0.29252495 12:-0.2243018 13:-0.41806902 14:-0.29133492 15:0.68190874 16:-0.71566044 17:-0.6019104 18:-0.1142002 19:-0.53414579 20:-0.087490011 21:1.7367395 22:-0.42724496 23:2.3029104 24:-0.26902182 
0 0.8392081840057012 1:0.49096569 2:-0.67463021 3:-0.41733162 4:-0.15256912 5:0.90860449 6:1.3884083 7:-0.84706457 8:-0.53910532 9:-0.46838571 10:-0.63700309 11:-0.29252495 12:-0.2243018 13:-0.41806902 14:2.9899259 15:0.68190874 16:-0.71566044 17:-0.6019104 18:-0.1142002 19:1.7546347 20:-0.087490011 21:-0.54002754 22:-0.42724496 23:-0.39633641 24:-0.26902182 
2 0 1:0.49096569 2:-0.67463021 3:-0.41733162 4:-0.15256912 5:-1.0499788 6:-0.68320228 7:-0.84706457 8:-0.53910532 9:-0.46838571 10:-0.63700309 11:-0.29252495 12:-0.2243018 13:-0.41806902 14:-0.29133492 15:-1.3909512 16:-0.71566044 17:-0.6019104 18:-0.1142002 19:1.7546347 20:-0.087490011 21:-0.54002754 22:-0.42724496 23:-0.39633641 24:-0.26902182 
0.3999774484016341 0.9142079815292077 1:0.49096569 2:-0.67463021 3:-0.41733162 4:-0.15256912 5:0.90860449 6:1.3884083 7:-0.84706457 8:-0.53910532 9:-0.46838571 10:-0.63700309 11:-0.29252495 12:-0.2243018 13:-0.41806902 14:2.9899259 15:0.68190874 16:-0.71566044 17:-0.6019104 18:-0.1142002 19:1.7546347 20:-0.087490011 21:-0.54002754 22:-0.42724496 23:2.3029104 24:-0.26902182 
0.3776364861659864 0.7432563819618168 1:0.49096569 2:-0.67463021 3:2.1996038 4:-0.15256912 5:-1.0499788 6:-0.68320228 7:-0.84706457 8:-0.53910532 9:-0.46838571 10:-0.63700309 11:-0.29252495 12:-0.2243018 13:-0.41806902 14:-0.29133492 15:0.68190874 16:-0.71566044 17:-0.6019104 18:-0.1142002 19:1.7546347 20:-0.087490011 21:1.7367395 22:-0.42724496 23:-0.39633641 24:-0.26902182 
0 2 1:0.49096569 2:-0.67463021 3:-0.41733162 4:-0.15256912 5:0.90860449 6:1.3884083 7:-0.84706457 8:-0.53910532 9:-0.46838571 10:-0.63700309 11:-0.29252495 12:-0.2243018 13:-0.41806902 14:2.9899259 15:0.68190874 16:1.3274026 17:-0.6019104 18:-0.1142002 19:-0.53414579 20:-0.087490011 21:1.7367395 22:-0.42724496 23:-0.39633641 24:-0.26902182 
2 0 1:0.49096569 2:1.4054277 3:-0.41733162 4:-0.15256912 5:-1.0499788 6:-0.68320228 7:-0.84706457 8:-0.53910532 9:-0.46838571 10:-0.63700309 11:-0.29252495 12:-0.2243018 13:-0.41806902 14:-0.29133492 15:-1.3909512 16:-0.71566044 17:-0.6019104 18:-0.1142002 19:1.7546347 20:-0.087490011 21:-0.54002754 22:-0.42724496 23:-0.39633641 24:-0.26902182 
0.4424562199332944 1.011352122816536 1:0.49096569 2:1.4054277 3:2.1996038 4:4.7038512 5:0.90860449 6:1.3884083 7:-0.84706457 8:-0.53910532 9:-0.46838571 10:-0.63700309 11:-0.29252495 12:-0.2243018 13:-0.41806902 14:2.9899259 15:0.68190874 16:-0.71566044 17:-0.6019104 18:-0.1142002 19:1.7546347 20:-0.087490011 21:1.7367395 22:-0.42724496 23:-0.39633641 24:-0.26902182 
2 0 1:0.49096569 2:1.4054277 3:-0.41733162 4:-0.15256912 5:-1.0499788 6:-0.68320228 7:-0.84706457 8:-0.53910532 9:-0.46838571 10:-0.63700309 11:-0.29252495 12:-0.2243018 13:-0.41806902 14:-0.29133492 15:-1.3909512 16:-0.71566044 17:-0.6019104 18:-0.1142002 19:1.7546347 20:-0.087490011 21:-0.54002754 22:-0.42724496 23:-0.39633641 24:-0.26902182 
2 0 1:0.49096569 2:1.4054277 3:-0.41733162 4:-0.15256912 5:0.90860449 6:-0.68320228 7:1.1254849 8:1.7395223 9:-0.46838571 10:1.4851236 11:-0.29252495 12:-0.2243018 13:-0.41806902 14:-0.29133492 15:0.68190874 16:-0.71566044 17:1.5676609 18:-0.1142002 19:1.7546347 20:-0.087490011 21:-0.54002754 22:-0.42724496 23:-0.39633641 24:-0.26902182 
1.139453759391608 0.6877735495900436 1:0.49096569 2:1.4054277 3:-0.41733162 4:-0.15256912 5:0.90860449 6:-0.68320228 7:1.1254849 8:1.7395223 9:-0.46838571 10:1.4851236 11:-0.29252495 12:-0.2243018 13:-0.41806902 14:-0.29133492 15:0.68190874 16:1.3274026 17:-0.6019104 18:-0.1142002 19:-0.53414579 20:-0.087490011 21:1.7367395 22:-0.42724496 23:-0.39633641 24:-0.26902182 
2 0 1:0.49096569 2:-0.67463021 3:-0.41733162 4:-0.15256912 5:-1.0499788 6:-0.68320228 7:-0.84706457 8:-0.53910532 9:-0.46838571 10:-0.63700309 11:-0.29252495 12:-0.2243018 13:-0.41806902 14:-0.29133492 15:0.68190874 16:1.3274026 17:-0.6019104 18:-0.1142002 19:-0.53414579 20:-0.087490011 21:1.7367395 22:-0.42724496 23:-0.39633641 24:-0.26902182 
0.4288746856647117 0.9795956962795557 1:0.49096569 2:-0.67463021 3:2.1996038 4:-0.15256912 5:0.90860449 6:-0.68320228 7:1.1254849 8:-0.53910532 9:-0.46838571 10:-0.63700309 11:2.9800827 12:-0.2243018 13:-0.41806902 14:-0.29133492 15:0.68190874 16:1.3274026 17:1.5676609 18:-0.1142002 19:-0.53414579 20:-0.087490011 21:1.7367395 22:2.1537934 23:-0.39633641 24:-0.26902182 
2 0 1:0.49096569 2:-0.67463021 3:-0.41733162 4:-0.15256912 5:-1.0499788 6:-0.68320228 7:-0.84706457 8:-0.53910532 9:-0.46838571 10:-0.63700309 11:-0.29252495 12:-0.2243018 13:-0.41806902 14:-0.29133492 15:-1.3909512 16:-0.71566044 17:-0.6019104 18:-0.1142002 19:1.7546347 20:-0.087490011 21:-0.54002754 22:-0.42724496 23:-0.39633641 24:-0.26902182 
0.2573154451302434 0.64794483220424 1:-1.8975788 2:1.4054277 3:2.1996038 4:-0.15256912 5:-1.0499788 6:-0.68320228 7:-0.84706457 8:-0.53910532 9:-0.46838571 10:-0.63700309 11:-0.29252495 12:-0.2243018 13:-0.41806902 14:-0.29133492 15:0.68190874 16:-0.71566044 17:1.5676609 18:-0.1142002 19:-0.53414579 20:-0.087490011 21:1.7367395 22:-0.42724496 23:-0.39633641 24:-0.26902182 
0.4427437091691846 1.011421604515338 1:0.49096569 2:1.4054277 3:-0.41733162 4:4.7038512 5:0.90860449 6:1.3884083 7:1.1254849 8:-0.53910532 9:1.9814768 10:1.4851236 11:-0.29252495 12:-0.2243018 13:2.1961334 14:-0.29133492 15:0.68190874 16:1.3274026 17:-0.6019104 18:-0.1142002 19:1.7546347 20:-0.087490011 21:-0.54002754 22:2.1537934 23:-0.39633641 24:3.1858799 
2 2 1:-1.8975788 2:1.4054277 3:-0.41733162 4:-0.15256912 5:0.90860449 6:1.3884083 7:1.1254849 8:1.7395223 9:-0.46838571 10:1.4851236 11:-0.29252495 12:-0.2243018 13:-0.41806902 14:-0.29133492 15:0.68190874 16:-0.71566044 17:-0.6019104 18:-0.1142002 19:-0.53414579 20:-0.087490011 21:-0.54002754 22:-0.42724496 23:-0.39633641 24:-0.26902182 
0.4190423233437461 1.013478165964074 1:0.49096569 2:1.4054277 3:-0.41733162 4:-0.15256912 5:0.90860449 6:1.3884083 7:1.1254849 8:1.7395223 9:-0.46838571 10:1.4851236 11:2.9800827 12:-0.2243018 13:2.1961334 14:-0.29133492 15:0.68190874 16:1.3274026 17:1.5676609 18:-0.1142002 19:-0.53414579 20:-0.087490011 21:1.7367395 22:-0.42724496 23:2.3029104 24:-0.26902182 
2 0 1:0.49096569 2:1.4054277 3:-0.41733162 4:-0.15256912 5:-1.0499788 6:-0.68320228 7:-0.84706457 8:-0.53910532 9:-0.46838571 10:-0.63700309 11:-0.29252495 12:-0.2243018 13:-0.41806902 14:-0.29133492 15:0.68190874 16:1.3274026 17:-0.6019104 18:-0.1142002 19:-0.53414579 20:-0.087490011 21:1.7367395 22:-0.42724496 23:-0.39633641 24:-0.26902182 
2 0 1:0.49096569 2:-0.67463021 3:-0.41733162 4:-0.15256912 5:-1.0499788 6:-0.68320228 7:-0.84706457 8:-0.53910532 9:-0.46838571 10:-0.63700309 11:-0.29252495 12:-0.2243018 13:-0.41806902 14:-0.29133492 15:-1.3909512 16:-0.71566044 17:-0.6019104 18:-0.1142002 19:1.7546347 20:-0.087490011 21:-0.54002754 22:-0.42724496 23:-0.39633641 24:-0.26902182 
0 2 1:0.49096569 2:-0.67463021 3:-0.41733162 4:-0.15256912 5:-1.0499788 6:-0.68320228 7:-0.84706457 8:-0.53910532 9:-0.46838571 10:-0.63700309 11:-0.29252495 12:-0.2243018 13:-0.41806902 14:-0.29133492 15:0.68190874 16:-0.71566044 17:1.5676609 18:-0.1142002 19:-0.53414579 20:-0.087490011 21:1.7367395 22:2.1537934 23:-0.39633641 24:-0.26902182 
2 0 1:0.49096569 2:-0.67463021 3:-0.41733162 4:-0.15256912 5:-1.0499788 6:-0.68320228 7:-0.84706457 8:-0.53910532 9:-0.46838571 10:-0.63700309 11:-0.29252495 12:-0.2243018 13:-0.41806902 14:-0.29133492 15:-1.3909512 16:-0.71566044 17:-0.6019104 18:-0.1142002 19:1.7546347 20:-0.087490011 21:-0.54002754 22:-0.42724496 23:-0.39633641 24:-0.26902182 
0.3651968952143725 2 1:0.49096569 2:1.4054277 3:-0.41733162 4:-0.15256912 5:0.90860449 6:-0.68320228 7:1.1254849 8:1.7395223 9:-0.46838571 10:1.4851236 11:-0.29252495 12:-0.2243018 13:-0.41806902 14:-0.29133492 15:0.68190874 16:1.3274026 17:1.5676609 18:-0.1142002 19:1.7546347 20:-0.087490011 21:1.7367395 22:2.1537934 23:2.3029104 24:-0.26902182 
1.025367031746648 0 1:-1.8975788 2:-0.67463021 3:2.1996038 4:-0.15256912 5:0.90860449 6:1.3884083 7:1.1254849 8:-0.53910532 9:1.9814768 10:1.4851236 11:-0.29252495 12:-0.2243018 13:-0.41806902 14:-0.29133492 15:0.68190874 16:1.3274026 17:1.5676609 18:-0.1142002 19:-0.53414579 20:-0.087490011 21:1.7367395 22:2.1537934 23:-0.39633641 24:-0.26902182 
2 0 1:0.49096569 2:-0.67463021 3:-0.41733162 4:-0.15256912 5:-1.0499788 6:-0.68320228 7:-0.84706457 8:-0.53910532 9:-0.46838571 10:-0.63700309 11:-0.29252495 12:-0.2243018 13:-0.41806902 14:-0.29133492 15:-1.3909512 16:-0.71566044 17:-0.6019104 18:-0.1142002 19:1.7546347 20:-0.087490011 21:-0.54002754 22:-0.42724496 23:-0.39633641 24:-0.26902182 
0.5560161309867727 0.7938390935054368 1:0.49096569 2:-0.67463021 3:2.1996038 4:-0.15256912 5:-1.0499788 6:-0.68320228 7:-0.84706457 8:-0.53910532 9:-0.46838571 10:-0.63700309 11:-0.29252495 12:-0.2243018 13:-0.41806902 14:-0.29133492 15:0.68190874 16:1.3274026 17:-0.6019104 18:-0.1142002 19:1.7546347 20:-0.087490011 21:-0.54002754 22:-0.42724496 23:-0.39633641 24:-0.26902182 
0.506527225129033 0.7635286874567477 1:0.49096569 2:1.4054277 3:2.1996038 4:-0.15256912 5:0.90860449 6:1.3884083 7:1.1254849 8:1.7395223 9:-0.46838571 10:1.4851236 11:-0.29252495 12:-0.2243018 13:-0.41806902 14:-0.29133492 15:0.68190874 16:1.3274026 17:1.5676609 18:-0.1142002 19:1.7546347 20:-0.087490011 21:-0.54002754 22:-0.42724496 23:-0.39633641 24:-0.26902182 
0.3278520867286109 0.7599203514263796 1:0.49096569 2:-0.67463021 3:-0.41733162 4:-0.15256912 5:0.90860449 6:-0.68320228 7:1.1254849 8:-0.53910532 9:1.9814768 10:1.4851236 11:-0.29252495 12:-0.2243018 13:-0.41806902 14:2.9899259 15:0.68190874 16:1.3274026 17:-0.6019104 18:-0.1142002 19:-0.53414579 20:-0.087490011 21:1.7367395 22:-0.42724496 23:-0.39633641 24:-0.26902182 
0.3974490435033912 0 1:0.49096569 2:1.4054277 3:-0.41733162 4:-0.15256912 5:0.90860449 6:-0.68320228 7:1.1254849 8:-0.53910532 9:1.9814768 10:1.4851236 11:-0.29252495 12:-0.2243018 13:-0.41806902 14:-0.29133492 15:0.68190874 16:-0.71566044 17:-0.6019104 18:-0.1142002 19:-0.53414579 20:-0.087490011 21:-0.54002754 22:-0.42724496 23:-0.39633641 24:-0.26902182 
0.5551325962971356 1.365104985236081 1:-1.8975788 2:-0.67463021 3:-0.41733162 4:-0.15256912 5:-1.0499788 6:-0.68320228 7:-0.84706457 8:-0.53910532 9:-0.46838571 10:-0.63700309 11:-0.29252495 12:-0.2243018 13:-0.41806902 14:2.9899259 15:0.68190874 16:1.3274026 17:-0.6019104 18:-0.1142002 19:-0.53414579 20:-0.087490011 21:-0.54002754 22:-0.42724496 23:-0.39633641 24:-0.26902182 
0.2411863486009039 2 1:0.49096569 2:1.4054277 3:-0.41733162 4:-0.15256912 5:0.90860449 6:1.3884083 7:-0.84706457 8:-0.53910532 9:-0.46838571 10:-0.63700309 11:-0.29252495 12:-0.2243018 13:-0.41806902 14:-0.29133492 15:0.68190874 16:-0.71566044 17:1.5676609 18:-0.1142002 19:-0.53414579 20:-0.087490011 21:1.7367395 22:2.1537934 23:-0.39633641 24:-0.26902182 
0.3138236713794365 0.78303625424888 1:-1.8975788 2:1.4054277 3:-0.41733162 4:-0.15256912 5:0.90860449 6:-0.68320228 7:1.1254849 8:-0.53910532 9:1.9814768 10:1.4851236 11:-0.29252495 12:-0.2243018 13:-0.41806902 14:-0.29133492 15:0.68190874 16:1.3274026 17:1.5676609 18:-0.1142002 19:-0.53414579 20:-0.087490011 21:1.7367395 22:2.1537934 23:2.3029104 24:-0.26902182 
0.3553520353294933 0.8156804759413373 1:0.49096569 2:-0.67463021 3:2.1996038 4:-0.15256912 5:0.90860449 6:1.3884083 7:-0.84706457 8:-0.53910532 9:-0.46838571 10:-0.63700309 11:-0.29252495 12:-0.2243018 13:-0.41806902 14:-0.29133492 15:0.68190874 16:1.3274026 17:1.5676609 18:-0.1142002 19:1.7546347 20:-0.087490011 21:1.7367395 22:-0.42724496 23:-0.39633641 24:-0.26902182 
0.6208341837116499 1.01297915345431 1:-1.8975788 2:1.4054277 3:-0.41733162 4:-0.15256912 5:0.90860449 6:-0.68320228 7:1.1254849 8:-0.53910532 9:1.9814768 10:1.4851236 11:-0.29252495 12:3.6549877 13:-0.41806902 14:-0.29133492 15:0.68190874 16:-0.71566044 17:1.5676609 18:-0.1142002 19:1.7546347 20:-0.087490011 21:-0.54002754 22:2.1537934 23:-0.39633641 24:-0.26902182 
0.4485972101253855 1.03117529782835 1:0.49096569 2:1.4054277 3:-0.41733162 4:-0.15256912 5:0.90860449 6:-0.68320228 7:1.1254849 8:1.7395223 9:-0.46838571 10:-0.63700309 11:2.9800827 12:-0.2243018 13:-0.41806902 14:2.9899259 15:0.68190874 16:1.3274026 17:1.5676609 18:-0.1142002 19:-0.53414579 20:-0.087490011 21:-0.54002754 22:-0.42724496 23:2.3029104 24:-0.26902182 
2 2 1:-1.8975788 2:-0.67463021 3:-0.41733162 4:-0.15256912 5:0.90860449 6:-0.68320228 7:1.1254849 8:1.7395223 9:-0.46838571 10:1.4851236 11:-0.29252495 12:-0.2243018 13:-0.41806902 14:2.9899259 15:0.68190874 16:1.3274026 17:-0.6019104 18:-0.1142002 19:-0.53414579 20:-0.087490011 21:1.7367395 22:-0.42724496 23:-0.39633641 24:-0.26902182 
0.4391777474580512 1.006435824344581 1:-1.8975788 2:-0.67463021 3:2.1996038 4:-0.15256912 5:0.90860449 6:1.3884083 7:1.1254849 8:1.7395223 9:1.9814768 10:1.4851236 11:2.9800827 12:-0.2243018 13:2.1961334 14:-0.29133492 15:0.68190874 16:1.3274026 17:-0.6019104 18:-0.1142002 19:-0.53414579 20:-0.087490011 21:-0.54002754 22:-0.42724496 23:2.3029104 24:-0.26902182 
2 0 1:0.49096569 2:-0.67463021 3:-0.41733162 4:-0.15256912 5:0.90860449 6:-0.68320228 7:1.1254849 8:-0.53910532 9:1.9814768 10:1.4851236 11:-0.29252495 12:-0.2243018 13:-0.41806902 14:-0.29133492 15:0.68190874 16:-0.71566044 17:-0.6019104 18:-0.1142002 19:-0.53414579 20:-0.087490011 21:-0.54002754 22:-0.42724496 23:-0.39633641 24:-0.26902182 
2 0 1:0.49096569 2:1.4054277 3:-0.41733162 4:-0.15256912 5:-1.0499788 6:-0.68320228 7:-0.84706457 8:-0.53910532 9:-0.46838571 10:-0.63700309 11:-0.29252495 12:-0.2243018 13:-0.41806902 14:-0.29133492 15:-1.3909512 16:-0.71566044 17:-0.6019104 18:-0.1142002 19:1.7546347 20:-0.087490011 21:-0.54002754 22:-0.42724496 23:-0.39633641 24:-0.26902182 
2 0 1:0.49096569 2:-0.67463021 3:-0.41733162 4:-0.15256912 5:-1.0499788 6:-0.68320228 7:-0.84706457 8:-0.53910532 9:-0.46838571 10:-0.63700309 11:-0.29252495 12:-0.2243018 13:-0.41806902 14:-0.29133492 15:-1.3909512 16:-0.71566044 17:-0.6019104 18:-0.1142002 19:1.7546347 20:-0.087490011 21:-0.54002754 22:-0.42724496 23:-0.39633641 24:-0.26902182 
0 2 1:-1.8975788 2:-0.67463021 3:-0.41733162 4:4.7038512 5:-1.0499788 6:-0.68320228 7:-0.84706457 8:-0.53910532 9:-0.46838571 10:-0.63700309 11:-0.29252495 12:-0.2243018 13:-0.41806902 14:-0.29133492 15:-1.3909512 16:-0.71566044 17:-0.6019104 18:-0.1142002 19:-0.53414579 20:-0.087490011 21:-0.54002754 22:-0.42724496 23:-0.39633641 24:3.1858799 
0.4333336854105531 1.122738243236904 1:0.49096569 2:1.4054277 3:-0.41733162 4:4.7038512 5:0.90860449 6:-0.68320228 7:1.1254849 8:1.7395223 9:-0.46838571 10:1.4851236 11:-0.29252495 12:-0.2243018 13:-0.41806902 14:-0.29133492 15:0.68190874 16:-0.71566044 17:-0.6019104 18:-0.1142002 19:-0.53414579 20:-0.087490011 21:-0.54002754 22:-0.42724496 23:-0.39633641 24:-0.26902182 
0.4380168029711637 0.9742049237240209 1:-1.8975788 2:1.4054277 3:2.1996038 4:-0.15256912 5:0.90860449 6:-0.68320228 7:1.1254849 8:-0.53910532 9:1.9814768 10:1.4851236 11:-0.29252495 12:-0.2243018 13:-0.41806902 14:-0.29133492 15:0.68190874 16:1.3274026 17:1.5676609 18:-0.1142002 19:-0.53414579 20:-0.087490011 21:1.7367395 22:2.1537934 23:-0.39633641 24:-0.26902182 
