svm_type c_svc
kernel_type rbf
gamma 0.5
nr_class 3
total_sv 10810
rho -0.559753 0.0222217 0.547626
label 2 1 3
nr_sv 4666 2948 3196
SV
0.4146874983310561 2 1:0.52072998 2:1.4726161 3:-0.41817517 4:-0.14758286 5:0.94301524 6:1.4527074 7:1.1705928 8:1.8443934 9:2.1237655 10:1.5598233 11:3.4268995 12:-0.22200452 13:-0.42002519 14:-0.29103186 15:0.70989859 16:1.3849964 17:1.6506936 18:-0.093144924 19:-0.53567179 20:-0.048981228 21:1.840473 22:2.3236413 23:2.5173532 24:-0.26817107 
0.3549236262034555 0.9849958931417393 1:-1.9202374 2:-0.67901282 3:-0.41817517 4:-0.14758286 5:0.94301524 6:1.4527074 7:1.1705928 8:-0.54214312 9:-0.47082656 10:-0.64105032 11:-0.29178714 12:-0.22200452 13:2.3806315 14:-0.29103186 15:0.70989859 16:1.3849964 17:1.6506936 18:-0.093144924 19:-0.53567179 20:-0.048981228 21:1.840473 22:2.3236413 23:-0.39721291 24:-0.26817107 
0.570864503791926 1.04177133110589 1:-1.9202374 2:1.4726161 3:-0.41817517 4:-0.14758286 5:0.94301524 6:1.4527074 7:1.1705928 8:1.8443934 9:-0.47082656 10:1.5598233 11:-0.29178714 12:-0.22200452 13:-0.42002519 14:-0.29103186 15:0.70989859 16:-0.72196955 17:-0.60576065 18:-0.093144924 19:1.8666751 20:-0.048981228 21:-0.54329794 22:-0.43032683 23:-0.39721291 24:-0.26817107 
0.4387906214792788 1.001957912191853 1:0.52072998 2:-0.67901282 3:-0.41817517 4:-0.14758286 5:-1.0603489 6:-0.6883184 7:-0.85420411 8:-0.54214312 9:-0.47082656 10:-0.64105032 11:-0.29178714 12:-0.22200452 13:-0.42002519 14:-0.29103186 15:0.70989859 16:1.3849964 17:1.6506936 18:-0.093144924 19:1.8666751 20:-0.048981228 21:1.840473 22:-0.43032683 23:2.5173532 24:-0.26817107 
0.3082089124606079 1.040985406166477 1:0.52072998 2:1.4726161 3:-0.41817517 4:-0.14758286 5:0.94301524 6:-0.6883184 7:1.1705928 8:1.8443934 9:-0.47082656 10:1.5598233 11:-0.29178714 12:-0.22200452 13:-0.42002519 14:-0.29103186 15:0.70989859 16:1.3849964 17:-0.60576065 18:-0.093144924 19:-0.53567179 20:-0.048981228 21:1.840473 22:-0.43032683 23:2.5173532 24:-0.26817107 
0.4169597456128032 2 1:0.52072998 2:-0.67901282 3:-0.41817517 4:6.7753478 5:-1.0603489 6:-0.6883184 7:-0.85420411 8:-0.54214312 9:-0.47082656 10:-0.64105032 11:-0.29178714 12:-0.22200452 13:-0.42002519 14:-0.29103186 15:-1.4085465 16:-0.72196955 17:-0.60576065 18:-0.093144924 19:-0.53567179 20:-0.048981228 21:-0.54329794 22:-0.43032683 23:-0.39721291 24:3.7286841 
0.6556941352709796 1.050761719780763 1:0.52072998 2:1.4726161 3:-0.41817517 4:-0.14758286 5:0.94301524 6:-0.6883184 7:1.1705928 8:-0.54214312 9:2.1237655 10:1.5598233 11:-0.29178714 12:-0.22200452 13:-0.42002519 14:3.4357928 15:0.70989859 16:1.3849964 17:-0.60576065 18:-0.093144924 19:-0.53567179 20:-0.048981228 21:1.840473 22:-0.43032683 23:-0.39721291 24:-0.26817107 
2 2 1:0.52072998 2:1.4726161 3:-0.41817517 4:-0.14758286 5:-1.0603489 6:-0.6883184 7:-0.85420411 8:-0.54214312 9:-0.47082656 10:-0.64105032 11:-0.29178714 12:-0.22200452 13:-0.42002519 14:-0.29103186 15:0.70989859 16:1.3849964 17:1.6506936 18:-0.093144924 19:1.8666751 20:-0.048981228 21:1.840473 22:-0.43032683 23:-0.39721291 24:-0.26817107 
2 0 1:0.52072998 2:1.4726161 3:-0.41817517 4:-0.14758286 5:-1.0603489 6:-0.6883184 7:-0.85420411 8:-0.54214312 9:-0.47082656 10:-0.64105032 11:-0.29178714 12:-0.22200452 13:-0.42002519 14:-0.29103186 15:0.70989859 16:1.3849964 17:-0.60576065 18:-0.093144924 19:-0.53567179 20:-0.048981228 21:1.840473 22:-0.43032683 23:-0.39721291 24:-0.26817107 
0.4399963496351748 1.02213101086067 1:0.52072998 2:1.4726161 3:-0.41817517 4:6.7753478 5:0.94301524 6:1.4527074 7:-0.85420411 8:-0.54214312 9:-0.47082656 10:-0.64105032 11:-0.29178714 12:-0.22200452 13:-0.42002519 14:3.4357928 15:0.70989859 16:-0.72196955 17:-0.60576065 18:-0.093144924 19:-0.53567179 20:-0.048981228 21:-0.54329794 22:-0.43032683 23:-0.39721291 24:3.7286841 
0.4284253270280908 1.103445541789213 1:0.52072998 2:-0.67901282 3:-0.41817517 4:-0.14758286 5:0.94301524 6:1.4527074 7:1.1705928 8:1.8443934 9:-0.47082656 10:1.5598233 11:3.4268995 12:-0.22200452 13:-0.42002519 14:-0.29103186 15:0.70989859 16:1.3849964 17:1.6506936 18:-0.093144924 19:-0.53567179 20:-0.048981228 21:1.840473 22:-0.43032683 23:2.5173532 24:-0.26817107 
0.9036813050138793 1.061396290821715 1:-1.9202374 2:-0.67901282 3:2.3911635 4:-0.14758286 5:0.94301524 6:1.4527074 7:-0.85420411 8:-0.54214312 9:-0.47082656 10:-0.64105032 11:-0.29178714 12:-0.22200452 13:-0.42002519 14:-0.29103186 15:0.70989859 16:-0.72196955 17:-0.60576065 18:-0.093144924 19:-0.53567179 20:-0.048981228 21:1.840473 22:-0.43032683 23:-0.39721291 24:-0.26817107 
0.3893352749949333 1.015445280185208 1:0.52072998 2:-0.67901282 3:-0.41817517 4:-0.14758286 5:0.94301524 6:1.4527074 7:-0.85420411 8:-0.54214312 9:-0.47082656 10:-0.64105032 11:-0.29178714 12:-0.22200452 13:-0.42002519 14:-0.29103186 15:0.70989859 16:1.3849964 17:1.6506936 18:-0.093144924 19:1.8666751 20:-0.048981228 21:-0.54329794 22:-0.43032683 23:2.5173532 24:-0.26817107 
0 0.9516028663538154 1:0.52072998 2:1.4726161 3:-0.41817517 4:-0.14758286 5:0.94301524 6:1.4527074 7:1.1705928 8:-0.54214312 9:2.1237655 10:1.5598233 11:-0.29178714 12:-0.22200452 13:2.3806315 14:-0.29103186 15:0.70989859 16:1.3849964 17:1.6506936 18:-0.093144924 19:-0.53567179 20:-0.048981228 21:1.840473 22:2.3236413 23:2.5173532 24:-0.26817107 
0 2 1:-1.9202374 2:-0.67901282 3:-0.41817517 4:6.7753478 5:-1.0603489 6:-0.6883184 7:-0.85420411 8:-0.54214312 9:-0.47082656 10:-0.64105032 11:-0.29178714 12:-0.22200452 13:-0.42002519 14:-0.29103186 15:-1.4085465 16:-0.72196955 17:-0.60576065 18:-0.093144924 19:-0.53567179 20:-0.048981228 21:-0.54329794 22:-0.43032683 23:-0.39721291 24:3.7286841 
0.4326389781947535 1.044549618963867 1:0.52072998 2:1.4726161 3:-0.41817517 4:-0.14758286 5:0.94301524 6:-0.6883184 7:1.1705928 8:-0.54214312 9:2.1237655 10:-0.64105032 11:-0.29178714 12:4.5040758 13:-0.42002519 14:-0.29103186 15:0.70989859 16:1.3849964 17:-0.60576065 18:-0.093144924 19:-0.53567179 20:-0.048981228 21:-0.54329794 22:2.3236413 23:-0.39721291 24:-0.26817107 
0.3750223265733446 0.882515912416148 1:-1.9202374 2:-0.67901282 3:2.3911635 4:-0.14758286 5:-1.0603489 6:-0.6883184 7:-0.85420411 8:-0.54214312 9:-0.47082656 10:-0.64105032 11:-0.29178714 12:-0.22200452 13:-0.42002519 14:-0.29103186 15:0.70989859 16:-0.72196955 17:-0.60576065 18:-0.093144924 19:-0.53567179 20:-0.048981228 21:-0.54329794 22:-0.43032683 23:2.5173532 24:-0.26817107 
0 2 1:0.52072998 2:-0.67901282 3:-0.41817517 4:-0.14758286 5:0.94301524 6:1.4527074 7:1.1705928 8:1.8443934 9:-0.47082656 10:1.5598233 11:-0.29178714 12:-0.22200452 13:-0.42002519 14:-0.29103186 15:0.70989859 16:1.3849964 17:-0.60576065 18:-0.093144924 19:-0.53567179 20:-0.048981228 21:-0.54329794 22:-0.43032683 23:2.5173532 24:-0.26817107 
2 0 1:-1.9202374 2:-0.67901282 3:-0.41817517 4:-0.14758286 5:0.94301524 6:-0.6883184 7:1.1705928 8:-0.54214312 9:2.1237655 10:1.5598233 11:-0.29178714 12:-0.22200452 13:-0.42002519 14:-0.29103186 15:0.70989859 16:-0.72196955 17:-0.60576065 18:-0.093144924 19:-0.53567179 20:-0.048981228 21:-0.54329794 22:-0.43032683 23:-0.39721291 24:-0.26817107 
0 1.073101361056846 1:0.52072998 2:-0.67901282 3:-0.41817517 4:-0.14758286 5:0.94301524 6:1.4527074 7:-0.85420411 8:-0.54214312 9:-0.47082656 10:-0.64105032 11:-0.29178714 12:-0.22200452 13:-0.42002519 14:-0.29103186 15:0.70989859 16:1.3849964 17:-0.60576065 18:-0.093144924 19:-0.53567179 20:-0.048981228 21:-0.54329794 22:2.3236413 23:2.5173532 24:-0.26817107 
0 1.114034669096651 1:0.52072998 2:-0.67901282 3:-0.41817517 4:-0.14758286 5:0.94301524 6:1.4527074 7:-0.85420411 8:-0.54214312 9:-0.47082656 10:-0.64105032 11:-0.29178714 12:-0.22200452 13:-0.42002519 14:3.4357928 15:0.70989859 16:1.3849964 17:-0.60576065 18:-0.093144924 19:-0.53567179 20:-0.048981228 21:1.840473 22:-0.43032683 23:-0.39721291 24:-0.26817107 
2 0 1:-1.9202374 2:-0.67901282 3:2.3911635 4:-0.14758286 5:0.94301524 6:1.4527074 7:-0.85420411 8:-0.54214312 9:-0.47082656 10:-0.64105032 11:-0.29178714 12:-0.22200452 13:-0.42002519 14:-0.29103186 15:0.70989859 16:-0.72196955 17:-0.60576065 18:-0.093144924 19:-0.53567179 20:-0.048981228 21:-0.54329794 22:-0.43032683 23:-0.39721291 24:-0.26817107 
0.2863043734584673 2 1:0.52072998 2:1.4726161 3:-0.41817517 4:-0.14758286 5:0.94301524 6:-0.6883184 7:1.1705928 8:1.8443934 9:-0.47082656 10:1.5598233 11:-0.29178714 12:-0.22200452 13:-0.42002519 14:-0.29103186 15:0.70989859 16:-0.72196955 17:-0.60576065 18:-0.093144924 19:-0.53567179 20:-0.048981228 21:-0.54329794 22:-0.43032683 23:2.5173532 24:-0.26817107 
0.4306111704217354 0.9901702670885979 1:-1.9202374 2:-0.67901282 3:2.3911635 4:-0.14758286 5:0.94301524 6:1.4527074 7:1.1705928 8:1.8443934 9:-0.47082656 10:1.5598233 11:-0.29178714 12:-0.22200452 13:-0.42002519 14:-0.29103186 15:0.70989859 16:-0.72196955 17:1.6506936 18:-0.093144924 19:-0.53567179 20:-0.048981228 21:1.840473 22:2.3236413 23:2.5173532 24:-0.26817107 
0.4390895612735179 1.018863111396128 1:-1.9202374 2:1.4726161 3:-0.41817517 4:-0.14758286 5:0.94301524 6:-0.6883184 7:1.1705928 8:-0.54214312 9:2.1237655 10:1.5598233 11:-0.29178714 12:-0.22200452 13:-0.42002519 14:3.4357928 15:0.70989859 16:-0.72196955 17:-0.60576065 18:-0.093144924 19:1.8666751 20:-0.048981228 21:-0.54329794 22:-0.43032683 23:2.5173532 24:-0.26817107 
0.4139133728301839 0.9732256159188702 1:0.52072998 2:-0.67901282 3:2.3911635 4:-0.14758286 5:-1.0603489 6:-0.6883184 7:-0.85420411 8:-0.54214312 9:-0.47082656 10:-0.64105032 11:-0.29178714 12:-0.22200452 13:-0.42002519 14:-0.29103186 15:0.70989859 16:-0.72196955 17:-0.60576065 18:-0.093144924 19:1.8666751 20:-0.048981228 21:-0.54329794 22:-0.43032683 23:2.5173532 24:-0.26817107 
2 0 1:0.52072998 2:-0.67901282 3:-0.41817517 4:-0.14758286 5:0.94301524 6:-0.6883184 7:1.1705928 8:1.8443934 9:-0.47082656 10:1.5598233 11:-0.29178714 12:-0.22200452 13:-0.42002519 14:-0.29103186 15:0.70989859 16:-0.72196955 17:-0.60576065 18:-0.093144924 19:-0.53567179 20:-0.048981228 21:-0.54329794 22:2.3236413 23:-0.39721291 24:-0.26817107 
0 2 1:0.52072998 2:-0.67901282 3:-0.41817517 4:-0.14758286 5:-1.0603489 6:-0.6883184 7:-0.85420411 8:-0.54214312 9:-0.47082656 10:-0.64105032 11:-0.29178714 12:-0.22200452 13:-0.42002519 14:-0.29103186 15:0.70989859 16:-0.72196955 17:-0.60576065 18:-0.093144924 19:-0.53567179 20:-0.048981228 21:-0.54329794 22:-0.43032683 23:2.5173532 24:-0.26817107 
0 1.218144124502649 1:0.52072998 2:-0.67901282 3:-0.41817517 4:-0.14758286 5:0.94301524 6:-0.6883184 7:1.1705928 8:-0.54214312 9:-0.47082656 10:-0.64105032 11:-0.29178714 12:-0.22200452 13:2.3806315 14:-0.29103186 15:0.70989859 16:1.3849964 17:1.6506936 18:-0.093144924 19:-0.53567179 20:-0.048981228 21:1.840473 22:2.3236413 23:-0.39721291 24:-0.26817107 
2 0.8752067537012697 1:-1.9202374 2:-0.67901282 3:2.3911635 4:-0.14758286 5:0.94301524 6:-0.6883184 7:1.1705928 8:-0.54214312 9:2.1237655 10:1.5598233 11:-0.29178714 12:-0.22200452 13:2.3806315 14:-0.29103186 15:0.70989859 16:1.3849964 17:-0.60576065 18:-0.093144924 19:-0.53567179 20:-0.048981228 21:-0.54329794 22:-0.43032683 23:-0.39721291 24:-0.26817107 
2 0 1:-1.9202374 2:-0.67901282 3:2.3911635 4:-0.14758286 5:0.94301524 6:1.4527074 7:-0.85420411 8:-0.54214312 9:-0.47082656 10:-0.64105032 11:-0.29178714 12:-0.22200452 13:-0.42002519 14:-0.29103186 15:0.70989859 16:-0.72196955 17:-0.60576065 18:-0.093144924 19:-0.53567179 20:-0.048981228 21:-0.54329794 22:-0.43032683 23:-0.39721291 24:-0.26817107 
2 0 1:-1.9202374 2:-0.67901282 3:-0.41817517 4:-0.14758286 5:0.94301524 6:-0.6883184 7:1.1705928 8:-0.54214312 9:2.1237655 10:1.5598233 11:-0.29178714 12:-0.22200452 13:-0.42002519 14:-0.29103186 15:0.70989859 16:-0.72196955 17:-0.60576065 18:-0.093144924 19:-0.53567179 20:-0.048981228 21:-0.54329794 22:-0.43032683 23:-0.39721291 24:-0.26817107 
2 0 1:0.52072998 2:-0.67901282 3:-0.41817517 4:-0.14758286 5:0.94301524 6:-0.6883184 7:1.1705928 8:-0.54214312 9:2.1237655 10:1.5598233 11:-0.29178714 12:-0.22200452 13:-0.42002519 14:-0.29103186 15:0.70989859 16:-0.72196955 17:-0.60576065 18:-0.093144924 19:1.8666751 20:-0.048981228 21:-0.54329794 22:-0.43032683 23:-0.39721291 24:-0.26817107 
2 0 1:-1.9202374 2:-0.67901282 3:-0.41817517 4:-0.14758286 5:0.94301524 6:-0.6883184 7:1.1705928 8:-0.54214312 9:2.1237655 10:1.5598233 11:-0.29178714 12:-0.22200452 13:-0.42002519 14:-0.29103186 15:0.70989859 16:-0.72196955 17:-0.60576065 18:-0.093144924 19:-0.53567179 20:-0.048981228 21:-0.54329794 22:-0.43032683 23:-0.39721291 24:-0.26817107 
2 1.041537657304418 1:-1.9202374 2:-0.67901282 3:-0.41817517 4:-0.14758286 5:0.94301524 6:-0.6883184 7:1.1705928 8:1.8443934 9:-0.47082656 10:1.5598233 11:-0.29178714 12:-0.22200452 13:-0.42002519 14:-0.29103186 15:0.70989859 16:-0.72196955 17:1.6506936 18:-0.093144924 19:-0.53567179 20:-0.048981228 21:-0.54329794 22:-0.43032683 23:-0.39721291 24:-0.26817107 
2 0 1:0.52072998 2:-0.67901282 3:-0.41817517 4:-0.14758286 5:-1.0603489 6:-0.6883184 7:-0.85420411 8:-0.54214312 9:-0.47082656 10:-0.64105032 11:-0.29178714 12:-0.22200452 13:-0.42002519 14:-0.29103186 15:0.70989859 16:1.3849964 17:-0.60576065 18:-0.093144924 19:-0.53567179 20:-0.048981228 21:1.840473 22:-0.43032683 23:-0.39721291 24:-0.26817107 
0.3927980703771305 0.9316986765800537 1:0.52072998 2:1.4726161 3:2.3911635 4:-0.14758286 5:0.94301524 6:1.4527074 7:1.1705928 8:1.8443934 9:2.1237655 10:1.5598233 11:3.4268995 12:-0.22200452 13:-0.42002519 14:-0.29103186 15:0.70989859 16:-0.72196955 17:-0.60576065 18:-0.093144924 19:-0.53567179 20:-0.048981228 21:-0.54329794 22:-0.43032683 23:-0.39721291 24:-0.26817107 
0.4400549014601888 1.021878688474257 1:0.52072998 2:-0.67901282 3:2.3911635 4:-0.14758286 5:-1.0603489 6:-0.6883184 7:-0.85420411 8:-0.54214312 9:-0.47082656 10:-0.64105032 11:-0.29178714 12:-0.22200452 13:-0.42002519 14:3.4357928 15:0.70989859 16:1.3849964 17:1.6506936 18:-0.093144924 19:-0.53567179 20:-0.048981228 21:1.840473 22:2.3236413 23:2.5173532 24:-0.26817107 
0.427356524983972 2 1:0.52072998 2:1.4726161 3:-0.41817517 4:-0.14758286 5:0.94301524 6:1.4527074 7:1.1705928 8:-0.54214312 9:2.1237655 10:-0.64105032 11:-0.29178714 12:4.5040758 13:2.3806315 14:-0.29103186 15:0.70989859 16:1.3849964 17:1.6506936 18:-0.093144924 19:-0.53567179 20:-0.048981228 21:-0.54329794 22:-0.43032683 23:-0.39721291 24:-0.26817107 
0.3496111210625528 1.060491263679185 1:-1.9202374 2:1.4726161 3:-0.41817517 4:-0.14758286 5:0.94301524 6:-0.6883184 7:1.1705928 8:-0.54214312 9:2.1237655 10:1.5598233 11:-0.29178714 12:-0.22200452 13:-0.42002519 14:-0.29103186 15:0.70989859 16:1.3849964 17:-0.60576065 18:-0.093144924 19:-0.53567179 20:-0.048981228 21:-0.54329794 22:-0.43032683 23:2.5173532 24:-0.26817107 
2 0 1:0.52072998 2:-0.67901282 3:-0.41817517 4:-0.14758286 5:-1.0603489 6:-0.6883184 7:-0.85420411 8:-0.54214312 9:-0.47082656 10:-0.64105032 11:-0.29178714 12:-0.22200452 13:-0.42002519 14:-0.29103186 15:-1.4085465 16:-0.72196955 17:-0.60576065 18:-0.093144924 19:1.8666751 20:-0.048981228 21:-0.54329794 22:-0.43032683 23:-0.39721291 24:-0.26817107 
0 0.9363714185855583 1:-1.9202374 2:-0.67901282 3:2.3911635 4:-0.14758286 5:0.94301524 6:1.4527074 7:1.1705928 8:-0.54214312 9:2.1237655 10:1.5598233 11:-0.29178714 12:-0.22200452 13:-0.42002519 14:-0.29103186 15:0.70989859 16:1.3849964 17:-0.60576065 18:-0.093144924 19:-0.53567179 20:-0.048981228 21:-0.54329794 22:-0.43032683 23:2.5173532 24:-0.26817107 
0.3513016081873365 0.9222535335290696 1:0.52072998 2:1.4726161 3:2.3911635 4:-0.14758286 5:0.94301524 6:-0.6883184 7:1.1705928 8:-0.54214312 9:2.1237655 10:1.5598233 11:-0.29178714 12:-0.22200452 13:-0.42002519 14:-0.29103186 15:0.70989859 16:1.3849964 17:1.6506936 18:-0.093144924 19:-0.53567179 20:-0.048981228 21:1.840473 22:-0.43032683 23:2.5173532 24:-0.26817107 
0.7252198773395714 2 1:-1.9202374 2:-0.67901282 3:-0.41817517 4:-0.14758286 5:0.94301524 6:-0.6883184 7:1.1705928 8:-0.54214312 9:2.1237655 10:1.5598233 11:-0.29178714 12:-0.22200452 13:-0.42002519 14:-0.29103186 15:0.70989859 16:1.3849964 17:-0.60576065 18:-0.093144924 19:-0.53567179 20:-0.048981228 21:1.840473 22:-0.43032683 23:-0.39721291 24:-0.26817107 
0 2 1:0.52072998 2:-0.67901282 3:-0.41817517 4:-0.14758286 5:0.94301524 6:1.4527074 7:1.1705928 8:-0.54214312 9:2.1237655 10:1.5598233 11:-0.29178714 12:-0.22200452 13:-0.42002519 14:-0.29103186 15:0.70989859 16:-0.72196955 17:1.6506936 18:-0.093144924 19:-0.53567179 20:-0.048981228 21:-0.54329794 22:-0.43032683 23:2.5173532 24:-0.26817107 
0.6305349186326341 0.903337061030306 1:0.52072998 2:1.4726161 3:2.3911635 4:-0.14758286 5:0.94301524 6:-0.6883184 7:1.1705928 8:-0.54214312 9:-0.47082656 10:-0.64105032 11:-0.29178714 12:-0.22200452 13:2.3806315 14:-0.29103186 15:0.70989859 16:-0.72196955 17:-0.60576065 18:-0.093144924 19:-0.53567179 20:-0.048981228 21:-0.54329794 22:-0.43032683 23:-0.39721291 24:-0.26817107 
0.4609974084187259 2 1:0.52072998 2:1.4726161 3:-0.41817517 4:-0.14758286 5:0.94301524 6:1.4527074 7:1.1705928 8:1.8443934 9:-0.47082656 10:1.5598233 11:-0.29178714 12:-0.22200452 13:-0.42002519 14:-0.29103186 15:0.70989859 16:-0.72196955 17:-0.60576065 18:-0.093144924 19:-0.53567179 20:-0.048981228 21:-0.54329794 22:2.3236413 23:-0.39721291 24:-0.26817107 
0.5181695410626919 0.7583442097867144 1:-1.9202374 2:1.4726161 3:-0.41817517 4:-0.14758286 5:0.94301524 6:-0.6883184 7:1.1705928 8:-0.54214312 9:2.1237655 10:1.5598233 11:-0.29178714 12:-0.22200452 13:-0.42002519 14:-0.29103186 15:0.70989859 16:1.3849964 17:-0.60576065 18:-0.093144924 19:1.8666751 20:-0.048981228 21:-0.54329794 22:-0.43032683 23:-0.39721291 24:-0.26817107 
0.4331802340363094 1.156712767183499 1:0.52072998 2:1.4726161 3:-0.41817517 4:-0.14758286 5:0.94301524 6:-0.6883184 7:1.1705928 8:-0.54214312 9:2.1237655 10:1.5598233 11:-0.29178714 12:-0.22200452 13:-0.42002519 14:3.4357928 15:0.70989859 16:1.3849964 17:1.6506936 18:-0.093144924 19:-0.53567179 20:-0.048981228 21:-0.54329794 22:-0.43032683 23:2.5173532 24:-0.26817107 
0.3924762591730949 1.06598565633121 1:0.52072998 2:-0.67901282 3:-0.41817517 4:-0.14758286 5:0.94301524 6:-0.6883184 7:1.1705928 8:-0.54214312 9:2.1237655 10:1.5598233 11:-0.29178714 12:-0.22200452 13:-0.42002519 14:-0.29103186 15:0.70989859 16:1.3849964 17:1.6506936 18:-0.093144924 19:1.8666751 20:-0.048981228 21:1.840473 22:2.3236413 23:2.5173532 24:-0.26817107 
2 0 1:-1.9202374 2:-0.67901282 3:-0.41817517 4:-0.14758286 5:-1.0603489 6:-0.6883184 7:-0.85420411 8:-0.54214312 9:-0.47082656 10:-0.64105032 11:-0.29178714 12:-0.22200452 13:-0.42002519 14:-0.29103186 15:-1.4085465 16:-0.72196955 17:-0.60576065 18:-0.093144924 19:-0.53567179 20:-0.048981228 21:-0.54329794 22:-0.43032683 23:-0.39721291 24:-0.26817107 
2 0 1:0.52072998 2:-0.67901282 3:-0.41817517 4:-0.14758286 5:-1.0603489 6:-0.6883184 7:-0.85420411 8:-0.54214312 9:-0.47082656 10:-0.64105032 11:-0.29178714 12:-0.22200452 13:-0.42002519 14:-0.29103186 15:-1.4085465 16:-0.72196955 17:-0.60576065 18:-0.093144924 19:1.8666751 20:-0.048981228 21:-0.54329794 22:-0.43032683 23:-0.39721291 24:-0.26817107 
2 0.8749625486792046 1:0.52072998 2:-0.67901282 3:2.3911635 4:-0.14758286 5:0.94301524 6:1.4527074 7:1.1705928 8:-0.54214312 9:2.1237655 10:1.5598233 11:-0.29178714 12:-0.22200452 13:-0.42002519 14:-0.29103186 15:0.70989859 16:1.3849964 17:-0.60576065 18:-0.093144924 19:-0.53567179 20:-0.048981228 21:-0.54329794 22:-0.43032683 23:-0.39721291 24:-0.26817107 
2 2 1:-1.9202374 2:-0.67901282 3:2.3911635 4:-0.14758286 5:-1.0603489 6:-0.6883184 7:-0.85420411 8:-0.54214312 9:-0.47082656 10:-0.64105032 11:-0.29178714 12:-0.22200452 13:-0.42002519 14:-0.29103186 15:0.70989859 16:1.3849964 17:1.6506936 18:-0.093144924 19:-0.53567179 20:-0.048981228 21:1.840473 22:2.3236413 23:-0.39721291 24:-0.26817107 
0 1.169130915072198 1:0.52072998 2:-0.67901282 3:-0.41817517 4:-0.14758286 5:0.94301524 6:1.4527074 7:1.1705928 8:-0.54214312 9:-0.47082656 10:-0.64105032 11:-0.29178714 12:-0.22200452 13:2.3806315 14:-0.29103186 15:0.70989859 16:1.3849964 17:-0.60576065 18:-0.093144924 19:-0.53567179 20:-0.048981228 21:-0.54329794 22:-0.43032683 23:-0.39721291 24:-0.26817107 
0.2674301475618617 0.6919398395570651 1:-1.9202374 2:1.4726161 3:-0.41817517 4:-0.14758286 5:0.94301524 6:-0.6883184 7:1.1705928 8:-0.54214312 9:-0.47082656 10:-0.64105032 11:-0.29178714 12:-0.22200452 13:2.3806315 14:-0.29103186 15:0.70989859 16:1.3849964 17:-0.60576065 18:-0.093144924 19:1.8666751 20:-0.048981228 21:-0.54329794 22:-0.43032683 23:-0.39721291 24:-0.26817107 
0.4010402264965593 0.9313752563717048 1:-1.9202374 2:-0.67901282 3:-0.41817517 4:-0.14758286 5:0.94301524 6:-0.6883184 7:1.1705928 8:-0.54214312 9:2.1237655 10:1.5598233 11:-0.29178714 12:4.5040758 13:-0.42002519 14:-0.29103186 15:0.70989859 16:-0.72196955 17:-0.60576065 18:-0.093144924 19:-0.53567179 20:-0.048981228 21:-0.54329794 22:-0.43032683 23:2.5173532 24:-0.26817107 
0.4303422100539216 1.115161493510556 1:0.52072998 2:1.4726161 3:2.3911635 4:-0.14758286 5:-1.0603489 6:-0.6883184 7:-0.85420411 8:-0.54214312 9:-0.47082656 10:-0.64105032 11:-0.29178714 12:-0.22200452 13:-0.42002519 14:-0.29103186 15:0.70989859 16:1.3849964 17:-0.60576065 18:-0.093144924 19:-0.53567179 20:-0.048981228 21:1.840473 22:-0.43032683 23:2.5173532 24:-0.26817107 
0 2 1:0.52072998 2:-0.67901282 3:-0.41817517 4:-0.14758286 5:0.94301524 6:1.4527074 7:-0.85420411 8:-0.54214312 9:-0.47082656 10:-0.64105032 11:-0.29178714 12:-0.22200452 13:-0.42002519 14:-0.29103186 15:0.70989859 16:-0.72196955 17:1.6506936 18:-0.093144924 19:-0.53567179 20:-0.048981228 21:-0.54329794 22:2.3236413 23:-0.39721291 24:-0.26817107 
0 0.9868420920012591 1:0.52072998 2:1.4726161 3:-0.41817517 4:-0.14758286 5:0.94301524 6:-0.6883184 7:1.1705928 8:1.8443934 9:2.1237655 10:1.5598233 11:-0.29178714 12:-0.22200452 13:-0.42002519 14:-0.29103186 15:0.70989859 16:-0.72196955 17:-0.60576065 18:-0.093144924 19:-0.53567179 20:-0.048981228 21:-0.54329794 22:-0.43032683 23:-0.39721291 24:-0.26817107 
2 0 1:-1.9202374 2:-0.67901282 3:2.3911635 4:-0.14758286 5:-1.0603489 6:-0.6883184 7:-0.85420411 8:-0.54214312 9:-0.47082656 10:-0.64105032 11:-0.29178714 12:-0.22200452 13:-0.42002519 14:-0.29103186 15:-1.4085465 16:-0.72196955 17:-0.60576065 18:-0.093144924 19:-0.53567179 20:-0.048981228 21:-0.54329794 22:-0.43032683 23:-0.39721291 24:-0.26817107 
2 0 1:-1.9202374 2:-0.67901282 3:-0.41817517 4:-0.14758286 5:-1.0603489 6:-0.6883184 7:-0.85420411 8:-0.54214312 9:-0.47082656 10:-0.64105032 11:-0.29178714 12:-0.22200452 13:-0.42002519 14:-0.29103186 15:-1.4085465 16:-0.72196955 17:-0.60576065 18:-0.093144924 19:-0.53567179 20:-0.048981228 21:-0.54329794 22:-0.43032683 23:-0.39721291 24:-0.26817107 
2 0 1:0.52072998 2:-0.67901282 3:-0.41817517 4:-0.14758286 5:-1.0603489 6:-0.6883184 7:-0.85420411 8:-0.54214312 9:-0.47082656 10:-0.64105032 11:-0.29178714 12:-0.22200452 13:-0.42002519 14:-0.29103186 15:-1.4085465 16:-0.72196955 17:-0.60576065 18:-0.093144924 19:1.8666751 20:-0.048981228 21:-0.54329794 22:-0.43032683 23:-0.39721291 24:-0.26817107 
0 2 1:0.52072998 2:-0.67901282 3:-0.41817517 4:-0.14758286 5:0.94301524 6:1.4527074 7:1.1705928 8:-0.54214312 9:-0.47082656 10:-0.64105032 11:-0.29178714 12:-0.22200452 13:2.3806315 14:-0.29103186 15:0.70989859 16:-0.72196955 17:-0.60576065 18:-0.093144924 19:-0.53567179 20:-0.048981228 21:-0.54329794 22:-0.43032683 23:-0.39721291 24:-0.26817107 
0.4638126491841399 1.009455656500413 1:0.52072998 2:-0.67901282 3:2.3911635 4:-0.14758286 5:0.94301524 6:1.4527074 7:1.1705928 8:1.8443934 9:-0.47082656 10:-0.64105032 11:3.4268995 12:-0.22200452 13:-0.42002519 14:-0.29103186 15:0.70989859 16:1.3849964 17:1.6506936 18:-0.093144924 19:-0.53567179 20:-0.048981228 21:-0.54329794 22:-0.43032683 23:-0.39721291 24:-0.26817107 
2 0 1:0.52072998 2:1.4726161 3:-0.41817517 4:-0.14758286 5:-1.0603489 6:-0.6883184 7:-0.85420411 8:-0.54214312 9:-0.47082656 10:-0.64105032 11:-0.29178714 12:-0.22200452 13:-0.42002519 14:-0.29103186 15:-1.4085465 16:-0.72196955 17:-0.60576065 18:-0.093144924 19:1.8666751 20:-0.048981228 21:-0.54329794 22:-0.43032683 23:-0.39721291 24:-0.26817107 
2 2 1:0.52072998 2:-0.67901282 3:-0.41817517 4:6.7753478 5:-1.0603489 6:-0.6883184 7:-0.85420411 8:-0.54214312 9:-0.47082656 10:-0.64105032 11:-0.29178714 12:-0.22200452 13:-0.42002519 14:-0.29103186 15:-1.4085465 16:-0.72196955 17:-0.60576065 18:-0.093144924 19:-0.53567179 20:-0.048981228 21:-0.54329794 22:-0.43032683 23:-0.39721291 24:-0.26817107 
2 0 1:-1.9202374 2:-0.67901282 3:-0.41817517 4:6.7753478 5:-1.0603489 6:-0.6883184 7:-0.85420411 8:-0.54214312 9:-0.47082656 10:-0.64105032 11:-0.29178714 12:-0.22200452 13:-0.42002519 14:-0.29103186 15:-1.4085465 16:-0.72196955 17:-0.60576065 18:-0.093144924 19:1.8666751 20:-0.048981228 21:-0.54329794 22:-0.43032683 23:-0.39721291 24:-0.26817107 
2 0 1:0.52072998 2:-0.67901282 3:-0.41817517 4:-0.14758286 5:0.94301524 6:-0.6883184 7:1.1705928 8:-0.54214312 9:2.1237655 10:1.5598233 11:-0.29178714 12:-0.22200452 13:-0.42002519 14:-0.29103186 15:0.70989859 16:-0.72196955 17:-0.60576065 18:-0.093144924 19:-0.53567179 20:-0.048981228 21:1.840473 22:-0.43032683 23:-0.39721291 24:-0.26817107 
2 0.8378956814717463 1:-1.9202374 2:-0.67901282 3:2.3911635 4:-0.14758286 5:0.94301524 6:1.4527074 7:1.1705928 8:-0.54214312 9:-0.47082656 10:-0.64105032 11:-0.29178714 12:-0.22200452 13:2.3806315 14:-0.29103186 15:0.70989859 16:-0.72196955 17:1.6506936 18:-0.093144924 19:-0.53567179 20:-0.048981228 21:-0.54329794 22:-0.43032683 23:-0.39721291 24:-0.26817107 
2 0 1:-1.9202374 2:-0.67901282 3:-0.41817517 4:-0.14758286 5:-1.0603489 6:-0.6883184 7:-0.85420411 8:-0.54214312 9:-0.47082656 10:-0.64105032 11:-0.29178714 12:-0.22200452 13:-0.42002519 14:-0.29103186 15:-1.4085465 16:-0.72196955 17:-0.60576065 18:-0.093144924 19:-0.53567179 20:-0.048981228 21:-0.54329794 22:-0.43032683 23:-0.39721291 24:-0.26817107 
0.4151834594653679 1.010915499694191 1:0.52072998 2:1.4726161 3:-0.41817517 4:-0.14758286 5:-1.0603489 6:-0.6883184 7:-0.85420411 8:-0.54214312 9:-0.47082656 10:-0.64105032 11:-0.29178714 12:-0.22200452 13:-0.42002519 14:-0.29103186 15:0.70989859 16:-0.72196955 17:-0.60576065 18:-0.093144924 19:1.8666751 20:-0.048981228 21:1.840473 22:-0.43032683 23:-0.39721291 24:3.7286841 
0.3370254225010161 0.7879776828260241 1:-1.9202374 2:-0.67901282 3:2.3911635 4:-0.14758286 5:0.94301524 6:-0.6883184 7:1.1705928 8:-0.54214312 9:-0.47082656 10:-0.64105032 11:-0.29178714 12:-0.22200452 13:2.3806315 14:-0.29103186 15:0.70989859 16:1.3849964 17:-0.60576065 18:-0.093144924 19:-0.53567179 20:-0.048981228 21:1.840473 22:2.3236413 23:-0.39721291 24:-0.26817107 
0 1.176949496569234 1:0.52072998 2:1.4726161 3:-0.41817517 4:-0.14758286 5:0.94301524 6:-0.6883184 7:1.1705928 8:-0.54214312 9:2.1237655 10:1.5598233 11:-0.29178714 12:-0.22200452 13:-0.42002519 14:-0.29103186 15:0.70989859 16:-0.72196955 17:-0.60576065 18:-0.093144924 19:-0.53567179 20:-0.048981228 21:-0.54329794 22:-0.43032683 23:2.5173532 24:-0.26817107 
2 0 1:0.52072998 2:-0.67901282 3:-0.41817517 4:-0.14758286 5:-1.0603489 6:-0.6883184 7:-0.85420411 8:-0.54214312 9:-0.47082656 10:-0.64105032 11:-0.29178714 12:-0.22200452 13:-0.42002519 14:-0.29103186 15:-1.4085465 16:-0.72196955 17:-0.60576065 18:-0.093144924 19:1.8666751 20:-0.048981228 21:-0.54329794 22:-0.43032683 23:-0.39721291 24:-0.26817107 
0 2 1:0.52072998 2:-0.67901282 3:-0.41817517 4:-0.14758286 5:0.94301524 6:1.4527074 7:1.1705928 8:-0.54214312 9:2.1237655 10:1.5598233 11:-0.29178714 12:-0.22200452 13:-0.42002519 14:-0.29103186 15:0.70989859 16:1.3849964 17:1.6506936 18:-0.093144924 19:-0.53567179 20:-0.048981228 21:1.840473 22:2.3236413 23:-0.39721291 24:-0.26817107 
0.4176839439599628 0.9523565735340094 1:0.52072998 2:1.4726161 3:2.3911635 4:-0.14758286 5:0.94301524 6:-0.6883184 7:1.1705928 8:-0.54214312 9:2.1237655 10:1.5598233 11:-0.29178714 12:-0.22200452 13:-0.42002519 14:-0.29103186 15:0.70989859 16:1.3849964 17:1.6506936 18:-0.093144924 19:-0.53567179 20:-0.048981228 21:-0.54329794 22:-0.43032683 23:2.5173532 24:-0.26817107 
0.4286857629502053 0.9115414788177709 1:0.52072998 2:-0.67901282 3:2.3911635 4:-0.14758286 5:0.94301524 6:1.4527074 7:1.1705928 8:-0.54214312 9:2.1237655 10:1.5598233 11:-0.29178714 12:-0.22200452 13:-0.42002519 14:-0.29103186 15:0.70989859 16:-0.72196955 17:-0.60576065 18:-0.093144924 19:1.8666751 20:-0.048981228 21:-0.54329794 22:-0.43032683 23:-0.39721291 24:-0.26817107 
2 0 1:0.52072998 2:-0.67901282 3:-0.41817517 4:-0.14758286 5:-1.0603489 6:-0.6883184 7:-0.85420411 8:-0.54214312 9:-0.47082656 10:-0.64105032 11:-0.29178714 12:-0.22200452 13:-0.42002519 14:-0.29103186 15:0.70989859 16:-0.72196955 17:1.6506936 18:-0.093144924 19:-0.53567179 20:-0.048981228 21:-0.54329794 22:-0.43032683 23:-0.39721291 24:-0.26817107 
0 2 1:0.52072998 2:-0.67901282 3:-0.41817517 4:-0.14758286 5:0.94301524 6:1.4527074 7:1.1705928 8:-0.54214312 9:-0.47082656 10:-0.64105032 11:-0.29178714 12:-0.22200452 13:2.3806315 14:-0.29103186 15:0.70989859 16:-0.72196955 17:-0.60576065 18:-0.093144924 19:-0.53567179 20:-0.048981228 21:-0.54329794 22:-0.43032683 23:-0.39721291 24:-0.26817107 
0.4405809855773252 1.024943848246335 1:0.52072998 2:-0.67901282 3:-0.41817517 4:-0.14758286 5:0.94301524 6:1.4527074 7:1.1705928 8:1.8443934 9:2.1237655 10:1.5598233 11:-0.29178714 12:4.5040758 13:-0.42002519 14:3.4357928 15:0.70989859 16:-0.72196955 17:-0.60576065 18:-0.093144924 19:-0.53567179 20:-0.048981228 21:-0.54329794 22:2.3236413 23:-0.39721291 24:-0.26817107 
0.4433117381277783 1.021551598454838 1:0.52072998 2:-0.67901282 3:2.3911635 4:-0.14758286 5:0.94301524 6:1.4527074 7:-0.85420411 8:-0.54214312 9:-0.47082656 10:-0.64105032 11:-0.29178714 12:-0.22200452 13:-0.42002519 14:3.4357928 15:0.70989859 16:-0.72196955 17:-0.60576065 18:-0.093144924 19:-0.53567179 20:-0.048981228 21:1.840473 22:-0.43032683 23:-0.39721291 24:-0.26817107 
0 2 1:0.52072998 2:-0.67901282 3:-0.41817517 4:-0.14758286 5:-1.0603489 6:-0.6883184 7:-0.85420411 8:-0.54214312 9:-0.47082656 10:-0.64105032 11:-0.29178714 12:-0.22200452 13:-0.42002519 14:-0.29103186 15:0.70989859 16:-0.72196955 17:1.6506936 18:-0.093144924 19:-0.53567179 20:-0.048981228 21:-0.54329794 22:2.3236413 23:-0.39721291 24:-0.26817107 
0.3430364614125465 0.8691456752450881 1:0.52072998 2:1.4726161 3:-0.41817517 4:-0.14758286 5:0.94301524 6:-0.6883184 7:-0.85420411 8:-0.54214312 9:-0.47082656 10:-0.64105032 11:-0.29178714 12:-0.22200452 13:-0.42002519 14:-0.29103186 15:0.70989859 16:-0.72196955 17:1.6506936 18:-0.093144924 19:-0.53567179 20:-0.048981228 21:1.840473 22:2.3236413 23:-0.39721291 24:-0.26817107 
0 0.7346482985222152 1:0.52072998 2:1.4726161 3:-0.41817517 4:-0.14758286 5:0.94301524 6:1.4527074 7:-0.85420411 8:-0.54214312 9:-0.47082656 10:-0.64105032 11:-0.29178714 12:-0.22200452 13:-0.42002519 14:-0.29103186 15:0.70989859 16:-0.72196955 17:-0.60576065 18:-0.093144924 19:1.8666751 20:-0.048981228 21:-0.54329794 22:-0.43032683 23:-0.39721291 24:-0.26817107 
0.4067154197473319 1.419888907541132 1:0.52072998 2:1.4726161 3:-0.41817517 4:-0.14758286 5:0.94301524 6:1.4527074 7:-0.85420411 8:-0.54214312 9:-0.47082656 10:-0.64105032 11:-0.29178714 12:-0.22200452 13:-0.42002519 14:-0.29103186 15:0.70989859 16:-0.72196955 17:1.6506936 18:-0.093144924 19:-0.53567179 20:-0.048981228 21:-0.54329794 22:2.3236413 23:-0.39721291 24:-0.26817107 
0.4565928106733554 1.025005193758089 1:0.52072998 2:1.4726161 3:-0.41817517 4:-0.14758286 5:-1.0603489 6:-0.6883184 7:-0.85420411 8:-0.54214312 9:-0.47082656 10:-0.64105032 11:-0.29178714 12:-0.22200452 13:-0.42002519 14:3.4357928 15:0.70989859 16:1.3849964 17:-0.60576065 18:-0.093144924 19:-0.53567179 20:-0.048981228 21:-0.54329794 22:2.3236413 23:-0.39721291 24:3.7286841 
0.4372538532893707 1.15233042839181 1:0.52072998 2:-0.67901282 3:-0.41817517 4:-0.14758286 5:0.94301524 6:-0.6883184 7:1.1705928 8:1.8443934 9:-0.47082656 10:1.5598233 11:-0.29178714 12:-0.22200452 13:2.3806315 14:-0.29103186 15:0.70989859 16:-0.72196955 17:-0.60576065 18:-0.093144924 19:-0.53567179 20:-0.048981228 21:1.840473 22:2.3236413 23:2.5173532 24:-0.26817107 
0.3263421718472616 2 1:0.52072998 2:1.4726161 3:-0.41817517 4:-0.14758286 5:0.94301524 6:1.4527074 7:1.1705928 8:-0.54214312 9:2.1237655 10:1.5598233 11:-0.29178714 12:-0.22200452 13:-0.42002519 14:-0.29103186 15:0.70989859 16:1.3849964 17:-0.60576065 18:-0.093144924 19:-0.53567179 20:-0.048981228 21:-0.54329794 22:-0.43032683 23:2.5173532 24:-0.26817107 
2 2 1:0.52072998 2:-0.67901282 3:-0.41817517 4:-0.14758286 5:-1.0603489 6:-0.6883184 7:-0.85420411 8:-0.54214312 9:-0.47082656 10:-0.64105032 11:-0.29178714 12:-0.22200452 13:-0.42002519 14:3.4357928 15:0.70989859 16:-0.72196955 17:-0.60576065 18:-0.093144924 19:-0.53567179 20:-0.048981228 21:-0.54329794 22:-0.43032683 23:-0.39721291 24:-0.26817107 
2 0 1:0.52072998 2:-0.67901282 3:-0.41817517 4:-0.14758286 5:-1.0603489 6:-0.6883184 7:-0.85420411 8:-0.54214312 9:-0.47082656 10:-0.64105032 11:-0.29178714 12:-0.22200452 13:-0.42002519 14:-0.29103186 15:-1.4085465 16:-0.72196955 17:-0.60576065 18:-0.093144924 19:1.8666751 20:-0.048981228 21:-0.54329794 22:-0.43032683 23:-0.39721291 24:-0.26817107 
0.4038107860724636 0.9142409516091135 1:0.52072998 2:1.4726161 3:2.3911635 4:-0.14758286 5:0.94301524 6:-0.6883184 7:1.1705928 8:-0.54214312 9:2.1237655 10:1.5598233 11:-0.29178714 12:-0.22200452 13:-0.42002519 14:-0.29103186 15:0.70989859 16:1.3849964 17:1.6506936 18:-0.093144924 19:1.8666751 20:-0.048981228 21:-0.54329794 22:-0.43032683 23:-0.39721291 24:-0.26817107 
0.3123175795277577 2 1:0.52072998 2:-0.67901282 3:-0.41817517 4:-0.14758286 5:0.94301524 6:1.4527074 7:1.1705928 8:-0.54214312 9:2.1237655 10:1.5598233 11:-0.29178714 12:-0.22200452 13:-0.42002519 14:-0.29103186 15:0.70989859 16:-0.72196955 17:1.6506936 18:-0.093144924 19:-0.53567179 20:-0.048981228 21:1.840473 22:-0.43032683 23:-0.39721291 24:-0.26817107 
0.213701811037389 0 1:0.52072998 2:1.4726161 3:-0.41817517 4:-0.14758286 5:0.94301524 6:-0.6883184 7:1.1705928 8:1.8443934 9:-0.47082656 10:1.5598233 11:-0.29178714 12:-0.22200452 13:-0.42002519 14:-0.29103186 15:0.70989859 16:-0.72196955 17:1.6506936 18:-0.093144924 19:-0.53567179 20:-0.048981228 21:-0.54329794 22:-0.43032683 23:-0.39721291 24:-0.26817107 
0.4427390047176354 1.025112290850682 1:-1.9202374 2:1.4726161 3:-0.41817517 4:-0.14758286 5:0.94301524 6:-0.6883184 7:1.1705928 8:1.8443934 9:2.1237655 10:1.5598233 11:3.4268995 12:-0.22200452 13:2.3806315 14:-0.29103186 15:0.70989859 16:1.3849964 17:-0.60576065 18:-0.093144924 19:-0.53567179 20:-0.048981228 21:-0.54329794 22:-0.43032683 23:-0.39721291 24:-0.26817107 
2 0 1:-1.9202374 2:1.4726161 3:-0.41817517 4:-0.14758286 5:0.94301524 6:-0.6883184 7:1.1705928 8:-0.54214312 9:2.1237655 10:1.5598233 11:-0.29178714 12:-0.22200452 13:-0.42002519 14:-0.29103186 15:0.70989859 16:-0.72196955 17:1.6506936 18:-0.093144924 19:-0.53567179 20:-0.048981228 21:-0.54329794 22:-0.43032683 23:-0.39721291 24:-0.26817107 
2 0 1:-1.9202374 2:-0.67901282 3:2.3911635 4:-0.14758286 5:0.94301524 6:-0.6883184 7:1.1705928 8:-0.54214312 9:2.1237655 10:1.5598233 11:-0.29178714 12:-0.22200452 13:-0.42002519 14:-0.29103186 15:0.70989859 16:-0.72196955 17:-0.60576065 18:-0.093144924 19:-0.53567179 20:-0.048981228 21:-0.54329794 22:-0.43032683 23:-0.39721291 24:-0.26817107 
2 0 1:0.52072998 2:-0.67901282 3:-0.41817517 4:-0.14758286 5:-1.0603489 6:-0.6883184 7:-0.85420411 8:-0.54214312 9:-0.47082656 10:-0.64105032 11:-0.29178714 12:-0.22200452 13:-0.42002519 14:-0.29103186 15:-1.4085465 16:-0.72196955 17:-0.60576065 18:-0.093144924 19:1.8666751 20:-0.048981228 21:-0.54329794 22:-0.43032683 23:-0.39721291 24:-0.26817107 
0.3964927874528191 0.9940815702995289 1:0.52072998 2:1.4726161 3:2.3911635 4:-0.14758286 5:0.94301524 6:1.4527074 7:-0.85420411 8:-0.54214312 9:-0.47082656 10:-0.64105032 11:-0.29178714 12:-0.22200452 13:-0.42002519 14:-0.29103186 15:0.70989859 16:1.3849964 17:-0.60576065 18:-0.093144924 19:-0.53567179 20:-0.048981228 21:1.840473 22:2.3236413 23:-0.39721291 24:-0.26817107 
0 1.009185870358345 1:0.52072998 2:-0.67901282 3:-0.41817517 4:-0.14758286 5:0.94301524 6:1.4527074 7:-0.85420411 8:-0.54214312 9:-0.47082656 10:-0.64105032 11:-0.29178714 12:-0.22200452 13:-0.42002519 14:3.4357928 15:0.70989859 16:-0.72196955 17:-0.60576065 18:-0.093144924 19:-0.53567179 20:-0.048981228 21:-0.54329794 22:-0.43032683 23:-0.39721291 24:3.7286841 
0.5904149804262941 1.064578801715922 1:0.52072998 2:-0.67901282 3:-0.41817517 4:-0.14758286 5:0.94301524 6:-0.6883184 7:1.1705928 8:-0.54214312 9:2.1237655 10:1.5598233 11:-0.29178714 12:-0.22200452 13:-0.42002519 14:3.4357928 15:0.70989859 16:1.3849964 17:-0.60576065 18:-0.093144924 19:-0.53567179 20:-0.048981228 21:-0.54329794 22:2.3236413 23:-0.39721291 24:-0.26817107 
0.4433990461964508 1.022198854019308 1:0.52072998 2:1.4726161 3:-0.41817517 4:-0.14758286 5:0.94301524 6:1.4527074 7:1.1705928 8:1.8443934 9:-0.47082656 10:-0.64105032 11:-0.29178714 12:4.5040758 13:-0.42002519 14:-0.29103186 15:0.70989859 16:1.3849964 17:1.6506936 18:-0.093144924 19:1.8666751 20:-0.048981228 21:1.840473 22:2.3236413 23:-0.39721291 24:-0.26817107 
2 0 1:0.52072998 2:-0.67901282 3:-0.41817517 4:-0.14758286 5:-1.0603489 6:-0.6883184 7:-0.85420411 8:-0.54214312 9:-0.47082656 10:-0.64105032 11:-0.29178714 12:-0.22200452 13:-0.42002519 14:-0.29103186 15:0.70989859 16:-0.72196955 17:1.6506936 18:-0.093144924 19:-0.53567179 20:-0.048981228 21:-0.54329794 22:-0.43032683 23:-0.39721291 24:-0.26817107 
2 0 1:-1.9202374 2:-0.67901282 3:2.3911635 4:-0.14758286 5:-1.0603489 6:-0.6883184 7:-0.85420411 8:-0.54214312 9:-0.47082656 10:-0.64105032 11:-0.29178714 12:-0.22200452 13:-0.42002519 14:-0.29103186 15:-1.4085465 16:-0.72196955 17:-0.60576065 18:-0.093144924 19:-0.53567179 20:-0.048981228 21:-0.54329794 22:-0.43032683 23:-0.39721291 24:-0.26817107 
2 0 1:-1.9202374 2:1.4726161 3:2.3911635 4:-0.14758286 5:-1.0603489 6:-0.6883184 7:-0.85420411 8:-0.54214312 9:-0.47082656 10:-0.64105032 11:-0.29178714 12:-0.22200452 13:-0.42002519 14:-0.29103186 15:-1.4085465 16:-0.72196955 17:-0.60576065 18:-0.093144924 19:-0.53567179 20:-0.048981228 21:-0.54329794 22:-0.43032683 23:-0.39721291 24:-0.26817107 
2 0 1:-1.9202374 2:-0.67901282 3:2.3911635 4:-0.14758286 5:-1.0603489 6:-0.6883184 7:-0.85420411 8:-0.54214312 9:-0.47082656 10:-0.64105032 11:-0.29178714 12:-0.22200452 13:-0.42002519 14:-0.29103186 15:-1.4085465 16:-0.72196955 17:-0.60576065 18:-0.093144924 19:-0.53567179 20:-0.048981228 21:-0.54329794 22:-0.43032683 23:-0.39721291 24:-0.26817107 
2 0 1:0.52072998 2:-0.67901282 3:2.3911635 4:-0.14758286 5:-1.0603489 6:-0.6883184 7:-0.85420411 8:-0.54214312 9:-0.47082656 10:-0.64105032 11:-0.29178714 12:-0.22200452 13:-0.42002519 14:-0.29103186 15:-1.4085465 16:-0.72196955 17:-0.60576065 18:-0.093144924 19:1.8666751 20:-0.048981228 21:-0.54329794 22:-0.43032683 23:-0.39721291 24:-0.26817107 
0.3722641882335297 2 1:0.52072998 2:-0.67901282 3:-0.41817517 4:-0.14758286 5:0.94301524 6:-0.6883184 7:1.1705928 8:-0.54214312 9:2.1237655 10:1.5598233 11:-0.29178714 12:-0.22200452 13:2.3806315 14:-0.29103186 15:0.70989859 16:1.3849964 17:-0.60576065 18:-0.093144924 19:-0.53567179 20:-0.048981228 21:1.840473 22:-0.43032683 23:2.5173532 24:-0.26817107 
2 0 1:0.52072998 2:-0.67901282 3:-0.41817517 4:-0.14758286 5:-1.0603489 6:-0.6883184 7:-0.85420411 8:-0.54214312 9:-0.47082656 10:-0.64105032 11:-0.29178714 12:-0.22200452 13:-0.42002519 14:-0.29103186 15:-1.4085465 16:-0.72196955 17:-0.60576065 18:-0.093144924 19:1.8666751 20:-0.048981228 21:-0.54329794 22:-0.43032683 23:-0.39721291 24:-0.26817107 
0 0.9078381091328102 1:0.52072998 2:-0.67901282 3:-0.41817517 4:-0.14758286 5:-1.0603489 6:-0.6883184 7:-0.85420411 8:-0.54214312 9:-0.47082656 10:-0.64105032 11:-0.29178714 12:-0.22200452 13:-0.42002519 14:-0.29103186 15:0.70989859 16:-0.72196955 17:-0.60576065 18:-0.093144924 19:1.8666751 20:-0.048981228 21:-0.54329794 22:-0.43032683 23:-0.39721291 24:-0.26817107 
2 0 1:0.52072998 2:1.4726161 3:-0.41817517 4:-0.14758286 5:-1.0603489 6:-0.6883184 7:-0.85420411 8:-0.54214312 9:-0.47082656 10:-0.64105032 11:-0.29178714 12:-0.22200452 13:-0.42002519 14:-0.29103186 15:0.70989859 16:-0.72196955 17:1.6506936 18:-0.093144924 19:1.8666751 20:-0.048981228 21:-0.54329794 22:-0.43032683 23:-0.39721291 24:-0.26817107 
0 0.809587470662288 1:0.52072998 2:-0.67901282 3:2.3911635 4:-0.14758286 5:0.94301524 6:1.4527074 7:-0.85420411 8:-0.54214312 9:-0.47082656 10:-0.64105032 11:-0.29178714 12:-0.22200452 13:-0.42002519 14:-0.29103186 15:0.70989859 16:-0.72196955 17:-0.60576065 18:-0.093144924 19:-0.53567179 20:-0.048981228 21:1.840473 22:-0.43032683 23:-0.39721291 24:-0.26817107 
0.3969883394292101 0.8502465579799028 1:0.52072998 2:1.4726161 3:2.3911635 4:-0.14758286 5:0.94301524 6:1.4527074 7:1.1705928 8:1.8443934 9:-0.47082656 10:1.5598233 11:-0.29178714 12:-0.22200452 13:-0.42002519 14:-0.29103186 15:0.70989859 16:-0.72196955 17:1.6506936 18:-0.093144924 19:-0.53567179 20:-0.048981228 21:-0.54329794 22:-0.43032683 23:-0.39721291 24:-0.26817107 
0.4488026156155305 1.026762699758213 1:0.52072998 2:1.4726161 3:-0.41817517 4:-0.14758286 5:0.94301524 6:-0.6883184 7:1.1705928 8:-0.54214312 9:2.1237655 10:1.5598233 11:-0.29178714 12:-0.22200452 13:-0.42002519 14:3.4357928 15:0.70989859 16:-0.72196955 17:1.6506936 18:-0.093144924 19:1.8666751 20:-0.048981228 21:1.840473 22:2.3236413 23:-0.39721291 24:-0.26817107 
0 1.118297012236626 1:0.52072998 2:1.4726161 3:-0.41817517 4:-0.14758286 5:0.94301524 6:1.4527074 7:1.1705928 8:1.8443934 9:-0.47082656 10:1.5598233 11:-0.29178714 12:-0.22200452 13:-0.42002519 14:-0.29103186 15:0.70989859 16:1.3849964 17:1.6506936 18:-0.093144924 19:-0.53567179 20:-0.048981228 21:1.840473 22:2.3236413 23:-0.39721291 24:-0.26817107 
0.579151424088957 0.9997384802740241 1:0.52072998 2:-0.67901282 3:2.3911635 4:-0.14758286 5:0.94301524 6:-0.6883184 7:1.1705928 8:1.8443934 9:-0.47082656 10:1.5598233 11:3.4268995 12:-0.22200452 13:-0.42002519 14:-0.29103186 15:0.70989859 16:-0.72196955 17:1.6506936 18:-0.093144924 19:-0.53567179 20:-0.048981228 21:-0.54329794 22:-0.43032683 23:-0.39721291 24:-0.26817107 
0.4443082672521508 1.022905725323713 1:0.52072998 2:-0.67901282 3:-0.41817517 4:-0.14758286 5:0.94301524 6:1.4527074 7:1.1705928 8:1.8443934 9:2.1237655 10:1.5598233 11:3.4268995 12:-0.22200452 13:-0.42002519 14:3.4357928 15:0.70989859 16:1.3849964 17:1.6506936 18:-0.093144924 19:-0.53567179 20:-0.048981228 21:1.840473 22:-0.43032683 23:-0.39721291 24:-0.26817107 
0 2 1:0.52072998 2:1.4726161 3:-0.41817517 4:-0.14758286 5:0.94301524 6:1.4527074 7:1.1705928 8:1.8443934 9:-0.47082656 10:1.5598233 11:-0.29178714 12:-0.22200452 13:-0.42002519 14:-0.29103186 15:0.70989859 16:1.3849964 17:1.6506936 18:-0.093144924 19:-0.53567179 20:-0.048981228 21:1.840473 22:2.3236413 23:-0.39721291 24:-0.26817107 
0 1.112891222633265 1:0.52072998 2:1.4726161 3:-0.41817517 4:-0.14758286 5:0.94301524 6:-0.6883184 7:1.1705928 8:1.8443934 9:-0.47082656 10:1.5598233 11:-0.29178714 12:-0.22200452 13:-0.42002519 14:-0.29103186 15:0.70989859 16:-0.72196955 17:-0.60576065 18:-0.093144924 19:1.8666751 20:-0.048981228 21:-0.54329794 22:-0.43032683 23:-0.39721291 24:-0.26817107 
0.3017345006184279 0.9107430522171585 1:0.52072998 2:1.4726161 3:-0.41817517 4:-0.14758286 5:0.94301524 6:1.4527074 7:1.1705928 8:1.8443934 9:-0.47082656 10:1.5598233 11:-0.29178714 12:-0.22200452 13:-0.42002519 14:-0.29103186 15:0.70989859 16:1.3849964 17:1.6506936 18:-0.093144924 19:1.8666751 20:-0.048981228 21:1.840473 22:-0.43032683 23:-0.39721291 24:-0.26817107 
0.4453903322165222 1.051760506477192 1:-1.9202374 2:1.4726161 3:-0.41817517 4:-0.14758286 5:0.94301524 6:1.4527074 7:1.1705928 8:1.8443934 9:-0.47082656 10:-0.64105032 11:3.4268995 12:-0.22200452 13:-0.42002519 14:-0.29103186 15:0.70989859 16:1.3849964 17:1.6506936 18:-0.093144924 19:-0.53567179 20:-0.048981228 21:1.840473 22:2.3236413 23:-0.39721291 24:-0.26817107 
2 0 1:0.52072998 2:1.4726161 3:-0.41817517 4:-0.14758286 5:-1.0603489 6:-0.6883184 7:-0.85420411 8:-0.54214312 9:-0.47082656 10:-0.64105032 11:-0.29178714 12:-0.22200452 13:-0.42002519 14:-0.29103186 15:0.70989859 16:1.3849964 17:-0.60576065 18:-0.093144924 19:-0.53567179 20:-0.048981228 21:1.840473 22:-0.43032683 23:-0.39721291 24:-0.26817107 
0.2708311624737785 0.712119967788297 1:0.52072998 2:-0.67901282 3:-0.41817517 4:-0.14758286 5:0.94301524 6:1.4527074 7:1.1705928 8:1.8443934 9:-0.47082656 10:1.5598233 11:-0.29178714 12:-0.22200452 13:-0.42002519 14:-0.29103186 15:0.70989859 16:1.3849964 17:1.6506936 18:-0.093144924 19:-0.53567179 20:-0.048981228 21:-0.54329794 22:-0.43032683 23:-0.39721291 24:-0.26817107 
0 0.9710817101520379 1:-1.9202374 2:-0.67901282 3:2.3911635 4:-0.14758286 5:0.94301524 6:-0.6883184 7:1.1705928 8:1.8443934 9:-0.47082656 10:1.5598233 11:-0.29178714 12:-0.22200452 13:-0.42002519 14:-0.29103186 15:0.70989859 16:1.3849964 17:-0.60576065 18:-0.093144924 19:-0.53567179 20:-0.048981228 21:1.840473 22:-0.43032683 23:-0.39721291 24:-0.26817107 
0.3381264783443423 2 1:0.52072998 2:-0.67901282 3:-0.41817517 4:-0.14758286 5:0.94301524 6:1.4527074 7:1.1705928 8:1.8443934 9:2.1237655 10:1.5598233 11:-0.29178714 12:-0.22200452 13:-0.42002519 14:-0.29103186 15:0.70989859 16:1.3849964 17:1.6506936 18:-0.093144924 19:-0.53567179 20:-0.048981228 21:-0.54329794 22:-0.43032683 23:-0.39721291 24:-0.26817107 
0.4157773686688055 0.9660834222111382 1:0.52072998 2:-0.67901282 3:2.3911635 4:-0.14758286 5:0.94301524 6:1.4527074 7:1.1705928 8:-0.54214312 9:2.1237655 10:1.5598233 11:-0.29178714 12:-0.22200452 13:2.3806315 14:-0.29103186 15:0.70989859 16:1.3849964 17:-0.60576065 18:-0.093144924 19:-0.53567179 20:-0.048981228 21:1.840473 22:-0.43032683 23:-0.39721291 24:3.7286841 
0.3127625382872288 2 1:0.52072998 2:1.4726161 3:-0.41817517 4:-0.14758286 5:0.94301524 6:1.4527074 7:1.1705928 8:1.8443934 9:-0.47082656 10:1.5598233 11:-0.29178714 12:-0.22200452 13:-0.42002519 14:-0.29103186 15:0.70989859 16:-0.72196955 17:-0.60576065 18:-0.093144924 19:1.8666751 20:-0.048981228 21:-0.54329794 22:-0.43032683 23:2.5173532 24:-0.26817107 
0.4341168697652632 1.023965399141481 1:0.52072998 2:-0.67901282 3:-0.41817517 4:-0.14758286 5:0.94301524 6:1.4527074 7:-0.85420411 8:-0.54214312 9:-0.47082656 10:-0.64105032 11:-0.29178714 12:-0.22200452 13:-0.42002519 14:-0.29103186 15:0.70989859 16:-0.72196955 17:-0.60576065 18:10.735155 19:-0.53567179 20:-0.048981228 21:-0.54329794 22:-0.43032683 23:2.5173532 24:-0.26817107 
0.464058740653224 1.236519088731353 1:0.52072998 2:-0.67901282 3:2.3911635 4:-0.14758286 5:0.94301524 6:1.4527074 7:1.1705928 8:1.8443934 9:2.1237655 10:1.5598233 11:-0.29178714 12:-0.22200452 13:-0.42002519 14:-0.29103186 15:0.70989859 16:1.3849964 17:1.6506936 18:-0.093144924 19:-0.53567179 20:-0.048981228 21:1.840473 22:2.3236413 23:2.5173532 24:-0.26817107 
0.3120767488259925 1.091609683441845 1:0.52072998 2:-0.67901282 3:-0.41817517 4:-0.14758286 5:0.94301524 6:1.4527074 7:1.1705928 8:-0.54214312 9:2.1237655 10:1.5598233 11:-0.29178714 12:-0.22200452 13:-0.42002519 14:-0.29103186 15:0.70989859 16:1.3849964 17:1.6506936 18:-0.093144924 19:-0.53567179 20:-0.048981228 21:1.840473 22:-0.43032683 23:2.5173532 24:-0.26817107 
0.4214458750680847 0.9837388293625007 1:0.52072998 2:1.4726161 3:-0.41817517 4:-0.14758286 5:0.94301524 6:1.4527074 7:1.1705928 8:1.8443934 9:2.1237655 10:1.5598233 11:3.4268995 12:-0.22200452 13:-0.42002519 14:-0.29103186 15:0.70989859 16:-0.72196955 17:-0.60576065 18:-0.093144924 19:1.8666751 20:-0.048981228 21:-0.54329794 22:-0.43032683 23:-0.39721291 24:-0.26817107 
0 2 1:0.52072998 2:1.4726161 3:-0.41817517 4:-0.14758286 5:0.94301524 6:1.4527074 7:1.1705928 8:1.8443934 9:-0.47082656 10:1.5598233 11:-0.29178714 12:-0.22200452 13:-0.42002519 14:-0.29103186 15:0.70989859 16:1.3849964 17:1.6506936 18:-0.093144924 19:-0.53567179 20:-0.048981228 21:-0.54329794 22:-0.43032683 23:-0.39721291 24:-0.26817107 
2 0 1:0.52072998 2:1.4726161 3:-0.41817517 4:-0.14758286 5:-1.0603489 6:-0.6883184 7:-0.85420411 8:-0.54214312 9:-0.47082656 10:-0.64105032 11:-0.29178714 12:-0.22200452 13:-0.42002519 14:-0.29103186 15:-1.4085465 16:-0.72196955 17:-0.60576065 18:-0.093144924 19:1.8666751 20:-0.048981228 21:-0.54329794 22:-0.43032683 23:-0.39721291 24:-0.26817107 
0.4758758185695428 0.9600417878843031 1:0.52072998 2:1.4726161 3:2.3911635 4:-0.14758286 5:0.94301524 6:-0.6883184 7:1.1705928 8:1.8443934 9:2.1237655 10:1.5598233 11:-0.29178714 12:-0.22200452 13:-0.42002519 14:-0.29103186 15:0.70989859 16:1.3849964 17:1.6506936 18:-0.093144924 19:-0.53567179 20:-0.048981228 21:-0.54329794 22:-0.43032683 23:-0.39721291 24:-0.26817107 
0.32546923572567 1.877077469153366 1:-1.9202374 2:-0.67901282 3:2.3911635 4:-0.14758286 5:0.94301524 6:-0.6883184 7:1.1705928 8:1.8443934 9:-0.47082656 10:1.5598233 11:-0.29178714 12:-0.22200452 13:-0.42002519 14:-0.29103186 15:0.70989859 16:1.3849964 17:-0.60576065 18:-0.093144924 19:-0.53567179 20:-0.048981228 21:1.840473 22:-0.43032683 23:-0.39721291 24:-0.26817107 
0.4594831586572476 1.013472316826902 1:-1.9202374 2:-0.67901282 3:2.3911635 4:-0.14758286 5:0.94301524 6:1.4527074 7:1.1705928 8:1.8443934 9:2.1237655 10:-0.64105032 11:3.4268995 12:4.5040758 13:-0.42002519 14:-0.29103186 15:0.70989859 16:-0.72196955 17:-0.60576065 18:-0.093144924 19:-0.53567179 20:-0.048981228 21:-0.54329794 22:-0.43032683 23:-0.39721291 24:-0.26817107 
2 0 1:-1.9202374 2:-0.67901282 3:2.3911635 4:-0.14758286 5:-1.0603489 6:-0.6883184 7:-0.85420411 8:-0.54214312 9:-0.47082656 10:-0.64105032 11:-0.29178714 12:-0.22200452 13:-0.42002519 14:-0.29103186 15:-1.4085465 16:-0.72196955 17:-0.60576065 18:-0.093144924 19:-0.53567179 20:-0.048981228 21:-0.54329794 22:-0.43032683 23:-0.39721291 24:-0.26817107 
0.6172191509422895 0.9728164965693646 1:0.52072998 2:-0.67901282 3:-0.41817517 4:-0.14758286 5:0.94301524 6:1.4527074 7:1.1705928 8:-0.54214312 9:2.1237655 10:1.5598233 11:-0.29178714 12:-0.22200452 13:-0.42002519 14:-0.29103186 15:0.70989859 16:1.3849964 17:-0.60576065 18:-0.093144924 19:-0.53567179 20:-0.048981228 21:1.840473 22:2.3236413 23:-0.39721291 24:-0.26817107 
0.4322166421965764 1.096776506458567 1:0.52072998 2:-0.67901282 3:2.3911635 4:-0.14758286 5:0.94301524 6:1.4527074 7:1.1705928 8:1.8443934 9:-0.47082656 10:1.5598233 11:3.4268995 12:-0.22200452 13:-0.42002519 14:-0.29103186 15:0.70989859 16:1.3849964 17:-0.60576065 18:-0.093144924 19:-0.53567179 20:-0.048981228 21:1.840473 22:2.3236413 23:-0.39721291 24:-0.26817107 
0.2940698795144126 0.8187152855534737 1:0.52072998 2:1.4726161 3:-0.41817517 4:-0.14758286 5:0.94301524 6:1.4527074 7:1.1705928 8:-0.54214312 9:2.1237655 10:1.5598233 11:-0.29178714 12:-0.22200452 13:-0.42002519 14:-0.29103186 15:0.70989859 16:-0.72196955 17:1.6506936 18:-0.093144924 19:-0.53567179 20:-0.048981228 21:1.840473 22:-0.43032683 23:-0.39721291 24:-0.26817107 
0.3964062346698539 0.9332632248815341 1:0.52072998 2:1.4726161 3:-0.41817517 4:-0.14758286 5:0.94301524 6:-0.6883184 7:1.1705928 8:-0.54214312 9:2.1237655 10:1.5598233 11:-0.29178714 12:-0.22200452 13:-0.42002519 14:3.4357928 15:0.70989859 16:-0.72196955 17:1.6506936 18:-0.093144924 19:-0.53567179 20:-0.048981228 21:1.840473 22:2.3236413 23:2.5173532 24:-0.26817107 
0.4204941649141906 0.9684484527332275 1:-1.9202374 2:-0.67901282 3:-0.41817517 4:-0.14758286 5:0.94301524 6:-0.6883184 7:1.1705928 8:-0.54214312 9:-0.47082656 10:-0.64105032 11:-0.29178714 12:-0.22200452 13:2.3806315 14:-0.29103186 15:0.70989859 16:1.3849964 17:1.6506936 18:-0.093144924 19:1.8666751 20:-0.048981228 21:-0.54329794 22:2.3236413 23:-0.39721291 24:-0.26817107 
2 2 1:0.52072998 2:-0.67901282 3:-0.41817517 4:-0.14758286 5:0.94301524 6:1.4527074 7:-0.85420411 8:-0.54214312 9:-0.47082656 10:-0.64105032 11:-0.29178714 12:-0.22200452 13:-0.42002519 14:3.4357928 15:0.70989859 16:1.3849964 17:-0.60576065 18:-0.093144924 19:-0.53567179 20:-0.048981228 21:-0.54329794 22:-0.43032683 23:-0.39721291 24:-0.26817107 
0.5133223365449331 1.115858179958995 1:0.52072998 2:1.4726161 3:-0.41817517 4:-0.14758286 5:0.94301524 6:1.4527074 7:1.1705928 8:1.8443934 9:2.1237655 10:1.5598233 11:-0.29178714 12:-0.22200452 13:2.3806315 14:-0.29103186 15:0.70989859 16:1.3849964 17:1.6506936 18:-0.093144924 19:1.8666751 20:-0.048981228 21:1.840473 22:2.3236413 23:-0.39721291 24:-0.26817107 
0.5882344215502613 2 1:0.52072998 2:1.4726161 3:-0.41817517 4:-0.14758286 5:0.94301524 6:1.4527074 7:1.1705928 8:1.8443934 9:2.1237655 10:1.5598233 11:-0.29178714 12:-0.22200452 13:2.3806315 14:-0.29103186 15:0.70989859 16:1.3849964 17:1.6506936 18:-0.093144924 19:-0.53567179 20:-0.048981228 21:-0.54329794 22:2.3236413 23:-0.39721291 24:-0.26817107 
0 2 1:0.52072998 2:-0.67901282 3:-0.41817517 4:-0.14758286 5:0.94301524 6:1.4527074 7:-0.85420411 8:-0.54214312 9:-0.47082656 10:-0.64105032 11:-0.29178714 12:-0.22200452 13:-0.42002519 14:-0.29103186 15:0.70989859 16:-0.72196955 17:1.6506936 18:-0.093144924 19:-0.53567179 20:-0.048981228 21:-0.54329794 22:2.3236413 23:-0.39721291 24:-0.26817107 
2 0 1:-1.9202374 2:-0.67901282 3:2.3911635 4:-0.14758286 5:0.94301524 6:1.4527074 7:-0.85420411 8:-0.54214312 9:-0.47082656 10:-0.64105032 11:-0.29178714 12:-0.22200452 13:-0.42002519 14:-0.29103186 15:0.70989859 16:-0.72196955 17:1.6506936 18:-0.093144924 19:-0.53567179 20:-0.048981228 21:-0.54329794 22:-0.43032683 23:-0.39721291 24:-0.26817107 
0.437766334553942 1.017022339626538 1:0.52072998 2:1.4726161 3:-0.41817517 4:-0.14758286 5:0.94301524 6:1.4527074 7:1.1705928 8:-0.54214312 9:2.1237655 10:1.5598233 11:-0.29178714 12:-0.22200452 13:2.3806315 14:3.4357928 15:0.70989859 16:1.3849964 17:1.6506936 18:-0.093144924 19:1.8666751 20:-0.048981228 21:1.840473 22:2.3236413 23:2.5173532 24:3.7286841 
0.3985802571535929 0 1:0.52072998 2:-0.67901282 3:-0.41817517 4:-0.14758286 5:0.94301524 6:-0.6883184 7:1.1705928 8:-0.54214312 9:2.1237655 10:1.5598233 11:-0.29178714 12:-0.22200452 13:-0.42002519 14:-0.29103186 15:0.70989859 16:-0.72196955 17:-0.60576065 18:-0.093144924 19:-0.53567179 20:-0.048981228 21:-0.54329794 22:-0.43032683 23:-0.39721291 24:-0.26817107 
0.4772005137951148 0.9494717076450196 1:0.52072998 2:-0.67901282 3:-0.41817517 4:-0.14758286 5:-1.0603489 6:-0.6883184 7:-0.85420411 8:-0.54214312 9:-0.47082656 10:-0.64105032 11:-0.29178714 12:-0.22200452 13:-0.42002519 14:-0.29103186 15:0.70989859 16:1.3849964 17:-0.60576065 18:-0.093144924 19:-0.53567179 20:-0.048981228 21:1.840473 22:-0.43032683 23:-0.39721291 24:3.7286841 
0.428313937961228 1.119529409719374 1:0.52072998 2:1.4726161 3:-0.41817517 4:-0.14758286 5:0.94301524 6:1.4527074 7:1.1705928 8:-0.54214312 9:2.1237655 10:1.5598233 11:-0.29178714 12:4.5040758 13:2.3806315 14:-0.29103186 15:0.70989859 16:1.3849964 17:1.6506936 18:-0.093144924 19:-0.53567179 20:-0.048981228 21:1.840473 22:2.3236413 23:2.5173532 24:-0.26817107 
0 2 1:0.52072998 2:-0.67901282 3:-0.41817517 4:-0.14758286 5:0.94301524 6:1.4527074 7:1.1705928 8:-0.54214312 9:2.1237655 10:1.5598233 11:-0.29178714 12:-0.22200452 13:2.3806315 14:-0.29103186 15:0.70989859 16:1.3849964 17:1.6506936 18:-0.093144924 19:-0.53567179 20:-0.048981228 21:1.840473 22:2.3236413 23:-0.39721291 24:-0.26817107 
2 0 1:-1.9202374 2:-0.67901282 3:2.3911635 4:-0.14758286 5:-1.0603489 6:-0.6883184 7:-0.85420411 8:-0.54214312 9:-0.47082656 10:-0.64105032 11:-0.29178714 12:-0.22200452 13:-0.42002519 14:-0.29103186 15:-1.4085465 16:-0.72196955 17:-0.60576065 18:-0.093144924 19:-0.53567179 20:-0.048981228 21:-0.54329794 22:-0.43032683 23:-0.39721291 24:-0.26817107 
0.5283478098110963 1.120902668708093 1:0.52072998 2:-0.67901282 3:-0.41817517 4:-0.14758286 5:0.94301524 6:1.4527074 7:1.1705928 8:-0.54214312 9:2.1237655 10:1.5598233 11:-0.29178714 12:4.5040758 13:-0.42002519 14:-0.29103186 15:0.70989859 16:-0.72196955 17:1.6506936 18:-0.093144924 19:-0.53567179 20:-0.048981228 21:1.840473 22:2.3236413 23:2.5173532 24:-0.26817107 
2 0 1:0.52072998 2:1.4726161 3:-0.41817517 4:-0.14758286 5:0.94301524 6:1.4527074 7:1.1705928 8:-0.54214312 9:-0.47082656 10:-0.64105032 11:-0.29178714 12:-0.22200452 13:2.3806315 14:-0.29103186 15:0.70989859 16:1.3849964 17:1.6506936 18:-0.093144924 19:-0.53567179 20:-0.048981228 21:-0.54329794 22:-0.43032683 23:-0.39721291 24:-0.26817107 
0.4298564812524784 1.027252063885367 1:0.52072998 2:1.4726161 3:-0.41817517 4:-0.14758286 5:0.94301524 6:1.4527074 7:1.1705928 8:-0.54214312 9:2.1237655 10:1.5598233 11:-0.29178714 12:4.5040758 13:-0.42002519 14:-0.29103186 15:0.70989859 16:1.3849964 17:1.6506936 18:-0.093144924 19:-0.53567179 20:-0.048981228 21:1.840473 22:-0.43032683 23:2.5173532 24:-0.26817107 
0.3440922655576095 0.9637808826026262 1:-1.9202374 2:-0.67901282 3:-0.41817517 4:-0.14758286 5:0.94301524 6:-0.6883184 7:1.1705928 8:-0.54214312 9:-0.47082656 10:-0.64105032 11:-0.29178714 12:-0.22200452 13:2.3806315 14:-0.29103186 15:0.70989859 16:1.3849964 17:1.6506936 18:-0.093144924 19:-0.53567179 20:-0.048981228 21:-0.54329794 22:2.3236413 23:-0.39721291 24:-0.26817107 
0.4398347728253096 1.02466424769946 1:0.52072998 2:-0.67901282 3:-0.41817517 4:-0.14758286 5:0.94301524 6:1.4527074 7:1.1705928 8:1.8443934 9:2.1237655 10:1.5598233 11:-0.29178714 12:-0.22200452 13:-0.42002519 14:3.4357928 15:0.70989859 16:1.3849964 17:1.6506936 18:-0.093144924 19:1.8666751 20:-0.048981228 21:-0.54329794 22:2.3236413 23:-0.39721291 24:3.7286841 
0 2 1:0.52072998 2:-0.67901282 3:-0.41817517 4:-0.14758286 5:0.94301524 6:-0.6883184 7:1.1705928 8:-0.54214312 9:2.1237655 10:1.5598233 11:-0.29178714 12:-0.22200452 13:-0.42002519 14:-0.29103186 15:0.70989859 16:1.3849964 17:-0.60576065 18:-0.093144924 19:-0.53567179 20:-0.048981228 21:-0.54329794 22:-0.43032683 23:-0.39721291 24:-0.26817107 
0.471699700318787 1.008377637912911 1:0.52072998 2:1.4726161 3:-0.41817517 4:-0.14758286 5:0.94301524 6:1.4527074 7:1.1705928 8:1.8443934 9:-0.47082656 10:1.5598233 11:-0.29178714 12:-0.22200452 13:2.3806315 14:-0.29103186 15:0.70989859 16:1.3849964 17:1.6506936 18:-0.093144924 19:1.8666751 20:-0.048981228 21:1.840473 22:2.3236413 23:-0.39721291 24:3.7286841 
0.4410858757014594 1.002809715203455 1:-1.9202374 2:-0.67901282 3:-0.41817517 4:-0.14758286 5:0.94301524 6:-0.6883184 7:1.1705928 8:-0.54214312 9:2.1237655 10:1.5598233 11:-0.29178714 12:4.5040758 13:-0.42002519 14:-0.29103186 15:0.70989859 16:1.3849964 17:-0.60576065 18:-0.093144924 19:-0.53567179 20:-0.048981228 21:-0.54329794 22:-0.43032683 23:-0.39721291 24:-0.26817107 
2 1.044668688740742 1:0.52072998 2:-0.67901282 3:-0.41817517 4:-0.14758286 5:0.94301524 6:1.4527074 7:1.1705928 8:1.8443934 9:2.1237655 10:1.5598233 11:-0.29178714 12:-0.22200452 13:2.3806315 14:-0.29103186 15:0.70989859 16:1.3849964 17:-0.60576065 18:-0.093144924 19:-0.53567179 20:-0.048981228 21:1.840473 22:2.3236413 23:-0.39721291 24:-0.26817107 
0.3109391989286336 1.832636557046055 1:0.52072998 2:1.4726161 3:-0.41817517 4:-0.14758286 5:0.94301524 6:-0.6883184 7:1.1705928 8:-0.54214312 9:2.1237655 10:1.5598233 11:-0.29178714 12:-0.22200452 13:-0.42002519 14:-0.29103186 15:0.70989859 16:-0.72196955 17:-0.60576065 18:-0.093144924 19:-0.53567179 20:-0.048981228 21:-0.54329794 22:-0.43032683 23:2.5173532 24:-0.26817107 
2 2 1:0.52072998 2:-0.67901282 3:-0.41817517 4:-0.14758286 5:0.94301524 6:1.4527074 7:1.1705928 8:-0.54214312 9:2.1237655 10:1.5598233 11:-0.29178714 12:-0.22200452 13:-0.42002519 14:3.4357928 15:0.70989859 16:1.3849964 17:1.6506936 18:-0.093144924 19:-0.53567179 20:-0.048981228 21:1.840473 22:2.3236413 23:2.5173532 24:-0.26817107 
2 0 1:-1.9202374 2:-0.67901282 3:2.3911635 4:-0.14758286 5:-1.0603489 6:-0.6883184 7:-0.85420411 8:-0.54214312 9:-0.47082656 10:-0.64105032 11:-0.29178714 12:-0.22200452 13:-0.42002519 14:-0.29103186 15:-1.4085465 16:-0.72196955 17:-0.60576065 18:-0.093144924 19:-0.53567179 20:-0.048981228 21:-0.54329794 22:-0.43032683 23:-0.39721291 24:-0.26817107 
2 0 1:0.52072998 2:-0.67901282 3:-0.41817517 4:-0.14758286 5:-1.0603489 6:-0.6883184 7:-0.85420411 8:-0.54214312 9:-0.47082656 10:-0.64105032 11:-0.29178714 12:-0.22200452 13:-0.42002519 14:-0.29103186 15:0.70989859 16:1.3849964 17:-0.60576065 18:-0.093144924 19:-0.53567179 20:-0.048981228 21:1.840473 22:-0.43032683 23:-0.39721291 24:-0.26817107 
0.4064513829388365 1.061821499248424 1:0.52072998 2:-0.67901282 3:2.3911635 4:-0.14758286 5:0.94301524 6:-0.6883184 7:1.1705928 8:-0.54214312 9:2.1237655 10:1.5598233 11:-0.29178714 12:-0.22200452 13:2.3806315 14:-0.29103186 15:0.70989859 16:1.3849964 17:-0.60576065 18:-0.093144924 19:-0.53567179 20:-0.048981228 21:-0.54329794 22:-0.43032683 23:2.5173532 24:-0.26817107 
0.4343937293073348 1.070312523390422 1:0.52072998 2:-0.67901282 3:-0.41817517 4:-0.14758286 5:0.94301524 6:-0.6883184 7:1.1705928 8:-0.54214312 9:2.1237655 10:1.5598233 11:-0.29178714 12:-0.22200452 13:-0.42002519 14:-0.29103186 15:0.70989859 16:1.3849964 17:-0.60576065 18:-0.093144924 19:1.8666751 20:-0.048981228 21:-0.54329794 22:-0.43032683 23:-0.39721291 24:-0.26817107 
2 0 1:0.52072998 2:1.4726161 3:-0.41817517 4:-0.14758286 5:-1.0603489 6:-0.6883184 7:-0.85420411 8:-0.54214312 9:-0.47082656 10:-0.64105032 11:-0.29178714 12:-0.22200452 13:-0.42002519 14:-0.29103186 15:0.70989859 16:-0.72196955 17:1.6506936 18:-0.093144924 19:1.8666751 20:-0.048981228 21:-0.54329794 22:-0.43032683 23:-0.39721291 24:-0.26817107 
0.3837806437549272 2 1:0.52072998 2:1.4726161 3:-0.41817517 4:-0.14758286 5:0.94301524 6:1.4527074 7:1.1705928 8:1.8443934 9:-0.47082656 10:1.5598233 11:3.4268995 12:-0.22200452 13:-0.42002519 14:-0.29103186 15:0.70989859 16:-0.72196955 17:-0.60576065 18:-0.093144924 19:-0.53567179 20:-0.048981228 21:-0.54329794 22:-0.43032683 23:-0.39721291 24:-0.26817107 
0.4195737725772987 0.9749292931218189 1:-1.9202374 2:1.4726161 3:-0.41817517 4:-0.14758286 5:0.94301524 6:-0.6883184 7:1.1705928 8:1.8443934 9:2.1237655 10:-0.64105032 11:3.4268995 12:4.5040758 13:-0.42002519 14:-0.29103186 15:0.70989859 16:1.3849964 17:1.6506936 18:-0.093144924 19:-0.53567179 20:-0.048981228 21:-0.54329794 22:-0.43032683 23:-0.39721291 24:-0.26817107 
0.3407150320408339 0.8442728729945774 1:0.52072998 2:1.4726161 3:2.3911635 4:-0.14758286 5:-1.0603489 6:-0.6883184 7:-0.85420411 8:-0.54214312 9:-0.47082656 10:-0.64105032 11:-0.29178714 12:-0.22200452 13:-0.42002519 14:-0.29103186 15:0.70989859 16:1.3849964 17:1.6506936 18:-0.093144924 19:-0.53567179 20:-0.048981228 21:1.840473 22:2.3236413 23:-0.39721291 24:-0.26817107 
0.3322494200183768 0.8303447883043249 1:-1.9202374 2:1.4726161 3:2.3911635 4:-0.14758286 5:0.94301524 6:-0.6883184 7:1.1705928 8:1.8443934 9:-0.47082656 10:-0.64105032 11:3.4268995 12:-0.22200452 13:-0.42002519 14:-0.29103186 15:0.70989859 16:1.3849964 17:1.6506936 18:-0.093144924 19:-0.53567179 20:-0.048981228 21:-0.54329794 22:-0.43032683 23:2.5173532 24:-0.26817107 
2 0 1:0.52072998 2:1.4726161 3:-0.41817517 4:-0.14758286 5:-1.0603489 6:-0.6883184 7:-0.85420411 8:-0.54214312 9:-0.47082656 10:-0.64105032 11:-0.29178714 12:-0.22200452 13:-0.42002519 14:-0.29103186 15:-1.4085465 16:-0.72196955 17:-0.60576065 18:-0.093144924 19:1.8666751 20:-0.048981228 21:-0.54329794 22:-0.43032683 23:-0.39721291 24:-0.26817107 
2 0 1:0.52072998 2:-0.67901282 3:-0.41817517 4:-0.14758286 5:-1.0603489 6:-0.6883184 7:-0.85420411 8:-0.54214312 9:-0.47082656 10:-0.64105032 11:-0.29178714 12:-0.22200452 13:-0.42002519 14:-0.29103186 15:0.70989859 16:-0.72196955 17:1.6506936 18:-0.093144924 19:-0.53567179 20:-0.048981228 21:-0.54329794 22:-0.43032683 23:-0.39721291 24:-0.26817107 
0.5917980192218916 0.8074275093228027 1:-1.9202374 2:1.4726161 3:2.3911635 4:-0.14758286 5:0.94301524 6:1.4527074 7:1.1705928 8:-0.54214312 9:2.1237655 10:1.5598233 11:-0.29178714 12:-0.22200452 13:-0.42002519 14:-0.29103186 15:0.70989859 16:1.3849964 17:1.6506936 18:-0.093144924 19:-0.53567179 20:-0.048981228 21:-0.54329794 22:-0.43032683 23:-0.39721291 24:-0.26817107 
2 0 1:-1.9202374 2:-0.67901282 3:2.3911635 4:-0.14758286 5:-1.0603489 6:-0.6883184 7:-0.85420411 8:-0.54214312 9:-0.47082656 10:-0.64105032 11:-0.29178714 12:-0.22200452 13:-0.42002519 14:-0.29103186 15:-1.4085465 16:-0.72196955 17:-0.60576065 18:-0.093144924 19:-0.53567179 20:-0.048981228 21:-0.54329794 22:-0.43032683 23:-0.39721291 24:-0.26817107 
2 0 1:-1.9202374 2:-0.67901282 3:-0.41817517 4:-0.14758286 5:0.94301524 6:-0.6883184 7:1.1705928 8:-0.54214312 9:2.1237655 10:1.5598233 11:-0.29178714 12:-0.22200452 13:-0.42002519 14:-0.29103186 15:0.70989859 16:-0.72196955 17:-0.60576065 18:-0.093144924 19:-0.53567179 20:-0.048981228 21:-0.54329794 22:-0.43032683 23:-0.39721291 24:-0.26817107 
0.4398164208652537 1.021658447447377 1:-1.9202374 2:-0.67901282 3:-0.41817517 4:-0.14758286 5:0.94301524 6:1.4527074 7:1.1705928 8:-0.54214312 9:2.1237655 10:1.5598233 11:-0.29178714 12:-0.22200452 13:-0.42002519 14:-0.29103186 15:0.70989859 16:-0.72196955 17:-0.60576065 18:-0.093144924 19:-0.53567179 20:-0.048981228 21:-0.54329794 22:2.3236413 23:-0.39721291 24:3.7286841 
0.4372666961171865 1.058854632951778 1:-1.9202374 2:-0.67901282 3:-0.41817517 4:-0.14758286 5:0.94301524 6:-0.6883184 7:1.1705928 8:-0.54214312 9:2.1237655 10:1.5598233 11:-0.29178714 12:-0.22200452 13:-0.42002519 14:3.4357928 15:0.70989859 16:-0.72196955 17:1.6506936 18:-0.093144924 19:-0.53567179 20:-0.048981228 21:-0.54329794 22:-0.43032683 23:-0.39721291 24:-0.26817107 
2 0 1:-1.9202374 2:-0.67901282 3:2.3911635 4:-0.14758286 5:0.94301524 6:-0.6883184 7:1.1705928 8:-0.54214312 9:-0.47082656 10:-0.64105032 11:-0.29178714 12:-0.22200452 13:2.3806315 14:-0.29103186 15:0.70989859 16:-0.72196955 17:-0.60576065 18:-0.093144924 19:-0.53567179 20:-0.048981228 21:-0.54329794 22:-0.43032683 23:-0.39721291 24:-0.26817107 
0 2 1:0.52072998 2:-0.67901282 3:-0.41817517 4:-0.14758286 5:0.94301524 6:1.4527074 7:1.1705928 8:-0.54214312 9:-0.47082656 10:-0.64105032 11:-0.29178714 12:-0.22200452 13:2.3806315 14:-0.29103186 15:0.70989859 16:1.3849964 17:-0.60576065 18:-0.093144924 19:-0.53567179 20:-0.048981228 21:1.840473 22:-0.43032683 23:-0.39721291 24:-0.26817107 
0.3221661116979804 0.7618301834455473 1:0.52072998 2:1.4726161 3:-0.41817517 4:-0.14758286 5:0.94301524 6:-0.6883184 7:1.1705928 8:-0.54214312 9:-0.47082656 10:-0.64105032 11:-0.29178714 12:-0.22200452 13:2.3806315 14:-0.29103186 15:0.70989859 16:-0.72196955 17:1.6506936 18:-0.093144924 19:-0.53567179 20:-0.048981228 21:1.840473 22:-0.43032683 23:-0.39721291 24:-0.26817107 
0.4016617382574055 2 1:0.52072998 2:1.4726161 3:-0.41817517 4:-0.14758286 5:0.94301524 6:1.4527074 7:1.1705928 8:1.8443934 9:-0.47082656 10:1.5598233 11:3.4268995 12:-0.22200452 13:-0.42002519 14:-0.29103186 15:0.70989859 16:1.3849964 17:1.6506936 18:-0.093144924 19:-0.53567179 20:-0.048981228 21:1.840473 22:-0.43032683 23:-0.39721291 24:-0.26817107 
0.443095090525852 1.018296896451484 1:0.52072998 2:1.4726161 3:-0.41817517 4:-0.14758286 5:0.94301524 6:1.4527074 7:1.1705928 8:1.8443934 9:-0.47082656 10:-0.64105032 11:3.4268995 12:4.5040758 13:-0.42002519 14:-0.29103186 15:0.70989859 16:1.3849964 17:1.6506936 18:-0.093144924 19:-0.53567179 20:-0.048981228 21:-0.54329794 22:-0.43032683 23:-0.39721291 24:-0.26817107 
2 0 1:-1.9202374 2:-0.67901282 3:-0.41817517 4:-0.14758286 5:0.94301524 6:-0.6883184 7:1.1705928 8:-0.54214312 9:2.1237655 10:1.5598233 11:-0.29178714 12:-0.22200452 13:-0.42002519 14:-0.29103186 15:0.70989859 16:-0.72196955 17:-0.60576065 18:-0.093144924 19:-0.53567179 20:-0.048981228 21:-0.54329794 22:-0.43032683 23:-0.39721291 24:-0.26817107 
0.4028894357931135 1.139400198079928 1:0.52072998 2:-0.67901282 3:-0.41817517 4:-0.14758286 5:0.94301524 6:1.4527074 7:1.1705928 8:1.8443934 9:2.1237655 10:1.5598233 11:-0.29178714 12:-0.22200452 13:-0.42002519 14:-0.29103186 15:0.70989859 16:-0.72196955 17:-0.60576065 18:-0.093144924 19:-0.53567179 20:-0.048981228 21:-0.54329794 22:-0.43032683 23:-0.39721291 24:3.7286841 
0.5069873368544956 0.6763636259112837 1:-1.9202374 2:1.4726161 3:-0.41817517 4:-0.14758286 5:0.94301524 6:-0.6883184 7:1.1705928 8:1.8443934 9:-0.47082656 10:1.5598233 11:-0.29178714 12:-0.22200452 13:-0.42002519 14:-0.29103186 15:0.70989859 16:-0.72196955 17:1.6506936 18:-0.093144924 19:-0.53567179 20:-0.048981228 21:-0.54329794 22:-0.43032683 23:-0.39721291 24:-0.26817107 
0.3022458092664386 2 1:0.52072998 2:-0.67901282 3:-0.41817517 4:-0.14758286 5:0.94301524 6:1.4527074 7:1.1705928 8:1.8443934 9:-0.47082656 10:1.5598233 11:-0.29178714 12:-0.22200452 13:2.3806315 14:-0.29103186 15:0.70989859 16:1.3849964 17:-0.60576065 18:-0.093144924 19:-0.53567179 20:-0.048981228 21:-0.54329794 22:-0.43032683 23:-0.39721291 24:-0.26817107 
0.5046512339133233 1.221592383872304 1:0.52072998 2:1.4726161 3:-0.41817517 4:-0.14758286 5:0.94301524 6:1.4527074 7:1.1705928 8:-0.54214312 9:2.1237655 10:1.5598233 11:-0.29178714 12:-0.22200452 13:2.3806315 14:-0.29103186 15:0.70989859 16:-0.72196955 17:1.6506936 18:-0.093144924 19:-0.53567179 20:-0.048981228 21:1.840473 22:-0.43032683 23:-0.39721291 24:-0.26817107 
0.2677625765900524 0.6444673851262378 1:0.52072998 2:-0.67901282 3:-0.41817517 4:-0.14758286 5:0.94301524 6:-0.6883184 7:1.1705928 8:-0.54214312 9:-0.47082656 10:-0.64105032 11:-0.29178714 12:-0.22200452 13:2.3806315 14:-0.29103186 15:0.70989859 16:-0.72196955 17:1.6506936 18:-0.093144924 19:-0.53567179 20:-0.048981228 21:1.840473 22:-0.43032683 23:-0.39721291 24:-0.26817107 
0.4096937528631134 2 1:0.52072998 2:1.4726161 3:-0.41817517 4:-0.14758286 5:0.94301524 6:1.4527074 7:1.1705928 8:-0.54214312 9:2.1237655 10:1.5598233 11:-0.29178714 12:-0.22200452 13:-0.42002519 14:-0.29103186 15:0.70989859 16:1.3849964 17:1.6506936 18:-0.093144924 19:-0.53567179 20:-0.048981228 21:1.840473 22:2.3236413 23:-0.39721291 24:-0.26817107 
0.4137853103375241 1.004282756785683 1:0.52072998 2:-0.67901282 3:-0.41817517 4:-0.14758286 5:0.94301524 6:-0.6883184 7:1.1705928 8:-0.54214312 9:-0.47082656 10:-0.64105032 11:3.4268995 12:-0.22200452 13:-0.42002519 14:-0.29103186 15:0.70989859 16:-0.72196955 17:-0.60576065 18:-0.093144924 19:-0.53567179 20:-0.048981228 21:-0.54329794 22:-0.43032683 23:-0.39721291 24:-0.26817107 
0.3866856524884448 0.9694778362251885 1:0.52072998 2:1.4726161 3:-0.41817517 4:-0.14758286 5:0.94301524 6:-0.6883184 7:1.1705928 8:1.8443934 9:2.1237655 10:1.5598233 11:-0.29178714 12:-0.22200452 13:-0.42002519 14:-0.29103186 15:0.70989859 16:1.3849964 17:1.6506936 18:-0.093144924 19:1.8666751 20:-0.048981228 21:-0.54329794 22:-0.43032683 23:-0.39721291 24:-0.26817107 
0.2922825634088629 0.7012044086332764 1:0.52072998 2:1.4726161 3:-0.41817517 4:-0.14758286 5:0.94301524 6:-0.6883184 7:-0.85420411 8:-0.54214312 9:-0.47082656 10:-0.64105032 11:-0.29178714 12:-0.22200452 13:-0.42002519 14:-0.29103186 15:0.70989859 16:1.3849964 17:-0.60576065 18:-0.093144924 19:1.8666751 20:-0.048981228 21:-0.54329794 22:-0.43032683 23:-0.39721291 24:-0.26817107 
0 0.9950463041810786 1:-1.9202374 2:-0.67901282 3:2.3911635 4:-0.14758286 5:0.94301524 6:1.4527074 7:-0.85420411 8:-0.54214312 9:-0.47082656 10:-0.64105032 11:-0.29178714 12:-0.22200452 13:-0.42002519 14:-0.29103186 15:0.70989859 16:1.3849964 17:1.6506936 18:-0.093144924 19:-0.53567179 20:-0.048981228 21:-0.54329794 22:-0.43032683 23:-0.39721291 24:-0.26817107 
0.271569850442538 2 1:0.52072998 2:-0.67901282 3:-0.41817517 4:-0.14758286 5:0.94301524 6:1.4527074 7:1.1705928 8:-0.54214312 9:2.1237655 10:1.5598233 11:-0.29178714 12:-0.22200452 13:-0.42002519 14:-0.29103186 15:0.70989859 16:1.3849964 17:-0.60576065 18:-0.093144924 19:-0.53567179 20:-0.048981228 21:-0.54329794 22:-0.43032683 23:2.5173532 24:-0.26817107 
0 1.16290115359867 1:0.52072998 2:-0.67901282 3:-0.41817517 4:-0.14758286 5:0.94301524 6:1.4527074 7:1.1705928 8:1.8443934 9:-0.47082656 10:1.5598233 11:-0.29178714 12:-0.22200452 13:-0.42002519 14:-0.29103186 15:0.70989859 16:1.3849964 17:-0.60576065 18:-0.093144924 19:-0.53567179 20:-0.048981228 21:1.840473 22:-0.43032683 23:2.5173532 24:-0.26817107 
0 0.7302996147377666 1:0.52072998 2:-0.67901282 3:-0.41817517 4:-0.14758286 5:0.94301524 6:-0.6883184 7:1.1705928 8:-0.54214312 9:-0.47082656 10:-0.64105032 11:-0.29178714 12:-0.22200452 13:2.3806315 14:-0.29103186 15:0.70989859 16:-0.72196955 17:1.6506936 18:-0.093144924 19:-0.53567179 20:-0.048981228 21:-0.54329794 22:-0.43032683 23:-0.39721291 24:-0.26817107 
2 0 1:-1.9202374 2:1.4726161 3:-0.41817517 4:-0.14758286 5:0.94301524 6:-0.6883184 7:1.1705928 8:-0.54214312 9:2.1237655 10:1.5598233 11:-0.29178714 12:-0.22200452 13:-0.42002519 14:-0.29103186 15:0.70989859 16:-0.72196955 17:1.6506936 18:-0.093144924 19:-0.53567179 20:-0.048981228 21:-0.54329794 22:-0.43032683 23:-0.39721291 24:-0.26817107 
0.3597421083402026 0.9088044312397149 1:-1.9202374 2:1.4726161 3:2.3911635 4:-0.14758286 5:0.94301524 6:1.4527074 7:1.1705928 8:-0.54214312 9:2.1237655 10:1.5598233 11:-0.29178714 12:-0.22200452 13:2.3806315 14:-0.29103186 15:0.70989859 16:1.3849964 17:1.6506936 18:-0.093144924 19:-0.53567179 20:-0.048981228 21:1.840473 22:2.3236413 23:2.5173532 24:-0.26817107 
0 2 1:0.52072998 2:-0.67901282 3:-0.41817517 4:-0.14758286 5:0.94301524 6:-0.6883184 7:1.1705928 8:-0.54214312 9:-0.47082656 10:-0.64105032 11:-0.29178714 12:-0.22200452 13:2.3806315 14:-0.29103186 15:0.70989859 16:-0.72196955 17:1.6506936 18:-0.093144924 19:-0.53567179 20:-0.048981228 21:-0.54329794 22:-0.43032683 23:-0.39721291 24:-0.26817107 
0.4354531965417 1.013815809496677 1:0.52072998 2:1.4726161 3:2.3911635 4:-0.14758286 5:0.94301524 6:1.4527074 7:1.1705928 8:-0.54214312 9:2.1237655 10:1.5598233 11:-0.29178714 12:-0.22200452 13:-0.42002519 14:3.4357928 15:0.70989859 16:1.3849964 17:1.6506936 18:-0.093144924 19:-0.53567179 20:-0.048981228 21:1.840473 22:2.3236413 23:-0.39721291 24:-0.26817107 
2 0 1:-1.9202374 2:-0.67901282 3:2.3911635 4:-0.14758286 5:0.94301524 6:1.4527074 7:1.1705928 8:-0.54214312 9:2.1237655 10:1.5598233 11:-0.29178714 12:-0.22200452 13:-0.42002519 14:-0.29103186 15:0.70989859 16:-0.72196955 17:-0.60576065 18:-0.093144924 19:-0.53567179 20:-0.048981228 21:-0.54329794 22:-0.43032683 23:-0.39721291 24:-0.26817107 
0.5098702355056765 1.163911866036656 1:0.52072998 2:-0.67901282 3:-0.41817517 4:-0.14758286 5:0.94301524 6:-0.6883184 7:1.1705928 8:1.8443934 9:-0.47082656 10:-0.64105032 11:3.4268995 12:-0.22200452 13:-0.42002519 14:-0.29103186 15:0.70989859 16:-0.72196955 17:1.6506936 18:-0.093144924 19:-0.53567179 20:-0.048981228 21:-0.54329794 22:-0.43032683 23:-0.39721291 24:-0.26817107 
0 2 1:0.52072998 2:1.4726161 3:-0.41817517 4:-0.14758286 5:0.94301524 6:1.4527074 7:-0.85420411 8:-0.54214312 9:-0.47082656 10:-0.64105032 11:-0.29178714 12:-0.22200452 13:-0.42002519 14:-0.29103186 15:0.70989859 16:-0.72196955 17:-0.60576065 18:-0.093144924 19:1.8666751 20:-0.048981228 21:-0.54329794 22:-0.43032683 23:-0.39721291 24:-0.26817107 
0 1.17713198325125 1:0.52072998 2:-0.67901282 3:-0.41817517 4:-0.14758286 5:0.94301524 6:1.4527074 7:1.1705928 8:1.8443934 9:-0.47082656 10:1.5598233 11:-0.29178714 12:-0.22200452 13:-0.42002519 14:-0.29103186 15:0.70989859 16:-0.72196955 17:1.6506936 18:-0.093144924 19:-0.53567179 20:-0.048981228 21:-0.54329794 22:2.3236413 23:-0.39721291 24:-0.26817107 
2 0 1:-1.9202374 2:-0.67901282 3:-0.41817517 4:-0.14758286 5:-1.0603489 6:-0.6883184 7:-0.85420411 8:-0.54214312 9:-0.47082656 10:-0.64105032 11:-0.29178714 12:-0.22200452 13:-0.42002519 14:-0.29103186 15:0.70989859 16:-0.72196955 17:1.6506936 18:-0.093144924 19:-0.53567179 20:-0.048981228 21:-0.54329794 22:-0.43032683 23:-0.39721291 24:-0.26817107 
0.5749016284658701 1.090980187556719 1:0.52072998 2:-0.67901282 3:-0.41817517 4:-0.14758286 5:0.94301524 6:1.4527074 7:-0.85420411 8:-0.54214312 9:-0.47082656 10:-0.64105032 11:-0.29178714 12:-0.22200452 13:-0.42002519 14:-0.29103186 15:0.70989859 16:1.3849964 17:1.6506936 18:-0.093144924 19:-0.53567179 20:-0.048981228 21:-0.54329794 22:-0.43032683 23:-0.39721291 24:3.7286841 
0.3573284590627745 0.9461303137896494 1:0.52072998 2:1.4726161 3:-0.41817517 4:-0.14758286 5:0.94301524 6:1.4527074 7:1.1705928 8:-0.54214312 9:2.1237655 10:1.5598233 11:-0.29178714 12:-0.22200452 13:-0.42002519 14:3.4357928 15:0.70989859 16:1.3849964 17:1.6506936 18:-0.093144924 19:-0.53567179 20:-0.048981228 21:1.840473 22:2.3236413 23:2.5173532 24:-0.26817107 
0.3872272923067464 1.048274242023354 1:-1.9202374 2:-0.67901282 3:-0.41817517 4:-0.14758286 5:0.94301524 6:1.4527074 7:1.1705928 8:1.8443934 9:-0.47082656 10:1.5598233 11:-0.29178714 12:-0.22200452 13:-0.42002519 14:-0.29103186 15:0.70989859 16:1.3849964 17:1.6506936 18:-0.093144924 19:-0.53567179 20:-0.048981228 21:-0.54329794 22:2.3236413 23:-0.39721291 24:-0.26817107 
0.3893375554722423 0.7931300827793184 1:0.52072998 2:-0.67901282 3:-0.41817517 4:-0.14758286 5:0.94301524 6:1.4527074 7:1.1705928 8:-0.54214312 9:2.1237655 10:1.5598233 11:-0.29178714 12:-0.22200452 13:-0.42002519 14:-0.29103186 15:0.70989859 16:1.3849964 17:-0.60576065 18:-0.093144924 19:-0.53567179 20:-0.048981228 21:-0.54329794 22:2.3236413 23:-0.39721291 24:-0.26817107 
0.4164845249301383 0.9817606854208091 1:-1.9202374 2:1.4726161 3:-0.41817517 4:-0.14758286 5:0.94301524 6:1.4527074 7:-0.85420411 8:-0.54214312 9:-0.47082656 10:-0.64105032 11:-0.29178714 12:-0.22200452 13:-0.42002519 14:-0.29103186 15:0.70989859 16:-0.72196955 17:-0.60576065 18:-0.093144924 19:1.8666751 20:-0.048981228 21:-0.54329794 22:-0.43032683 23:-0.39721291 24:3.7286841 
1.116820930080061 0 1:0.52072998 2:-0.67901282 3:-0.41817517 4:-0.14758286 5:0.94301524 6:-0.6883184 7:1.1705928 8:-0.54214312 9:-0.47082656 10:-0.64105032 11:3.4268995 12:-0.22200452 13:-0.42002519 14:-0.29103186 15:0.70989859 16:-0.72196955 17:1.6506936 18:-0.093144924 19:-0.53567179 20:-0.048981228 21:-0.54329794 22:-0.43032683 23:-0.39721291 24:-0.26817107 
0.4434468263505769 2 1:0.52072998 2:1.4726161 3:-0.41817517 4:-0.14758286 5:0.94301524 6:1.4527074 7:1.1705928 8:1.8443934 9:-0.47082656 10:-0.64105032 11:3.4268995 12:-0.22200452 13:-0.42002519 14:3.4357928 15:0.70989859 16:-0.72196955 17:-0.60576065 18:-0.093144924 19:-0.53567179 20:-0.048981228 21:-0.54329794 22:2.3236413 23:-0.39721291 24:-0.26817107 
2 0.6587447351130733 1:0.52072998 2:1.4726161 3:2.3911635 4:-0.14758286 5:0.94301524 6:1.4527074 7:1.1705928 8:-0.54214312 9:2.1237655 10:1.5598233 11:-0.29178714 12:-0.22200452 13:-0.42002519 14:-0.29103186 15:0.70989859 16:1.3849964 17:1.6506936 18:-0.093144924 19:-0.53567179 20:-0.048981228 21:-0.54329794 22:-0.43032683 23:-0.39721291 24:-0.26817107 
0 2 1:0.52072998 2:1.4726161 3:-0.41817517 4:-0.14758286 5:0.94301524 6:1.4527074 7:1.1705928 8:-0.54214312 9:2.1237655 10:1.5598233 11:-0.29178714 12:-0.22200452 13:-0.42002519 14:-0.29103186 15:0.70989859 16:1.3849964 17:1.6506936 18:-0.093144924 19:-0.53567179 20:-0.048981228 21:1.840473 22:-0.43032683 23:-0.39721291 24:-0.26817107 
0.4435771748060164 2 1:0.52072998 2:1.4726161 3:-0.41817517 4:-0.14758286 5:0.94301524 6:-0.6883184 7:1.1705928 8:1.8443934 9:-0.47082656 10:-0.64105032 11:3.4268995 12:-0.22200452 13:2.3806315 14:-0.29103186 15:0.70989859 16:1.3849964 17:-0.60576065 18:-0.093144924 19:-0.53567179 20:-0.048981228 21:-0.54329794 22:2.3236413 23:-0.39721291 24:-0.26817107 
0 1.14358784682554 1:0.52072998 2:1.4726161 3:-0.41817517 4:-0.14758286 5:0.94301524 6:1.4527074 7:1.1705928 8:-0.54214312 9:2.1237655 10:1.5598233 11:-0.29178714 12:-0.22200452 13:-0.42002519 14:-0.29103186 15:0.70989859 16:1.3849964 17:1.6506936 18:-0.093144924 19:-0.53567179 20:-0.048981228 21:1.840473 22:2.3236413 23:2.5173532 24:-0.26817107 
0 0.8594005503241964 1:0.52072998 2:-0.67901282 3:-0.41817517 4:-0.14758286 5:0.94301524 6:1.4527074 7:1.1705928 8:1.8443934 9:-0.47082656 10:1.5598233 11:-0.29178714 12:-0.22200452 13:-0.42002519 14:-0.29103186 15:0.70989859 16:-0.72196955 17:-0.60576065 18:-0.093144924 19:-0.53567179 20:-0.048981228 21:-0.54329794 22:-0.43032683 23:2.5173532 24:-0.26817107 
0 2 1:0.52072998 2:-0.67901282 3:-0.41817517 4:-0.14758286 5:0.94301524 6:1.4527074 7:-0.85420411 8:-0.54214312 9:-0.47082656 10:-0.64105032 11:-0.29178714 12:-0.22200452 13:-0.42002519 14:-0.29103186 15:0.70989859 16:1.3849964 17:1.6506936 18:-0.093144924 19:-0.53567179 20:-0.048981228 21:-0.54329794 22:-0.43032683 23:-0.39721291 24:-0.26817107 
2 0.8592426687188197 1:-1.9202374 2:1.4726161 3:2.3911635 4:-0.14758286 5:0.94301524 6:1.4527074 7:1.1705928 8:-0.54214312 9:2.1237655 10:1.5598233 11:-0.29178714 12:-0.22200452 13:-0.42002519 14:-0.29103186 15:0.70989859 16:-0.72196955 17:1.6506936 18:-0.093144924 19:-0.53567179 20:-0.048981228 21:-0.54329794 22:-0.43032683 23:-0.39721291 24:-0.26817107 
1.139808343160532 0 1:-1.9202374 2:1.4726161 3:-0.41817517 4:-0.14758286 5:-1.0603489 6:-0.6883184 7:-0.85420411 8:-0.54214312 9:-0.47082656 10:-0.64105032 11:-0.29178714 12:-0.22200452 13:-0.42002519 14:-0.29103186 15:0.70989859 16:1.3849964 17:-0.60576065 18:-0.093144924 19:-0.53567179 20:-0.048981228 21:-0.54329794 22:-0.43032683 23:-0.39721291 24:-0.26817107 
0.3746414938624864 1.897929527876563 1:0.52072998 2:-0.67901282 3:-0.41817517 4:-0.14758286 5:0.94301524 6:1.4527074 7:-0.85420411 8:-0.54214312 9:-0.47082656 10:-0.64105032 11:-0.29178714 12:-0.22200452 13:-0.42002519 14:-0.29103186 15:0.70989859 16:1.3849964 17:-0.60576065 18:-0.093144924 19:-0.53567179 20:-0.048981228 21:-0.54329794 22:2.3236413 23:2.5173532 24:-0.26817107 
2 0 1:-1.9202374 2:-0.67901282 3:-0.41817517 4:-0.14758286 5:-1.0603489 6:-0.6883184 7:-0.85420411 8:-0.54214312 9:-0.47082656 10:-0.64105032 11:-0.29178714 12:-0.22200452 13:-0.42002519 14:-0.29103186 15:0.70989859 16:-0.72196955 17:1.6506936 18:-0.093144924 19:-0.53567179 20:-0.048981228 21:-0.54329794 22:-0.43032683 23:-0.39721291 24:-0.26817107 
0.451946948684554 1.025448521506247 1:-1.9202374 2:1.4726161 3:-0.41817517 4:-0.14758286 5:0.94301524 6:-0.6883184 7:1.1705928 8:1.8443934 9:2.1237655 10:1.5598233 11:-0.29178714 12:-0.22200452 13:-0.42002519 14:-0.29103186 15:0.70989859 16:1.3849964 17:-0.60576065 18:-0.093144924 19:1.8666751 20:-0.048981228 21:-0.54329794 22:2.3236413 23:-0.39721291 24:-0.26817107 
0 2 1:0.52072998 2:1.4726161 3:-0.41817517 4:-0.14758286 5:0.94301524 6:1.4527074 7:1.1705928 8:-0.54214312 9:2.1237655 10:1.5598233 11:-0.29178714 12:-0.22200452 13:2.3806315 14:-0.29103186 15:0.70989859 16:1.3849964 17:1.6506936 18:-0.093144924 19:-0.53567179 20:-0.048981228 21:1.840473 22:2.3236413 23:2.5173532 24:-0.26817107 
2 2 1:0.52072998 2:-0.67901282 3:-0.41817517 4:-0.14758286 5:0.94301524 6:1.4527074 7:1.1705928 8:-0.54214312 9:2.1237655 10:1.5598233 11:-0.29178714 12:-0.22200452 13:-0.42002519 14:-0.29103186 15:0.70989859 16:-0.72196955 17:1.6506936 18:-0.093144924 19:-0.53567179 20:-0.048981228 21:1.840473 22:2.3236413 23:-0.39721291 24:-0.26817107 
0.442251291018006 1.044186889807003 1:0.52072998 2:-0.67901282 3:-0.41817517 4:-0.14758286 5:0.94301524 6:1.4527074 7:1.1705928 8:1.8443934 9:2.1237655 10:1.5598233 11:-0.29178714 12:4.5040758 13:-0.42002519 14:-0.29103186 15:0.70989859 16:1.3849964 17:-0.60576065 18:-0.093144924 19:-0.53567179 20:-0.048981228 21:1.840473 22:-0.43032683 23:-0.39721291 24:3.7286841 
0.468949733600501 1.128175695757725 1:0.52072998 2:1.4726161 3:-0.41817517 4:-0.14758286 5:0.94301524 6:1.4527074 7:1.1705928 8:1.8443934 9:-0.47082656 10:1.5598233 11:-0.29178714 12:-0.22200452 13:-0.42002519 14:3.4357928 15:0.70989859 16:-0.72196955 17:-0.60576065 18:-0.093144924 19:1.8666751 20:-0.048981228 21:-0.54329794 22:-0.43032683 23:-0.39721291 24:-0.26817107 
0 1.170697458936652 1:0.52072998 2:-0.67901282 3:-0.41817517 4:-0.14758286 5:0.94301524 6:1.4527074 7:1.1705928 8:1.8443934 9:-0.47082656 10:1.5598233 11:-0.29178714 12:-0.22200452 13:-0.42002519 14:-0.29103186 15:0.70989859 16:-0.72196955 17:-0.60576065 18:-0.093144924 19:-0.53567179 20:-0.048981228 21:1.840473 22:-0.43032683 23:-0.39721291 24:-0.26817107 
0.6223135371941715 1.037444590503511 1:-1.9202374 2:1.4726161 3:-0.41817517 4:-0.14758286 5:0.94301524 6:-0.6883184 7:1.1705928 8:1.8443934 9:2.1237655 10:1.5598233 11:-0.29178714 12:4.5040758 13:-0.42002519 14:-0.29103186 15:0.70989859 16:1.3849964 17:1.6506936 18:-0.093144924 19:1.8666751 20:-0.048981228 21:-0.54329794 22:-0.43032683 23:-0.39721291 24:-0.26817107 
2 0 1:0.52072998 2:-0.67901282 3:-0.41817517 4:-0.14758286 5:-1.0603489 6:-0.6883184 7:-0.85420411 8:-0.54214312 9:-0.47082656 10:-0.64105032 11:-0.29178714 12:-0.22200452 13:-0.42002519 14:-0.29103186 15:-1.4085465 16:-0.72196955 17:-0.60576065 18:-0.093144924 19:1.8666751 20:-0.048981228 21:-0.54329794 22:-0.43032683 23:-0.39721291 24:-0.26817107 
0.4854185760052224 0.8985348984428022 1:0.52072998 2:1.4726161 3:2.3911635 4:-0.14758286 5:0.94301524 6:-0.6883184 7:1.1705928 8:1.8443934 9:-0.47082656 10:1.5598233 11:-0.29178714 12:-0.22200452 13:-0.42002519 14:-0.29103186 15:0.70989859 16:1.3849964 17:1.6506936 18:-0.093144924 19:1.8666751 20:-0.048981228 21:-0.54329794 22:-0.43032683 23:-0.39721291 24:-0.26817107 
0.522854124952571 1.160786137967758 1:0.52072998 2:1.4726161 3:-0.41817517 4:-0.14758286 5:0.94301524 6:-0.6883184 7:1.1705928 8:1.8443934 9:-0.47082656 10:1.5598233 11:-0.29178714 12:-0.22200452 13:-0.42002519 14:-0.29103186 15:0.70989859 16:-0.72196955 17:1.6506936 18:-0.093144924 19:-0.53567179 20:-0.048981228 21:1.840473 22:2.3236413 23:-0.39721291 24:3.7286841 
2 0 1:0.52072998 2:-0.67901282 3:-0.41817517 4:-0.14758286 5:-1.0603489 6:-0.6883184 7:-0.85420411 8:-0.54214312 9:-0.47082656 10:-0.64105032 11:-0.29178714 12:-0.22200452 13:-0.42002519 14:-0.29103186 15:-1.4085465 16:-0.72196955 17:-0.60576065 18:-0.093144924 19:1.8666751 20:-0.048981228 21:-0.54329794 22:-0.43032683 23:-0.39721291 24:-0.26817107 
0.4135774116761147 1.039407887180376 1:0.52072998 2:1.4726161 3:2.3911635 4:-0.14758286 5:0.94301524 6:1.4527074 7:-0.85420411 8:-0.54214312 9:-0.47082656 10:-0.64105032 11:-0.29178714 12:-0.22200452 13:-0.42002519 14:-0.29103186 15:0.70989859 16:-0.72196955 17:-0.60576065 18:-0.093144924 19:-0.53567179 20:-0.048981228 21:1.840473 22:-0.43032683 23:2.5173532 24:-0.26817107 
0 0.8850075474935746 1:0.52072998 2:-0.67901282 3:-0.41817517 4:-0.14758286 5:0.94301524 6:1.4527074 7:-0.85420411 8:-0.54214312 9:-0.47082656 10:-0.64105032 11:-0.29178714 12:-0.22200452 13:-0.42002519 14:3.4357928 15:0.70989859 16:-0.72196955 17:-0.60576065 18:-0.093144924 19:1.8666751 20:-0.048981228 21:-0.54329794 22:-0.43032683 23:-0.39721291 24:-0.26817107 
2 0 1:0.52072998 2:-0.67901282 3:-0.41817517 4:-0.14758286 5:-1.0603489 6:-0.6883184 7:-0.85420411 8:-0.54214312 9:-0.47082656 10:-0.64105032 11:-0.29178714 12:-0.22200452 13:-0.42002519 14:-0.29103186 15:-1.4085465 16:-0.72196955 17:-0.60576065 18:-0.093144924 19:1.8666751 20:-0.048981228 21:-0.54329794 22:-0.43032683 23:-0.39721291 24:-0.26817107 
0.410739881462335 0.9535972036361856 1:0.52072998 2:-0.67901282 3:-0.41817517 4:-0.14758286 5:0.94301524 6:1.4527074 7:-0.85420411 8:-0.54214312 9:-0.47082656 10:-0.64105032 11:-0.29178714 12:-0.22200452 13:-0.42002519 14:3.4357928 15:0.70989859 16:-0.72196955 17:-0.60576065 18:-0.093144924 19:1.8666751 20:-0.048981228 21:-0.54329794 22:-0.43032683 23:2.5173532 24:-0.26817107 
0.3784398290799175 0.8042253060649208 1:0.52072998 2:-0.67901282 3:2.3911635 4:-0.14758286 5:-1.0603489 6:-0.6883184 7:-0.85420411 8:-0.54214312 9:-0.47082656 10:-0.64105032 11:-0.29178714 12:-0.22200452 13:-0.42002519 14:-0.29103186 15:0.70989859 16:-0.72196955 17:-0.60576065 18:-0.093144924 19:1.8666751 20:-0.048981228 21:1.840473 22:-0.43032683 23:-0.39721291 24:-0.26817107 
0 2 1:0.52072998 2:-0.67901282 3:-0.41817517 4:-0.14758286 5:0.94301524 6:1.4527074 7:-0.85420411 8:-0.54214312 9:-0.47082656 10:-0.64105032 11:-0.29178714 12:-0.22200452 13:-0.42002519 14:3.4357928 15:0.70989859 16:1.3849964 17:-0.60576065 18:-0.093144924 19:-0.53567179 20:-0.048981228 21:1.840473 22:-0.43032683 23:-0.39721291 24:-0.26817107 
2 0 1:0.52072998 2:1.4726161 3:-0.41817517 4:-0.14758286 5:-1.0603489 6:-0.6883184 7:-0.85420411 8:-0.54214312 9:-0.47082656 10:-0.64105032 11:-0.29178714 12:-0.22200452 13:-0.42002519 14:-0.29103186 15:-1.4085465 16:-0.72196955 17:-0.60576065 18:-0.093144924 19:1.8666751 20:-0.048981228 21:-0.54329794 22:-0.43032683 23:-0.39721291 24:-0.26817107 
0.4403549265082572 1.022199606060447 1:0.52072998 2:1.4726161 3:2.3911635 4:6.7753478 5:0.94301524 6:1.4527074 7:-0.85420411 8:-0.54214312 9:-0.47082656 10:-0.64105032 11:-0.29178714 12:-0.22200452 13:-0.42002519 14:3.4357928 15:0.70989859 16:-0.72196955 17:-0.60576065 18:-0.093144924 19:1.8666751 20:-0.048981228 21:1.840473 22:-0.43032683 23:-0.39721291 24:-0.26817107 
2 0 1:0.52072998 2:1.4726161 3:-0.41817517 4:-0.14758286 5:-1.0603489 6:-0.6883184 7:-0.85420411 8:-0.54214312 9:-0.47082656 10:-0.64105032 11:-0.29178714 12:-0.22200452 13:-0.42002519 14:-0.29103186 15:-1.4085465 16:-0.72196955 17:-0.60576065 18:-0.093144924 19:1.8666751 20:-0.048981228 21:-0.54329794 22:-0.43032683 23:-0.39721291 24:-0.26817107 
2 0 1:0.52072998 2:1.4726161 3:-0.41817517 4:-0.14758286 5:0.94301524 6:-0.6883184 7:1.1705928 8:1.8443934 9:-0.47082656 10:1.5598233 11:-0.29178714 12:-0.22200452 13:-0.42002519 14:-0.29103186 15:0.70989859 16:-0.72196955 17:1.6506936 18:-0.093144924 19:1.8666751 20:-0.048981228 21:-0.54329794 22:-0.43032683 23:-0.39721291 24:-0.26817107 
1.107818786112933 0.7446563268717691 1:0.52072998 2:1.4726161 3:-0.41817517 4:-0.14758286 5:0.94301524 6:-0.6883184 7:1.1705928 8:1.8443934 9:-0.47082656 10:1.5598233 11:-0.29178714 12:-0.22200452 13:-0.42002519 14:-0.29103186 15:0.70989859 16:1.3849964 17:-0.60576065 18:-0.093144924 19:-0.53567179 20:-0.048981228 21:1.840473 22:-0.43032683 23:-0.39721291 24:-0.26817107 
2 0 1:0.52072998 2:-0.67901282 3:-0.41817517 4:-0.14758286 5:-1.0603489 6:-0.6883184 7:-0.85420411 8:-0.54214312 9:-0.47082656 10:-0.64105032 11:-0.29178714 12:-0.22200452 13:-0.42002519 14:-0.29103186 15:0.70989859 16:1.3849964 17:-0.60576065 18:-0.093144924 19:-0.53567179 20:-0.048981228 21:1.840473 22:-0.43032683 23:-0.39721291 24:-0.26817107 
0.4309091758984498 1.001109541680062 1:0.52072998 2:-0.67901282 3:2.3911635 4:-0.14758286 5:0.94301524 6:-0.6883184 7:1.1705928 8:-0.54214312 9:-0.47082656 10:-0.64105032 11:3.4268995 12:-0.22200452 13:-0.42002519 14:-0.29103186 15:0.70989859 16:1.3849964 17:1.6506936 18:-0.093144924 19:-0.53567179 20:-0.048981228 21:1.840473 22:2.3236413 23:-0.39721291 24:-0.26817107 
2 0 1:0.52072998 2:-0.67901282 3:-0.41817517 4:-0.14758286 5:-1.0603489 6:-0.6883184 7:-0.85420411 8:-0.54214312 9:-0.47082656 10:-0.64105032 11:-0.29178714 12:-0.22200452 13:-0.42002519 14:-0.29103186 15:-1.4085465 16:-0.72196955 17:-0.60576065 18:-0.093144924 19:1.8666751 20:-0.048981228 21:-0.54329794 22:-0.43032683 23:-0.39721291 24:-0.26817107 
0.287792665223599 0.7078664824435359 1:-1.9202374 2:1.4726161 3:2.3911635 4:-0.14758286 5:-1.0603489 6:-0.6883184 7:-0.85420411 8:-0.54214312 9:-0.47082656 10:-0.64105032 11:-0.29178714 12:-0.22200452 13:-0.42002519 14:-0.29103186 15:0.70989859 16:-0.72196955 17:1.6506936 18:-0.093144924 19:-0.53567179 20:-0.048981228 21:1.840473 22:-0.43032683 23:-0.39721291 24:-0.26817107 
0.4400466227452292 1.022675259899197 1:0.52072998 2:1.4726161 3:-0.41817517 4:6.7753478 5:0.94301524 6:1.4527074 7:1.1705928 8:-0.54214312 9:2.1237655 10:1.5598233 11:-0.29178714 12:-0.22200452 13:2.3806315 14:-0.29103186 15:0.70989859 16:1.3849964 17:-0.60576065 18:-0.093144924 19:1.8666751 20:-0.048981228 21:-0.54329794 22:2.3236413 23:-0.39721291 24:3.7286841 
2 2 1:-1.9202374 2:1.4726161 3:-0.41817517 4:-0.14758286 5:0.94301524 6:1.4527074 7:1.1705928 8:1.8443934 9:-0.47082656 10:1.5598233 11:-0.29178714 12:-0.22200452 13:-0.42002519 14:-0.29103186 15:0.70989859 16:-0.72196955 17:-0.60576065 18:-0.093144924 19:-0.53567179 20:-0.048981228 21:-0.54329794 22:-0.43032683 23:-0.39721291 24:-0.26817107 
0.4249193885485814 1.014872766579483 1:0.52072998 2:1.4726161 3:-0.41817517 4:-0.14758286 5:0.94301524 6:1.4527074 7:1.1705928 8:1.8443934 9:-0.47082656 10:1.5598233 11:3.4268995 12:-0.22200452 13:2.3806315 14:-0.29103186 15:0.70989859 16:1.3849964 17:1.6506936 18:-0.093144924 19:-0.53567179 20:-0.048981228 21:1.840473 22:-0.43032683 23:2.5173532 24:-0.26817107 
2 0 1:0.52072998 2:1.4726161 3:-0.41817517 4:-0.14758286 5:-1.0603489 6:-0.6883184 7:-0.85420411 8:-0.54214312 9:-0.47082656 10:-0.64105032 11:-0.29178714 12:-0.22200452 13:-0.42002519 14:-0.29103186 15:0.70989859 16:1.3849964 17:-0.60576065 18:-0.093144924 19:-0.53567179 20:-0.048981228 21:1.840473 22:-0.43032683 23:-0.39721291 24:-0.26817107 
2 0 1:0.52072998 2:-0.67901282 3:-0.41817517 4:-0.14758286 5:-1.0603489 6:-0.6883184 7:-0.85420411 8:-0.54214312 9:-0.47082656 10:-0.64105032 11:-0.29178714 12:-0.22200452 13:-0.42002519 14:-0.29103186 15:-1.4085465 16:-0.72196955 17:-0.60576065 18:-0.093144924 19:1.8666751 20:-0.048981228 21:-0.54329794 22:-0.43032683 23:-0.39721291 24:-0.26817107 
0 2 1:0.52072998 2:-0.67901282 3:-0.41817517 4:-0.14758286 5:-1.0603489 6:-0.6883184 7:-0.85420411 8:-0.54214312 9:-0.47082656 10:-0.64105032 11:-0.29178714 12:-0.22200452 13:-0.42002519 14:-0.29103186 15:0.70989859 16:-0.72196955 17:1.6506936 18:-0.093144924 19:-0.53567179 20:-0.048981228 21:1.840473 22:2.3236413 23:-0.39721291 24:-0.26817107 
2 0 1:0.52072998 2:-0.67901282 3:-0.41817517 4:-0.14758286 5:-1.0603489 6:-0.6883184 7:-0.85420411 8:-0.54214312 9:-0.47082656 10:-0.64105032 11:-0.29178714 12:-0.22200452 13:-0.42002519 14:-0.29103186 15:-1.4085465 16:-0.72196955 17:-0.60576065 18:-0.093144924 19:1.8666751 20:-0.048981228 21:-0.54329794 22:-0.43032683 23:-0.39721291 24:-0.26817107 
0.371455435830657 2 1:0.52072998 2:1.4726161 3:-0.41817517 4:-0.14758286 5:0.94301524 6:-0.6883184 7:1.1705928 8:1.8443934 9:-0.47082656 10:1.5598233 11:-0.29178714 12:-0.22200452 13:-0.42002519 14:-0.29103186 15:0.70989859 16:1.3849964 17:1.6506936 18:-0.093144924 19:1.8666751 20:-0.048981228 21:1.840473 22:2.3236413 23:2.5173532 24:-0.26817107 
1.176570134128938 0 1:-1.9202374 2:-0.67901282 3:2.3911635 4:-0.14758286 5:0.94301524 6:1.4527074 7:1.1705928 8:-0.54214312 9:2.1237655 10:1.5598233 11:-0.29178714 12:-0.22200452 13:-0.42002519 14:-0.29103186 15:0.70989859 16:1.3849964 17:1.6506936 18:-0.093144924 19:-0.53567179 20:-0.048981228 21:1.840473 22:2.3236413 23:-0.39721291 24:-0.26817107 
2 0 1:0.52072998 2:-0.67901282 3:-0.41817517 4:-0.14758286 5:-1.0603489 6:-0.6883184 7:-0.85420411 8:-0.54214312 9:-0.47082656 10:-0.64105032 11:-0.29178714 12:-0.22200452 13:-0.42002519 14:-0.29103186 15:-1.4085465 16:-0.72196955 17:-0.60576065 18:-0.093144924 19:1.8666751 20:-0.048981228 21:-0.54329794 22:-0.43032683 23:-0.39721291 24:-0.26817107 
0.5377763443589777 0.8406233198572911 1:0.52072998 2:-0.67901282 3:2.3911635 4:-0.14758286 5:-1.0603489 6:-0.6883184 7:-0.85420411 8:-0.54214312 9:-0.47082656 10:-0.64105032 11:-0.29178714 12:-0.22200452 13:-0.42002519 14:-0.29103186 15:0.70989859 16:1.3849964 17:-0.60576065 18:-0.093144924 19:1.8666751 20:-0.048981228 21:-0.54329794 22:-0.43032683 23:-0.39721291 24:-0.26817107 
0.4935552226401552 0.8105099982478066 1:0.52072998 2:1.4726161 3:2.3911635 4:-0.14758286 5:0.94301524 6:1.4527074 7:1.1705928 8:1.8443934 9:-0.47082656 10:1.5598233 11:-0.29178714 12:-0.22200452 13:-0.42002519 14:-0.29103186 15:0.70989859 16:1.3849964 17:1.6506936 18:-0.093144924 19:1.8666751 20:-0.048981228 21:-0.54329794 22:-0.43032683 23:-0.39721291 24:-0.26817107 
0.3454521826971004 0.8157159014299652 1:0.52072998 2:-0.67901282 3:-0.41817517 4:-0.14758286 5:0.94301524 6:-0.6883184 7:1.1705928 8:-0.54214312 9:2.1237655 10:1.5598233 11:-0.29178714 12:-0.22200452 13:-0.42002519 14:3.4357928 15:0.70989859 16:1.3849964 17:-0.60576065 18:-0.093144924 19:-0.53567179 20:-0.048981228 21:1.840473 22:-0.43032683 23:-0.39721291 24:-0.26817107 
1.001746535553173 0 1:0.52072998 2:1.4726161 3:-0.41817517 4:-0.14758286 5:0.94301524 6:-0.6883184 7:1.1705928 8:-0.54214312 9:2.1237655 10:1.5598233 11:-0.29178714 12:-0.22200452 13:-0.42002519 14:-0.29103186 15:0.70989859 16:-0.72196955 17:-0.60576065 18:-0.093144924 19:-0.53567179 20:-0.048981228 21:-0.54329794 22:-0.43032683 23:-0.39721291 24:-0.26817107 
0.5483786582122776 1.324708282249349 1:-1.9202374 2:-0.67901282 3:-0.41817517 4:-0.14758286 5:-1.0603489 6:-0.6883184 7:-0.85420411 8:-0.54214312 9:-0.47082656 10:-0.64105032 11:-0.29178714 12:-0.22200452 13:-0.42002519 14:3.4357928 15:0.70989859 16:1.3849964 17:-0.60576065 18:-0.093144924 19:-0.53567179 20:-0.048981228 21:-0.54329794 22:-0.43032683 23:-0.39721291 24:-0.26817107 
0.2710743569511344 2 1:0.52072998 2:1.4726161 3:-0.41817517 4:-0.14758286 5:0.94301524 6:1.4527074 7:-0.85420411 8:-0.54214312 9:-0.47082656 10:-0.64105032 11:-0.29178714 12:-0.22200452 13:-0.42002519 14:-0.29103186 15:0.70989859 16:-0.72196955 17:1.6506936 18:-0.093144924 19:-0.53567179 20:-0.048981228 21:1.840473 22:2.3236413 23:-0.39721291 24:-0.26817107 
0.3317155042715462 0.8259414998109895 1:-1.9202374 2:1.4726161 3:-0.41817517 4:-0.14758286 5:0.94301524 6:-0.6883184 7:1.1705928 8:-0.54214312 9:2.1237655 10:1.5598233 11:-0.29178714 12:-0.22200452 13:-0.42002519 14:-0.29103186 15:0.70989859 16:1.3849964 17:1.6506936 18:-0.093144924 19:-0.53567179 20:-0.048981228 21:1.840473 22:2.3236413 23:2.5173532 24:-0.26817107 
0.3739236820923698 0.871346836522063 1:0.52072998 2:-0.67901282 3:2.3911635 4:-0.14758286 5:0.94301524 6:1.4527074 7:-0.85420411 8:-0.54214312 9:-0.47082656 10:-0.64105032 11:-0.29178714 12:-0.22200452 13:-0.42002519 14:-0.29103186 15:0.70989859 16:1.3849964 17:1.6506936 18:-0.093144924 19:1.8666751 20:-0.048981228 21:1.840473 22:-0.43032683 23:-0.39721291 24:-0.26817107 
0.5871856028082894 1.022625440712231 1:-1.9202374 2:1.4726161 3:-0.41817517 4:-0.14758286 5:0.94301524 6:-0.6883184 7:1.1705928 8:-0.54214312 9:2.1237655 10:1.5598233 11:-0.29178714 12:4.5040758 13:-0.42002519 14:-0.29103186 15:0.70989859 16:-0.72196955 17:1.6506936 18:-0.093144924 19:1.8666751 20:-0.048981228 21:-0.54329794 22:2.3236413 23:-0.39721291 24:-0.26817107 
0.4448109555066417 1.033270055611057 1:0.52072998 2:1.4726161 3:-0.41817517 4:-0.14758286 5:0.94301524 6:-0.6883184 7:1.1705928 8:1.8443934 9:-0.47082656 10:-0.64105032 11:3.4268995 12:-0.22200452 13:-0.42002519 14:3.4357928 15:0.70989859 16:1.3849964 17:1.6506936 18:-0.093144924 19:-0.53567179 20:-0.048981228 21:-0.54329794 22:-0.43032683 23:2.5173532 24:-0.26817107 
2 2 1:-1.9202374 2:-0.67901282 3:-0.41817517 4:-0.14758286 5:0.94301524 6:-0.6883184 7:1.1705928 8:1.8443934 9:-0.47082656 10:1.5598233 11:-0.29178714 12:-0.22200452 13:-0.42002519 14:3.4357928 15:0.70989859 16:1.3849964 17:-0.60576065 18:-0.093144924 19:-0.53567179 20:-0.048981228 21:1.840473 22:-0.43032683 23:-0.39721291 24:-0.26817107 
0.4385554671516287 1.019362101466569 1:-1.9202374 2:-0.67901282 3:2.3911635 4:-0.14758286 5:0.94301524 6:1.4527074 7:1.1705928 8:1.8443934 9:2.1237655 10:1.5598233 11:3.4268995 12:-0.22200452 13:2.3806315 14:-0.29103186 15:0.70989859 16:1.3849964 17:-0.60576065 18:-0.093144924 19:-0.53567179 20:-0.048981228 21:-0.54329794 22:-0.43032683 23:2.5173532 24:-0.26817107 
2 0 1:0.52072998 2:-0.67901282 3:-0.41817517 4:-0.14758286 5:0.94301524 6:-0.6883184 7:1.1705928 8:-0.54214312 9:2.1237655 10:1.5598233 11:-0.29178714 12:-0.22200452 13:-0.42002519 14:-0.29103186 15:0.70989859 16:-0.72196955 17:-0.60576065 18:-0.093144924 19:-0.53567179 20:-0.048981228 21:-0.54329794 22:-0.43032683 23:-0.39721291 24:-0.26817107 
2 0 1:0.52072998 2:1.4726161 3:-0.41817517 4:-0.14758286 5:-1.0603489 6:-0.6883184 7:-0.85420411 8:-0.54214312 9:-0.47082656 10:-0.64105032 11:-0.29178714 12:-0.22200452 13:-0.42002519 14:-0.29103186 15:-1.4085465 16:-0.72196955 17:-0.60576065 18:-0.093144924 19:1.8666751 20:-0.048981228 21:-0.54329794 22:-0.43032683 23:-0.39721291 24:-0.26817107 
2 0 1:0.52072998 2:-0.67901282 3:-0.41817517 4:-0.14758286 5:-1.0603489 6:-0.6883184 7:-0.85420411 8:-0.54214312 9:-0.47082656 10:-0.64105032 11:-0.29178714 12:-0.22200452 13:-0.42002519 14:-0.29103186 15:-1.4085465 16:-0.72196955 17:-0.60576065 18:-0.093144924 19:1.8666751 20:-0.048981228 21:-0.54329794 22:-0.43032683 23:-0.39721291 24:-0.26817107 
