svm_type c_svc
kernel_type rbf
gamma 0.5
nr_class 2
total_sv 6225
rho 0.0266612
label 1 2
nr_sv 3104 3121
SV
2 1:0.50010361 2:1.3265036 3:-0.43773136 4:-0.1630649 5:0.77710545 6:1.2494575 7:1.0092125 8:1.6506164 9:1.9124433 10:1.3827482 11:3.1353837 12:-0.24224356 13:-0.47634284 14:-0.32067855 15:0.57018159 16:1.1989945 17:1.504142 18:-0.10023001 19:-0.48059439 20:-0.056763715 21:1.6380811 22:2.0665062 23:2.1269364 24:-0.30511085 
0.9581406942206946 1:-1.9993785 2:-0.7537834 3:-0.43773136 4:-0.1630649 5:0.77710545 6:1.2494575 7:1.0092125 8:-0.60577152 9:-0.52283713 10:-0.72312254 11:-0.31890718 12:-0.24224356 13:2.0991108 14:-0.32067855 15:0.57018159 16:1.1989945 17:1.504142 18:-0.10023001 19:-0.48059439 20:-0.056763715 21:1.6380811 22:2.0665062 23:-0.47011108 24:-0.30511085 
1.050895662011571 1:-1.9993785 2:1.3265036 3:-0.43773136 4:-0.1630649 5:0.77710545 6:1.2494575 7:1.0092125 8:1.6506164 9:-0.52283713 10:1.3827482 11:-0.31890718 12:-0.24224356 13:-0.47634284 14:-0.32067855 15:0.57018159 16:-0.83394576 17:-0.66476198 18:-0.10023001 19:2.0805411 20:-0.056763715 21:-0.61040713 22:-0.48385841 23:-0.47011108 24:-0.30511085 
0.9894234317249684 1:0.50010361 2:-0.7537834 3:-0.43773136 4:-0.1630649 5:-1.2866933 6:-0.80026444 7:-0.99076896 8:-0.60577152 9:-0.52283713 10:-0.72312254 11:-0.31890718 12:-0.24224356 13:-0.47634284 14:-0.32067855 15:0.57018159 16:1.1989945 17:1.504142 18:-0.10023001 19:2.0805411 20:-0.056763715 21:1.6380811 22:-0.48385841 23:2.1269364 24:-0.30511085 
1.019202711250565 1:0.50010361 2:1.3265036 3:-0.43773136 4:-0.1630649 5:0.77710545 6:-0.80026444 7:1.0092125 8:1.6506164 9:-0.52283713 10:1.3827482 11:-0.31890718 12:-0.24224356 13:-0.47634284 14:-0.32067855 15:0.57018159 16:1.1989945 17:-0.66476198 18:-0.10023001 19:-0.48059439 20:-0.056763715 21:1.6380811 22:-0.48385841 23:2.1269364 24:-0.30511085 
2 1:0.50010361 2:-0.7537834 3:-0.43773136 4:6.1318923 5:-1.2866933 6:-0.80026444 7:-0.99076896 8:-0.60577152 9:-0.52283713 10:-0.72312254 11:-0.31890718 12:-0.24224356 13:-0.47634284 14:-0.32067855 15:-1.7536455 16:-0.83394576 17:-0.66476198 18:-0.10023001 19:-0.48059439 20:-0.056763715 21:-0.61040713 22:-0.48385841 23:-0.47011108 24:3.2771578 
1.09893839545314 1:0.50010361 2:1.3265036 3:-0.43773136 4:-0.1630649 5:0.77710545 6:-0.80026444 7:1.0092125 8:-0.60577152 9:1.9124433 10:1.3827482 11:-0.31890718 12:-0.24224356 13:-0.47634284 14:3.1180644 15:0.57018159 16:1.1989945 17:-0.66476198 18:-0.10023001 19:-0.48059439 20:-0.056763715 21:1.6380811 22:-0.48385841 23:-0.47011108 24:-0.30511085 
2 1:0.50010361 2:1.3265036 3:-0.43773136 4:-0.1630649 5:-1.2866933 6:-0.80026444 7:-0.99076896 8:-0.60577152 9:-0.52283713 10:-0.72312254 11:-0.31890718 12:-0.24224356 13:-0.47634284 14:-0.32067855 15:0.57018159 16:1.1989945 17:1.504142 18:-0.10023001 19:2.0805411 20:-0.056763715 21:1.6380811 22:-0.48385841 23:-0.47011108 24:-0.30511085 
1.026558320043001 1:0.50010361 2:1.3265036 3:-0.43773136 4:6.1318923 5:0.77710545 6:1.2494575 7:-0.99076896 8:-0.60577152 9:-0.52283713 10:-0.72312254 11:-0.31890718 12:-0.24224356 13:-0.47634284 14:3.1180644 15:0.57018159 16:-0.83394576 17:-0.66476198 18:-0.10023001 19:-0.48059439 20:-0.056763715 21:-0.61040713 22:-0.48385841 23:-0.47011108 24:3.2771578 
1.122078730303254 1:0.50010361 2:-0.7537834 3:-0.43773136 4:-0.1630649 5:0.77710545 6:1.2494575 7:1.0092125 8:1.6506164 9:-0.52283713 10:1.3827482 11:3.1353837 12:-0.24224356 13:-0.47634284 14:-0.32067855 15:0.57018159 16:1.1989945 17:1.504142 18:-0.10023001 19:-0.48059439 20:-0.056763715 21:1.6380811 22:-0.48385841 23:2.1269364 24:-0.30511085 
1.067032277719876 1:-1.9993785 2:-0.7537834 3:2.2842695 4:-0.1630649 5:0.77710545 6:1.2494575 7:-0.99076896 8:-0.60577152 9:-0.52283713 10:-0.72312254 11:-0.31890718 12:-0.24224356 13:-0.47634284 14:-0.32067855 15:0.57018159 16:-0.83394576 17:-0.66476198 18:-0.10023001 19:-0.48059439 20:-0.056763715 21:1.6380811 22:-0.48385841 23:-0.47011108 24:-0.30511085 
1.017916869740774 1:0.50010361 2:-0.7537834 3:-0.43773136 4:-0.1630649 5:0.77710545 6:1.2494575 7:-0.99076896 8:-0.60577152 9:-0.52283713 10:-0.72312254 11:-0.31890718 12:-0.24224356 13:-0.47634284 14:-0.32067855 15:0.57018159 16:1.1989945 17:1.504142 18:-0.10023001 19:2.0805411 20:-0.056763715 21:-0.61040713 22:-0.48385841 23:2.1269364 24:-0.30511085 
0.9566414867557178 1:0.50010361 2:1.3265036 3:-0.43773136 4:-0.1630649 5:0.77710545 6:1.2494575 7:1.0092125 8:-0.60577152 9:1.9124433 10:1.3827482 11:-0.31890718 12:-0.24224356 13:2.0991108 14:-0.32067855 15:0.57018159 16:1.1989945 17:1.504142 18:-0.10023001 19:-0.48059439 20:-0.056763715 21:1.6380811 22:2.0665062 23:2.1269364 24:-0.30511085 
2 1:-1.9993785 2:-0.7537834 3:-0.43773136 4:6.1318923 5:-1.2866933 6:-0.80026444 7:-0.99076896 8:-0.60577152 9:-0.52283713 10:-0.72312254 11:-0.31890718 12:-0.24224356 13:-0.47634284 14:-0.32067855 15:-1.7536455 16:-0.83394576 17:-0.66476198 18:-0.10023001 19:-0.48059439 20:-0.056763715 21:-0.61040713 22:-0.48385841 23:-0.47011108 24:3.2771578 
1.068535917296318 1:0.50010361 2:1.3265036 3:-0.43773136 4:-0.1630649 5:0.77710545 6:-0.80026444 7:1.0092125 8:-0.60577152 9:1.9124433 10:-0.72312254 11:-0.31890718 12:4.1276491 13:-0.47634284 14:-0.32067855 15:0.57018159 16:1.1989945 17:-0.66476198 18:-0.10023001 19:-0.48059439 20:-0.056763715 21:-0.61040713 22:2.0665062 23:-0.47011108 24:-0.30511085 
0.8512121381863335 1:-1.9993785 2:-0.7537834 3:2.2842695 4:-0.1630649 5:-1.2866933 6:-0.80026444 7:-0.99076896 8:-0.60577152 9:-0.52283713 10:-0.72312254 11:-0.31890718 12:-0.24224356 13:-0.47634284 14:-0.32067855 15:0.57018159 16:-0.83394576 17:-0.66476198 18:-0.10023001 19:-0.48059439 20:-0.056763715 21:-0.61040713 22:-0.48385841 23:2.1269364 24:-0.30511085 
2 1:0.50010361 2:-0.7537834 3:-0.43773136 4:-0.1630649 5:0.77710545 6:1.2494575 7:1.0092125 8:1.6506164 9:-0.52283713 10:1.3827482 11:-0.31890718 12:-0.24224356 13:-0.47634284 14:-0.32067855 15:0.57018159 16:1.1989945 17:-0.66476198 18:-0.10023001 19:-0.48059439 20:-0.056763715 21:-0.61040713 22:-0.48385841 23:2.1269364 24:-0.30511085 
1.106143759688078 1:0.50010361 2:-0.7537834 3:-0.43773136 4:-0.1630649 5:0.77710545 6:1.2494575 7:-0.99076896 8:-0.60577152 9:-0.52283713 10:-0.72312254 11:-0.31890718 12:-0.24224356 13:-0.47634284 14:-0.32067855 15:0.57018159 16:1.1989945 17:-0.66476198 18:-0.10023001 19:-0.48059439 20:-0.056763715 21:-0.61040713 22:2.0665062 23:2.1269364 24:-0.30511085 
1.225371510628096 1:0.50010361 2:-0.7537834 3:-0.43773136 4:-0.1630649 5:0.77710545 6:1.2494575 7:-0.99076896 8:-0.60577152 9:-0.52283713 10:-0.72312254 11:-0.31890718 12:-0.24224356 13:-0.47634284 14:3.1180644 15:0.57018159 16:1.1989945 17:-0.66476198 18:-0.10023001 19:-0.48059439 20:-0.056763715 21:1.6380811 22:-0.48385841 23:-0.47011108 24:-0.30511085 
2 1:0.50010361 2:1.3265036 3:-0.43773136 4:-0.1630649 5:0.77710545 6:-0.80026444 7:1.0092125 8:1.6506164 9:-0.52283713 10:1.3827482 11:-0.31890718 12:-0.24224356 13:-0.47634284 14:-0.32067855 15:0.57018159 16:-0.83394576 17:-0.66476198 18:-0.10023001 19:-0.48059439 20:-0.056763715 21:-0.61040713 22:-0.48385841 23:2.1269364 24:-0.30511085 
0.9793543533183237 1:-1.9993785 2:-0.7537834 3:2.2842695 4:-0.1630649 5:0.77710545 6:1.2494575 7:1.0092125 8:1.6506164 9:-0.52283713 10:1.3827482 11:-0.31890718 12:-0.24224356 13:-0.47634284 14:-0.32067855 15:0.57018159 16:-0.83394576 17:1.504142 18:-0.10023001 19:-0.48059439 20:-0.056763715 21:1.6380811 22:2.0665062 23:2.1269364 24:-0.30511085 
1.020609307213175 1:-1.9993785 2:1.3265036 3:-0.43773136 4:-0.1630649 5:0.77710545 6:-0.80026444 7:1.0092125 8:-0.60577152 9:1.9124433 10:1.3827482 11:-0.31890718 12:-0.24224356 13:-0.47634284 14:3.1180644 15:0.57018159 16:-0.83394576 17:-0.66476198 18:-0.10023001 19:2.0805411 20:-0.056763715 21:-0.61040713 22:-0.48385841 23:2.1269364 24:-0.30511085 
0.9809266261399783 1:0.50010361 2:-0.7537834 3:2.2842695 4:-0.1630649 5:-1.2866933 6:-0.80026444 7:-0.99076896 8:-0.60577152 9:-0.52283713 10:-0.72312254 11:-0.31890718 12:-0.24224356 13:-0.47634284 14:-0.32067855 15:0.57018159 16:-0.83394576 17:-0.66476198 18:-0.10023001 19:2.0805411 20:-0.056763715 21:-0.61040713 22:-0.48385841 23:2.1269364 24:-0.30511085 
2 1:0.50010361 2:-0.7537834 3:-0.43773136 4:-0.1630649 5:-1.2866933 6:-0.80026444 7:-0.99076896 8:-0.60577152 9:-0.52283713 10:-0.72312254 11:-0.31890718 12:-0.24224356 13:-0.47634284 14:-0.32067855 15:0.57018159 16:-0.83394576 17:-0.66476198 18:-0.10023001 19:-0.48059439 20:-0.056763715 21:-0.61040713 22:-0.48385841 23:2.1269364 24:-0.30511085 
1.267394691523794 1:0.50010361 2:-0.7537834 3:-0.43773136 4:-0.1630649 5:0.77710545 6:-0.80026444 7:1.0092125 8:-0.60577152 9:-0.52283713 10:-0.72312254 11:-0.31890718 12:-0.24224356 13:2.0991108 14:-0.32067855 15:0.57018159 16:1.1989945 17:1.504142 18:-0.10023001 19:-0.48059439 20:-0.056763715 21:1.6380811 22:2.0665062 23:-0.47011108 24:-0.30511085 
0.8321212803890352 1:-1.9993785 2:-0.7537834 3:2.2842695 4:-0.1630649 5:0.77710545 6:-0.80026444 7:1.0092125 8:-0.60577152 9:1.9124433 10:1.3827482 11:-0.31890718 12:-0.24224356 13:2.0991108 14:-0.32067855 15:0.57018159 16:1.1989945 17:-0.66476198 18:-0.10023001 19:-0.48059439 20:-0.056763715 21:-0.61040713 22:-0.48385841 23:-0.47011108 24:-0.30511085 
1.109069139581957 1:-1.9993785 2:-0.7537834 3:-0.43773136 4:-0.1630649 5:0.77710545 6:-0.80026444 7:1.0092125 8:1.6506164 9:-0.52283713 10:1.3827482 11:-0.31890718 12:-0.24224356 13:-0.47634284 14:-0.32067855 15:0.57018159 16:-0.83394576 17:1.504142 18:-0.10023001 19:-0.48059439 20:-0.056763715 21:-0.61040713 22:-0.48385841 23:-0.47011108 24:-0.30511085 
0.924190720520996 1:0.50010361 2:1.3265036 3:2.2842695 4:-0.1630649 5:0.77710545 6:1.2494575 7:1.0092125 8:1.6506164 9:1.9124433 10:1.3827482 11:3.1353837 12:-0.24224356 13:-0.47634284 14:-0.32067855 15:0.57018159 16:-0.83394576 17:-0.66476198 18:-0.10023001 19:-0.48059439 20:-0.056763715 21:-0.61040713 22:-0.48385841 23:-0.47011108 24:-0.30511085 
1.025798354256513 1:0.50010361 2:-0.7537834 3:2.2842695 4:-0.1630649 5:-1.2866933 6:-0.80026444 7:-0.99076896 8:-0.60577152 9:-0.52283713 10:-0.72312254 11:-0.31890718 12:-0.24224356 13:-0.47634284 14:3.1180644 15:0.57018159 16:1.1989945 17:1.504142 18:-0.10023001 19:-0.48059439 20:-0.056763715 21:1.6380811 22:2.0665062 23:2.1269364 24:-0.30511085 
2 1:0.50010361 2:1.3265036 3:-0.43773136 4:-0.1630649 5:0.77710545 6:1.2494575 7:1.0092125 8:-0.60577152 9:1.9124433 10:-0.72312254 11:-0.31890718 12:4.1276491 13:2.0991108 14:-0.32067855 15:0.57018159 16:1.1989945 17:1.504142 18:-0.10023001 19:-0.48059439 20:-0.056763715 21:-0.61040713 22:-0.48385841 23:-0.47011108 24:-0.30511085 
1.078576324412937 1:-1.9993785 2:1.3265036 3:-0.43773136 4:-0.1630649 5:0.77710545 6:-0.80026444 7:1.0092125 8:-0.60577152 9:1.9124433 10:1.3827482 11:-0.31890718 12:-0.24224356 13:-0.47634284 14:-0.32067855 15:0.57018159 16:1.1989945 17:-0.66476198 18:-0.10023001 19:-0.48059439 20:-0.056763715 21:-0.61040713 22:-0.48385841 23:2.1269364 24:-0.30511085 
0.7808981449522744 1:-1.9993785 2:-0.7537834 3:2.2842695 4:-0.1630649 5:0.77710545 6:1.2494575 7:1.0092125 8:-0.60577152 9:1.9124433 10:1.3827482 11:-0.31890718 12:-0.24224356 13:-0.47634284 14:-0.32067855 15:0.57018159 16:1.1989945 17:-0.66476198 18:-0.10023001 19:-0.48059439 20:-0.056763715 21:-0.61040713 22:-0.48385841 23:2.1269364 24:-0.30511085 
0.8868252329574793 1:0.50010361 2:1.3265036 3:2.2842695 4:-0.1630649 5:0.77710545 6:-0.80026444 7:1.0092125 8:-0.60577152 9:1.9124433 10:1.3827482 11:-0.31890718 12:-0.24224356 13:-0.47634284 14:-0.32067855 15:0.57018159 16:1.1989945 17:1.504142 18:-0.10023001 19:-0.48059439 20:-0.056763715 21:1.6380811 22:-0.48385841 23:2.1269364 24:-0.30511085 
2 1:-1.9993785 2:-0.7537834 3:-0.43773136 4:-0.1630649 5:0.77710545 6:-0.80026444 7:1.0092125 8:-0.60577152 9:1.9124433 10:1.3827482 11:-0.31890718 12:-0.24224356 13:-0.47634284 14:-0.32067855 15:0.57018159 16:1.1989945 17:-0.66476198 18:-0.10023001 19:-0.48059439 20:-0.056763715 21:1.6380811 22:-0.48385841 23:-0.47011108 24:-0.30511085 
2 1:0.50010361 2:-0.7537834 3:-0.43773136 4:-0.1630649 5:0.77710545 6:1.2494575 7:1.0092125 8:-0.60577152 9:1.9124433 10:1.3827482 11:-0.31890718 12:-0.24224356 13:-0.47634284 14:-0.32067855 15:0.57018159 16:-0.83394576 17:1.504142 18:-0.10023001 19:-0.48059439 20:-0.056763715 21:-0.61040713 22:-0.48385841 23:2.1269364 24:-0.30511085 
0.8876628581681777 1:0.50010361 2:1.3265036 3:2.2842695 4:-0.1630649 5:0.77710545 6:-0.80026444 7:1.0092125 8:-0.60577152 9:-0.52283713 10:-0.72312254 11:-0.31890718 12:-0.24224356 13:2.0991108 14:-0.32067855 15:0.57018159 16:-0.83394576 17:-0.66476198 18:-0.10023001 19:-0.48059439 20:-0.056763715 21:-0.61040713 22:-0.48385841 23:-0.47011108 24:-0.30511085 
2 1:0.50010361 2:1.3265036 3:-0.43773136 4:-0.1630649 5:0.77710545 6:1.2494575 7:1.0092125 8:1.6506164 9:-0.52283713 10:1.3827482 11:-0.31890718 12:-0.24224356 13:-0.47634284 14:-0.32067855 15:0.57018159 16:-0.83394576 17:-0.66476198 18:-0.10023001 19:-0.48059439 20:-0.056763715 21:-0.61040713 22:2.0665062 23:-0.47011108 24:-0.30511085 
0.7296521059889446 1:-1.9993785 2:1.3265036 3:-0.43773136 4:-0.1630649 5:0.77710545 6:-0.80026444 7:1.0092125 8:-0.60577152 9:1.9124433 10:1.3827482 11:-0.31890718 12:-0.24224356 13:-0.47634284 14:-0.32067855 15:0.57018159 16:1.1989945 17:-0.66476198 18:-0.10023001 19:2.0805411 20:-0.056763715 21:-0.61040713 22:-0.48385841 23:-0.47011108 24:-0.30511085 
1.209887100390315 1:0.50010361 2:1.3265036 3:-0.43773136 4:-0.1630649 5:0.77710545 6:-0.80026444 7:1.0092125 8:-0.60577152 9:1.9124433 10:1.3827482 11:-0.31890718 12:-0.24224356 13:-0.47634284 14:3.1180644 15:0.57018159 16:1.1989945 17:1.504142 18:-0.10023001 19:-0.48059439 20:-0.056763715 21:-0.61040713 22:-0.48385841 23:2.1269364 24:-0.30511085 
1.096238476287896 1:0.50010361 2:-0.7537834 3:-0.43773136 4:-0.1630649 5:0.77710545 6:-0.80026444 7:1.0092125 8:-0.60577152 9:1.9124433 10:1.3827482 11:-0.31890718 12:-0.24224356 13:-0.47634284 14:-0.32067855 15:0.57018159 16:1.1989945 17:1.504142 18:-0.10023001 19:2.0805411 20:-0.056763715 21:1.6380811 22:2.0665062 23:2.1269364 24:-0.30511085 
0.870447239072379 1:0.50010361 2:-0.7537834 3:2.2842695 4:-0.1630649 5:0.77710545 6:1.2494575 7:1.0092125 8:-0.60577152 9:1.9124433 10:1.3827482 11:-0.31890718 12:-0.24224356 13:-0.47634284 14:-0.32067855 15:0.57018159 16:1.1989945 17:-0.66476198 18:-0.10023001 19:-0.48059439 20:-0.056763715 21:-0.61040713 22:-0.48385841 23:-0.47011108 24:-0.30511085 
2 1:-1.9993785 2:-0.7537834 3:2.2842695 4:-0.1630649 5:-1.2866933 6:-0.80026444 7:-0.99076896 8:-0.60577152 9:-0.52283713 10:-0.72312254 11:-0.31890718 12:-0.24224356 13:-0.47634284 14:-0.32067855 15:0.57018159 16:1.1989945 17:1.504142 18:-0.10023001 19:-0.48059439 20:-0.056763715 21:1.6380811 22:2.0665062 23:-0.47011108 24:-0.30511085 
1.1951080142855 1:0.50010361 2:-0.7537834 3:-0.43773136 4:-0.1630649 5:0.77710545 6:1.2494575 7:1.0092125 8:-0.60577152 9:-0.52283713 10:-0.72312254 11:-0.31890718 12:-0.24224356 13:2.0991108 14:-0.32067855 15:0.57018159 16:1.1989945 17:-0.66476198 18:-0.10023001 19:-0.48059439 20:-0.056763715 21:-0.61040713 22:-0.48385841 23:-0.47011108 24:-0.30511085 
0.6782371984015559 1:-1.9993785 2:1.3265036 3:-0.43773136 4:-0.1630649 5:0.77710545 6:-0.80026444 7:1.0092125 8:-0.60577152 9:-0.52283713 10:-0.72312254 11:-0.31890718 12:-0.24224356 13:2.0991108 14:-0.32067855 15:0.57018159 16:1.1989945 17:-0.66476198 18:-0.10023001 19:2.0805411 20:-0.056763715 21:-0.61040713 22:-0.48385841 23:-0.47011108 24:-0.30511085 
0.9116247577724995 1:-1.9993785 2:-0.7537834 3:-0.43773136 4:-0.1630649 5:0.77710545 6:-0.80026444 7:1.0092125 8:-0.60577152 9:1.9124433 10:1.3827482 11:-0.31890718 12:4.1276491 13:-0.47634284 14:-0.32067855 15:0.57018159 16:-0.83394576 17:-0.66476198 18:-0.10023001 19:-0.48059439 20:-0.056763715 21:-0.61040713 22:-0.48385841 23:2.1269364 24:-0.30511085 
1.120875941298755 1:0.50010361 2:1.3265036 3:2.2842695 4:-0.1630649 5:-1.2866933 6:-0.80026444 7:-0.99076896 8:-0.60577152 9:-0.52283713 10:-0.72312254 11:-0.31890718 12:-0.24224356 13:-0.47634284 14:-0.32067855 15:0.57018159 16:1.1989945 17:-0.66476198 18:-0.10023001 19:-0.48059439 20:-0.056763715 21:1.6380811 22:-0.48385841 23:2.1269364 24:-0.30511085 
2 1:0.50010361 2:-0.7537834 3:-0.43773136 4:-0.1630649 5:0.77710545 6:1.2494575 7:-0.99076896 8:-0.60577152 9:-0.52283713 10:-0.72312254 11:-0.31890718 12:-0.24224356 13:-0.47634284 14:-0.32067855 15:0.57018159 16:-0.83394576 17:1.504142 18:-0.10023001 19:-0.48059439 20:-0.056763715 21:-0.61040713 22:2.0665062 23:-0.47011108 24:-0.30511085 
0.7160835161103021 1:0.50010361 2:1.3265036 3:-0.43773136 4:-0.1630649 5:0.77710545 6:-0.80026444 7:1.0092125 8:1.6506164 9:1.9124433 10:1.3827482 11:-0.31890718 12:-0.24224356 13:-0.47634284 14:-0.32067855 15:0.57018159 16:-0.83394576 17:-0.66476198 18:-0.10023001 19:-0.48059439 20:-0.056763715 21:-0.61040713 22:-0.48385841 23:-0.47011108 24:-0.30511085 
2 1:0.50010361 2:-0.7537834 3:-0.43773136 4:-0.1630649 5:0.77710545 6:1.2494575 7:1.0092125 8:-0.60577152 9:-0.52283713 10:-0.72312254 11:-0.31890718 12:-0.24224356 13:2.0991108 14:-0.32067855 15:0.57018159 16:-0.83394576 17:-0.66476198 18:-0.10023001 19:-0.48059439 20:-0.056763715 21:-0.61040713 22:-0.48385841 23:-0.47011108 24:-0.30511085 
1.03275552059117 1:0.50010361 2:-0.7537834 3:2.2842695 4:-0.1630649 5:0.77710545 6:1.2494575 7:1.0092125 8:1.6506164 9:-0.52283713 10:-0.72312254 11:3.1353837 12:-0.24224356 13:-0.47634284 14:-0.32067855 15:0.57018159 16:1.1989945 17:1.504142 18:-0.10023001 19:-0.48059439 20:-0.056763715 21:-0.61040713 22:-0.48385841 23:-0.47011108 24:-0.30511085 
2 1:0.50010361 2:-0.7537834 3:-0.43773136 4:6.1318923 5:-1.2866933 6:-0.80026444 7:-0.99076896 8:-0.60577152 9:-0.52283713 10:-0.72312254 11:-0.31890718 12:-0.24224356 13:-0.47634284 14:-0.32067855 15:-1.7536455 16:-0.83394576 17:-0.66476198 18:-0.10023001 19:-0.48059439 20:-0.056763715 21:-0.61040713 22:-0.48385841 23:-0.47011108 24:-0.30511085 
0.81809940290784 1:-1.9993785 2:-0.7537834 3:2.2842695 4:-0.1630649 5:0.77710545 6:1.2494575 7:1.0092125 8:-0.60577152 9:-0.52283713 10:-0.72312254 11:-0.31890718 12:-0.24224356 13:2.0991108 14:-0.32067855 15:0.57018159 16:-0.83394576 17:1.504142 18:-0.10023001 19:-0.48059439 20:-0.056763715 21:-0.61040713 22:-0.48385841 23:-0.47011108 24:-0.30511085 
1.014856112826976 1:0.50010361 2:1.3265036 3:-0.43773136 4:-0.1630649 5:-1.2866933 6:-0.80026444 7:-0.99076896 8:-0.60577152 9:-0.52283713 10:-0.72312254 11:-0.31890718 12:-0.24224356 13:-0.47634284 14:-0.32067855 15:0.57018159 16:-0.83394576 17:-0.66476198 18:-0.10023001 19:2.0805411 20:-0.056763715 21:1.6380811 22:-0.48385841 23:-0.47011108 24:3.2771578 
0.7322895230260489 1:-1.9993785 2:-0.7537834 3:2.2842695 4:-0.1630649 5:0.77710545 6:-0.80026444 7:1.0092125 8:-0.60577152 9:-0.52283713 10:-0.72312254 11:-0.31890718 12:-0.24224356 13:2.0991108 14:-0.32067855 15:0.57018159 16:1.1989945 17:-0.66476198 18:-0.10023001 19:-0.48059439 20:-0.056763715 21:1.6380811 22:2.0665062 23:-0.47011108 24:-0.30511085 
1.214810935668889 1:0.50010361 2:1.3265036 3:-0.43773136 4:-0.1630649 5:0.77710545 6:-0.80026444 7:1.0092125 8:-0.60577152 9:1.9124433 10:1.3827482 11:-0.31890718 12:-0.24224356 13:-0.47634284 14:-0.32067855 15:0.57018159 16:-0.83394576 17:-0.66476198 18:-0.10023001 19:-0.48059439 20:-0.056763715 21:-0.61040713 22:-0.48385841 23:2.1269364 24:-0.30511085 
2 1:0.50010361 2:-0.7537834 3:-0.43773136 4:-0.1630649 5:0.77710545 6:1.2494575 7:1.0092125 8:-0.60577152 9:1.9124433 10:1.3827482 11:-0.31890718 12:-0.24224356 13:-0.47634284 14:-0.32067855 15:0.57018159 16:1.1989945 17:1.504142 18:-0.10023001 19:-0.48059439 20:-0.056763715 21:1.6380811 22:2.0665062 23:-0.47011108 24:-0.30511085 
0.9190211364240162 1:0.50010361 2:1.3265036 3:2.2842695 4:-0.1630649 5:0.77710545 6:-0.80026444 7:1.0092125 8:-0.60577152 9:1.9124433 10:1.3827482 11:-0.31890718 12:-0.24224356 13:-0.47634284 14:-0.32067855 15:0.57018159 16:1.1989945 17:1.504142 18:-0.10023001 19:-0.48059439 20:-0.056763715 21:-0.61040713 22:-0.48385841 23:2.1269364 24:-0.30511085 
0.9016210909582668 1:0.50010361 2:-0.7537834 3:2.2842695 4:-0.1630649 5:0.77710545 6:1.2494575 7:1.0092125 8:-0.60577152 9:1.9124433 10:1.3827482 11:-0.31890718 12:-0.24224356 13:-0.47634284 14:-0.32067855 15:0.57018159 16:-0.83394576 17:-0.66476198 18:-0.10023001 19:2.0805411 20:-0.056763715 21:-0.61040713 22:-0.48385841 23:-0.47011108 24:-0.30511085 
2 1:0.50010361 2:-0.7537834 3:-0.43773136 4:-0.1630649 5:0.77710545 6:1.2494575 7:1.0092125 8:-0.60577152 9:-0.52283713 10:-0.72312254 11:-0.31890718 12:-0.24224356 13:2.0991108 14:-0.32067855 15:0.57018159 16:-0.83394576 17:-0.66476198 18:-0.10023001 19:-0.48059439 20:-0.056763715 21:-0.61040713 22:-0.48385841 23:-0.47011108 24:-0.30511085 
1.032062164266524 1:0.50010361 2:-0.7537834 3:-0.43773136 4:-0.1630649 5:0.77710545 6:1.2494575 7:1.0092125 8:1.6506164 9:1.9124433 10:1.3827482 11:-0.31890718 12:4.1276491 13:-0.47634284 14:3.1180644 15:0.57018159 16:-0.83394576 17:-0.66476198 18:-0.10023001 19:-0.48059439 20:-0.056763715 21:-0.61040713 22:2.0665062 23:-0.47011108 24:-0.30511085 
1.02327737559012 1:0.50010361 2:-0.7537834 3:2.2842695 4:-0.1630649 5:0.77710545 6:1.2494575 7:-0.99076896 8:-0.60577152 9:-0.52283713 10:-0.72312254 11:-0.31890718 12:-0.24224356 13:-0.47634284 14:3.1180644 15:0.57018159 16:-0.83394576 17:-0.66476198 18:-0.10023001 19:-0.48059439 20:-0.056763715 21:1.6380811 22:-0.48385841 23:-0.47011108 24:-0.30511085 
2 1:0.50010361 2:-0.7537834 3:-0.43773136 4:-0.1630649 5:-1.2866933 6:-0.80026444 7:-0.99076896 8:-0.60577152 9:-0.52283713 10:-0.72312254 11:-0.31890718 12:-0.24224356 13:-0.47634284 14:-0.32067855 15:0.57018159 16:-0.83394576 17:1.504142 18:-0.10023001 19:-0.48059439 20:-0.056763715 21:-0.61040713 22:2.0665062 23:-0.47011108 24:-0.30511085 
0.8694468462851482 1:0.50010361 2:1.3265036 3:-0.43773136 4:-0.1630649 5:0.77710545 6:-0.80026444 7:-0.99076896 8:-0.60577152 9:-0.52283713 10:-0.72312254 11:-0.31890718 12:-0.24224356 13:-0.47634284 14:-0.32067855 15:0.57018159 16:-0.83394576 17:1.504142 18:-0.10023001 19:-0.48059439 20:-0.056763715 21:1.6380811 22:2.0665062 23:-0.47011108 24:-0.30511085 
0.699007122680958 1:0.50010361 2:1.3265036 3:-0.43773136 4:-0.1630649 5:0.77710545 6:1.2494575 7:-0.99076896 8:-0.60577152 9:-0.52283713 10:-0.72312254 11:-0.31890718 12:-0.24224356 13:-0.47634284 14:-0.32067855 15:0.57018159 16:-0.83394576 17:-0.66476198 18:-0.10023001 19:2.0805411 20:-0.056763715 21:-0.61040713 22:-0.48385841 23:-0.47011108 24:-0.30511085 
1.448506141442423 1:0.50010361 2:1.3265036 3:-0.43773136 4:-0.1630649 5:0.77710545 6:1.2494575 7:-0.99076896 8:-0.60577152 9:-0.52283713 10:-0.72312254 11:-0.31890718 12:-0.24224356 13:-0.47634284 14:-0.32067855 15:0.57018159 16:-0.83394576 17:1.504142 18:-0.10023001 19:-0.48059439 20:-0.056763715 21:-0.61040713 22:2.0665062 23:-0.47011108 24:-0.30511085 
1.032189586966338 1:0.50010361 2:1.3265036 3:-0.43773136 4:-0.1630649 5:-1.2866933 6:-0.80026444 7:-0.99076896 8:-0.60577152 9:-0.52283713 10:-0.72312254 11:-0.31890718 12:-0.24224356 13:-0.47634284 14:3.1180644 15:0.57018159 16:1.1989945 17:-0.66476198 18:-0.10023001 19:-0.48059439 20:-0.056763715 21:-0.61040713 22:2.0665062 23:-0.47011108 24:3.2771578 
1.184759388977587 1:0.50010361 2:-0.7537834 3:-0.43773136 4:-0.1630649 5:0.77710545 6:-0.80026444 7:1.0092125 8:1.6506164 9:-0.52283713 10:1.3827482 11:-0.31890718 12:-0.24224356 13:2.0991108 14:-0.32067855 15:0.57018159 16:-0.83394576 17:-0.66476198 18:-0.10023001 19:-0.48059439 20:-0.056763715 21:1.6380811 22:2.0665062 23:2.1269364 24:-0.30511085 
2 1:0.50010361 2:1.3265036 3:-0.43773136 4:-0.1630649 5:0.77710545 6:1.2494575 7:1.0092125 8:-0.60577152 9:1.9124433 10:1.3827482 11:-0.31890718 12:-0.24224356 13:-0.47634284 14:-0.32067855 15:0.57018159 16:1.1989945 17:-0.66476198 18:-0.10023001 19:-0.48059439 20:-0.056763715 21:-0.61040713 22:-0.48385841 23:2.1269364 24:-0.30511085 
2 1:0.50010361 2:-0.7537834 3:-0.43773136 4:-0.1630649 5:-1.2866933 6:-0.80026444 7:-0.99076896 8:-0.60577152 9:-0.52283713 10:-0.72312254 11:-0.31890718 12:-0.24224356 13:-0.47634284 14:3.1180644 15:0.57018159 16:-0.83394576 17:-0.66476198 18:-0.10023001 19:-0.48059439 20:-0.056763715 21:-0.61040713 22:-0.48385841 23:-0.47011108 24:-0.30511085 
0.92209481357294 1:0.50010361 2:1.3265036 3:2.2842695 4:-0.1630649 5:0.77710545 6:-0.80026444 7:1.0092125 8:-0.60577152 9:1.9124433 10:1.3827482 11:-0.31890718 12:-0.24224356 13:-0.47634284 14:-0.32067855 15:0.57018159 16:1.1989945 17:1.504142 18:-0.10023001 19:2.0805411 20:-0.056763715 21:-0.61040713 22:-0.48385841 23:-0.47011108 24:-0.30511085 
2 1:0.50010361 2:-0.7537834 3:-0.43773136 4:-0.1630649 5:0.77710545 6:1.2494575 7:1.0092125 8:-0.60577152 9:1.9124433 10:1.3827482 11:-0.31890718 12:-0.24224356 13:-0.47634284 14:-0.32067855 15:0.57018159 16:-0.83394576 17:1.504142 18:-0.10023001 19:-0.48059439 20:-0.056763715 21:1.6380811 22:-0.48385841 23:-0.47011108 24:-0.30511085 
1.032653903478592 1:-1.9993785 2:1.3265036 3:-0.43773136 4:-0.1630649 5:0.77710545 6:-0.80026444 7:1.0092125 8:1.6506164 9:1.9124433 10:1.3827482 11:3.1353837 12:-0.24224356 13:2.0991108 14:-0.32067855 15:0.57018159 16:1.1989945 17:-0.66476198 18:-0.10023001 19:-0.48059439 20:-0.056763715 21:-0.61040713 22:-0.48385841 23:-0.47011108 24:-0.30511085 
0.99843627974918 1:0.50010361 2:1.3265036 3:2.2842695 4:-0.1630649 5:0.77710545 6:1.2494575 7:-0.99076896 8:-0.60577152 9:-0.52283713 10:-0.72312254 11:-0.31890718 12:-0.24224356 13:-0.47634284 14:-0.32067855 15:0.57018159 16:1.1989945 17:-0.66476198 18:-0.10023001 19:-0.48059439 20:-0.056763715 21:1.6380811 22:2.0665062 23:-0.47011108 24:-0.30511085 
1.031902672676614 1:0.50010361 2:-0.7537834 3:-0.43773136 4:-0.1630649 5:0.77710545 6:1.2494575 7:-0.99076896 8:-0.60577152 9:-0.52283713 10:-0.72312254 11:-0.31890718 12:-0.24224356 13:-0.47634284 14:3.1180644 15:0.57018159 16:-0.83394576 17:-0.66476198 18:-0.10023001 19:-0.48059439 20:-0.056763715 21:-0.61040713 22:-0.48385841 23:-0.47011108 24:3.2771578 
1.075382083500978 1:0.50010361 2:-0.7537834 3:-0.43773136 4:-0.1630649 5:0.77710545 6:-0.80026444 7:1.0092125 8:-0.60577152 9:1.9124433 10:1.3827482 11:-0.31890718 12:-0.24224356 13:-0.47634284 14:3.1180644 15:0.57018159 16:1.1989945 17:-0.66476198 18:-0.10023001 19:-0.48059439 20:-0.056763715 21:-0.61040713 22:2.0665062 23:-0.47011108 24:-0.30511085 
1.026800667290332 1:0.50010361 2:1.3265036 3:-0.43773136 4:-0.1630649 5:0.77710545 6:1.2494575 7:1.0092125 8:1.6506164 9:-0.52283713 10:-0.72312254 11:-0.31890718 12:4.1276491 13:-0.47634284 14:-0.32067855 15:0.57018159 16:1.1989945 17:1.504142 18:-0.10023001 19:2.0805411 20:-0.056763715 21:1.6380811 22:2.0665062 23:-0.47011108 24:-0.30511085 
2 1:0.50010361 2:-0.7537834 3:-0.43773136 4:-0.1630649 5:0.77710545 6:-0.80026444 7:1.0092125 8:-0.60577152 9:1.9124433 10:1.3827482 11:-0.31890718 12:-0.24224356 13:2.0991108 14:-0.32067855 15:0.57018159 16:1.1989945 17:-0.66476198 18:-0.10023001 19:-0.48059439 20:-0.056763715 21:1.6380811 22:-0.48385841 23:2.1269364 24:-0.30511085 
1.121801528801432 1:0.50010361 2:-0.7537834 3:-0.43773136 4:-0.1630649 5:-1.2866933 6:-0.80026444 7:-0.99076896 8:-0.60577152 9:-0.52283713 10:-0.72312254 11:-0.31890718 12:-0.24224356 13:-0.47634284 14:-0.32067855 15:0.57018159 16:-0.83394576 17:-0.66476198 18:-0.10023001 19:2.0805411 20:-0.056763715 21:-0.61040713 22:-0.48385841 23:-0.47011108 24:-0.30511085 
0.768805243669034 1:0.50010361 2:-0.7537834 3:2.2842695 4:-0.1630649 5:0.77710545 6:1.2494575 7:-0.99076896 8:-0.60577152 9:-0.52283713 10:-0.72312254 11:-0.31890718 12:-0.24224356 13:-0.47634284 14:-0.32067855 15:0.57018159 16:-0.83394576 17:-0.66476198 18:-0.10023001 19:-0.48059439 20:-0.056763715 21:1.6380811 22:-0.48385841 23:-0.47011108 24:-0.30511085 
0.8435965129345113 1:0.50010361 2:1.3265036 3:2.2842695 4:-0.1630649 5:0.77710545 6:1.2494575 7:1.0092125 8:1.6506164 9:-0.52283713 10:1.3827482 11:-0.31890718 12:-0.24224356 13:-0.47634284 14:-0.32067855 15:0.57018159 16:-0.83394576 17:1.504142 18:-0.10023001 19:-0.48059439 20:-0.056763715 21:-0.61040713 22:-0.48385841 23:-0.47011108 24:-0.30511085 
1.035777356133077 1:0.50010361 2:1.3265036 3:-0.43773136 4:-0.1630649 5:0.77710545 6:-0.80026444 7:1.0092125 8:-0.60577152 9:1.9124433 10:1.3827482 11:-0.31890718 12:-0.24224356 13:-0.47634284 14:3.1180644 15:0.57018159 16:-0.83394576 17:1.504142 18:-0.10023001 19:2.0805411 20:-0.056763715 21:1.6380811 22:2.0665062 23:-0.47011108 24:-0.30511085 
1.159422218641143 1:0.50010361 2:1.3265036 3:-0.43773136 4:-0.1630649 5:0.77710545 6:1.2494575 7:1.0092125 8:1.6506164 9:-0.52283713 10:1.3827482 11:-0.31890718 12:-0.24224356 13:-0.47634284 14:-0.32067855 15:0.57018159 16:1.1989945 17:1.504142 18:-0.10023001 19:-0.48059439 20:-0.056763715 21:1.6380811 22:2.0665062 23:-0.47011108 24:-0.30511085 
0.9945066295799768 1:0.50010361 2:-0.7537834 3:2.2842695 4:-0.1630649 5:0.77710545 6:-0.80026444 7:1.0092125 8:1.6506164 9:-0.52283713 10:1.3827482 11:3.1353837 12:-0.24224356 13:-0.47634284 14:-0.32067855 15:0.57018159 16:-0.83394576 17:1.504142 18:-0.10023001 19:-0.48059439 20:-0.056763715 21:-0.61040713 22:-0.48385841 23:-0.47011108 24:-0.30511085 
1.026666550801686 1:0.50010361 2:-0.7537834 3:-0.43773136 4:-0.1630649 5:0.77710545 6:1.2494575 7:1.0092125 8:1.6506164 9:1.9124433 10:1.3827482 11:3.1353837 12:-0.24224356 13:-0.47634284 14:3.1180644 15:0.57018159 16:1.1989945 17:1.504142 18:-0.10023001 19:-0.48059439 20:-0.056763715 21:1.6380811 22:-0.48385841 23:-0.47011108 24:-0.30511085 
2 1:0.50010361 2:1.3265036 3:-0.43773136 4:-0.1630649 5:0.77710545 6:1.2494575 7:1.0092125 8:1.6506164 9:-0.52283713 10:1.3827482 11:-0.31890718 12:-0.24224356 13:-0.47634284 14:-0.32067855 15:0.57018159 16:1.1989945 17:1.504142 18:-0.10023001 19:-0.48059439 20:-0.056763715 21:1.6380811 22:2.0665062 23:-0.47011108 24:-0.30511085 
1.172163937572115 1:0.50010361 2:1.3265036 3:-0.43773136 4:-0.1630649 5:0.77710545 6:-0.80026444 7:1.0092125 8:1.6506164 9:-0.52283713 10:1.3827482 11:-0.31890718 12:-0.24224356 13:-0.47634284 14:-0.32067855 15:0.57018159 16:-0.83394576 17:-0.66476198 18:-0.10023001 19:2.0805411 20:-0.056763715 21:-0.61040713 22:-0.48385841 23:-0.47011108 24:-0.30511085 
0.8975228284632151 1:0.50010361 2:1.3265036 3:-0.43773136 4:-0.1630649 5:0.77710545 6:1.2494575 7:1.0092125 8:1.6506164 9:-0.52283713 10:1.3827482 11:-0.31890718 12:-0.24224356 13:-0.47634284 14:-0.32067855 15:0.57018159 16:1.1989945 17:1.504142 18:-0.10023001 19:2.0805411 20:-0.056763715 21:1.6380811 22:-0.48385841 23:-0.47011108 24:-0.30511085 
1.066181052859524 1:-1.9993785 2:1.3265036 3:-0.43773136 4:-0.1630649 5:0.77710545 6:1.2494575 7:1.0092125 8:1.6506164 9:-0.52283713 10:-0.72312254 11:3.1353837 12:-0.24224356 13:-0.47634284 14:-0.32067855 15:0.57018159 16:1.1989945 17:1.504142 18:-0.10023001 19:-0.48059439 20:-0.056763715 21:1.6380811 22:2.0665062 23:-0.47011108 24:-0.30511085 
0.6561413611696317 1:0.50010361 2:-0.7537834 3:-0.43773136 4:-0.1630649 5:0.77710545 6:1.2494575 7:1.0092125 8:1.6506164 9:-0.52283713 10:1.3827482 11:-0.31890718 12:-0.24224356 13:-0.47634284 14:-0.32067855 15:0.57018159 16:1.1989945 17:1.504142 18:-0.10023001 19:-0.48059439 20:-0.056763715 21:-0.61040713 22:-0.48385841 23:-0.47011108 24:-0.30511085 
0.9548600180640846 1:-1.9993785 2:-0.7537834 3:2.2842695 4:-0.1630649 5:0.77710545 6:-0.80026444 7:1.0092125 8:1.6506164 9:-0.52283713 10:1.3827482 11:-0.31890718 12:-0.24224356 13:-0.47634284 14:-0.32067855 15:0.57018159 16:1.1989945 17:-0.66476198 18:-0.10023001 19:-0.48059439 20:-0.056763715 21:1.6380811 22:-0.48385841 23:-0.47011108 24:-0.30511085 
2 1:0.50010361 2:-0.7537834 3:-0.43773136 4:-0.1630649 5:0.77710545 6:1.2494575 7:1.0092125 8:1.6506164 9:1.9124433 10:1.3827482 11:-0.31890718 12:-0.24224356 13:-0.47634284 14:-0.32067855 15:0.57018159 16:1.1989945 17:1.504142 18:-0.10023001 19:-0.48059439 20:-0.056763715 21:-0.61040713 22:-0.48385841 23:-0.47011108 24:-0.30511085 
0.9756094654415887 1:0.50010361 2:-0.7537834 3:2.2842695 4:-0.1630649 5:0.77710545 6:1.2494575 7:1.0092125 8:-0.60577152 9:1.9124433 10:1.3827482 11:-0.31890718 12:-0.24224356 13:2.0991108 14:-0.32067855 15:0.57018159 16:1.1989945 17:-0.66476198 18:-0.10023001 19:-0.48059439 20:-0.056763715 21:1.6380811 22:-0.48385841 23:-0.47011108 24:3.2771578 
2 1:0.50010361 2:1.3265036 3:-0.43773136 4:-0.1630649 5:0.77710545 6:1.2494575 7:1.0092125 8:1.6506164 9:-0.52283713 10:1.3827482 11:-0.31890718 12:-0.24224356 13:-0.47634284 14:-0.32067855 15:0.57018159 16:-0.83394576 17:-0.66476198 18:-0.10023001 19:2.0805411 20:-0.056763715 21:-0.61040713 22:-0.48385841 23:2.1269364 24:-0.30511085 
1.032217366160372 1:0.50010361 2:-0.7537834 3:-0.43773136 4:-0.1630649 5:0.77710545 6:1.2494575 7:-0.99076896 8:-0.60577152 9:-0.52283713 10:-0.72312254 11:-0.31890718 12:-0.24224356 13:-0.47634284 14:-0.32067855 15:0.57018159 16:-0.83394576 17:-0.66476198 18:9.9760181 19:-0.48059439 20:-0.056763715 21:-0.61040713 22:-0.48385841 23:2.1269364 24:-0.30511085 
1.312390456308544 1:0.50010361 2:-0.7537834 3:2.2842695 4:-0.1630649 5:0.77710545 6:1.2494575 7:1.0092125 8:1.6506164 9:1.9124433 10:1.3827482 11:-0.31890718 12:-0.24224356 13:-0.47634284 14:-0.32067855 15:0.57018159 16:1.1989945 17:1.504142 18:-0.10023001 19:-0.48059439 20:-0.056763715 21:1.6380811 22:2.0665062 23:2.1269364 24:-0.30511085 
1.101631135952184 1:0.50010361 2:-0.7537834 3:-0.43773136 4:-0.1630649 5:0.77710545 6:1.2494575 7:1.0092125 8:-0.60577152 9:1.9124433 10:1.3827482 11:-0.31890718 12:-0.24224356 13:-0.47634284 14:-0.32067855 15:0.57018159 16:1.1989945 17:1.504142 18:-0.10023001 19:-0.48059439 20:-0.056763715 21:1.6380811 22:-0.48385841 23:2.1269364 24:-0.30511085 
0.9696683056249951 1:0.50010361 2:1.3265036 3:-0.43773136 4:-0.1630649 5:0.77710545 6:1.2494575 7:1.0092125 8:1.6506164 9:1.9124433 10:1.3827482 11:3.1353837 12:-0.24224356 13:-0.47634284 14:-0.32067855 15:0.57018159 16:-0.83394576 17:-0.66476198 18:-0.10023001 19:2.0805411 20:-0.056763715 21:-0.61040713 22:-0.48385841 23:-0.47011108 24:-0.30511085 
2 1:0.50010361 2:1.3265036 3:-0.43773136 4:-0.1630649 5:0.77710545 6:1.2494575 7:1.0092125 8:1.6506164 9:-0.52283713 10:1.3827482 11:-0.31890718 12:-0.24224356 13:-0.47634284 14:-0.32067855 15:0.57018159 16:1.1989945 17:1.504142 18:-0.10023001 19:-0.48059439 20:-0.056763715 21:-0.61040713 22:-0.48385841 23:-0.47011108 24:-0.30511085 
0.9371701114877117 1:0.50010361 2:1.3265036 3:2.2842695 4:-0.1630649 5:0.77710545 6:-0.80026444 7:1.0092125 8:1.6506164 9:1.9124433 10:1.3827482 11:-0.31890718 12:-0.24224356 13:-0.47634284 14:-0.32067855 15:0.57018159 16:1.1989945 17:1.504142 18:-0.10023001 19:-0.48059439 20:-0.056763715 21:-0.61040713 22:-0.48385841 23:-0.47011108 24:-0.30511085 
1.870415516675434 1:-1.9993785 2:-0.7537834 3:2.2842695 4:-0.1630649 5:0.77710545 6:-0.80026444 7:1.0092125 8:1.6506164 9:-0.52283713 10:1.3827482 11:-0.31890718 12:-0.24224356 13:-0.47634284 14:-0.32067855 15:0.57018159 16:1.1989945 17:-0.66476198 18:-0.10023001 19:-0.48059439 20:-0.056763715 21:1.6380811 22:-0.48385841 23:-0.47011108 24:-0.30511085 
1.013462226076379 1:-1.9993785 2:-0.7537834 3:2.2842695 4:-0.1630649 5:0.77710545 6:1.2494575 7:1.0092125 8:1.6506164 9:1.9124433 10:-0.72312254 11:3.1353837 12:4.1276491 13:-0.47634284 14:-0.32067855 15:0.57018159 16:-0.83394576 17:-0.66476198 18:-0.10023001 19:-0.48059439 20:-0.056763715 21:-0.61040713 22:-0.48385841 23:-0.47011108 24:-0.30511085 
0.9817851008498794 1:0.50010361 2:-0.7537834 3:-0.43773136 4:-0.1630649 5:0.77710545 6:1.2494575 7:1.0092125 8:-0.60577152 9:1.9124433 10:1.3827482 11:-0.31890718 12:-0.24224356 13:-0.47634284 14:-0.32067855 15:0.57018159 16:1.1989945 17:-0.66476198 18:-0.10023001 19:-0.48059439 20:-0.056763715 21:1.6380811 22:2.0665062 23:-0.47011108 24:-0.30511085 
1.118436212645098 1:0.50010361 2:-0.7537834 3:2.2842695 4:-0.1630649 5:0.77710545 6:1.2494575 7:1.0092125 8:1.6506164 9:-0.52283713 10:1.3827482 11:3.1353837 12:-0.24224356 13:-0.47634284 14:-0.32067855 15:0.57018159 16:1.1989945 17:-0.66476198 18:-0.10023001 19:-0.48059439 20:-0.056763715 21:1.6380811 22:2.0665062 23:-0.47011108 24:-0.30511085 
0.7416400074621542 1:0.50010361 2:1.3265036 3:-0.43773136 4:-0.1630649 5:0.77710545 6:1.2494575 7:1.0092125 8:-0.60577152 9:1.9124433 10:1.3827482 11:-0.31890718 12:-0.24224356 13:-0.47634284 14:-0.32067855 15:0.57018159 16:-0.83394576 17:1.504142 18:-0.10023001 19:-0.48059439 20:-0.056763715 21:1.6380811 22:-0.48385841 23:-0.47011108 24:-0.30511085 
0.9273112751736255 1:0.50010361 2:1.3265036 3:-0.43773136 4:-0.1630649 5:0.77710545 6:-0.80026444 7:1.0092125 8:-0.60577152 9:1.9124433 10:1.3827482 11:-0.31890718 12:-0.24224356 13:-0.47634284 14:3.1180644 15:0.57018159 16:-0.83394576 17:1.504142 18:-0.10023001 19:-0.48059439 20:-0.056763715 21:1.6380811 22:2.0665062 23:2.1269364 24:-0.30511085 
0.988222231626791 1:-1.9993785 2:-0.7537834 3:-0.43773136 4:-0.1630649 5:0.77710545 6:-0.80026444 7:1.0092125 8:-0.60577152 9:-0.52283713 10:-0.72312254 11:-0.31890718 12:-0.24224356 13:2.0991108 14:-0.32067855 15:0.57018159 16:1.1989945 17:1.504142 18:-0.10023001 19:2.0805411 20:-0.056763715 21:-0.61040713 22:2.0665062 23:-0.47011108 24:-0.30511085 
2 1:0.50010361 2:-0.7537834 3:-0.43773136 4:-0.1630649 5:0.77710545 6:1.2494575 7:-0.99076896 8:-0.60577152 9:-0.52283713 10:-0.72312254 11:-0.31890718 12:-0.24224356 13:-0.47634284 14:3.1180644 15:0.57018159 16:1.1989945 17:-0.66476198 18:-0.10023001 19:-0.48059439 20:-0.056763715 21:-0.61040713 22:-0.48385841 23:-0.47011108 24:-0.30511085 
1.141043961249161 1:0.50010361 2:1.3265036 3:-0.43773136 4:-0.1630649 5:0.77710545 6:1.2494575 7:1.0092125 8:1.6506164 9:1.9124433 10:1.3827482 11:-0.31890718 12:-0.24224356 13:2.0991108 14:-0.32067855 15:0.57018159 16:1.1989945 17:1.504142 18:-0.10023001 19:2.0805411 20:-0.056763715 21:1.6380811 22:2.0665062 23:-0.47011108 24:-0.30511085 
2 1:0.50010361 2:1.3265036 3:-0.43773136 4:-0.1630649 5:0.77710545 6:1.2494575 7:1.0092125 8:1.6506164 9:1.9124433 10:1.3827482 11:-0.31890718 12:-0.24224356 13:2.0991108 14:-0.32067855 15:0.57018159 16:1.1989945 17:1.504142 18:-0.10023001 19:-0.48059439 20:-0.056763715 21:-0.61040713 22:2.0665062 23:-0.47011108 24:-0.30511085 
2 1:0.50010361 2:-0.7537834 3:-0.43773136 4:-0.1630649 5:0.77710545 6:1.2494575 7:-0.99076896 8:-0.60577152 9:-0.52283713 10:-0.72312254 11:-0.31890718 12:-0.24224356 13:-0.47634284 14:-0.32067855 15:0.57018159 16:-0.83394576 17:1.504142 18:-0.10023001 19:-0.48059439 20:-0.056763715 21:-0.61040713 22:2.0665062 23:-0.47011108 24:-0.30511085 
1.023696195446846 1:0.50010361 2:1.3265036 3:-0.43773136 4:-0.1630649 5:0.77710545 6:1.2494575 7:1.0092125 8:-0.60577152 9:1.9124433 10:1.3827482 11:-0.31890718 12:-0.24224356 13:2.0991108 14:3.1180644 15:0.57018159 16:1.1989945 17:1.504142 18:-0.10023001 19:2.0805411 20:-0.056763715 21:1.6380811 22:2.0665062 23:2.1269364 24:3.2771578 
0.9909453008071453 1:0.50010361 2:-0.7537834 3:-0.43773136 4:-0.1630649 5:-1.2866933 6:-0.80026444 7:-0.99076896 8:-0.60577152 9:-0.52283713 10:-0.72312254 11:-0.31890718 12:-0.24224356 13:-0.47634284 14:-0.32067855 15:0.57018159 16:1.1989945 17:-0.66476198 18:-0.10023001 19:-0.48059439 20:-0.056763715 21:1.6380811 22:-0.48385841 23:-0.47011108 24:3.2771578 
1.111221203282755 1:0.50010361 2:1.3265036 3:-0.43773136 4:-0.1630649 5:0.77710545 6:1.2494575 7:1.0092125 8:-0.60577152 9:1.9124433 10:1.3827482 11:-0.31890718 12:4.1276491 13:2.0991108 14:-0.32067855 15:0.57018159 16:1.1989945 17:1.504142 18:-0.10023001 19:-0.48059439 20:-0.056763715 21:1.6380811 22:2.0665062 23:2.1269364 24:-0.30511085 
2 1:0.50010361 2:-0.7537834 3:-0.43773136 4:-0.1630649 5:0.77710545 6:1.2494575 7:1.0092125 8:-0.60577152 9:1.9124433 10:1.3827482 11:-0.31890718 12:-0.24224356 13:2.0991108 14:-0.32067855 15:0.57018159 16:1.1989945 17:1.504142 18:-0.10023001 19:-0.48059439 20:-0.056763715 21:1.6380811 22:2.0665062 23:-0.47011108 24:-0.30511085 
1.153279484065005 1:0.50010361 2:-0.7537834 3:-0.43773136 4:-0.1630649 5:0.77710545 6:1.2494575 7:1.0092125 8:-0.60577152 9:1.9124433 10:1.3827482 11:-0.31890718 12:4.1276491 13:-0.47634284 14:-0.32067855 15:0.57018159 16:-0.83394576 17:1.504142 18:-0.10023001 19:-0.48059439 20:-0.056763715 21:1.6380811 22:2.0665062 23:2.1269364 24:-0.30511085 
1.045531758069139 1:0.50010361 2:1.3265036 3:-0.43773136 4:-0.1630649 5:0.77710545 6:1.2494575 7:1.0092125 8:-0.60577152 9:1.9124433 10:1.3827482 11:-0.31890718 12:4.1276491 13:-0.47634284 14:-0.32067855 15:0.57018159 16:1.1989945 17:1.504142 18:-0.10023001 19:-0.48059439 20:-0.056763715 21:1.6380811 22:-0.48385841 23:2.1269364 24:-0.30511085 
0.9852743457862565 1:-1.9993785 2:-0.7537834 3:-0.43773136 4:-0.1630649 5:0.77710545 6:-0.80026444 7:1.0092125 8:-0.60577152 9:-0.52283713 10:-0.72312254 11:-0.31890718 12:-0.24224356 13:2.0991108 14:-0.32067855 15:0.57018159 16:1.1989945 17:1.504142 18:-0.10023001 19:-0.48059439 20:-0.056763715 21:-0.61040713 22:2.0665062 23:-0.47011108 24:-0.30511085 
1.027302298454855 1:0.50010361 2:-0.7537834 3:-0.43773136 4:-0.1630649 5:0.77710545 6:1.2494575 7:1.0092125 8:1.6506164 9:1.9124433 10:1.3827482 11:-0.31890718 12:-0.24224356 13:-0.47634284 14:3.1180644 15:0.57018159 16:1.1989945 17:1.504142 18:-0.10023001 19:2.0805411 20:-0.056763715 21:-0.61040713 22:2.0665062 23:-0.47011108 24:3.2771578 
2 1:0.50010361 2:-0.7537834 3:-0.43773136 4:-0.1630649 5:0.77710545 6:-0.80026444 7:1.0092125 8:-0.60577152 9:1.9124433 10:1.3827482 11:-0.31890718 12:-0.24224356 13:-0.47634284 14:-0.32067855 15:0.57018159 16:1.1989945 17:-0.66476198 18:-0.10023001 19:-0.48059439 20:-0.056763715 21:-0.61040713 22:-0.48385841 23:-0.47011108 24:-0.30511085 
1.054822472389547 1:0.50010361 2:1.3265036 3:-0.43773136 4:-0.1630649 5:0.77710545 6:1.2494575 7:1.0092125 8:1.6506164 9:-0.52283713 10:1.3827482 11:-0.31890718 12:-0.24224356 13:2.0991108 14:-0.32067855 15:0.57018159 16:1.1989945 17:1.504142 18:-0.10023001 19:2.0805411 20:-0.056763715 21:1.6380811 22:2.0665062 23:-0.47011108 24:3.2771578 
0.9945032655444448 1:-1.9993785 2:-0.7537834 3:-0.43773136 4:-0.1630649 5:0.77710545 6:-0.80026444 7:1.0092125 8:-0.60577152 9:1.9124433 10:1.3827482 11:-0.31890718 12:4.1276491 13:-0.47634284 14:-0.32067855 15:0.57018159 16:1.1989945 17:-0.66476198 18:-0.10023001 19:-0.48059439 20:-0.056763715 21:-0.61040713 22:-0.48385841 23:-0.47011108 24:-0.30511085 
1.069865622884174 1:0.50010361 2:-0.7537834 3:-0.43773136 4:-0.1630649 5:0.77710545 6:1.2494575 7:1.0092125 8:1.6506164 9:1.9124433 10:1.3827482 11:-0.31890718 12:-0.24224356 13:2.0991108 14:-0.32067855 15:0.57018159 16:1.1989945 17:-0.66476198 18:-0.10023001 19:-0.48059439 20:-0.056763715 21:1.6380811 22:2.0665062 23:-0.47011108 24:-0.30511085 
1.778191354821029 1:0.50010361 2:1.3265036 3:-0.43773136 4:-0.1630649 5:0.77710545 6:-0.80026444 7:1.0092125 8:-0.60577152 9:1.9124433 10:1.3827482 11:-0.31890718 12:-0.24224356 13:-0.47634284 14:-0.32067855 15:0.57018159 16:-0.83394576 17:-0.66476198 18:-0.10023001 19:-0.48059439 20:-0.056763715 21:-0.61040713 22:-0.48385841 23:2.1269364 24:-0.30511085 
2 1:0.50010361 2:-0.7537834 3:-0.43773136 4:-0.1630649 5:0.77710545 6:1.2494575 7:1.0092125 8:-0.60577152 9:1.9124433 10:1.3827482 11:-0.31890718 12:-0.24224356 13:-0.47634284 14:3.1180644 15:0.57018159 16:1.1989945 17:1.504142 18:-0.10023001 19:-0.48059439 20:-0.056763715 21:1.6380811 22:2.0665062 23:2.1269364 24:-0.30511085 
1.089486312328216 1:0.50010361 2:-0.7537834 3:2.2842695 4:-0.1630649 5:0.77710545 6:-0.80026444 7:1.0092125 8:-0.60577152 9:1.9124433 10:1.3827482 11:-0.31890718 12:-0.24224356 13:2.0991108 14:-0.32067855 15:0.57018159 16:1.1989945 17:-0.66476198 18:-0.10023001 19:-0.48059439 20:-0.056763715 21:-0.61040713 22:-0.48385841 23:2.1269364 24:-0.30511085 
1.07586321335511 1:0.50010361 2:-0.7537834 3:-0.43773136 4:-0.1630649 5:0.77710545 6:-0.80026444 7:1.0092125 8:-0.60577152 9:1.9124433 10:1.3827482 11:-0.31890718 12:-0.24224356 13:-0.47634284 14:-0.32067855 15:0.57018159 16:1.1989945 17:-0.66476198 18:-0.10023001 19:2.0805411 20:-0.056763715 21:-0.61040713 22:-0.48385841 23:-0.47011108 24:-0.30511085 
2 1:0.50010361 2:1.3265036 3:-0.43773136 4:-0.1630649 5:0.77710545 6:1.2494575 7:1.0092125 8:1.6506164 9:-0.52283713 10:1.3827482 11:3.1353837 12:-0.24224356 13:-0.47634284 14:-0.32067855 15:0.57018159 16:-0.83394576 17:-0.66476198 18:-0.10023001 19:-0.48059439 20:-0.056763715 21:-0.61040713 22:-0.48385841 23:-0.47011108 24:-0.30511085 
0.9886264823247851 1:-1.9993785 2:1.3265036 3:-0.43773136 4:-0.1630649 5:0.77710545 6:-0.80026444 7:1.0092125 8:1.6506164 9:1.9124433 10:-0.72312254 11:3.1353837 12:4.1276491 13:-0.47634284 14:-0.32067855 15:0.57018159 16:1.1989945 17:1.504142 18:-0.10023001 19:-0.48059439 20:-0.056763715 21:-0.61040713 22:-0.48385841 23:-0.47011108 24:-0.30511085 
0.8345517410448425 1:0.50010361 2:1.3265036 3:2.2842695 4:-0.1630649 5:-1.2866933 6:-0.80026444 7:-0.99076896 8:-0.60577152 9:-0.52283713 10:-0.72312254 11:-0.31890718 12:-0.24224356 13:-0.47634284 14:-0.32067855 15:0.57018159 16:1.1989945 17:1.504142 18:-0.10023001 19:-0.48059439 20:-0.056763715 21:1.6380811 22:2.0665062 23:-0.47011108 24:-0.30511085 
0.7915895093769528 1:-1.9993785 2:1.3265036 3:2.2842695 4:-0.1630649 5:0.77710545 6:-0.80026444 7:1.0092125 8:1.6506164 9:-0.52283713 10:-0.72312254 11:3.1353837 12:-0.24224356 13:-0.47634284 14:-0.32067855 15:0.57018159 16:1.1989945 17:1.504142 18:-0.10023001 19:-0.48059439 20:-0.056763715 21:-0.61040713 22:-0.48385841 23:2.1269364 24:-0.30511085 
0.7787477107149722 1:-1.9993785 2:1.3265036 3:2.2842695 4:-0.1630649 5:0.77710545 6:1.2494575 7:1.0092125 8:-0.60577152 9:1.9124433 10:1.3827482 11:-0.31890718 12:-0.24224356 13:-0.47634284 14:-0.32067855 15:0.57018159 16:1.1989945 17:1.504142 18:-0.10023001 19:-0.48059439 20:-0.056763715 21:-0.61040713 22:-0.48385841 23:-0.47011108 24:-0.30511085 
1.025698844923717 1:-1.9993785 2:-0.7537834 3:-0.43773136 4:-0.1630649 5:0.77710545 6:1.2494575 7:1.0092125 8:-0.60577152 9:1.9124433 10:1.3827482 11:-0.31890718 12:-0.24224356 13:-0.47634284 14:-0.32067855 15:0.57018159 16:-0.83394576 17:-0.66476198 18:-0.10023001 19:-0.48059439 20:-0.056763715 21:-0.61040713 22:2.0665062 23:-0.47011108 24:3.2771578 
1.07619385306624 1:-1.9993785 2:-0.7537834 3:-0.43773136 4:-0.1630649 5:0.77710545 6:-0.80026444 7:1.0092125 8:-0.60577152 9:1.9124433 10:1.3827482 11:-0.31890718 12:-0.24224356 13:-0.47634284 14:3.1180644 15:0.57018159 16:-0.83394576 17:1.504142 18:-0.10023001 19:-0.48059439 20:-0.056763715 21:-0.61040713 22:-0.48385841 23:-0.47011108 24:-0.30511085 
2 1:0.50010361 2:-0.7537834 3:-0.43773136 4:-0.1630649 5:0.77710545 6:1.2494575 7:1.0092125 8:-0.60577152 9:-0.52283713 10:-0.72312254 11:-0.31890718 12:-0.24224356 13:2.0991108 14:-0.32067855 15:0.57018159 16:1.1989945 17:-0.66476198 18:-0.10023001 19:-0.48059439 20:-0.056763715 21:1.6380811 22:-0.48385841 23:-0.47011108 24:-0.30511085 
0.7538292810170919 1:0.50010361 2:1.3265036 3:-0.43773136 4:-0.1630649 5:0.77710545 6:-0.80026444 7:1.0092125 8:-0.60577152 9:-0.52283713 10:-0.72312254 11:-0.31890718 12:-0.24224356 13:2.0991108 14:-0.32067855 15:0.57018159 16:-0.83394576 17:1.504142 18:-0.10023001 19:-0.48059439 20:-0.056763715 21:1.6380811 22:-0.48385841 23:-0.47011108 24:-0.30511085 
2 1:0.50010361 2:1.3265036 3:-0.43773136 4:-0.1630649 5:0.77710545 6:1.2494575 7:1.0092125 8:1.6506164 9:-0.52283713 10:1.3827482 11:3.1353837 12:-0.24224356 13:-0.47634284 14:-0.32067855 15:0.57018159 16:1.1989945 17:1.504142 18:-0.10023001 19:-0.48059439 20:-0.056763715 21:1.6380811 22:-0.48385841 23:-0.47011108 24:-0.30511085 
1.018776137739109 1:0.50010361 2:1.3265036 3:-0.43773136 4:-0.1630649 5:0.77710545 6:1.2494575 7:1.0092125 8:1.6506164 9:-0.52283713 10:-0.72312254 11:3.1353837 12:4.1276491 13:-0.47634284 14:-0.32067855 15:0.57018159 16:1.1989945 17:1.504142 18:-0.10023001 19:-0.48059439 20:-0.056763715 21:-0.61040713 22:-0.48385841 23:-0.47011108 24:-0.30511085 
1.163318485612766 1:0.50010361 2:-0.7537834 3:-0.43773136 4:-0.1630649 5:0.77710545 6:1.2494575 7:1.0092125 8:1.6506164 9:1.9124433 10:1.3827482 11:-0.31890718 12:-0.24224356 13:-0.47634284 14:-0.32067855 15:0.57018159 16:-0.83394576 17:-0.66476198 18:-0.10023001 19:-0.48059439 20:-0.056763715 21:-0.61040713 22:-0.48385841 23:-0.47011108 24:3.2771578 
0.6112098214230189 1:-1.9993785 2:1.3265036 3:-0.43773136 4:-0.1630649 5:0.77710545 6:-0.80026444 7:1.0092125 8:1.6506164 9:-0.52283713 10:1.3827482 11:-0.31890718 12:-0.24224356 13:-0.47634284 14:-0.32067855 15:0.57018159 16:-0.83394576 17:1.504142 18:-0.10023001 19:-0.48059439 20:-0.056763715 21:-0.61040713 22:-0.48385841 23:-0.47011108 24:-0.30511085 
2 1:0.50010361 2:-0.7537834 3:-0.43773136 4:-0.1630649 5:0.77710545 6:1.2494575 7:1.0092125 8:1.6506164 9:-0.52283713 10:1.3827482 11:-0.31890718 12:-0.24224356 13:2.0991108 14:-0.32067855 15:0.57018159 16:1.1989945 17:-0.66476198 18:-0.10023001 19:-0.48059439 20:-0.056763715 21:-0.61040713 22:-0.48385841 23:-0.47011108 24:-0.30511085 
1.231941408420763 1:0.50010361 2:1.3265036 3:-0.43773136 4:-0.1630649 5:0.77710545 6:1.2494575 7:1.0092125 8:-0.60577152 9:1.9124433 10:1.3827482 11:-0.31890718 12:-0.24224356 13:2.0991108 14:-0.32067855 15:0.57018159 16:-0.83394576 17:1.504142 18:-0.10023001 19:-0.48059439 20:-0.056763715 21:1.6380811 22:-0.48385841 23:-0.47011108 24:-0.30511085 
0.5450628253189019 1:0.50010361 2:-0.7537834 3:-0.43773136 4:-0.1630649 5:0.77710545 6:-0.80026444 7:1.0092125 8:-0.60577152 9:-0.52283713 10:-0.72312254 11:-0.31890718 12:-0.24224356 13:2.0991108 14:-0.32067855 15:0.57018159 16:-0.83394576 17:1.504142 18:-0.10023001 19:-0.48059439 20:-0.056763715 21:1.6380811 22:-0.48385841 23:-0.47011108 24:-0.30511085 
2 1:0.50010361 2:1.3265036 3:-0.43773136 4:-0.1630649 5:0.77710545 6:1.2494575 7:1.0092125 8:-0.60577152 9:1.9124433 10:1.3827482 11:-0.31890718 12:-0.24224356 13:-0.47634284 14:-0.32067855 15:0.57018159 16:1.1989945 17:1.504142 18:-0.10023001 19:-0.48059439 20:-0.056763715 21:1.6380811 22:2.0665062 23:-0.47011108 24:-0.30511085 
1.168474564296837 1:0.50010361 2:-0.7537834 3:-0.43773136 4:-0.1630649 5:0.77710545 6:-0.80026444 7:1.0092125 8:-0.60577152 9:-0.52283713 10:-0.72312254 11:3.1353837 12:-0.24224356 13:-0.47634284 14:-0.32067855 15:0.57018159 16:-0.83394576 17:-0.66476198 18:-0.10023001 19:-0.48059439 20:-0.056763715 21:-0.61040713 22:-0.48385841 23:-0.47011108 24:-0.30511085 
0.9875704102444939 1:0.50010361 2:1.3265036 3:-0.43773136 4:-0.1630649 5:0.77710545 6:-0.80026444 7:1.0092125 8:1.6506164 9:1.9124433 10:1.3827482 11:-0.31890718 12:-0.24224356 13:-0.47634284 14:-0.32067855 15:0.57018159 16:1.1989945 17:1.504142 18:-0.10023001 19:2.0805411 20:-0.056763715 21:-0.61040713 22:-0.48385841 23:-0.47011108 24:-0.30511085 
0.6854448985146907 1:0.50010361 2:1.3265036 3:-0.43773136 4:-0.1630649 5:0.77710545 6:-0.80026444 7:-0.99076896 8:-0.60577152 9:-0.52283713 10:-0.72312254 11:-0.31890718 12:-0.24224356 13:-0.47634284 14:-0.32067855 15:0.57018159 16:1.1989945 17:-0.66476198 18:-0.10023001 19:2.0805411 20:-0.056763715 21:-0.61040713 22:-0.48385841 23:-0.47011108 24:-0.30511085 
0.994102169067849 1:-1.9993785 2:-0.7537834 3:2.2842695 4:-0.1630649 5:0.77710545 6:1.2494575 7:-0.99076896 8:-0.60577152 9:-0.52283713 10:-0.72312254 11:-0.31890718 12:-0.24224356 13:-0.47634284 14:-0.32067855 15:0.57018159 16:1.1989945 17:1.504142 18:-0.10023001 19:-0.48059439 20:-0.056763715 21:-0.61040713 22:-0.48385841 23:-0.47011108 24:-0.30511085 
2 1:0.50010361 2:-0.7537834 3:-0.43773136 4:-0.1630649 5:0.77710545 6:1.2494575 7:1.0092125 8:-0.60577152 9:1.9124433 10:1.3827482 11:-0.31890718 12:-0.24224356 13:-0.47634284 14:-0.32067855 15:0.57018159 16:1.1989945 17:-0.66476198 18:-0.10023001 19:-0.48059439 20:-0.056763715 21:-0.61040713 22:-0.48385841 23:2.1269364 24:-0.30511085 
1.14448294458272 1:0.50010361 2:-0.7537834 3:-0.43773136 4:-0.1630649 5:0.77710545 6:1.2494575 7:1.0092125 8:1.6506164 9:-0.52283713 10:1.3827482 11:-0.31890718 12:-0.24224356 13:-0.47634284 14:-0.32067855 15:0.57018159 16:1.1989945 17:-0.66476198 18:-0.10023001 19:-0.48059439 20:-0.056763715 21:1.6380811 22:-0.48385841 23:2.1269364 24:-0.30511085 
0.6857282072126176 1:0.50010361 2:-0.7537834 3:-0.43773136 4:-0.1630649 5:0.77710545 6:-0.80026444 7:1.0092125 8:-0.60577152 9:-0.52283713 10:-0.72312254 11:-0.31890718 12:-0.24224356 13:2.0991108 14:-0.32067855 15:0.57018159 16:-0.83394576 17:1.504142 18:-0.10023001 19:-0.48059439 20:-0.056763715 21:-0.61040713 22:-0.48385841 23:-0.47011108 24:-0.30511085 
0.8995944765255276 1:-1.9993785 2:1.3265036 3:2.2842695 4:-0.1630649 5:0.77710545 6:1.2494575 7:1.0092125 8:-0.60577152 9:1.9124433 10:1.3827482 11:-0.31890718 12:-0.24224356 13:2.0991108 14:-0.32067855 15:0.57018159 16:1.1989945 17:1.504142 18:-0.10023001 19:-0.48059439 20:-0.056763715 21:1.6380811 22:2.0665062 23:2.1269364 24:-0.30511085 
2 1:0.50010361 2:-0.7537834 3:-0.43773136 4:-0.1630649 5:0.77710545 6:-0.80026444 7:1.0092125 8:-0.60577152 9:-0.52283713 10:-0.72312254 11:-0.31890718 12:-0.24224356 13:2.0991108 14:-0.32067855 15:0.57018159 16:-0.83394576 17:1.504142 18:-0.10023001 19:-0.48059439 20:-0.056763715 21:-0.61040713 22:-0.48385841 23:-0.47011108 24:-0.30511085 
0.9954344172928526 1:0.50010361 2:1.3265036 3:2.2842695 4:-0.1630649 5:0.77710545 6:1.2494575 7:1.0092125 8:-0.60577152 9:1.9124433 10:1.3827482 11:-0.31890718 12:-0.24224356 13:-0.47634284 14:3.1180644 15:0.57018159 16:1.1989945 17:1.504142 18:-0.10023001 19:-0.48059439 20:-0.056763715 21:1.6380811 22:2.0665062 23:-0.47011108 24:-0.30511085 
1.172194951579388 1:0.50010361 2:-0.7537834 3:-0.43773136 4:-0.1630649 5:0.77710545 6:-0.80026444 7:1.0092125 8:1.6506164 9:-0.52283713 10:-0.72312254 11:3.1353837 12:-0.24224356 13:-0.47634284 14:-0.32067855 15:0.57018159 16:-0.83394576 17:1.504142 18:-0.10023001 19:-0.48059439 20:-0.056763715 21:-0.61040713 22:-0.48385841 23:-0.47011108 24:-0.30511085 
2 1:0.50010361 2:1.3265036 3:-0.43773136 4:-0.1630649 5:0.77710545 6:1.2494575 7:-0.99076896 8:-0.60577152 9:-0.52283713 10:-0.72312254 11:-0.31890718 12:-0.24224356 13:-0.47634284 14:-0.32067855 15:0.57018159 16:-0.83394576 17:-0.66476198 18:-0.10023001 19:2.0805411 20:-0.056763715 21:-0.61040713 22:-0.48385841 23:-0.47011108 24:-0.30511085 
1.190672757820227 1:0.50010361 2:-0.7537834 3:-0.43773136 4:-0.1630649 5:0.77710545 6:1.2494575 7:1.0092125 8:1.6506164 9:-0.52283713 10:1.3827482 11:-0.31890718 12:-0.24224356 13:-0.47634284 14:-0.32067855 15:0.57018159 16:-0.83394576 17:1.504142 18:-0.10023001 19:-0.48059439 20:-0.056763715 21:-0.61040713 22:2.0665062 23:-0.47011108 24:-0.30511085 
1.101840595817758 1:0.50010361 2:-0.7537834 3:-0.43773136 4:-0.1630649 5:0.77710545 6:1.2494575 7:-0.99076896 8:-0.60577152 9:-0.52283713 10:-0.72312254 11:-0.31890718 12:-0.24224356 13:-0.47634284 14:-0.32067855 15:0.57018159 16:1.1989945 17:1.504142 18:-0.10023001 19:-0.48059439 20:-0.056763715 21:-0.61040713 22:-0.48385841 23:-0.47011108 24:3.2771578 
0.8963092267489728 1:0.50010361 2:1.3265036 3:-0.43773136 4:-0.1630649 5:0.77710545 6:1.2494575 7:1.0092125 8:-0.60577152 9:1.9124433 10:1.3827482 11:-0.31890718 12:-0.24224356 13:-0.47634284 14:3.1180644 15:0.57018159 16:1.1989945 17:1.504142 18:-0.10023001 19:-0.48059439 20:-0.056763715 21:1.6380811 22:2.0665062 23:2.1269364 24:-0.30511085 
1.082123154637836 1:-1.9993785 2:-0.7537834 3:-0.43773136 4:-0.1630649 5:0.77710545 6:1.2494575 7:1.0092125 8:1.6506164 9:-0.52283713 10:1.3827482 11:-0.31890718 12:-0.24224356 13:-0.47634284 14:-0.32067855 15:0.57018159 16:1.1989945 17:1.504142 18:-0.10023001 19:-0.48059439 20:-0.056763715 21:-0.61040713 22:2.0665062 23:-0.47011108 24:-0.30511085 
0.6820012718713885 1:0.50010361 2:-0.7537834 3:-0.43773136 4:-0.1630649 5:0.77710545 6:1.2494575 7:1.0092125 8:-0.60577152 9:1.9124433 10:1.3827482 11:-0.31890718 12:-0.24224356 13:-0.47634284 14:-0.32067855 15:0.57018159 16:1.1989945 17:-0.66476198 18:-0.10023001 19:-0.48059439 20:-0.056763715 21:-0.61040713 22:2.0665062 23:-0.47011108 24:-0.30511085 
0.9988361776469333 1:-1.9993785 2:1.3265036 3:-0.43773136 4:-0.1630649 5:0.77710545 6:1.2494575 7:-0.99076896 8:-0.60577152 9:-0.52283713 10:-0.72312254 11:-0.31890718 12:-0.24224356 13:-0.47634284 14:-0.32067855 15:0.57018159 16:-0.83394576 17:-0.66476198 18:-0.10023001 19:2.0805411 20:-0.056763715 21:-0.61040713 22:-0.48385841 23:-0.47011108 24:3.2771578 
2 1:0.50010361 2:1.3265036 3:-0.43773136 4:-0.1630649 5:0.77710545 6:1.2494575 7:1.0092125 8:1.6506164 9:-0.52283713 10:-0.72312254 11:3.1353837 12:-0.24224356 13:-0.47634284 14:3.1180644 15:0.57018159 16:-0.83394576 17:-0.66476198 18:-0.10023001 19:-0.48059439 20:-0.056763715 21:-0.61040713 22:2.0665062 23:-0.47011108 24:-0.30511085 
0.6245930163235939 1:0.50010361 2:1.3265036 3:2.2842695 4:-0.1630649 5:0.77710545 6:1.2494575 7:1.0092125 8:-0.60577152 9:1.9124433 10:1.3827482 11:-0.31890718 12:-0.24224356 13:-0.47634284 14:-0.32067855 15:0.57018159 16:1.1989945 17:1.504142 18:-0.10023001 19:-0.48059439 20:-0.056763715 21:-0.61040713 22:-0.48385841 23:-0.47011108 24:-0.30511085 
2 1:0.50010361 2:1.3265036 3:-0.43773136 4:-0.1630649 5:0.77710545 6:1.2494575 7:1.0092125 8:-0.60577152 9:1.9124433 10:1.3827482 11:-0.31890718 12:-0.24224356 13:-0.47634284 14:-0.32067855 15:0.57018159 16:1.1989945 17:1.504142 18:-0.10023001 19:-0.48059439 20:-0.056763715 21:1.6380811 22:-0.48385841 23:-0.47011108 24:-0.30511085 
2 1:0.50010361 2:1.3265036 3:-0.43773136 4:-0.1630649 5:0.77710545 6:-0.80026444 7:1.0092125 8:1.6506164 9:-0.52283713 10:-0.72312254 11:3.1353837 12:-0.24224356 13:2.0991108 14:-0.32067855 15:0.57018159 16:1.1989945 17:-0.66476198 18:-0.10023001 19:-0.48059439 20:-0.056763715 21:-0.61040713 22:2.0665062 23:-0.47011108 24:-0.30511085 
1.166073635356609 1:0.50010361 2:1.3265036 3:-0.43773136 4:-0.1630649 5:0.77710545 6:1.2494575 7:1.0092125 8:-0.60577152 9:1.9124433 10:1.3827482 11:-0.31890718 12:-0.24224356 13:-0.47634284 14:-0.32067855 15:0.57018159 16:1.1989945 17:1.504142 18:-0.10023001 19:-0.48059439 20:-0.056763715 21:1.6380811 22:2.0665062 23:2.1269364 24:-0.30511085 
0.8472172268594628 1:0.50010361 2:-0.7537834 3:-0.43773136 4:-0.1630649 5:0.77710545 6:1.2494575 7:1.0092125 8:1.6506164 9:-0.52283713 10:1.3827482 11:-0.31890718 12:-0.24224356 13:-0.47634284 14:-0.32067855 15:0.57018159 16:-0.83394576 17:-0.66476198 18:-0.10023001 19:-0.48059439 20:-0.056763715 21:-0.61040713 22:-0.48385841 23:2.1269364 24:-0.30511085 
2 1:0.50010361 2:-0.7537834 3:-0.43773136 4:-0.1630649 5:0.77710545 6:1.2494575 7:-0.99076896 8:-0.60577152 9:-0.52283713 10:-0.72312254 11:-0.31890718 12:-0.24224356 13:-0.47634284 14:-0.32067855 15:0.57018159 16:1.1989945 17:1.504142 18:-0.10023001 19:-0.48059439 20:-0.056763715 21:-0.61040713 22:-0.48385841 23:-0.47011108 24:-0.30511085 
0.8451707017817801 1:-1.9993785 2:1.3265036 3:2.2842695 4:-0.1630649 5:0.77710545 6:1.2494575 7:1.0092125 8:-0.60577152 9:1.9124433 10:1.3827482 11:-0.31890718 12:-0.24224356 13:-0.47634284 14:-0.32067855 15:0.57018159 16:-0.83394576 17:1.504142 18:-0.10023001 19:-0.48059439 20:-0.056763715 21:-0.61040713 22:-0.48385841 23:-0.47011108 24:-0.30511085 
1.876951606670677 1:0.50010361 2:-0.7537834 3:-0.43773136 4:-0.1630649 5:0.77710545 6:1.2494575 7:-0.99076896 8:-0.60577152 9:-0.52283713 10:-0.72312254 11:-0.31890718 12:-0.24224356 13:-0.47634284 14:-0.32067855 15:0.57018159 16:1.1989945 17:-0.66476198 18:-0.10023001 19:-0.48059439 20:-0.056763715 21:-0.61040713 22:2.0665062 23:2.1269364 24:-0.30511085 
1.024563947323736 1:-1.9993785 2:1.3265036 3:-0.43773136 4:-0.1630649 5:0.77710545 6:-0.80026444 7:1.0092125 8:1.6506164 9:1.9124433 10:1.3827482 11:-0.31890718 12:-0.24224356 13:-0.47634284 14:-0.32067855 15:0.57018159 16:1.1989945 17:-0.66476198 18:-0.10023001 19:2.0805411 20:-0.056763715 21:-0.61040713 22:2.0665062 23:-0.47011108 24:-0.30511085 
2 1:0.50010361 2:1.3265036 3:-0.43773136 4:-0.1630649 5:0.77710545 6:1.2494575 7:1.0092125 8:-0.60577152 9:1.9124433 10:1.3827482 11:-0.31890718 12:-0.24224356 13:2.0991108 14:-0.32067855 15:0.57018159 16:1.1989945 17:1.504142 18:-0.10023001 19:-0.48059439 20:-0.056763715 21:1.6380811 22:2.0665062 23:2.1269364 24:-0.30511085 
2 1:0.50010361 2:-0.7537834 3:-0.43773136 4:-0.1630649 5:0.77710545 6:1.2494575 7:1.0092125 8:-0.60577152 9:1.9124433 10:1.3827482 11:-0.31890718 12:-0.24224356 13:-0.47634284 14:-0.32067855 15:0.57018159 16:-0.83394576 17:1.504142 18:-0.10023001 19:-0.48059439 20:-0.056763715 21:1.6380811 22:2.0665062 23:-0.47011108 24:-0.30511085 
1.062598369406244 1:0.50010361 2:-0.7537834 3:-0.43773136 4:-0.1630649 5:0.77710545 6:1.2494575 7:1.0092125 8:1.6506164 9:1.9124433 10:1.3827482 11:-0.31890718 12:4.1276491 13:-0.47634284 14:-0.32067855 15:0.57018159 16:1.1989945 17:-0.66476198 18:-0.10023001 19:-0.48059439 20:-0.056763715 21:1.6380811 22:-0.48385841 23:-0.47011108 24:3.2771578 
1.162234970324319 1:0.50010361 2:1.3265036 3:-0.43773136 4:-0.1630649 5:0.77710545 6:1.2494575 7:1.0092125 8:1.6506164 9:-0.52283713 10:1.3827482 11:-0.31890718 12:-0.24224356 13:-0.47634284 14:3.1180644 15:0.57018159 16:-0.83394576 17:-0.66476198 18:-0.10023001 19:2.0805411 20:-0.056763715 21:-0.61040713 22:-0.48385841 23:-0.47011108 24:-0.30511085 
1.214019801808035 1:0.50010361 2:-0.7537834 3:-0.43773136 4:-0.1630649 5:0.77710545 6:1.2494575 7:1.0092125 8:1.6506164 9:-0.52283713 10:1.3827482 11:-0.31890718 12:-0.24224356 13:-0.47634284 14:-0.32067855 15:0.57018159 16:-0.83394576 17:-0.66476198 18:-0.10023001 19:-0.48059439 20:-0.056763715 21:1.6380811 22:-0.48385841 23:-0.47011108 24:-0.30511085 
1.046917236275193 1:-1.9993785 2:1.3265036 3:-0.43773136 4:-0.1630649 5:0.77710545 6:-0.80026444 7:1.0092125 8:1.6506164 9:1.9124433 10:1.3827482 11:-0.31890718 12:4.1276491 13:-0.47634284 14:-0.32067855 15:0.57018159 16:1.1989945 17:1.504142 18:-0.10023001 19:2.0805411 20:-0.056763715 21:-0.61040713 22:-0.48385841 23:-0.47011108 24:-0.30511085 
0.8810878961317611 1:0.50010361 2:1.3265036 3:2.2842695 4:-0.1630649 5:0.77710545 6:-0.80026444 7:1.0092125 8:1.6506164 9:-0.52283713 10:1.3827482 11:-0.31890718 12:-0.24224356 13:-0.47634284 14:-0.32067855 15:0.57018159 16:1.1989945 17:1.504142 18:-0.10023001 19:2.0805411 20:-0.056763715 21:-0.61040713 22:-0.48385841 23:-0.47011108 24:-0.30511085 
1.202106499914589 1:0.50010361 2:1.3265036 3:-0.43773136 4:-0.1630649 5:0.77710545 6:-0.80026444 7:1.0092125 8:1.6506164 9:-0.52283713 10:1.3827482 11:-0.31890718 12:-0.24224356 13:-0.47634284 14:-0.32067855 15:0.57018159 16:-0.83394576 17:1.504142 18:-0.10023001 19:-0.48059439 20:-0.056763715 21:1.6380811 22:2.0665062 23:-0.47011108 24:3.2771578 
1.0496107298715 1:0.50010361 2:1.3265036 3:2.2842695 4:-0.1630649 5:0.77710545 6:1.2494575 7:-0.99076896 8:-0.60577152 9:-0.52283713 10:-0.72312254 11:-0.31890718 12:-0.24224356 13:-0.47634284 14:-0.32067855 15:0.57018159 16:-0.83394576 17:-0.66476198 18:-0.10023001 19:-0.48059439 20:-0.056763715 21:1.6380811 22:-0.48385841 23:2.1269364 24:-0.30511085 
0.8684202659932034 1:0.50010361 2:-0.7537834 3:-0.43773136 4:-0.1630649 5:0.77710545 6:1.2494575 7:-0.99076896 8:-0.60577152 9:-0.52283713 10:-0.72312254 11:-0.31890718 12:-0.24224356 13:-0.47634284 14:3.1180644 15:0.57018159 16:-0.83394576 17:-0.66476198 18:-0.10023001 19:2.0805411 20:-0.056763715 21:-0.61040713 22:-0.48385841 23:-0.47011108 24:-0.30511085 
0.9540466051584731 1:0.50010361 2:-0.7537834 3:-0.43773136 4:-0.1630649 5:0.77710545 6:1.2494575 7:-0.99076896 8:-0.60577152 9:-0.52283713 10:-0.72312254 11:-0.31890718 12:-0.24224356 13:-0.47634284 14:3.1180644 15:0.57018159 16:-0.83394576 17:-0.66476198 18:-0.10023001 19:2.0805411 20:-0.056763715 21:-0.61040713 22:-0.48385841 23:2.1269364 24:-0.30511085 
0.775775239652035 1:0.50010361 2:-0.7537834 3:2.2842695 4:-0.1630649 5:-1.2866933 6:-0.80026444 7:-0.99076896 8:-0.60577152 9:-0.52283713 10:-0.72312254 11:-0.31890718 12:-0.24224356 13:-0.47634284 14:-0.32067855 15:0.57018159 16:-0.83394576 17:-0.66476198 18:-0.10023001 19:2.0805411 20:-0.056763715 21:1.6380811 22:-0.48385841 23:-0.47011108 24:-0.30511085 
2 1:0.50010361 2:-0.7537834 3:-0.43773136 4:-0.1630649 5:0.77710545 6:1.2494575 7:-0.99076896 8:-0.60577152 9:-0.52283713 10:-0.72312254 11:-0.31890718 12:-0.24224356 13:-0.47634284 14:3.1180644 15:0.57018159 16:1.1989945 17:-0.66476198 18:-0.10023001 19:-0.48059439 20:-0.056763715 21:1.6380811 22:-0.48385841 23:-0.47011108 24:-0.30511085 
1.026365894390686 1:0.50010361 2:1.3265036 3:2.2842695 4:6.1318923 5:0.77710545 6:1.2494575 7:-0.99076896 8:-0.60577152 9:-0.52283713 10:-0.72312254 11:-0.31890718 12:-0.24224356 13:-0.47634284 14:3.1180644 15:0.57018159 16:-0.83394576 17:-0.66476198 18:-0.10023001 19:2.0805411 20:-0.056763715 21:1.6380811 22:-0.48385841 23:-0.47011108 24:-0.30511085 
0.6839800041134078 1:0.50010361 2:1.3265036 3:-0.43773136 4:-0.1630649 5:0.77710545 6:-0.80026444 7:1.0092125 8:1.6506164 9:-0.52283713 10:1.3827482 11:-0.31890718 12:-0.24224356 13:-0.47634284 14:-0.32067855 15:0.57018159 16:1.1989945 17:-0.66476198 18:-0.10023001 19:-0.48059439 20:-0.056763715 21:1.6380811 22:-0.48385841 23:-0.47011108 24:-0.30511085 
0.9948198887260885 1:0.50010361 2:-0.7537834 3:2.2842695 4:-0.1630649 5:0.77710545 6:-0.80026444 7:1.0092125 8:-0.60577152 9:-0.52283713 10:-0.72312254 11:3.1353837 12:-0.24224356 13:-0.47634284 14:-0.32067855 15:0.57018159 16:1.1989945 17:1.504142 18:-0.10023001 19:-0.48059439 20:-0.056763715 21:1.6380811 22:2.0665062 23:-0.47011108 24:-0.30511085 
0.6603255812893476 1:-1.9993785 2:1.3265036 3:2.2842695 4:-0.1630649 5:-1.2866933 6:-0.80026444 7:-0.99076896 8:-0.60577152 9:-0.52283713 10:-0.72312254 11:-0.31890718 12:-0.24224356 13:-0.47634284 14:-0.32067855 15:0.57018159 16:-0.83394576 17:1.504142 18:-0.10023001 19:-0.48059439 20:-0.056763715 21:1.6380811 22:-0.48385841 23:-0.47011108 24:-0.30511085 
1.026685632689222 1:0.50010361 2:1.3265036 3:-0.43773136 4:6.1318923 5:0.77710545 6:1.2494575 7:1.0092125 8:-0.60577152 9:1.9124433 10:1.3827482 11:-0.31890718 12:-0.24224356 13:2.0991108 14:-0.32067855 15:0.57018159 16:1.1989945 17:-0.66476198 18:-0.10023001 19:2.0805411 20:-0.056763715 21:-0.61040713 22:2.0665062 23:-0.47011108 24:3.2771578 
2 1:-1.9993785 2:1.3265036 3:-0.43773136 4:-0.1630649 5:0.77710545 6:1.2494575 7:1.0092125 8:1.6506164 9:-0.52283713 10:1.3827482 11:-0.31890718 12:-0.24224356 13:-0.47634284 14:-0.32067855 15:0.57018159 16:-0.83394576 17:-0.66476198 18:-0.10023001 19:-0.48059439 20:-0.056763715 21:-0.61040713 22:-0.48385841 23:-0.47011108 24:-0.30511085 
1.026521896059769 1:0.50010361 2:1.3265036 3:-0.43773136 4:-0.1630649 5:0.77710545 6:1.2494575 7:1.0092125 8:1.6506164 9:-0.52283713 10:1.3827482 11:3.1353837 12:-0.24224356 13:2.0991108 14:-0.32067855 15:0.57018159 16:1.1989945 17:1.504142 18:-0.10023001 19:-0.48059439 20:-0.056763715 21:1.6380811 22:-0.48385841 23:2.1269364 24:-0.30511085 
2 1:0.50010361 2:-0.7537834 3:-0.43773136 4:-0.1630649 5:-1.2866933 6:-0.80026444 7:-0.99076896 8:-0.60577152 9:-0.52283713 10:-0.72312254 11:-0.31890718 12:-0.24224356 13:-0.47634284 14:-0.32067855 15:0.57018159 16:-0.83394576 17:1.504142 18:-0.10023001 19:-0.48059439 20:-0.056763715 21:1.6380811 22:2.0665062 23:-0.47011108 24:-0.30511085 
2 1:0.50010361 2:1.3265036 3:-0.43773136 4:-0.1630649 5:0.77710545 6:-0.80026444 7:1.0092125 8:1.6506164 9:-0.52283713 10:1.3827482 11:-0.31890718 12:-0.24224356 13:-0.47634284 14:-0.32067855 15:0.57018159 16:1.1989945 17:1.504142 18:-0.10023001 19:2.0805411 20:-0.056763715 21:1.6380811 22:2.0665062 23:2.1269364 24:-0.30511085 
0.8408837568842749 1:0.50010361 2:-0.7537834 3:2.2842695 4:-0.1630649 5:-1.2866933 6:-0.80026444 7:-0.99076896 8:-0.60577152 9:-0.52283713 10:-0.72312254 11:-0.31890718 12:-0.24224356 13:-0.47634284 14:-0.32067855 15:0.57018159 16:1.1989945 17:-0.66476198 18:-0.10023001 19:2.0805411 20:-0.056763715 21:-0.61040713 22:-0.48385841 23:-0.47011108 24:-0.30511085 
0.753814362886903 1:0.50010361 2:1.3265036 3:2.2842695 4:-0.1630649 5:0.77710545 6:1.2494575 7:1.0092125 8:1.6506164 9:-0.52283713 10:1.3827482 11:-0.31890718 12:-0.24224356 13:-0.47634284 14:-0.32067855 15:0.57018159 16:1.1989945 17:1.504142 18:-0.10023001 19:2.0805411 20:-0.056763715 21:-0.61040713 22:-0.48385841 23:-0.47011108 24:-0.30511085 
0.804056125978111 1:0.50010361 2:-0.7537834 3:-0.43773136 4:-0.1630649 5:0.77710545 6:-0.80026444 7:1.0092125 8:-0.60577152 9:1.9124433 10:1.3827482 11:-0.31890718 12:-0.24224356 13:-0.47634284 14:3.1180644 15:0.57018159 16:1.1989945 17:-0.66476198 18:-0.10023001 19:-0.48059439 20:-0.056763715 21:1.6380811 22:-0.48385841 23:-0.47011108 24:-0.30511085 
1.369242269260967 1:-1.9993785 2:-0.7537834 3:-0.43773136 4:-0.1630649 5:-1.2866933 6:-0.80026444 7:-0.99076896 8:-0.60577152 9:-0.52283713 10:-0.72312254 11:-0.31890718 12:-0.24224356 13:-0.47634284 14:3.1180644 15:0.57018159 16:1.1989945 17:-0.66476198 18:-0.10023001 19:-0.48059439 20:-0.056763715 21:-0.61040713 22:-0.48385841 23:-0.47011108 24:-0.30511085 
2 1:0.50010361 2:1.3265036 3:-0.43773136 4:-0.1630649 5:0.77710545 6:1.2494575 7:-0.99076896 8:-0.60577152 9:-0.52283713 10:-0.72312254 11:-0.31890718 12:-0.24224356 13:-0.47634284 14:-0.32067855 15:0.57018159 16:-0.83394576 17:1.504142 18:-0.10023001 19:-0.48059439 20:-0.056763715 21:1.6380811 22:2.0665062 23:-0.47011108 24:-0.30511085 
0.7935170446528182 1:-1.9993785 2:1.3265036 3:-0.43773136 4:-0.1630649 5:0.77710545 6:-0.80026444 7:1.0092125 8:-0.60577152 9:1.9124433 10:1.3827482 11:-0.31890718 12:-0.24224356 13:-0.47634284 14:-0.32067855 15:0.57018159 16:1.1989945 17:1.504142 18:-0.10023001 19:-0.48059439 20:-0.056763715 21:1.6380811 22:2.0665062 23:2.1269364 24:-0.30511085 
0.8369647187722634 1:0.50010361 2:-0.7537834 3:2.2842695 4:-0.1630649 5:0.77710545 6:1.2494575 7:-0.99076896 8:-0.60577152 9:-0.52283713 10:-0.72312254 11:-0.31890718 12:-0.24224356 13:-0.47634284 14:-0.32067855 15:0.57018159 16:1.1989945 17:1.504142 18:-0.10023001 19:2.0805411 20:-0.056763715 21:1.6380811 22:-0.48385841 23:-0.47011108 24:-0.30511085 
1.030570171884937 1:-1.9993785 2:1.3265036 3:-0.43773136 4:-0.1630649 5:0.77710545 6:-0.80026444 7:1.0092125 8:-0.60577152 9:1.9124433 10:1.3827482 11:-0.31890718 12:4.1276491 13:-0.47634284 14:-0.32067855 15:0.57018159 16:-0.83394576 17:1.504142 18:-0.10023001 19:2.0805411 20:-0.056763715 21:-0.61040713 22:2.0665062 23:-0.47011108 24:-0.30511085 
1.054239740771801 1:0.50010361 2:1.3265036 3:-0.43773136 4:-0.1630649 5:0.77710545 6:-0.80026444 7:1.0092125 8:1.6506164 9:-0.52283713 10:-0.72312254 11:3.1353837 12:-0.24224356 13:-0.47634284 14:3.1180644 15:0.57018159 16:1.1989945 17:1.504142 18:-0.10023001 19:-0.48059439 20:-0.056763715 21:-0.61040713 22:-0.48385841 23:2.1269364 24:-0.30511085 
2 1:-1.9993785 2:-0.7537834 3:-0.43773136 4:-0.1630649 5:0.77710545 6:-0.80026444 7:1.0092125 8:1.6506164 9:-0.52283713 10:1.3827482 11:-0.31890718 12:-0.24224356 13:-0.47634284 14:3.1180644 15:0.57018159 16:1.1989945 17:-0.66476198 18:-0.10023001 19:-0.48059439 20:-0.056763715 21:1.6380811 22:-0.48385841 23:-0.47011108 24:-0.30511085 
1.021860834236439 1:-1.9993785 2:-0.7537834 3:2.2842695 4:-0.1630649 5:0.77710545 6:1.2494575 7:1.0092125 8:1.6506164 9:1.9124433 10:1.3827482 11:3.1353837 12:-0.24224356 13:2.0991108 14:-0.32067855 15:0.57018159 16:1.1989945 17:-0.66476198 18:-0.10023001 19:-0.48059439 20:-0.056763715 21:-0.61040713 22:-0.48385841 23:2.1269364 24:-0.30511085 
2 1:-1.9993785 2:-0.7537834 3:-0.43773136 4:6.1318923 5:-1.2866933 6:-0.80026444 7:-0.99076896 8:-0.60577152 9:-0.52283713 10:-0.72312254 11:-0.31890718 12:-0.24224356 13:-0.47634284 14:-0.32067855 15:-1.7536455 16:-0.83394576 17:-0.66476198 18:-0.10023001 19:-0.48059439 20:-0.056763715 21:-0.61040713 22:-0.48385841 23:-0.47011108 24:3.2771578 
1.14435132423136 1:0.50010361 2:1.3265036 3:-0.43773136 4:6.1318923 5:0.77710545 6:-0.80026444 7:1.0092125 8:1.6506164 9:-0.52283713 10:1.3827482 11:-0.31890718 12:-0.24224356 13:-0.47634284 14:-0.32067855 15:0.57018159 16:-0.83394576 17:-0.66476198 18:-0.10023001 19:-0.48059439 20:-0.056763715 21:-0.61040713 22:-0.48385841 23:-0.47011108 24:-0.30511085 
0.992837761074026 1:-1.9993785 2:1.3265036 3:2.2842695 4:-0.1630649 5:0.77710545 6:-0.80026444 7:1.0092125 8:-0.60577152 9:1.9124433 10:1.3827482 11:-0.31890718 12:-0.24224356 13:-0.47634284 14:-0.32067855 15:0.57018159 16:1.1989945 17:1.504142 18:-0.10023001 19:-0.48059439 20:-0.056763715 21:1.6380811 22:2.0665062 23:-0.47011108 24:-0.30511085 
0.9525396756740068 1:0.50010361 2:-0.7537834 3:2.2842695 4:-0.1630649 5:0.77710545 6:1.2494575 7:1.0092125 8:1.6506164 9:-0.52283713 10:1.3827482 11:3.1353837 12:-0.24224356 13:-0.47634284 14:-0.32067855 15:0.57018159 16:-0.83394576 17:-0.66476198 18:-0.10023001 19:-0.48059439 20:-0.056763715 21:-0.61040713 22:-0.48385841 23:-0.47011108 24:-0.30511085 
1.111460526426942 1:0.50010361 2:1.3265036 3:-0.43773136 4:6.1318923 5:0.77710545 6:1.2494575 7:1.0092125 8:-0.60577152 9:-0.52283713 10:-0.72312254 11:-0.31890718 12:-0.24224356 13:2.0991108 14:-0.32067855 15:0.57018159 16:1.1989945 17:1.504142 18:-0.10023001 19:-0.48059439 20:-0.056763715 21:1.6380811 22:-0.48385841 23:-0.47011108 24:3.2771578 
1.025470822918194 1:0.50010361 2:1.3265036 3:2.2842695 4:-0.1630649 5:0.77710545 6:1.2494575 7:1.0092125 8:-0.60577152 9:-0.52283713 10:-0.72312254 11:3.1353837 12:-0.24224356 13:-0.47634284 14:3.1180644 15:0.57018159 16:1.1989945 17:1.504142 18:-0.10023001 19:-0.48059439 20:-0.056763715 21:1.6380811 22:2.0665062 23:2.1269364 24:-0.30511085 
1.113720004331276 1:0.50010361 2:-0.7537834 3:-0.43773136 4:-0.1630649 5:0.77710545 6:1.2494575 7:1.0092125 8:1.6506164 9:-0.52283713 10:1.3827482 11:-0.31890718 12:-0.24224356 13:-0.47634284 14:-0.32067855 15:0.57018159 16:-0.83394576 17:1.504142 18:-0.10023001 19:-0.48059439 20:-0.056763715 21:-0.61040713 22:-0.48385841 23:-0.47011108 24:3.2771578 
1.027262325633212 1:-1.9993785 2:-0.7537834 3:2.2842695 4:-0.1630649 5:0.77710545 6:-0.80026444 7:1.0092125 8:-0.60577152 9:1.9124433 10:1.3827482 11:-0.31890718 12:-0.24224356 13:-0.47634284 14:3.1180644 15:0.57018159 16:-0.83394576 17:1.504142 18:-0.10023001 19:-0.48059439 20:-0.056763715 21:-0.61040713 22:2.0665062 23:-0.47011108 24:-0.30511085 
1.141359577952084 1:0.50010361 2:1.3265036 3:-0.43773136 4:-0.1630649 5:-1.2866933 6:-0.80026444 7:-0.99076896 8:-0.60577152 9:-0.52283713 10:-0.72312254 11:-0.31890718 12:-0.24224356 13:-0.47634284 14:-0.32067855 15:0.57018159 16:-0.83394576 17:-0.66476198 18:-0.10023001 19:-0.48059439 20:-0.056763715 21:-0.61040713 22:2.0665062 23:-0.47011108 24:3.2771578 
2 1:0.50010361 2:1.3265036 3:2.2842695 4:-0.1630649 5:0.77710545 6:1.2494575 7:-0.99076896 8:-0.60577152 9:-0.52283713 10:-0.72312254 11:-0.31890718 12:-0.24224356 13:-0.47634284 14:-0.32067855 15:0.57018159 16:1.1989945 17:-0.66476198 18:-0.10023001 19:2.0805411 20:-0.056763715 21:1.6380811 22:-0.48385841 23:2.1269364 24:-0.30511085 
1.026399351662474 1:0.50010361 2:1.3265036 3:-0.43773136 4:6.1318923 5:0.77710545 6:1.2494575 7:1.0092125 8:1.6506164 9:1.9124433 10:1.3827482 11:-0.31890718 12:-0.24224356 13:-0.47634284 14:-0.32067855 15:0.57018159 16:1.1989945 17:-0.66476198 18:9.9760181 19:2.0805411 20:-0.056763715 21:-0.61040713 22:-0.48385841 23:-0.47011108 24:-0.30511085 
1.016433299880333 1:0.50010361 2:-0.7537834 3:-0.43773136 4:-0.1630649 5:0.77710545 6:1.2494575 7:-0.99076896 8:-0.60577152 9:-0.52283713 10:-0.72312254 11:-0.31890718 12:-0.24224356 13:-0.47634284 14:-0.32067855 15:0.57018159 16:1.1989945 17:-0.66476198 18:9.9760181 19:-0.48059439 20:-0.056763715 21:1.6380811 22:-0.48385841 23:-0.47011108 24:3.2771578 
2 1:0.50010361 2:-0.7537834 3:-0.43773136 4:-0.1630649 5:-1.2866933 6:-0.80026444 7:-0.99076896 8:-0.60577152 9:-0.52283713 10:-0.72312254 11:-0.31890718 12:-0.24224356 13:-0.47634284 14:-0.32067855 15:0.57018159 16:-0.83394576 17:1.504142 18:-0.10023001 19:-0.48059439 20:-0.056763715 21:1.6380811 22:2.0665062 23:-0.47011108 24:-0.30511085 
1.070578282676135 1:0.50010361 2:-0.7537834 3:-0.43773136 4:-0.1630649 5:0.77710545 6:-0.80026444 7:1.0092125 8:1.6506164 9:1.9124433 10:1.3827482 11:-0.31890718 12:4.1276491 13:2.0991108 14:-0.32067855 15:0.57018159 16:1.1989945 17:1.504142 18:-0.10023001 19:2.0805411 20:-0.056763715 21:1.6380811 22:-0.48385841 23:-0.47011108 24:-0.30511085 
2 1:0.50010361 2:1.3265036 3:-0.43773136 4:-0.1630649 5:0.77710545 6:1.2494575 7:1.0092125 8:-0.60577152 9:-0.52283713 10:-0.72312254 11:-0.31890718 12:-0.24224356 13:2.0991108 14:-0.32067855 15:0.57018159 16:1.1989945 17:-0.66476198 18:-0.10023001 19:-0.48059439 20:-0.056763715 21:1.6380811 22:-0.48385841 23:-0.47011108 24:-0.30511085 
1.003414933259043 1:0.50010361 2:1.3265036 3:2.2842695 4:-0.1630649 5:0.77710545 6:-0.80026444 7:1.0092125 8:1.6506164 9:-0.52283713 10:1.3827482 11:-0.31890718 12:-0.24224356 13:-0.47634284 14:-0.32067855 15:0.57018159 16:-0.83394576 17:-0.66476198 18:-0.10023001 19:-0.48059439 20:-0.056763715 21:1.6380811 22:-0.48385841 23:2.1269364 24:-0.30511085 
2 1:-1.9993785 2:1.3265036 3:2.2842695 4:-0.1630649 5:0.77710545 6:1.2494575 7:-0.99076896 8:-0.60577152 9:-0.52283713 10:-0.72312254 11:-0.31890718 12:-0.24224356 13:-0.47634284 14:-0.32067855 15:0.57018159 16:1.1989945 17:-0.66476198 18:-0.10023001 19:2.0805411 20:-0.056763715 21:1.6380811 22:-0.48385841 23:-0.47011108 24:-0.30511085 
0.9209191987436217 1:0.50010361 2:1.3265036 3:-0.43773136 4:-0.1630649 5:0.77710545 6:1.2494575 7:-0.99076896 8:-0.60577152 9:-0.52283713 10:-0.72312254 11:-0.31890718 12:-0.24224356 13:-0.47634284 14:3.1180644 15:0.57018159 16:1.1989945 17:-0.66476198 18:-0.10023001 19:-0.48059439 20:-0.056763715 21:-0.61040713 22:-0.48385841 23:-0.47011108 24:3.2771578 
1.042476606707901 1:0.50010361 2:-0.7537834 3:-0.43773136 4:-0.1630649 5:0.77710545 6:1.2494575 7:1.0092125 8:-0.60577152 9:1.9124433 10:1.3827482 11:-0.31890718 12:-0.24224356 13:2.0991108 14:-0.32067855 15:0.57018159 16:1.1989945 17:1.504142 18:-0.10023001 19:-0.48059439 20:-0.056763715 21:-0.61040713 22:2.0665062 23:-0.47011108 24:3.2771578 
1.30439761440914 1:0.50010361 2:1.3265036 3:-0.43773136 4:-0.1630649 5:0.77710545 6:1.2494575 7:1.0092125 8:1.6506164 9:1.9124433 10:1.3827482 11:-0.31890718 12:-0.24224356 13:2.0991108 14:-0.32067855 15:0.57018159 16:-0.83394576 17:1.504142 18:-0.10023001 19:2.0805411 20:-0.056763715 21:1.6380811 22:2.0665062 23:2.1269364 24:-0.30511085 
0.7493604889057762 1:-1.9993785 2:1.3265036 3:-0.43773136 4:-0.1630649 5:0.77710545 6:-0.80026444 7:1.0092125 8:1.6506164 9:1.9124433 10:1.3827482 11:-0.31890718 12:-0.24224356 13:-0.47634284 14:-0.32067855 15:0.57018159 16:-0.83394576 17:-0.66476198 18:-0.10023001 19:-0.48059439 20:-0.056763715 21:-0.61040713 22:-0.48385841 23:-0.47011108 24:-0.30511085 
0.9366075845212776 1:0.50010361 2:-0.7537834 3:-0.43773136 4:-0.1630649 5:0.77710545 6:1.2494575 7:1.0092125 8:1.6506164 9:-0.52283713 10:1.3827482 11:-0.31890718 12:-0.24224356 13:-0.47634284 14:-0.32067855 15:0.57018159 16:-0.83394576 17:1.504142 18:-0.10023001 19:-0.48059439 20:-0.056763715 21:-0.61040713 22:-0.48385841 23:-0.47011108 24:-0.30511085 
1.224502183123505 1:0.50010361 2:1.3265036 3:-0.43773136 4:-0.1630649 5:0.77710545 6:-0.80026444 7:1.0092125 8:-0.60577152 9:1.9124433 10:1.3827482 11:-0.31890718 12:-0.24224356 13:-0.47634284 14:-0.32067855 15:0.57018159 16:1.1989945 17:-0.66476198 18:-0.10023001 19:-0.48059439 20:-0.056763715 21:-0.61040713 22:-0.48385841 23:-0.47011108 24:-0.30511085 
0.8297636835723333 1:-1.9993785 2:-0.7537834 3:-0.43773136 4:-0.1630649 5:0.77710545 6:1.2494575 7:-0.99076896 8:-0.60577152 9:-0.52283713 10:-0.72312254 11:-0.31890718 12:-0.24224356 13:-0.47634284 14:3.1180644 15:0.57018159 16:1.1989945 17:-0.66476198 18:-0.10023001 19:-0.48059439 20:-0.056763715 21:1.6380811 22:-0.48385841 23:-0.47011108 24:-0.30511085 
2 1:0.50010361 2:-0.7537834 3:-0.43773136 4:-0.1630649 5:0.77710545 6:1.2494575 7:1.0092125 8:1.6506164 9:-0.52283713 10:1.3827482 11:-0.31890718 12:-0.24224356 13:-0.47634284 14:-0.32067855 15:0.57018159 16:1.1989945 17:1.504142 18:-0.10023001 19:-0.48059439 20:-0.056763715 21:1.6380811 22:2.0665062 23:2.1269364 24:-0.30511085 
1.031647473033119 1:0.50010361 2:-0.7537834 3:-0.43773136 4:-0.1630649 5:0.77710545 6:-0.80026444 7:1.0092125 8:-0.60577152 9:1.9124433 10:1.3827482 11:-0.31890718 12:-0.24224356 13:-0.47634284 14:-0.32067855 15:0.57018159 16:1.1989945 17:1.504142 18:-0.10023001 19:-0.48059439 20:-0.056763715 21:1.6380811 22:2.0665062 23:-0.47011108 24:-0.30511085 
1.201442602660879 1:0.50010361 2:-0.7537834 3:-0.43773136 4:-0.1630649 5:0.77710545 6:-0.80026444 7:1.0092125 8:1.6506164 9:-0.52283713 10:1.3827482 11:-0.31890718 12:-0.24224356 13:-0.47634284 14:-0.32067855 15:0.57018159 16:-0.83394576 17:-0.66476198 18:-0.10023001 19:-0.48059439 20:-0.056763715 21:-0.61040713 22:2.0665062 23:-0.47011108 24:-0.30511085 
1.018098496159557 1:0.50010361 2:-0.7537834 3:-0.43773136 4:6.1318923 5:0.77710545 6:-0.80026444 7:1.0092125 8:-0.60577152 9:1.9124433 10:1.3827482 11:-0.31890718 12:-0.24224356 13:-0.47634284 14:-0.32067855 15:0.57018159 16:-0.83394576 17:-0.66476198 18:-0.10023001 19:-0.48059439 20:-0.056763715 21:-0.61040713 22:-0.48385841 23:-0.47011108 24:-0.30511085 
1.026793271385374 1:0.50010361 2:-0.7537834 3:-0.43773136 4:-0.1630649 5:0.77710545 6:1.2494575 7:1.0092125 8:1.6506164 9:1.9124433 10:1.3827482 11:3.1353837 12:-0.24224356 13:-0.47634284 14:-0.32067855 15:0.57018159 16:-0.83394576 17:1.504142 18:-0.10023001 19:-0.48059439 20:-0.056763715 21:1.6380811 22:2.0665062 23:-0.47011108 24:-0.30511085 
1.105700056108054 1:0.50010361 2:1.3265036 3:-0.43773136 4:-0.1630649 5:0.77710545 6:1.2494575 7:1.0092125 8:1.6506164 9:1.9124433 10:1.3827482 11:3.1353837 12:-0.24224356 13:-0.47634284 14:-0.32067855 15:0.57018159 16:1.1989945 17:1.504142 18:-0.10023001 19:2.0805411 20:-0.056763715 21:1.6380811 22:2.0665062 23:-0.47011108 24:3.2771578 
1.053832227984165 1:-1.9993785 2:1.3265036 3:2.2842695 4:-0.1630649 5:0.77710545 6:1.2494575 7:1.0092125 8:1.6506164 9:-0.52283713 10:1.3827482 11:-0.31890718 12:-0.24224356 13:-0.47634284 14:-0.32067855 15:0.57018159 16:1.1989945 17:1.504142 18:-0.10023001 19:2.0805411 20:-0.056763715 21:-0.61040713 22:2.0665062 23:-0.47011108 24:-0.30511085 
0.9554483091256684 1:-1.9993785 2:1.3265036 3:-0.43773136 4:-0.1630649 5:0.77710545 6:1.2494575 7:-0.99076896 8:-0.60577152 9:-0.52283713 10:-0.72312254 11:-0.31890718 12:-0.24224356 13:-0.47634284 14:3.1180644 15:0.57018159 16:-0.83394576 17:1.504142 18:-0.10023001 19:-0.48059439 20:-0.056763715 21:-0.61040713 22:2.0665062 23:-0.47011108 24:-0.30511085 
1.031508193491121 1:0.50010361 2:1.3265036 3:2.2842695 4:-0.1630649 5:0.77710545 6:-0.80026444 7:1.0092125 8:-0.60577152 9:1.9124433 10:-0.72312254 11:-0.31890718 12:4.1276491 13:2.0991108 14:-0.32067855 15:0.57018159 16:1.1989945 17:-0.66476198 18:-0.10023001 19:2.0805411 20:-0.056763715 21:-0.61040713 22:-0.48385841 23:-0.47011108 24:-0.30511085 
1.251496090220617 1:-1.9993785 2:-0.7537834 3:-0.43773136 4:6.1318923 5:0.77710545 6:-0.80026444 7:1.0092125 8:1.6506164 9:1.9124433 10:1.3827482 11:-0.31890718 12:-0.24224356 13:-0.47634284 14:-0.32067855 15:0.57018159 16:-0.83394576 17:-0.66476198 18:-0.10023001 19:-0.48059439 20:-0.056763715 21:-0.61040713 22:-0.48385841 23:-0.47011108 24:-0.30511085 
0.7898394739405504 1:-1.9993785 2:-0.7537834 3:-0.43773136 4:-0.1630649 5:0.77710545 6:1.2494575 7:1.0092125 8:-0.60577152 9:-0.52283713 10:-0.72312254 11:-0.31890718 12:-0.24224356 13:2.0991108 14:-0.32067855 15:0.57018159 16:1.1989945 17:-0.66476198 18:-0.10023001 19:-0.48059439 20:-0.056763715 21:1.6380811 22:-0.48385841 23:-0.47011108 24:-0.30511085 
1.045683884378987 1:-1.9993785 2:-0.7537834 3:2.2842695 4:-0.1630649 5:0.77710545 6:-0.80026444 7:1.0092125 8:1.6506164 9:-0.52283713 10:-0.72312254 11:3.1353837 12:-0.24224356 13:-0.47634284 14:3.1180644 15:0.57018159 16:1.1989945 17:-0.66476198 18:-0.10023001 19:-0.48059439 20:-0.056763715 21:-0.61040713 22:-0.48385841 23:2.1269364 24:-0.30511085 
1.001740694778365 1:-1.9993785 2:-0.7537834 3:2.2842695 4:-0.1630649 5:-1.2866933 6:-0.80026444 7:-0.99076896 8:-0.60577152 9:-0.52283713 10:-0.72312254 11:-0.31890718 12:-0.24224356 13:-0.47634284 14:-0.32067855 15:0.57018159 16:1.1989945 17:1.504142 18:-0.10023001 19:-0.48059439 20:-0.056763715 21:1.6380811 22:2.0665062 23:2.1269364 24:-0.30511085 
0.9836888209317647 1:-1.9993785 2:-0.7537834 3:2.2842695 4:-0.1630649 5:0.77710545 6:1.2494575 7:1.0092125 8:-0.60577152 9:1.9124433 10:1.3827482 11:-0.31890718 12:-0.24224356 13:2.0991108 14:-0.32067855 15:0.57018159 16:1.1989945 17:-0.66476198 18:-0.10023001 19:-0.48059439 20:-0.056763715 21:1.6380811 22:-0.48385841 23:-0.47011108 24:3.2771578 
2 1:0.50010361 2:-0.7537834 3:-0.43773136 4:-0.1630649 5:-1.2866933 6:-0.80026444 7:-0.99076896 8:-0.60577152 9:-0.52283713 10:-0.72312254 11:-0.31890718 12:-0.24224356 13:-0.47634284 14:3.1180644 15:0.57018159 16:-0.83394576 17:-0.66476198 18:-0.10023001 19:-0.48059439 20:-0.056763715 21:-0.61040713 22:-0.48385841 23:-0.47011108 24:-0.30511085 
2 1:-1.9993785 2:1.3265036 3:-0.43773136 4:-0.1630649 5:0.77710545 6:1.2494575 7:1.0092125 8:1.6506164 9:-0.52283713 10:1.3827482 11:-0.31890718 12:-0.24224356 13:-0.47634284 14:-0.32067855 15:0.57018159 16:1.1989945 17:1.504142 18:-0.10023001 19:-0.48059439 20:-0.056763715 21:-0.61040713 22:2.0665062 23:-0.47011108 24:-0.30511085 
0.7226104759277933 1:-1.9993785 2:-0.7537834 3:2.2842695 4:-0.1630649 5:0.77710545 6:1.2494575 7:-0.99076896 8:-0.60577152 9:-0.52283713 10:-0.72312254 11:-0.31890718 12:-0.24224356 13:-0.47634284 14:-0.32067855 15:0.57018159 16:1.1989945 17:1.504142 18:-0.10023001 19:-0.48059439 20:-0.056763715 21:1.6380811 22:-0.48385841 23:-0.47011108 24:-0.30511085 
1.273555128291945 1:0.50010361 2:1.3265036 3:2.2842695 4:-0.1630649 5:0.77710545 6:1.2494575 7:1.0092125 8:1.6506164 9:-0.52283713 10:1.3827482 11:-0.31890718 12:-0.24224356 13:2.0991108 14:-0.32067855 15:0.57018159 16:1.1989945 17:1.504142 18:-0.10023001 19:-0.48059439 20:-0.056763715 21:1.6380811 22:-0.48385841 23:-0.47011108 24:-0.30511085 
2 1:-1.9993785 2:1.3265036 3:-0.43773136 4:-0.1630649 5:-1.2866933 6:-0.80026444 7:-0.99076896 8:-0.60577152 9:-0.52283713 10:-0.72312254 11:-0.31890718 12:-0.24224356 13:-0.47634284 14:-0.32067855 15:0.57018159 16:-0.83394576 17:1.504142 18:-0.10023001 19:-0.48059439 20:-0.056763715 21:-0.61040713 22:2.0665062 23:-0.47011108 24:-0.30511085 
0.6995115555189383 1:-1.9993785 2:-0.7537834 3:-0.43773136 4:-0.1630649 5:-1.2866933 6:-0.80026444 7:-0.99076896 8:-0.60577152 9:-0.52283713 10:-0.72312254 11:-0.31890718 12:-0.24224356 13:-0.47634284 14:-0.32067855 15:0.57018159 16:1.1989945 17:1.504142 18:-0.10023001 19:-0.48059439 20:-0.056763715 21:1.6380811 22:-0.48385841 23:-0.47011108 24:-0.30511085 
0.8595143188865696 1:0.50010361 2:1.3265036 3:2.2842695 4:-0.1630649 5:0.77710545 6:1.2494575 7:-0.99076896 8:-0.60577152 9:-0.52283713 10:-0.72312254 11:-0.31890718 12:-0.24224356 13:-0.47634284 14:-0.32067855 15:0.57018159 16:1.1989945 17:1.504142 18:-0.10023001 19:2.0805411 20:-0.056763715 21:1.6380811 22:-0.48385841 23:-0.47011108 24:-0.30511085 
2 1:0.50010361 2:1.3265036 3:-0.43773136 4:-0.1630649 5:0.77710545 6:1.2494575 7:1.0092125 8:1.6506164 9:1.9124433 10:1.3827482 11:-0.31890718 12:-0.24224356 13:2.0991108 14:-0.32067855 15:0.57018159 16:1.1989945 17:-0.66476198 18:-0.10023001 19:2.0805411 20:-0.056763715 21:1.6380811 22:-0.48385841 23:-0.47011108 24:-0.30511085 
2 1:-1.9993785 2:-0.7537834 3:-0.43773136 4:-0.1630649 5:0.77710545 6:-0.80026444 7:1.0092125 8:-0.60577152 9:1.9124433 10:1.3827482 11:-0.31890718 12:-0.24224356 13:-0.47634284 14:-0.32067855 15:0.57018159 16:-0.83394576 17:1.504142 18:-0.10023001 19:-0.48059439 20:-0.056763715 21:-0.61040713 22:-0.48385841 23:-0.47011108 24:-0.30511085 
2 1:0.50010361 2:-0.7537834 3:-0.43773136 4:-0.1630649 5:0.77710545 6:-0.80026444 7:1.0092125 8:-0.60577152 9:-0.52283713 10:-0.72312254 11:-0.31890718 12:-0.24224356 13:2.0991108 14:-0.32067855 15:0.57018159 16:-0.83394576 17:1.504142 18:-0.10023001 19:-0.48059439 20:-0.056763715 21:-0.61040713 22:-0.48385841 23:-0.47011108 24:-0.30511085 
1.121860422101439 1:0.50010361 2:1.3265036 3:-0.43773136 4:-0.1630649 5:0.77710545 6:1.2494575 7:1.0092125 8:-0.60577152 9:1.9124433 10:1.3827482 11:-0.31890718 12:-0.24224356 13:-0.47634284 14:-0.32067855 15:0.57018159 16:-0.83394576 17:1.504142 18:-0.10023001 19:-0.48059439 20:-0.056763715 21:-0.61040713 22:-0.48385841 23:-0.47011108 24:-0.30511085 
1.285716426423768 1:0.50010361 2:1.3265036 3:-0.43773136 4:-0.1630649 5:0.77710545 6:1.2494575 7:1.0092125 8:-0.60577152 9:1.9124433 10:1.3827482 11:-0.31890718 12:-0.24224356 13:2.0991108 14:-0.32067855 15:0.57018159 16:1.1989945 17:1.504142 18:-0.10023001 19:-0.48059439 20:-0.056763715 21:1.6380811 22:2.0665062 23:2.1269364 24:3.2771578 
1.042851821815382 1:0.50010361 2:1.3265036 3:2.2842695 4:-0.1630649 5:0.77710545 6:-0.80026444 7:1.0092125 8:1.6506164 9:-0.52283713 10:1.3827482 11:3.1353837 12:-0.24224356 13:-0.47634284 14:3.1180644 15:0.57018159 16:1.1989945 17:-0.66476198 18:-0.10023001 19:-0.48059439 20:-0.056763715 21:1.6380811 22:2.0665062 23:-0.47011108 24:-0.30511085 
1.0071018999931 1:-1.9993785 2:-0.7537834 3:2.2842695 4:-0.1630649 5:0.77710545 6:-0.80026444 7:1.0092125 8:-0.60577152 9:1.9124433 10:1.3827482 11:-0.31890718 12:-0.24224356 13:-0.47634284 14:3.1180644 15:0.57018159 16:-0.83394576 17:-0.66476198 18:-0.10023001 19:-0.48059439 20:-0.056763715 21:1.6380811 22:-0.48385841 23:2.1269364 24:-0.30511085 
2 1:-1.9993785 2:1.3265036 3:-0.43773136 4:-0.1630649 5:0.77710545 6:1.2494575 7:-0.99076896 8:-0.60577152 9:-0.52283713 10:-0.72312254 11:-0.31890718 12:-0.24224356 13:-0.47634284 14:-0.32067855 15:0.57018159 16:-0.83394576 17:1.504142 18:-0.10023001 19:-0.48059439 20:-0.056763715 21:-0.61040713 22:-0.48385841 23:-0.47011108 24:-0.30511085 
2 1:-1.9993785 2:1.3265036 3:-0.43773136 4:-0.1630649 5:0.77710545 6:1.2494575 7:1.0092125 8:-0.60577152 9:-0.52283713 10:-0.72312254 11:-0.31890718 12:-0.24224356 13:2.0991108 14:-0.32067855 15:0.57018159 16:1.1989945 17:-0.66476198 18:-0.10023001 19:-0.48059439 20:-0.056763715 21:1.6380811 22:-0.48385841 23:-0.47011108 24:-0.30511085 
0.9692553159920928 1:-1.9993785 2:1.3265036 3:2.2842695 4:-0.1630649 5:0.77710545 6:1.2494575 7:-0.99076896 8:-0.60577152 9:-0.52283713 10:-0.72312254 11:-0.31890718 12:-0.24224356 13:-0.47634284 14:3.1180644 15:0.57018159 16:1.1989945 17:-0.66476198 18:-0.10023001 19:-0.48059439 20:-0.056763715 21:1.6380811 22:-0.48385841 23:2.1269364 24:-0.30511085 
0.9261725065549486 1:-1.9993785 2:1.3265036 3:-0.43773136 4:-0.1630649 5:0.77710545 6:-0.80026444 7:1.0092125 8:1.6506164 9:-0.52283713 10:1.3827482 11:-0.31890718 12:-0.24224356 13:-0.47634284 14:-0.32067855 15:0.57018159 16:1.1989945 17:-0.66476198 18:-0.10023001 19:-0.48059439 20:-0.056763715 21:1.6380811 22:-0.48385841 23:2.1269364 24:-0.30511085 
0.9076276508276667 1:0.50010361 2:1.3265036 3:-0.43773136 4:-0.1630649 5:0.77710545 6:-0.80026444 7:1.0092125 8:-0.60577152 9:1.9124433 10:1.3827482 11:-0.31890718 12:-0.24224356 13:-0.47634284 14:-0.32067855 15:0.57018159 16:-0.83394576 17:-0.66476198 18:-0.10023001 19:-0.48059439 20:-0.056763715 21:-0.61040713 22:-0.48385841 23:-0.47011108 24:3.2771578 
2 1:0.50010361 2:-0.7537834 3:-0.43773136 4:-0.1630649 5:0.77710545 6:-0.80026444 7:1.0092125 8:-0.60577152 9:-0.52283713 10:-0.72312254 11:-0.31890718 12:-0.24224356 13:2.0991108 14:-0.32067855 15:0.57018159 16:-0.83394576 17:1.504142 18:-0.10023001 19:-0.48059439 20:-0.056763715 21:-0.61040713 22:-0.48385841 23:-0.47011108 24:-0.30511085 
1.221892511002331 1:0.50010361 2:-0.7537834 3:-0.43773136 4:-0.1630649 5:0.77710545 6:1.2494575 7:1.0092125 8:-0.60577152 9:1.9124433 10:1.3827482 11:-0.31890718 12:-0.24224356 13:-0.47634284 14:-0.32067855 15:0.57018159 16:1.1989945 17:-0.66476198 18:-0.10023001 19:-0.48059439 20:-0.056763715 21:1.6380811 22:-0.48385841 23:-0.47011108 24:-0.30511085 
0.8718936316492415 1:-1.9993785 2:1.3265036 3:-0.43773136 4:-0.1630649 5:0.77710545 6:-0.80026444 7:1.0092125 8:-0.60577152 9:-0.52283713 10:-0.72312254 11:-0.31890718 12:-0.24224356 13:2.0991108 14:-0.32067855 15:0.57018159 16:-0.83394576 17:1.504142 18:-0.10023001 19:2.0805411 20:-0.056763715 21:-0.61040713 22:-0.48385841 23:-0.47011108 24:-0.30511085 
2 1:0.50010361 2:-0.7537834 3:-0.43773136 4:-0.1630649 5:0.77710545 6:1.2494575 7:1.0092125 8:-0.60577152 9:1.9124433 10:1.3827482 11:-0.31890718 12:-0.24224356 13:-0.47634284 14:-0.32067855 15:0.57018159 16:-0.83394576 17:1.504142 18:-0.10023001 19:-0.48059439 20:-0.056763715 21:-0.61040713 22:-0.48385841 23:-0.47011108 24:-0.30511085 
2 1:0.50010361 2:1.3265036 3:-0.43773136 4:-0.1630649 5:0.77710545 6:1.2494575 7:1.0092125 8:1.6506164 9:-0.52283713 10:1.3827482 11:-0.31890718 12:-0.24224356 13:-0.47634284 14:-0.32067855 15:0.57018159 16:-0.83394576 17:1.504142 18:-0.10023001 19:2.0805411 20:-0.056763715 21:1.6380811 22:-0.48385841 23:-0.47011108 24:-0.30511085 
2 1:-1.9993785 2:1.3265036 3:-0.43773136 4:-0.1630649 5:0.77710545 6:1.2494575 7:-0.99076896 8:-0.60577152 9:-0.52283713 10:-0.72312254 11:-0.31890718 12:-0.24224356 13:-0.47634284 14:-0.32067855 15:0.57018159 16:-0.83394576 17:-0.66476198 18:-0.10023001 19:2.0805411 20:-0.056763715 21:-0.61040713 22:-0.48385841 23:-0.47011108 24:-0.30511085 
0.9836763112572152 1:-1.9993785 2:-0.7537834 3:-0.43773136 4:-0.1630649 5:0.77710545 6:-0.80026444 7:1.0092125 8:-0.60577152 9:1.9124433 10:1.3827482 11:-0.31890718 12:-0.24224356 13:-0.47634284 14:-0.32067855 15:0.57018159 16:1.1989945 17:1.504142 18:-0.10023001 19:-0.48059439 20:-0.056763715 21:-0.61040713 22:2.0665062 23:2.1269364 24:-0.30511085 
0.768409287558471 1:-1.9993785 2:1.3265036 3:-0.43773136 4:-0.1630649 5:0.77710545 6:-0.80026444 7:1.0092125 8:-0.60577152 9:1.9124433 10:1.3827482 11:-0.31890718 12:-0.24224356 13:-0.47634284 14:-0.32067855 15:0.57018159 16:-0.83394576 17:-0.66476198 18:-0.10023001 19:-0.48059439 20:-0.056763715 21:-0.61040713 22:-0.48385841 23:2.1269364 24:-0.30511085 
1.239830187397108 1:0.50010361 2:-0.7537834 3:2.2842695 4:-0.1630649 5:0.77710545 6:1.2494575 7:1.0092125 8:-0.60577152 9:1.9124433 10:1.3827482 11:-0.31890718 12:-0.24224356 13:2.0991108 14:-0.32067855 15:0.57018159 16:1.1989945 17:1.504142 18:-0.10023001 19:-0.48059439 20:-0.056763715 21:-0.61040713 22:-0.48385841 23:2.1269364 24:-0.30511085 
1.211276909315065 1:0.50010361 2:-0.7537834 3:-0.43773136 4:-0.1630649 5:0.77710545 6:-0.80026444 7:1.0092125 8:-0.60577152 9:1.9124433 10:1.3827482 11:-0.31890718 12:-0.24224356 13:-0.47634284 14:-0.32067855 15:0.57018159 16:1.1989945 17:-0.66476198 18:-0.10023001 19:-0.48059439 20:-0.056763715 21:-0.61040713 22:-0.48385841 23:2.1269364 24:-0.30511085 
1.120921777124924 1:0.50010361 2:-0.7537834 3:-0.43773136 4:-0.1630649 5:0.77710545 6:-0.80026444 7:1.0092125 8:-0.60577152 9:-0.52283713 10:-0.72312254 11:-0.31890718 12:-0.24224356 13:2.0991108 14:-0.32067855 15:0.57018159 16:-0.83394576 17:1.504142 18:-0.10023001 19:-0.48059439 20:-0.056763715 21:1.6380811 22:2.0665062 23:-0.47011108 24:-0.30511085 
2 1:0.50010361 2:-0.7537834 3:-0.43773136 4:-0.1630649 5:0.77710545 6:-0.80026444 7:1.0092125 8:-0.60577152 9:1.9124433 10:1.3827482 11:-0.31890718 12:-0.24224356 13:-0.47634284 14:-0.32067855 15:0.57018159 16:1.1989945 17:-0.66476198 18:-0.10023001 19:-0.48059439 20:-0.056763715 21:-0.61040713 22:-0.48385841 23:-0.47011108 24:-0.30511085 
1.016333546367584 1:-1.9993785 2:-0.7537834 3:-0.43773136 4:-0.1630649 5:0.77710545 6:-0.80026444 7:1.0092125 8:-0.60577152 9:1.9124433 10:1.3827482 11:-0.31890718 12:-0.24224356 13:-0.47634284 14:-0.32067855 15:0.57018159 16:1.1989945 17:1.504142 18:-0.10023001 19:-0.48059439 20:-0.056763715 21:1.6380811 22:-0.48385841 23:-0.47011108 24:3.2771578 
2 1:0.50010361 2:-0.7537834 3:-0.43773136 4:-0.1630649 5:0.77710545 6:1.2494575 7:1.0092125 8:-0.60577152 9:-0.52283713 10:-0.72312254 11:-0.31890718 12:-0.24224356 13:2.0991108 14:-0.32067855 15:0.57018159 16:1.1989945 17:-0.66476198 18:-0.10023001 19:-0.48059439 20:-0.056763715 21:-0.61040713 22:2.0665062 23:-0.47011108 24:3.2771578 
2 1:0.50010361 2:-0.7537834 3:-0.43773136 4:-0.1630649 5:0.77710545 6:-0.80026444 7:1.0092125 8:-0.60577152 9:1.9124433 10:1.3827482 11:-0.31890718 12:-0.24224356 13:2.0991108 14:-0.32067855 15:0.57018159 16:1.1989945 17:1.504142 18:-0.10023001 19:-0.48059439 20:-0.056763715 21:-0.61040713 22:-0.48385841 23:-0.47011108 24:-0.30511085 
2 1:0.50010361 2:-0.7537834 3:-0.43773136 4:-0.1630649 5:0.77710545 6:-0.80026444 7:1.0092125 8:-0.60577152 9:1.9124433 10:1.3827482 11:-0.31890718 12:-0.24224356 13:-0.47634284 14:-0.32067855 15:0.57018159 16:1.1989945 17:-0.66476198 18:-0.10023001 19:-0.48059439 20:-0.056763715 21:-0.61040713 22:-0.48385841 23:-0.47011108 24:-0.30511085 
0.954436065380077 1:0.50010361 2:-0.7537834 3:-0.43773136 4:-0.1630649 5:0.77710545 6:-0.80026444 7:1.0092125 8:1.6506164 9:-0.52283713 10:-0.72312254 11:3.1353837 12:-0.24224356 13:-0.47634284 14:-0.32067855 15:0.57018159 16:1.1989945 17:1.504142 18:-0.10023001 19:-0.48059439 20:-0.056763715 21:1.6380811 22:-0.48385841 23:-0.47011108 24:-0.30511085 
1.150788797603983 1:0.50010361 2:-0.7537834 3:-0.43773136 4:-0.1630649 5:0.77710545 6:-0.80026444 7:1.0092125 8:1.6506164 9:-0.52283713 10:-0.72312254 11:3.1353837 12:-0.24224356 13:2.0991108 14:3.1180644 15:0.57018159 16:1.1989945 17:1.504142 18:-0.10023001 19:-0.48059439 20:-0.056763715 21:1.6380811 22:-0.48385841 23:2.1269364 24:-0.30511085 
2 1:0.50010361 2:-0.7537834 3:-0.43773136 4:-0.1630649 5:0.77710545 6:-0.80026444 7:1.0092125 8:-0.60577152 9:1.9124433 10:1.3827482 11:-0.31890718 12:-0.24224356 13:-0.47634284 14:-0.32067855 15:0.57018159 16:1.1989945 17:-0.66476198 18:-0.10023001 19:-0.48059439 20:-0.056763715 21:-0.61040713 22:-0.48385841 23:-0.47011108 24:-0.30511085 
2 1:0.50010361 2:1.3265036 3:2.2842695 4:-0.1630649 5:-1.2866933 6:-0.80026444 7:-0.99076896 8:-0.60577152 9:-0.52283713 10:-0.72312254 11:-0.31890718 12:-0.24224356 13:-0.47634284 14:3.1180644 15:0.57018159 16:-0.83394576 17:-0.66476198 18:-0.10023001 19:2.0805411 20:-0.056763715 21:-0.61040713 22:-0.48385841 23:-0.47011108 24:-0.30511085 
0.8503219957004148 1:-1.9993785 2:-0.7537834 3:2.2842695 4:-0.1630649 5:0.77710545 6:-0.80026444 7:1.0092125 8:-0.60577152 9:-0.52283713 10:-0.72312254 11:-0.31890718 12:-0.24224356 13:2.0991108 14:-0.32067855 15:0.57018159 16:-0.83394576 17:-0.66476198 18:-0.10023001 19:-0.48059439 20:-0.056763715 21:1.6380811 22:-0.48385841 23:-0.47011108 24:-0.30511085 
1.21529667381489 1:0.50010361 2:-0.7537834 3:-0.43773136 4:-0.1630649 5:0.77710545 6:-0.80026444 7:1.0092125 8:1.6506164 9:-0.52283713 10:1.3827482 11:-0.31890718 12:-0.24224356 13:2.0991108 14:-0.32067855 15:0.57018159 16:1.1989945 17:-0.66476198 18:-0.10023001 19:-0.48059439 20:-0.056763715 21:-0.61040713 22:-0.48385841 23:2.1269364 24:-0.30511085 
1.080177531820458 1:0.50010361 2:1.3265036 3:-0.43773136 4:-0.1630649 5:0.77710545 6:1.2494575 7:1.0092125 8:1.6506164 9:-0.52283713 10:1.3827482 11:-0.31890718 12:-0.24224356 13:-0.47634284 14:-0.32067855 15:0.57018159 16:1.1989945 17:-0.66476198 18:-0.10023001 19:2.0805411 20:-0.056763715 21:1.6380811 22:2.0665062 23:2.1269364 24:-0.30511085 
0.9260598547805494 1:-1.9993785 2:-0.7537834 3:2.2842695 4:-0.1630649 5:0.77710545 6:-0.80026444 7:1.0092125 8:1.6506164 9:-0.52283713 10:-0.72312254 11:3.1353837 12:-0.24224356 13:-0.47634284 14:-0.32067855 15:0.57018159 16:-0.83394576 17:1.504142 18:-0.10023001 19:-0.48059439 20:-0.056763715 21:1.6380811 22:2.0665062 23:2.1269364 24:-0.30511085 
0.8401469707302028 1:-1.9993785 2:1.3265036 3:-0.43773136 4:-0.1630649 5:0.77710545 6:1.2494575 7:-0.99076896 8:-0.60577152 9:-0.52283713 10:-0.72312254 11:-0.31890718 12:-0.24224356 13:-0.47634284 14:-0.32067855 15:0.57018159 16:-0.83394576 17:-0.66476198 18:-0.10023001 19:2.0805411 20:-0.056763715 21:-0.61040713 22:-0.48385841 23:2.1269364 24:-0.30511085 
