svm_type c_svc
kernel_type rbf
gamma 0.5
nr_class 2
total_sv 5581
rho 0.309324
label 1 2
nr_sv 2769 2812
SV
0.5 1:0.53901843 2:1.0856432 3:-0.47127299 4:-0.18175163 5:0.4887684 6:0.98165026 7:0.71850193 8:1.3282545 9:1.5525118 10:1.0931635 11:2.5714962 12:-0.2970402 13:-0.58276707 14:-0.39435854 15:0.2715619 
0.2170932124598481 1:-1.851462 2:-0.91975382 3:-0.47127299 4:-0.18175163 5:0.4887684 6:0.98165026 7:0.71850193 8:-0.7516821 9:-0.64299924 10:-0.91342505 11:-0.38770399 12:-0.2970402 13:1.712721 14:-0.39435854 15:0.2715619 
0.5 1:-1.851462 2:1.0856432 3:-0.47127299 4:-0.18175163 5:0.4887684 6:0.98165026 7:0.71850193 8:1.3282545 9:-0.64299924 10:1.0931635 11:-0.38770399 12:-0.2970402 13:-0.58276707 14:-0.39435854 15:0.2715619 
0.5 1:0.53901843 2:-0.91975382 3:-0.47127299 4:5.4442875 5:-2.0413511 6:-1.0171984 7:-1.3895394 8:-0.7516821 9:-0.64299924 10:-0.91342505 11:-0.38770399 12:-0.2970402 13:-0.58276707 14:-0.39435854 15:-3.6631968 
0.1794899072263179 1:0.53901843 2:1.0856432 3:-0.47127299 4:-0.18175163 5:0.4887684 6:-1.0171984 7:0.71850193 8:-0.7516821 9:1.5525118 10:1.0931635 11:-0.38770399 12:-0.2970402 13:-0.58276707 14:2.5282817 15:0.2715619 
0.5 1:0.53901843 2:1.0856432 3:-0.47127299 4:5.4442875 5:0.4887684 6:0.98165026 7:-1.3895394 8:-0.7516821 9:-0.64299924 10:-0.91342505 11:-0.38770399 12:-0.2970402 13:-0.58276707 14:2.5282817 15:0.2715619 
0.5 1:0.53901843 2:-0.91975382 3:-0.47127299 4:-0.18175163 5:0.4887684 6:0.98165026 7:0.71850193 8:1.3282545 9:-0.64299924 10:1.0931635 11:2.5714962 12:-0.2970402 13:-0.58276707 14:-0.39435854 15:0.2715619 
0.5 1:0.53901843 2:1.0856432 3:-0.47127299 4:-0.18175163 5:0.4887684 6:0.98165026 7:0.71850193 8:-0.7516821 9:1.5525118 10:1.0931635 11:-0.38770399 12:-0.2970402 13:1.712721 14:-0.39435854 15:0.2715619 
0.5 1:-1.851462 2:-0.91975382 3:-0.47127299 4:5.4442875 5:-2.0413511 6:-1.0171984 7:-1.3895394 8:-0.7516821 9:-0.64299924 10:-0.91342505 11:-0.38770399 12:-0.2970402 13:-0.58276707 14:-0.39435854 15:-3.6631968 
0.5 1:0.53901843 2:1.0856432 3:-0.47127299 4:-0.18175163 5:0.4887684 6:-1.0171984 7:0.71850193 8:-0.7516821 9:1.5525118 10:-0.91342505 11:-0.38770399 12:3.3513755 13:-0.58276707 14:-0.39435854 15:0.2715619 
0.2150282446506917 1:0.53901843 2:-0.91975382 3:-0.47127299 4:-0.18175163 5:0.4887684 6:0.98165026 7:-1.3895394 8:-0.7516821 9:-0.64299924 10:-0.91342505 11:-0.38770399 12:-0.2970402 13:-0.58276707 14:-0.39435854 15:0.2715619 
0.5 1:0.53901843 2:-0.91975382 3:-0.47127299 4:-0.18175163 5:0.4887684 6:0.98165026 7:-1.3895394 8:-0.7516821 9:-0.64299924 10:-0.91342505 11:-0.38770399 12:-0.2970402 13:-0.58276707 14:2.5282817 15:0.2715619 
0.5 1:0.53901843 2:1.0856432 3:2.1169279 4:-0.18175163 5:0.4887684 6:0.98165026 7:0.71850193 8:1.3282545 9:1.5525118 10:1.0931635 11:2.5714962 12:-0.2970402 13:-0.58276707 14:-0.39435854 15:0.2715619 
0.5 1:0.53901843 2:-0.91975382 3:2.1169279 4:-0.18175163 5:-2.0413511 6:-1.0171984 7:-1.3895394 8:-0.7516821 9:-0.64299924 10:-0.91342505 11:-0.38770399 12:-0.2970402 13:-0.58276707 14:2.5282817 15:0.2715619 
0.5 1:0.53901843 2:1.0856432 3:-0.47127299 4:-0.18175163 5:0.4887684 6:0.98165026 7:0.71850193 8:-0.7516821 9:1.5525118 10:-0.91342505 11:-0.38770399 12:3.3513755 13:1.712721 14:-0.39435854 15:0.2715619 
0.5 1:0.53901843 2:1.0856432 3:-0.47127299 4:-0.18175163 5:0.4887684 6:0.98165026 7:0.71850193 8:1.3282545 9:-0.64299924 10:1.0931635 11:-0.38770399 12:-0.2970402 13:-0.58276707 14:-0.39435854 15:0.2715619 
0.5 1:0.53901843 2:1.0856432 3:-0.47127299 4:-0.18175163 5:0.4887684 6:-1.0171984 7:0.71850193 8:-0.7516821 9:1.5525118 10:1.0931635 11:-0.38770399 12:-0.2970402 13:-0.58276707 14:2.5282817 15:0.2715619 
0.5 1:0.53901843 2:-0.91975382 3:-0.47127299 4:-0.18175163 5:0.4887684 6:0.98165026 7:0.71850193 8:-0.7516821 9:-0.64299924 10:-0.91342505 11:-0.38770399 12:-0.2970402 13:1.712721 14:-0.39435854 15:0.2715619 
0.5 1:-1.851462 2:-0.91975382 3:-0.47127299 4:-0.18175163 5:0.4887684 6:-1.0171984 7:0.71850193 8:-0.7516821 9:1.5525118 10:1.0931635 11:-0.38770399 12:3.3513755 13:-0.58276707 14:-0.39435854 15:0.2715619 
0.5 1:0.53901843 2:-0.91975382 3:-0.47127299 4:-0.18175163 5:0.4887684 6:0.98165026 7:-1.3895394 8:-0.7516821 9:-0.64299924 10:-0.91342505 11:-0.38770399 12:-0.2970402 13:-0.58276707 14:-0.39435854 15:0.2715619 
0.5 1:0.53901843 2:1.0856432 3:-0.47127299 4:-0.18175163 5:0.4887684 6:-1.0171984 7:0.71850193 8:1.3282545 9:1.5525118 10:1.0931635 11:-0.38770399 12:-0.2970402 13:-0.58276707 14:-0.39435854 15:0.2715619 
0.5 1:0.53901843 2:-0.91975382 3:-0.47127299 4:-0.18175163 5:0.4887684 6:0.98165026 7:0.71850193 8:-0.7516821 9:-0.64299924 10:-0.91342505 11:-0.38770399 12:-0.2970402 13:1.712721 14:-0.39435854 15:0.2715619 
0.5 1:0.53901843 2:-0.91975382 3:-0.47127299 4:5.4442875 5:-2.0413511 6:-1.0171984 7:-1.3895394 8:-0.7516821 9:-0.64299924 10:-0.91342505 11:-0.38770399 12:-0.2970402 13:-0.58276707 14:-0.39435854 15:-3.6631968 
0.5 1:0.53901843 2:1.0856432 3:-0.47127299 4:-0.18175163 5:0.4887684 6:-1.0171984 7:0.71850193 8:-0.7516821 9:1.5525118 10:1.0931635 11:-0.38770399 12:-0.2970402 13:-0.58276707 14:-0.39435854 15:0.2715619 
0.1478105834597639 1:0.53901843 2:-0.91975382 3:-0.47127299 4:-0.18175163 5:0.4887684 6:0.98165026 7:0.71850193 8:-0.7516821 9:1.5525118 10:1.0931635 11:-0.38770399 12:-0.2970402 13:-0.58276707 14:-0.39435854 15:0.2715619 
0.3395685782027784 1:0.53901843 2:-0.91975382 3:2.1169279 4:-0.18175163 5:0.4887684 6:0.98165026 7:0.71850193 8:-0.7516821 9:1.5525118 10:1.0931635 11:-0.38770399 12:-0.2970402 13:-0.58276707 14:-0.39435854 15:0.2715619 
0.5 1:0.53901843 2:-0.91975382 3:-0.47127299 4:-0.18175163 5:0.4887684 6:0.98165026 7:0.71850193 8:-0.7516821 9:-0.64299924 10:-0.91342505 11:-0.38770399 12:-0.2970402 13:1.712721 14:-0.39435854 15:0.2715619 
0.5 1:0.53901843 2:-0.91975382 3:-0.47127299 4:-0.18175163 5:0.4887684 6:0.98165026 7:0.71850193 8:1.3282545 9:1.5525118 10:1.0931635 11:-0.38770399 12:3.3513755 13:-0.58276707 14:2.5282817 15:0.2715619 
0.5 1:0.53901843 2:-0.91975382 3:2.1169279 4:-0.18175163 5:0.4887684 6:0.98165026 7:-1.3895394 8:-0.7516821 9:-0.64299924 10:-0.91342505 11:-0.38770399 12:-0.2970402 13:-0.58276707 14:2.5282817 15:0.2715619 
0.5 1:0.53901843 2:1.0856432 3:-0.47127299 4:-0.18175163 5:0.4887684 6:0.98165026 7:-1.3895394 8:-0.7516821 9:-0.64299924 10:-0.91342505 11:-0.38770399 12:-0.2970402 13:-0.58276707 14:-0.39435854 15:0.2715619 
0.5 1:0.53901843 2:1.0856432 3:-0.47127299 4:-0.18175163 5:0.4887684 6:0.98165026 7:-1.3895394 8:-0.7516821 9:-0.64299924 10:-0.91342505 11:-0.38770399 12:-0.2970402 13:-0.58276707 14:-0.39435854 15:0.2715619 
0.5 1:0.53901843 2:1.0856432 3:-0.47127299 4:-0.18175163 5:-2.0413511 6:-1.0171984 7:-1.3895394 8:-0.7516821 9:-0.64299924 10:-0.91342505 11:-0.38770399 12:-0.2970402 13:-0.58276707 14:2.5282817 15:0.2715619 
0.5 1:0.53901843 2:-0.91975382 3:-0.47127299 4:-0.18175163 5:0.4887684 6:-1.0171984 7:0.71850193 8:1.3282545 9:-0.64299924 10:1.0931635 11:-0.38770399 12:-0.2970402 13:1.712721 14:-0.39435854 15:0.2715619 
0.5 1:0.53901843 2:-0.91975382 3:-0.47127299 4:-0.18175163 5:-2.0413511 6:-1.0171984 7:-1.3895394 8:-0.7516821 9:-0.64299924 10:-0.91342505 11:-0.38770399 12:-0.2970402 13:-0.58276707 14:2.5282817 15:0.2715619 
0.5 1:0.53901843 2:-0.91975382 3:-0.47127299 4:-0.18175163 5:0.4887684 6:0.98165026 7:0.71850193 8:-0.7516821 9:1.5525118 10:1.0931635 11:-0.38770399 12:-0.2970402 13:-0.58276707 14:-0.39435854 15:0.2715619 
0.5 1:-1.851462 2:1.0856432 3:-0.47127299 4:-0.18175163 5:0.4887684 6:-1.0171984 7:0.71850193 8:1.3282545 9:1.5525118 10:1.0931635 11:2.5714962 12:-0.2970402 13:1.712721 14:-0.39435854 15:0.2715619 
0.5 1:0.53901843 2:-0.91975382 3:-0.47127299 4:-0.18175163 5:0.4887684 6:0.98165026 7:-1.3895394 8:-0.7516821 9:-0.64299924 10:-0.91342505 11:-0.38770399 12:-0.2970402 13:-0.58276707 14:2.5282817 15:0.2715619 
0.5 1:0.53901843 2:-0.91975382 3:-0.47127299 4:-0.18175163 5:0.4887684 6:-1.0171984 7:0.71850193 8:-0.7516821 9:1.5525118 10:1.0931635 11:-0.38770399 12:-0.2970402 13:-0.58276707 14:2.5282817 15:0.2715619 
0.5 1:0.53901843 2:1.0856432 3:-0.47127299 4:-0.18175163 5:0.4887684 6:0.98165026 7:0.71850193 8:1.3282545 9:-0.64299924 10:-0.91342505 11:-0.38770399 12:3.3513755 13:-0.58276707 14:-0.39435854 15:0.2715619 
0.5 1:0.53901843 2:-0.91975382 3:-0.47127299 4:-0.18175163 5:0.4887684 6:-1.0171984 7:0.71850193 8:-0.7516821 9:1.5525118 10:1.0931635 11:-0.38770399 12:-0.2970402 13:1.712721 14:-0.39435854 15:0.2715619 
0.5 1:0.53901843 2:1.0856432 3:-0.47127299 4:-0.18175163 5:0.4887684 6:-1.0171984 7:0.71850193 8:-0.7516821 9:1.5525118 10:1.0931635 11:-0.38770399 12:-0.2970402 13:-0.58276707 14:2.5282817 15:0.2715619 
0.5 1:0.53901843 2:1.0856432 3:-0.47127299 4:-0.18175163 5:0.4887684 6:0.98165026 7:0.71850193 8:1.3282545 9:-0.64299924 10:1.0931635 11:-0.38770399 12:-0.2970402 13:-0.58276707 14:-0.39435854 15:0.2715619 
0.5 1:0.53901843 2:-0.91975382 3:2.1169279 4:-0.18175163 5:0.4887684 6:-1.0171984 7:0.71850193 8:1.3282545 9:-0.64299924 10:1.0931635 11:2.5714962 12:-0.2970402 13:-0.58276707 14:-0.39435854 15:0.2715619 
0.5 1:0.53901843 2:-0.91975382 3:-0.47127299 4:-0.18175163 5:0.4887684 6:0.98165026 7:0.71850193 8:1.3282545 9:1.5525118 10:1.0931635 11:2.5714962 12:-0.2970402 13:-0.58276707 14:2.5282817 15:0.2715619 
0.5 1:0.53901843 2:1.0856432 3:-0.47127299 4:-0.18175163 5:0.4887684 6:0.98165026 7:0.71850193 8:1.3282545 9:-0.64299924 10:1.0931635 11:-0.38770399 12:-0.2970402 13:-0.58276707 14:-0.39435854 15:0.2715619 
0.5 1:0.53901843 2:1.0856432 3:-0.47127299 4:-0.18175163 5:0.4887684 6:0.98165026 7:0.71850193 8:1.3282545 9:-0.64299924 10:1.0931635 11:-0.38770399 12:-0.2970402 13:-0.58276707 14:-0.39435854 15:0.2715619 
0.5 1:-1.851462 2:1.0856432 3:-0.47127299 4:-0.18175163 5:0.4887684 6:0.98165026 7:0.71850193 8:1.3282545 9:-0.64299924 10:-0.91342505 11:2.5714962 12:-0.2970402 13:-0.58276707 14:-0.39435854 15:0.2715619 
0.5 1:0.53901843 2:-0.91975382 3:-0.47127299 4:-0.18175163 5:0.4887684 6:0.98165026 7:0.71850193 8:1.3282545 9:1.5525118 10:1.0931635 11:-0.38770399 12:-0.2970402 13:-0.58276707 14:-0.39435854 15:0.2715619 
0.5 1:0.53901843 2:-0.91975382 3:2.1169279 4:-0.18175163 5:0.4887684 6:0.98165026 7:0.71850193 8:-0.7516821 9:1.5525118 10:1.0931635 11:-0.38770399 12:-0.2970402 13:1.712721 14:-0.39435854 15:0.2715619 
0.5 1:0.53901843 2:1.0856432 3:-0.47127299 4:-0.18175163 5:0.4887684 6:0.98165026 7:0.71850193 8:1.3282545 9:-0.64299924 10:1.0931635 11:-0.38770399 12:-0.2970402 13:-0.58276707 14:-0.39435854 15:0.2715619 
0.5 1:0.53901843 2:-0.91975382 3:-0.47127299 4:-0.18175163 5:0.4887684 6:0.98165026 7:-1.3895394 8:-0.7516821 9:-0.64299924 10:-0.91342505 11:-0.38770399 12:-0.2970402 13:-0.58276707 14:-0.39435854 15:0.2715619 
0.5 1:0.53901843 2:-0.91975382 3:2.1169279 4:-0.18175163 5:0.4887684 6:0.98165026 7:0.71850193 8:1.3282545 9:1.5525118 10:1.0931635 11:-0.38770399 12:-0.2970402 13:-0.58276707 14:-0.39435854 15:0.2715619 
0.5 1:0.53901843 2:-0.91975382 3:-0.47127299 4:-0.18175163 5:0.4887684 6:0.98165026 7:0.71850193 8:-0.7516821 9:1.5525118 10:1.0931635 11:-0.38770399 12:-0.2970402 13:-0.58276707 14:-0.39435854 15:0.2715619 
0.5 1:0.53901843 2:1.0856432 3:-0.47127299 4:-0.18175163 5:0.4887684 6:0.98165026 7:0.71850193 8:1.3282545 9:1.5525118 10:1.0931635 11:2.5714962 12:-0.2970402 13:-0.58276707 14:-0.39435854 15:0.2715619 
0.5 1:0.53901843 2:1.0856432 3:-0.47127299 4:-0.18175163 5:0.4887684 6:0.98165026 7:0.71850193 8:1.3282545 9:-0.64299924 10:1.0931635 11:-0.38770399 12:-0.2970402 13:-0.58276707 14:-0.39435854 15:0.2715619 
0.5 1:-1.851462 2:-0.91975382 3:2.1169279 4:-0.18175163 5:0.4887684 6:-1.0171984 7:0.71850193 8:1.3282545 9:-0.64299924 10:1.0931635 11:-0.38770399 12:-0.2970402 13:-0.58276707 14:-0.39435854 15:0.2715619 
0.5 1:-1.851462 2:-0.91975382 3:2.1169279 4:-0.18175163 5:0.4887684 6:0.98165026 7:0.71850193 8:1.3282545 9:1.5525118 10:-0.91342505 11:2.5714962 12:3.3513755 13:-0.58276707 14:-0.39435854 15:0.2715619 
0.5 1:0.53901843 2:-0.91975382 3:-0.47127299 4:-0.18175163 5:0.4887684 6:0.98165026 7:0.71850193 8:-0.7516821 9:1.5525118 10:1.0931635 11:-0.38770399 12:-0.2970402 13:-0.58276707 14:-0.39435854 15:0.2715619 
0.04058966927991837 1:0.53901843 2:-0.91975382 3:2.1169279 4:-0.18175163 5:0.4887684 6:0.98165026 7:0.71850193 8:1.3282545 9:-0.64299924 10:1.0931635 11:2.5714962 12:-0.2970402 13:-0.58276707 14:-0.39435854 15:0.2715619 
0.5 1:0.53901843 2:1.0856432 3:-0.47127299 4:-0.18175163 5:0.4887684 6:-1.0171984 7:0.71850193 8:-0.7516821 9:1.5525118 10:1.0931635 11:-0.38770399 12:-0.2970402 13:-0.58276707 14:2.5282817 15:0.2715619 
0.4118544264357163 1:-1.851462 2:-0.91975382 3:-0.47127299 4:-0.18175163 5:0.4887684 6:-1.0171984 7:0.71850193 8:-0.7516821 9:-0.64299924 10:-0.91342505 11:-0.38770399 12:-0.2970402 13:1.712721 14:-0.39435854 15:0.2715619 
0.5 1:0.53901843 2:-0.91975382 3:-0.47127299 4:-0.18175163 5:0.4887684 6:0.98165026 7:-1.3895394 8:-0.7516821 9:-0.64299924 10:-0.91342505 11:-0.38770399 12:-0.2970402 13:-0.58276707 14:2.5282817 15:0.2715619 
0.5 1:0.53901843 2:1.0856432 3:-0.47127299 4:-0.18175163 5:0.4887684 6:0.98165026 7:0.71850193 8:1.3282545 9:1.5525118 10:1.0931635 11:-0.38770399 12:-0.2970402 13:1.712721 14:-0.39435854 15:0.2715619 
0.5 1:0.53901843 2:1.0856432 3:-0.47127299 4:-0.18175163 5:0.4887684 6:0.98165026 7:0.71850193 8:1.3282545 9:1.5525118 10:1.0931635 11:-0.38770399 12:-0.2970402 13:1.712721 14:-0.39435854 15:0.2715619 
0.5 1:0.53901843 2:-0.91975382 3:-0.47127299 4:-0.18175163 5:0.4887684 6:0.98165026 7:-1.3895394 8:-0.7516821 9:-0.64299924 10:-0.91342505 11:-0.38770399 12:-0.2970402 13:-0.58276707 14:-0.39435854 15:0.2715619 
0.5 1:0.53901843 2:1.0856432 3:-0.47127299 4:-0.18175163 5:0.4887684 6:0.98165026 7:0.71850193 8:-0.7516821 9:1.5525118 10:1.0931635 11:-0.38770399 12:-0.2970402 13:1.712721 14:2.5282817 15:0.2715619 
0.5 1:0.53901843 2:1.0856432 3:-0.47127299 4:-0.18175163 5:0.4887684 6:0.98165026 7:0.71850193 8:-0.7516821 9:1.5525118 10:1.0931635 11:-0.38770399 12:3.3513755 13:1.712721 14:-0.39435854 15:0.2715619 
0.5 1:0.53901843 2:-0.91975382 3:-0.47127299 4:-0.18175163 5:0.4887684 6:0.98165026 7:0.71850193 8:-0.7516821 9:1.5525118 10:1.0931635 11:-0.38770399 12:-0.2970402 13:1.712721 14:-0.39435854 15:0.2715619 
0.5 1:0.53901843 2:-0.91975382 3:-0.47127299 4:-0.18175163 5:0.4887684 6:0.98165026 7:0.71850193 8:-0.7516821 9:1.5525118 10:1.0931635 11:-0.38770399 12:3.3513755 13:-0.58276707 14:-0.39435854 15:0.2715619 
0.5 1:0.53901843 2:1.0856432 3:-0.47127299 4:-0.18175163 5:0.4887684 6:0.98165026 7:0.71850193 8:-0.7516821 9:1.5525118 10:1.0931635 11:-0.38770399 12:3.3513755 13:-0.58276707 14:-0.39435854 15:0.2715619 
0.5 1:-1.851462 2:-0.91975382 3:-0.47127299 4:-0.18175163 5:0.4887684 6:-1.0171984 7:0.71850193 8:-0.7516821 9:-0.64299924 10:-0.91342505 11:-0.38770399 12:-0.2970402 13:1.712721 14:-0.39435854 15:0.2715619 
0.5 1:0.53901843 2:-0.91975382 3:-0.47127299 4:-0.18175163 5:0.4887684 6:0.98165026 7:0.71850193 8:1.3282545 9:1.5525118 10:1.0931635 11:-0.38770399 12:-0.2970402 13:-0.58276707 14:2.5282817 15:0.2715619 
0.5 1:0.53901843 2:1.0856432 3:-0.47127299 4:-0.18175163 5:0.4887684 6:0.98165026 7:0.71850193 8:1.3282545 9:-0.64299924 10:1.0931635 11:-0.38770399 12:-0.2970402 13:1.712721 14:-0.39435854 15:0.2715619 
0.5 1:-1.851462 2:-0.91975382 3:-0.47127299 4:-0.18175163 5:0.4887684 6:-1.0171984 7:0.71850193 8:-0.7516821 9:1.5525118 10:1.0931635 11:-0.38770399 12:3.3513755 13:-0.58276707 14:-0.39435854 15:0.2715619 
0.5 1:0.53901843 2:-0.91975382 3:-0.47127299 4:-0.18175163 5:0.4887684 6:0.98165026 7:0.71850193 8:1.3282545 9:1.5525118 10:1.0931635 11:-0.38770399 12:-0.2970402 13:1.712721 14:-0.39435854 15:0.2715619 
0.5 1:0.53901843 2:1.0856432 3:-0.47127299 4:-0.18175163 5:0.4887684 6:-1.0171984 7:0.71850193 8:-0.7516821 9:1.5525118 10:1.0931635 11:-0.38770399 12:-0.2970402 13:-0.58276707 14:-0.39435854 15:0.2715619 
0.5 1:0.53901843 2:-0.91975382 3:-0.47127299 4:-0.18175163 5:0.4887684 6:0.98165026 7:0.71850193 8:-0.7516821 9:1.5525118 10:1.0931635 11:-0.38770399 12:-0.2970402 13:-0.58276707 14:2.5282817 15:0.2715619 
0.5 1:0.53901843 2:-0.91975382 3:2.1169279 4:-0.18175163 5:0.4887684 6:-1.0171984 7:0.71850193 8:-0.7516821 9:1.5525118 10:1.0931635 11:-0.38770399 12:-0.2970402 13:1.712721 14:-0.39435854 15:0.2715619 
0.5 1:-1.851462 2:1.0856432 3:-0.47127299 4:-0.18175163 5:0.4887684 6:-1.0171984 7:0.71850193 8:1.3282545 9:1.5525118 10:-0.91342505 11:2.5714962 12:3.3513755 13:-0.58276707 14:-0.39435854 15:0.2715619 
0.5 1:-1.851462 2:1.0856432 3:2.1169279 4:-0.18175163 5:0.4887684 6:0.98165026 7:0.71850193 8:-0.7516821 9:1.5525118 10:1.0931635 11:-0.38770399 12:-0.2970402 13:-0.58276707 14:-0.39435854 15:0.2715619 
0.5 1:-1.851462 2:-0.91975382 3:-0.47127299 4:-0.18175163 5:0.4887684 6:0.98165026 7:0.71850193 8:-0.7516821 9:1.5525118 10:1.0931635 11:-0.38770399 12:-0.2970402 13:-0.58276707 14:-0.39435854 15:0.2715619 
0.5 1:-1.851462 2:-0.91975382 3:-0.47127299 4:-0.18175163 5:0.4887684 6:-1.0171984 7:0.71850193 8:-0.7516821 9:1.5525118 10:1.0931635 11:-0.38770399 12:-0.2970402 13:-0.58276707 14:2.5282817 15:0.2715619 
0.5 1:0.53901843 2:-0.91975382 3:-0.47127299 4:-0.18175163 5:0.4887684 6:0.98165026 7:0.71850193 8:-0.7516821 9:-0.64299924 10:-0.91342505 11:-0.38770399 12:-0.2970402 13:1.712721 14:-0.39435854 15:0.2715619 
0.1840101764169213 1:0.53901843 2:1.0856432 3:-0.47127299 4:-0.18175163 5:0.4887684 6:-1.0171984 7:0.71850193 8:-0.7516821 9:-0.64299924 10:-0.91342505 11:-0.38770399 12:-0.2970402 13:1.712721 14:-0.39435854 15:0.2715619 
0.5 1:0.53901843 2:1.0856432 3:-0.47127299 4:-0.18175163 5:0.4887684 6:0.98165026 7:0.71850193 8:1.3282545 9:-0.64299924 10:-0.91342505 11:2.5714962 12:3.3513755 13:-0.58276707 14:-0.39435854 15:0.2715619 
0.5 1:0.53901843 2:-0.91975382 3:-0.47127299 4:-0.18175163 5:0.4887684 6:0.98165026 7:0.71850193 8:1.3282545 9:1.5525118 10:1.0931635 11:-0.38770399 12:-0.2970402 13:-0.58276707 14:-0.39435854 15:0.2715619 
0.1649714242874228 1:-1.851462 2:1.0856432 3:-0.47127299 4:-0.18175163 5:0.4887684 6:-1.0171984 7:0.71850193 8:1.3282545 9:-0.64299924 10:1.0931635 11:-0.38770399 12:-0.2970402 13:-0.58276707 14:-0.39435854 15:0.2715619 
0.5 1:0.53901843 2:-0.91975382 3:-0.47127299 4:-0.18175163 5:0.4887684 6:0.98165026 7:0.71850193 8:1.3282545 9:-0.64299924 10:1.0931635 11:-0.38770399 12:-0.2970402 13:1.712721 14:-0.39435854 15:0.2715619 
0.5 1:0.53901843 2:1.0856432 3:-0.47127299 4:-0.18175163 5:0.4887684 6:0.98165026 7:0.71850193 8:-0.7516821 9:1.5525118 10:1.0931635 11:-0.38770399 12:-0.2970402 13:1.712721 14:-0.39435854 15:0.2715619 
0.5 1:0.53901843 2:1.0856432 3:-0.47127299 4:-0.18175163 5:0.4887684 6:-1.0171984 7:0.71850193 8:1.3282545 9:1.5525118 10:1.0931635 11:-0.38770399 12:-0.2970402 13:-0.58276707 14:-0.39435854 15:0.2715619 
0.5 1:0.53901843 2:-0.91975382 3:-0.47127299 4:-0.18175163 5:0.4887684 6:0.98165026 7:0.71850193 8:-0.7516821 9:1.5525118 10:1.0931635 11:-0.38770399 12:-0.2970402 13:-0.58276707 14:-0.39435854 15:0.2715619 
0.1215478072787426 1:0.53901843 2:-0.91975382 3:-0.47127299 4:-0.18175163 5:0.4887684 6:-1.0171984 7:0.71850193 8:-0.7516821 9:-0.64299924 10:-0.91342505 11:-0.38770399 12:-0.2970402 13:1.712721 14:-0.39435854 15:0.2715619 
0.5 1:-1.851462 2:1.0856432 3:2.1169279 4:-0.18175163 5:0.4887684 6:0.98165026 7:0.71850193 8:-0.7516821 9:1.5525118 10:1.0931635 11:-0.38770399 12:-0.2970402 13:1.712721 14:-0.39435854 15:0.2715619 
0.5 1:0.53901843 2:-0.91975382 3:-0.47127299 4:-0.18175163 5:0.4887684 6:-1.0171984 7:0.71850193 8:-0.7516821 9:-0.64299924 10:-0.91342505 11:-0.38770399 12:-0.2970402 13:1.712721 14:-0.39435854 15:0.2715619 
0.0007770023454843687 1:0.53901843 2:1.0856432 3:2.1169279 4:-0.18175163 5:0.4887684 6:0.98165026 7:0.71850193 8:-0.7516821 9:1.5525118 10:1.0931635 11:-0.38770399 12:-0.2970402 13:-0.58276707 14:2.5282817 15:0.2715619 
0.5 1:0.53901843 2:-0.91975382 3:-0.47127299 4:-0.18175163 5:0.4887684 6:-1.0171984 7:0.71850193 8:1.3282545 9:-0.64299924 10:-0.91342505 11:2.5714962 12:-0.2970402 13:-0.58276707 14:-0.39435854 15:0.2715619 
0.5 1:0.53901843 2:1.0856432 3:-0.47127299 4:-0.18175163 5:0.4887684 6:0.98165026 7:-1.3895394 8:-0.7516821 9:-0.64299924 10:-0.91342505 11:-0.38770399 12:-0.2970402 13:-0.58276707 14:-0.39435854 15:0.2715619 
0.5 1:0.53901843 2:-0.91975382 3:-0.47127299 4:-0.18175163 5:0.4887684 6:0.98165026 7:-1.3895394 8:-0.7516821 9:-0.64299924 10:-0.91342505 11:-0.38770399 12:-0.2970402 13:-0.58276707 14:-0.39435854 15:0.2715619 
0.5 1:0.53901843 2:1.0856432 3:-0.47127299 4:-0.18175163 5:0.4887684 6:0.98165026 7:0.71850193 8:-0.7516821 9:1.5525118 10:1.0931635 11:-0.38770399 12:-0.2970402 13:-0.58276707 14:2.5282817 15:0.2715619 
0.2709097464173524 1:-1.851462 2:-0.91975382 3:-0.47127299 4:-0.18175163 5:0.4887684 6:0.98165026 7:0.71850193 8:1.3282545 9:-0.64299924 10:1.0931635 11:-0.38770399 12:-0.2970402 13:-0.58276707 14:-0.39435854 15:0.2715619 
0.5 1:0.53901843 2:-0.91975382 3:-0.47127299 4:-0.18175163 5:0.4887684 6:0.98165026 7:0.71850193 8:-0.7516821 9:1.5525118 10:1.0931635 11:-0.38770399 12:-0.2970402 13:-0.58276707 14:-0.39435854 15:0.2715619 
0.5 1:0.53901843 2:1.0856432 3:-0.47127299 4:-0.18175163 5:0.4887684 6:0.98165026 7:0.71850193 8:1.3282545 9:-0.64299924 10:-0.91342505 11:2.5714962 12:-0.2970402 13:-0.58276707 14:2.5282817 15:0.2715619 
0.2132073343326599 1:0.53901843 2:1.0856432 3:2.1169279 4:-0.18175163 5:0.4887684 6:0.98165026 7:0.71850193 8:-0.7516821 9:1.5525118 10:1.0931635 11:-0.38770399 12:-0.2970402 13:-0.58276707 14:-0.39435854 15:0.2715619 
0.5 1:0.53901843 2:1.0856432 3:-0.47127299 4:-0.18175163 5:0.4887684 6:-1.0171984 7:0.71850193 8:1.3282545 9:-0.64299924 10:-0.91342505 11:2.5714962 12:-0.2970402 13:1.712721 14:-0.39435854 15:0.2715619 
0.5 1:0.53901843 2:-0.91975382 3:-0.47127299 4:-0.18175163 5:0.4887684 6:0.98165026 7:-1.3895394 8:-0.7516821 9:-0.64299924 10:-0.91342505 11:-0.38770399 12:-0.2970402 13:-0.58276707 14:-0.39435854 15:0.2715619 
0.5 1:-1.851462 2:1.0856432 3:2.1169279 4:-0.18175163 5:0.4887684 6:0.98165026 7:0.71850193 8:-0.7516821 9:1.5525118 10:1.0931635 11:-0.38770399 12:-0.2970402 13:-0.58276707 14:-0.39435854 15:0.2715619 
0.5 1:0.53901843 2:-0.91975382 3:-0.47127299 4:-0.18175163 5:0.4887684 6:0.98165026 7:-1.3895394 8:-0.7516821 9:-0.64299924 10:-0.91342505 11:-0.38770399 12:-0.2970402 13:-0.58276707 14:-0.39435854 15:0.2715619 
0.5 1:0.53901843 2:1.0856432 3:-0.47127299 4:-0.18175163 5:0.4887684 6:0.98165026 7:0.71850193 8:-0.7516821 9:1.5525118 10:1.0931635 11:-0.38770399 12:-0.2970402 13:1.712721 14:-0.39435854 15:0.2715619 
0.5 1:0.53901843 2:-0.91975382 3:-0.47127299 4:-0.18175163 5:0.4887684 6:0.98165026 7:0.71850193 8:-0.7516821 9:1.5525118 10:1.0931635 11:-0.38770399 12:-0.2970402 13:-0.58276707 14:-0.39435854 15:0.2715619 
0.5 1:0.53901843 2:-0.91975382 3:-0.47127299 4:-0.18175163 5:0.4887684 6:0.98165026 7:0.71850193 8:1.3282545 9:1.5525118 10:1.0931635 11:-0.38770399 12:3.3513755 13:-0.58276707 14:-0.39435854 15:0.2715619 
0.5 1:0.53901843 2:1.0856432 3:-0.47127299 4:-0.18175163 5:0.4887684 6:0.98165026 7:0.71850193 8:1.3282545 9:-0.64299924 10:1.0931635 11:-0.38770399 12:-0.2970402 13:-0.58276707 14:2.5282817 15:0.2715619 
0.5 1:-1.851462 2:1.0856432 3:-0.47127299 4:-0.18175163 5:0.4887684 6:-1.0171984 7:0.71850193 8:1.3282545 9:1.5525118 10:1.0931635 11:-0.38770399 12:3.3513755 13:-0.58276707 14:-0.39435854 15:0.2715619 
0.5 1:0.53901843 2:-0.91975382 3:-0.47127299 4:-0.18175163 5:0.4887684 6:0.98165026 7:-1.3895394 8:-0.7516821 9:-0.64299924 10:-0.91342505 11:-0.38770399 12:-0.2970402 13:-0.58276707 14:2.5282817 15:0.2715619 
0.5 1:0.53901843 2:-0.91975382 3:-0.47127299 4:-0.18175163 5:0.4887684 6:0.98165026 7:-1.3895394 8:-0.7516821 9:-0.64299924 10:-0.91342505 11:-0.38770399 12:-0.2970402 13:-0.58276707 14:2.5282817 15:0.2715619 
0.5 1:0.53901843 2:-0.91975382 3:-0.47127299 4:-0.18175163 5:0.4887684 6:0.98165026 7:-1.3895394 8:-0.7516821 9:-0.64299924 10:-0.91342505 11:-0.38770399 12:-0.2970402 13:-0.58276707 14:2.5282817 15:0.2715619 
0.5 1:0.53901843 2:1.0856432 3:2.1169279 4:5.4442875 5:0.4887684 6:0.98165026 7:-1.3895394 8:-0.7516821 9:-0.64299924 10:-0.91342505 11:-0.38770399 12:-0.2970402 13:-0.58276707 14:2.5282817 15:0.2715619 
0.4978136937748183 1:0.53901843 2:-0.91975382 3:2.1169279 4:-0.18175163 5:0.4887684 6:-1.0171984 7:0.71850193 8:-0.7516821 9:-0.64299924 10:-0.91342505 11:2.5714962 12:-0.2970402 13:-0.58276707 14:-0.39435854 15:0.2715619 
0.5 1:0.53901843 2:1.0856432 3:-0.47127299 4:5.4442875 5:0.4887684 6:0.98165026 7:0.71850193 8:-0.7516821 9:1.5525118 10:1.0931635 11:-0.38770399 12:-0.2970402 13:1.712721 14:-0.39435854 15:0.2715619 
0.5 1:-1.851462 2:1.0856432 3:-0.47127299 4:-0.18175163 5:0.4887684 6:0.98165026 7:0.71850193 8:1.3282545 9:-0.64299924 10:1.0931635 11:-0.38770399 12:-0.2970402 13:-0.58276707 14:-0.39435854 15:0.2715619 
0.5 1:0.53901843 2:1.0856432 3:-0.47127299 4:-0.18175163 5:0.4887684 6:0.98165026 7:0.71850193 8:1.3282545 9:-0.64299924 10:1.0931635 11:2.5714962 12:-0.2970402 13:1.712721 14:-0.39435854 15:0.2715619 
0.1360165068668837 1:0.53901843 2:1.0856432 3:-0.47127299 4:-0.18175163 5:0.4887684 6:-1.0171984 7:0.71850193 8:1.3282545 9:-0.64299924 10:1.0931635 11:-0.38770399 12:-0.2970402 13:-0.58276707 14:-0.39435854 15:0.2715619 
0.5 1:0.53901843 2:-0.91975382 3:-0.47127299 4:-0.18175163 5:0.4887684 6:-1.0171984 7:0.71850193 8:-0.7516821 9:1.5525118 10:1.0931635 11:-0.38770399 12:-0.2970402 13:-0.58276707 14:2.5282817 15:0.2715619 
0.5 1:-1.851462 2:-0.91975382 3:-0.47127299 4:-0.18175163 5:-2.0413511 6:-1.0171984 7:-1.3895394 8:-0.7516821 9:-0.64299924 10:-0.91342505 11:-0.38770399 12:-0.2970402 13:-0.58276707 14:2.5282817 15:0.2715619 
0.5 1:0.53901843 2:1.0856432 3:-0.47127299 4:-0.18175163 5:0.4887684 6:0.98165026 7:-1.3895394 8:-0.7516821 9:-0.64299924 10:-0.91342505 11:-0.38770399 12:-0.2970402 13:-0.58276707 14:-0.39435854 15:0.2715619 
0.5 1:-1.851462 2:1.0856432 3:-0.47127299 4:-0.18175163 5:0.4887684 6:-1.0171984 7:0.71850193 8:-0.7516821 9:1.5525118 10:1.0931635 11:-0.38770399 12:3.3513755 13:-0.58276707 14:-0.39435854 15:0.2715619 
0.5 1:0.53901843 2:1.0856432 3:-0.47127299 4:-0.18175163 5:0.4887684 6:-1.0171984 7:0.71850193 8:1.3282545 9:-0.64299924 10:-0.91342505 11:2.5714962 12:-0.2970402 13:-0.58276707 14:2.5282817 15:0.2715619 
0.5 1:-1.851462 2:-0.91975382 3:-0.47127299 4:-0.18175163 5:0.4887684 6:-1.0171984 7:0.71850193 8:1.3282545 9:-0.64299924 10:1.0931635 11:-0.38770399 12:-0.2970402 13:-0.58276707 14:2.5282817 15:0.2715619 
0.5 1:-1.851462 2:-0.91975382 3:2.1169279 4:-0.18175163 5:0.4887684 6:0.98165026 7:0.71850193 8:1.3282545 9:1.5525118 10:1.0931635 11:2.5714962 12:-0.2970402 13:1.712721 14:-0.39435854 15:0.2715619 
0.5 1:-1.851462 2:-0.91975382 3:-0.47127299 4:5.4442875 5:-2.0413511 6:-1.0171984 7:-1.3895394 8:-0.7516821 9:-0.64299924 10:-0.91342505 11:-0.38770399 12:-0.2970402 13:-0.58276707 14:-0.39435854 15:-3.6631968 
0.5 1:0.53901843 2:1.0856432 3:-0.47127299 4:5.4442875 5:0.4887684 6:-1.0171984 7:0.71850193 8:1.3282545 9:-0.64299924 10:1.0931635 11:-0.38770399 12:-0.2970402 13:-0.58276707 14:-0.39435854 15:0.2715619 
0.5 1:0.53901843 2:-0.91975382 3:2.1169279 4:-0.18175163 5:0.4887684 6:0.98165026 7:0.71850193 8:1.3282545 9:-0.64299924 10:1.0931635 11:2.5714962 12:-0.2970402 13:-0.58276707 14:-0.39435854 15:0.2715619 
0.5 1:0.53901843 2:1.0856432 3:-0.47127299 4:5.4442875 5:0.4887684 6:0.98165026 7:0.71850193 8:-0.7516821 9:-0.64299924 10:-0.91342505 11:-0.38770399 12:-0.2970402 13:1.712721 14:-0.39435854 15:0.2715619 
0.5 1:0.53901843 2:1.0856432 3:2.1169279 4:-0.18175163 5:0.4887684 6:0.98165026 7:0.71850193 8:-0.7516821 9:-0.64299924 10:-0.91342505 11:2.5714962 12:-0.2970402 13:-0.58276707 14:2.5282817 15:0.2715619 
0.2257817914148149 1:-1.851462 2:-0.91975382 3:2.1169279 4:-0.18175163 5:0.4887684 6:-1.0171984 7:0.71850193 8:-0.7516821 9:1.5525118 10:1.0931635 11:-0.38770399 12:-0.2970402 13:-0.58276707 14:2.5282817 15:0.2715619 
0.5 1:0.53901843 2:1.0856432 3:-0.47127299 4:5.4442875 5:0.4887684 6:0.98165026 7:0.71850193 8:1.3282545 9:1.5525118 10:1.0931635 11:-0.38770399 12:-0.2970402 13:-0.58276707 14:-0.39435854 15:0.2715619 
0.5 1:0.53901843 2:-0.91975382 3:-0.47127299 4:-0.18175163 5:0.4887684 6:0.98165026 7:-1.3895394 8:-0.7516821 9:-0.64299924 10:-0.91342505 11:-0.38770399 12:-0.2970402 13:-0.58276707 14:-0.39435854 15:0.2715619 
0.5 1:0.53901843 2:-0.91975382 3:-0.47127299 4:-0.18175163 5:0.4887684 6:-1.0171984 7:0.71850193 8:1.3282545 9:1.5525118 10:1.0931635 11:-0.38770399 12:3.3513755 13:1.712721 14:-0.39435854 15:0.2715619 
0.5 1:0.53901843 2:1.0856432 3:-0.47127299 4:-0.18175163 5:0.4887684 6:0.98165026 7:0.71850193 8:-0.7516821 9:-0.64299924 10:-0.91342505 11:-0.38770399 12:-0.2970402 13:1.712721 14:-0.39435854 15:0.2715619 
0.5 1:0.53901843 2:1.0856432 3:-0.47127299 4:-0.18175163 5:0.4887684 6:0.98165026 7:-1.3895394 8:-0.7516821 9:-0.64299924 10:-0.91342505 11:-0.38770399 12:-0.2970402 13:-0.58276707 14:2.5282817 15:0.2715619 
0.5 1:0.53901843 2:-0.91975382 3:-0.47127299 4:-0.18175163 5:0.4887684 6:0.98165026 7:0.71850193 8:-0.7516821 9:1.5525118 10:1.0931635 11:-0.38770399 12:-0.2970402 13:1.712721 14:-0.39435854 15:0.2715619 
0.5 1:0.53901843 2:1.0856432 3:-0.47127299 4:-0.18175163 5:0.4887684 6:0.98165026 7:0.71850193 8:1.3282545 9:1.5525118 10:1.0931635 11:-0.38770399 12:-0.2970402 13:1.712721 14:-0.39435854 15:0.2715619 
0.01942197663633433 1:-1.851462 2:1.0856432 3:-0.47127299 4:-0.18175163 5:0.4887684 6:-1.0171984 7:0.71850193 8:1.3282545 9:1.5525118 10:1.0931635 11:-0.38770399 12:-0.2970402 13:-0.58276707 14:-0.39435854 15:0.2715619 
0.5 1:0.53901843 2:1.0856432 3:-0.47127299 4:-0.18175163 5:0.4887684 6:-1.0171984 7:0.71850193 8:-0.7516821 9:1.5525118 10:1.0931635 11:-0.38770399 12:-0.2970402 13:-0.58276707 14:-0.39435854 15:0.2715619 
0.5 1:0.53901843 2:-0.91975382 3:-0.47127299 4:5.4442875 5:0.4887684 6:-1.0171984 7:0.71850193 8:-0.7516821 9:1.5525118 10:1.0931635 11:-0.38770399 12:-0.2970402 13:-0.58276707 14:-0.39435854 15:0.2715619 
0.5 1:0.53901843 2:-0.91975382 3:-0.47127299 4:-0.18175163 5:0.4887684 6:0.98165026 7:0.71850193 8:1.3282545 9:1.5525118 10:1.0931635 11:2.5714962 12:-0.2970402 13:-0.58276707 14:-0.39435854 15:0.2715619 
0.5 1:0.53901843 2:1.0856432 3:-0.47127299 4:-0.18175163 5:0.4887684 6:0.98165026 7:0.71850193 8:1.3282545 9:1.5525118 10:1.0931635 11:2.5714962 12:-0.2970402 13:-0.58276707 14:-0.39435854 15:0.2715619 
0.5 1:-1.851462 2:1.0856432 3:-0.47127299 4:-0.18175163 5:0.4887684 6:0.98165026 7:-1.3895394 8:-0.7516821 9:-0.64299924 10:-0.91342505 11:-0.38770399 12:-0.2970402 13:-0.58276707 14:2.5282817 15:0.2715619 
0.5 1:0.53901843 2:1.0856432 3:2.1169279 4:-0.18175163 5:0.4887684 6:-1.0171984 7:0.71850193 8:-0.7516821 9:1.5525118 10:-0.91342505 11:-0.38770399 12:3.3513755 13:1.712721 14:-0.39435854 15:0.2715619 
0.5 1:-1.851462 2:-0.91975382 3:-0.47127299 4:5.4442875 5:0.4887684 6:-1.0171984 7:0.71850193 8:1.3282545 9:1.5525118 10:1.0931635 11:-0.38770399 12:-0.2970402 13:-0.58276707 14:-0.39435854 15:0.2715619 
0.5 1:-1.851462 2:-0.91975382 3:-0.47127299 4:-0.18175163 5:0.4887684 6:0.98165026 7:0.71850193 8:-0.7516821 9:-0.64299924 10:-0.91342505 11:-0.38770399 12:-0.2970402 13:1.712721 14:-0.39435854 15:0.2715619 
0.5 1:-1.851462 2:-0.91975382 3:2.1169279 4:-0.18175163 5:0.4887684 6:-1.0171984 7:0.71850193 8:1.3282545 9:-0.64299924 10:-0.91342505 11:2.5714962 12:-0.2970402 13:-0.58276707 14:2.5282817 15:0.2715619 
0.5 1:-1.851462 2:-0.91975382 3:2.1169279 4:-0.18175163 5:0.4887684 6:0.98165026 7:0.71850193 8:-0.7516821 9:1.5525118 10:1.0931635 11:-0.38770399 12:-0.2970402 13:1.712721 14:-0.39435854 15:0.2715619 
0.5 1:0.53901843 2:-0.91975382 3:-0.47127299 4:-0.18175163 5:-2.0413511 6:-1.0171984 7:-1.3895394 8:-0.7516821 9:-0.64299924 10:-0.91342505 11:-0.38770399 12:-0.2970402 13:-0.58276707 14:2.5282817 15:0.2715619 
0.5 1:-1.851462 2:1.0856432 3:-0.47127299 4:-0.18175163 5:0.4887684 6:0.98165026 7:0.71850193 8:1.3282545 9:-0.64299924 10:1.0931635 11:-0.38770399 12:-0.2970402 13:-0.58276707 14:-0.39435854 15:0.2715619 
0.5 1:0.53901843 2:1.0856432 3:2.1169279 4:-0.18175163 5:0.4887684 6:0.98165026 7:0.71850193 8:1.3282545 9:-0.64299924 10:1.0931635 11:-0.38770399 12:-0.2970402 13:1.712721 14:-0.39435854 15:0.2715619 
0.5 1:-1.851462 2:1.0856432 3:-0.47127299 4:-0.18175163 5:-2.0413511 6:-1.0171984 7:-1.3895394 8:-0.7516821 9:-0.64299924 10:-0.91342505 11:-0.38770399 12:-0.2970402 13:-0.58276707 14:-0.39435854 15:0.2715619 
0.5 1:0.53901843 2:1.0856432 3:-0.47127299 4:-0.18175163 5:0.4887684 6:0.98165026 7:0.71850193 8:1.3282545 9:1.5525118 10:1.0931635 11:-0.38770399 12:-0.2970402 13:1.712721 14:-0.39435854 15:0.2715619 
0.5 1:0.53901843 2:-0.91975382 3:-0.47127299 4:-0.18175163 5:0.4887684 6:-1.0171984 7:0.71850193 8:-0.7516821 9:-0.64299924 10:-0.91342505 11:-0.38770399 12:-0.2970402 13:1.712721 14:-0.39435854 15:0.2715619 
0.3649317822511061 1:0.53901843 2:1.0856432 3:-0.47127299 4:-0.18175163 5:0.4887684 6:0.98165026 7:0.71850193 8:-0.7516821 9:1.5525118 10:1.0931635 11:-0.38770399 12:-0.2970402 13:-0.58276707 14:-0.39435854 15:0.2715619 
0.5 1:0.53901843 2:1.0856432 3:-0.47127299 4:-0.18175163 5:0.4887684 6:0.98165026 7:0.71850193 8:-0.7516821 9:1.5525118 10:1.0931635 11:-0.38770399 12:-0.2970402 13:1.712721 14:-0.39435854 15:0.2715619 
0.5 1:0.53901843 2:1.0856432 3:2.1169279 4:-0.18175163 5:0.4887684 6:-1.0171984 7:0.71850193 8:1.3282545 9:-0.64299924 10:1.0931635 11:2.5714962 12:-0.2970402 13:-0.58276707 14:2.5282817 15:0.2715619 
0.5 1:-1.851462 2:-0.91975382 3:2.1169279 4:-0.18175163 5:0.4887684 6:-1.0171984 7:0.71850193 8:-0.7516821 9:1.5525118 10:1.0931635 11:-0.38770399 12:-0.2970402 13:-0.58276707 14:2.5282817 15:0.2715619 
0.5 1:-1.851462 2:1.0856432 3:-0.47127299 4:-0.18175163 5:0.4887684 6:0.98165026 7:0.71850193 8:-0.7516821 9:-0.64299924 10:-0.91342505 11:-0.38770399 12:-0.2970402 13:1.712721 14:-0.39435854 15:0.2715619 
0.2911773851709219 1:-1.851462 2:1.0856432 3:2.1169279 4:-0.18175163 5:0.4887684 6:0.98165026 7:-1.3895394 8:-0.7516821 9:-0.64299924 10:-0.91342505 11:-0.38770399 12:-0.2970402 13:-0.58276707 14:2.5282817 15:0.2715619 
0.5 1:-1.851462 2:1.0856432 3:-0.47127299 4:-0.18175163 5:0.4887684 6:-1.0171984 7:0.71850193 8:1.3282545 9:-0.64299924 10:1.0931635 11:-0.38770399 12:-0.2970402 13:-0.58276707 14:-0.39435854 15:0.2715619 
0.5 1:0.53901843 2:1.0856432 3:-0.47127299 4:-0.18175163 5:0.4887684 6:-1.0171984 7:0.71850193 8:-0.7516821 9:1.5525118 10:1.0931635 11:-0.38770399 12:-0.2970402 13:-0.58276707 14:-0.39435854 15:0.2715619 
0.5 1:0.53901843 2:-0.91975382 3:-0.47127299 4:-0.18175163 5:0.4887684 6:-1.0171984 7:0.71850193 8:-0.7516821 9:-0.64299924 10:-0.91342505 11:-0.38770399 12:-0.2970402 13:1.712721 14:-0.39435854 15:0.2715619 
0.5 1:0.53901843 2:-0.91975382 3:-0.47127299 4:-0.18175163 5:0.4887684 6:0.98165026 7:0.71850193 8:-0.7516821 9:1.5525118 10:1.0931635 11:-0.38770399 12:-0.2970402 13:-0.58276707 14:-0.39435854 15:0.2715619 
0.5 1:0.53901843 2:-0.91975382 3:-0.47127299 4:-0.18175163 5:0.4887684 6:0.98165026 7:0.71850193 8:-0.7516821 9:1.5525118 10:1.0931635 11:-0.38770399 12:-0.2970402 13:-0.58276707 14:-0.39435854 15:0.2715619 
0.5 1:0.53901843 2:1.0856432 3:-0.47127299 4:-0.18175163 5:0.4887684 6:0.98165026 7:0.71850193 8:1.3282545 9:-0.64299924 10:1.0931635 11:-0.38770399 12:-0.2970402 13:-0.58276707 14:-0.39435854 15:0.2715619 
0.5 1:0.53901843 2:-0.91975382 3:2.1169279 4:-0.18175163 5:0.4887684 6:0.98165026 7:0.71850193 8:-0.7516821 9:1.5525118 10:1.0931635 11:-0.38770399 12:-0.2970402 13:1.712721 14:-0.39435854 15:0.2715619 
0.5 1:0.53901843 2:-0.91975382 3:-0.47127299 4:-0.18175163 5:0.4887684 6:-1.0171984 7:0.71850193 8:-0.7516821 9:-0.64299924 10:-0.91342505 11:-0.38770399 12:-0.2970402 13:1.712721 14:-0.39435854 15:0.2715619 
0.5 1:0.53901843 2:-0.91975382 3:-0.47127299 4:-0.18175163 5:0.4887684 6:0.98165026 7:0.71850193 8:-0.7516821 9:-0.64299924 10:-0.91342505 11:-0.38770399 12:-0.2970402 13:1.712721 14:-0.39435854 15:0.2715619 
0.5 1:0.53901843 2:-0.91975382 3:-0.47127299 4:-0.18175163 5:0.4887684 6:-1.0171984 7:0.71850193 8:-0.7516821 9:1.5525118 10:1.0931635 11:-0.38770399 12:-0.2970402 13:1.712721 14:-0.39435854 15:0.2715619 
0.224511242739816 1:0.53901843 2:-0.91975382 3:-0.47127299 4:-0.18175163 5:0.4887684 6:-1.0171984 7:0.71850193 8:-0.7516821 9:1.5525118 10:1.0931635 11:-0.38770399 12:-0.2970402 13:-0.58276707 14:-0.39435854 15:0.2715619 
0.5 1:0.53901843 2:-0.91975382 3:-0.47127299 4:-0.18175163 5:0.4887684 6:-1.0171984 7:0.71850193 8:1.3282545 9:-0.64299924 10:-0.91342505 11:2.5714962 12:-0.2970402 13:-0.58276707 14:-0.39435854 15:0.2715619 
0.5 1:0.53901843 2:-0.91975382 3:-0.47127299 4:-0.18175163 5:0.4887684 6:-1.0171984 7:0.71850193 8:1.3282545 9:-0.64299924 10:-0.91342505 11:2.5714962 12:-0.2970402 13:1.712721 14:2.5282817 15:0.2715619 
0.5 1:0.53901843 2:-0.91975382 3:-0.47127299 4:-0.18175163 5:0.4887684 6:-1.0171984 7:0.71850193 8:-0.7516821 9:1.5525118 10:1.0931635 11:-0.38770399 12:-0.2970402 13:-0.58276707 14:-0.39435854 15:0.2715619 
0.5 1:0.53901843 2:1.0856432 3:2.1169279 4:-0.18175163 5:-2.0413511 6:-1.0171984 7:-1.3895394 8:-0.7516821 9:-0.64299924 10:-0.91342505 11:-0.38770399 12:-0.2970402 13:-0.58276707 14:2.5282817 15:0.2715619 
0.5 1:0.53901843 2:-0.91975382 3:-0.47127299 4:-0.18175163 5:0.4887684 6:-1.0171984 7:0.71850193 8:1.3282545 9:-0.64299924 10:1.0931635 11:-0.38770399 12:-0.2970402 13:1.712721 14:-0.39435854 15:0.2715619 
0.5 1:0.53901843 2:1.0856432 3:-0.47127299 4:-0.18175163 5:0.4887684 6:0.98165026 7:0.71850193 8:1.3282545 9:-0.64299924 10:1.0931635 11:-0.38770399 12:-0.2970402 13:-0.58276707 14:-0.39435854 15:0.2715619 
0.2254759807804878 1:-1.851462 2:1.0856432 3:-0.47127299 4:-0.18175163 5:0.4887684 6:0.98165026 7:-1.3895394 8:-0.7516821 9:-0.64299924 10:-0.91342505 11:-0.38770399 12:-0.2970402 13:-0.58276707 14:-0.39435854 15:0.2715619 
0.5 1:0.53901843 2:1.0856432 3:-0.47127299 4:-0.18175163 5:0.4887684 6:0.98165026 7:0.71850193 8:-0.7516821 9:-0.64299924 10:-0.91342505 11:-0.38770399 12:-0.2970402 13:1.712721 14:-0.39435854 15:0.2715619 
0.5 1:0.53901843 2:-0.91975382 3:-0.47127299 4:-0.18175163 5:0.4887684 6:0.98165026 7:-1.3895394 8:-0.7516821 9:-0.64299924 10:-0.91342505 11:-0.38770399 12:-0.2970402 13:-0.58276707 14:-0.39435854 15:0.2715619 
0.5 1:-1.851462 2:-0.91975382 3:2.1169279 4:-0.18175163 5:0.4887684 6:-1.0171984 7:0.71850193 8:1.3282545 9:-0.64299924 10:-0.91342505 11:2.5714962 12:-0.2970402 13:-0.58276707 14:2.5282817 15:0.2715619 
0.5 1:0.53901843 2:-0.91975382 3:2.1169279 4:-0.18175163 5:0.4887684 6:0.98165026 7:0.71850193 8:1.3282545 9:-0.64299924 10:1.0931635 11:2.5714962 12:-0.2970402 13:-0.58276707 14:-0.39435854 15:0.2715619 
0.5 1:0.53901843 2:1.0856432 3:2.1169279 4:-0.18175163 5:0.4887684 6:0.98165026 7:0.71850193 8:-0.7516821 9:1.5525118 10:1.0931635 11:-0.38770399 12:-0.2970402 13:-0.58276707 14:-0.39435854 15:0.2715619 
0.5 1:0.53901843 2:-0.91975382 3:-0.47127299 4:-0.18175163 5:0.4887684 6:-1.0171984 7:0.71850193 8:1.3282545 9:-0.64299924 10:-0.91342505 11:2.5714962 12:-0.2970402 13:-0.58276707 14:-0.39435854 15:0.2715619 
0.5 1:0.53901843 2:1.0856432 3:-0.47127299 4:-0.18175163 5:0.4887684 6:-1.0171984 7:0.71850193 8:-0.7516821 9:-0.64299924 10:-0.91342505 11:-0.38770399 12:-0.2970402 13:1.712721 14:-0.39435854 15:0.2715619 
0.5 1:-1.851462 2:1.0856432 3:-0.47127299 4:-0.18175163 5:-2.0413511 6:-1.0171984 7:-1.3895394 8:-0.7516821 9:-0.64299924 10:-0.91342505 11:-0.38770399 12:-0.2970402 13:-0.58276707 14:-0.39435854 15:0.2715619 
0.5 1:0.53901843 2:1.0856432 3:-0.47127299 4:-0.18175163 5:0.4887684 6:0.98165026 7:-1.3895394 8:-0.7516821 9:-0.64299924 10:-0.91342505 11:-0.38770399 12:-0.2970402 13:-0.58276707 14:-0.39435854 15:0.2715619 
0.5 1:0.53901843 2:-0.91975382 3:-0.47127299 4:-0.18175163 5:0.4887684 6:0.98165026 7:-1.3895394 8:-0.7516821 9:-0.64299924 10:-0.91342505 11:-0.38770399 12:-0.2970402 13:-0.58276707 14:-0.39435854 15:0.2715619 
0.5 1:-1.851462 2:1.0856432 3:-0.47127299 4:-0.18175163 5:0.4887684 6:0.98165026 7:0.71850193 8:1.3282545 9:-0.64299924 10:1.0931635 11:-0.38770399 12:-0.2970402 13:-0.58276707 14:-0.39435854 15:0.2715619 
0.5 1:0.53901843 2:-0.91975382 3:-0.47127299 4:-0.18175163 5:0.4887684 6:-1.0171984 7:0.71850193 8:1.3282545 9:-0.64299924 10:-0.91342505 11:2.5714962 12:-0.2970402 13:-0.58276707 14:-0.39435854 15:0.2715619 
0.5 1:0.53901843 2:-0.91975382 3:-0.47127299 4:-0.18175163 5:0.4887684 6:0.98165026 7:-1.3895394 8:-0.7516821 9:-0.64299924 10:-0.91342505 11:-0.38770399 12:-0.2970402 13:-0.58276707 14:-0.39435854 15:0.2715619 
0.4174302368397056 1:0.53901843 2:-0.91975382 3:2.1169279 4:-0.18175163 5:0.4887684 6:0.98165026 7:0.71850193 8:1.3282545 9:-0.64299924 10:1.0931635 11:-0.38770399 12:-0.2970402 13:1.712721 14:-0.39435854 15:0.2715619 
0.5 1:-1.851462 2:1.0856432 3:-0.47127299 4:-0.18175163 5:0.4887684 6:0.98165026 7:-1.3895394 8:-0.7516821 9:-0.64299924 10:-0.91342505 11:-0.38770399 12:-0.2970402 13:-0.58276707 14:-0.39435854 15:0.2715619 
0.5 1:0.53901843 2:1.0856432 3:-0.47127299 4:-0.18175163 5:0.4887684 6:0.98165026 7:0.71850193 8:1.3282545 9:-0.64299924 10:1.0931635 11:-0.38770399 12:-0.2970402 13:-0.58276707 14:-0.39435854 15:0.2715619 
0.5 1:-1.851462 2:1.0856432 3:-0.47127299 4:-0.18175163 5:0.4887684 6:-1.0171984 7:0.71850193 8:1.3282545 9:1.5525118 10:1.0931635 11:-0.38770399 12:3.3513755 13:-0.58276707 14:-0.39435854 15:0.2715619 
0.5 1:0.53901843 2:1.0856432 3:-0.47127299 4:-0.18175163 5:0.4887684 6:0.98165026 7:0.71850193 8:-0.7516821 9:1.5525118 10:1.0931635 11:-0.38770399 12:-0.2970402 13:1.712721 14:-0.39435854 15:0.2715619 
0.5 1:0.53901843 2:-0.91975382 3:-0.47127299 4:-0.18175163 5:0.4887684 6:-1.0171984 7:0.71850193 8:1.3282545 9:-0.64299924 10:1.0931635 11:-0.38770399 12:-0.2970402 13:1.712721 14:-0.39435854 15:0.2715619 
0.5 1:0.53901843 2:-0.91975382 3:-0.47127299 4:-0.18175163 5:0.4887684 6:0.98165026 7:-1.3895394 8:-0.7516821 9:-0.64299924 10:-0.91342505 11:-0.38770399 12:-0.2970402 13:-0.58276707 14:-0.39435854 15:0.2715619 
0.5 1:0.53901843 2:-0.91975382 3:-0.47127299 4:-0.18175163 5:-2.0413511 6:-1.0171984 7:-1.3895394 8:-0.7516821 9:-0.64299924 10:-0.91342505 11:-0.38770399 12:-0.2970402 13:-0.58276707 14:2.5282817 15:0.2715619 
0.5 1:0.53901843 2:1.0856432 3:-0.47127299 4:-0.18175163 5:0.4887684 6:0.98165026 7:-1.3895394 8:-0.7516821 9:-0.64299924 10:-0.91342505 11:-0.38770399 12:-0.2970402 13:-0.58276707 14:-0.39435854 15:0.2715619 
0.5 1:0.53901843 2:1.0856432 3:-0.47127299 4:-0.18175163 5:0.4887684 6:-1.0171984 7:0.71850193 8:1.3282545 9:-0.64299924 10:1.0931635 11:2.5714962 12:-0.2970402 13:1.712721 14:-0.39435854 15:0.2715619 
0.5 1:0.53901843 2:1.0856432 3:-0.47127299 4:-0.18175163 5:0.4887684 6:0.98165026 7:0.71850193 8:-0.7516821 9:-0.64299924 10:-0.91342505 11:-0.38770399 12:-0.2970402 13:1.712721 14:-0.39435854 15:0.2715619 
0.2517023930958411 1:0.53901843 2:1.0856432 3:-0.47127299 4:-0.18175163 5:0.4887684 6:0.98165026 7:0.71850193 8:1.3282545 9:-0.64299924 10:1.0931635 11:2.5714962 12:-0.2970402 13:-0.58276707 14:-0.39435854 15:0.2715619 
0.5 1:0.53901843 2:1.0856432 3:-0.47127299 4:-0.18175163 5:0.4887684 6:0.98165026 7:0.71850193 8:1.3282545 9:-0.64299924 10:1.0931635 11:-0.38770399 12:-0.2970402 13:-0.58276707 14:-0.39435854 15:0.2715619 
0.5 1:0.53901843 2:-0.91975382 3:-0.47127299 4:-0.18175163 5:0.4887684 6:0.98165026 7:0.71850193 8:-0.7516821 9:1.5525118 10:1.0931635 11:-0.38770399 12:-0.2970402 13:-0.58276707 14:-0.39435854 15:0.2715619 
0.5 1:0.53901843 2:1.0856432 3:2.1169279 4:-0.18175163 5:0.4887684 6:-1.0171984 7:0.71850193 8:-0.7516821 9:1.5525118 10:1.0931635 11:-0.38770399 12:-0.2970402 13:-0.58276707 14:2.5282817 15:0.2715619 
0.1830100895636984 1:-1.851462 2:-0.91975382 3:-0.47127299 4:-0.18175163 5:0.4887684 6:-1.0171984 7:0.71850193 8:-0.7516821 9:1.5525118 10:-0.91342505 11:-0.38770399 12:3.3513755 13:-0.58276707 14:-0.39435854 15:0.2715619 
0.5 1:0.53901843 2:1.0856432 3:-0.47127299 4:-0.18175163 5:0.4887684 6:0.98165026 7:0.71850193 8:-0.7516821 9:1.5525118 10:1.0931635 11:-0.38770399 12:-0.2970402 13:-0.58276707 14:-0.39435854 15:0.2715619 
0.5 1:-1.851462 2:1.0856432 3:-0.47127299 4:-0.18175163 5:-2.0413511 6:-1.0171984 7:-1.3895394 8:-0.7516821 9:-0.64299924 10:-0.91342505 11:-0.38770399 12:-0.2970402 13:-0.58276707 14:-0.39435854 15:0.2715619 
0.5 1:0.53901843 2:1.0856432 3:-0.47127299 4:-0.18175163 5:0.4887684 6:0.98165026 7:0.71850193 8:1.3282545 9:-0.64299924 10:1.0931635 11:-0.38770399 12:-0.2970402 13:-0.58276707 14:-0.39435854 15:0.2715619 
0.5 1:-1.851462 2:1.0856432 3:-0.47127299 4:-0.18175163 5:0.4887684 6:0.98165026 7:0.71850193 8:1.3282545 9:-0.64299924 10:1.0931635 11:-0.38770399 12:-0.2970402 13:1.712721 14:-0.39435854 15:0.2715619 
0.5 1:0.53901843 2:1.0856432 3:2.1169279 4:-0.18175163 5:0.4887684 6:0.98165026 7:0.71850193 8:-0.7516821 9:1.5525118 10:1.0931635 11:-0.38770399 12:3.3513755 13:1.712721 14:-0.39435854 15:0.2715619 
0.5 1:-1.851462 2:1.0856432 3:-0.47127299 4:-0.18175163 5:0.4887684 6:0.98165026 7:0.71850193 8:-0.7516821 9:1.5525118 10:1.0931635 11:-0.38770399 12:-0.2970402 13:1.712721 14:-0.39435854 15:0.2715619 
0.5 1:-1.851462 2:1.0856432 3:-0.47127299 4:-0.18175163 5:0.4887684 6:-1.0171984 7:0.71850193 8:-0.7516821 9:-0.64299924 10:-0.91342505 11:-0.38770399 12:-0.2970402 13:1.712721 14:2.5282817 15:0.2715619 
0.5 1:0.53901843 2:1.0856432 3:-0.47127299 4:-0.18175163 5:0.4887684 6:-1.0171984 7:0.71850193 8:-0.7516821 9:1.5525118 10:1.0931635 11:-0.38770399 12:-0.2970402 13:1.712721 14:-0.39435854 15:0.2715619 
0.5 1:-1.851462 2:1.0856432 3:-0.47127299 4:-0.18175163 5:0.4887684 6:-1.0171984 7:0.71850193 8:1.3282545 9:1.5525118 10:1.0931635 11:-0.38770399 12:-0.2970402 13:-0.58276707 14:-0.39435854 15:0.2715619 
0.5 1:0.53901843 2:1.0856432 3:-0.47127299 4:-0.18175163 5:0.4887684 6:0.98165026 7:0.71850193 8:1.3282545 9:-0.64299924 10:-0.91342505 11:2.5714962 12:-0.2970402 13:-0.58276707 14:-0.39435854 15:0.2715619 
0.5 1:0.53901843 2:-0.91975382 3:-0.47127299 4:-0.18175163 5:0.4887684 6:0.98165026 7:-1.3895394 8:-0.7516821 9:-0.64299924 10:-0.91342505 11:-0.38770399 12:-0.2970402 13:-0.58276707 14:-0.39435854 15:0.2715619 
0.5 1:0.53901843 2:1.0856432 3:-0.47127299 4:-0.18175163 5:0.4887684 6:0.98165026 7:0.71850193 8:1.3282545 9:-0.64299924 10:1.0931635 11:2.5714962 12:-0.2970402 13:1.712721 14:-0.39435854 15:0.2715619 
0.5 1:0.53901843 2:1.0856432 3:-0.47127299 4:-0.18175163 5:0.4887684 6:-1.0171984 7:0.71850193 8:-0.7516821 9:1.5525118 10:-0.91342505 11:2.5714962 12:3.3513755 13:-0.58276707 14:-0.39435854 15:0.2715619 
0.5 1:0.53901843 2:1.0856432 3:-0.47127299 4:-0.18175163 5:0.4887684 6:0.98165026 7:0.71850193 8:1.3282545 9:-0.64299924 10:1.0931635 11:-0.38770399 12:-0.2970402 13:1.712721 14:-0.39435854 15:0.2715619 
0.5 1:0.53901843 2:-0.91975382 3:2.1169279 4:-0.18175163 5:0.4887684 6:0.98165026 7:0.71850193 8:1.3282545 9:1.5525118 10:1.0931635 11:2.5714962 12:-0.2970402 13:-0.58276707 14:-0.39435854 15:0.2715619 
0.5 1:0.53901843 2:1.0856432 3:-0.47127299 4:-0.18175163 5:0.4887684 6:0.98165026 7:0.71850193 8:1.3282545 9:1.5525118 10:1.0931635 11:-0.38770399 12:-0.2970402 13:1.712721 14:-0.39435854 15:0.2715619 
0.5 1:0.53901843 2:-0.91975382 3:-0.47127299 4:5.4442875 5:0.4887684 6:-1.0171984 7:0.71850193 8:1.3282545 9:1.5525118 10:1.0931635 11:-0.38770399 12:-0.2970402 13:-0.58276707 14:-0.39435854 15:0.2715619 
0.5 1:0.53901843 2:-0.91975382 3:-0.47127299 4:-0.18175163 5:0.4887684 6:0.98165026 7:-1.3895394 8:-0.7516821 9:-0.64299924 10:-0.91342505 11:-0.38770399 12:-0.2970402 13:-0.58276707 14:-0.39435854 15:0.2715619 
0.5 1:-1.851462 2:-0.91975382 3:2.1169279 4:-0.18175163 5:0.4887684 6:-1.0171984 7:0.71850193 8:1.3282545 9:1.5525118 10:1.0931635 11:2.5714962 12:3.3513755 13:-0.58276707 14:-0.39435854 15:0.2715619 
0.5 1:0.53901843 2:-0.91975382 3:-0.47127299 4:-0.18175163 5:0.4887684 6:0.98165026 7:-1.3895394 8:-0.7516821 9:-0.64299924 10:-0.91342505 11:-0.38770399 12:-0.2970402 13:-0.58276707 14:-0.39435854 15:0.2715619 
0.5 1:-1.851462 2:-0.91975382 3:-0.47127299 4:-0.18175163 5:0.4887684 6:0.98165026 7:0.71850193 8:1.3282545 9:-0.64299924 10:-0.91342505 11:2.5714962 12:-0.2970402 13:-0.58276707 14:-0.39435854 15:0.2715619 
0.1152439041307914 1:-1.851462 2:1.0856432 3:2.1169279 4:-0.18175163 5:-2.0413511 6:-1.0171984 7:-1.3895394 8:-0.7516821 9:-0.64299924 10:-0.91342505 11:-0.38770399 12:-0.2970402 13:-0.58276707 14:-0.39435854 15:-3.6631968 
0.5 1:0.53901843 2:1.0856432 3:-0.47127299 4:-0.18175163 5:0.4887684 6:0.98165026 7:0.71850193 8:-0.7516821 9:-0.64299924 10:-0.91342505 11:-0.38770399 12:-0.2970402 13:1.712721 14:-0.39435854 15:0.2715619 
0.5 1:0.53901843 2:-0.91975382 3:-0.47127299 4:-0.18175163 5:0.4887684 6:0.98165026 7:0.71850193 8:1.3282545 9:-0.64299924 10:1.0931635 11:-0.38770399 12:-0.2970402 13:1.712721 14:-0.39435854 15:0.2715619 
0.5 1:0.53901843 2:-0.91975382 3:-0.47127299 4:-0.18175163 5:0.4887684 6:0.98165026 7:0.71850193 8:-0.7516821 9:-0.64299924 10:-0.91342505 11:-0.38770399 12:-0.2970402 13:1.712721 14:-0.39435854 15:0.2715619 
0.5 1:-1.851462 2:-0.91975382 3:2.1169279 4:-0.18175163 5:0.4887684 6:0.98165026 7:0.71850193 8:1.3282545 9:-0.64299924 10:-0.91342505 11:2.5714962 12:-0.2970402 13:1.712721 14:-0.39435854 15:0.2715619 
0.5 1:0.53901843 2:1.0856432 3:2.1169279 4:-0.18175163 5:0.4887684 6:0.98165026 7:0.71850193 8:1.3282545 9:-0.64299924 10:-0.91342505 11:2.5714962 12:-0.2970402 13:1.712721 14:-0.39435854 15:0.2715619 
0.5 1:-1.851462 2:-0.91975382 3:-0.47127299 4:-0.18175163 5:0.4887684 6:-1.0171984 7:0.71850193 8:1.3282545 9:-0.64299924 10:-0.91342505 11:2.5714962 12:-0.2970402 13:-0.58276707 14:-0.39435854 15:0.2715619 
0.5 1:-1.851462 2:1.0856432 3:-0.47127299 4:-0.18175163 5:0.4887684 6:0.98165026 7:0.71850193 8:1.3282545 9:-0.64299924 10:1.0931635 11:-0.38770399 12:-0.2970402 13:1.712721 14:-0.39435854 15:0.2715619 
0.5 1:0.53901843 2:1.0856432 3:-0.47127299 4:-0.18175163 5:0.4887684 6:-1.0171984 7:0.71850193 8:1.3282545 9:1.5525118 10:1.0931635 11:-0.38770399 12:-0.2970402 13:-0.58276707 14:-0.39435854 15:0.2715619 
0.5 1:0.53901843 2:1.0856432 3:-0.47127299 4:-0.18175163 5:0.4887684 6:0.98165026 7:-1.3895394 8:-0.7516821 9:-0.64299924 10:-0.91342505 11:-0.38770399 12:-0.2970402 13:-0.58276707 14:-0.39435854 15:0.2715619 
0.5 1:0.53901843 2:1.0856432 3:-0.47127299 4:-0.18175163 5:0.4887684 6:0.98165026 7:0.71850193 8:-0.7516821 9:-0.64299924 10:-0.91342505 11:-0.38770399 12:-0.2970402 13:1.712721 14:-0.39435854 15:0.2715619 
0.5 1:-1.851462 2:-0.91975382 3:2.1169279 4:-0.18175163 5:0.4887684 6:-1.0171984 7:0.71850193 8:1.3282545 9:1.5525118 10:-0.91342505 11:2.5714962 12:3.3513755 13:1.712721 14:-0.39435854 15:0.2715619 
0.5 1:0.53901843 2:-0.91975382 3:-0.47127299 4:-0.18175163 5:0.4887684 6:0.98165026 7:0.71850193 8:-0.7516821 9:-0.64299924 10:-0.91342505 11:-0.38770399 12:-0.2970402 13:1.712721 14:-0.39435854 15:0.2715619 
0.5 1:0.53901843 2:1.0856432 3:-0.47127299 4:-0.18175163 5:0.4887684 6:0.98165026 7:0.71850193 8:1.3282545 9:-0.64299924 10:-0.91342505 11:2.5714962 12:-0.2970402 13:1.712721 14:-0.39435854 15:0.2715619 
0.5 1:0.53901843 2:1.0856432 3:-0.47127299 4:-0.18175163 5:0.4887684 6:0.98165026 7:0.71850193 8:1.3282545 9:1.5525118 10:1.0931635 11:-0.38770399 12:-0.2970402 13:-0.58276707 14:-0.39435854 15:0.2715619 
0.4563088196372213 1:0.53901843 2:1.0856432 3:2.1169279 4:-0.18175163 5:0.4887684 6:-1.0171984 7:0.71850193 8:1.3282545 9:-0.64299924 10:-0.91342505 11:2.5714962 12:-0.2970402 13:-0.58276707 14:-0.39435854 15:0.2715619 
0.5 1:-1.851462 2:-0.91975382 3:-0.47127299 4:-0.18175163 5:0.4887684 6:0.98165026 7:0.71850193 8:1.3282545 9:-0.64299924 10:-0.91342505 11:2.5714962 12:-0.2970402 13:-0.58276707 14:-0.39435854 15:0.2715619 
0.5 1:0.53901843 2:1.0856432 3:-0.47127299 4:-0.18175163 5:0.4887684 6:0.98165026 7:0.71850193 8:-0.7516821 9:1.5525118 10:1.0931635 11:-0.38770399 12:-0.2970402 13:1.712721 14:-0.39435854 15:0.2715619 
0.5 1:0.53901843 2:-0.91975382 3:-0.47127299 4:-0.18175163 5:0.4887684 6:-1.0171984 7:0.71850193 8:-0.7516821 9:1.5525118 10:-0.91342505 11:-0.38770399 12:3.3513755 13:-0.58276707 14:-0.39435854 15:0.2715619 
0.5 1:-1.851462 2:1.0856432 3:-0.47127299 4:-0.18175163 5:0.4887684 6:-1.0171984 7:0.71850193 8:1.3282545 9:-0.64299924 10:-0.91342505 11:2.5714962 12:-0.2970402 13:-0.58276707 14:2.5282817 15:0.2715619 
0.07391042041810644 1:-1.851462 2:1.0856432 3:2.1169279 4:-0.18175163 5:0.4887684 6:0.98165026 7:0.71850193 8:1.3282545 9:-0.64299924 10:1.0931635 11:-0.38770399 12:-0.2970402 13:-0.58276707 14:-0.39435854 15:0.2715619 
0.5 1:-1.851462 2:1.0856432 3:-0.47127299 4:-0.18175163 5:0.4887684 6:-1.0171984 7:0.71850193 8:1.3282545 9:-0.64299924 10:1.0931635 11:-0.38770399 12:-0.2970402 13:-0.58276707 14:-0.39435854 15:0.2715619 
0.5 1:-1.851462 2:-0.91975382 3:2.1169279 4:-0.18175163 5:0.4887684 6:-1.0171984 7:0.71850193 8:1.3282545 9:-0.64299924 10:1.0931635 11:-0.38770399 12:-0.2970402 13:-0.58276707 14:-0.39435854 15:0.2715619 
0.5 1:0.53901843 2:1.0856432 3:2.1169279 4:-0.18175163 5:0.4887684 6:-1.0171984 7:0.71850193 8:1.3282545 9:-0.64299924 10:1.0931635 11:2.5714962 12:-0.2970402 13:-0.58276707 14:-0.39435854 15:0.2715619 
0.5 1:0.53901843 2:1.0856432 3:2.1169279 4:-0.18175163 5:0.4887684 6:-1.0171984 7:0.71850193 8:1.3282545 9:-0.64299924 10:-0.91342505 11:2.5714962 12:-0.2970402 13:-0.58276707 14:-0.39435854 15:0.2715619 
0.5 1:0.53901843 2:-0.91975382 3:-0.47127299 4:-0.18175163 5:0.4887684 6:0.98165026 7:0.71850193 8:1.3282545 9:-0.64299924 10:1.0931635 11:-0.38770399 12:-0.2970402 13:1.712721 14:-0.39435854 15:0.2715619 
0.5 1:0.53901843 2:1.0856432 3:-0.47127299 4:-0.18175163 5:0.4887684 6:0.98165026 7:0.71850193 8:1.3282545 9:-0.64299924 10:-0.91342505 11:2.5714962 12:-0.2970402 13:-0.58276707 14:-0.39435854 15:0.2715619 
0.5 1:0.53901843 2:1.0856432 3:-0.47127299 4:-0.18175163 5:0.4887684 6:0.98165026 7:0.71850193 8:1.3282545 9:-0.64299924 10:1.0931635 11:-0.38770399 12:-0.2970402 13:-0.58276707 14:-0.39435854 15:0.2715619 
0.5 1:0.53901843 2:1.0856432 3:-0.47127299 4:-0.18175163 5:0.4887684 6:-1.0171984 7:0.71850193 8:1.3282545 9:-0.64299924 10:1.0931635 11:-0.38770399 12:-0.2970402 13:1.712721 14:-0.39435854 15:0.2715619 
0.5 1:0.53901843 2:1.0856432 3:-0.47127299 4:-0.18175163 5:0.4887684 6:-1.0171984 7:0.71850193 8:1.3282545 9:-0.64299924 10:1.0931635 11:-0.38770399 12:-0.2970402 13:1.712721 14:-0.39435854 15:0.2715619 
0.5 1:0.53901843 2:1.0856432 3:-0.47127299 4:-0.18175163 5:0.4887684 6:-1.0171984 7:0.71850193 8:1.3282545 9:-0.64299924 10:1.0931635 11:-0.38770399 12:-0.2970402 13:-0.58276707 14:2.5282817 15:0.2715619 
0.5 1:0.53901843 2:1.0856432 3:-0.47127299 4:5.4442875 5:0.4887684 6:-1.0171984 7:0.71850193 8:1.3282545 9:1.5525118 10:1.0931635 11:-0.38770399 12:-0.2970402 13:-0.58276707 14:-0.39435854 15:0.2715619 
0.5 1:0.53901843 2:-0.91975382 3:-0.47127299 4:-0.18175163 5:0.4887684 6:0.98165026 7:0.71850193 8:-0.7516821 9:1.5525118 10:1.0931635 11:-0.38770399 12:-0.2970402 13:-0.58276707 14:-0.39435854 15:0.2715619 
0.5 1:0.53901843 2:1.0856432 3:-0.47127299 4:-0.18175163 5:0.4887684 6:0.98165026 7:-1.3895394 8:-0.7516821 9:-0.64299924 10:-0.91342505 11:-0.38770399 12:-0.2970402 13:-0.58276707 14:-0.39435854 15:0.2715619 
0.5 1:0.53901843 2:-0.91975382 3:-0.47127299 4:-0.18175163 5:0.4887684 6:0.98165026 7:-1.3895394 8:-0.7516821 9:-0.64299924 10:-0.91342505 11:-0.38770399 12:-0.2970402 13:-0.58276707 14:-0.39435854 15:0.2715619 
0.5 1:0.53901843 2:-0.91975382 3:-0.47127299 4:-0.18175163 5:0.4887684 6:0.98165026 7:0.71850193 8:-0.7516821 9:-0.64299924 10:-0.91342505 11:-0.38770399 12:-0.2970402 13:1.712721 14:-0.39435854 15:0.2715619 
0.5 1:0.53901843 2:-0.91975382 3:-0.47127299 4:-0.18175163 5:0.4887684 6:0.98165026 7:0.71850193 8:-0.7516821 9:1.5525118 10:-0.91342505 11:-0.38770399 12:3.3513755 13:-0.58276707 14:-0.39435854 15:0.2715619 
0.5 1:0.53901843 2:-0.91975382 3:-0.47127299 4:-0.18175163 5:0.4887684 6:0.98165026 7:0.71850193 8:-0.7516821 9:1.5525118 10:-0.91342505 11:-0.38770399 12:3.3513755 13:-0.58276707 14:2.5282817 15:0.2715619 
0.5 1:0.53901843 2:-0.91975382 3:-0.47127299 4:-0.18175163 5:0.4887684 6:-1.0171984 7:0.71850193 8:-0.7516821 9:-0.64299924 10:-0.91342505 11:-0.38770399 12:-0.2970402 13:1.712721 14:-0.39435854 15:0.2715619 
0.5 1:0.53901843 2:-0.91975382 3:-0.47127299 4:-0.18175163 5:0.4887684 6:-1.0171984 7:0.71850193 8:1.3282545 9:1.5525118 10:1.0931635 11:-0.38770399 12:-0.2970402 13:-0.58276707 14:-0.39435854 15:0.2715619 
0.4584417457425574 1:0.53901843 2:1.0856432 3:2.1169279 4:-0.18175163 5:0.4887684 6:0.98165026 7:0.71850193 8:1.3282545 9:-0.64299924 10:1.0931635 11:-0.38770399 12:-0.2970402 13:-0.58276707 14:-0.39435854 15:0.2715619 
0.5 1:0.53901843 2:-0.91975382 3:-0.47127299 4:-0.18175163 5:0.4887684 6:0.98165026 7:0.71850193 8:-0.7516821 9:-0.64299924 10:-0.91342505 11:-0.38770399 12:-0.2970402 13:1.712721 14:-0.39435854 15:0.2715619 
0.5 1:0.53901843 2:1.0856432 3:-0.47127299 4:-0.18175163 5:0.4887684 6:-1.0171984 7:0.71850193 8:-0.7516821 9:1.5525118 10:-0.91342505 11:-0.38770399 12:3.3513755 13:-0.58276707 14:-0.39435854 15:0.2715619 
0.5 1:0.53901843 2:-0.91975382 3:-0.47127299 4:-0.18175163 5:0.4887684 6:0.98165026 7:0.71850193 8:-0.7516821 9:1.5525118 10:1.0931635 11:-0.38770399 12:-0.2970402 13:1.712721 14:-0.39435854 15:0.2715619 
0.1009438215242021 1:0.53901843 2:1.0856432 3:-0.47127299 4:-0.18175163 5:-2.0413511 6:-1.0171984 7:-1.3895394 8:-0.7516821 9:-0.64299924 10:-0.91342505 11:-0.38770399 12:-0.2970402 13:-0.58276707 14:-0.39435854 15:-3.6631968 
0.5 1:0.53901843 2:1.0856432 3:-0.47127299 4:-0.18175163 5:0.4887684 6:0.98165026 7:0.71850193 8:1.3282545 9:-0.64299924 10:1.0931635 11:-0.38770399 12:-0.2970402 13:-0.58276707 14:-0.39435854 15:0.2715619 
0.5 1:-1.851462 2:1.0856432 3:-0.47127299 4:-0.18175163 5:0.4887684 6:0.98165026 7:-1.3895394 8:-0.7516821 9:-0.64299924 10:-0.91342505 11:-0.38770399 12:-0.2970402 13:-0.58276707 14:-0.39435854 15:0.2715619 
0.5 1:0.53901843 2:-0.91975382 3:-0.47127299 4:-0.18175163 5:0.4887684 6:-1.0171984 7:0.71850193 8:-0.7516821 9:1.5525118 10:1.0931635 11:-0.38770399 12:-0.2970402 13:-0.58276707 14:-0.39435854 15:0.2715619 
0.5 1:0.53901843 2:1.0856432 3:-0.47127299 4:-0.18175163 5:0.4887684 6:-1.0171984 7:0.71850193 8:1.3282545 9:1.5525118 10:1.0931635 11:-0.38770399 12:-0.2970402 13:-0.58276707 14:-0.39435854 15:0.2715619 
0.5 1:0.53901843 2:-0.91975382 3:-0.47127299 4:-0.18175163 5:0.4887684 6:0.98165026 7:-1.3895394 8:-0.7516821 9:-0.64299924 10:-0.91342505 11:-0.38770399 12:-0.2970402 13:-0.58276707 14:-0.39435854 15:0.2715619 
0.5 1:0.53901843 2:-0.91975382 3:-0.47127299 4:-0.18175163 5:0.4887684 6:-1.0171984 7:0.71850193 8:1.3282545 9:1.5525118 10:1.0931635 11:-0.38770399 12:3.3513755 13:-0.58276707 14:-0.39435854 15:0.2715619 
0.5 1:0.53901843 2:1.0856432 3:-0.47127299 4:-0.18175163 5:0.4887684 6:0.98165026 7:0.71850193 8:1.3282545 9:-0.64299924 10:-0.91342505 11:2.5714962 12:-0.2970402 13:-0.58276707 14:-0.39435854 15:0.2715619 
0.5 1:-1.851462 2:-0.91975382 3:2.1169279 4:-0.18175163 5:-2.0413511 6:-1.0171984 7:-1.3895394 8:-0.7516821 9:-0.64299924 10:-0.91342505 11:-0.38770399 12:-0.2970402 13:-0.58276707 14:-0.39435854 15:-3.6631968 
0.01945593103634227 1:0.53901843 2:-0.91975382 3:-0.47127299 4:-0.18175163 5:-2.0413511 6:-1.0171984 7:-1.3895394 8:-0.7516821 9:-0.64299924 10:-0.91342505 11:-0.38770399 12:-0.2970402 13:-0.58276707 14:-0.39435854 15:0.2715619 
0.5 1:0.53901843 2:-0.91975382 3:-0.47127299 4:-0.18175163 5:-2.0413511 6:-1.0171984 7:-1.3895394 8:-0.7516821 9:-0.64299924 10:-0.91342505 11:-0.38770399 12:-0.2970402 13:-0.58276707 14:-0.39435854 15:0.2715619 
0.5 1:-1.851462 2:-0.91975382 3:-0.47127299 4:-0.18175163 5:0.4887684 6:-1.0171984 7:0.71850193 8:1.3282545 9:1.5525118 10:1.0931635 11:-0.38770399 12:-0.2970402 13:-0.58276707 14:-0.39435854 15:0.2715619 
0.5 1:0.53901843 2:-0.91975382 3:-0.47127299 4:-0.18175163 5:0.4887684 6:0.98165026 7:0.71850193 8:1.3282545 9:1.5525118 10:1.0931635 11:-0.38770399 12:-0.2970402 13:-0.58276707 14:2.5282817 15:0.2715619 
0.5 1:0.53901843 2:1.0856432 3:-0.47127299 4:-0.18175163 5:0.4887684 6:-1.0171984 7:0.71850193 8:1.3282545 9:-0.64299924 10:1.0931635 11:-0.38770399 12:-0.2970402 13:-0.58276707 14:-0.39435854 15:0.2715619 
0.5 1:0.53901843 2:1.0856432 3:-0.47127299 4:-0.18175163 5:0.4887684 6:-1.0171984 7:0.71850193 8:-0.7516821 9:1.5525118 10:1.0931635 11:-0.38770399 12:-0.2970402 13:1.712721 14:-0.39435854 15:0.2715619 
0.5 1:0.53901843 2:-0.91975382 3:-0.47127299 4:-0.18175163 5:0.4887684 6:0.98165026 7:0.71850193 8:1.3282545 9:1.5525118 10:1.0931635 11:-0.38770399 12:-0.2970402 13:1.712721 14:-0.39435854 15:0.2715619 
0.5 1:0.53901843 2:-0.91975382 3:-0.47127299 4:-0.18175163 5:0.4887684 6:0.98165026 7:0.71850193 8:1.3282545 9:1.5525118 10:1.0931635 11:-0.38770399 12:-0.2970402 13:-0.58276707 14:-0.39435854 15:0.2715619 
0.5 1:-1.851462 2:1.0856432 3:-0.47127299 4:-0.18175163 5:0.4887684 6:0.98165026 7:0.71850193 8:1.3282545 9:-0.64299924 10:1.0931635 11:-0.38770399 12:-0.2970402 13:-0.58276707 14:-0.39435854 15:0.2715619 
0.5 1:0.53901843 2:-0.91975382 3:-0.47127299 4:-0.18175163 5:0.4887684 6:0.98165026 7:0.71850193 8:-0.7516821 9:-0.64299924 10:-0.91342505 11:-0.38770399 12:-0.2970402 13:1.712721 14:-0.39435854 15:0.2715619 
0.5 1:0.53901843 2:1.0856432 3:-0.47127299 4:-0.18175163 5:0.4887684 6:-1.0171984 7:0.71850193 8:1.3282545 9:-0.64299924 10:1.0931635 11:-0.38770399 12:-0.2970402 13:1.712721 14:-0.39435854 15:0.2715619 
0.5 1:0.53901843 2:-0.91975382 3:-0.47127299 4:-0.18175163 5:-2.0413511 6:-1.0171984 7:-1.3895394 8:-0.7516821 9:-0.64299924 10:-0.91342505 11:-0.38770399 12:-0.2970402 13:-0.58276707 14:-0.39435854 15:0.2715619 
0.5 1:-1.851462 2:1.0856432 3:-0.47127299 4:-0.18175163 5:0.4887684 6:-1.0171984 7:0.71850193 8:1.3282545 9:1.5525118 10:1.0931635 11:-0.38770399 12:3.3513755 13:-0.58276707 14:-0.39435854 15:0.2715619 
0.5 1:0.53901843 2:1.0856432 3:2.1169279 4:-0.18175163 5:0.4887684 6:0.98165026 7:0.71850193 8:-0.7516821 9:1.5525118 10:1.0931635 11:-0.38770399 12:-0.2970402 13:-0.58276707 14:-0.39435854 15:0.2715619 
0.5 1:0.53901843 2:-0.91975382 3:-0.47127299 4:-0.18175163 5:-2.0413511 6:-1.0171984 7:-1.3895394 8:-0.7516821 9:-0.64299924 10:-0.91342505 11:-0.38770399 12:-0.2970402 13:-0.58276707 14:-0.39435854 15:0.2715619 
0.5 1:-1.851462 2:1.0856432 3:2.1169279 4:-0.18175163 5:0.4887684 6:-1.0171984 7:0.71850193 8:-0.7516821 9:-0.64299924 10:-0.91342505 11:-0.38770399 12:-0.2970402 13:1.712721 14:-0.39435854 15:0.2715619 
0.5 1:0.53901843 2:1.0856432 3:-0.47127299 4:-0.18175163 5:0.4887684 6:-1.0171984 7:0.71850193 8:1.3282545 9:-0.64299924 10:1.0931635 11:-0.38770399 12:-0.2970402 13:-0.58276707 14:-0.39435854 15:0.2715619 
0.5 1:-1.851462 2:1.0856432 3:2.1169279 4:-0.18175163 5:0.4887684 6:-1.0171984 7:0.71850193 8:1.3282545 9:-0.64299924 10:-0.91342505 11:2.5714962 12:-0.2970402 13:-0.58276707 14:2.5282817 15:0.2715619 
0.5 1:0.53901843 2:-0.91975382 3:-0.47127299 4:-0.18175163 5:0.4887684 6:0.98165026 7:0.71850193 8:-0.7516821 9:-0.64299924 10:-0.91342505 11:-0.38770399 12:-0.2970402 13:1.712721 14:2.5282817 15:0.2715619 
0.5 1:-1.851462 2:-0.91975382 3:-0.47127299 4:5.4442875 5:-2.0413511 6:-1.0171984 7:-1.3895394 8:-0.7516821 9:-0.64299924 10:-0.91342505 11:-0.38770399 12:-0.2970402 13:-0.58276707 14:-0.39435854 15:-3.6631968 
0.5 1:0.53901843 2:-0.91975382 3:-0.47127299 4:-0.18175163 5:0.4887684 6:0.98165026 7:-1.3895394 8:-0.7516821 9:-0.64299924 10:-0.91342505 11:-0.38770399 12:-0.2970402 13:-0.58276707 14:-0.39435854 15:0.2715619 
0.5 1:0.53901843 2:-0.91975382 3:-0.47127299 4:-0.18175163 5:0.4887684 6:-1.0171984 7:0.71850193 8:-0.7516821 9:-0.64299924 10:-0.91342505 11:-0.38770399 12:-0.2970402 13:1.712721 14:-0.39435854 15:0.2715619 
0.5 1:-1.851462 2:1.0856432 3:2.1169279 4:-0.18175163 5:0.4887684 6:-1.0171984 7:0.71850193 8:1.3282545 9:-0.64299924 10:-0.91342505 11:2.5714962 12:-0.2970402 13:1.712721 14:-0.39435854 15:0.2715619 
0.5 1:0.53901843 2:1.0856432 3:-0.47127299 4:-0.18175163 5:0.4887684 6:-1.0171984 7:0.71850193 8:1.3282545 9:-0.64299924 10:1.0931635 11:-0.38770399 12:-0.2970402 13:1.712721 14:-0.39435854 15:0.2715619 
0.5 1:0.53901843 2:-0.91975382 3:-0.47127299 4:5.4442875 5:0.4887684 6:0.98165026 7:0.71850193 8:-0.7516821 9:1.5525118 10:1.0931635 11:-0.38770399 12:-0.2970402 13:-0.58276707 14:-0.39435854 15:0.2715619 
0.5 1:0.53901843 2:1.0856432 3:-0.47127299 4:-0.18175163 5:0.4887684 6:0.98165026 7:0.71850193 8:1.3282545 9:1.5525118 10:1.0931635 11:-0.38770399 12:-0.2970402 13:-0.58276707 14:-0.39435854 15:0.2715619 
0.5 1:0.53901843 2:1.0856432 3:-0.47127299 4:-0.18175163 5:0.4887684 6:0.98165026 7:-1.3895394 8:-0.7516821 9:-0.64299924 10:-0.91342505 11:-0.38770399 12:-0.2970402 13:-0.58276707 14:-0.39435854 15:0.2715619 
0.5 1:0.53901843 2:-0.91975382 3:-0.47127299 4:-0.18175163 5:0.4887684 6:-1.0171984 7:0.71850193 8:1.3282545 9:-0.64299924 10:1.0931635 11:-0.38770399 12:-0.2970402 13:1.712721 14:-0.39435854 15:0.2715619 
0.5 1:0.53901843 2:-0.91975382 3:-0.47127299 4:-0.18175163 5:0.4887684 6:-1.0171984 7:0.71850193 8:-0.7516821 9:-0.64299924 10:-0.91342505 11:-0.38770399 12:-0.2970402 13:1.712721 14:-0.39435854 15:0.2715619 
0.5 1:0.53901843 2:1.0856432 3:-0.47127299 4:-0.18175163 5:0.4887684 6:0.98165026 7:0.71850193 8:1.3282545 9:-0.64299924 10:1.0931635 11:-0.38770399 12:-0.2970402 13:1.712721 14:-0.39435854 15:0.2715619 
0.5 1:0.53901843 2:1.0856432 3:-0.47127299 4:-0.18175163 5:0.4887684 6:-1.0171984 7:0.71850193 8:1.3282545 9:-0.64299924 10:1.0931635 11:-0.38770399 12:-0.2970402 13:-0.58276707 14:-0.39435854 15:0.2715619 
0.5 1:-1.851462 2:-0.91975382 3:-0.47127299 4:5.4442875 5:0.4887684 6:-1.0171984 7:0.71850193 8:1.3282545 9:-0.64299924 10:-0.91342505 11:2.5714962 12:-0.2970402 13:-0.58276707 14:-0.39435854 15:0.2715619 
0.5 1:0.53901843 2:1.0856432 3:-0.47127299 4:-0.18175163 5:0.4887684 6:-1.0171984 7:0.71850193 8:1.3282545 9:-0.64299924 10:1.0931635 11:-0.38770399 12:-0.2970402 13:1.712721 14:-0.39435854 15:0.2715619 
0.1298454707323725 1:-1.851462 2:1.0856432 3:-0.47127299 4:-0.18175163 5:0.4887684 6:-1.0171984 7:0.71850193 8:-0.7516821 9:-0.64299924 10:-0.91342505 11:-0.38770399 12:-0.2970402 13:1.712721 14:-0.39435854 15:0.2715619 
0.5 1:0.53901843 2:1.0856432 3:-0.47127299 4:-0.18175163 5:0.4887684 6:-1.0171984 7:0.71850193 8:1.3282545 9:1.5525118 10:1.0931635 11:-0.38770399 12:-0.2970402 13:-0.58276707 14:-0.39435854 15:0.2715619 
0.5 1:-1.851462 2:1.0856432 3:-0.47127299 4:-0.18175163 5:0.4887684 6:0.98165026 7:0.71850193 8:1.3282545 9:-0.64299924 10:1.0931635 11:-0.38770399 12:-0.2970402 13:-0.58276707 14:-0.39435854 15:0.2715619 
0.5 1:0.53901843 2:1.0856432 3:-0.47127299 4:-0.18175163 5:0.4887684 6:-1.0171984 7:0.71850193 8:1.3282545 9:-0.64299924 10:1.0931635 11:-0.38770399 12:-0.2970402 13:-0.58276707 14:-0.39435854 15:0.2715619 
0.5 1:0.53901843 2:1.0856432 3:-0.47127299 4:5.4442875 5:0.4887684 6:-1.0171984 7:0.71850193 8:-0.7516821 9:1.5525118 10:1.0931635 11:-0.38770399 12:-0.2970402 13:-0.58276707 14:-0.39435854 15:0.2715619 
0.5 1:-1.851462 2:1.0856432 3:2.1169279 4:-0.18175163 5:0.4887684 6:0.98165026 7:0.71850193 8:1.3282545 9:1.5525118 10:1.0931635 11:-0.38770399 12:-0.2970402 13:-0.58276707 14:-0.39435854 15:0.2715619 
0.5 1:-1.851462 2:-0.91975382 3:2.1169279 4:-0.18175163 5:0.4887684 6:-1.0171984 7:0.71850193 8:-0.7516821 9:1.5525118 10:-0.91342505 11:-0.38770399 12:3.3513755 13:-0.58276707 14:-0.39435854 15:0.2715619 
0.5 1:0.53901843 2:-0.91975382 3:-0.47127299 4:5.4442875 5:0.4887684 6:-1.0171984 7:0.71850193 8:1.3282545 9:-0.64299924 10:1.0931635 11:-0.38770399 12:-0.2970402 13:-0.58276707 14:-0.39435854 15:0.2715619 
0.5 1:-1.851462 2:1.0856432 3:-0.47127299 4:-0.18175163 5:0.4887684 6:-1.0171984 7:0.71850193 8:1.3282545 9:-0.64299924 10:1.0931635 11:2.5714962 12:-0.2970402 13:-0.58276707 14:-0.39435854 15:0.2715619 
0.5 1:-1.851462 2:1.0856432 3:-0.47127299 4:-0.18175163 5:0.4887684 6:0.98165026 7:-1.3895394 8:-0.7516821 9:-0.64299924 10:-0.91342505 11:-0.38770399 12:-0.2970402 13:-0.58276707 14:2.5282817 15:0.2715619 
0.5 1:0.53901843 2:1.0856432 3:-0.47127299 4:-0.18175163 5:0.4887684 6:-1.0171984 7:0.71850193 8:1.3282545 9:-0.64299924 10:1.0931635 11:-0.38770399 12:-0.2970402 13:-0.58276707 14:-0.39435854 15:0.2715619 
0.5 1:0.53901843 2:1.0856432 3:-0.47127299 4:-0.18175163 5:0.4887684 6:0.98165026 7:0.71850193 8:-0.7516821 9:1.5525118 10:1.0931635 11:-0.38770399 12:-0.2970402 13:-0.58276707 14:-0.39435854 15:0.2715619 
0.5 1:0.53901843 2:1.0856432 3:-0.47127299 4:-0.18175163 5:0.4887684 6:0.98165026 7:0.71850193 8:1.3282545 9:-0.64299924 10:1.0931635 11:-0.38770399 12:-0.2970402 13:1.712721 14:-0.39435854 15:0.2715619 
0.5 1:-1.851462 2:-0.91975382 3:2.1169279 4:-0.18175163 5:0.4887684 6:-1.0171984 7:0.71850193 8:1.3282545 9:1.5525118 10:-0.91342505 11:2.5714962 12:3.3513755 13:-0.58276707 14:-0.39435854 15:0.2715619 
0.5 1:0.53901843 2:1.0856432 3:2.1169279 4:-0.18175163 5:0.4887684 6:-1.0171984 7:0.71850193 8:1.3282545 9:-0.64299924 10:-0.91342505 11:2.5714962 12:-0.2970402 13:1.712721 14:-0.39435854 15:0.2715619 
0.5 1:-1.851462 2:1.0856432 3:-0.47127299 4:-0.18175163 5:-2.0413511 6:-1.0171984 7:-1.3895394 8:-0.7516821 9:-0.64299924 10:-0.91342505 11:-0.38770399 12:-0.2970402 13:-0.58276707 14:-0.39435854 15:0.2715619 
0.5 1:0.53901843 2:1.0856432 3:-0.47127299 4:-0.18175163 5:0.4887684 6:-1.0171984 7:0.71850193 8:1.3282545 9:1.5525118 10:-0.91342505 11:2.5714962 12:3.3513755 13:-0.58276707 14:-0.39435854 15:0.2715619 
0.5 1:0.53901843 2:1.0856432 3:-0.47127299 4:-0.18175163 5:0.4887684 6:-1.0171984 7:0.71850193 8:1.3282545 9:-0.64299924 10:1.0931635 11:-0.38770399 12:-0.2970402 13:-0.58276707 14:2.5282817 15:0.2715619 
0.1271087857073263 1:0.53901843 2:-0.91975382 3:-0.47127299 4:-0.18175163 5:0.4887684 6:0.98165026 7:0.71850193 8:1.3282545 9:-0.64299924 10:1.0931635 11:-0.38770399 12:-0.2970402 13:-0.58276707 14:-0.39435854 15:0.2715619 
0.5 1:0.53901843 2:-0.91975382 3:-0.47127299 4:-0.18175163 5:0.4887684 6:0.98165026 7:0.71850193 8:-0.7516821 9:1.5525118 10:1.0931635 11:-0.38770399 12:-0.2970402 13:-0.58276707 14:-0.39435854 15:0.2715619 
0.5 1:0.53901843 2:-0.91975382 3:-0.47127299 4:-0.18175163 5:0.4887684 6:-1.0171984 7:0.71850193 8:-0.7516821 9:-0.64299924 10:-0.91342505 11:-0.38770399 12:-0.2970402 13:1.712721 14:-0.39435854 15:0.2715619 
0.5 1:0.53901843 2:1.0856432 3:-0.47127299 4:-0.18175163 5:0.4887684 6:0.98165026 7:0.71850193 8:-0.7516821 9:-0.64299924 10:-0.91342505 11:-0.38770399 12:-0.2970402 13:1.712721 14:-0.39435854 15:0.2715619 
0.5 1:0.53901843 2:-0.91975382 3:-0.47127299 4:-0.18175163 5:0.4887684 6:-1.0171984 7:0.71850193 8:-0.7516821 9:1.5525118 10:1.0931635 11:-0.38770399 12:-0.2970402 13:-0.58276707 14:2.5282817 15:0.2715619 
0.5 1:0.53901843 2:-0.91975382 3:-0.47127299 4:-0.18175163 5:0.4887684 6:0.98165026 7:0.71850193 8:1.3282545 9:-0.64299924 10:1.0931635 11:-0.38770399 12:-0.2970402 13:-0.58276707 14:-0.39435854 15:0.2715619 
0.5 1:0.53901843 2:-0.91975382 3:-0.47127299 4:-0.18175163 5:0.4887684 6:0.98165026 7:0.71850193 8:1.3282545 9:-0.64299924 10:1.0931635 11:-0.38770399 12:-0.2970402 13:-0.58276707 14:-0.39435854 15:0.2715619 
0.5 1:0.53901843 2:-0.91975382 3:-0.47127299 4:-0.18175163 5:0.4887684 6:0.98165026 7:0.71850193 8:-0.7516821 9:1.5525118 10:1.0931635 11:-0.38770399 12:-0.2970402 13:1.712721 14:-0.39435854 15:0.2715619 
0.5 1:0.53901843 2:1.0856432 3:2.1169279 4:-0.18175163 5:0.4887684 6:0.98165026 7:0.71850193 8:-0.7516821 9:1.5525118 10:1.0931635 11:-0.38770399 12:-0.2970402 13:-0.58276707 14:-0.39435854 15:0.2715619 
0.5 1:-1.851462 2:-0.91975382 3:-0.47127299 4:-0.18175163 5:0.4887684 6:0.98165026 7:0.71850193 8:1.3282545 9:-0.64299924 10:1.0931635 11:-0.38770399 12:-0.2970402 13:-0.58276707 14:-0.39435854 15:0.2715619 
0.06871357160275107 1:-1.851462 2:1.0856432 3:-0.47127299 4:-0.18175163 5:-2.0413511 6:-1.0171984 7:-1.3895394 8:-0.7516821 9:-0.64299924 10:-0.91342505 11:-0.38770399 12:-0.2970402 13:-0.58276707 14:-0.39435854 15:-3.6631968 
0.5 1:0.53901843 2:-0.91975382 3:-0.47127299 4:-0.18175163 5:0.4887684 6:0.98165026 7:0.71850193 8:1.3282545 9:-0.64299924 10:1.0931635 11:-0.38770399 12:-0.2970402 13:-0.58276707 14:-0.39435854 15:0.2715619 
0.5 1:0.53901843 2:-0.91975382 3:-0.47127299 4:-0.18175163 5:0.4887684 6:0.98165026 7:0.71850193 8:1.3282545 9:-0.64299924 10:1.0931635 11:-0.38770399 12:-0.2970402 13:-0.58276707 14:2.5282817 15:0.2715619 
0.07629774170863393 1:-1.851462 2:1.0856432 3:2.1169279 4:-0.18175163 5:0.4887684 6:0.98165026 7:0.71850193 8:1.3282545 9:-0.64299924 10:-0.91342505 11:2.5714962 12:-0.2970402 13:-0.58276707 14:-0.39435854 15:0.2715619 
0.5 1:0.53901843 2:1.0856432 3:-0.47127299 4:-0.18175163 5:0.4887684 6:0.98165026 7:0.71850193 8:1.3282545 9:-0.64299924 10:1.0931635 11:-0.38770399 12:-0.2970402 13:-0.58276707 14:-0.39435854 15:0.2715619 
0.5 1:-1.851462 2:-0.91975382 3:2.1169279 4:5.4442875 5:0.4887684 6:-1.0171984 7:0.71850193 8:-0.7516821 9:1.5525118 10:1.0931635 11:-0.38770399 12:-0.2970402 13:-0.58276707 14:-0.39435854 15:0.2715619 
0.5 1:-1.851462 2:1.0856432 3:-0.47127299 4:-0.18175163 5:0.4887684 6:0.98165026 7:-1.3895394 8:-0.7516821 9:-0.64299924 10:-0.91342505 11:-0.38770399 12:-0.2970402 13:-0.58276707 14:-0.39435854 15:0.2715619 
0.5 1:0.53901843 2:1.0856432 3:-0.47127299 4:-0.18175163 5:-2.0413511 6:-1.0171984 7:-1.3895394 8:-0.7516821 9:-0.64299924 10:-0.91342505 11:-0.38770399 12:-0.2970402 13:-0.58276707 14:2.5282817 15:0.2715619 
0.5 1:0.53901843 2:1.0856432 3:-0.47127299 4:-0.18175163 5:0.4887684 6:0.98165026 7:0.71850193 8:-0.7516821 9:1.5525118 10:1.0931635 11:-0.38770399 12:-0.2970402 13:-0.58276707 14:2.5282817 15:0.2715619 
0.02275764607554 1:0.53901843 2:1.0856432 3:-0.47127299 4:-0.18175163 5:-2.0413511 6:-1.0171984 7:-1.3895394 8:-0.7516821 9:-0.64299924 10:-0.91342505 11:-0.38770399 12:-0.2970402 13:-0.58276707 14:-0.39435854 15:0.2715619 
0.5 1:0.53901843 2:-0.91975382 3:-0.47127299 4:-0.18175163 5:0.4887684 6:0.98165026 7:0.71850193 8:-0.7516821 9:-0.64299924 10:-0.91342505 11:-0.38770399 12:-0.2970402 13:1.712721 14:-0.39435854 15:0.2715619 
0.5 1:-1.851462 2:1.0856432 3:-0.47127299 4:-0.18175163 5:0.4887684 6:0.98165026 7:-1.3895394 8:-0.7516821 9:-0.64299924 10:-0.91342505 11:-0.38770399 12:-0.2970402 13:-0.58276707 14:-0.39435854 15:0.2715619 
0.5 1:0.53901843 2:-0.91975382 3:-0.47127299 4:-0.18175163 5:0.4887684 6:-1.0171984 7:0.71850193 8:-0.7516821 9:1.5525118 10:-0.91342505 11:-0.38770399 12:3.3513755 13:-0.58276707 14:-0.39435854 15:0.2715619 
0.5 1:0.53901843 2:1.0856432 3:-0.47127299 4:-0.18175163 5:-2.0413511 6:-1.0171984 7:-1.3895394 8:-0.7516821 9:-0.64299924 10:-0.91342505 11:-0.38770399 12:-0.2970402 13:-0.58276707 14:-0.39435854 15:0.2715619 
0.5 1:0.53901843 2:-0.91975382 3:-0.47127299 4:5.4442875 5:0.4887684 6:-1.0171984 7:0.71850193 8:1.3282545 9:-0.64299924 10:1.0931635 11:-0.38770399 12:-0.2970402 13:-0.58276707 14:-0.39435854 15:0.2715619 
0.5 1:-1.851462 2:-0.91975382 3:-0.47127299 4:5.4442875 5:-2.0413511 6:-1.0171984 7:-1.3895394 8:-0.7516821 9:-0.64299924 10:-0.91342505 11:-0.38770399 12:-0.2970402 13:-0.58276707 14:-0.39435854 15:-3.6631968 
0.5 1:0.53901843 2:-0.91975382 3:-0.47127299 4:-0.18175163 5:-2.0413511 6:-1.0171984 7:-1.3895394 8:-0.7516821 9:-0.64299924 10:-0.91342505 11:-0.38770399 12:-0.2970402 13:-0.58276707 14:-0.39435854 15:0.2715619 
0.5 1:-1.851462 2:-0.91975382 3:-0.47127299 4:-0.18175163 5:0.4887684 6:-1.0171984 7:0.71850193 8:1.3282545 9:-0.64299924 10:-0.91342505 11:2.5714962 12:-0.2970402 13:-0.58276707 14:-0.39435854 15:0.2715619 
0.5 1:0.53901843 2:1.0856432 3:-0.47127299 4:5.4442875 5:0.4887684 6:-1.0171984 7:0.71850193 8:-0.7516821 9:1.5525118 10:1.0931635 11:-0.38770399 12:-0.2970402 13:-0.58276707 14:-0.39435854 15:0.2715619 
0.5 1:-1.851462 2:-0.91975382 3:2.1169279 4:-0.18175163 5:0.4887684 6:0.98165026 7:0.71850193 8:-0.7516821 9:-0.64299924 10:-0.91342505 11:2.5714962 12:-0.2970402 13:-0.58276707 14:-0.39435854 15:0.2715619 
0.5 1:0.53901843 2:-0.91975382 3:-0.47127299 4:-0.18175163 5:0.4887684 6:0.98165026 7:0.71850193 8:1.3282545 9:1.5525118 10:1.0931635 11:-0.38770399 12:-0.2970402 13:-0.58276707 14:-0.39435854 15:0.2715619 
0.5 1:-1.851462 2:1.0856432 3:-0.47127299 4:5.4442875 5:0.4887684 6:0.98165026 7:-1.3895394 8:-0.7516821 9:-0.64299924 10:-0.91342505 11:-0.38770399 12:-0.2970402 13:-0.58276707 14:-0.39435854 15:0.2715619 
0.5 1:0.53901843 2:1.0856432 3:-0.47127299 4:-0.18175163 5:0.4887684 6:0.98165026 7:0.71850193 8:-0.7516821 9:-0.64299924 10:-0.91342505 11:2.5714962 12:-0.2970402 13:-0.58276707 14:-0.39435854 15:0.2715619 
0.5 1:-1.851462 2:1.0856432 3:-0.47127299 4:-0.18175163 5:0.4887684 6:0.98165026 7:0.71850193 8:-0.7516821 9:1.5525118 10:1.0931635 11:-0.38770399 12:-0.2970402 13:-0.58276707 14:-0.39435854 15:0.2715619 
0.5 1:0.53901843 2:1.0856432 3:-0.47127299 4:-0.18175163 5:-2.0413511 6:-1.0171984 7:-1.3895394 8:-0.7516821 9:-0.64299924 10:-0.91342505 11:-0.38770399 12:-0.2970402 13:-0.58276707 14:-0.39435854 15:-3.6631968 
0.5 1:0.53901843 2:1.0856432 3:-0.47127299 4:-0.18175163 5:0.4887684 6:0.98165026 7:-1.3895394 8:-0.7516821 9:-0.64299924 10:-0.91342505 11:-0.38770399 12:-0.2970402 13:-0.58276707 14:-0.39435854 15:0.2715619 
0.5 1:0.53901843 2:1.0856432 3:-0.47127299 4:-0.18175163 5:0.4887684 6:0.98165026 7:-1.3895394 8:-0.7516821 9:-0.64299924 10:-0.91342505 11:-0.38770399 12:-0.2970402 13:-0.58276707 14:-0.39435854 15:0.2715619 
0.5 1:0.53901843 2:-0.91975382 3:-0.47127299 4:5.4442875 5:0.4887684 6:0.98165026 7:0.71850193 8:1.3282545 9:-0.64299924 10:1.0931635 11:-0.38770399 12:-0.2970402 13:-0.58276707 14:-0.39435854 15:0.2715619 
0.5 1:0.53901843 2:-0.91975382 3:-0.47127299 4:-0.18175163 5:0.4887684 6:0.98165026 7:0.71850193 8:-0.7516821 9:-0.64299924 10:-0.91342505 11:-0.38770399 12:-0.2970402 13:1.712721 14:2.5282817 15:0.2715619 
0.5 1:0.53901843 2:1.0856432 3:-0.47127299 4:-0.18175163 5:-2.0413511 6:-1.0171984 7:-1.3895394 8:-0.7516821 9:-0.64299924 10:-0.91342505 11:-0.38770399 12:-0.2970402 13:-0.58276707 14:-0.39435854 15:0.2715619 
0.07192810631425467 1:0.53901843 2:1.0856432 3:2.1169279 4:-0.18175163 5:0.4887684 6:-1.0171984 7:0.71850193 8:-0.7516821 9:-0.64299924 10:-0.91342505 11:2.5714962 12:-0.2970402 13:-0.58276707 14:-0.39435854 15:0.2715619 
0.5 1:-1.851462 2:1.0856432 3:2.1169279 4:-0.18175163 5:0.4887684 6:0.98165026 7:0.71850193 8:1.3282545 9:1.5525118 10:1.0931635 11:2.5714962 12:-0.2970402 13:-0.58276707 14:-0.39435854 15:0.2715619 
0.5 1:0.53901843 2:1.0856432 3:2.1169279 4:-0.18175163 5:0.4887684 6:0.98165026 7:0.71850193 8:1.3282545 9:-0.64299924 10:1.0931635 11:-0.38770399 12:-0.2970402 13:1.712721 14:2.5282817 15:0.2715619 
0.5 1:0.53901843 2:-0.91975382 3:-0.47127299 4:-0.18175163 5:0.4887684 6:0.98165026 7:0.71850193 8:1.3282545 9:-0.64299924 10:1.0931635 11:-0.38770399 12:-0.2970402 13:-0.58276707 14:-0.39435854 15:0.2715619 
0.5 1:0.53901843 2:1.0856432 3:-0.47127299 4:-0.18175163 5:0.4887684 6:-1.0171984 7:0.71850193 8:-0.7516821 9:1.5525118 10:1.0931635 11:-0.38770399 12:3.3513755 13:-0.58276707 14:-0.39435854 15:0.2715619 
0.3942619423536591 1:0.53901843 2:1.0856432 3:2.1169279 4:-0.18175163 5:0.4887684 6:-1.0171984 7:0.71850193 8:-0.7516821 9:-0.64299924 10:-0.91342505 11:-0.38770399 12:-0.2970402 13:1.712721 14:-0.39435854 15:0.2715619 
0.5 1:0.53901843 2:1.0856432 3:-0.47127299 4:-0.18175163 5:0.4887684 6:0.98165026 7:0.71850193 8:-0.7516821 9:-0.64299924 10:-0.91342505 11:-0.38770399 12:-0.2970402 13:1.712721 14:-0.39435854 15:0.2715619 
0.5 1:0.53901843 2:-0.91975382 3:-0.47127299 4:-0.18175163 5:0.4887684 6:-1.0171984 7:0.71850193 8:1.3282545 9:-0.64299924 10:1.0931635 11:-0.38770399 12:-0.2970402 13:1.712721 14:-0.39435854 15:0.2715619 
0.5 1:0.53901843 2:-0.91975382 3:-0.47127299 4:-0.18175163 5:0.4887684 6:-1.0171984 7:0.71850193 8:1.3282545 9:-0.64299924 10:1.0931635 11:-0.38770399 12:-0.2970402 13:1.712721 14:-0.39435854 15:0.2715619 
0.5 1:-1.851462 2:1.0856432 3:-0.47127299 4:-0.18175163 5:-2.0413511 6:-1.0171984 7:-1.3895394 8:-0.7516821 9:-0.64299924 10:-0.91342505 11:-0.38770399 12:-0.2970402 13:-0.58276707 14:-0.39435854 15:0.2715619 
0.5 1:-1.851462 2:-0.91975382 3:-0.47127299 4:-0.18175163 5:0.4887684 6:-1.0171984 7:0.71850193 8:1.3282545 9:-0.64299924 10:-0.91342505 11:2.5714962 12:-0.2970402 13:1.712721 14:-0.39435854 15:0.2715619 
0.5 1:0.53901843 2:1.0856432 3:-0.47127299 4:-0.18175163 5:0.4887684 6:0.98165026 7:0.71850193 8:-0.7516821 9:-0.64299924 10:-0.91342505 11:-0.38770399 12:-0.2970402 13:1.712721 14:-0.39435854 15:0.2715619 
0.5 1:0.53901843 2:1.0856432 3:-0.47127299 4:-0.18175163 5:0.4887684 6:0.98165026 7:0.71850193 8:1.3282545 9:1.5525118 10:-0.91342505 11:2.5714962 12:3.3513755 13:1.712721 14:-0.39435854 15:0.2715619 
0.5 1:0.53901843 2:-0.91975382 3:2.1169279 4:-0.18175163 5:0.4887684 6:0.98165026 7:0.71850193 8:-0.7516821 9:-0.64299924 10:-0.91342505 11:-0.38770399 12:-0.2970402 13:1.712721 14:-0.39435854 15:0.2715619 
0.5 1:0.53901843 2:1.0856432 3:-0.47127299 4:-0.18175163 5:0.4887684 6:0.98165026 7:0.71850193 8:-0.7516821 9:-0.64299924 10:-0.91342505 11:-0.38770399 12:-0.2970402 13:1.712721 14:-0.39435854 15:0.2715619 
0.5 1:0.53901843 2:-0.91975382 3:-0.47127299 4:-0.18175163 5:0.4887684 6:0.98165026 7:-1.3895394 8:-0.7516821 9:-0.64299924 10:-0.91342505 11:-0.38770399 12:-0.2970402 13:-0.58276707 14:2.5282817 15:0.2715619 
0.5 1:0.53901843 2:1.0856432 3:2.1169279 4:-0.18175163 5:0.4887684 6:0.98165026 7:-1.3895394 8:-0.7516821 9:-0.64299924 10:-0.91342505 11:-0.38770399 12:-0.2970402 13:-0.58276707 14:2.5282817 15:0.2715619 
0.5 1:0.53901843 2:1.0856432 3:2.1169279 4:-0.18175163 5:0.4887684 6:0.98165026 7:0.71850193 8:-0.7516821 9:1.5525118 10:1.0931635 11:-0.38770399 12:-0.2970402 13:-0.58276707 14:-0.39435854 15:0.2715619 
0.5 1:0.53901843 2:1.0856432 3:-0.47127299 4:-0.18175163 5:-2.0413511 6:-1.0171984 7:-1.3895394 8:-0.7516821 9:-0.64299924 10:-0.91342505 11:-0.38770399 12:-0.2970402 13:-0.58276707 14:-0.39435854 15:0.2715619 
0.5 1:-1.851462 2:1.0856432 3:-0.47127299 4:-0.18175163 5:-2.0413511 6:-1.0171984 7:-1.3895394 8:-0.7516821 9:-0.64299924 10:-0.91342505 11:-0.38770399 12:-0.2970402 13:-0.58276707 14:-0.39435854 15:0.2715619 
0.5 1:0.53901843 2:-0.91975382 3:-0.47127299 4:-0.18175163 5:0.4887684 6:-1.0171984 7:0.71850193 8:-0.7516821 9:1.5525118 10:1.0931635 11:-0.38770399 12:3.3513755 13:-0.58276707 14:-0.39435854 15:0.2715619 
0.5 1:-1.851462 2:1.0856432 3:-0.47127299 4:-0.18175163 5:0.4887684 6:0.98165026 7:0.71850193 8:-0.7516821 9:1.5525118 10:1.0931635 11:-0.38770399 12:-0.2970402 13:1.712721 14:-0.39435854 15:0.2715619 
0.5 1:-1.851462 2:1.0856432 3:2.1169279 4:-0.18175163 5:0.4887684 6:0.98165026 7:0.71850193 8:1.3282545 9:1.5525118 10:1.0931635 11:2.5714962 12:-0.2970402 13:-0.58276707 14:-0.39435854 15:0.2715619 
0.5 1:-1.851462 2:1.0856432 3:-0.47127299 4:-0.18175163 5:0.4887684 6:0.98165026 7:-1.3895394 8:-0.7516821 9:-0.64299924 10:-0.91342505 11:-0.38770399 12:-0.2970402 13:-0.58276707 14:-0.39435854 15:0.2715619 
0.5 1:0.53901843 2:-0.91975382 3:-0.47127299 4:-0.18175163 5:0.4887684 6:-1.0171984 7:0.71850193 8:-0.7516821 9:-0.64299924 10:-0.91342505 11:-0.38770399 12:-0.2970402 13:1.712721 14:-0.39435854 15:0.2715619 
0.5 1:-1.851462 2:1.0856432 3:-0.47127299 4:-0.18175163 5:-2.0413511 6:-1.0171984 7:-1.3895394 8:-0.7516821 9:-0.64299924 10:-0.91342505 11:-0.38770399 12:-0.2970402 13:-0.58276707 14:-0.39435854 15:0.2715619 
0.5 1:-1.851462 2:1.0856432 3:-0.47127299 4:-0.18175163 5:-2.0413511 6:-1.0171984 7:-1.3895394 8:-0.7516821 9:-0.64299924 10:-0.91342505 11:-0.38770399 12:-0.2970402 13:-0.58276707 14:2.5282817 15:0.2715619 
0.5 1:0.53901843 2:-0.91975382 3:-0.47127299 4:-0.18175163 5:0.4887684 6:0.98165026 7:0.71850193 8:1.3282545 9:-0.64299924 10:-0.91342505 11:2.5714962 12:-0.2970402 13:-0.58276707 14:-0.39435854 15:0.2715619 
0.5 1:0.53901843 2:-0.91975382 3:2.1169279 4:-0.18175163 5:0.4887684 6:0.98165026 7:-1.3895394 8:-0.7516821 9:-0.64299924 10:-0.91342505 11:-0.38770399 12:-0.2970402 13:-0.58276707 14:2.5282817 15:0.2715619 
0.5 1:-1.851462 2:1.0856432 3:2.1169279 4:-0.18175163 5:0.4887684 6:0.98165026 7:0.71850193 8:1.3282545 9:-0.64299924 10:-0.91342505 11:2.5714962 12:-0.2970402 13:-0.58276707 14:-0.39435854 15:0.2715619 
0.5 1:0.53901843 2:-0.91975382 3:-0.47127299 4:-0.18175163 5:0.4887684 6:-1.0171984 7:0.71850193 8:-0.7516821 9:1.5525118 10:1.0931635 11:-0.38770399 12:-0.2970402 13:-0.58276707 14:-0.39435854 15:0.2715619 
0.5 1:0.53901843 2:1.0856432 3:-0.47127299 4:-0.18175163 5:0.4887684 6:-1.0171984 7:0.71850193 8:1.3282545 9:1.5525118 10:1.0931635 11:-0.38770399 12:-0.2970402 13:-0.58276707 14:-0.39435854 15:0.2715619 
0.5 1:0.53901843 2:-0.91975382 3:-0.47127299 4:-0.18175163 5:0.4887684 6:0.98165026 7:-1.3895394 8:-0.7516821 9:-0.64299924 10:-0.91342505 11:-0.38770399 12:-0.2970402 13:-0.58276707 14:-0.39435854 15:0.2715619 
0.5 1:0.53901843 2:1.0856432 3:-0.47127299 4:-0.18175163 5:0.4887684 6:0.98165026 7:0.71850193 8:-0.7516821 9:1.5525118 10:1.0931635 11:-0.38770399 12:3.3513755 13:-0.58276707 14:-0.39435854 15:0.2715619 
0.5 1:0.53901843 2:1.0856432 3:-0.47127299 4:-0.18175163 5:0.4887684 6:0.98165026 7:0.71850193 8:1.3282545 9:1.5525118 10:1.0931635 11:-0.38770399 12:3.3513755 13:1.712721 14:-0.39435854 15:0.2715619 
0.5 1:0.53901843 2:1.0856432 3:-0.47127299 4:-0.18175163 5:0.4887684 6:0.98165026 7:0.71850193 8:1.3282545 9:1.5525118 10:1.0931635 11:-0.38770399 12:-0.2970402 13:-0.58276707 14:-0.39435854 15:0.2715619 
0.5 1:0.53901843 2:-0.91975382 3:-0.47127299 4:-0.18175163 5:0.4887684 6:0.98165026 7:0.71850193 8:-0.7516821 9:1.5525118 10:1.0931635 11:-0.38770399 12:-0.2970402 13:1.712721 14:-0.39435854 15:0.2715619 
0.5 1:0.53901843 2:1.0856432 3:-0.47127299 4:-0.18175163 5:-2.0413511 6:-1.0171984 7:-1.3895394 8:-0.7516821 9:-0.64299924 10:-0.91342505 11:-0.38770399 12:-0.2970402 13:-0.58276707 14:-0.39435854 15:0.2715619 
0.5 1:0.53901843 2:-0.91975382 3:-0.47127299 4:-0.18175163 5:0.4887684 6:-1.0171984 7:0.71850193 8:-0.7516821 9:-0.64299924 10:-0.91342505 11:-0.38770399 12:-0.2970402 13:1.712721 14:2.5282817 15:0.2715619 
0.5 1:0.53901843 2:1.0856432 3:-0.47127299 4:-0.18175163 5:0.4887684 6:-1.0171984 7:0.71850193 8:1.3282545 9:-0.64299924 10:1.0931635 11:-0.38770399 12:-0.2970402 13:-0.58276707 14:-0.39435854 15:0.2715619 
0.5 1:0.53901843 2:1.0856432 3:-0.47127299 4:-0.18175163 5:0.4887684 6:0.98165026 7:0.71850193 8:-0.7516821 9:1.5525118 10:-0.91342505 11:-0.38770399 12:3.3513755 13:-0.58276707 14:2.5282817 15:0.2715619 
0.5 1:-1.851462 2:1.0856432 3:2.1169279 4:-0.18175163 5:0.4887684 6:-1.0171984 7:0.71850193 8:-0.7516821 9:-0.64299924 10:-0.91342505 11:-0.38770399 12:-0.2970402 13:1.712721 14:-0.39435854 15:0.2715619 
0.5 1:0.53901843 2:-0.91975382 3:-0.47127299 4:-0.18175163 5:0.4887684 6:0.98165026 7:-1.3895394 8:-0.7516821 9:-0.64299924 10:-0.91342505 11:-0.38770399 12:-0.2970402 13:-0.58276707 14:-0.39435854 15:0.2715619 
0.5 1:0.53901843 2:-0.91975382 3:-0.47127299 4:-0.18175163 5:0.4887684 6:-1.0171984 7:0.71850193 8:-0.7516821 9:1.5525118 10:1.0931635 11:-0.38770399 12:-0.2970402 13:-0.58276707 14:-0.39435854 15:0.2715619 
0.5 1:0.53901843 2:1.0856432 3:-0.47127299 4:-0.18175163 5:0.4887684 6:-1.0171984 7:0.71850193 8:1.3282545 9:-0.64299924 10:1.0931635 11:-0.38770399 12:-0.2970402 13:-0.58276707 14:-0.39435854 15:0.2715619 
0.5 1:0.53901843 2:-0.91975382 3:-0.47127299 4:-0.18175163 5:0.4887684 6:0.98165026 7:0.71850193 8:-0.7516821 9:1.5525118 10:1.0931635 11:-0.38770399 12:-0.2970402 13:-0.58276707 14:-0.39435854 15:0.2715619 
0.5 1:0.53901843 2:-0.91975382 3:-0.47127299 4:-0.18175163 5:0.4887684 6:-1.0171984 7:0.71850193 8:1.3282545 9:-0.64299924 10:1.0931635 11:-0.38770399 12:-0.2970402 13:-0.58276707 14:2.5282817 15:0.2715619 
0.5 1:0.53901843 2:-0.91975382 3:-0.47127299 4:-0.18175163 5:0.4887684 6:-1.0171984 7:0.71850193 8:1.3282545 9:1.5525118 10:1.0931635 11:2.5714962 12:-0.2970402 13:-0.58276707 14:2.5282817 15:0.2715619 
0.5 1:0.53901843 2:-0.91975382 3:-0.47127299 4:-0.18175163 5:-2.0413511 6:-1.0171984 7:-1.3895394 8:-0.7516821 9:-0.64299924 10:-0.91342505 11:-0.38770399 12:-0.2970402 13:-0.58276707 14:-0.39435854 15:0.2715619 
0.5 1:0.53901843 2:-0.91975382 3:2.1169279 4:-0.18175163 5:0.4887684 6:0.98165026 7:0.71850193 8:-0.7516821 9:1.5525118 10:1.0931635 11:-0.38770399 12:3.3513755 13:1.712721 14:-0.39435854 15:0.2715619 
0.5 1:0.53901843 2:1.0856432 3:-0.47127299 4:-0.18175163 5:0.4887684 6:0.98165026 7:0.71850193 8:-0.7516821 9:1.5525118 10:1.0931635 11:-0.38770399 12:-0.2970402 13:-0.58276707 14:-0.39435854 15:0.2715619 
0.5 1:0.53901843 2:-0.91975382 3:-0.47127299 4:-0.18175163 5:0.4887684 6:0.98165026 7:0.71850193 8:1.3282545 9:-0.64299924 10:1.0931635 11:-0.38770399 12:-0.2970402 13:-0.58276707 14:-0.39435854 15:0.2715619 
0.5 1:0.53901843 2:-0.91975382 3:-0.47127299 4:-0.18175163 5:-2.0413511 6:-1.0171984 7:-1.3895394 8:-0.7516821 9:-0.64299924 10:-0.91342505 11:-0.38770399 12:-0.2970402 13:-0.58276707 14:-0.39435854 15:0.2715619 
0.5 1:0.53901843 2:1.0856432 3:-0.47127299 4:-0.18175163 5:-2.0413511 6:-1.0171984 7:-1.3895394 8:-0.7516821 9:-0.64299924 10:-0.91342505 11:-0.38770399 12:-0.2970402 13:-0.58276707 14:-0.39435854 15:0.2715619 
0.449319879683225 1:-1.851462 2:1.0856432 3:2.1169279 4:-0.18175163 5:0.4887684 6:0.98165026 7:0.71850193 8:-0.7516821 9:-0.64299924 10:-0.91342505 11:-0.38770399 12:-0.2970402 13:1.712721 14:-0.39435854 15:0.2715619 
0.5 1:0.53901843 2:1.0856432 3:2.1169279 4:-0.18175163 5:0.4887684 6:0.98165026 7:0.71850193 8:1.3282545 9:-0.64299924 10:1.0931635 11:-0.38770399 12:-0.2970402 13:-0.58276707 14:-0.39435854 15:0.2715619 
0.5 1:0.53901843 2:1.0856432 3:-0.47127299 4:-0.18175163 5:0.4887684 6:0.98165026 7:-1.3895394 8:-0.7516821 9:-0.64299924 10:-0.91342505 11:-0.38770399 12:-0.2970402 13:-0.58276707 14:2.5282817 15:0.2715619 
0.5 1:0.53901843 2:1.0856432 3:-0.47127299 4:-0.18175163 5:0.4887684 6:0.98165026 7:-1.3895394 8:-0.7516821 9:-0.64299924 10:-0.91342505 11:-0.38770399 12:-0.2970402 13:-0.58276707 14:-0.39435854 15:0.2715619 
0.5 1:0.53901843 2:1.0856432 3:-0.47127299 4:-0.18175163 5:0.4887684 6:0.98165026 7:0.71850193 8:1.3282545 9:-0.64299924 10:1.0931635 11:-0.38770399 12:-0.2970402 13:-0.58276707 14:-0.39435854 15:0.2715619 
0.5 1:0.53901843 2:-0.91975382 3:-0.47127299 4:-0.18175163 5:0.4887684 6:-1.0171984 7:0.71850193 8:1.3282545 9:-0.64299924 10:1.0931635 11:-0.38770399 12:-0.2970402 13:1.712721 14:-0.39435854 15:0.2715619 
0.5 1:0.53901843 2:-0.91975382 3:-0.47127299 4:-0.18175163 5:0.4887684 6:0.98165026 7:0.71850193 8:-0.7516821 9:1.5525118 10:1.0931635 11:-0.38770399 12:-0.2970402 13:1.712721 14:-0.39435854 15:0.2715619 
0.5 1:0.53901843 2:-0.91975382 3:-0.47127299 4:-0.18175163 5:0.4887684 6:0.98165026 7:0.71850193 8:-0.7516821 9:-0.64299924 10:-0.91342505 11:-0.38770399 12:-0.2970402 13:1.712721 14:-0.39435854 15:0.2715619 
0.5 1:0.53901843 2:1.0856432 3:-0.47127299 4:-0.18175163 5:0.4887684 6:-1.0171984 7:0.71850193 8:1.3282545 9:1.5525118 10:1.0931635 11:2.5714962 12:-0.2970402 13:1.712721 14:-0.39435854 15:0.2715619 
0.5 1:0.53901843 2:-0.91975382 3:-0.47127299 4:-0.18175163 5:0.4887684 6:0.98165026 7:-1.3895394 8:-0.7516821 9:-0.64299924 10:-0.91342505 11:-0.38770399 12:-0.2970402 13:-0.58276707 14:-0.39435854 15:0.2715619 
0.5 1:0.53901843 2:-0.91975382 3:-0.47127299 4:-0.18175163 5:0.4887684 6:0.98165026 7:0.71850193 8:1.3282545 9:-0.64299924 10:-0.91342505 11:2.5714962 12:-0.2970402 13:-0.58276707 14:-0.39435854 15:0.2715619 
0.5 1:0.53901843 2:1.0856432 3:-0.47127299 4:-0.18175163 5:0.4887684 6:0.98165026 7:-1.3895394 8:-0.7516821 9:-0.64299924 10:-0.91342505 11:-0.38770399 12:-0.2970402 13:-0.58276707 14:-0.39435854 15:0.2715619 
0.5 1:0.53901843 2:-0.91975382 3:-0.47127299 4:-0.18175163 5:0.4887684 6:0.98165026 7:0.71850193 8:-0.7516821 9:-0.64299924 10:-0.91342505 11:-0.38770399 12:-0.2970402 13:1.712721 14:-0.39435854 15:0.2715619 
0.5 1:0.53901843 2:1.0856432 3:-0.47127299 4:-0.18175163 5:0.4887684 6:0.98165026 7:-1.3895394 8:-0.7516821 9:-0.64299924 10:-0.91342505 11:-0.38770399 12:-0.2970402 13:-0.58276707 14:-0.39435854 15:0.2715619 
0.5 1:0.53901843 2:-0.91975382 3:-0.47127299 4:-0.18175163 5:0.4887684 6:0.98165026 7:0.71850193 8:-0.7516821 9:-0.64299924 10:-0.91342505 11:-0.38770399 12:-0.2970402 13:1.712721 14:-0.39435854 15:0.2715619 
0.5 1:0.53901843 2:-0.91975382 3:-0.47127299 4:-0.18175163 5:0.4887684 6:0.98165026 7:0.71850193 8:-0.7516821 9:-0.64299924 10:-0.91342505 11:-0.38770399 12:-0.2970402 13:1.712721 14:-0.39435854 15:0.2715619 
0.5 1:0.53901843 2:1.0856432 3:-0.47127299 4:-0.18175163 5:0.4887684 6:0.98165026 7:0.71850193 8:1.3282545 9:-0.64299924 10:1.0931635 11:2.5714962 12:-0.2970402 13:1.712721 14:-0.39435854 15:0.2715619 
0.5 1:-1.851462 2:-0.91975382 3:-0.47127299 4:-0.18175163 5:0.4887684 6:-1.0171984 7:0.71850193 8:-0.7516821 9:-0.64299924 10:-0.91342505 11:-0.38770399 12:-0.2970402 13:1.712721 14:-0.39435854 15:0.2715619 
0.5 1:0.53901843 2:-0.91975382 3:-0.47127299 4:-0.18175163 5:0.4887684 6:0.98165026 7:-1.3895394 8:-0.7516821 9:-0.64299924 10:-0.91342505 11:-0.38770399 12:-0.2970402 13:-0.58276707 14:-0.39435854 15:0.2715619 
0.5 1:0.53901843 2:1.0856432 3:-0.47127299 4:-0.18175163 5:0.4887684 6:-1.0171984 7:0.71850193 8:-0.7516821 9:1.5525118 10:1.0931635 11:-0.38770399 12:-0.2970402 13:-0.58276707 14:-0.39435854 15:0.2715619 
0.5 1:0.53901843 2:1.0856432 3:-0.47127299 4:-0.18175163 5:0.4887684 6:-1.0171984 7:0.71850193 8:-0.7516821 9:1.5525118 10:1.0931635 11:-0.38770399 12:-0.2970402 13:-0.58276707 14:-0.39435854 15:0.2715619 
0.5 1:0.53901843 2:-0.91975382 3:-0.47127299 4:-0.18175163 5:0.4887684 6:0.98165026 7:0.71850193 8:-0.7516821 9:-0.64299924 10:-0.91342505 11:-0.38770399 12:-0.2970402 13:1.712721 14:-0.39435854 15:0.2715619 
0.5 1:0.53901843 2:-0.91975382 3:-0.47127299 4:-0.18175163 5:0.4887684 6:-1.0171984 7:0.71850193 8:1.3282545 9:1.5525118 10:1.0931635 11:-0.38770399 12:-0.2970402 13:-0.58276707 14:-0.39435854 15:0.2715619 
0.5 1:0.53901843 2:1.0856432 3:-0.47127299 4:-0.18175163 5:0.4887684 6:0.98165026 7:-1.3895394 8:-0.7516821 9:-0.64299924 10:-0.91342505 11:-0.38770399 12:-0.2970402 13:-0.58276707 14:-0.39435854 15:0.2715619 
0.5 1:0.53901843 2:-0.91975382 3:-0.47127299 4:-0.18175163 5:0.4887684 6:0.98165026 7:0.71850193 8:-0.7516821 9:-0.64299924 10:-0.91342505 11:-0.38770399 12:-0.2970402 13:1.712721 14:-0.39435854 15:0.2715619 
0.5 1:0.53901843 2:1.0856432 3:-0.47127299 4:-0.18175163 5:0.4887684 6:-1.0171984 7:0.71850193 8:1.3282545 9:-0.64299924 10:1.0931635 11:-0.38770399 12:-0.2970402 13:-0.58276707 14:-0.39435854 15:0.2715619 
0.5 1:0.53901843 2:1.0856432 3:-0.47127299 4:-0.18175163 5:0.4887684 6:-1.0171984 7:0.71850193 8:1.3282545 9:-0.64299924 10:1.0931635 11:-0.38770399 12:-0.2970402 13:1.712721 14:-0.39435854 15:0.2715619 
0.5 1:0.53901843 2:-0.91975382 3:-0.47127299 4:-0.18175163 5:0.4887684 6:-1.0171984 7:0.71850193 8:-0.7516821 9:-0.64299924 10:-0.91342505 11:-0.38770399 12:-0.2970402 13:1.712721 14:-0.39435854 15:0.2715619 
0.5 1:-1.851462 2:-0.91975382 3:2.1169279 4:-0.18175163 5:0.4887684 6:0.98165026 7:0.71850193 8:1.3282545 9:-0.64299924 10:-0.91342505 11:2.5714962 12:-0.2970402 13:-0.58276707 14:2.5282817 15:0.2715619 
0.5 1:0.53901843 2:1.0856432 3:-0.47127299 4:-0.18175163 5:0.4887684 6:0.98165026 7:0.71850193 8:-0.7516821 9:1.5525118 10:1.0931635 11:-0.38770399 12:-0.2970402 13:-0.58276707 14:2.5282817 15:0.2715619 
0.5 1:0.53901843 2:-0.91975382 3:-0.47127299 4:-0.18175163 5:0.4887684 6:-1.0171984 7:0.71850193 8:1.3282545 9:-0.64299924 10:1.0931635 11:-0.38770399 12:-0.2970402 13:1.712721 14:2.5282817 15:0.2715619 
0.5 1:0.53901843 2:-0.91975382 3:-0.47127299 4:-0.18175163 5:-2.0413511 6:-1.0171984 7:-1.3895394 8:-0.7516821 9:-0.64299924 10:-0.91342505 11:-0.38770399 12:-0.2970402 13:-0.58276707 14:-0.39435854 15:0.2715619 
0.5 1:0.53901843 2:-0.91975382 3:-0.47127299 4:-0.18175163 5:0.4887684 6:-1.0171984 7:0.71850193 8:-0.7516821 9:-0.64299924 10:-0.91342505 11:-0.38770399 12:-0.2970402 13:1.712721 14:-0.39435854 15:0.2715619 
0.5 1:0.53901843 2:-0.91975382 3:-0.47127299 4:-0.18175163 5:0.4887684 6:-1.0171984 7:0.71850193 8:1.3282545 9:-0.64299924 10:1.0931635 11:-0.38770399 12:-0.2970402 13:-0.58276707 14:2.5282817 15:0.2715619 
0.3104500117981094 1:0.53901843 2:1.0856432 3:2.1169279 4:-0.18175163 5:0.4887684 6:-1.0171984 7:0.71850193 8:1.3282545 9:1.5525118 10:1.0931635 11:-0.38770399 12:-0.2970402 13:-0.58276707 14:-0.39435854 15:0.2715619 
0.5 1:0.53901843 2:1.0856432 3:-0.47127299 4:-0.18175163 5:0.4887684 6:-1.0171984 7:0.71850193 8:1.3282545 9:-0.64299924 10:1.0931635 11:-0.38770399 12:-0.2970402 13:-0.58276707 14:-0.39435854 15:0.2715619 
0.2094213517010587 1:0.53901843 2:-0.91975382 3:2.1169279 4:-0.18175163 5:0.4887684 6:0.98165026 7:0.71850193 8:1.3282545 9:-0.64299924 10:1.0931635 11:-0.38770399 12:-0.2970402 13:-0.58276707 14:-0.39435854 15:0.2715619 
0.5 1:0.53901843 2:1.0856432 3:-0.47127299 4:-0.18175163 5:0.4887684 6:-1.0171984 7:0.71850193 8:1.3282545 9:-0.64299924 10:-0.91342505 11:2.5714962 12:-0.2970402 13:-0.58276707 14:-0.39435854 15:0.2715619 
0.5 1:0.53901843 2:-0.91975382 3:-0.47127299 4:-0.18175163 5:0.4887684 6:-1.0171984 7:0.71850193 8:-0.7516821 9:1.5525118 10:1.0931635 11:-0.38770399 12:-0.2970402 13:1.712721 14:-0.39435854 15:0.2715619 
0.5 1:-1.851462 2:1.0856432 3:-0.47127299 4:-0.18175163 5:0.4887684 6:0.98165026 7:0.71850193 8:-0.7516821 9:-0.64299924 10:-0.91342505 11:-0.38770399 12:-0.2970402 13:1.712721 14:2.5282817 15:0.2715619 
0.5 1:0.53901843 2:1.0856432 3:-0.47127299 4:-0.18175163 5:0.4887684 6:0.98165026 7:0.71850193 8:-0.7516821 9:1.5525118 10:1.0931635 11:-0.38770399 12:-0.2970402 13:1.712721 14:-0.39435854 15:0.2715619 
0.5 1:0.53901843 2:-0.91975382 3:-0.47127299 4:-0.18175163 5:0.4887684 6:0.98165026 7:0.71850193 8:-0.7516821 9:1.5525118 10:1.0931635 11:-0.38770399 12:-0.2970402 13:1.712721 14:-0.39435854 15:0.2715619 
0.5 1:0.53901843 2:1.0856432 3:-0.47127299 4:-0.18175163 5:0.4887684 6:0.98165026 7:0.71850193 8:-0.7516821 9:1.5525118 10:1.0931635 11:-0.38770399 12:-0.2970402 13:-0.58276707 14:-0.39435854 15:0.2715619 
0.5 1:0.53901843 2:1.0856432 3:-0.47127299 4:-0.18175163 5:0.4887684 6:-1.0171984 7:0.71850193 8:1.3282545 9:-0.64299924 10:-0.91342505 11:2.5714962 12:-0.2970402 13:-0.58276707 14:-0.39435854 15:0.2715619 
0.5 1:0.53901843 2:-0.91975382 3:-0.47127299 4:-0.18175163 5:0.4887684 6:-1.0171984 7:0.71850193 8:-0.7516821 9:1.5525118 10:1.0931635 11:-0.38770399 12:-0.2970402 13:-0.58276707 14:-0.39435854 15:0.2715619 
0.5 1:0.53901843 2:1.0856432 3:-0.47127299 4:-0.18175163 5:0.4887684 6:0.98165026 7:0.71850193 8:-0.7516821 9:1.5525118 10:1.0931635 11:-0.38770399 12:-0.2970402 13:1.712721 14:-0.39435854 15:0.2715619 
0.5 1:0.53901843 2:1.0856432 3:-0.47127299 4:-0.18175163 5:0.4887684 6:0.98165026 7:0.71850193 8:-0.7516821 9:1.5525118 10:1.0931635 11:-0.38770399 12:-0.2970402 13:-0.58276707 14:-0.39435854 15:0.2715619 
0.5 1:0.53901843 2:-0.91975382 3:-0.47127299 4:-0.18175163 5:0.4887684 6:0.98165026 7:0.71850193 8:-0.7516821 9:-0.64299924 10:-0.91342505 11:-0.38770399 12:-0.2970402 13:1.712721 14:-0.39435854 15:0.2715619 
0.5 1:0.53901843 2:-0.91975382 3:-0.47127299 4:-0.18175163 5:0.4887684 6:-1.0171984 7:0.71850193 8:1.3282545 9:1.5525118 10:1.0931635 11:2.5714962 12:3.3513755 13:-0.58276707 14:-0.39435854 15:0.2715619 
0.5 1:0.53901843 2:1.0856432 3:-0.47127299 4:-0.18175163 5:0.4887684 6:0.98165026 7:0.71850193 8:1.3282545 9:-0.64299924 10:1.0931635 11:2.5714962 12:-0.2970402 13:1.712721 14:-0.39435854 15:0.2715619 
