svm_type c_svc
kernel_type rbf
gamma 0.5
nr_class 2
total_sv 6129
rho 0.0183758
label 1 2
nr_sv 3091 3038
SV
2 1:0.45904741 2:1.2489493 3:-0.4370267 4:-0.17027899 5:0.73577823 6:1.179773 7:0.95707901 8:1.5357423 9:1.7582526 10:1.2995712 11:2.661132 12:-0.24593117 13:-0.47393793 14:-0.32151881 15:0.53318077 16:1.1352117 17:1.4084892 18:-0.12810315 19:-0.47914547 20:-0.10271824 21:1.5255349 22:1.8893893 23:1.928591 24:-0.30647524 
0.922110169541957 1:-1.9658385 2:-0.74767313 3:-0.4370267 4:-0.17027899 5:0.73577823 6:1.179773 7:0.95707901 8:-0.60176117 9:-0.5197573 10:-0.71750206 11:-0.3203615 12:-0.24593117 13:1.9108248 14:-0.32151881 15:0.53318077 16:1.1352117 17:1.4084892 18:-0.12810315 19:-0.47914547 20:-0.10271824 21:1.5255349 22:1.8893893 23:-0.46904288 24:-0.30647524 
1.051370996060753 1:-1.9658385 2:1.2489493 3:-0.4370267 4:-0.17027899 5:0.73577823 6:1.179773 7:0.95707901 8:1.5357423 9:-0.5197573 10:1.2995712 11:-0.3203615 12:-0.24593117 13:-0.47393793 14:-0.32151881 15:0.53318077 16:-0.8247039 17:-0.65956639 18:-0.12810315 19:1.892256 20:-0.10271824 21:-0.60606164 22:-0.47995792 23:-0.46904288 24:-0.30647524 
0.9587928472866136 1:0.45904741 2:-0.74767313 3:-0.4370267 4:-0.17027899 5:-1.2684543 6:-0.79285163 7:-0.9797567 8:-0.60176117 9:-0.5197573 10:-0.71750206 11:-0.3203615 12:-0.24593117 13:-0.47393793 14:-0.32151881 15:0.53318077 16:1.1352117 17:1.4084892 18:-0.12810315 19:1.892256 20:-0.10271824 21:1.5255349 22:-0.47995792 23:1.928591 24:-0.30647524 
1.016728476792631 1:0.45904741 2:1.2489493 3:-0.4370267 4:-0.17027899 5:0.73577823 6:-0.79285163 7:0.95707901 8:1.5357423 9:-0.5197573 10:1.2995712 11:-0.3203615 12:-0.24593117 13:-0.47393793 14:-0.32151881 15:0.53318077 16:1.1352117 17:-0.65956639 18:-0.12810315 19:-0.47914547 20:-0.10271824 21:1.5255349 22:-0.47995792 23:1.928591 24:-0.30647524 
2 1:0.45904741 2:-0.74767313 3:-0.4370267 4:4.0981952 5:-1.2684543 6:-0.79285163 7:-0.9797567 8:-0.60176117 9:-0.5197573 10:-0.71750206 11:-0.3203615 12:-0.24593117 13:-0.47393793 14:-0.32151881 15:-1.7177937 16:-0.8247039 17:-0.65956639 18:-0.12810315 19:-0.47914547 20:-0.10271824 21:-0.60606164 22:-0.47995792 23:-0.46904288 24:2.7554218 
1.155237998522012 1:0.45904741 2:1.2489493 3:-0.4370267 4:-0.17027899 5:0.73577823 6:-0.79285163 7:0.95707901 8:-0.60176117 9:1.7582526 10:1.2995712 11:-0.3203615 12:-0.24593117 13:-0.47393793 14:2.653532 15:0.53318077 16:1.1352117 17:-0.65956639 18:-0.12810315 19:-0.47914547 20:-0.10271824 21:1.5255349 22:-0.47995792 23:-0.46904288 24:-0.30647524 
2 1:0.45904741 2:1.2489493 3:-0.4370267 4:-0.17027899 5:-1.2684543 6:-0.79285163 7:-0.9797567 8:-0.60176117 9:-0.5197573 10:-0.71750206 11:-0.3203615 12:-0.24593117 13:-0.47393793 14:-0.32151881 15:0.53318077 16:1.1352117 17:1.4084892 18:-0.12810315 19:1.892256 20:-0.10271824 21:1.5255349 22:-0.47995792 23:-0.46904288 24:-0.30647524 
1.018267245661105 1:0.45904741 2:1.2489493 3:-0.4370267 4:4.0981952 5:0.73577823 6:1.179773 7:-0.9797567 8:-0.60176117 9:-0.5197573 10:-0.71750206 11:-0.3203615 12:-0.24593117 13:-0.47393793 14:2.653532 15:0.53318077 16:-0.8247039 17:-0.65956639 18:-0.12810315 19:-0.47914547 20:-0.10271824 21:-0.60606164 22:-0.47995792 23:-0.46904288 24:2.7554218 
1.145514104500262 1:0.45904741 2:-0.74767313 3:-0.4370267 4:-0.17027899 5:0.73577823 6:1.179773 7:0.95707901 8:1.5357423 9:-0.5197573 10:1.2995712 11:2.661132 12:-0.24593117 13:-0.47393793 14:-0.32151881 15:0.53318077 16:1.1352117 17:1.4084892 18:-0.12810315 19:-0.47914547 20:-0.10271824 21:1.5255349 22:-0.47995792 23:1.928591 24:-0.30647524 
1.084098331758631 1:-1.9658385 2:-0.74767313 3:2.0527872 4:-0.17027899 5:0.73577823 6:1.179773 7:-0.9797567 8:-0.60176117 9:-0.5197573 10:-0.71750206 11:-0.3203615 12:-0.24593117 13:-0.47393793 14:-0.32151881 15:0.53318077 16:-0.8247039 17:-0.65956639 18:-0.12810315 19:-0.47914547 20:-0.10271824 21:1.5255349 22:-0.47995792 23:-0.46904288 24:-0.30647524 
1.018463586264147 1:0.45904741 2:-0.74767313 3:-0.4370267 4:-0.17027899 5:0.73577823 6:1.179773 7:-0.9797567 8:-0.60176117 9:-0.5197573 10:-0.71750206 11:-0.3203615 12:-0.24593117 13:-0.47393793 14:-0.32151881 15:0.53318077 16:1.1352117 17:1.4084892 18:-0.12810315 19:1.892256 20:-0.10271824 21:-0.60606164 22:-0.47995792 23:1.928591 24:-0.30647524 
0.941757545274487 1:0.45904741 2:1.2489493 3:-0.4370267 4:-0.17027899 5:0.73577823 6:1.179773 7:0.95707901 8:-0.60176117 9:1.7582526 10:1.2995712 11:-0.3203615 12:-0.24593117 13:1.9108248 14:-0.32151881 15:0.53318077 16:1.1352117 17:1.4084892 18:-0.12810315 19:-0.47914547 20:-0.10271824 21:1.5255349 22:1.8893893 23:1.928591 24:-0.30647524 
2 1:-1.9658385 2:-0.74767313 3:-0.4370267 4:4.0981952 5:-1.2684543 6:-0.79285163 7:-0.9797567 8:-0.60176117 9:-0.5197573 10:-0.71750206 11:-0.3203615 12:-0.24593117 13:-0.47393793 14:-0.32151881 15:-1.7177937 16:-0.8247039 17:-0.65956639 18:-0.12810315 19:-0.47914547 20:-0.10271824 21:-0.60606164 22:-0.47995792 23:-0.46904288 24:2.7554218 
1.090418842080323 1:0.45904741 2:1.2489493 3:-0.4370267 4:-0.17027899 5:0.73577823 6:-0.79285163 7:0.95707901 8:-0.60176117 9:1.7582526 10:-0.71750206 11:-0.3203615 12:3.2444831 13:-0.47393793 14:-0.32151881 15:0.53318077 16:1.1352117 17:-0.65956639 18:-0.12810315 19:-0.47914547 20:-0.10271824 21:-0.60606164 22:1.8893893 23:-0.46904288 24:-0.30647524 
0.7792871211129511 1:-1.9658385 2:-0.74767313 3:2.0527872 4:-0.17027899 5:-1.2684543 6:-0.79285163 7:-0.9797567 8:-0.60176117 9:-0.5197573 10:-0.71750206 11:-0.3203615 12:-0.24593117 13:-0.47393793 14:-0.32151881 15:0.53318077 16:-0.8247039 17:-0.65956639 18:-0.12810315 19:-0.47914547 20:-0.10271824 21:-0.60606164 22:-0.47995792 23:1.928591 24:-0.30647524 
2 1:0.45904741 2:-0.74767313 3:-0.4370267 4:-0.17027899 5:0.73577823 6:1.179773 7:0.95707901 8:1.5357423 9:-0.5197573 10:1.2995712 11:-0.3203615 12:-0.24593117 13:-0.47393793 14:-0.32151881 15:0.53318077 16:1.1352117 17:-0.65956639 18:-0.12810315 19:-0.47914547 20:-0.10271824 21:-0.60606164 22:-0.47995792 23:1.928591 24:-0.30647524 
1.139331077012768 1:0.45904741 2:-0.74767313 3:-0.4370267 4:-0.17027899 5:0.73577823 6:1.179773 7:-0.9797567 8:-0.60176117 9:-0.5197573 10:-0.71750206 11:-0.3203615 12:-0.24593117 13:-0.47393793 14:-0.32151881 15:0.53318077 16:1.1352117 17:-0.65956639 18:-0.12810315 19:-0.47914547 20:-0.10271824 21:-0.60606164 22:1.8893893 23:1.928591 24:-0.30647524 
1.250538450305697 1:0.45904741 2:-0.74767313 3:-0.4370267 4:-0.17027899 5:0.73577823 6:1.179773 7:-0.9797567 8:-0.60176117 9:-0.5197573 10:-0.71750206 11:-0.3203615 12:-0.24593117 13:-0.47393793 14:2.653532 15:0.53318077 16:1.1352117 17:-0.65956639 18:-0.12810315 19:-0.47914547 20:-0.10271824 21:1.5255349 22:-0.47995792 23:-0.46904288 24:-0.30647524 
2 1:0.45904741 2:1.2489493 3:-0.4370267 4:-0.17027899 5:0.73577823 6:-0.79285163 7:0.95707901 8:1.5357423 9:-0.5197573 10:1.2995712 11:-0.3203615 12:-0.24593117 13:-0.47393793 14:-0.32151881 15:0.53318077 16:-0.8247039 17:-0.65956639 18:-0.12810315 19:-0.47914547 20:-0.10271824 21:-0.60606164 22:-0.47995792 23:1.928591 24:-0.30647524 
0.9384236017915577 1:-1.9658385 2:-0.74767313 3:2.0527872 4:-0.17027899 5:0.73577823 6:1.179773 7:0.95707901 8:1.5357423 9:-0.5197573 10:1.2995712 11:-0.3203615 12:-0.24593117 13:-0.47393793 14:-0.32151881 15:0.53318077 16:-0.8247039 17:1.4084892 18:-0.12810315 19:-0.47914547 20:-0.10271824 21:1.5255349 22:1.8893893 23:1.928591 24:-0.30647524 
1.003784398474157 1:-1.9658385 2:1.2489493 3:-0.4370267 4:-0.17027899 5:0.73577823 6:-0.79285163 7:0.95707901 8:-0.60176117 9:1.7582526 10:1.2995712 11:-0.3203615 12:-0.24593117 13:-0.47393793 14:2.653532 15:0.53318077 16:-0.8247039 17:-0.65956639 18:-0.12810315 19:1.892256 20:-0.10271824 21:-0.60606164 22:-0.47995792 23:1.928591 24:-0.30647524 
0.9554686666299863 1:0.45904741 2:-0.74767313 3:2.0527872 4:-0.17027899 5:-1.2684543 6:-0.79285163 7:-0.9797567 8:-0.60176117 9:-0.5197573 10:-0.71750206 11:-0.3203615 12:-0.24593117 13:-0.47393793 14:-0.32151881 15:0.53318077 16:-0.8247039 17:-0.65956639 18:-0.12810315 19:1.892256 20:-0.10271824 21:-0.60606164 22:-0.47995792 23:1.928591 24:-0.30647524 
2 1:0.45904741 2:-0.74767313 3:-0.4370267 4:-0.17027899 5:-1.2684543 6:-0.79285163 7:-0.9797567 8:-0.60176117 9:-0.5197573 10:-0.71750206 11:-0.3203615 12:-0.24593117 13:-0.47393793 14:-0.32151881 15:0.53318077 16:-0.8247039 17:-0.65956639 18:-0.12810315 19:-0.47914547 20:-0.10271824 21:-0.60606164 22:-0.47995792 23:1.928591 24:-0.30647524 
0.9453769399073556 1:0.45904741 2:-0.74767313 3:-0.4370267 4:-0.17027899 5:0.73577823 6:-0.79285163 7:0.95707901 8:-0.60176117 9:-0.5197573 10:-0.71750206 11:-0.3203615 12:-0.24593117 13:1.9108248 14:-0.32151881 15:0.53318077 16:1.1352117 17:1.4084892 18:-0.12810315 19:-0.47914547 20:-0.10271824 21:1.5255349 22:1.8893893 23:-0.46904288 24:-0.30647524 
0.7629657355348121 1:-1.9658385 2:-0.74767313 3:2.0527872 4:-0.17027899 5:0.73577823 6:-0.79285163 7:0.95707901 8:-0.60176117 9:1.7582526 10:1.2995712 11:-0.3203615 12:-0.24593117 13:1.9108248 14:-0.32151881 15:0.53318077 16:1.1352117 17:-0.65956639 18:-0.12810315 19:-0.47914547 20:-0.10271824 21:-0.60606164 22:-0.47995792 23:-0.46904288 24:-0.30647524 
1.070759495031389 1:-1.9658385 2:-0.74767313 3:-0.4370267 4:-0.17027899 5:0.73577823 6:-0.79285163 7:0.95707901 8:1.5357423 9:-0.5197573 10:1.2995712 11:-0.3203615 12:-0.24593117 13:-0.47393793 14:-0.32151881 15:0.53318077 16:-0.8247039 17:1.4084892 18:-0.12810315 19:-0.47914547 20:-0.10271824 21:-0.60606164 22:-0.47995792 23:-0.46904288 24:-0.30647524 
0.9016931352503933 1:0.45904741 2:1.2489493 3:2.0527872 4:-0.17027899 5:0.73577823 6:1.179773 7:0.95707901 8:1.5357423 9:1.7582526 10:1.2995712 11:2.661132 12:-0.24593117 13:-0.47393793 14:-0.32151881 15:0.53318077 16:-0.8247039 17:-0.65956639 18:-0.12810315 19:-0.47914547 20:-0.10271824 21:-0.60606164 22:-0.47995792 23:-0.46904288 24:-0.30647524 
1.016799228828212 1:0.45904741 2:-0.74767313 3:2.0527872 4:-0.17027899 5:-1.2684543 6:-0.79285163 7:-0.9797567 8:-0.60176117 9:-0.5197573 10:-0.71750206 11:-0.3203615 12:-0.24593117 13:-0.47393793 14:2.653532 15:0.53318077 16:1.1352117 17:1.4084892 18:-0.12810315 19:-0.47914547 20:-0.10271824 21:1.5255349 22:1.8893893 23:1.928591 24:-0.30647524 
2 1:0.45904741 2:1.2489493 3:-0.4370267 4:-0.17027899 5:0.73577823 6:1.179773 7:0.95707901 8:-0.60176117 9:1.7582526 10:-0.71750206 11:-0.3203615 12:3.2444831 13:1.9108248 14:-0.32151881 15:0.53318077 16:1.1352117 17:1.4084892 18:-0.12810315 19:-0.47914547 20:-0.10271824 21:-0.60606164 22:-0.47995792 23:-0.46904288 24:-0.30647524 
1.100020633545854 1:-1.9658385 2:1.2489493 3:-0.4370267 4:-0.17027899 5:0.73577823 6:-0.79285163 7:0.95707901 8:-0.60176117 9:1.7582526 10:1.2995712 11:-0.3203615 12:-0.24593117 13:-0.47393793 14:-0.32151881 15:0.53318077 16:1.1352117 17:-0.65956639 18:-0.12810315 19:-0.47914547 20:-0.10271824 21:-0.60606164 22:-0.47995792 23:1.928591 24:-0.30647524 
0.6871132450221953 1:-1.9658385 2:-0.74767313 3:2.0527872 4:-0.17027899 5:0.73577823 6:1.179773 7:0.95707901 8:-0.60176117 9:1.7582526 10:1.2995712 11:-0.3203615 12:-0.24593117 13:-0.47393793 14:-0.32151881 15:0.53318077 16:1.1352117 17:-0.65956639 18:-0.12810315 19:-0.47914547 20:-0.10271824 21:-0.60606164 22:-0.47995792 23:1.928591 24:-0.30647524 
0.8409124747120904 1:0.45904741 2:1.2489493 3:2.0527872 4:-0.17027899 5:0.73577823 6:-0.79285163 7:0.95707901 8:-0.60176117 9:1.7582526 10:1.2995712 11:-0.3203615 12:-0.24593117 13:-0.47393793 14:-0.32151881 15:0.53318077 16:1.1352117 17:1.4084892 18:-0.12810315 19:-0.47914547 20:-0.10271824 21:1.5255349 22:-0.47995792 23:1.928591 24:-0.30647524 
2 1:-1.9658385 2:-0.74767313 3:-0.4370267 4:-0.17027899 5:0.73577823 6:-0.79285163 7:0.95707901 8:-0.60176117 9:1.7582526 10:1.2995712 11:-0.3203615 12:-0.24593117 13:-0.47393793 14:-0.32151881 15:0.53318077 16:1.1352117 17:-0.65956639 18:-0.12810315 19:-0.47914547 20:-0.10271824 21:1.5255349 22:-0.47995792 23:-0.46904288 24:-0.30647524 
2 1:0.45904741 2:-0.74767313 3:-0.4370267 4:-0.17027899 5:0.73577823 6:1.179773 7:0.95707901 8:-0.60176117 9:1.7582526 10:1.2995712 11:-0.3203615 12:-0.24593117 13:-0.47393793 14:-0.32151881 15:0.53318077 16:-0.8247039 17:1.4084892 18:-0.12810315 19:-0.47914547 20:-0.10271824 21:-0.60606164 22:-0.47995792 23:1.928591 24:-0.30647524 
0.8388334469023072 1:0.45904741 2:1.2489493 3:2.0527872 4:-0.17027899 5:0.73577823 6:-0.79285163 7:0.95707901 8:-0.60176117 9:-0.5197573 10:-0.71750206 11:-0.3203615 12:-0.24593117 13:1.9108248 14:-0.32151881 15:0.53318077 16:-0.8247039 17:-0.65956639 18:-0.12810315 19:-0.47914547 20:-0.10271824 21:-0.60606164 22:-0.47995792 23:-0.46904288 24:-0.30647524 
2 1:0.45904741 2:1.2489493 3:-0.4370267 4:-0.17027899 5:0.73577823 6:1.179773 7:0.95707901 8:1.5357423 9:-0.5197573 10:1.2995712 11:-0.3203615 12:-0.24593117 13:-0.47393793 14:-0.32151881 15:0.53318077 16:-0.8247039 17:-0.65956639 18:-0.12810315 19:-0.47914547 20:-0.10271824 21:-0.60606164 22:1.8893893 23:-0.46904288 24:-0.30647524 
0.6565287185743579 1:-1.9658385 2:1.2489493 3:-0.4370267 4:-0.17027899 5:0.73577823 6:-0.79285163 7:0.95707901 8:-0.60176117 9:1.7582526 10:1.2995712 11:-0.3203615 12:-0.24593117 13:-0.47393793 14:-0.32151881 15:0.53318077 16:1.1352117 17:-0.65956639 18:-0.12810315 19:1.892256 20:-0.10271824 21:-0.60606164 22:-0.47995792 23:-0.46904288 24:-0.30647524 
1.266245032420281 1:0.45904741 2:1.2489493 3:-0.4370267 4:-0.17027899 5:0.73577823 6:-0.79285163 7:0.95707901 8:-0.60176117 9:1.7582526 10:1.2995712 11:-0.3203615 12:-0.24593117 13:-0.47393793 14:2.653532 15:0.53318077 16:1.1352117 17:1.4084892 18:-0.12810315 19:-0.47914547 20:-0.10271824 21:-0.60606164 22:-0.47995792 23:1.928591 24:-0.30647524 
1.129468106291958 1:0.45904741 2:-0.74767313 3:-0.4370267 4:-0.17027899 5:0.73577823 6:-0.79285163 7:0.95707901 8:-0.60176117 9:1.7582526 10:1.2995712 11:-0.3203615 12:-0.24593117 13:-0.47393793 14:-0.32151881 15:0.53318077 16:1.1352117 17:1.4084892 18:-0.12810315 19:1.892256 20:-0.10271824 21:1.5255349 22:1.8893893 23:1.928591 24:-0.30647524 
0.8158197239166458 1:0.45904741 2:-0.74767313 3:2.0527872 4:-0.17027899 5:0.73577823 6:1.179773 7:0.95707901 8:-0.60176117 9:1.7582526 10:1.2995712 11:-0.3203615 12:-0.24593117 13:-0.47393793 14:-0.32151881 15:0.53318077 16:1.1352117 17:-0.65956639 18:-0.12810315 19:-0.47914547 20:-0.10271824 21:-0.60606164 22:-0.47995792 23:-0.46904288 24:-0.30647524 
2 1:-1.9658385 2:-0.74767313 3:2.0527872 4:-0.17027899 5:-1.2684543 6:-0.79285163 7:-0.9797567 8:-0.60176117 9:-0.5197573 10:-0.71750206 11:-0.3203615 12:-0.24593117 13:-0.47393793 14:-0.32151881 15:0.53318077 16:1.1352117 17:1.4084892 18:-0.12810315 19:-0.47914547 20:-0.10271824 21:1.5255349 22:1.8893893 23:-0.46904288 24:-0.30647524 
1.231485567498178 1:0.45904741 2:-0.74767313 3:-0.4370267 4:-0.17027899 5:0.73577823 6:1.179773 7:0.95707901 8:-0.60176117 9:-0.5197573 10:-0.71750206 11:-0.3203615 12:-0.24593117 13:1.9108248 14:-0.32151881 15:0.53318077 16:1.1352117 17:-0.65956639 18:-0.12810315 19:-0.47914547 20:-0.10271824 21:-0.60606164 22:-0.47995792 23:-0.46904288 24:-0.30647524 
0.5790614780164698 1:-1.9658385 2:1.2489493 3:-0.4370267 4:-0.17027899 5:0.73577823 6:-0.79285163 7:0.95707901 8:-0.60176117 9:-0.5197573 10:-0.71750206 11:-0.3203615 12:-0.24593117 13:1.9108248 14:-0.32151881 15:0.53318077 16:1.1352117 17:-0.65956639 18:-0.12810315 19:1.892256 20:-0.10271824 21:-0.60606164 22:-0.47995792 23:-0.46904288 24:-0.30647524 
0.8725085232859828 1:-1.9658385 2:-0.74767313 3:-0.4370267 4:-0.17027899 5:0.73577823 6:-0.79285163 7:0.95707901 8:-0.60176117 9:1.7582526 10:1.2995712 11:-0.3203615 12:3.2444831 13:-0.47393793 14:-0.32151881 15:0.53318077 16:-0.8247039 17:-0.65956639 18:-0.12810315 19:-0.47914547 20:-0.10271824 21:-0.60606164 22:-0.47995792 23:1.928591 24:-0.30647524 
1.123248080855048 1:0.45904741 2:1.2489493 3:2.0527872 4:-0.17027899 5:-1.2684543 6:-0.79285163 7:-0.9797567 8:-0.60176117 9:-0.5197573 10:-0.71750206 11:-0.3203615 12:-0.24593117 13:-0.47393793 14:-0.32151881 15:0.53318077 16:1.1352117 17:-0.65956639 18:-0.12810315 19:-0.47914547 20:-0.10271824 21:1.5255349 22:-0.47995792 23:1.928591 24:-0.30647524 
2 1:0.45904741 2:-0.74767313 3:-0.4370267 4:-0.17027899 5:0.73577823 6:1.179773 7:-0.9797567 8:-0.60176117 9:-0.5197573 10:-0.71750206 11:-0.3203615 12:-0.24593117 13:-0.47393793 14:-0.32151881 15:0.53318077 16:-0.8247039 17:1.4084892 18:-0.12810315 19:-0.47914547 20:-0.10271824 21:-0.60606164 22:1.8893893 23:-0.46904288 24:-0.30647524 
1.049829820825906 1:0.45904741 2:1.2489493 3:-0.4370267 4:-0.17027899 5:0.73577823 6:-0.79285163 7:0.95707901 8:1.5357423 9:1.7582526 10:1.2995712 11:-0.3203615 12:-0.24593117 13:-0.47393793 14:-0.32151881 15:0.53318077 16:-0.8247039 17:-0.65956639 18:-0.12810315 19:-0.47914547 20:-0.10271824 21:-0.60606164 22:-0.47995792 23:-0.46904288 24:-0.30647524 
2 1:0.45904741 2:-0.74767313 3:-0.4370267 4:-0.17027899 5:0.73577823 6:1.179773 7:0.95707901 8:-0.60176117 9:-0.5197573 10:-0.71750206 11:-0.3203615 12:-0.24593117 13:1.9108248 14:-0.32151881 15:0.53318077 16:-0.8247039 17:-0.65956639 18:-0.12810315 19:-0.47914547 20:-0.10271824 21:-0.60606164 22:-0.47995792 23:-0.46904288 24:-0.30647524 
1.045882002720756 1:0.45904741 2:-0.74767313 3:2.0527872 4:-0.17027899 5:0.73577823 6:1.179773 7:0.95707901 8:1.5357423 9:-0.5197573 10:-0.71750206 11:2.661132 12:-0.24593117 13:-0.47393793 14:-0.32151881 15:0.53318077 16:1.1352117 17:1.4084892 18:-0.12810315 19:-0.47914547 20:-0.10271824 21:-0.60606164 22:-0.47995792 23:-0.46904288 24:-0.30647524 
2 1:0.45904741 2:-0.74767313 3:-0.4370267 4:4.0981952 5:-1.2684543 6:-0.79285163 7:-0.9797567 8:-0.60176117 9:-0.5197573 10:-0.71750206 11:-0.3203615 12:-0.24593117 13:-0.47393793 14:-0.32151881 15:-1.7177937 16:-0.8247039 17:-0.65956639 18:-0.12810315 19:-0.47914547 20:-0.10271824 21:-0.60606164 22:-0.47995792 23:-0.46904288 24:-0.30647524 
0.7871098888113416 1:-1.9658385 2:-0.74767313 3:2.0527872 4:-0.17027899 5:0.73577823 6:1.179773 7:0.95707901 8:-0.60176117 9:-0.5197573 10:-0.71750206 11:-0.3203615 12:-0.24593117 13:1.9108248 14:-0.32151881 15:0.53318077 16:-0.8247039 17:1.4084892 18:-0.12810315 19:-0.47914547 20:-0.10271824 21:-0.60606164 22:-0.47995792 23:-0.46904288 24:-0.30647524 
1.013076302891963 1:0.45904741 2:1.2489493 3:-0.4370267 4:-0.17027899 5:-1.2684543 6:-0.79285163 7:-0.9797567 8:-0.60176117 9:-0.5197573 10:-0.71750206 11:-0.3203615 12:-0.24593117 13:-0.47393793 14:-0.32151881 15:0.53318077 16:-0.8247039 17:-0.65956639 18:-0.12810315 19:1.892256 20:-0.10271824 21:1.5255349 22:-0.47995792 23:-0.46904288 24:2.7554218 
0.6655376811469058 1:-1.9658385 2:-0.74767313 3:2.0527872 4:-0.17027899 5:0.73577823 6:-0.79285163 7:0.95707901 8:-0.60176117 9:-0.5197573 10:-0.71750206 11:-0.3203615 12:-0.24593117 13:1.9108248 14:-0.32151881 15:0.53318077 16:1.1352117 17:-0.65956639 18:-0.12810315 19:-0.47914547 20:-0.10271824 21:1.5255349 22:1.8893893 23:-0.46904288 24:-0.30647524 
1.311848898567634 1:0.45904741 2:1.2489493 3:-0.4370267 4:-0.17027899 5:0.73577823 6:-0.79285163 7:0.95707901 8:-0.60176117 9:1.7582526 10:1.2995712 11:-0.3203615 12:-0.24593117 13:-0.47393793 14:-0.32151881 15:0.53318077 16:-0.8247039 17:-0.65956639 18:-0.12810315 19:-0.47914547 20:-0.10271824 21:-0.60606164 22:-0.47995792 23:1.928591 24:-0.30647524 
2 1:0.45904741 2:-0.74767313 3:-0.4370267 4:-0.17027899 5:0.73577823 6:1.179773 7:0.95707901 8:-0.60176117 9:1.7582526 10:1.2995712 11:-0.3203615 12:-0.24593117 13:-0.47393793 14:-0.32151881 15:0.53318077 16:1.1352117 17:1.4084892 18:-0.12810315 19:-0.47914547 20:-0.10271824 21:1.5255349 22:1.8893893 23:-0.46904288 24:-0.30647524 
0.87784662187523 1:0.45904741 2:1.2489493 3:2.0527872 4:-0.17027899 5:0.73577823 6:-0.79285163 7:0.95707901 8:-0.60176117 9:1.7582526 10:1.2995712 11:-0.3203615 12:-0.24593117 13:-0.47393793 14:-0.32151881 15:0.53318077 16:1.1352117 17:1.4084892 18:-0.12810315 19:-0.47914547 20:-0.10271824 21:-0.60606164 22:-0.47995792 23:1.928591 24:-0.30647524 
0.8612365266744657 1:0.45904741 2:-0.74767313 3:2.0527872 4:-0.17027899 5:0.73577823 6:1.179773 7:0.95707901 8:-0.60176117 9:1.7582526 10:1.2995712 11:-0.3203615 12:-0.24593117 13:-0.47393793 14:-0.32151881 15:0.53318077 16:-0.8247039 17:-0.65956639 18:-0.12810315 19:1.892256 20:-0.10271824 21:-0.60606164 22:-0.47995792 23:-0.46904288 24:-0.30647524 
2 1:0.45904741 2:-0.74767313 3:-0.4370267 4:-0.17027899 5:0.73577823 6:1.179773 7:0.95707901 8:-0.60176117 9:-0.5197573 10:-0.71750206 11:-0.3203615 12:-0.24593117 13:1.9108248 14:-0.32151881 15:0.53318077 16:-0.8247039 17:-0.65956639 18:-0.12810315 19:-0.47914547 20:-0.10271824 21:-0.60606164 22:-0.47995792 23:-0.46904288 24:-0.30647524 
1.029298219292111 1:0.45904741 2:-0.74767313 3:-0.4370267 4:-0.17027899 5:0.73577823 6:1.179773 7:0.95707901 8:1.5357423 9:1.7582526 10:1.2995712 11:-0.3203615 12:3.2444831 13:-0.47393793 14:2.653532 15:0.53318077 16:-0.8247039 17:-0.65956639 18:-0.12810315 19:-0.47914547 20:-0.10271824 21:-0.60606164 22:1.8893893 23:-0.46904288 24:-0.30647524 
1.001504195627304 1:0.45904741 2:-0.74767313 3:2.0527872 4:-0.17027899 5:0.73577823 6:1.179773 7:-0.9797567 8:-0.60176117 9:-0.5197573 10:-0.71750206 11:-0.3203615 12:-0.24593117 13:-0.47393793 14:2.653532 15:0.53318077 16:-0.8247039 17:-0.65956639 18:-0.12810315 19:-0.47914547 20:-0.10271824 21:1.5255349 22:-0.47995792 23:-0.46904288 24:-0.30647524 
2 1:0.45904741 2:-0.74767313 3:-0.4370267 4:-0.17027899 5:-1.2684543 6:-0.79285163 7:-0.9797567 8:-0.60176117 9:-0.5197573 10:-0.71750206 11:-0.3203615 12:-0.24593117 13:-0.47393793 14:-0.32151881 15:0.53318077 16:-0.8247039 17:1.4084892 18:-0.12810315 19:-0.47914547 20:-0.10271824 21:-0.60606164 22:1.8893893 23:-0.46904288 24:-0.30647524 
0.827789112513607 1:0.45904741 2:1.2489493 3:-0.4370267 4:-0.17027899 5:0.73577823 6:-0.79285163 7:-0.9797567 8:-0.60176117 9:-0.5197573 10:-0.71750206 11:-0.3203615 12:-0.24593117 13:-0.47393793 14:-0.32151881 15:0.53318077 16:-0.8247039 17:1.4084892 18:-0.12810315 19:-0.47914547 20:-0.10271824 21:1.5255349 22:1.8893893 23:-0.46904288 24:-0.30647524 
0.625818763056299 1:0.45904741 2:1.2489493 3:-0.4370267 4:-0.17027899 5:0.73577823 6:1.179773 7:-0.9797567 8:-0.60176117 9:-0.5197573 10:-0.71750206 11:-0.3203615 12:-0.24593117 13:-0.47393793 14:-0.32151881 15:0.53318077 16:-0.8247039 17:-0.65956639 18:-0.12810315 19:1.892256 20:-0.10271824 21:-0.60606164 22:-0.47995792 23:-0.46904288 24:-0.30647524 
1.560158568038747 1:0.45904741 2:1.2489493 3:-0.4370267 4:-0.17027899 5:0.73577823 6:1.179773 7:-0.9797567 8:-0.60176117 9:-0.5197573 10:-0.71750206 11:-0.3203615 12:-0.24593117 13:-0.47393793 14:-0.32151881 15:0.53318077 16:-0.8247039 17:1.4084892 18:-0.12810315 19:-0.47914547 20:-0.10271824 21:-0.60606164 22:1.8893893 23:-0.46904288 24:-0.30647524 
1.029363149095571 1:0.45904741 2:1.2489493 3:-0.4370267 4:-0.17027899 5:-1.2684543 6:-0.79285163 7:-0.9797567 8:-0.60176117 9:-0.5197573 10:-0.71750206 11:-0.3203615 12:-0.24593117 13:-0.47393793 14:2.653532 15:0.53318077 16:1.1352117 17:-0.65956639 18:-0.12810315 19:-0.47914547 20:-0.10271824 21:-0.60606164 22:1.8893893 23:-0.46904288 24:2.7554218 
1.048521556011421 1:0.45904741 2:-0.74767313 3:-0.4370267 4:-0.17027899 5:0.73577823 6:-0.79285163 7:0.95707901 8:1.5357423 9:-0.5197573 10:1.2995712 11:-0.3203615 12:-0.24593117 13:1.9108248 14:-0.32151881 15:0.53318077 16:-0.8247039 17:-0.65956639 18:-0.12810315 19:-0.47914547 20:-0.10271824 21:1.5255349 22:1.8893893 23:1.928591 24:-0.30647524 
2 1:0.45904741 2:1.2489493 3:-0.4370267 4:-0.17027899 5:0.73577823 6:1.179773 7:0.95707901 8:-0.60176117 9:1.7582526 10:1.2995712 11:-0.3203615 12:-0.24593117 13:-0.47393793 14:-0.32151881 15:0.53318077 16:1.1352117 17:-0.65956639 18:-0.12810315 19:-0.47914547 20:-0.10271824 21:-0.60606164 22:-0.47995792 23:1.928591 24:-0.30647524 
2 1:0.45904741 2:-0.74767313 3:-0.4370267 4:-0.17027899 5:-1.2684543 6:-0.79285163 7:-0.9797567 8:-0.60176117 9:-0.5197573 10:-0.71750206 11:-0.3203615 12:-0.24593117 13:-0.47393793 14:2.653532 15:0.53318077 16:-0.8247039 17:-0.65956639 18:-0.12810315 19:-0.47914547 20:-0.10271824 21:-0.60606164 22:-0.47995792 23:-0.46904288 24:-0.30647524 
0.8958506147341228 1:0.45904741 2:1.2489493 3:2.0527872 4:-0.17027899 5:0.73577823 6:-0.79285163 7:0.95707901 8:-0.60176117 9:1.7582526 10:1.2995712 11:-0.3203615 12:-0.24593117 13:-0.47393793 14:-0.32151881 15:0.53318077 16:1.1352117 17:1.4084892 18:-0.12810315 19:1.892256 20:-0.10271824 21:-0.60606164 22:-0.47995792 23:-0.46904288 24:-0.30647524 
2 1:0.45904741 2:-0.74767313 3:-0.4370267 4:-0.17027899 5:0.73577823 6:1.179773 7:0.95707901 8:-0.60176117 9:1.7582526 10:1.2995712 11:-0.3203615 12:-0.24593117 13:-0.47393793 14:-0.32151881 15:0.53318077 16:-0.8247039 17:1.4084892 18:-0.12810315 19:-0.47914547 20:-0.10271824 21:1.5255349 22:-0.47995792 23:-0.46904288 24:-0.30647524 
1.028362722715461 1:-1.9658385 2:1.2489493 3:-0.4370267 4:-0.17027899 5:0.73577823 6:-0.79285163 7:0.95707901 8:1.5357423 9:1.7582526 10:1.2995712 11:2.661132 12:-0.24593117 13:1.9108248 14:-0.32151881 15:0.53318077 16:1.1352117 17:-0.65956639 18:-0.12810315 19:-0.47914547 20:-0.10271824 21:-0.60606164 22:-0.47995792 23:-0.46904288 24:-0.30647524 
1.005322545166288 1:0.45904741 2:1.2489493 3:2.0527872 4:-0.17027899 5:0.73577823 6:1.179773 7:-0.9797567 8:-0.60176117 9:-0.5197573 10:-0.71750206 11:-0.3203615 12:-0.24593117 13:-0.47393793 14:-0.32151881 15:0.53318077 16:1.1352117 17:-0.65956639 18:-0.12810315 19:-0.47914547 20:-0.10271824 21:1.5255349 22:1.8893893 23:-0.46904288 24:-0.30647524 
1.043132507243055 1:0.45904741 2:-0.74767313 3:-0.4370267 4:-0.17027899 5:0.73577823 6:1.179773 7:-0.9797567 8:-0.60176117 9:-0.5197573 10:-0.71750206 11:-0.3203615 12:-0.24593117 13:-0.47393793 14:2.653532 15:0.53318077 16:-0.8247039 17:-0.65956639 18:-0.12810315 19:-0.47914547 20:-0.10271824 21:-0.60606164 22:-0.47995792 23:-0.46904288 24:2.7554218 
1.070323757830479 1:0.45904741 2:-0.74767313 3:-0.4370267 4:-0.17027899 5:0.73577823 6:-0.79285163 7:0.95707901 8:-0.60176117 9:1.7582526 10:1.2995712 11:-0.3203615 12:-0.24593117 13:-0.47393793 14:2.653532 15:0.53318077 16:1.1352117 17:-0.65956639 18:-0.12810315 19:-0.47914547 20:-0.10271824 21:-0.60606164 22:1.8893893 23:-0.46904288 24:-0.30647524 
1.01900231673632 1:0.45904741 2:1.2489493 3:-0.4370267 4:-0.17027899 5:0.73577823 6:1.179773 7:0.95707901 8:1.5357423 9:-0.5197573 10:-0.71750206 11:-0.3203615 12:3.2444831 13:-0.47393793 14:-0.32151881 15:0.53318077 16:1.1352117 17:1.4084892 18:-0.12810315 19:1.892256 20:-0.10271824 21:1.5255349 22:1.8893893 23:-0.46904288 24:-0.30647524 
2 1:0.45904741 2:-0.74767313 3:-0.4370267 4:-0.17027899 5:0.73577823 6:-0.79285163 7:0.95707901 8:-0.60176117 9:1.7582526 10:1.2995712 11:-0.3203615 12:-0.24593117 13:1.9108248 14:-0.32151881 15:0.53318077 16:1.1352117 17:-0.65956639 18:-0.12810315 19:-0.47914547 20:-0.10271824 21:1.5255349 22:-0.47995792 23:1.928591 24:-0.30647524 
0.6175532257060488 1:0.45904741 2:-0.74767313 3:-0.4370267 4:-0.17027899 5:-1.2684543 6:-0.79285163 7:-0.9797567 8:-0.60176117 9:-0.5197573 10:-0.71750206 11:-0.3203615 12:-0.24593117 13:-0.47393793 14:-0.32151881 15:0.53318077 16:-0.8247039 17:-0.65956639 18:-0.12810315 19:1.892256 20:-0.10271824 21:-0.60606164 22:-0.47995792 23:-0.46904288 24:-0.30647524 
0.776960562606696 1:0.45904741 2:1.2489493 3:2.0527872 4:-0.17027899 5:0.73577823 6:1.179773 7:0.95707901 8:1.5357423 9:-0.5197573 10:1.2995712 11:-0.3203615 12:-0.24593117 13:-0.47393793 14:-0.32151881 15:0.53318077 16:-0.8247039 17:1.4084892 18:-0.12810315 19:-0.47914547 20:-0.10271824 21:-0.60606164 22:-0.47995792 23:-0.46904288 24:-0.30647524 
1.036207929904559 1:0.45904741 2:1.2489493 3:-0.4370267 4:-0.17027899 5:0.73577823 6:-0.79285163 7:0.95707901 8:-0.60176117 9:1.7582526 10:1.2995712 11:-0.3203615 12:-0.24593117 13:-0.47393793 14:2.653532 15:0.53318077 16:-0.8247039 17:1.4084892 18:-0.12810315 19:1.892256 20:-0.10271824 21:1.5255349 22:1.8893893 23:-0.46904288 24:-0.30647524 
1.221859865492928 1:0.45904741 2:1.2489493 3:-0.4370267 4:-0.17027899 5:0.73577823 6:1.179773 7:0.95707901 8:1.5357423 9:-0.5197573 10:1.2995712 11:-0.3203615 12:-0.24593117 13:-0.47393793 14:-0.32151881 15:0.53318077 16:1.1352117 17:1.4084892 18:-0.12810315 19:-0.47914547 20:-0.10271824 21:1.5255349 22:1.8893893 23:-0.46904288 24:-0.30647524 
0.96867459393541 1:0.45904741 2:-0.74767313 3:2.0527872 4:-0.17027899 5:0.73577823 6:-0.79285163 7:0.95707901 8:1.5357423 9:-0.5197573 10:1.2995712 11:2.661132 12:-0.24593117 13:-0.47393793 14:-0.32151881 15:0.53318077 16:-0.8247039 17:1.4084892 18:-0.12810315 19:-0.47914547 20:-0.10271824 21:-0.60606164 22:-0.47995792 23:-0.46904288 24:-0.30647524 
1.012441021353571 1:0.45904741 2:-0.74767313 3:-0.4370267 4:-0.17027899 5:0.73577823 6:1.179773 7:0.95707901 8:1.5357423 9:1.7582526 10:1.2995712 11:2.661132 12:-0.24593117 13:-0.47393793 14:2.653532 15:0.53318077 16:1.1352117 17:1.4084892 18:-0.12810315 19:-0.47914547 20:-0.10271824 21:1.5255349 22:-0.47995792 23:-0.46904288 24:-0.30647524 
2 1:0.45904741 2:1.2489493 3:-0.4370267 4:-0.17027899 5:0.73577823 6:1.179773 7:0.95707901 8:1.5357423 9:-0.5197573 10:1.2995712 11:-0.3203615 12:-0.24593117 13:-0.47393793 14:-0.32151881 15:0.53318077 16:1.1352117 17:1.4084892 18:-0.12810315 19:-0.47914547 20:-0.10271824 21:1.5255349 22:1.8893893 23:-0.46904288 24:-0.30647524 
1.240366529199471 1:0.45904741 2:1.2489493 3:-0.4370267 4:-0.17027899 5:0.73577823 6:-0.79285163 7:0.95707901 8:1.5357423 9:-0.5197573 10:1.2995712 11:-0.3203615 12:-0.24593117 13:-0.47393793 14:-0.32151881 15:0.53318077 16:-0.8247039 17:-0.65956639 18:-0.12810315 19:1.892256 20:-0.10271824 21:-0.60606164 22:-0.47995792 23:-0.46904288 24:-0.30647524 
0.8253091539232433 1:0.45904741 2:1.2489493 3:-0.4370267 4:-0.17027899 5:0.73577823 6:1.179773 7:0.95707901 8:1.5357423 9:-0.5197573 10:1.2995712 11:-0.3203615 12:-0.24593117 13:-0.47393793 14:-0.32151881 15:0.53318077 16:1.1352117 17:1.4084892 18:-0.12810315 19:1.892256 20:-0.10271824 21:1.5255349 22:-0.47995792 23:-0.46904288 24:-0.30647524 
1.092918532154712 1:-1.9658385 2:1.2489493 3:-0.4370267 4:-0.17027899 5:0.73577823 6:1.179773 7:0.95707901 8:1.5357423 9:-0.5197573 10:-0.71750206 11:2.661132 12:-0.24593117 13:-0.47393793 14:-0.32151881 15:0.53318077 16:1.1352117 17:1.4084892 18:-0.12810315 19:-0.47914547 20:-0.10271824 21:1.5255349 22:1.8893893 23:-0.46904288 24:-0.30647524 
0.6032129416692082 1:0.45904741 2:-0.74767313 3:-0.4370267 4:-0.17027899 5:0.73577823 6:1.179773 7:0.95707901 8:1.5357423 9:-0.5197573 10:1.2995712 11:-0.3203615 12:-0.24593117 13:-0.47393793 14:-0.32151881 15:0.53318077 16:1.1352117 17:1.4084892 18:-0.12810315 19:-0.47914547 20:-0.10271824 21:-0.60606164 22:-0.47995792 23:-0.46904288 24:-0.30647524 
0.9096096013600196 1:-1.9658385 2:-0.74767313 3:2.0527872 4:-0.17027899 5:0.73577823 6:-0.79285163 7:0.95707901 8:1.5357423 9:-0.5197573 10:1.2995712 11:-0.3203615 12:-0.24593117 13:-0.47393793 14:-0.32151881 15:0.53318077 16:1.1352117 17:-0.65956639 18:-0.12810315 19:-0.47914547 20:-0.10271824 21:1.5255349 22:-0.47995792 23:-0.46904288 24:-0.30647524 
2 1:0.45904741 2:-0.74767313 3:-0.4370267 4:-0.17027899 5:0.73577823 6:1.179773 7:0.95707901 8:1.5357423 9:1.7582526 10:1.2995712 11:-0.3203615 12:-0.24593117 13:-0.47393793 14:-0.32151881 15:0.53318077 16:1.1352117 17:1.4084892 18:-0.12810315 19:-0.47914547 20:-0.10271824 21:-0.60606164 22:-0.47995792 23:-0.46904288 24:-0.30647524 
0.9463742167092934 1:0.45904741 2:-0.74767313 3:2.0527872 4:-0.17027899 5:0.73577823 6:1.179773 7:0.95707901 8:-0.60176117 9:1.7582526 10:1.2995712 11:-0.3203615 12:-0.24593117 13:1.9108248 14:-0.32151881 15:0.53318077 16:1.1352117 17:-0.65956639 18:-0.12810315 19:-0.47914547 20:-0.10271824 21:1.5255349 22:-0.47995792 23:-0.46904288 24:2.7554218 
2 1:0.45904741 2:1.2489493 3:-0.4370267 4:-0.17027899 5:0.73577823 6:1.179773 7:0.95707901 8:1.5357423 9:-0.5197573 10:1.2995712 11:-0.3203615 12:-0.24593117 13:-0.47393793 14:-0.32151881 15:0.53318077 16:-0.8247039 17:-0.65956639 18:-0.12810315 19:1.892256 20:-0.10271824 21:-0.60606164 22:-0.47995792 23:1.928591 24:-0.30647524 
1.029748104670284 1:0.45904741 2:-0.74767313 3:-0.4370267 4:-0.17027899 5:0.73577823 6:1.179773 7:-0.9797567 8:-0.60176117 9:-0.5197573 10:-0.71750206 11:-0.3203615 12:-0.24593117 13:-0.47393793 14:-0.32151881 15:0.53318077 16:-0.8247039 17:-0.65956639 18:4.7393122 19:-0.47914547 20:-0.10271824 21:-0.60606164 22:-0.47995792 23:1.928591 24:-0.30647524 
1.408410491970451 1:0.45904741 2:-0.74767313 3:2.0527872 4:-0.17027899 5:0.73577823 6:1.179773 7:0.95707901 8:1.5357423 9:1.7582526 10:1.2995712 11:-0.3203615 12:-0.24593117 13:-0.47393793 14:-0.32151881 15:0.53318077 16:1.1352117 17:1.4084892 18:-0.12810315 19:-0.47914547 20:-0.10271824 21:1.5255349 22:1.8893893 23:1.928591 24:-0.30647524 
1.102517233960171 1:0.45904741 2:-0.74767313 3:-0.4370267 4:-0.17027899 5:0.73577823 6:1.179773 7:0.95707901 8:-0.60176117 9:1.7582526 10:1.2995712 11:-0.3203615 12:-0.24593117 13:-0.47393793 14:-0.32151881 15:0.53318077 16:1.1352117 17:1.4084892 18:-0.12810315 19:-0.47914547 20:-0.10271824 21:1.5255349 22:-0.47995792 23:1.928591 24:-0.30647524 
0.9341780502054376 1:0.45904741 2:1.2489493 3:-0.4370267 4:-0.17027899 5:0.73577823 6:1.179773 7:0.95707901 8:1.5357423 9:1.7582526 10:1.2995712 11:2.661132 12:-0.24593117 13:-0.47393793 14:-0.32151881 15:0.53318077 16:-0.8247039 17:-0.65956639 18:-0.12810315 19:1.892256 20:-0.10271824 21:-0.60606164 22:-0.47995792 23:-0.46904288 24:-0.30647524 
2 1:0.45904741 2:1.2489493 3:-0.4370267 4:-0.17027899 5:0.73577823 6:1.179773 7:0.95707901 8:1.5357423 9:-0.5197573 10:1.2995712 11:-0.3203615 12:-0.24593117 13:-0.47393793 14:-0.32151881 15:0.53318077 16:1.1352117 17:1.4084892 18:-0.12810315 19:-0.47914547 20:-0.10271824 21:-0.60606164 22:-0.47995792 23:-0.46904288 24:-0.30647524 
0.8928102753525436 1:0.45904741 2:1.2489493 3:2.0527872 4:-0.17027899 5:0.73577823 6:-0.79285163 7:0.95707901 8:1.5357423 9:1.7582526 10:1.2995712 11:-0.3203615 12:-0.24593117 13:-0.47393793 14:-0.32151881 15:0.53318077 16:1.1352117 17:1.4084892 18:-0.12810315 19:-0.47914547 20:-0.10271824 21:-0.60606164 22:-0.47995792 23:-0.46904288 24:-0.30647524 
1.855414274373754 1:-1.9658385 2:-0.74767313 3:2.0527872 4:-0.17027899 5:0.73577823 6:-0.79285163 7:0.95707901 8:1.5357423 9:-0.5197573 10:1.2995712 11:-0.3203615 12:-0.24593117 13:-0.47393793 14:-0.32151881 15:0.53318077 16:1.1352117 17:-0.65956639 18:-0.12810315 19:-0.47914547 20:-0.10271824 21:1.5255349 22:-0.47995792 23:-0.46904288 24:-0.30647524 
1.000098924802341 1:-1.9658385 2:-0.74767313 3:2.0527872 4:-0.17027899 5:0.73577823 6:1.179773 7:0.95707901 8:1.5357423 9:1.7582526 10:-0.71750206 11:2.661132 12:3.2444831 13:-0.47393793 14:-0.32151881 15:0.53318077 16:-0.8247039 17:-0.65956639 18:-0.12810315 19:-0.47914547 20:-0.10271824 21:-0.60606164 22:-0.47995792 23:-0.46904288 24:-0.30647524 
0.9969093066286361 1:0.45904741 2:-0.74767313 3:-0.4370267 4:-0.17027899 5:0.73577823 6:1.179773 7:0.95707901 8:-0.60176117 9:1.7582526 10:1.2995712 11:-0.3203615 12:-0.24593117 13:-0.47393793 14:-0.32151881 15:0.53318077 16:1.1352117 17:-0.65956639 18:-0.12810315 19:-0.47914547 20:-0.10271824 21:1.5255349 22:1.8893893 23:-0.46904288 24:-0.30647524 
1.131116639463884 1:0.45904741 2:-0.74767313 3:2.0527872 4:-0.17027899 5:0.73577823 6:1.179773 7:0.95707901 8:1.5357423 9:-0.5197573 10:1.2995712 11:2.661132 12:-0.24593117 13:-0.47393793 14:-0.32151881 15:0.53318077 16:1.1352117 17:-0.65956639 18:-0.12810315 19:-0.47914547 20:-0.10271824 21:1.5255349 22:1.8893893 23:-0.46904288 24:-0.30647524 
0.6282534735393343 1:0.45904741 2:1.2489493 3:-0.4370267 4:-0.17027899 5:0.73577823 6:1.179773 7:0.95707901 8:-0.60176117 9:1.7582526 10:1.2995712 11:-0.3203615 12:-0.24593117 13:-0.47393793 14:-0.32151881 15:0.53318077 16:-0.8247039 17:1.4084892 18:-0.12810315 19:-0.47914547 20:-0.10271824 21:1.5255349 22:-0.47995792 23:-0.46904288 24:-0.30647524 
0.9189166655510382 1:0.45904741 2:1.2489493 3:-0.4370267 4:-0.17027899 5:0.73577823 6:-0.79285163 7:0.95707901 8:-0.60176117 9:1.7582526 10:1.2995712 11:-0.3203615 12:-0.24593117 13:-0.47393793 14:2.653532 15:0.53318077 16:-0.8247039 17:1.4084892 18:-0.12810315 19:-0.47914547 20:-0.10271824 21:1.5255349 22:1.8893893 23:1.928591 24:-0.30647524 
0.9580147338835221 1:-1.9658385 2:-0.74767313 3:-0.4370267 4:-0.17027899 5:0.73577823 6:-0.79285163 7:0.95707901 8:-0.60176117 9:-0.5197573 10:-0.71750206 11:-0.3203615 12:-0.24593117 13:1.9108248 14:-0.32151881 15:0.53318077 16:1.1352117 17:1.4084892 18:-0.12810315 19:1.892256 20:-0.10271824 21:-0.60606164 22:1.8893893 23:-0.46904288 24:-0.30647524 
2 1:0.45904741 2:-0.74767313 3:-0.4370267 4:-0.17027899 5:0.73577823 6:1.179773 7:-0.9797567 8:-0.60176117 9:-0.5197573 10:-0.71750206 11:-0.3203615 12:-0.24593117 13:-0.47393793 14:2.653532 15:0.53318077 16:1.1352117 17:-0.65956639 18:-0.12810315 19:-0.47914547 20:-0.10271824 21:-0.60606164 22:-0.47995792 23:-0.46904288 24:-0.30647524 
1.221258199071238 1:0.45904741 2:1.2489493 3:-0.4370267 4:-0.17027899 5:0.73577823 6:1.179773 7:0.95707901 8:1.5357423 9:1.7582526 10:1.2995712 11:-0.3203615 12:-0.24593117 13:1.9108248 14:-0.32151881 15:0.53318077 16:1.1352117 17:1.4084892 18:-0.12810315 19:1.892256 20:-0.10271824 21:1.5255349 22:1.8893893 23:-0.46904288 24:-0.30647524 
2 1:0.45904741 2:1.2489493 3:-0.4370267 4:-0.17027899 5:0.73577823 6:1.179773 7:0.95707901 8:1.5357423 9:1.7582526 10:1.2995712 11:-0.3203615 12:-0.24593117 13:1.9108248 14:-0.32151881 15:0.53318077 16:1.1352117 17:1.4084892 18:-0.12810315 19:-0.47914547 20:-0.10271824 21:-0.60606164 22:1.8893893 23:-0.46904288 24:-0.30647524 
2 1:0.45904741 2:-0.74767313 3:-0.4370267 4:-0.17027899 5:0.73577823 6:1.179773 7:-0.9797567 8:-0.60176117 9:-0.5197573 10:-0.71750206 11:-0.3203615 12:-0.24593117 13:-0.47393793 14:-0.32151881 15:0.53318077 16:-0.8247039 17:1.4084892 18:-0.12810315 19:-0.47914547 20:-0.10271824 21:-0.60606164 22:1.8893893 23:-0.46904288 24:-0.30647524 
1.019586562258456 1:0.45904741 2:1.2489493 3:-0.4370267 4:-0.17027899 5:0.73577823 6:1.179773 7:0.95707901 8:-0.60176117 9:1.7582526 10:1.2995712 11:-0.3203615 12:-0.24593117 13:1.9108248 14:2.653532 15:0.53318077 16:1.1352117 17:1.4084892 18:-0.12810315 19:1.892256 20:-0.10271824 21:1.5255349 22:1.8893893 23:1.928591 24:2.7554218 
0.9897157098863395 1:0.45904741 2:-0.74767313 3:-0.4370267 4:-0.17027899 5:-1.2684543 6:-0.79285163 7:-0.9797567 8:-0.60176117 9:-0.5197573 10:-0.71750206 11:-0.3203615 12:-0.24593117 13:-0.47393793 14:-0.32151881 15:0.53318077 16:1.1352117 17:-0.65956639 18:-0.12810315 19:-0.47914547 20:-0.10271824 21:1.5255349 22:-0.47995792 23:-0.46904288 24:2.7554218 
1.135961700792569 1:0.45904741 2:1.2489493 3:-0.4370267 4:-0.17027899 5:0.73577823 6:1.179773 7:0.95707901 8:-0.60176117 9:1.7582526 10:1.2995712 11:-0.3203615 12:3.2444831 13:1.9108248 14:-0.32151881 15:0.53318077 16:1.1352117 17:1.4084892 18:-0.12810315 19:-0.47914547 20:-0.10271824 21:1.5255349 22:1.8893893 23:1.928591 24:-0.30647524 
2 1:0.45904741 2:-0.74767313 3:-0.4370267 4:-0.17027899 5:0.73577823 6:1.179773 7:0.95707901 8:-0.60176117 9:1.7582526 10:1.2995712 11:-0.3203615 12:-0.24593117 13:1.9108248 14:-0.32151881 15:0.53318077 16:1.1352117 17:1.4084892 18:-0.12810315 19:-0.47914547 20:-0.10271824 21:1.5255349 22:1.8893893 23:-0.46904288 24:-0.30647524 
1.174535657825676 1:0.45904741 2:-0.74767313 3:-0.4370267 4:-0.17027899 5:0.73577823 6:1.179773 7:0.95707901 8:-0.60176117 9:1.7582526 10:1.2995712 11:-0.3203615 12:3.2444831 13:-0.47393793 14:-0.32151881 15:0.53318077 16:-0.8247039 17:1.4084892 18:-0.12810315 19:-0.47914547 20:-0.10271824 21:1.5255349 22:1.8893893 23:1.928591 24:-0.30647524 
1.055198130182532 1:0.45904741 2:1.2489493 3:-0.4370267 4:-0.17027899 5:0.73577823 6:1.179773 7:0.95707901 8:-0.60176117 9:1.7582526 10:1.2995712 11:-0.3203615 12:3.2444831 13:-0.47393793 14:-0.32151881 15:0.53318077 16:1.1352117 17:1.4084892 18:-0.12810315 19:-0.47914547 20:-0.10271824 21:1.5255349 22:-0.47995792 23:1.928591 24:-0.30647524 
0.9502677656841734 1:-1.9658385 2:-0.74767313 3:-0.4370267 4:-0.17027899 5:0.73577823 6:-0.79285163 7:0.95707901 8:-0.60176117 9:-0.5197573 10:-0.71750206 11:-0.3203615 12:-0.24593117 13:1.9108248 14:-0.32151881 15:0.53318077 16:1.1352117 17:1.4084892 18:-0.12810315 19:-0.47914547 20:-0.10271824 21:-0.60606164 22:1.8893893 23:-0.46904288 24:-0.30647524 
1.01442141926636 1:0.45904741 2:-0.74767313 3:-0.4370267 4:-0.17027899 5:0.73577823 6:1.179773 7:0.95707901 8:1.5357423 9:1.7582526 10:1.2995712 11:-0.3203615 12:-0.24593117 13:-0.47393793 14:2.653532 15:0.53318077 16:1.1352117 17:1.4084892 18:-0.12810315 19:1.892256 20:-0.10271824 21:-0.60606164 22:1.8893893 23:-0.46904288 24:2.7554218 
2 1:0.45904741 2:-0.74767313 3:-0.4370267 4:-0.17027899 5:0.73577823 6:-0.79285163 7:0.95707901 8:-0.60176117 9:1.7582526 10:1.2995712 11:-0.3203615 12:-0.24593117 13:-0.47393793 14:-0.32151881 15:0.53318077 16:1.1352117 17:-0.65956639 18:-0.12810315 19:-0.47914547 20:-0.10271824 21:-0.60606164 22:-0.47995792 23:-0.46904288 24:-0.30647524 
1.064336838951952 1:0.45904741 2:1.2489493 3:-0.4370267 4:-0.17027899 5:0.73577823 6:1.179773 7:0.95707901 8:1.5357423 9:-0.5197573 10:1.2995712 11:-0.3203615 12:-0.24593117 13:1.9108248 14:-0.32151881 15:0.53318077 16:1.1352117 17:1.4084892 18:-0.12810315 19:1.892256 20:-0.10271824 21:1.5255349 22:1.8893893 23:-0.46904288 24:2.7554218 
0.9688769615096009 1:-1.9658385 2:-0.74767313 3:-0.4370267 4:-0.17027899 5:0.73577823 6:-0.79285163 7:0.95707901 8:-0.60176117 9:1.7582526 10:1.2995712 11:-0.3203615 12:3.2444831 13:-0.47393793 14:-0.32151881 15:0.53318077 16:1.1352117 17:-0.65956639 18:-0.12810315 19:-0.47914547 20:-0.10271824 21:-0.60606164 22:-0.47995792 23:-0.46904288 24:-0.30647524 
1.101158493835677 1:0.45904741 2:-0.74767313 3:-0.4370267 4:-0.17027899 5:0.73577823 6:1.179773 7:0.95707901 8:1.5357423 9:1.7582526 10:1.2995712 11:-0.3203615 12:-0.24593117 13:1.9108248 14:-0.32151881 15:0.53318077 16:1.1352117 17:-0.65956639 18:-0.12810315 19:-0.47914547 20:-0.10271824 21:1.5255349 22:1.8893893 23:-0.46904288 24:-0.30647524 
1.702150935021901 1:0.45904741 2:1.2489493 3:-0.4370267 4:-0.17027899 5:0.73577823 6:-0.79285163 7:0.95707901 8:-0.60176117 9:1.7582526 10:1.2995712 11:-0.3203615 12:-0.24593117 13:-0.47393793 14:-0.32151881 15:0.53318077 16:-0.8247039 17:-0.65956639 18:-0.12810315 19:-0.47914547 20:-0.10271824 21:-0.60606164 22:-0.47995792 23:1.928591 24:-0.30647524 
2 1:0.45904741 2:-0.74767313 3:-0.4370267 4:-0.17027899 5:0.73577823 6:1.179773 7:0.95707901 8:-0.60176117 9:1.7582526 10:1.2995712 11:-0.3203615 12:-0.24593117 13:-0.47393793 14:2.653532 15:0.53318077 16:1.1352117 17:1.4084892 18:-0.12810315 19:-0.47914547 20:-0.10271824 21:1.5255349 22:1.8893893 23:1.928591 24:-0.30647524 
1.083754739776298 1:0.45904741 2:-0.74767313 3:2.0527872 4:-0.17027899 5:0.73577823 6:-0.79285163 7:0.95707901 8:-0.60176117 9:1.7582526 10:1.2995712 11:-0.3203615 12:-0.24593117 13:1.9108248 14:-0.32151881 15:0.53318077 16:1.1352117 17:-0.65956639 18:-0.12810315 19:-0.47914547 20:-0.10271824 21:-0.60606164 22:-0.47995792 23:1.928591 24:-0.30647524 
1.143209148621874 1:0.45904741 2:-0.74767313 3:-0.4370267 4:-0.17027899 5:0.73577823 6:-0.79285163 7:0.95707901 8:-0.60176117 9:1.7582526 10:1.2995712 11:-0.3203615 12:-0.24593117 13:-0.47393793 14:-0.32151881 15:0.53318077 16:1.1352117 17:-0.65956639 18:-0.12810315 19:1.892256 20:-0.10271824 21:-0.60606164 22:-0.47995792 23:-0.46904288 24:-0.30647524 
2 1:0.45904741 2:1.2489493 3:-0.4370267 4:-0.17027899 5:0.73577823 6:1.179773 7:0.95707901 8:1.5357423 9:-0.5197573 10:1.2995712 11:2.661132 12:-0.24593117 13:-0.47393793 14:-0.32151881 15:0.53318077 16:-0.8247039 17:-0.65956639 18:-0.12810315 19:-0.47914547 20:-0.10271824 21:-0.60606164 22:-0.47995792 23:-0.46904288 24:-0.30647524 
0.9773031343407222 1:-1.9658385 2:1.2489493 3:-0.4370267 4:-0.17027899 5:0.73577823 6:-0.79285163 7:0.95707901 8:1.5357423 9:1.7582526 10:-0.71750206 11:2.661132 12:3.2444831 13:-0.47393793 14:-0.32151881 15:0.53318077 16:1.1352117 17:1.4084892 18:-0.12810315 19:-0.47914547 20:-0.10271824 21:-0.60606164 22:-0.47995792 23:-0.46904288 24:-0.30647524 
0.8171891378992325 1:0.45904741 2:1.2489493 3:2.0527872 4:-0.17027899 5:-1.2684543 6:-0.79285163 7:-0.9797567 8:-0.60176117 9:-0.5197573 10:-0.71750206 11:-0.3203615 12:-0.24593117 13:-0.47393793 14:-0.32151881 15:0.53318077 16:1.1352117 17:1.4084892 18:-0.12810315 19:-0.47914547 20:-0.10271824 21:1.5255349 22:1.8893893 23:-0.46904288 24:-0.30647524 
0.7367797071050719 1:-1.9658385 2:1.2489493 3:2.0527872 4:-0.17027899 5:0.73577823 6:-0.79285163 7:0.95707901 8:1.5357423 9:-0.5197573 10:-0.71750206 11:2.661132 12:-0.24593117 13:-0.47393793 14:-0.32151881 15:0.53318077 16:1.1352117 17:1.4084892 18:-0.12810315 19:-0.47914547 20:-0.10271824 21:-0.60606164 22:-0.47995792 23:1.928591 24:-0.30647524 
0.723577654942365 1:-1.9658385 2:1.2489493 3:2.0527872 4:-0.17027899 5:0.73577823 6:1.179773 7:0.95707901 8:-0.60176117 9:1.7582526 10:1.2995712 11:-0.3203615 12:-0.24593117 13:-0.47393793 14:-0.32151881 15:0.53318077 16:1.1352117 17:1.4084892 18:-0.12810315 19:-0.47914547 20:-0.10271824 21:-0.60606164 22:-0.47995792 23:-0.46904288 24:-0.30647524 
1.017264733987078 1:-1.9658385 2:-0.74767313 3:-0.4370267 4:-0.17027899 5:0.73577823 6:1.179773 7:0.95707901 8:-0.60176117 9:1.7582526 10:1.2995712 11:-0.3203615 12:-0.24593117 13:-0.47393793 14:-0.32151881 15:0.53318077 16:-0.8247039 17:-0.65956639 18:-0.12810315 19:-0.47914547 20:-0.10271824 21:-0.60606164 22:1.8893893 23:-0.46904288 24:2.7554218 
1.085789559440564 1:-1.9658385 2:-0.74767313 3:-0.4370267 4:-0.17027899 5:0.73577823 6:-0.79285163 7:0.95707901 8:-0.60176117 9:1.7582526 10:1.2995712 11:-0.3203615 12:-0.24593117 13:-0.47393793 14:2.653532 15:0.53318077 16:-0.8247039 17:1.4084892 18:-0.12810315 19:-0.47914547 20:-0.10271824 21:-0.60606164 22:-0.47995792 23:-0.46904288 24:-0.30647524 
2 1:0.45904741 2:-0.74767313 3:-0.4370267 4:-0.17027899 5:0.73577823 6:1.179773 7:0.95707901 8:-0.60176117 9:-0.5197573 10:-0.71750206 11:-0.3203615 12:-0.24593117 13:1.9108248 14:-0.32151881 15:0.53318077 16:1.1352117 17:-0.65956639 18:-0.12810315 19:-0.47914547 20:-0.10271824 21:1.5255349 22:-0.47995792 23:-0.46904288 24:-0.30647524 
0.7123484853746577 1:0.45904741 2:1.2489493 3:-0.4370267 4:-0.17027899 5:0.73577823 6:-0.79285163 7:0.95707901 8:-0.60176117 9:-0.5197573 10:-0.71750206 11:-0.3203615 12:-0.24593117 13:1.9108248 14:-0.32151881 15:0.53318077 16:-0.8247039 17:1.4084892 18:-0.12810315 19:-0.47914547 20:-0.10271824 21:1.5255349 22:-0.47995792 23:-0.46904288 24:-0.30647524 
2 1:0.45904741 2:1.2489493 3:-0.4370267 4:-0.17027899 5:0.73577823 6:1.179773 7:0.95707901 8:1.5357423 9:-0.5197573 10:1.2995712 11:2.661132 12:-0.24593117 13:-0.47393793 14:-0.32151881 15:0.53318077 16:1.1352117 17:1.4084892 18:-0.12810315 19:-0.47914547 20:-0.10271824 21:1.5255349 22:-0.47995792 23:-0.46904288 24:-0.30647524 
1.005651735461747 1:0.45904741 2:1.2489493 3:-0.4370267 4:-0.17027899 5:0.73577823 6:1.179773 7:0.95707901 8:1.5357423 9:-0.5197573 10:-0.71750206 11:2.661132 12:3.2444831 13:-0.47393793 14:-0.32151881 15:0.53318077 16:1.1352117 17:1.4084892 18:-0.12810315 19:-0.47914547 20:-0.10271824 21:-0.60606164 22:-0.47995792 23:-0.46904288 24:-0.30647524 
1.176540920771948 1:0.45904741 2:-0.74767313 3:-0.4370267 4:-0.17027899 5:0.73577823 6:1.179773 7:0.95707901 8:1.5357423 9:1.7582526 10:1.2995712 11:-0.3203615 12:-0.24593117 13:-0.47393793 14:-0.32151881 15:0.53318077 16:-0.8247039 17:-0.65956639 18:-0.12810315 19:-0.47914547 20:-0.10271824 21:-0.60606164 22:-0.47995792 23:-0.46904288 24:2.7554218 
0.5537352318246177 1:-1.9658385 2:1.2489493 3:-0.4370267 4:-0.17027899 5:0.73577823 6:-0.79285163 7:0.95707901 8:1.5357423 9:-0.5197573 10:1.2995712 11:-0.3203615 12:-0.24593117 13:-0.47393793 14:-0.32151881 15:0.53318077 16:-0.8247039 17:1.4084892 18:-0.12810315 19:-0.47914547 20:-0.10271824 21:-0.60606164 22:-0.47995792 23:-0.46904288 24:-0.30647524 
2 1:0.45904741 2:-0.74767313 3:-0.4370267 4:-0.17027899 5:0.73577823 6:1.179773 7:0.95707901 8:1.5357423 9:-0.5197573 10:1.2995712 11:-0.3203615 12:-0.24593117 13:1.9108248 14:-0.32151881 15:0.53318077 16:1.1352117 17:-0.65956639 18:-0.12810315 19:-0.47914547 20:-0.10271824 21:-0.60606164 22:-0.47995792 23:-0.46904288 24:-0.30647524 
1.271530517746384 1:0.45904741 2:1.2489493 3:-0.4370267 4:-0.17027899 5:0.73577823 6:1.179773 7:0.95707901 8:-0.60176117 9:1.7582526 10:1.2995712 11:-0.3203615 12:-0.24593117 13:1.9108248 14:-0.32151881 15:0.53318077 16:-0.8247039 17:1.4084892 18:-0.12810315 19:-0.47914547 20:-0.10271824 21:1.5255349 22:-0.47995792 23:-0.46904288 24:-0.30647524 
0.442128499148844 1:0.45904741 2:-0.74767313 3:-0.4370267 4:-0.17027899 5:0.73577823 6:-0.79285163 7:0.95707901 8:-0.60176117 9:-0.5197573 10:-0.71750206 11:-0.3203615 12:-0.24593117 13:1.9108248 14:-0.32151881 15:0.53318077 16:-0.8247039 17:1.4084892 18:-0.12810315 19:-0.47914547 20:-0.10271824 21:1.5255349 22:-0.47995792 23:-0.46904288 24:-0.30647524 
2 1:0.45904741 2:1.2489493 3:-0.4370267 4:-0.17027899 5:0.73577823 6:1.179773 7:0.95707901 8:-0.60176117 9:1.7582526 10:1.2995712 11:-0.3203615 12:-0.24593117 13:-0.47393793 14:-0.32151881 15:0.53318077 16:1.1352117 17:1.4084892 18:-0.12810315 19:-0.47914547 20:-0.10271824 21:1.5255349 22:1.8893893 23:-0.46904288 24:-0.30647524 
0.9595886619186922 1:0.45904741 2:-0.74767313 3:-0.4370267 4:-0.17027899 5:0.73577823 6:-0.79285163 7:0.95707901 8:-0.60176117 9:-0.5197573 10:-0.71750206 11:2.661132 12:-0.24593117 13:-0.47393793 14:-0.32151881 15:0.53318077 16:-0.8247039 17:-0.65956639 18:-0.12810315 19:-0.47914547 20:-0.10271824 21:-0.60606164 22:-0.47995792 23:-0.46904288 24:-0.30647524 
0.9950093974593259 1:0.45904741 2:1.2489493 3:-0.4370267 4:-0.17027899 5:0.73577823 6:-0.79285163 7:0.95707901 8:1.5357423 9:1.7582526 10:1.2995712 11:-0.3203615 12:-0.24593117 13:-0.47393793 14:-0.32151881 15:0.53318077 16:1.1352117 17:1.4084892 18:-0.12810315 19:1.892256 20:-0.10271824 21:-0.60606164 22:-0.47995792 23:-0.46904288 24:-0.30647524 
0.6091371446607403 1:0.45904741 2:1.2489493 3:-0.4370267 4:-0.17027899 5:0.73577823 6:-0.79285163 7:-0.9797567 8:-0.60176117 9:-0.5197573 10:-0.71750206 11:-0.3203615 12:-0.24593117 13:-0.47393793 14:-0.32151881 15:0.53318077 16:1.1352117 17:-0.65956639 18:-0.12810315 19:1.892256 20:-0.10271824 21:-0.60606164 22:-0.47995792 23:-0.46904288 24:-0.30647524 
0.8840120947836514 1:-1.9658385 2:-0.74767313 3:2.0527872 4:-0.17027899 5:0.73577823 6:1.179773 7:-0.9797567 8:-0.60176117 9:-0.5197573 10:-0.71750206 11:-0.3203615 12:-0.24593117 13:-0.47393793 14:-0.32151881 15:0.53318077 16:1.1352117 17:1.4084892 18:-0.12810315 19:-0.47914547 20:-0.10271824 21:-0.60606164 22:-0.47995792 23:-0.46904288 24:-0.30647524 
2 1:0.45904741 2:-0.74767313 3:-0.4370267 4:-0.17027899 5:0.73577823 6:1.179773 7:0.95707901 8:-0.60176117 9:1.7582526 10:1.2995712 11:-0.3203615 12:-0.24593117 13:-0.47393793 14:-0.32151881 15:0.53318077 16:1.1352117 17:-0.65956639 18:-0.12810315 19:-0.47914547 20:-0.10271824 21:-0.60606164 22:-0.47995792 23:1.928591 24:-0.30647524 
1.215227284564027 1:0.45904741 2:-0.74767313 3:-0.4370267 4:-0.17027899 5:0.73577823 6:1.179773 7:0.95707901 8:1.5357423 9:-0.5197573 10:1.2995712 11:-0.3203615 12:-0.24593117 13:-0.47393793 14:-0.32151881 15:0.53318077 16:1.1352117 17:-0.65956639 18:-0.12810315 19:-0.47914547 20:-0.10271824 21:1.5255349 22:-0.47995792 23:1.928591 24:-0.30647524 
0.6845168606937904 1:0.45904741 2:-0.74767313 3:-0.4370267 4:-0.17027899 5:0.73577823 6:-0.79285163 7:0.95707901 8:-0.60176117 9:-0.5197573 10:-0.71750206 11:-0.3203615 12:-0.24593117 13:1.9108248 14:-0.32151881 15:0.53318077 16:-0.8247039 17:1.4084892 18:-0.12810315 19:-0.47914547 20:-0.10271824 21:-0.60606164 22:-0.47995792 23:-0.46904288 24:-0.30647524 
0.8421323661726999 1:-1.9658385 2:1.2489493 3:2.0527872 4:-0.17027899 5:0.73577823 6:1.179773 7:0.95707901 8:-0.60176117 9:1.7582526 10:1.2995712 11:-0.3203615 12:-0.24593117 13:1.9108248 14:-0.32151881 15:0.53318077 16:1.1352117 17:1.4084892 18:-0.12810315 19:-0.47914547 20:-0.10271824 21:1.5255349 22:1.8893893 23:1.928591 24:-0.30647524 
2 1:0.45904741 2:-0.74767313 3:-0.4370267 4:-0.17027899 5:0.73577823 6:-0.79285163 7:0.95707901 8:-0.60176117 9:-0.5197573 10:-0.71750206 11:-0.3203615 12:-0.24593117 13:1.9108248 14:-0.32151881 15:0.53318077 16:-0.8247039 17:1.4084892 18:-0.12810315 19:-0.47914547 20:-0.10271824 21:-0.60606164 22:-0.47995792 23:-0.46904288 24:-0.30647524 
0.9566395714924042 1:0.45904741 2:1.2489493 3:2.0527872 4:-0.17027899 5:0.73577823 6:1.179773 7:0.95707901 8:-0.60176117 9:1.7582526 10:1.2995712 11:-0.3203615 12:-0.24593117 13:-0.47393793 14:2.653532 15:0.53318077 16:1.1352117 17:1.4084892 18:-0.12810315 19:-0.47914547 20:-0.10271824 21:1.5255349 22:1.8893893 23:-0.46904288 24:-0.30647524 
1.168284950711555 1:0.45904741 2:-0.74767313 3:-0.4370267 4:-0.17027899 5:0.73577823 6:-0.79285163 7:0.95707901 8:1.5357423 9:-0.5197573 10:-0.71750206 11:2.661132 12:-0.24593117 13:-0.47393793 14:-0.32151881 15:0.53318077 16:-0.8247039 17:1.4084892 18:-0.12810315 19:-0.47914547 20:-0.10271824 21:-0.60606164 22:-0.47995792 23:-0.46904288 24:-0.30647524 
2 1:0.45904741 2:1.2489493 3:-0.4370267 4:-0.17027899 5:0.73577823 6:1.179773 7:-0.9797567 8:-0.60176117 9:-0.5197573 10:-0.71750206 11:-0.3203615 12:-0.24593117 13:-0.47393793 14:-0.32151881 15:0.53318077 16:-0.8247039 17:-0.65956639 18:-0.12810315 19:1.892256 20:-0.10271824 21:-0.60606164 22:-0.47995792 23:-0.46904288 24:-0.30647524 
1.227899715061949 1:0.45904741 2:-0.74767313 3:-0.4370267 4:-0.17027899 5:0.73577823 6:1.179773 7:0.95707901 8:1.5357423 9:-0.5197573 10:1.2995712 11:-0.3203615 12:-0.24593117 13:-0.47393793 14:-0.32151881 15:0.53318077 16:-0.8247039 17:1.4084892 18:-0.12810315 19:-0.47914547 20:-0.10271824 21:-0.60606164 22:1.8893893 23:-0.46904288 24:-0.30647524 
1.11757133855343 1:0.45904741 2:-0.74767313 3:-0.4370267 4:-0.17027899 5:0.73577823 6:1.179773 7:-0.9797567 8:-0.60176117 9:-0.5197573 10:-0.71750206 11:-0.3203615 12:-0.24593117 13:-0.47393793 14:-0.32151881 15:0.53318077 16:1.1352117 17:1.4084892 18:-0.12810315 19:-0.47914547 20:-0.10271824 21:-0.60606164 22:-0.47995792 23:-0.46904288 24:2.7554218 
0.8527428126776465 1:0.45904741 2:1.2489493 3:-0.4370267 4:-0.17027899 5:0.73577823 6:1.179773 7:0.95707901 8:-0.60176117 9:1.7582526 10:1.2995712 11:-0.3203615 12:-0.24593117 13:-0.47393793 14:2.653532 15:0.53318077 16:1.1352117 17:1.4084892 18:-0.12810315 19:-0.47914547 20:-0.10271824 21:1.5255349 22:1.8893893 23:1.928591 24:-0.30647524 
1.097626678567974 1:-1.9658385 2:-0.74767313 3:-0.4370267 4:-0.17027899 5:0.73577823 6:1.179773 7:0.95707901 8:1.5357423 9:-0.5197573 10:1.2995712 11:-0.3203615 12:-0.24593117 13:-0.47393793 14:-0.32151881 15:0.53318077 16:1.1352117 17:1.4084892 18:-0.12810315 19:-0.47914547 20:-0.10271824 21:-0.60606164 22:1.8893893 23:-0.46904288 24:-0.30647524 
0.5603962395006132 1:0.45904741 2:-0.74767313 3:-0.4370267 4:-0.17027899 5:0.73577823 6:1.179773 7:0.95707901 8:-0.60176117 9:1.7582526 10:1.2995712 11:-0.3203615 12:-0.24593117 13:-0.47393793 14:-0.32151881 15:0.53318077 16:1.1352117 17:-0.65956639 18:-0.12810315 19:-0.47914547 20:-0.10271824 21:-0.60606164 22:1.8893893 23:-0.46904288 24:-0.30647524 
0.9943642190253941 1:-1.9658385 2:1.2489493 3:-0.4370267 4:-0.17027899 5:0.73577823 6:1.179773 7:-0.9797567 8:-0.60176117 9:-0.5197573 10:-0.71750206 11:-0.3203615 12:-0.24593117 13:-0.47393793 14:-0.32151881 15:0.53318077 16:-0.8247039 17:-0.65956639 18:-0.12810315 19:1.892256 20:-0.10271824 21:-0.60606164 22:-0.47995792 23:-0.46904288 24:2.7554218 
2 1:0.45904741 2:1.2489493 3:-0.4370267 4:-0.17027899 5:0.73577823 6:1.179773 7:0.95707901 8:1.5357423 9:-0.5197573 10:-0.71750206 11:2.661132 12:-0.24593117 13:-0.47393793 14:2.653532 15:0.53318077 16:-0.8247039 17:-0.65956639 18:-0.12810315 19:-0.47914547 20:-0.10271824 21:-0.60606164 22:1.8893893 23:-0.46904288 24:-0.30647524 
0.4936114030461151 1:0.45904741 2:1.2489493 3:2.0527872 4:-0.17027899 5:0.73577823 6:1.179773 7:0.95707901 8:-0.60176117 9:1.7582526 10:1.2995712 11:-0.3203615 12:-0.24593117 13:-0.47393793 14:-0.32151881 15:0.53318077 16:1.1352117 17:1.4084892 18:-0.12810315 19:-0.47914547 20:-0.10271824 21:-0.60606164 22:-0.47995792 23:-0.46904288 24:-0.30647524 
2 1:0.45904741 2:1.2489493 3:-0.4370267 4:-0.17027899 5:0.73577823 6:1.179773 7:0.95707901 8:-0.60176117 9:1.7582526 10:1.2995712 11:-0.3203615 12:-0.24593117 13:-0.47393793 14:-0.32151881 15:0.53318077 16:1.1352117 17:1.4084892 18:-0.12810315 19:-0.47914547 20:-0.10271824 21:1.5255349 22:-0.47995792 23:-0.46904288 24:-0.30647524 
2 1:0.45904741 2:1.2489493 3:-0.4370267 4:-0.17027899 5:0.73577823 6:-0.79285163 7:0.95707901 8:1.5357423 9:-0.5197573 10:-0.71750206 11:2.661132 12:-0.24593117 13:1.9108248 14:-0.32151881 15:0.53318077 16:1.1352117 17:-0.65956639 18:-0.12810315 19:-0.47914547 20:-0.10271824 21:-0.60606164 22:1.8893893 23:-0.46904288 24:-0.30647524 
0.688725680425042 1:0.45904741 2:1.2489493 3:-0.4370267 4:-0.17027899 5:0.73577823 6:1.179773 7:0.95707901 8:-0.60176117 9:1.7582526 10:1.2995712 11:-0.3203615 12:-0.24593117 13:-0.47393793 14:-0.32151881 15:0.53318077 16:1.1352117 17:1.4084892 18:-0.12810315 19:-0.47914547 20:-0.10271824 21:1.5255349 22:1.8893893 23:1.928591 24:-0.30647524 
0.9354233819711483 1:0.45904741 2:-0.74767313 3:-0.4370267 4:-0.17027899 5:0.73577823 6:1.179773 7:0.95707901 8:1.5357423 9:-0.5197573 10:1.2995712 11:-0.3203615 12:-0.24593117 13:-0.47393793 14:-0.32151881 15:0.53318077 16:-0.8247039 17:-0.65956639 18:-0.12810315 19:-0.47914547 20:-0.10271824 21:-0.60606164 22:-0.47995792 23:1.928591 24:-0.30647524 
2 1:0.45904741 2:-0.74767313 3:-0.4370267 4:-0.17027899 5:0.73577823 6:1.179773 7:-0.9797567 8:-0.60176117 9:-0.5197573 10:-0.71750206 11:-0.3203615 12:-0.24593117 13:-0.47393793 14:-0.32151881 15:0.53318077 16:1.1352117 17:1.4084892 18:-0.12810315 19:-0.47914547 20:-0.10271824 21:-0.60606164 22:-0.47995792 23:-0.46904288 24:-0.30647524 
0.8016914257166483 1:-1.9658385 2:1.2489493 3:2.0527872 4:-0.17027899 5:0.73577823 6:1.179773 7:0.95707901 8:-0.60176117 9:1.7582526 10:1.2995712 11:-0.3203615 12:-0.24593117 13:-0.47393793 14:-0.32151881 15:0.53318077 16:-0.8247039 17:1.4084892 18:-0.12810315 19:-0.47914547 20:-0.10271824 21:-0.60606164 22:-0.47995792 23:-0.46904288 24:-0.30647524 
1.84406925402836 1:0.45904741 2:-0.74767313 3:-0.4370267 4:-0.17027899 5:0.73577823 6:1.179773 7:-0.9797567 8:-0.60176117 9:-0.5197573 10:-0.71750206 11:-0.3203615 12:-0.24593117 13:-0.47393793 14:-0.32151881 15:0.53318077 16:1.1352117 17:-0.65956639 18:-0.12810315 19:-0.47914547 20:-0.10271824 21:-0.60606164 22:1.8893893 23:1.928591 24:-0.30647524 
1.004151510389031 1:-1.9658385 2:1.2489493 3:-0.4370267 4:-0.17027899 5:0.73577823 6:-0.79285163 7:0.95707901 8:1.5357423 9:1.7582526 10:1.2995712 11:-0.3203615 12:-0.24593117 13:-0.47393793 14:-0.32151881 15:0.53318077 16:1.1352117 17:-0.65956639 18:-0.12810315 19:1.892256 20:-0.10271824 21:-0.60606164 22:1.8893893 23:-0.46904288 24:-0.30647524 
2 1:0.45904741 2:1.2489493 3:-0.4370267 4:-0.17027899 5:0.73577823 6:1.179773 7:0.95707901 8:-0.60176117 9:1.7582526 10:1.2995712 11:-0.3203615 12:-0.24593117 13:1.9108248 14:-0.32151881 15:0.53318077 16:1.1352117 17:1.4084892 18:-0.12810315 19:-0.47914547 20:-0.10271824 21:1.5255349 22:1.8893893 23:1.928591 24:-0.30647524 
2 1:0.45904741 2:-0.74767313 3:-0.4370267 4:-0.17027899 5:0.73577823 6:1.179773 7:0.95707901 8:-0.60176117 9:1.7582526 10:1.2995712 11:-0.3203615 12:-0.24593117 13:-0.47393793 14:-0.32151881 15:0.53318077 16:-0.8247039 17:1.4084892 18:-0.12810315 19:-0.47914547 20:-0.10271824 21:1.5255349 22:1.8893893 23:-0.46904288 24:-0.30647524 
1.075460134864302 1:0.45904741 2:-0.74767313 3:-0.4370267 4:-0.17027899 5:0.73577823 6:1.179773 7:0.95707901 8:1.5357423 9:1.7582526 10:1.2995712 11:-0.3203615 12:3.2444831 13:-0.47393793 14:-0.32151881 15:0.53318077 16:1.1352117 17:-0.65956639 18:-0.12810315 19:-0.47914547 20:-0.10271824 21:1.5255349 22:-0.47995792 23:-0.46904288 24:2.7554218 
1.169051471541742 1:0.45904741 2:1.2489493 3:-0.4370267 4:-0.17027899 5:0.73577823 6:1.179773 7:0.95707901 8:1.5357423 9:-0.5197573 10:1.2995712 11:-0.3203615 12:-0.24593117 13:-0.47393793 14:2.653532 15:0.53318077 16:-0.8247039 17:-0.65956639 18:-0.12810315 19:1.892256 20:-0.10271824 21:-0.60606164 22:-0.47995792 23:-0.46904288 24:-0.30647524 
1.255104497171428 1:0.45904741 2:-0.74767313 3:-0.4370267 4:-0.17027899 5:0.73577823 6:1.179773 7:0.95707901 8:1.5357423 9:-0.5197573 10:1.2995712 11:-0.3203615 12:-0.24593117 13:-0.47393793 14:-0.32151881 15:0.53318077 16:-0.8247039 17:-0.65956639 18:-0.12810315 19:-0.47914547 20:-0.10271824 21:1.5255349 22:-0.47995792 23:-0.46904288 24:-0.30647524 
1.050235646235571 1:-1.9658385 2:1.2489493 3:-0.4370267 4:-0.17027899 5:0.73577823 6:-0.79285163 7:0.95707901 8:1.5357423 9:1.7582526 10:1.2995712 11:-0.3203615 12:3.2444831 13:-0.47393793 14:-0.32151881 15:0.53318077 16:1.1352117 17:1.4084892 18:-0.12810315 19:1.892256 20:-0.10271824 21:-0.60606164 22:-0.47995792 23:-0.46904288 24:-0.30647524 
0.829632307309631 1:0.45904741 2:1.2489493 3:2.0527872 4:-0.17027899 5:0.73577823 6:-0.79285163 7:0.95707901 8:1.5357423 9:-0.5197573 10:1.2995712 11:-0.3203615 12:-0.24593117 13:-0.47393793 14:-0.32151881 15:0.53318077 16:1.1352117 17:1.4084892 18:-0.12810315 19:1.892256 20:-0.10271824 21:-0.60606164 22:-0.47995792 23:-0.46904288 24:-0.30647524 
1.235496356920679 1:0.45904741 2:1.2489493 3:-0.4370267 4:-0.17027899 5:0.73577823 6:-0.79285163 7:0.95707901 8:1.5357423 9:-0.5197573 10:1.2995712 11:-0.3203615 12:-0.24593117 13:-0.47393793 14:-0.32151881 15:0.53318077 16:-0.8247039 17:1.4084892 18:-0.12810315 19:-0.47914547 20:-0.10271824 21:1.5255349 22:1.8893893 23:-0.46904288 24:2.7554218 
1.031715133971764 1:0.45904741 2:1.2489493 3:2.0527872 4:-0.17027899 5:0.73577823 6:1.179773 7:-0.9797567 8:-0.60176117 9:-0.5197573 10:-0.71750206 11:-0.3203615 12:-0.24593117 13:-0.47393793 14:-0.32151881 15:0.53318077 16:-0.8247039 17:-0.65956639 18:-0.12810315 19:-0.47914547 20:-0.10271824 21:1.5255349 22:-0.47995792 23:1.928591 24:-0.30647524 
0.8060327414705768 1:0.45904741 2:-0.74767313 3:-0.4370267 4:-0.17027899 5:0.73577823 6:1.179773 7:-0.9797567 8:-0.60176117 9:-0.5197573 10:-0.71750206 11:-0.3203615 12:-0.24593117 13:-0.47393793 14:2.653532 15:0.53318077 16:-0.8247039 17:-0.65956639 18:-0.12810315 19:1.892256 20:-0.10271824 21:-0.60606164 22:-0.47995792 23:-0.46904288 24:-0.30647524 
0.8998838551924327 1:0.45904741 2:-0.74767313 3:-0.4370267 4:-0.17027899 5:0.73577823 6:1.179773 7:-0.9797567 8:-0.60176117 9:-0.5197573 10:-0.71750206 11:-0.3203615 12:-0.24593117 13:-0.47393793 14:2.653532 15:0.53318077 16:-0.8247039 17:-0.65956639 18:-0.12810315 19:1.892256 20:-0.10271824 21:-0.60606164 22:-0.47995792 23:1.928591 24:-0.30647524 
0.6966762560497072 1:0.45904741 2:-0.74767313 3:2.0527872 4:-0.17027899 5:-1.2684543 6:-0.79285163 7:-0.9797567 8:-0.60176117 9:-0.5197573 10:-0.71750206 11:-0.3203615 12:-0.24593117 13:-0.47393793 14:-0.32151881 15:0.53318077 16:-0.8247039 17:-0.65956639 18:-0.12810315 19:1.892256 20:-0.10271824 21:1.5255349 22:-0.47995792 23:-0.46904288 24:-0.30647524 
2 1:0.45904741 2:-0.74767313 3:-0.4370267 4:-0.17027899 5:0.73577823 6:1.179773 7:-0.9797567 8:-0.60176117 9:-0.5197573 10:-0.71750206 11:-0.3203615 12:-0.24593117 13:-0.47393793 14:2.653532 15:0.53318077 16:1.1352117 17:-0.65956639 18:-0.12810315 19:-0.47914547 20:-0.10271824 21:1.5255349 22:-0.47995792 23:-0.46904288 24:-0.30647524 
1.018433007507358 1:0.45904741 2:1.2489493 3:2.0527872 4:4.0981952 5:0.73577823 6:1.179773 7:-0.9797567 8:-0.60176117 9:-0.5197573 10:-0.71750206 11:-0.3203615 12:-0.24593117 13:-0.47393793 14:2.653532 15:0.53318077 16:-0.8247039 17:-0.65956639 18:-0.12810315 19:1.892256 20:-0.10271824 21:1.5255349 22:-0.47995792 23:-0.46904288 24:-0.30647524 
0.6135466227249486 1:0.45904741 2:1.2489493 3:-0.4370267 4:-0.17027899 5:0.73577823 6:-0.79285163 7:0.95707901 8:1.5357423 9:-0.5197573 10:1.2995712 11:-0.3203615 12:-0.24593117 13:-0.47393793 14:-0.32151881 15:0.53318077 16:1.1352117 17:-0.65956639 18:-0.12810315 19:-0.47914547 20:-0.10271824 21:1.5255349 22:-0.47995792 23:-0.46904288 24:-0.30647524 
0.9669908964826649 1:0.45904741 2:-0.74767313 3:2.0527872 4:-0.17027899 5:0.73577823 6:-0.79285163 7:0.95707901 8:-0.60176117 9:-0.5197573 10:-0.71750206 11:2.661132 12:-0.24593117 13:-0.47393793 14:-0.32151881 15:0.53318077 16:1.1352117 17:1.4084892 18:-0.12810315 19:-0.47914547 20:-0.10271824 21:1.5255349 22:1.8893893 23:-0.46904288 24:-0.30647524 
0.5891805917740222 1:-1.9658385 2:1.2489493 3:2.0527872 4:-0.17027899 5:-1.2684543 6:-0.79285163 7:-0.9797567 8:-0.60176117 9:-0.5197573 10:-0.71750206 11:-0.3203615 12:-0.24593117 13:-0.47393793 14:-0.32151881 15:0.53318077 16:-0.8247039 17:1.4084892 18:-0.12810315 19:-0.47914547 20:-0.10271824 21:1.5255349 22:-0.47995792 23:-0.46904288 24:-0.30647524 
1.018576888263201 1:0.45904741 2:1.2489493 3:-0.4370267 4:4.0981952 5:0.73577823 6:1.179773 7:0.95707901 8:-0.60176117 9:1.7582526 10:1.2995712 11:-0.3203615 12:-0.24593117 13:1.9108248 14:-0.32151881 15:0.53318077 16:1.1352117 17:-0.65956639 18:-0.12810315 19:1.892256 20:-0.10271824 21:-0.60606164 22:1.8893893 23:-0.46904288 24:2.7554218 
2 1:-1.9658385 2:1.2489493 3:-0.4370267 4:-0.17027899 5:0.73577823 6:1.179773 7:0.95707901 8:1.5357423 9:-0.5197573 10:1.2995712 11:-0.3203615 12:-0.24593117 13:-0.47393793 14:-0.32151881 15:0.53318077 16:-0.8247039 17:-0.65956639 18:-0.12810315 19:-0.47914547 20:-0.10271824 21:-0.60606164 22:-0.47995792 23:-0.46904288 24:-0.30647524 
1.044263167441401 1:0.45904741 2:1.2489493 3:-0.4370267 4:-0.17027899 5:0.73577823 6:1.179773 7:0.95707901 8:1.5357423 9:-0.5197573 10:1.2995712 11:2.661132 12:-0.24593117 13:1.9108248 14:-0.32151881 15:0.53318077 16:1.1352117 17:1.4084892 18:-0.12810315 19:-0.47914547 20:-0.10271824 21:1.5255349 22:-0.47995792 23:1.928591 24:-0.30647524 
2 1:0.45904741 2:-0.74767313 3:-0.4370267 4:-0.17027899 5:-1.2684543 6:-0.79285163 7:-0.9797567 8:-0.60176117 9:-0.5197573 10:-0.71750206 11:-0.3203615 12:-0.24593117 13:-0.47393793 14:-0.32151881 15:0.53318077 16:-0.8247039 17:1.4084892 18:-0.12810315 19:-0.47914547 20:-0.10271824 21:1.5255349 22:1.8893893 23:-0.46904288 24:-0.30647524 
2 1:0.45904741 2:1.2489493 3:-0.4370267 4:-0.17027899 5:0.73577823 6:-0.79285163 7:0.95707901 8:1.5357423 9:-0.5197573 10:1.2995712 11:-0.3203615 12:-0.24593117 13:-0.47393793 14:-0.32151881 15:0.53318077 16:1.1352117 17:1.4084892 18:-0.12810315 19:1.892256 20:-0.10271824 21:1.5255349 22:1.8893893 23:1.928591 24:-0.30647524 
0.7836947756382209 1:0.45904741 2:-0.74767313 3:2.0527872 4:-0.17027899 5:-1.2684543 6:-0.79285163 7:-0.9797567 8:-0.60176117 9:-0.5197573 10:-0.71750206 11:-0.3203615 12:-0.24593117 13:-0.47393793 14:-0.32151881 15:0.53318077 16:1.1352117 17:-0.65956639 18:-0.12810315 19:1.892256 20:-0.10271824 21:-0.60606164 22:-0.47995792 23:-0.46904288 24:-0.30647524 
0.6979517585938044 1:0.45904741 2:1.2489493 3:2.0527872 4:-0.17027899 5:0.73577823 6:1.179773 7:0.95707901 8:1.5357423 9:-0.5197573 10:1.2995712 11:-0.3203615 12:-0.24593117 13:-0.47393793 14:-0.32151881 15:0.53318077 16:1.1352117 17:1.4084892 18:-0.12810315 19:1.892256 20:-0.10271824 21:-0.60606164 22:-0.47995792 23:-0.46904288 24:-0.30647524 
0.7322782007057385 1:0.45904741 2:-0.74767313 3:-0.4370267 4:-0.17027899 5:0.73577823 6:-0.79285163 7:0.95707901 8:-0.60176117 9:1.7582526 10:1.2995712 11:-0.3203615 12:-0.24593117 13:-0.47393793 14:2.653532 15:0.53318077 16:1.1352117 17:-0.65956639 18:-0.12810315 19:-0.47914547 20:-0.10271824 21:1.5255349 22:-0.47995792 23:-0.46904288 24:-0.30647524 
1.431045735272807 1:-1.9658385 2:-0.74767313 3:-0.4370267 4:-0.17027899 5:-1.2684543 6:-0.79285163 7:-0.9797567 8:-0.60176117 9:-0.5197573 10:-0.71750206 11:-0.3203615 12:-0.24593117 13:-0.47393793 14:2.653532 15:0.53318077 16:1.1352117 17:-0.65956639 18:-0.12810315 19:-0.47914547 20:-0.10271824 21:-0.60606164 22:-0.47995792 23:-0.46904288 24:-0.30647524 
2 1:0.45904741 2:1.2489493 3:-0.4370267 4:-0.17027899 5:0.73577823 6:1.179773 7:-0.9797567 8:-0.60176117 9:-0.5197573 10:-0.71750206 11:-0.3203615 12:-0.24593117 13:-0.47393793 14:-0.32151881 15:0.53318077 16:-0.8247039 17:1.4084892 18:-0.12810315 19:-0.47914547 20:-0.10271824 21:1.5255349 22:1.8893893 23:-0.46904288 24:-0.30647524 
0.7389979395693779 1:-1.9658385 2:1.2489493 3:-0.4370267 4:-0.17027899 5:0.73577823 6:-0.79285163 7:0.95707901 8:-0.60176117 9:1.7582526 10:1.2995712 11:-0.3203615 12:-0.24593117 13:-0.47393793 14:-0.32151881 15:0.53318077 16:1.1352117 17:1.4084892 18:-0.12810315 19:-0.47914547 20:-0.10271824 21:1.5255349 22:1.8893893 23:1.928591 24:-0.30647524 
0.7619205204456047 1:0.45904741 2:-0.74767313 3:2.0527872 4:-0.17027899 5:0.73577823 6:1.179773 7:-0.9797567 8:-0.60176117 9:-0.5197573 10:-0.71750206 11:-0.3203615 12:-0.24593117 13:-0.47393793 14:-0.32151881 15:0.53318077 16:1.1352117 17:1.4084892 18:-0.12810315 19:1.892256 20:-0.10271824 21:1.5255349 22:-0.47995792 23:-0.46904288 24:-0.30647524 
1.025579905945456 1:-1.9658385 2:1.2489493 3:-0.4370267 4:-0.17027899 5:0.73577823 6:-0.79285163 7:0.95707901 8:-0.60176117 9:1.7582526 10:1.2995712 11:-0.3203615 12:3.2444831 13:-0.47393793 14:-0.32151881 15:0.53318077 16:-0.8247039 17:1.4084892 18:-0.12810315 19:1.892256 20:-0.10271824 21:-0.60606164 22:1.8893893 23:-0.46904288 24:-0.30647524 
1.060944686324741 1:0.45904741 2:1.2489493 3:-0.4370267 4:-0.17027899 5:0.73577823 6:-0.79285163 7:0.95707901 8:1.5357423 9:-0.5197573 10:-0.71750206 11:2.661132 12:-0.24593117 13:-0.47393793 14:2.653532 15:0.53318077 16:1.1352117 17:1.4084892 18:-0.12810315 19:-0.47914547 20:-0.10271824 21:-0.60606164 22:-0.47995792 23:1.928591 24:-0.30647524 
2 1:-1.9658385 2:-0.74767313 3:-0.4370267 4:-0.17027899 5:0.73577823 6:-0.79285163 7:0.95707901 8:1.5357423 9:-0.5197573 10:1.2995712 11:-0.3203615 12:-0.24593117 13:-0.47393793 14:2.653532 15:0.53318077 16:1.1352117 17:-0.65956639 18:-0.12810315 19:-0.47914547 20:-0.10271824 21:1.5255349 22:-0.47995792 23:-0.46904288 24:-0.30647524 
1.008150941493616 1:-1.9658385 2:-0.74767313 3:2.0527872 4:-0.17027899 5:0.73577823 6:1.179773 7:0.95707901 8:1.5357423 9:1.7582526 10:1.2995712 11:2.661132 12:-0.24593117 13:1.9108248 14:-0.32151881 15:0.53318077 16:1.1352117 17:-0.65956639 18:-0.12810315 19:-0.47914547 20:-0.10271824 21:-0.60606164 22:-0.47995792 23:1.928591 24:-0.30647524 
2 1:-1.9658385 2:-0.74767313 3:-0.4370267 4:4.0981952 5:-1.2684543 6:-0.79285163 7:-0.9797567 8:-0.60176117 9:-0.5197573 10:-0.71750206 11:-0.3203615 12:-0.24593117 13:-0.47393793 14:-0.32151881 15:-1.7177937 16:-0.8247039 17:-0.65956639 18:-0.12810315 19:-0.47914547 20:-0.10271824 21:-0.60606164 22:-0.47995792 23:-0.46904288 24:2.7554218 
1.15229169083092 1:0.45904741 2:1.2489493 3:-0.4370267 4:4.0981952 5:0.73577823 6:-0.79285163 7:0.95707901 8:1.5357423 9:-0.5197573 10:1.2995712 11:-0.3203615 12:-0.24593117 13:-0.47393793 14:-0.32151881 15:0.53318077 16:-0.8247039 17:-0.65956639 18:-0.12810315 19:-0.47914547 20:-0.10271824 21:-0.60606164 22:-0.47995792 23:-0.46904288 24:-0.30647524 
0.9890401178902066 1:-1.9658385 2:1.2489493 3:2.0527872 4:-0.17027899 5:0.73577823 6:-0.79285163 7:0.95707901 8:-0.60176117 9:1.7582526 10:1.2995712 11:-0.3203615 12:-0.24593117 13:-0.47393793 14:-0.32151881 15:0.53318077 16:1.1352117 17:1.4084892 18:-0.12810315 19:-0.47914547 20:-0.10271824 21:1.5255349 22:1.8893893 23:-0.46904288 24:-0.30647524 
0.9121637547087427 1:0.45904741 2:-0.74767313 3:2.0527872 4:-0.17027899 5:0.73577823 6:1.179773 7:0.95707901 8:1.5357423 9:-0.5197573 10:1.2995712 11:2.661132 12:-0.24593117 13:-0.47393793 14:-0.32151881 15:0.53318077 16:-0.8247039 17:-0.65956639 18:-0.12810315 19:-0.47914547 20:-0.10271824 21:-0.60606164 22:-0.47995792 23:-0.46904288 24:-0.30647524 
1.133678058689898 1:0.45904741 2:1.2489493 3:-0.4370267 4:4.0981952 5:0.73577823 6:1.179773 7:0.95707901 8:-0.60176117 9:-0.5197573 10:-0.71750206 11:-0.3203615 12:-0.24593117 13:1.9108248 14:-0.32151881 15:0.53318077 16:1.1352117 17:1.4084892 18:-0.12810315 19:-0.47914547 20:-0.10271824 21:1.5255349 22:-0.47995792 23:-0.46904288 24:2.7554218 
1.016135312087755 1:0.45904741 2:1.2489493 3:2.0527872 4:-0.17027899 5:0.73577823 6:1.179773 7:0.95707901 8:-0.60176117 9:-0.5197573 10:-0.71750206 11:2.661132 12:-0.24593117 13:-0.47393793 14:2.653532 15:0.53318077 16:1.1352117 17:1.4084892 18:-0.12810315 19:-0.47914547 20:-0.10271824 21:1.5255349 22:1.8893893 23:1.928591 24:-0.30647524 
1.118803444157721 1:0.45904741 2:-0.74767313 3:-0.4370267 4:-0.17027899 5:0.73577823 6:1.179773 7:0.95707901 8:1.5357423 9:-0.5197573 10:1.2995712 11:-0.3203615 12:-0.24593117 13:-0.47393793 14:-0.32151881 15:0.53318077 16:-0.8247039 17:1.4084892 18:-0.12810315 19:-0.47914547 20:-0.10271824 21:-0.60606164 22:-0.47995792 23:-0.46904288 24:2.7554218 
1.017510480224264 1:-1.9658385 2:-0.74767313 3:2.0527872 4:-0.17027899 5:0.73577823 6:-0.79285163 7:0.95707901 8:-0.60176117 9:1.7582526 10:1.2995712 11:-0.3203615 12:-0.24593117 13:-0.47393793 14:2.653532 15:0.53318077 16:-0.8247039 17:1.4084892 18:-0.12810315 19:-0.47914547 20:-0.10271824 21:-0.60606164 22:1.8893893 23:-0.46904288 24:-0.30647524 
1.213196742256542 1:0.45904741 2:1.2489493 3:-0.4370267 4:-0.17027899 5:-1.2684543 6:-0.79285163 7:-0.9797567 8:-0.60176117 9:-0.5197573 10:-0.71750206 11:-0.3203615 12:-0.24593117 13:-0.47393793 14:-0.32151881 15:0.53318077 16:-0.8247039 17:-0.65956639 18:-0.12810315 19:-0.47914547 20:-0.10271824 21:-0.60606164 22:1.8893893 23:-0.46904288 24:2.7554218 
2 1:0.45904741 2:1.2489493 3:2.0527872 4:-0.17027899 5:0.73577823 6:1.179773 7:-0.9797567 8:-0.60176117 9:-0.5197573 10:-0.71750206 11:-0.3203615 12:-0.24593117 13:-0.47393793 14:-0.32151881 15:0.53318077 16:1.1352117 17:-0.65956639 18:-0.12810315 19:1.892256 20:-0.10271824 21:1.5255349 22:-0.47995792 23:1.928591 24:-0.30647524 
1.0182792123875 1:0.45904741 2:1.2489493 3:-0.4370267 4:4.0981952 5:0.73577823 6:1.179773 7:0.95707901 8:1.5357423 9:1.7582526 10:1.2995712 11:-0.3203615 12:-0.24593117 13:-0.47393793 14:-0.32151881 15:0.53318077 16:1.1352117 17:-0.65956639 18:4.7393122 19:1.892256 20:-0.10271824 21:-0.60606164 22:-0.47995792 23:-0.46904288 24:-0.30647524 
1.005313406000303 1:0.45904741 2:-0.74767313 3:-0.4370267 4:-0.17027899 5:0.73577823 6:1.179773 7:-0.9797567 8:-0.60176117 9:-0.5197573 10:-0.71750206 11:-0.3203615 12:-0.24593117 13:-0.47393793 14:-0.32151881 15:0.53318077 16:1.1352117 17:-0.65956639 18:4.7393122 19:-0.47914547 20:-0.10271824 21:1.5255349 22:-0.47995792 23:-0.46904288 24:2.7554218 
2 1:0.45904741 2:-0.74767313 3:-0.4370267 4:-0.17027899 5:-1.2684543 6:-0.79285163 7:-0.9797567 8:-0.60176117 9:-0.5197573 10:-0.71750206 11:-0.3203615 12:-0.24593117 13:-0.47393793 14:-0.32151881 15:0.53318077 16:-0.8247039 17:1.4084892 18:-0.12810315 19:-0.47914547 20:-0.10271824 21:1.5255349 22:1.8893893 23:-0.46904288 24:-0.30647524 
1.088465664712074 1:0.45904741 2:-0.74767313 3:-0.4370267 4:-0.17027899 5:0.73577823 6:-0.79285163 7:0.95707901 8:1.5357423 9:1.7582526 10:1.2995712 11:-0.3203615 12:3.2444831 13:1.9108248 14:-0.32151881 15:0.53318077 16:1.1352117 17:1.4084892 18:-0.12810315 19:1.892256 20:-0.10271824 21:1.5255349 22:-0.47995792 23:-0.46904288 24:-0.30647524 
2 1:0.45904741 2:1.2489493 3:-0.4370267 4:-0.17027899 5:0.73577823 6:1.179773 7:0.95707901 8:-0.60176117 9:-0.5197573 10:-0.71750206 11:-0.3203615 12:-0.24593117 13:1.9108248 14:-0.32151881 15:0.53318077 16:1.1352117 17:-0.65956639 18:-0.12810315 19:-0.47914547 20:-0.10271824 21:1.5255349 22:-0.47995792 23:-0.46904288 24:-0.30647524 
0.9877096442951872 1:0.45904741 2:1.2489493 3:2.0527872 4:-0.17027899 5:0.73577823 6:-0.79285163 7:0.95707901 8:1.5357423 9:-0.5197573 10:1.2995712 11:-0.3203615 12:-0.24593117 13:-0.47393793 14:-0.32151881 15:0.53318077 16:-0.8247039 17:-0.65956639 18:-0.12810315 19:-0.47914547 20:-0.10271824 21:1.5255349 22:-0.47995792 23:1.928591 24:-0.30647524 
2 1:-1.9658385 2:1.2489493 3:2.0527872 4:-0.17027899 5:0.73577823 6:1.179773 7:-0.9797567 8:-0.60176117 9:-0.5197573 10:-0.71750206 11:-0.3203615 12:-0.24593117 13:-0.47393793 14:-0.32151881 15:0.53318077 16:1.1352117 17:-0.65956639 18:-0.12810315 19:1.892256 20:-0.10271824 21:1.5255349 22:-0.47995792 23:-0.46904288 24:-0.30647524 
0.9041379542652942 1:0.45904741 2:1.2489493 3:-0.4370267 4:-0.17027899 5:0.73577823 6:1.179773 7:-0.9797567 8:-0.60176117 9:-0.5197573 10:-0.71750206 11:-0.3203615 12:-0.24593117 13:-0.47393793 14:2.653532 15:0.53318077 16:1.1352117 17:-0.65956639 18:-0.12810315 19:-0.47914547 20:-0.10271824 21:-0.60606164 22:-0.47995792 23:-0.46904288 24:2.7554218 
1.053427534692447 1:0.45904741 2:-0.74767313 3:-0.4370267 4:-0.17027899 5:0.73577823 6:1.179773 7:0.95707901 8:-0.60176117 9:1.7582526 10:1.2995712 11:-0.3203615 12:-0.24593117 13:1.9108248 14:-0.32151881 15:0.53318077 16:1.1352117 17:1.4084892 18:-0.12810315 19:-0.47914547 20:-0.10271824 21:-0.60606164 22:1.8893893 23:-0.46904288 24:2.7554218 
1.392245351871514 1:0.45904741 2:1.2489493 3:-0.4370267 4:-0.17027899 5:0.73577823 6:1.179773 7:0.95707901 8:1.5357423 9:1.7582526 10:1.2995712 11:-0.3203615 12:-0.24593117 13:1.9108248 14:-0.32151881 15:0.53318077 16:-0.8247039 17:1.4084892 18:-0.12810315 19:1.892256 20:-0.10271824 21:1.5255349 22:1.8893893 23:1.928591 24:-0.30647524 
0.6258661751354854 1:-1.9658385 2:1.2489493 3:-0.4370267 4:-0.17027899 5:0.73577823 6:-0.79285163 7:0.95707901 8:1.5357423 9:1.7582526 10:1.2995712 11:-0.3203615 12:-0.24593117 13:-0.47393793 14:-0.32151881 15:0.53318077 16:-0.8247039 17:-0.65956639 18:-0.12810315 19:-0.47914547 20:-0.10271824 21:-0.60606164 22:-0.47995792 23:-0.46904288 24:-0.30647524 
0.9078390533386972 1:0.45904741 2:-0.74767313 3:-0.4370267 4:-0.17027899 5:0.73577823 6:1.179773 7:0.95707901 8:1.5357423 9:-0.5197573 10:1.2995712 11:-0.3203615 12:-0.24593117 13:-0.47393793 14:-0.32151881 15:0.53318077 16:-0.8247039 17:1.4084892 18:-0.12810315 19:-0.47914547 20:-0.10271824 21:-0.60606164 22:-0.47995792 23:-0.46904288 24:-0.30647524 
1.2133765079638 1:0.45904741 2:1.2489493 3:-0.4370267 4:-0.17027899 5:0.73577823 6:-0.79285163 7:0.95707901 8:-0.60176117 9:1.7582526 10:1.2995712 11:-0.3203615 12:-0.24593117 13:-0.47393793 14:-0.32151881 15:0.53318077 16:1.1352117 17:-0.65956639 18:-0.12810315 19:-0.47914547 20:-0.10271824 21:-0.60606164 22:-0.47995792 23:-0.46904288 24:-0.30647524 
0.7803028811615084 1:-1.9658385 2:-0.74767313 3:-0.4370267 4:-0.17027899 5:0.73577823 6:1.179773 7:-0.9797567 8:-0.60176117 9:-0.5197573 10:-0.71750206 11:-0.3203615 12:-0.24593117 13:-0.47393793 14:2.653532 15:0.53318077 16:1.1352117 17:-0.65956639 18:-0.12810315 19:-0.47914547 20:-0.10271824 21:1.5255349 22:-0.47995792 23:-0.46904288 24:-0.30647524 
2 1:0.45904741 2:-0.74767313 3:-0.4370267 4:-0.17027899 5:0.73577823 6:1.179773 7:0.95707901 8:1.5357423 9:-0.5197573 10:1.2995712 11:-0.3203615 12:-0.24593117 13:-0.47393793 14:-0.32151881 15:0.53318077 16:1.1352117 17:1.4084892 18:-0.12810315 19:-0.47914547 20:-0.10271824 21:1.5255349 22:1.8893893 23:1.928591 24:-0.30647524 
1.029265058055346 1:0.45904741 2:-0.74767313 3:-0.4370267 4:-0.17027899 5:0.73577823 6:-0.79285163 7:0.95707901 8:-0.60176117 9:1.7582526 10:1.2995712 11:-0.3203615 12:-0.24593117 13:-0.47393793 14:-0.32151881 15:0.53318077 16:1.1352117 17:1.4084892 18:-0.12810315 19:-0.47914547 20:-0.10271824 21:1.5255349 22:1.8893893 23:-0.46904288 24:-0.30647524 
1.246122838878761 1:0.45904741 2:-0.74767313 3:-0.4370267 4:-0.17027899 5:0.73577823 6:-0.79285163 7:0.95707901 8:1.5357423 9:-0.5197573 10:1.2995712 11:-0.3203615 12:-0.24593117 13:-0.47393793 14:-0.32151881 15:0.53318077 16:-0.8247039 17:-0.65956639 18:-0.12810315 19:-0.47914547 20:-0.10271824 21:-0.60606164 22:1.8893893 23:-0.46904288 24:-0.30647524 
1.009380300673671 1:0.45904741 2:-0.74767313 3:-0.4370267 4:4.0981952 5:0.73577823 6:-0.79285163 7:0.95707901 8:-0.60176117 9:1.7582526 10:1.2995712 11:-0.3203615 12:-0.24593117 13:-0.47393793 14:-0.32151881 15:0.53318077 16:-0.8247039 17:-0.65956639 18:-0.12810315 19:-0.47914547 20:-0.10271824 21:-0.60606164 22:-0.47995792 23:-0.46904288 24:-0.30647524 
1.01483310604582 1:0.45904741 2:-0.74767313 3:-0.4370267 4:-0.17027899 5:0.73577823 6:1.179773 7:0.95707901 8:1.5357423 9:1.7582526 10:1.2995712 11:2.661132 12:-0.24593117 13:-0.47393793 14:-0.32151881 15:0.53318077 16:-0.8247039 17:1.4084892 18:-0.12810315 19:-0.47914547 20:-0.10271824 21:1.5255349 22:1.8893893 23:-0.46904288 24:-0.30647524 
1.147401508561668 1:0.45904741 2:1.2489493 3:-0.4370267 4:-0.17027899 5:0.73577823 6:1.179773 7:0.95707901 8:1.5357423 9:1.7582526 10:1.2995712 11:2.661132 12:-0.24593117 13:-0.47393793 14:-0.32151881 15:0.53318077 16:1.1352117 17:1.4084892 18:-0.12810315 19:1.892256 20:-0.10271824 21:1.5255349 22:1.8893893 23:-0.46904288 24:2.7554218 
1.071632261390606 1:-1.9658385 2:1.2489493 3:2.0527872 4:-0.17027899 5:0.73577823 6:1.179773 7:0.95707901 8:1.5357423 9:-0.5197573 10:1.2995712 11:-0.3203615 12:-0.24593117 13:-0.47393793 14:-0.32151881 15:0.53318077 16:1.1352117 17:1.4084892 18:-0.12810315 19:1.892256 20:-0.10271824 21:-0.60606164 22:1.8893893 23:-0.46904288 24:-0.30647524 
0.9373850366650878 1:-1.9658385 2:1.2489493 3:-0.4370267 4:-0.17027899 5:0.73577823 6:1.179773 7:-0.9797567 8:-0.60176117 9:-0.5197573 10:-0.71750206 11:-0.3203615 12:-0.24593117 13:-0.47393793 14:2.653532 15:0.53318077 16:-0.8247039 17:1.4084892 18:-0.12810315 19:-0.47914547 20:-0.10271824 21:-0.60606164 22:1.8893893 23:-0.46904288 24:-0.30647524 
1.028306195539331 1:0.45904741 2:1.2489493 3:2.0527872 4:-0.17027899 5:0.73577823 6:-0.79285163 7:0.95707901 8:-0.60176117 9:1.7582526 10:-0.71750206 11:-0.3203615 12:3.2444831 13:1.9108248 14:-0.32151881 15:0.53318077 16:1.1352117 17:-0.65956639 18:-0.12810315 19:1.892256 20:-0.10271824 21:-0.60606164 22:-0.47995792 23:-0.46904288 24:-0.30647524 
1.321030026423538 1:-1.9658385 2:-0.74767313 3:-0.4370267 4:4.0981952 5:0.73577823 6:-0.79285163 7:0.95707901 8:1.5357423 9:1.7582526 10:1.2995712 11:-0.3203615 12:-0.24593117 13:-0.47393793 14:-0.32151881 15:0.53318077 16:-0.8247039 17:-0.65956639 18:-0.12810315 19:-0.47914547 20:-0.10271824 21:-0.60606164 22:-0.47995792 23:-0.46904288 24:-0.30647524 
0.7313034300034444 1:-1.9658385 2:-0.74767313 3:-0.4370267 4:-0.17027899 5:0.73577823 6:1.179773 7:0.95707901 8:-0.60176117 9:-0.5197573 10:-0.71750206 11:-0.3203615 12:-0.24593117 13:1.9108248 14:-0.32151881 15:0.53318077 16:1.1352117 17:-0.65956639 18:-0.12810315 19:-0.47914547 20:-0.10271824 21:1.5255349 22:-0.47995792 23:-0.46904288 24:-0.30647524 
1.04824345380151 1:-1.9658385 2:-0.74767313 3:2.0527872 4:-0.17027899 5:0.73577823 6:-0.79285163 7:0.95707901 8:1.5357423 9:-0.5197573 10:-0.71750206 11:2.661132 12:-0.24593117 13:-0.47393793 14:2.653532 15:0.53318077 16:1.1352117 17:-0.65956639 18:-0.12810315 19:-0.47914547 20:-0.10271824 21:-0.60606164 22:-0.47995792 23:1.928591 24:-0.30647524 
0.9793404668453209 1:-1.9658385 2:-0.74767313 3:2.0527872 4:-0.17027899 5:-1.2684543 6:-0.79285163 7:-0.9797567 8:-0.60176117 9:-0.5197573 10:-0.71750206 11:-0.3203615 12:-0.24593117 13:-0.47393793 14:-0.32151881 15:0.53318077 16:1.1352117 17:1.4084892 18:-0.12810315 19:-0.47914547 20:-0.10271824 21:1.5255349 22:1.8893893 23:1.928591 24:-0.30647524 
0.9669423290888954 1:-1.9658385 2:-0.74767313 3:2.0527872 4:-0.17027899 5:0.73577823 6:1.179773 7:0.95707901 8:-0.60176117 9:1.7582526 10:1.2995712 11:-0.3203615 12:-0.24593117 13:1.9108248 14:-0.32151881 15:0.53318077 16:1.1352117 17:-0.65956639 18:-0.12810315 19:-0.47914547 20:-0.10271824 21:1.5255349 22:-0.47995792 23:-0.46904288 24:2.7554218 
2 1:0.45904741 2:-0.74767313 3:-0.4370267 4:-0.17027899 5:-1.2684543 6:-0.79285163 7:-0.9797567 8:-0.60176117 9:-0.5197573 10:-0.71750206 11:-0.3203615 12:-0.24593117 13:-0.47393793 14:2.653532 15:0.53318077 16:-0.8247039 17:-0.65956639 18:-0.12810315 19:-0.47914547 20:-0.10271824 21:-0.60606164 22:-0.47995792 23:-0.46904288 24:-0.30647524 
2 1:-1.9658385 2:1.2489493 3:-0.4370267 4:-0.17027899 5:0.73577823 6:1.179773 7:0.95707901 8:1.5357423 9:-0.5197573 10:1.2995712 11:-0.3203615 12:-0.24593117 13:-0.47393793 14:-0.32151881 15:0.53318077 16:1.1352117 17:1.4084892 18:-0.12810315 19:-0.47914547 20:-0.10271824 21:-0.60606164 22:1.8893893 23:-0.46904288 24:-0.30647524 
0.6448175593086125 1:-1.9658385 2:-0.74767313 3:2.0527872 4:-0.17027899 5:0.73577823 6:1.179773 7:-0.9797567 8:-0.60176117 9:-0.5197573 10:-0.71750206 11:-0.3203615 12:-0.24593117 13:-0.47393793 14:-0.32151881 15:0.53318077 16:1.1352117 17:1.4084892 18:-0.12810315 19:-0.47914547 20:-0.10271824 21:1.5255349 22:-0.47995792 23:-0.46904288 24:-0.30647524 
1.331047225042727 1:0.45904741 2:1.2489493 3:2.0527872 4:-0.17027899 5:0.73577823 6:1.179773 7:0.95707901 8:1.5357423 9:-0.5197573 10:1.2995712 11:-0.3203615 12:-0.24593117 13:1.9108248 14:-0.32151881 15:0.53318077 16:1.1352117 17:1.4084892 18:-0.12810315 19:-0.47914547 20:-0.10271824 21:1.5255349 22:-0.47995792 23:-0.46904288 24:-0.30647524 
2 1:-1.9658385 2:1.2489493 3:-0.4370267 4:-0.17027899 5:-1.2684543 6:-0.79285163 7:-0.9797567 8:-0.60176117 9:-0.5197573 10:-0.71750206 11:-0.3203615 12:-0.24593117 13:-0.47393793 14:-0.32151881 15:0.53318077 16:-0.8247039 17:1.4084892 18:-0.12810315 19:-0.47914547 20:-0.10271824 21:-0.60606164 22:1.8893893 23:-0.46904288 24:-0.30647524 
0.6459617657729569 1:-1.9658385 2:-0.74767313 3:-0.4370267 4:-0.17027899 5:-1.2684543 6:-0.79285163 7:-0.9797567 8:-0.60176117 9:-0.5197573 10:-0.71750206 11:-0.3203615 12:-0.24593117 13:-0.47393793 14:-0.32151881 15:0.53318077 16:1.1352117 17:1.4084892 18:-0.12810315 19:-0.47914547 20:-0.10271824 21:1.5255349 22:-0.47995792 23:-0.46904288 24:-0.30647524 
0.8048086681693142 1:0.45904741 2:1.2489493 3:2.0527872 4:-0.17027899 5:0.73577823 6:1.179773 7:-0.9797567 8:-0.60176117 9:-0.5197573 10:-0.71750206 11:-0.3203615 12:-0.24593117 13:-0.47393793 14:-0.32151881 15:0.53318077 16:1.1352117 17:1.4084892 18:-0.12810315 19:1.892256 20:-0.10271824 21:1.5255349 22:-0.47995792 23:-0.46904288 24:-0.30647524 
2 1:0.45904741 2:1.2489493 3:-0.4370267 4:-0.17027899 5:0.73577823 6:1.179773 7:0.95707901 8:1.5357423 9:1.7582526 10:1.2995712 11:-0.3203615 12:-0.24593117 13:1.9108248 14:-0.32151881 15:0.53318077 16:1.1352117 17:-0.65956639 18:-0.12810315 19:1.892256 20:-0.10271824 21:1.5255349 22:-0.47995792 23:-0.46904288 24:-0.30647524 
2 1:-1.9658385 2:-0.74767313 3:-0.4370267 4:-0.17027899 5:0.73577823 6:-0.79285163 7:0.95707901 8:-0.60176117 9:1.7582526 10:1.2995712 11:-0.3203615 12:-0.24593117 13:-0.47393793 14:-0.32151881 15:0.53318077 16:-0.8247039 17:1.4084892 18:-0.12810315 19:-0.47914547 20:-0.10271824 21:-0.60606164 22:-0.47995792 23:-0.46904288 24:-0.30647524 
2 1:0.45904741 2:-0.74767313 3:-0.4370267 4:-0.17027899 5:0.73577823 6:-0.79285163 7:0.95707901 8:-0.60176117 9:-0.5197573 10:-0.71750206 11:-0.3203615 12:-0.24593117 13:1.9108248 14:-0.32151881 15:0.53318077 16:-0.8247039 17:1.4084892 18:-0.12810315 19:-0.47914547 20:-0.10271824 21:-0.60606164 22:-0.47995792 23:-0.46904288 24:-0.30647524 
1.16843662063366 1:0.45904741 2:1.2489493 3:-0.4370267 4:-0.17027899 5:0.73577823 6:1.179773 7:0.95707901 8:-0.60176117 9:1.7582526 10:1.2995712 11:-0.3203615 12:-0.24593117 13:-0.47393793 14:-0.32151881 15:0.53318077 16:-0.8247039 17:1.4084892 18:-0.12810315 19:-0.47914547 20:-0.10271824 21:-0.60606164 22:-0.47995792 23:-0.46904288 24:-0.30647524 
1.34995880363982 1:0.45904741 2:1.2489493 3:-0.4370267 4:-0.17027899 5:0.73577823 6:1.179773 7:0.95707901 8:-0.60176117 9:1.7582526 10:1.2995712 11:-0.3203615 12:-0.24593117 13:1.9108248 14:-0.32151881 15:0.53318077 16:1.1352117 17:1.4084892 18:-0.12810315 19:-0.47914547 20:-0.10271824 21:1.5255349 22:1.8893893 23:1.928591 24:2.7554218 
1.044243605246974 1:0.45904741 2:1.2489493 3:2.0527872 4:-0.17027899 5:0.73577823 6:-0.79285163 7:0.95707901 8:1.5357423 9:-0.5197573 10:1.2995712 11:2.661132 12:-0.24593117 13:-0.47393793 14:2.653532 15:0.53318077 16:1.1352117 17:-0.65956639 18:-0.12810315 19:-0.47914547 20:-0.10271824 21:1.5255349 22:1.8893893 23:-0.46904288 24:-0.30647524 
0.9887298220973556 1:-1.9658385 2:-0.74767313 3:2.0527872 4:-0.17027899 5:0.73577823 6:-0.79285163 7:0.95707901 8:-0.60176117 9:1.7582526 10:1.2995712 11:-0.3203615 12:-0.24593117 13:-0.47393793 14:2.653532 15:0.53318077 16:-0.8247039 17:-0.65956639 18:-0.12810315 19:-0.47914547 20:-0.10271824 21:1.5255349 22:-0.47995792 23:1.928591 24:-0.30647524 
2 1:-1.9658385 2:1.2489493 3:-0.4370267 4:-0.17027899 5:0.73577823 6:1.179773 7:-0.9797567 8:-0.60176117 9:-0.5197573 10:-0.71750206 11:-0.3203615 12:-0.24593117 13:-0.47393793 14:-0.32151881 15:0.53318077 16:-0.8247039 17:1.4084892 18:-0.12810315 19:-0.47914547 20:-0.10271824 21:-0.60606164 22:-0.47995792 23:-0.46904288 24:-0.30647524 
2 1:-1.9658385 2:1.2489493 3:-0.4370267 4:-0.17027899 5:0.73577823 6:1.179773 7:0.95707901 8:-0.60176117 9:-0.5197573 10:-0.71750206 11:-0.3203615 12:-0.24593117 13:1.9108248 14:-0.32151881 15:0.53318077 16:1.1352117 17:-0.65956639 18:-0.12810315 19:-0.47914547 20:-0.10271824 21:1.5255349 22:-0.47995792 23:-0.46904288 24:-0.30647524 
0.9566309403699832 1:-1.9658385 2:1.2489493 3:2.0527872 4:-0.17027899 5:0.73577823 6:1.179773 7:-0.9797567 8:-0.60176117 9:-0.5197573 10:-0.71750206 11:-0.3203615 12:-0.24593117 13:-0.47393793 14:2.653532 15:0.53318077 16:1.1352117 17:-0.65956639 18:-0.12810315 19:-0.47914547 20:-0.10271824 21:1.5255349 22:-0.47995792 23:1.928591 24:-0.30647524 
0.8814492015307944 1:-1.9658385 2:1.2489493 3:-0.4370267 4:-0.17027899 5:0.73577823 6:-0.79285163 7:0.95707901 8:1.5357423 9:-0.5197573 10:1.2995712 11:-0.3203615 12:-0.24593117 13:-0.47393793 14:-0.32151881 15:0.53318077 16:1.1352117 17:-0.65956639 18:-0.12810315 19:-0.47914547 20:-0.10271824 21:1.5255349 22:-0.47995792 23:1.928591 24:-0.30647524 
0.8599222872220688 1:0.45904741 2:1.2489493 3:-0.4370267 4:-0.17027899 5:0.73577823 6:-0.79285163 7:0.95707901 8:-0.60176117 9:1.7582526 10:1.2995712 11:-0.3203615 12:-0.24593117 13:-0.47393793 14:-0.32151881 15:0.53318077 16:-0.8247039 17:-0.65956639 18:-0.12810315 19:-0.47914547 20:-0.10271824 21:-0.60606164 22:-0.47995792 23:-0.46904288 24:2.7554218 
2 1:0.45904741 2:-0.74767313 3:-0.4370267 4:-0.17027899 5:0.73577823 6:-0.79285163 7:0.95707901 8:-0.60176117 9:-0.5197573 10:-0.71750206 11:-0.3203615 12:-0.24593117 13:1.9108248 14:-0.32151881 15:0.53318077 16:-0.8247039 17:1.4084892 18:-0.12810315 19:-0.47914547 20:-0.10271824 21:-0.60606164 22:-0.47995792 23:-0.46904288 24:-0.30647524 
0.8389345270568807 1:0.45904741 2:-0.74767313 3:-0.4370267 4:-0.17027899 5:0.73577823 6:1.179773 7:0.95707901 8:-0.60176117 9:1.7582526 10:1.2995712 11:-0.3203615 12:-0.24593117 13:-0.47393793 14:-0.32151881 15:0.53318077 16:1.1352117 17:-0.65956639 18:-0.12810315 19:-0.47914547 20:-0.10271824 21:1.5255349 22:-0.47995792 23:-0.46904288 24:-0.30647524 
0.8173786252743442 1:-1.9658385 2:1.2489493 3:-0.4370267 4:-0.17027899 5:0.73577823 6:-0.79285163 7:0.95707901 8:-0.60176117 9:-0.5197573 10:-0.71750206 11:-0.3203615 12:-0.24593117 13:1.9108248 14:-0.32151881 15:0.53318077 16:-0.8247039 17:1.4084892 18:-0.12810315 19:1.892256 20:-0.10271824 21:-0.60606164 22:-0.47995792 23:-0.46904288 24:-0.30647524 
2 1:0.45904741 2:-0.74767313 3:-0.4370267 4:-0.17027899 5:0.73577823 6:1.179773 7:0.95707901 8:-0.60176117 9:1.7582526 10:1.2995712 11:-0.3203615 12:-0.24593117 13:-0.47393793 14:-0.32151881 15:0.53318077 16:-0.8247039 17:1.4084892 18:-0.12810315 19:-0.47914547 20:-0.10271824 21:-0.60606164 22:-0.47995792 23:-0.46904288 24:-0.30647524 
2 1:0.45904741 2:1.2489493 3:-0.4370267 4:-0.17027899 5:0.73577823 6:1.179773 7:0.95707901 8:1.5357423 9:-0.5197573 10:1.2995712 11:-0.3203615 12:-0.24593117 13:-0.47393793 14:-0.32151881 15:0.53318077 16:-0.8247039 17:1.4084892 18:-0.12810315 19:1.892256 20:-0.10271824 21:1.5255349 22:-0.47995792 23:-0.46904288 24:-0.30647524 
2 1:-1.9658385 2:1.2489493 3:-0.4370267 4:-0.17027899 5:0.73577823 6:1.179773 7:-0.9797567 8:-0.60176117 9:-0.5197573 10:-0.71750206 11:-0.3203615 12:-0.24593117 13:-0.47393793 14:-0.32151881 15:0.53318077 16:-0.8247039 17:-0.65956639 18:-0.12810315 19:1.892256 20:-0.10271824 21:-0.60606164 22:-0.47995792 23:-0.46904288 24:-0.30647524 
0.9776669911611221 1:-1.9658385 2:-0.74767313 3:-0.4370267 4:-0.17027899 5:0.73577823 6:-0.79285163 7:0.95707901 8:-0.60176117 9:1.7582526 10:1.2995712 11:-0.3203615 12:-0.24593117 13:-0.47393793 14:-0.32151881 15:0.53318077 16:1.1352117 17:1.4084892 18:-0.12810315 19:-0.47914547 20:-0.10271824 21:-0.60606164 22:1.8893893 23:1.928591 24:-0.30647524 
0.6812163117191732 1:-1.9658385 2:1.2489493 3:-0.4370267 4:-0.17027899 5:0.73577823 6:-0.79285163 7:0.95707901 8:-0.60176117 9:1.7582526 10:1.2995712 11:-0.3203615 12:-0.24593117 13:-0.47393793 14:-0.32151881 15:0.53318077 16:-0.8247039 17:-0.65956639 18:-0.12810315 19:-0.47914547 20:-0.10271824 21:-0.60606164 22:-0.47995792 23:1.928591 24:-0.30647524 
1.30675882024309 1:0.45904741 2:-0.74767313 3:2.0527872 4:-0.17027899 5:0.73577823 6:1.179773 7:0.95707901 8:-0.60176117 9:1.7582526 10:1.2995712 11:-0.3203615 12:-0.24593117 13:1.9108248 14:-0.32151881 15:0.53318077 16:1.1352117 17:1.4084892 18:-0.12810315 19:-0.47914547 20:-0.10271824 21:-0.60606164 22:-0.47995792 23:1.928591 24:-0.30647524 
1.3037269219538 1:0.45904741 2:-0.74767313 3:-0.4370267 4:-0.17027899 5:0.73577823 6:-0.79285163 7:0.95707901 8:-0.60176117 9:1.7582526 10:1.2995712 11:-0.3203615 12:-0.24593117 13:-0.47393793 14:-0.32151881 15:0.53318077 16:1.1352117 17:-0.65956639 18:-0.12810315 19:-0.47914547 20:-0.10271824 21:-0.60606164 22:-0.47995792 23:1.928591 24:-0.30647524 
1.24419164890275 1:0.45904741 2:-0.74767313 3:-0.4370267 4:-0.17027899 5:0.73577823 6:-0.79285163 7:0.95707901 8:-0.60176117 9:-0.5197573 10:-0.71750206 11:-0.3203615 12:-0.24593117 13:1.9108248 14:-0.32151881 15:0.53318077 16:-0.8247039 17:1.4084892 18:-0.12810315 19:-0.47914547 20:-0.10271824 21:1.5255349 22:1.8893893 23:-0.46904288 24:-0.30647524 
2 1:0.45904741 2:-0.74767313 3:-0.4370267 4:-0.17027899 5:0.73577823 6:-0.79285163 7:0.95707901 8:-0.60176117 9:1.7582526 10:1.2995712 11:-0.3203615 12:-0.24593117 13:-0.47393793 14:-0.32151881 15:0.53318077 16:1.1352117 17:-0.65956639 18:-0.12810315 19:-0.47914547 20:-0.10271824 21:-0.60606164 22:-0.47995792 23:-0.46904288 24:-0.30647524 
1.004461002843866 1:-1.9658385 2:-0.74767313 3:-0.4370267 4:-0.17027899 5:0.73577823 6:-0.79285163 7:0.95707901 8:-0.60176117 9:1.7582526 10:1.2995712 11:-0.3203615 12:-0.24593117 13:-0.47393793 14:-0.32151881 15:0.53318077 16:1.1352117 17:1.4084892 18:-0.12810315 19:-0.47914547 20:-0.10271824 21:1.5255349 22:-0.47995792 23:-0.46904288 24:2.7554218 
2 1:0.45904741 2:-0.74767313 3:-0.4370267 4:-0.17027899 5:0.73577823 6:1.179773 7:0.95707901 8:-0.60176117 9:-0.5197573 10:-0.71750206 11:-0.3203615 12:-0.24593117 13:1.9108248 14:-0.32151881 15:0.53318077 16:1.1352117 17:-0.65956639 18:-0.12810315 19:-0.47914547 20:-0.10271824 21:-0.60606164 22:1.8893893 23:-0.46904288 24:2.7554218 
2 1:0.45904741 2:-0.74767313 3:-0.4370267 4:-0.17027899 5:0.73577823 6:-0.79285163 7:0.95707901 8:-0.60176117 9:1.7582526 10:1.2995712 11:-0.3203615 12:-0.24593117 13:1.9108248 14:-0.32151881 15:0.53318077 16:1.1352117 17:1.4084892 18:-0.12810315 19:-0.47914547 20:-0.10271824 21:-0.60606164 22:-0.47995792 23:-0.46904288 24:-0.30647524 
2 1:0.45904741 2:-0.74767313 3:-0.4370267 4:-0.17027899 5:0.73577823 6:-0.79285163 7:0.95707901 8:-0.60176117 9:1.7582526 10:1.2995712 11:-0.3203615 12:-0.24593117 13:-0.47393793 14:-0.32151881 15:0.53318077 16:1.1352117 17:-0.65956639 18:-0.12810315 19:-0.47914547 20:-0.10271824 21:-0.60606164 22:-0.47995792 23:-0.46904288 24:-0.30647524 
0.9321188563959596 1:0.45904741 2:-0.74767313 3:-0.4370267 4:-0.17027899 5:0.73577823 6:-0.79285163 7:0.95707901 8:1.5357423 9:-0.5197573 10:-0.71750206 11:2.661132 12:-0.24593117 13:-0.47393793 14:-0.32151881 15:0.53318077 16:1.1352117 17:1.4084892 18:-0.12810315 19:-0.47914547 20:-0.10271824 21:1.5255349 22:-0.47995792 23:-0.46904288 24:-0.30647524 
1.176491660976914 1:0.45904741 2:-0.74767313 3:-0.4370267 4:-0.17027899 5:0.73577823 6:-0.79285163 7:0.95707901 8:1.5357423 9:-0.5197573 10:-0.71750206 11:2.661132 12:-0.24593117 13:1.9108248 14:2.653532 15:0.53318077 16:1.1352117 17:1.4084892 18:-0.12810315 19:-0.47914547 20:-0.10271824 21:1.5255349 22:-0.47995792 23:1.928591 24:-0.30647524 
2 1:0.45904741 2:-0.74767313 3:-0.4370267 4:-0.17027899 5:0.73577823 6:-0.79285163 7:0.95707901 8:-0.60176117 9:1.7582526 10:1.2995712 11:-0.3203615 12:-0.24593117 13:-0.47393793 14:-0.32151881 15:0.53318077 16:1.1352117 17:-0.65956639 18:-0.12810315 19:-0.47914547 20:-0.10271824 21:-0.60606164 22:-0.47995792 23:-0.46904288 24:-0.30647524 
2 1:0.45904741 2:1.2489493 3:2.0527872 4:-0.17027899 5:-1.2684543 6:-0.79285163 7:-0.9797567 8:-0.60176117 9:-0.5197573 10:-0.71750206 11:-0.3203615 12:-0.24593117 13:-0.47393793 14:2.653532 15:0.53318077 16:-0.8247039 17:-0.65956639 18:-0.12810315 19:1.892256 20:-0.10271824 21:-0.60606164 22:-0.47995792 23:-0.46904288 24:-0.30647524 
0.8195711837075973 1:-1.9658385 2:-0.74767313 3:2.0527872 4:-0.17027899 5:0.73577823 6:-0.79285163 7:0.95707901 8:-0.60176117 9:-0.5197573 10:-0.71750206 11:-0.3203615 12:-0.24593117 13:1.9108248 14:-0.32151881 15:0.53318077 16:-0.8247039 17:-0.65956639 18:-0.12810315 19:-0.47914547 20:-0.10271824 21:1.5255349 22:-0.47995792 23:-0.46904288 24:-0.30647524 
1.245045453281332 1:0.45904741 2:-0.74767313 3:-0.4370267 4:-0.17027899 5:0.73577823 6:-0.79285163 7:0.95707901 8:1.5357423 9:-0.5197573 10:1.2995712 11:-0.3203615 12:-0.24593117 13:1.9108248 14:-0.32151881 15:0.53318077 16:1.1352117 17:-0.65956639 18:-0.12810315 19:-0.47914547 20:-0.10271824 21:-0.60606164 22:-0.47995792 23:1.928591 24:-0.30647524 
1.100121135735469 1:0.45904741 2:1.2489493 3:-0.4370267 4:-0.17027899 5:0.73577823 6:1.179773 7:0.95707901 8:1.5357423 9:-0.5197573 10:1.2995712 11:-0.3203615 12:-0.24593117 13:-0.47393793 14:-0.32151881 15:0.53318077 16:1.1352117 17:-0.65956639 18:-0.12810315 19:1.892256 20:-0.10271824 21:1.5255349 22:1.8893893 23:1.928591 24:-0.30647524 
0.9049654250334618 1:-1.9658385 2:-0.74767313 3:2.0527872 4:-0.17027899 5:0.73577823 6:-0.79285163 7:0.95707901 8:1.5357423 9:-0.5197573 10:-0.71750206 11:2.661132 12:-0.24593117 13:-0.47393793 14:-0.32151881 15:0.53318077 16:-0.8247039 17:1.4084892 18:-0.12810315 19:-0.47914547 20:-0.10271824 21:1.5255349 22:1.8893893 23:1.928591 24:-0.30647524 
0.7967003345468107 1:-1.9658385 2:1.2489493 3:-0.4370267 4:-0.17027899 5:0.73577823 6:1.179773 7:-0.9797567 8:-0.60176117 9:-0.5197573 10:-0.71750206 11:-0.3203615 12:-0.24593117 13:-0.47393793 14:-0.32151881 15:0.53318077 16:-0.8247039 17:-0.65956639 18:-0.12810315 19:1.892256 20:-0.10271824 21:-0.60606164 22:-0.47995792 23:1.928591 24:-0.30647524 
2 1:0.45904741 2:1.2489493 3:-0.4370267 4:-0.17027899 5:0.73577823 6:1.179773 7:0.95707901 8:-0.60176117 9:-0.5197573 10:-0.71750206 11:-0.3203615 12:-0.24593117 13:1.9108248 14:-0.32151881 15:0.53318077 16:1.1352117 17:1.4084892 18:-0.12810315 19:-0.47914547 20:-0.10271824 21:1.5255349 22:1.8893893 23:1.928591 24:-0.30647524 
1.195430558457468 1:0.45904741 2:-0.74767313 3:-0.4370267 4:-0.17027899 5:0.73577823 6:1.179773 7:-0.9797567 8:-0.60176117 9:-0.5197573 10:-0.71750206 11:-0.3203615 12:-0.24593117 13:-0.47393793 14:-0.32151881 15:0.53318077 16:-0.8247039 17:1.4084892 18:-0.12810315 19:-0.47914547 20:-0.10271824 21:-0.60606164 22:-0.47995792 23:-0.46904288 24:-0.30647524 
0.8336405594085803 1:-1.9658385 2:-0.74767313 3:2.0527872 4:-0.17027899 5:0.73577823 6:-0.79285163 7:0.95707901 8:1.5357423 9:-0.5197573 10:-0.71750206 11:2.661132 12:-0.24593117 13:-0.47393793 14:-0.32151881 15:0.53318077 16:-0.8247039 17:-0.65956639 18:-0.12810315 19:-0.47914547 20:-0.10271824 21:1.5255349 22:-0.47995792 23:-0.46904288 24:-0.30647524 
