svm_type c_svc
kernel_type rbf
gamma 0.5
nr_class 2
total_sv 9076
rho -0.92437
label 2 1
nr_sv 6013 3063
SV
0.054176023701533 1:-1.8116803 2:-0.7113946 3:-0.45264539 4:-0.16299926 5:0.92817043 6:1.4931731 7:1.0931534 8:-0.58448303 9:-0.5163063 10:-0.67724272 11:-0.33800678 12:-0.26218076 13:2.3261829 14:-0.33129208 15:0.72443042 16:1.3822657 17:1.5205394 18:-0.10971538 19:-0.55191296 20:-0.057575327 21:1.7793935 22:2.1092865 23:-0.41681713 24:-0.27048066 
0.05370519912519091 1:-1.8116803 2:1.4055348 3:-0.45264539 4:-0.16299926 5:0.92817043 6:1.4931731 7:1.0931534 8:1.7107252 9:-0.5163063 10:1.4764129 11:-0.33800678 12:-0.26218076 13:-0.42984145 14:-0.33129208 15:0.72443042 16:-0.72337024 17:-0.65758891 18:-0.10971538 19:1.8116803 20:-0.057575327 21:-0.56192732 22:-0.47404174 23:-0.41681713 24:-0.27048066 
0.07606936072963112 1:0.55191296 2:-0.7113946 3:-0.45264539 4:-0.16299926 5:-1.0772697 6:-0.66964096 7:-0.91468391 8:-0.58448303 9:-0.5163063 10:-0.67724272 11:-0.33800678 12:-0.26218076 13:-0.42984145 14:-0.33129208 15:0.72443042 16:1.3822657 17:1.5205394 18:-0.10971538 19:1.8116803 20:-0.057575327 21:1.7793935 22:-0.47404174 23:2.3988694 24:-0.27048066 
0.03579362501430448 1:0.55191296 2:1.4055348 3:-0.45264539 4:-0.16299926 5:0.92817043 6:-0.66964096 7:1.0931534 8:1.7107252 9:-0.5163063 10:1.4764129 11:-0.33800678 12:-0.26218076 13:-0.42984145 14:-0.33129208 15:0.72443042 16:1.3822657 17:-0.65758891 18:-0.10971538 19:-0.55191296 20:-0.057575327 21:1.7793935 22:-0.47404174 23:2.3988694 24:-0.27048066 
0.1372214739965104 1:0.55191296 2:1.4055348 3:-0.45264539 4:-0.16299926 5:0.92817043 6:-0.66964096 7:1.0931534 8:-0.58448303 9:1.9366214 10:1.4764129 11:-0.33800678 12:-0.26218076 13:-0.42984145 14:3.018152 15:0.72443042 16:1.3822657 17:-0.65758891 18:-0.10971538 19:-0.55191296 20:-0.057575327 21:1.7793935 22:-0.47404174 23:-0.41681713 24:-0.27048066 
0.03625452388336151 1:0.55191296 2:1.4055348 3:-0.45264539 4:-0.16299926 5:-1.0772697 6:-0.66964096 7:-0.91468391 8:-0.58448303 9:-0.5163063 10:-0.67724272 11:-0.33800678 12:-0.26218076 13:-0.42984145 14:-0.33129208 15:0.72443042 16:1.3822657 17:1.5205394 18:-0.10971538 19:1.8116803 20:-0.057575327 21:1.7793935 22:-0.47404174 23:-0.41681713 24:-0.27048066 
0.5 1:0.55191296 2:1.4055348 3:-0.45264539 4:-0.16299926 5:-1.0772697 6:-0.66964096 7:-0.91468391 8:-0.58448303 9:-0.5163063 10:-0.67724272 11:-0.33800678 12:-0.26218076 13:-0.42984145 14:-0.33129208 15:0.72443042 16:1.3822657 17:-0.65758891 18:-0.10971538 19:-0.55191296 20:-0.057575327 21:1.7793935 22:-0.47404174 23:-0.41681713 24:-0.27048066 
0.0757893329222929 1:0.55191296 2:1.4055348 3:-0.45264539 4:6.1343213 5:0.92817043 6:1.4931731 7:-0.91468391 8:-0.58448303 9:-0.5163063 10:-0.67724272 11:-0.33800678 12:-0.26218076 13:-0.42984145 14:3.018152 15:0.72443042 16:-0.72337024 17:-0.65758891 18:-0.10971538 19:-0.55191296 20:-0.057575327 21:-0.56192732 22:-0.47404174 23:-0.41681713 24:3.6967147 
0.06560039526934316 1:0.55191296 2:-0.7113946 3:-0.45264539 4:-0.16299926 5:0.92817043 6:1.4931731 7:1.0931534 8:1.7107252 9:-0.5163063 10:1.4764129 11:2.9581947 12:-0.26218076 13:-0.42984145 14:-0.33129208 15:0.72443042 16:1.3822657 17:1.5205394 18:-0.10971538 19:-0.55191296 20:-0.057575327 21:1.7793935 22:-0.47404174 23:2.3988694 24:-0.27048066 
0.06106255441765683 1:0.55191296 2:-0.7113946 3:-0.45264539 4:6.1343213 5:0.92817043 6:1.4931731 7:1.0931534 8:-0.58448303 9:1.9366214 10:1.4764129 11:-0.33800678 12:-0.26218076 13:-0.42984145 14:-0.33129208 15:0.72443042 16:-0.72337024 17:-0.65758891 18:-0.10971538 19:-0.55191296 20:-0.057575327 21:-0.56192732 22:-0.47404174 23:-0.41681713 24:-0.27048066 
0.06074304208849283 1:0.55191296 2:-0.7113946 3:-0.45264539 4:-0.16299926 5:0.92817043 6:1.4931731 7:-0.91468391 8:-0.58448303 9:-0.5163063 10:-0.67724272 11:-0.33800678 12:-0.26218076 13:-0.42984145 14:-0.33129208 15:0.72443042 16:1.3822657 17:1.5205394 18:-0.10971538 19:1.8116803 20:-0.057575327 21:-0.56192732 22:-0.47404174 23:2.3988694 24:-0.27048066 
0.03002997183629504 1:0.55191296 2:1.4055348 3:-0.45264539 4:-0.16299926 5:0.92817043 6:-0.66964096 7:1.0931534 8:1.7107252 9:1.9366214 10:1.4764129 11:-0.33800678 12:-0.26218076 13:-0.42984145 14:-0.33129208 15:0.72443042 16:-0.72337024 17:-0.65758891 18:-0.10971538 19:1.8116803 20:-0.057575327 21:-0.56192732 22:-0.47404174 23:-0.41681713 24:-0.27048066 
0.05969811197289618 1:0.55191296 2:-0.7113946 3:-0.45264539 4:-0.16299926 5:0.92817043 6:1.4931731 7:-0.91468391 8:-0.58448303 9:-0.5163063 10:-0.67724272 11:-0.33800678 12:-0.26218076 13:-0.42984145 14:-0.33129208 15:0.72443042 16:1.3822657 17:-0.65758891 18:-0.10971538 19:-0.55191296 20:-0.057575327 21:-0.56192732 22:-0.47404174 23:2.3988694 24:3.6967147 
0.07087473129115407 1:0.55191296 2:1.4055348 3:-0.45264539 4:-0.16299926 5:0.92817043 6:-0.66964096 7:1.0931534 8:-0.58448303 9:1.9366214 10:-0.67724272 11:-0.33800678 12:3.8137423 13:-0.42984145 14:-0.33129208 15:0.72443042 16:1.3822657 17:-0.65758891 18:-0.10971538 19:-0.55191296 20:-0.057575327 21:-0.56192732 22:2.1092865 23:-0.41681713 24:-0.27048066 
0.07812698638015349 1:0.55191296 2:1.4055348 3:2.2089916 4:-0.16299926 5:0.92817043 6:1.4931731 7:1.0931534 8:-0.58448303 9:1.9366214 10:1.4764129 11:-0.33800678 12:-0.26218076 13:-0.42984145 14:-0.33129208 15:0.72443042 16:-0.72337024 17:-0.65758891 18:-0.10971538 19:1.8116803 20:-0.057575327 21:-0.56192732 22:2.1092865 23:-0.41681713 24:-0.27048066 
0.0628985819192602 1:-1.8116803 2:-0.7113946 3:2.2089916 4:-0.16299926 5:-1.0772697 6:-0.66964096 7:-0.91468391 8:-0.58448303 9:-0.5163063 10:-0.67724272 11:-0.33800678 12:-0.26218076 13:-0.42984145 14:-0.33129208 15:0.72443042 16:-0.72337024 17:-0.65758891 18:-0.10971538 19:-0.55191296 20:-0.057575327 21:-0.56192732 22:-0.47404174 23:2.3988694 24:-0.27048066 
0.5 1:-1.8116803 2:-0.7113946 3:-0.45264539 4:-0.16299926 5:0.92817043 6:-0.66964096 7:1.0931534 8:-0.58448303 9:1.9366214 10:1.4764129 11:-0.33800678 12:-0.26218076 13:-0.42984145 14:-0.33129208 15:0.72443042 16:-0.72337024 17:-0.65758891 18:-0.10971538 19:-0.55191296 20:-0.057575327 21:-0.56192732 22:-0.47404174 23:-0.41681713 24:-0.27048066 
0.5 1:-1.8116803 2:-0.7113946 3:2.2089916 4:-0.16299926 5:0.92817043 6:1.4931731 7:-0.91468391 8:-0.58448303 9:-0.5163063 10:-0.67724272 11:-0.33800678 12:-0.26218076 13:-0.42984145 14:-0.33129208 15:0.72443042 16:-0.72337024 17:-0.65758891 18:-0.10971538 19:-0.55191296 20:-0.057575327 21:-0.56192732 22:-0.47404174 23:-0.41681713 24:-0.27048066 
0.07419668706879345 1:-1.8116803 2:-0.7113946 3:2.2089916 4:-0.16299926 5:0.92817043 6:1.4931731 7:1.0931534 8:1.7107252 9:-0.5163063 10:1.4764129 11:-0.33800678 12:-0.26218076 13:-0.42984145 14:-0.33129208 15:0.72443042 16:-0.72337024 17:1.5205394 18:-0.10971538 19:-0.55191296 20:-0.057575327 21:1.7793935 22:2.1092865 23:2.3988694 24:-0.27048066 
0.0485908941787257 1:0.55191296 2:1.4055348 3:-0.45264539 4:-0.16299926 5:0.92817043 6:1.4931731 7:1.0931534 8:1.7107252 9:-0.5163063 10:1.4764129 11:2.9581947 12:-0.26218076 13:-0.42984145 14:-0.33129208 15:0.72443042 16:1.3822657 17:1.5205394 18:-0.10971538 19:-0.55191296 20:-0.057575327 21:1.7793935 22:2.1092865 23:2.3988694 24:-0.27048066 
0.07512737468703032 1:-1.8116803 2:1.4055348 3:-0.45264539 4:-0.16299926 5:0.92817043 6:-0.66964096 7:1.0931534 8:-0.58448303 9:1.9366214 10:1.4764129 11:-0.33800678 12:-0.26218076 13:-0.42984145 14:3.018152 15:0.72443042 16:-0.72337024 17:-0.65758891 18:-0.10971538 19:1.8116803 20:-0.057575327 21:-0.56192732 22:-0.47404174 23:2.3988694 24:-0.27048066 
0.07625878735767078 1:0.55191296 2:1.4055348 3:2.2089916 4:-0.16299926 5:0.92817043 6:1.4931731 7:1.0931534 8:1.7107252 9:-0.5163063 10:-0.67724272 11:2.9581947 12:-0.26218076 13:-0.42984145 14:-0.33129208 15:0.72443042 16:1.3822657 17:1.5205394 18:-0.10971538 19:1.8116803 20:-0.057575327 21:1.7793935 22:-0.47404174 23:2.3988694 24:-0.27048066 
0.068388751515813 1:0.55191296 2:-0.7113946 3:2.2089916 4:-0.16299926 5:-1.0772697 6:-0.66964096 7:-0.91468391 8:-0.58448303 9:-0.5163063 10:-0.67724272 11:-0.33800678 12:-0.26218076 13:-0.42984145 14:-0.33129208 15:0.72443042 16:-0.72337024 17:-0.65758891 18:-0.10971538 19:1.8116803 20:-0.057575327 21:-0.56192732 22:-0.47404174 23:2.3988694 24:-0.27048066 
0.07557744402532984 1:0.55191296 2:1.4055348 3:2.2089916 4:6.1343213 5:0.92817043 6:1.4931731 7:1.0931534 8:1.7107252 9:1.9366214 10:1.4764129 11:-0.33800678 12:-0.26218076 13:-0.42984145 14:3.018152 15:0.72443042 16:1.3822657 17:-0.65758891 18:-0.10971538 19:-0.55191296 20:-0.057575327 21:1.7793935 22:-0.47404174 23:-0.41681713 24:3.6967147 
0.5 1:0.55191296 2:1.4055348 3:-0.45264539 4:-0.16299926 5:0.92817043 6:-0.66964096 7:1.0931534 8:1.7107252 9:-0.5163063 10:1.4764129 11:-0.33800678 12:-0.26218076 13:-0.42984145 14:-0.33129208 15:0.72443042 16:1.3822657 17:1.5205394 18:-0.10971538 19:-0.55191296 20:-0.057575327 21:1.7793935 22:2.1092865 23:-0.41681713 24:-0.27048066 
0.5 1:-1.8116803 2:-0.7113946 3:2.2089916 4:-0.16299926 5:0.92817043 6:-0.66964096 7:1.0931534 8:-0.58448303 9:1.9366214 10:1.4764129 11:-0.33800678 12:-0.26218076 13:2.3261829 14:-0.33129208 15:0.72443042 16:1.3822657 17:-0.65758891 18:-0.10971538 19:-0.55191296 20:-0.057575327 21:-0.56192732 22:-0.47404174 23:-0.41681713 24:-0.27048066 
0.5 1:-1.8116803 2:-0.7113946 3:2.2089916 4:-0.16299926 5:0.92817043 6:1.4931731 7:-0.91468391 8:-0.58448303 9:-0.5163063 10:-0.67724272 11:-0.33800678 12:-0.26218076 13:-0.42984145 14:-0.33129208 15:0.72443042 16:-0.72337024 17:-0.65758891 18:-0.10971538 19:-0.55191296 20:-0.057575327 21:-0.56192732 22:-0.47404174 23:-0.41681713 24:-0.27048066 
0.5 1:-1.8116803 2:-0.7113946 3:-0.45264539 4:-0.16299926 5:0.92817043 6:-0.66964096 7:1.0931534 8:-0.58448303 9:1.9366214 10:1.4764129 11:-0.33800678 12:-0.26218076 13:-0.42984145 14:-0.33129208 15:0.72443042 16:-0.72337024 17:-0.65758891 18:-0.10971538 19:-0.55191296 20:-0.057575327 21:-0.56192732 22:-0.47404174 23:-0.41681713 24:-0.27048066 
0.5 1:0.55191296 2:-0.7113946 3:-0.45264539 4:-0.16299926 5:0.92817043 6:-0.66964096 7:1.0931534 8:-0.58448303 9:1.9366214 10:1.4764129 11:-0.33800678 12:-0.26218076 13:-0.42984145 14:-0.33129208 15:0.72443042 16:-0.72337024 17:-0.65758891 18:-0.10971538 19:1.8116803 20:-0.057575327 21:-0.56192732 22:-0.47404174 23:-0.41681713 24:-0.27048066 
0.5 1:-1.8116803 2:-0.7113946 3:-0.45264539 4:-0.16299926 5:0.92817043 6:-0.66964096 7:1.0931534 8:-0.58448303 9:1.9366214 10:1.4764129 11:-0.33800678 12:-0.26218076 13:-0.42984145 14:-0.33129208 15:0.72443042 16:-0.72337024 17:-0.65758891 18:-0.10971538 19:-0.55191296 20:-0.057575327 21:-0.56192732 22:-0.47404174 23:-0.41681713 24:-0.27048066 
0.5 1:-1.8116803 2:-0.7113946 3:-0.45264539 4:-0.16299926 5:0.92817043 6:-0.66964096 7:1.0931534 8:1.7107252 9:-0.5163063 10:1.4764129 11:-0.33800678 12:-0.26218076 13:-0.42984145 14:-0.33129208 15:0.72443042 16:-0.72337024 17:1.5205394 18:-0.10971538 19:-0.55191296 20:-0.057575327 21:-0.56192732 22:-0.47404174 23:-0.41681713 24:-0.27048066 
0.5 1:0.55191296 2:-0.7113946 3:-0.45264539 4:-0.16299926 5:-1.0772697 6:-0.66964096 7:-0.91468391 8:-0.58448303 9:-0.5163063 10:-0.67724272 11:-0.33800678 12:-0.26218076 13:-0.42984145 14:-0.33129208 15:0.72443042 16:1.3822657 17:-0.65758891 18:-0.10971538 19:-0.55191296 20:-0.057575327 21:1.7793935 22:-0.47404174 23:-0.41681713 24:-0.27048066 
0.07051121558737629 1:0.55191296 2:-0.7113946 3:-0.45264539 4:-0.16299926 5:0.92817043 6:1.4931731 7:-0.91468391 8:-0.58448303 9:-0.5163063 10:-0.67724272 11:-0.33800678 12:-0.26218076 13:-0.42984145 14:3.018152 15:0.72443042 16:1.3822657 17:-0.65758891 18:-0.10971538 19:1.8116803 20:-0.057575327 21:1.7793935 22:2.1092865 23:2.3988694 24:-0.27048066 
0.06590475081318006 1:0.55191296 2:1.4055348 3:2.2089916 4:-0.16299926 5:0.92817043 6:1.4931731 7:1.0931534 8:1.7107252 9:1.9366214 10:1.4764129 11:2.9581947 12:-0.26218076 13:-0.42984145 14:-0.33129208 15:0.72443042 16:-0.72337024 17:-0.65758891 18:-0.10971538 19:-0.55191296 20:-0.057575327 21:-0.56192732 22:-0.47404174 23:-0.41681713 24:-0.27048066 
0.05875452528934167 1:0.55191296 2:1.4055348 3:-0.45264539 4:-0.16299926 5:0.92817043 6:1.4931731 7:1.0931534 8:1.7107252 9:-0.5163063 10:1.4764129 11:-0.33800678 12:-0.26218076 13:-0.42984145 14:3.018152 15:0.72443042 16:1.3822657 17:1.5205394 18:-0.10971538 19:-0.55191296 20:-0.057575327 21:-0.56192732 22:-0.47404174 23:-0.41681713 24:-0.27048066 
0.07557670304239666 1:0.55191296 2:-0.7113946 3:2.2089916 4:-0.16299926 5:-1.0772697 6:-0.66964096 7:-0.91468391 8:-0.58448303 9:-0.5163063 10:-0.67724272 11:-0.33800678 12:-0.26218076 13:-0.42984145 14:3.018152 15:0.72443042 16:1.3822657 17:1.5205394 18:-0.10971538 19:-0.55191296 20:-0.057575327 21:1.7793935 22:2.1092865 23:2.3988694 24:-0.27048066 
0.04600490993097444 1:-1.8116803 2:1.4055348 3:-0.45264539 4:-0.16299926 5:0.92817043 6:-0.66964096 7:1.0931534 8:-0.58448303 9:1.9366214 10:1.4764129 11:-0.33800678 12:-0.26218076 13:-0.42984145 14:-0.33129208 15:0.72443042 16:1.3822657 17:-0.65758891 18:-0.10971538 19:-0.55191296 20:-0.057575327 21:-0.56192732 22:-0.47404174 23:2.3988694 24:-0.27048066 
0.07560659229897165 1:0.55191296 2:1.4055348 3:-0.45264539 4:-0.16299926 5:0.92817043 6:1.4931731 7:1.0931534 8:-0.58448303 9:1.9366214 10:1.4764129 11:-0.33800678 12:-0.26218076 13:-0.42984145 14:3.018152 15:0.72443042 16:1.3822657 17:-0.65758891 18:-0.10971538 19:-0.55191296 20:-0.057575327 21:1.7793935 22:-0.47404174 23:2.3988694 24:3.6967147 
0.5 1:0.55191296 2:-0.7113946 3:-0.45264539 4:-0.16299926 5:-1.0772697 6:-0.66964096 7:-0.91468391 8:-0.58448303 9:-0.5163063 10:-0.67724272 11:-0.33800678 12:-0.26218076 13:-0.42984145 14:-0.33129208 15:-1.3802428 16:-0.72337024 17:-0.65758891 18:-0.10971538 19:1.8116803 20:-0.057575327 21:-0.56192732 22:-0.47404174 23:-0.41681713 24:-0.27048066 
0.05754240947431344 1:0.55191296 2:1.4055348 3:2.2089916 4:-0.16299926 5:0.92817043 6:-0.66964096 7:1.0931534 8:-0.58448303 9:1.9366214 10:1.4764129 11:-0.33800678 12:-0.26218076 13:-0.42984145 14:-0.33129208 15:0.72443042 16:1.3822657 17:1.5205394 18:-0.10971538 19:-0.55191296 20:-0.057575327 21:1.7793935 22:-0.47404174 23:2.3988694 24:-0.27048066 
0.1418949658298928 1:0.55191296 2:1.4055348 3:2.2089916 4:-0.16299926 5:0.92817043 6:-0.66964096 7:1.0931534 8:-0.58448303 9:-0.5163063 10:-0.67724272 11:-0.33800678 12:-0.26218076 13:2.3261829 14:-0.33129208 15:0.72443042 16:-0.72337024 17:-0.65758891 18:-0.10971538 19:-0.55191296 20:-0.057575327 21:-0.56192732 22:-0.47404174 23:-0.41681713 24:-0.27048066 
0.07101974635057687 1:-1.8116803 2:1.4055348 3:-0.45264539 4:-0.16299926 5:0.92817043 6:-0.66964096 7:1.0931534 8:-0.58448303 9:1.9366214 10:-0.67724272 11:-0.33800678 12:3.8137423 13:2.3261829 14:-0.33129208 15:0.72443042 16:1.3822657 17:-0.65758891 18:-0.10971538 19:-0.55191296 20:-0.057575327 21:1.7793935 22:-0.47404174 23:-0.41681713 24:-0.27048066 
0.1205502719771008 1:-1.8116803 2:1.4055348 3:-0.45264539 4:-0.16299926 5:0.92817043 6:-0.66964096 7:1.0931534 8:-0.58448303 9:1.9366214 10:1.4764129 11:-0.33800678 12:-0.26218076 13:-0.42984145 14:-0.33129208 15:0.72443042 16:1.3822657 17:-0.65758891 18:-0.10971538 19:1.8116803 20:-0.057575327 21:-0.56192732 22:-0.47404174 23:-0.41681713 24:-0.27048066 
0.5 1:0.55191296 2:1.4055348 3:-0.45264539 4:-0.16299926 5:-1.0772697 6:-0.66964096 7:-0.91468391 8:-0.58448303 9:-0.5163063 10:-0.67724272 11:-0.33800678 12:-0.26218076 13:-0.42984145 14:-0.33129208 15:-1.3802428 16:-0.72337024 17:-0.65758891 18:-0.10971538 19:1.8116803 20:-0.057575327 21:-0.56192732 22:-0.47404174 23:-0.41681713 24:-0.27048066 
0.06542635340154504 1:0.55191296 2:1.4055348 3:-0.45264539 4:-0.16299926 5:0.92817043 6:-0.66964096 7:1.0931534 8:-0.58448303 9:1.9366214 10:1.4764129 11:-0.33800678 12:-0.26218076 13:-0.42984145 14:3.018152 15:0.72443042 16:1.3822657 17:1.5205394 18:-0.10971538 19:-0.55191296 20:-0.057575327 21:-0.56192732 22:-0.47404174 23:2.3988694 24:-0.27048066 
0.05858471305251152 1:0.55191296 2:-0.7113946 3:-0.45264539 4:-0.16299926 5:0.92817043 6:-0.66964096 7:1.0931534 8:-0.58448303 9:1.9366214 10:1.4764129 11:-0.33800678 12:-0.26218076 13:-0.42984145 14:-0.33129208 15:0.72443042 16:1.3822657 17:1.5205394 18:-0.10971538 19:1.8116803 20:-0.057575327 21:1.7793935 22:2.1092865 23:2.3988694 24:-0.27048066 
0.1093203092600233 1:0.55191296 2:-0.7113946 3:-0.45264539 4:-0.16299926 5:0.92817043 6:1.4931731 7:1.0931534 8:1.7107252 9:-0.5163063 10:-0.67724272 11:2.9581947 12:-0.26218076 13:2.3261829 14:-0.33129208 15:0.72443042 16:1.3822657 17:1.5205394 18:-0.10971538 19:-0.55191296 20:-0.057575327 21:-0.56192732 22:2.1092865 23:-0.41681713 24:-0.27048066 
0.5 1:-1.8116803 2:-0.7113946 3:-0.45264539 4:-0.16299926 5:-1.0772697 6:-0.66964096 7:-0.91468391 8:-0.58448303 9:-0.5163063 10:-0.67724272 11:-0.33800678 12:-0.26218076 13:-0.42984145 14:-0.33129208 15:-1.3802428 16:-0.72337024 17:-0.65758891 18:-0.10971538 19:-0.55191296 20:-0.057575327 21:-0.56192732 22:-0.47404174 23:-0.41681713 24:-0.27048066 
0.1570313583313654 1:-1.8116803 2:1.4055348 3:2.2089916 4:-0.16299926 5:0.92817043 6:1.4931731 7:1.0931534 8:-0.58448303 9:1.9366214 10:1.4764129 11:-0.33800678 12:-0.26218076 13:-0.42984145 14:-0.33129208 15:0.72443042 16:1.3822657 17:-0.65758891 18:-0.10971538 19:1.8116803 20:-0.057575327 21:-0.56192732 22:-0.47404174 23:-0.41681713 24:-0.27048066 
0.06547676423482397 1:-1.8116803 2:1.4055348 3:-0.45264539 4:-0.16299926 5:0.92817043 6:1.4931731 7:1.0931534 8:-0.58448303 9:1.9366214 10:1.4764129 11:-0.33800678 12:-0.26218076 13:-0.42984145 14:-0.33129208 15:0.72443042 16:1.3822657 17:-0.65758891 18:-0.10971538 19:-0.55191296 20:-0.057575327 21:-0.56192732 22:-0.47404174 23:2.3988694 24:-0.27048066 
0.5 1:0.55191296 2:-0.7113946 3:-0.45264539 4:-0.16299926 5:-1.0772697 6:-0.66964096 7:-0.91468391 8:-0.58448303 9:-0.5163063 10:-0.67724272 11:-0.33800678 12:-0.26218076 13:-0.42984145 14:-0.33129208 15:-1.3802428 16:-0.72337024 17:-0.65758891 18:-0.10971538 19:1.8116803 20:-0.057575327 21:-0.56192732 22:-0.47404174 23:-0.41681713 24:-0.27048066 
0.5 1:0.55191296 2:-0.7113946 3:2.2089916 4:-0.16299926 5:0.92817043 6:1.4931731 7:1.0931534 8:-0.58448303 9:1.9366214 10:1.4764129 11:-0.33800678 12:-0.26218076 13:-0.42984145 14:-0.33129208 15:0.72443042 16:1.3822657 17:-0.65758891 18:-0.10971538 19:-0.55191296 20:-0.057575327 21:-0.56192732 22:-0.47404174 23:-0.41681713 24:-0.27048066 
0.05334668608793946 1:-1.8116803 2:-0.7113946 3:2.2089916 4:-0.16299926 5:-1.0772697 6:-0.66964096 7:-0.91468391 8:-0.58448303 9:-0.5163063 10:-0.67724272 11:-0.33800678 12:-0.26218076 13:-0.42984145 14:-0.33129208 15:0.72443042 16:1.3822657 17:1.5205394 18:-0.10971538 19:-0.55191296 20:-0.057575327 21:1.7793935 22:2.1092865 23:-0.41681713 24:-0.27048066 
0.06146732964198209 1:0.55191296 2:-0.7113946 3:-0.45264539 4:6.1343213 5:0.92817043 6:1.4931731 7:1.0931534 8:-0.58448303 9:1.9366214 10:1.4764129 11:-0.33800678 12:-0.26218076 13:-0.42984145 14:-0.33129208 15:0.72443042 16:1.3822657 17:-0.65758891 18:-0.10971538 19:-0.55191296 20:-0.057575327 21:-0.56192732 22:-0.47404174 23:-0.41681713 24:3.6967147 
0.03880280856696651 1:-1.8116803 2:1.4055348 3:-0.45264539 4:-0.16299926 5:0.92817043 6:-0.66964096 7:1.0931534 8:-0.58448303 9:-0.5163063 10:-0.67724272 11:-0.33800678 12:-0.26218076 13:2.3261829 14:-0.33129208 15:0.72443042 16:1.3822657 17:-0.65758891 18:-0.10971538 19:1.8116803 20:-0.057575327 21:-0.56192732 22:-0.47404174 23:-0.41681713 24:-0.27048066 
0.06816253255017309 1:-1.8116803 2:-0.7113946 3:-0.45264539 4:-0.16299926 5:0.92817043 6:-0.66964096 7:1.0931534 8:-0.58448303 9:1.9366214 10:1.4764129 11:-0.33800678 12:3.8137423 13:-0.42984145 14:-0.33129208 15:0.72443042 16:-0.72337024 17:-0.65758891 18:-0.10971538 19:-0.55191296 20:-0.057575327 21:-0.56192732 22:-0.47404174 23:2.3988694 24:-0.27048066 
0.06642347727213514 1:0.55191296 2:1.4055348 3:2.2089916 4:-0.16299926 5:-1.0772697 6:-0.66964096 7:-0.91468391 8:-0.58448303 9:-0.5163063 10:-0.67724272 11:-0.33800678 12:-0.26218076 13:-0.42984145 14:-0.33129208 15:0.72443042 16:1.3822657 17:-0.65758891 18:-0.10971538 19:-0.55191296 20:-0.057575327 21:1.7793935 22:-0.47404174 23:2.3988694 24:-0.27048066 
0.08182380347009641 1:-1.8116803 2:-0.7113946 3:2.2089916 4:-0.16299926 5:0.92817043 6:1.4931731 7:-0.91468391 8:-0.58448303 9:-0.5163063 10:-0.67724272 11:-0.33800678 12:-0.26218076 13:-0.42984145 14:-0.33129208 15:0.72443042 16:-0.72337024 17:-0.65758891 18:-0.10971538 19:-0.55191296 20:-0.057575327 21:1.7793935 22:-0.47404174 23:-0.41681713 24:-0.27048066 
0.05888448772065707 1:0.55191296 2:-0.7113946 3:-0.45264539 4:6.1343213 5:-1.0772697 6:-0.66964096 7:-0.91468391 8:-0.58448303 9:-0.5163063 10:-0.67724272 11:-0.33800678 12:-0.26218076 13:-0.42984145 14:-0.33129208 15:0.72443042 16:1.3822657 17:-0.65758891 18:-0.10971538 19:-0.55191296 20:-0.057575327 21:-0.56192732 22:-0.47404174 23:-0.41681713 24:-0.27048066 
0.07888630190286268 1:0.55191296 2:1.4055348 3:-0.45264539 4:-0.16299926 5:0.92817043 6:-0.66964096 7:1.0931534 8:-0.58448303 9:1.9366214 10:1.4764129 11:-0.33800678 12:-0.26218076 13:-0.42984145 14:3.018152 15:0.72443042 16:1.3822657 17:1.5205394 18:-0.10971538 19:-0.55191296 20:-0.057575327 21:1.7793935 22:-0.47404174 23:-0.41681713 24:-0.27048066 
0.05964101453314885 1:0.55191296 2:1.4055348 3:-0.45264539 4:-0.16299926 5:0.92817043 6:1.4931731 7:-0.91468391 8:-0.58448303 9:-0.5163063 10:-0.67724272 11:-0.33800678 12:-0.26218076 13:-0.42984145 14:-0.33129208 15:0.72443042 16:-0.72337024 17:-0.65758891 18:-0.10971538 19:-0.55191296 20:-0.057575327 21:1.7793935 22:2.1092865 23:-0.41681713 24:-0.27048066 
0.06888270801111356 1:0.55191296 2:1.4055348 3:-0.45264539 4:-0.16299926 5:0.92817043 6:1.4931731 7:1.0931534 8:1.7107252 9:1.9366214 10:1.4764129 11:2.9581947 12:3.8137423 13:-0.42984145 14:3.018152 15:0.72443042 16:1.3822657 17:1.5205394 18:-0.10971538 19:-0.55191296 20:-0.057575327 21:1.7793935 22:2.1092865 23:2.3988694 24:3.6967147 
0.06797899289892884 1:-1.8116803 2:1.4055348 3:-0.45264539 4:6.1343213 5:0.92817043 6:1.4931731 7:1.0931534 8:1.7107252 9:-0.5163063 10:1.4764129 11:-0.33800678 12:-0.26218076 13:-0.42984145 14:-0.33129208 15:0.72443042 16:-0.72337024 17:-0.65758891 18:-0.10971538 19:-0.55191296 20:-0.057575327 21:-0.56192732 22:-0.47404174 23:-0.41681713 24:-0.27048066 
0.5 1:-1.8116803 2:-0.7113946 3:-0.45264539 4:-0.16299926 5:-1.0772697 6:-0.66964096 7:-0.91468391 8:-0.58448303 9:-0.5163063 10:-0.67724272 11:-0.33800678 12:-0.26218076 13:-0.42984145 14:-0.33129208 15:-1.3802428 16:-0.72337024 17:-0.65758891 18:-0.10971538 19:-0.55191296 20:-0.057575327 21:-0.56192732 22:-0.47404174 23:-0.41681713 24:-0.27048066 
0.05797720376755497 1:0.55191296 2:-0.7113946 3:-0.45264539 4:-0.16299926 5:0.92817043 6:-0.66964096 7:1.0931534 8:-0.58448303 9:1.9366214 10:-0.67724272 11:-0.33800678 12:3.8137423 13:-0.42984145 14:-0.33129208 15:0.72443042 16:1.3822657 17:-0.65758891 18:-0.10971538 19:-0.55191296 20:-0.057575327 21:-0.56192732 22:-0.47404174 23:2.3988694 24:-0.27048066 
0.5 1:0.55191296 2:-0.7113946 3:-0.45264539 4:-0.16299926 5:-1.0772697 6:-0.66964096 7:-0.91468391 8:-0.58448303 9:-0.5163063 10:-0.67724272 11:-0.33800678 12:-0.26218076 13:-0.42984145 14:-0.33129208 15:-1.3802428 16:-0.72337024 17:-0.65758891 18:-0.10971538 19:1.8116803 20:-0.057575327 21:-0.56192732 22:-0.47404174 23:-0.41681713 24:-0.27048066 
0.07233903686851151 1:0.55191296 2:1.4055348 3:-0.45264539 4:-0.16299926 5:0.92817043 6:1.4931731 7:1.0931534 8:1.7107252 9:1.9366214 10:1.4764129 11:-0.33800678 12:-0.26218076 13:-0.42984145 14:-0.33129208 15:0.72443042 16:1.3822657 17:1.5205394 18:-0.10971538 19:-0.55191296 20:-0.057575327 21:-0.56192732 22:2.1092865 23:-0.41681713 24:3.6967147 
0.09169366152513447 1:0.55191296 2:1.4055348 3:-0.45264539 4:-0.16299926 5:0.92817043 6:1.4931731 7:1.0931534 8:1.7107252 9:-0.5163063 10:1.4764129 11:-0.33800678 12:-0.26218076 13:2.3261829 14:-0.33129208 15:0.72443042 16:1.3822657 17:-0.65758891 18:-0.10971538 19:1.8116803 20:-0.057575327 21:-0.56192732 22:2.1092865 23:-0.41681713 24:3.6967147 
0.5 1:0.55191296 2:-0.7113946 3:-0.45264539 4:-0.16299926 5:-1.0772697 6:-0.66964096 7:-0.91468391 8:-0.58448303 9:-0.5163063 10:-0.67724272 11:-0.33800678 12:-0.26218076 13:-0.42984145 14:-0.33129208 15:0.72443042 16:1.3822657 17:-0.65758891 18:-0.10971538 19:-0.55191296 20:-0.057575327 21:1.7793935 22:-0.47404174 23:-0.41681713 24:-0.27048066 
0.0763255983084131 1:0.55191296 2:-0.7113946 3:2.2089916 4:-0.16299926 5:0.92817043 6:1.4931731 7:1.0931534 8:1.7107252 9:-0.5163063 10:-0.67724272 11:2.9581947 12:-0.26218076 13:-0.42984145 14:-0.33129208 15:0.72443042 16:1.3822657 17:1.5205394 18:-0.10971538 19:-0.55191296 20:-0.057575327 21:-0.56192732 22:-0.47404174 23:-0.41681713 24:-0.27048066 
0.07549552606071699 1:0.55191296 2:1.4055348 3:-0.45264539 4:6.1343213 5:0.92817043 6:-0.66964096 7:1.0931534 8:-0.58448303 9:1.9366214 10:1.4764129 11:-0.33800678 12:-0.26218076 13:2.3261829 14:-0.33129208 15:0.72443042 16:1.3822657 17:-0.65758891 18:-0.10971538 19:-0.55191296 20:-0.057575327 21:1.7793935 22:2.1092865 23:2.3988694 24:-0.27048066 
0.5 1:0.55191296 2:1.4055348 3:-0.45264539 4:-0.16299926 5:-1.0772697 6:-0.66964096 7:-0.91468391 8:-0.58448303 9:-0.5163063 10:-0.67724272 11:-0.33800678 12:-0.26218076 13:-0.42984145 14:-0.33129208 15:-1.3802428 16:-0.72337024 17:-0.65758891 18:-0.10971538 19:1.8116803 20:-0.057575327 21:-0.56192732 22:-0.47404174 23:-0.41681713 24:-0.27048066 
0.5 1:0.55191296 2:-0.7113946 3:-0.45264539 4:6.1343213 5:-1.0772697 6:-0.66964096 7:-0.91468391 8:-0.58448303 9:-0.5163063 10:-0.67724272 11:-0.33800678 12:-0.26218076 13:-0.42984145 14:-0.33129208 15:-1.3802428 16:-0.72337024 17:-0.65758891 18:-0.10971538 19:-0.55191296 20:-0.057575327 21:-0.56192732 22:-0.47404174 23:-0.41681713 24:-0.27048066 
0.5 1:0.55191296 2:1.4055348 3:-0.45264539 4:-0.16299926 5:0.92817043 6:1.4931731 7:1.0931534 8:1.7107252 9:-0.5163063 10:1.4764129 11:-0.33800678 12:-0.26218076 13:-0.42984145 14:-0.33129208 15:0.72443042 16:1.3822657 17:-0.65758891 18:-0.10971538 19:1.8116803 20:-0.057575327 21:-0.56192732 22:-0.47404174 23:-0.41681713 24:-0.27048066 
0.0506291649103273 1:-1.8116803 2:-0.7113946 3:-0.45264539 4:6.1343213 5:-1.0772697 6:-0.66964096 7:-0.91468391 8:-0.58448303 9:-0.5163063 10:-0.67724272 11:-0.33800678 12:-0.26218076 13:-0.42984145 14:-0.33129208 15:-1.3802428 16:-0.72337024 17:-0.65758891 18:-0.10971538 19:1.8116803 20:-0.057575327 21:-0.56192732 22:-0.47404174 23:-0.41681713 24:-0.27048066 
0.5 1:0.55191296 2:-0.7113946 3:-0.45264539 4:-0.16299926 5:0.92817043 6:-0.66964096 7:1.0931534 8:-0.58448303 9:1.9366214 10:1.4764129 11:-0.33800678 12:-0.26218076 13:-0.42984145 14:-0.33129208 15:0.72443042 16:-0.72337024 17:-0.65758891 18:-0.10971538 19:-0.55191296 20:-0.057575327 21:1.7793935 22:-0.47404174 23:-0.41681713 24:-0.27048066 
0.5 1:-1.8116803 2:-0.7113946 3:2.2089916 4:-0.16299926 5:0.92817043 6:1.4931731 7:1.0931534 8:-0.58448303 9:-0.5163063 10:-0.67724272 11:-0.33800678 12:-0.26218076 13:2.3261829 14:-0.33129208 15:0.72443042 16:-0.72337024 17:1.5205394 18:-0.10971538 19:-0.55191296 20:-0.057575327 21:-0.56192732 22:-0.47404174 23:-0.41681713 24:-0.27048066 
0.07529460331018922 1:0.55191296 2:1.4055348 3:-0.45264539 4:-0.16299926 5:0.92817043 6:1.4931731 7:1.0931534 8:1.7107252 9:-0.5163063 10:1.4764129 11:-0.33800678 12:-0.26218076 13:-0.42984145 14:3.018152 15:0.72443042 16:1.3822657 17:1.5205394 18:9.1134881 19:-0.55191296 20:-0.057575327 21:1.7793935 22:-0.47404174 23:-0.41681713 24:-0.27048066 
0.06693839241397657 1:0.55191296 2:-0.7113946 3:-0.45264539 4:-0.16299926 5:0.92817043 6:1.4931731 7:1.0931534 8:1.7107252 9:1.9366214 10:1.4764129 11:-0.33800678 12:-0.26218076 13:-0.42984145 14:-0.33129208 15:0.72443042 16:1.3822657 17:1.5205394 18:-0.10971538 19:1.8116803 20:-0.057575327 21:-0.56192732 22:-0.47404174 23:2.3988694 24:-0.27048066 
0.5 1:-1.8116803 2:-0.7113946 3:-0.45264539 4:-0.16299926 5:-1.0772697 6:-0.66964096 7:-0.91468391 8:-0.58448303 9:-0.5163063 10:-0.67724272 11:-0.33800678 12:-0.26218076 13:-0.42984145 14:-0.33129208 15:-1.3802428 16:-0.72337024 17:-0.65758891 18:-0.10971538 19:-0.55191296 20:-0.057575327 21:-0.56192732 22:-0.47404174 23:-0.41681713 24:-0.27048066 
0.07089107155797357 1:0.55191296 2:1.4055348 3:-0.45264539 4:-0.16299926 5:-1.0772697 6:-0.66964096 7:-0.91468391 8:-0.58448303 9:-0.5163063 10:-0.67724272 11:-0.33800678 12:-0.26218076 13:-0.42984145 14:-0.33129208 15:0.72443042 16:-0.72337024 17:-0.65758891 18:-0.10971538 19:1.8116803 20:-0.057575327 21:1.7793935 22:-0.47404174 23:-0.41681713 24:3.6967147 
0.05565483856721777 1:-1.8116803 2:-0.7113946 3:2.2089916 4:-0.16299926 5:0.92817043 6:-0.66964096 7:1.0931534 8:-0.58448303 9:-0.5163063 10:-0.67724272 11:-0.33800678 12:-0.26218076 13:2.3261829 14:-0.33129208 15:0.72443042 16:1.3822657 17:-0.65758891 18:-0.10971538 19:-0.55191296 20:-0.057575327 21:1.7793935 22:2.1092865 23:-0.41681713 24:-0.27048066 
0.5 1:0.55191296 2:1.4055348 3:-0.45264539 4:-0.16299926 5:0.92817043 6:1.4931731 7:1.0931534 8:-0.58448303 9:1.9366214 10:1.4764129 11:-0.33800678 12:-0.26218076 13:2.3261829 14:-0.33129208 15:0.72443042 16:-0.72337024 17:1.5205394 18:-0.10971538 19:-0.55191296 20:-0.057575327 21:-0.56192732 22:-0.47404174 23:-0.41681713 24:-0.27048066 
0.07535244033341293 1:0.55191296 2:1.4055348 3:-0.45264539 4:6.1343213 5:0.92817043 6:1.4931731 7:1.0931534 8:1.7107252 9:1.9366214 10:1.4764129 11:-0.33800678 12:3.8137423 13:2.3261829 14:3.018152 15:0.72443042 16:1.3822657 17:1.5205394 18:-0.10971538 19:1.8116803 20:-0.057575327 21:1.7793935 22:2.1092865 23:-0.41681713 24:3.6967147 
0.05541409176521999 1:0.55191296 2:1.4055348 3:-0.45264539 4:-0.16299926 5:0.92817043 6:-0.66964096 7:1.0931534 8:-0.58448303 9:1.9366214 10:1.4764129 11:-0.33800678 12:-0.26218076 13:-0.42984145 14:-0.33129208 15:0.72443042 16:-0.72337024 17:1.5205394 18:-0.10971538 19:-0.55191296 20:-0.057575327 21:-0.56192732 22:-0.47404174 23:2.3988694 24:-0.27048066 
0.04749961033795557 1:0.55191296 2:-0.7113946 3:-0.45264539 4:-0.16299926 5:0.92817043 6:1.4931731 7:1.0931534 8:1.7107252 9:1.9366214 10:1.4764129 11:-0.33800678 12:-0.26218076 13:-0.42984145 14:-0.33129208 15:0.72443042 16:1.3822657 17:1.5205394 18:-0.10971538 19:-0.55191296 20:-0.057575327 21:1.7793935 22:-0.47404174 23:-0.41681713 24:-0.27048066 
0.07600851620865956 1:0.55191296 2:1.4055348 3:-0.45264539 4:-0.16299926 5:0.92817043 6:1.4931731 7:1.0931534 8:1.7107252 9:1.9366214 10:-0.67724272 11:2.9581947 12:3.8137423 13:-0.42984145 14:3.018152 15:0.72443042 16:1.3822657 17:-0.65758891 18:-0.10971538 19:-0.55191296 20:-0.057575327 21:-0.56192732 22:2.1092865 23:2.3988694 24:-0.27048066 
0.06409766988432158 1:0.55191296 2:-0.7113946 3:-0.45264539 4:-0.16299926 5:-1.0772697 6:-0.66964096 7:-0.91468391 8:-0.58448303 9:-0.5163063 10:-0.67724272 11:-0.33800678 12:-0.26218076 13:-0.42984145 14:-0.33129208 15:-1.3802428 16:-0.72337024 17:-0.65758891 18:-0.10971538 19:1.8116803 20:17.366638 21:-0.56192732 22:-0.47404174 23:-0.41681713 24:-0.27048066 
0.5 1:0.55191296 2:-0.7113946 3:-0.45264539 4:-0.16299926 5:-1.0772697 6:-0.66964096 7:-0.91468391 8:-0.58448303 9:-0.5163063 10:-0.67724272 11:-0.33800678 12:-0.26218076 13:-0.42984145 14:-0.33129208 15:-1.3802428 16:-0.72337024 17:-0.65758891 18:-0.10971538 19:1.8116803 20:-0.057575327 21:-0.56192732 22:-0.47404174 23:-0.41681713 24:-0.27048066 
0.07558003909641725 1:0.55191296 2:1.4055348 3:-0.45264539 4:6.1343213 5:0.92817043 6:1.4931731 7:1.0931534 8:-0.58448303 9:1.9366214 10:1.4764129 11:-0.33800678 12:-0.26218076 13:-0.42984145 14:-0.33129208 15:0.72443042 16:-0.72337024 17:1.5205394 18:-0.10971538 19:-0.55191296 20:17.366638 21:1.7793935 22:2.1092865 23:2.3988694 24:-0.27048066 
0.07173572620553979 1:0.55191296 2:1.4055348 3:2.2089916 4:-0.16299926 5:0.92817043 6:1.4931731 7:1.0931534 8:1.7107252 9:-0.5163063 10:-0.67724272 11:2.9581947 12:-0.26218076 13:-0.42984145 14:-0.33129208 15:0.72443042 16:1.3822657 17:1.5205394 18:-0.10971538 19:1.8116803 20:-0.057575327 21:1.7793935 22:2.1092865 23:-0.41681713 24:-0.27048066 
0.07139995128699506 1:0.55191296 2:1.4055348 3:2.2089916 4:-0.16299926 5:0.92817043 6:-0.66964096 7:1.0931534 8:-0.58448303 9:1.9366214 10:1.4764129 11:-0.33800678 12:-0.26218076 13:-0.42984145 14:-0.33129208 15:0.72443042 16:1.3822657 17:1.5205394 18:-0.10971538 19:-0.55191296 20:-0.057575327 21:-0.56192732 22:-0.47404174 23:2.3988694 24:-0.27048066 
0.07046982782657457 1:0.55191296 2:-0.7113946 3:2.2089916 4:-0.16299926 5:0.92817043 6:1.4931731 7:1.0931534 8:-0.58448303 9:1.9366214 10:1.4764129 11:-0.33800678 12:-0.26218076 13:-0.42984145 14:-0.33129208 15:0.72443042 16:-0.72337024 17:-0.65758891 18:-0.10971538 19:1.8116803 20:-0.057575327 21:-0.56192732 22:-0.47404174 23:-0.41681713 24:-0.27048066 
0.5 1:0.55191296 2:1.4055348 3:2.2089916 4:-0.16299926 5:0.92817043 6:-0.66964096 7:1.0931534 8:-0.58448303 9:1.9366214 10:1.4764129 11:-0.33800678 12:-0.26218076 13:-0.42984145 14:-0.33129208 15:0.72443042 16:-0.72337024 17:-0.65758891 18:-0.10971538 19:1.8116803 20:-0.057575327 21:-0.56192732 22:-0.47404174 23:-0.41681713 24:-0.27048066 
0.05014360169564482 1:0.55191296 2:-0.7113946 3:2.2089916 4:-0.16299926 5:0.92817043 6:1.4931731 7:-0.91468391 8:-0.58448303 9:-0.5163063 10:-0.67724272 11:-0.33800678 12:-0.26218076 13:-0.42984145 14:-0.33129208 15:0.72443042 16:1.3822657 17:-0.65758891 18:-0.10971538 19:-0.55191296 20:-0.057575327 21:-0.56192732 22:-0.47404174 23:2.3988694 24:-0.27048066 
0.5 1:0.55191296 2:-0.7113946 3:-0.45264539 4:-0.16299926 5:-1.0772697 6:-0.66964096 7:-0.91468391 8:-0.58448303 9:-0.5163063 10:-0.67724272 11:-0.33800678 12:-0.26218076 13:-0.42984145 14:-0.33129208 15:0.72443042 16:-0.72337024 17:1.5205394 18:-0.10971538 19:-0.55191296 20:-0.057575327 21:-0.56192732 22:-0.47404174 23:-0.41681713 24:-0.27048066 
0.07533377173243486 1:0.55191296 2:-0.7113946 3:-0.45264539 4:-0.16299926 5:0.92817043 6:1.4931731 7:1.0931534 8:1.7107252 9:1.9366214 10:1.4764129 11:-0.33800678 12:3.8137423 13:-0.42984145 14:3.018152 15:0.72443042 16:-0.72337024 17:-0.65758891 18:-0.10971538 19:-0.55191296 20:-0.057575327 21:-0.56192732 22:2.1092865 23:-0.41681713 24:-0.27048066 
0.5 1:-1.8116803 2:1.4055348 3:-0.45264539 4:-0.16299926 5:0.92817043 6:1.4931731 7:-0.91468391 8:-0.58448303 9:-0.5163063 10:-0.67724272 11:-0.33800678 12:-0.26218076 13:-0.42984145 14:-0.33129208 15:0.72443042 16:-0.72337024 17:1.5205394 18:-0.10971538 19:-0.55191296 20:-0.057575327 21:-0.56192732 22:2.1092865 23:-0.41681713 24:-0.27048066 
0.07740445183182913 1:0.55191296 2:-0.7113946 3:2.2089916 4:-0.16299926 5:0.92817043 6:1.4931731 7:-0.91468391 8:-0.58448303 9:-0.5163063 10:-0.67724272 11:-0.33800678 12:-0.26218076 13:-0.42984145 14:3.018152 15:0.72443042 16:-0.72337024 17:-0.65758891 18:-0.10971538 19:-0.55191296 20:-0.057575327 21:1.7793935 22:-0.47404174 23:-0.41681713 24:-0.27048066 
0.0724939049089256 1:0.55191296 2:1.4055348 3:-0.45264539 4:-0.16299926 5:0.92817043 6:-0.66964096 7:1.0931534 8:1.7107252 9:-0.5163063 10:1.4764129 11:-0.33800678 12:-0.26218076 13:-0.42984145 14:-0.33129208 15:0.72443042 16:-0.72337024 17:-0.65758891 18:9.1134881 19:1.8116803 20:-0.057575327 21:1.7793935 22:-0.47404174 23:-0.41681713 24:-0.27048066 
0.05897191170406051 1:0.55191296 2:1.4055348 3:-0.45264539 4:-0.16299926 5:0.92817043 6:-0.66964096 7:-0.91468391 8:-0.58448303 9:-0.5163063 10:-0.67724272 11:-0.33800678 12:-0.26218076 13:-0.42984145 14:-0.33129208 15:0.72443042 16:-0.72337024 17:1.5205394 18:-0.10971538 19:-0.55191296 20:-0.057575327 21:1.7793935 22:2.1092865 23:-0.41681713 24:-0.27048066 
0.06228503213000158 1:0.55191296 2:-0.7113946 3:-0.45264539 4:-0.16299926 5:0.92817043 6:-0.66964096 7:1.0931534 8:1.7107252 9:-0.5163063 10:1.4764129 11:-0.33800678 12:-0.26218076 13:2.3261829 14:-0.33129208 15:0.72443042 16:-0.72337024 17:-0.65758891 18:-0.10971538 19:-0.55191296 20:-0.057575327 21:1.7793935 22:2.1092865 23:-0.41681713 24:3.6967147 
0.04648870181682108 1:0.55191296 2:1.4055348 3:-0.45264539 4:-0.16299926 5:0.92817043 6:1.4931731 7:-0.91468391 8:-0.58448303 9:-0.5163063 10:-0.67724272 11:-0.33800678 12:-0.26218076 13:-0.42984145 14:-0.33129208 15:0.72443042 16:-0.72337024 17:1.5205394 18:-0.10971538 19:-0.55191296 20:-0.057575327 21:-0.56192732 22:2.1092865 23:-0.41681713 24:-0.27048066 
0.08071811072034181 1:0.55191296 2:1.4055348 3:-0.45264539 4:-0.16299926 5:-1.0772697 6:-0.66964096 7:-0.91468391 8:-0.58448303 9:-0.5163063 10:-0.67724272 11:-0.33800678 12:-0.26218076 13:-0.42984145 14:3.018152 15:0.72443042 16:1.3822657 17:-0.65758891 18:-0.10971538 19:-0.55191296 20:-0.057575327 21:-0.56192732 22:2.1092865 23:-0.41681713 24:3.6967147 
0.0664910978118874 1:0.55191296 2:-0.7113946 3:-0.45264539 4:-0.16299926 5:0.92817043 6:-0.66964096 7:1.0931534 8:1.7107252 9:-0.5163063 10:1.4764129 11:-0.33800678 12:-0.26218076 13:2.3261829 14:-0.33129208 15:0.72443042 16:-0.72337024 17:-0.65758891 18:-0.10971538 19:-0.55191296 20:-0.057575327 21:1.7793935 22:2.1092865 23:2.3988694 24:-0.27048066 
0.05483961248412755 1:0.55191296 2:-0.7113946 3:-0.45264539 4:-0.16299926 5:0.92817043 6:1.4931731 7:-0.91468391 8:-0.58448303 9:-0.5163063 10:-0.67724272 11:-0.33800678 12:-0.26218076 13:-0.42984145 14:3.018152 15:0.72443042 16:1.3822657 17:-0.65758891 18:-0.10971538 19:-0.55191296 20:-0.057575327 21:1.7793935 22:2.1092865 23:-0.41681713 24:-0.27048066 
0.06187743528310751 1:0.55191296 2:-0.7113946 3:-0.45264539 4:-0.16299926 5:0.92817043 6:-0.66964096 7:1.0931534 8:1.7107252 9:-0.5163063 10:1.4764129 11:-0.33800678 12:-0.26218076 13:2.3261829 14:-0.33129208 15:0.72443042 16:1.3822657 17:-0.65758891 18:-0.10971538 19:-0.55191296 20:-0.057575327 21:1.7793935 22:2.1092865 23:2.3988694 24:-0.27048066 
0.5 1:0.55191296 2:-0.7113946 3:-0.45264539 4:-0.16299926 5:-1.0772697 6:-0.66964096 7:-0.91468391 8:-0.58448303 9:-0.5163063 10:-0.67724272 11:-0.33800678 12:-0.26218076 13:-0.42984145 14:-0.33129208 15:-1.3802428 16:-0.72337024 17:-0.65758891 18:-0.10971538 19:1.8116803 20:-0.057575327 21:-0.56192732 22:-0.47404174 23:-0.41681713 24:-0.27048066 
0.07586936816989154 1:0.55191296 2:-0.7113946 3:2.2089916 4:-0.16299926 5:0.92817043 6:-0.66964096 7:1.0931534 8:-0.58448303 9:-0.5163063 10:-0.67724272 11:-0.33800678 12:-0.26218076 13:2.3261829 14:-0.33129208 15:0.72443042 16:1.3822657 17:1.5205394 18:9.1134881 19:-0.55191296 20:-0.057575327 21:-0.56192732 22:2.1092865 23:-0.41681713 24:-0.27048066 
0.06635167387256939 1:0.55191296 2:1.4055348 3:2.2089916 4:-0.16299926 5:0.92817043 6:-0.66964096 7:1.0931534 8:-0.58448303 9:1.9366214 10:1.4764129 11:-0.33800678 12:-0.26218076 13:-0.42984145 14:-0.33129208 15:0.72443042 16:1.3822657 17:1.5205394 18:-0.10971538 19:1.8116803 20:-0.057575327 21:-0.56192732 22:-0.47404174 23:-0.41681713 24:-0.27048066 
0.07781543184718503 1:-1.8116803 2:-0.7113946 3:-0.45264539 4:6.1343213 5:0.92817043 6:-0.66964096 7:1.0931534 8:-0.58448303 9:1.9366214 10:1.4764129 11:-0.33800678 12:-0.26218076 13:-0.42984145 14:-0.33129208 15:0.72443042 16:1.3822657 17:1.5205394 18:-0.10971538 19:-0.55191296 20:-0.057575327 21:1.7793935 22:-0.47404174 23:-0.41681713 24:-0.27048066 
0.1174003024598448 1:0.55191296 2:1.4055348 3:-0.45264539 4:-0.16299926 5:0.92817043 6:-0.66964096 7:1.0931534 8:1.7107252 9:1.9366214 10:1.4764129 11:-0.33800678 12:3.8137423 13:-0.42984145 14:-0.33129208 15:0.72443042 16:1.3822657 17:-0.65758891 18:-0.10971538 19:1.8116803 20:-0.057575327 21:-0.56192732 22:-0.47404174 23:-0.41681713 24:-0.27048066 
0.07874380693725339 1:0.55191296 2:-0.7113946 3:2.2089916 4:-0.16299926 5:0.92817043 6:-0.66964096 7:1.0931534 8:-0.58448303 9:1.9366214 10:-0.67724272 11:-0.33800678 12:3.8137423 13:-0.42984145 14:3.018152 15:0.72443042 16:1.3822657 17:1.5205394 18:-0.10971538 19:-0.55191296 20:-0.057575327 21:-0.56192732 22:2.1092865 23:2.3988694 24:-0.27048066 
0.07483186139751374 1:0.55191296 2:1.4055348 3:-0.45264539 4:6.1343213 5:0.92817043 6:-0.66964096 7:1.0931534 8:-0.58448303 9:1.9366214 10:1.4764129 11:-0.33800678 12:-0.26218076 13:-0.42984145 14:-0.33129208 15:0.72443042 16:-0.72337024 17:1.5205394 18:-0.10971538 19:1.8116803 20:-0.057575327 21:1.7793935 22:2.1092865 23:-0.41681713 24:-0.27048066 
0.1151764900151592 1:-1.8116803 2:1.4055348 3:-0.45264539 4:-0.16299926 5:0.92817043 6:-0.66964096 7:1.0931534 8:1.7107252 9:-0.5163063 10:1.4764129 11:-0.33800678 12:-0.26218076 13:-0.42984145 14:-0.33129208 15:0.72443042 16:-0.72337024 17:1.5205394 18:-0.10971538 19:1.8116803 20:-0.057575327 21:-0.56192732 22:-0.47404174 23:-0.41681713 24:-0.27048066 
0.06971578856523719 1:0.55191296 2:1.4055348 3:-0.45264539 4:-0.16299926 5:0.92817043 6:-0.66964096 7:1.0931534 8:-0.58448303 9:-0.5163063 10:-0.67724272 11:2.9581947 12:-0.26218076 13:-0.42984145 14:-0.33129208 15:0.72443042 16:-0.72337024 17:1.5205394 18:-0.10971538 19:1.8116803 20:-0.057575327 21:-0.56192732 22:-0.47404174 23:-0.41681713 24:-0.27048066 
0.07156607199182313 1:-1.8116803 2:1.4055348 3:2.2089916 4:-0.16299926 5:0.92817043 6:1.4931731 7:1.0931534 8:-0.58448303 9:1.9366214 10:-0.67724272 11:-0.33800678 12:3.8137423 13:2.3261829 14:-0.33129208 15:0.72443042 16:1.3822657 17:-0.65758891 18:-0.10971538 19:-0.55191296 20:-0.057575327 21:-0.56192732 22:-0.47404174 23:-0.41681713 24:-0.27048066 
0.0763655246490563 1:-1.8116803 2:1.4055348 3:-0.45264539 4:-0.16299926 5:0.92817043 6:-0.66964096 7:1.0931534 8:1.7107252 9:1.9366214 10:1.4764129 11:2.9581947 12:-0.26218076 13:2.3261829 14:-0.33129208 15:0.72443042 16:1.3822657 17:-0.65758891 18:-0.10971538 19:-0.55191296 20:-0.057575327 21:-0.56192732 22:-0.47404174 23:-0.41681713 24:-0.27048066 
0.5 1:-1.8116803 2:1.4055348 3:-0.45264539 4:-0.16299926 5:0.92817043 6:-0.66964096 7:1.0931534 8:-0.58448303 9:1.9366214 10:1.4764129 11:-0.33800678 12:-0.26218076 13:-0.42984145 14:-0.33129208 15:0.72443042 16:-0.72337024 17:1.5205394 18:-0.10971538 19:-0.55191296 20:-0.057575327 21:-0.56192732 22:-0.47404174 23:-0.41681713 24:-0.27048066 
0.07553948808556801 1:0.55191296 2:1.4055348 3:-0.45264539 4:-0.16299926 5:0.92817043 6:1.4931731 7:1.0931534 8:1.7107252 9:-0.5163063 10:-0.67724272 11:2.9581947 12:-0.26218076 13:-0.42984145 14:-0.33129208 15:0.72443042 16:1.3822657 17:1.5205394 18:-0.10971538 19:-0.55191296 20:-0.057575327 21:-0.56192732 22:2.1092865 23:-0.41681713 24:3.6967147 
0.05388601797802107 1:0.55191296 2:1.4055348 3:-0.45264539 4:-0.16299926 5:0.92817043 6:1.4931731 7:1.0931534 8:1.7107252 9:-0.5163063 10:1.4764129 11:-0.33800678 12:-0.26218076 13:-0.42984145 14:-0.33129208 15:0.72443042 16:1.3822657 17:1.5205394 18:-0.10971538 19:1.8116803 20:-0.057575327 21:-0.56192732 22:2.1092865 23:2.3988694 24:-0.27048066 
0.05359693624836949 1:0.55191296 2:1.4055348 3:-0.45264539 4:-0.16299926 5:-1.0772697 6:-0.66964096 7:-0.91468391 8:-0.58448303 9:-0.5163063 10:-0.67724272 11:-0.33800678 12:-0.26218076 13:-0.42984145 14:3.018152 15:0.72443042 16:1.3822657 17:1.5205394 18:-0.10971538 19:-0.55191296 20:-0.057575327 21:1.7793935 22:-0.47404174 23:-0.41681713 24:-0.27048066 
0.5 1:-1.8116803 2:1.4055348 3:-0.45264539 4:-0.16299926 5:0.92817043 6:1.4931731 7:-0.91468391 8:-0.58448303 9:-0.5163063 10:-0.67724272 11:-0.33800678 12:-0.26218076 13:-0.42984145 14:-0.33129208 15:0.72443042 16:-0.72337024 17:1.5205394 18:-0.10971538 19:-0.55191296 20:-0.057575327 21:-0.56192732 22:-0.47404174 23:-0.41681713 24:-0.27048066 
0.5 1:-1.8116803 2:-0.7113946 3:2.2089916 4:-0.16299926 5:0.92817043 6:-0.66964096 7:1.0931534 8:-0.58448303 9:1.9366214 10:1.4764129 11:-0.33800678 12:-0.26218076 13:-0.42984145 14:-0.33129208 15:0.72443042 16:-0.72337024 17:-0.65758891 18:-0.10971538 19:-0.55191296 20:-0.057575327 21:-0.56192732 22:-0.47404174 23:-0.41681713 24:-0.27048066 
0.5 1:0.55191296 2:-0.7113946 3:-0.45264539 4:-0.16299926 5:-1.0772697 6:-0.66964096 7:-0.91468391 8:-0.58448303 9:-0.5163063 10:-0.67724272 11:-0.33800678 12:-0.26218076 13:-0.42984145 14:-0.33129208 15:-1.3802428 16:-0.72337024 17:-0.65758891 18:-0.10971538 19:1.8116803 20:-0.057575327 21:-0.56192732 22:-0.47404174 23:-0.41681713 24:-0.27048066 
0.06049240321952314 1:0.55191296 2:1.4055348 3:2.2089916 4:-0.16299926 5:0.92817043 6:1.4931731 7:-0.91468391 8:-0.58448303 9:-0.5163063 10:-0.67724272 11:-0.33800678 12:-0.26218076 13:-0.42984145 14:-0.33129208 15:0.72443042 16:1.3822657 17:-0.65758891 18:-0.10971538 19:-0.55191296 20:-0.057575327 21:1.7793935 22:2.1092865 23:-0.41681713 24:-0.27048066 
0.1096217800403425 1:-1.8116803 2:1.4055348 3:-0.45264539 4:-0.16299926 5:0.92817043 6:1.4931731 7:1.0931534 8:-0.58448303 9:-0.5163063 10:-0.67724272 11:-0.33800678 12:-0.26218076 13:2.3261829 14:-0.33129208 15:0.72443042 16:-0.72337024 17:-0.65758891 18:-0.10971538 19:1.8116803 20:-0.057575327 21:-0.56192732 22:-0.47404174 23:-0.41681713 24:-0.27048066 
0.1192702649703251 1:0.55191296 2:-0.7113946 3:-0.45264539 4:-0.16299926 5:0.92817043 6:-0.66964096 7:1.0931534 8:-0.58448303 9:1.9366214 10:1.4764129 11:-0.33800678 12:-0.26218076 13:-0.42984145 14:3.018152 15:0.72443042 16:1.3822657 17:-0.65758891 18:-0.10971538 19:-0.55191296 20:-0.057575327 21:-0.56192732 22:2.1092865 23:-0.41681713 24:-0.27048066 
0.05604158463486052 1:0.55191296 2:-0.7113946 3:2.2089916 4:-0.16299926 5:0.92817043 6:1.4931731 7:1.0931534 8:-0.58448303 9:1.9366214 10:1.4764129 11:-0.33800678 12:-0.26218076 13:-0.42984145 14:-0.33129208 15:0.72443042 16:1.3822657 17:1.5205394 18:-0.10971538 19:-0.55191296 20:-0.057575327 21:1.7793935 22:2.1092865 23:2.3988694 24:-0.27048066 
0.0764709911130748 1:0.55191296 2:1.4055348 3:-0.45264539 4:-0.16299926 5:0.92817043 6:1.4931731 7:1.0931534 8:1.7107252 9:-0.5163063 10:-0.67724272 11:-0.33800678 12:3.8137423 13:-0.42984145 14:-0.33129208 15:0.72443042 16:1.3822657 17:1.5205394 18:-0.10971538 19:1.8116803 20:-0.057575327 21:1.7793935 22:2.1092865 23:-0.41681713 24:-0.27048066 
0.5 1:0.55191296 2:-0.7113946 3:-0.45264539 4:-0.16299926 5:-1.0772697 6:-0.66964096 7:-0.91468391 8:-0.58448303 9:-0.5163063 10:-0.67724272 11:-0.33800678 12:-0.26218076 13:-0.42984145 14:-0.33129208 15:0.72443042 16:-0.72337024 17:1.5205394 18:-0.10971538 19:-0.55191296 20:-0.057575327 21:-0.56192732 22:-0.47404174 23:-0.41681713 24:-0.27048066 
0.07576424422515431 1:0.55191296 2:1.4055348 3:2.2089916 4:-0.16299926 5:0.92817043 6:1.4931731 7:1.0931534 8:1.7107252 9:-0.5163063 10:1.4764129 11:2.9581947 12:-0.26218076 13:2.3261829 14:3.018152 15:0.72443042 16:1.3822657 17:1.5205394 18:-0.10971538 19:1.8116803 20:-0.057575327 21:1.7793935 22:-0.47404174 23:-0.41681713 24:3.6967147 
0.5 1:0.55191296 2:1.4055348 3:-0.45264539 4:-0.16299926 5:-1.0772697 6:-0.66964096 7:-0.91468391 8:-0.58448303 9:-0.5163063 10:-0.67724272 11:-0.33800678 12:-0.26218076 13:-0.42984145 14:-0.33129208 15:-1.3802428 16:-0.72337024 17:-0.65758891 18:-0.10971538 19:1.8116803 20:-0.057575327 21:-0.56192732 22:-0.47404174 23:-0.41681713 24:-0.27048066 
0.5 1:-1.8116803 2:-0.7113946 3:2.2089916 4:-0.16299926 5:-1.0772697 6:-0.66964096 7:-0.91468391 8:-0.58448303 9:-0.5163063 10:-0.67724272 11:-0.33800678 12:-0.26218076 13:-0.42984145 14:-0.33129208 15:-1.3802428 16:-0.72337024 17:-0.65758891 18:-0.10971538 19:-0.55191296 20:-0.057575327 21:-0.56192732 22:-0.47404174 23:-0.41681713 24:-0.27048066 
0.07560572086791018 1:0.55191296 2:-0.7113946 3:-0.45264539 4:-0.16299926 5:0.92817043 6:1.4931731 7:1.0931534 8:-0.58448303 9:1.9366214 10:1.4764129 11:-0.33800678 12:3.8137423 13:-0.42984145 14:3.018152 15:0.72443042 16:1.3822657 17:-0.65758891 18:-0.10971538 19:1.8116803 20:-0.057575327 21:-0.56192732 22:2.1092865 23:-0.41681713 24:-0.27048066 
0.07032318742964488 1:0.55191296 2:-0.7113946 3:-0.45264539 4:6.1343213 5:-1.0772697 6:-0.66964096 7:-0.91468391 8:-0.58448303 9:-0.5163063 10:-0.67724272 11:-0.33800678 12:-0.26218076 13:-0.42984145 14:-0.33129208 15:0.72443042 16:1.3822657 17:-0.65758891 18:-0.10971538 19:-0.55191296 20:-0.057575327 21:1.7793935 22:-0.47404174 23:-0.41681713 24:-0.27048066 
0.5 1:-1.8116803 2:1.4055348 3:2.2089916 4:-0.16299926 5:-1.0772697 6:-0.66964096 7:-0.91468391 8:-0.58448303 9:-0.5163063 10:-0.67724272 11:-0.33800678 12:-0.26218076 13:-0.42984145 14:-0.33129208 15:-1.3802428 16:-0.72337024 17:-0.65758891 18:-0.10971538 19:-0.55191296 20:-0.057575327 21:-0.56192732 22:-0.47404174 23:-0.41681713 24:-0.27048066 
0.07554661480925778 1:0.55191296 2:1.4055348 3:-0.45264539 4:6.1343213 5:0.92817043 6:1.4931731 7:1.0931534 8:1.7107252 9:-0.5163063 10:1.4764129 11:-0.33800678 12:-0.26218076 13:-0.42984145 14:3.018152 15:0.72443042 16:-0.72337024 17:1.5205394 18:-0.10971538 19:1.8116803 20:17.366638 21:-0.56192732 22:2.1092865 23:-0.41681713 24:3.6967147 
0.5 1:-1.8116803 2:-0.7113946 3:2.2089916 4:-0.16299926 5:-1.0772697 6:-0.66964096 7:-0.91468391 8:-0.58448303 9:-0.5163063 10:-0.67724272 11:-0.33800678 12:-0.26218076 13:-0.42984145 14:-0.33129208 15:-1.3802428 16:-0.72337024 17:-0.65758891 18:-0.10971538 19:-0.55191296 20:-0.057575327 21:-0.56192732 22:-0.47404174 23:-0.41681713 24:-0.27048066 
0.07110701779066506 1:0.55191296 2:1.4055348 3:-0.45264539 4:6.1343213 5:0.92817043 6:1.4931731 7:1.0931534 8:1.7107252 9:1.9366214 10:1.4764129 11:2.9581947 12:-0.26218076 13:-0.42984145 14:-0.33129208 15:0.72443042 16:1.3822657 17:1.5205394 18:-0.10971538 19:-0.55191296 20:-0.057575327 21:1.7793935 22:2.1092865 23:-0.41681713 24:-0.27048066 
0.5 1:0.55191296 2:-0.7113946 3:2.2089916 4:-0.16299926 5:-1.0772697 6:-0.66964096 7:-0.91468391 8:-0.58448303 9:-0.5163063 10:-0.67724272 11:-0.33800678 12:-0.26218076 13:-0.42984145 14:-0.33129208 15:-1.3802428 16:-0.72337024 17:-0.65758891 18:-0.10971538 19:1.8116803 20:-0.057575327 21:-0.56192732 22:-0.47404174 23:-0.41681713 24:-0.27048066 
0.05612964434495311 1:0.55191296 2:-0.7113946 3:-0.45264539 4:-0.16299926 5:0.92817043 6:-0.66964096 7:1.0931534 8:-0.58448303 9:1.9366214 10:1.4764129 11:-0.33800678 12:-0.26218076 13:2.3261829 14:-0.33129208 15:0.72443042 16:1.3822657 17:-0.65758891 18:-0.10971538 19:-0.55191296 20:-0.057575327 21:1.7793935 22:-0.47404174 23:2.3988694 24:-0.27048066 
0.5 1:0.55191296 2:-0.7113946 3:-0.45264539 4:-0.16299926 5:-1.0772697 6:-0.66964096 7:-0.91468391 8:-0.58448303 9:-0.5163063 10:-0.67724272 11:-0.33800678 12:-0.26218076 13:-0.42984145 14:-0.33129208 15:-1.3802428 16:-0.72337024 17:-0.65758891 18:-0.10971538 19:1.8116803 20:-0.057575327 21:-0.56192732 22:-0.47404174 23:-0.41681713 24:-0.27048066 
0.5 1:0.55191296 2:1.4055348 3:-0.45264539 4:-0.16299926 5:-1.0772697 6:-0.66964096 7:-0.91468391 8:-0.58448303 9:-0.5163063 10:-0.67724272 11:-0.33800678 12:-0.26218076 13:-0.42984145 14:-0.33129208 15:0.72443042 16:-0.72337024 17:1.5205394 18:-0.10971538 19:1.8116803 20:-0.057575327 21:-0.56192732 22:-0.47404174 23:-0.41681713 24:-0.27048066 
0.07141662308928708 1:0.55191296 2:1.4055348 3:2.2089916 4:-0.16299926 5:0.92817043 6:1.4931731 7:1.0931534 8:1.7107252 9:-0.5163063 10:1.4764129 11:-0.33800678 12:-0.26218076 13:-0.42984145 14:-0.33129208 15:0.72443042 16:-0.72337024 17:1.5205394 18:-0.10971538 19:-0.55191296 20:-0.057575327 21:-0.56192732 22:-0.47404174 23:-0.41681713 24:-0.27048066 
0.0752636629364194 1:0.55191296 2:-0.7113946 3:-0.45264539 4:-0.16299926 5:0.92817043 6:-0.66964096 7:1.0931534 8:-0.58448303 9:1.9366214 10:-0.67724272 11:-0.33800678 12:3.8137423 13:-0.42984145 14:-0.33129208 15:0.72443042 16:1.3822657 17:1.5205394 18:-0.10971538 19:1.8116803 20:-0.057575327 21:-0.56192732 22:2.1092865 23:-0.41681713 24:-0.27048066 
0.07055764328068309 1:0.55191296 2:1.4055348 3:2.2089916 4:-0.16299926 5:0.92817043 6:1.4931731 7:1.0931534 8:1.7107252 9:1.9366214 10:1.4764129 11:-0.33800678 12:-0.26218076 13:-0.42984145 14:-0.33129208 15:0.72443042 16:1.3822657 17:1.5205394 18:-0.10971538 19:-0.55191296 20:-0.057575327 21:1.7793935 22:2.1092865 23:2.3988694 24:3.6967147 
0.07818189646562985 1:0.55191296 2:1.4055348 3:-0.45264539 4:-0.16299926 5:0.92817043 6:-0.66964096 7:1.0931534 8:-0.58448303 9:1.9366214 10:1.4764129 11:-0.33800678 12:-0.26218076 13:-0.42984145 14:3.018152 15:0.72443042 16:-0.72337024 17:1.5205394 18:-0.10971538 19:1.8116803 20:-0.057575327 21:1.7793935 22:2.1092865 23:-0.41681713 24:-0.27048066 
0.1217003967168145 1:0.55191296 2:-0.7113946 3:2.2089916 4:-0.16299926 5:0.92817043 6:-0.66964096 7:1.0931534 8:1.7107252 9:-0.5163063 10:1.4764129 11:2.9581947 12:-0.26218076 13:-0.42984145 14:-0.33129208 15:0.72443042 16:-0.72337024 17:1.5205394 18:-0.10971538 19:-0.55191296 20:-0.057575327 21:-0.56192732 22:-0.47404174 23:-0.41681713 24:-0.27048066 
0.077529384989902 1:0.55191296 2:-0.7113946 3:-0.45264539 4:-0.16299926 5:0.92817043 6:1.4931731 7:1.0931534 8:1.7107252 9:1.9366214 10:1.4764129 11:2.9581947 12:-0.26218076 13:-0.42984145 14:3.018152 15:0.72443042 16:1.3822657 17:1.5205394 18:-0.10971538 19:-0.55191296 20:-0.057575327 21:1.7793935 22:-0.47404174 23:-0.41681713 24:-0.27048066 
0.07572720742973772 1:0.55191296 2:-0.7113946 3:-0.45264539 4:-0.16299926 5:0.92817043 6:1.4931731 7:1.0931534 8:1.7107252 9:1.9366214 10:1.4764129 11:-0.33800678 12:-0.26218076 13:2.3261829 14:3.018152 15:0.72443042 16:1.3822657 17:-0.65758891 18:-0.10971538 19:-0.55191296 20:-0.057575327 21:1.7793935 22:-0.47404174 23:-0.41681713 24:3.6967147 
0.03534537880406398 1:0.55191296 2:1.4055348 3:-0.45264539 4:-0.16299926 5:0.92817043 6:1.4931731 7:1.0931534 8:1.7107252 9:-0.5163063 10:1.4764129 11:-0.33800678 12:-0.26218076 13:-0.42984145 14:-0.33129208 15:0.72443042 16:1.3822657 17:1.5205394 18:-0.10971538 19:1.8116803 20:-0.057575327 21:1.7793935 22:-0.47404174 23:-0.41681713 24:-0.27048066 
0.07599303803788532 1:-1.8116803 2:1.4055348 3:-0.45264539 4:-0.16299926 5:0.92817043 6:1.4931731 7:1.0931534 8:1.7107252 9:-0.5163063 10:-0.67724272 11:2.9581947 12:-0.26218076 13:-0.42984145 14:-0.33129208 15:0.72443042 16:1.3822657 17:1.5205394 18:-0.10971538 19:-0.55191296 20:-0.057575327 21:1.7793935 22:2.1092865 23:-0.41681713 24:-0.27048066 
0.5 1:0.55191296 2:1.4055348 3:-0.45264539 4:-0.16299926 5:0.92817043 6:1.4931731 7:1.0931534 8:1.7107252 9:1.9366214 10:1.4764129 11:-0.33800678 12:-0.26218076 13:2.3261829 14:-0.33129208 15:0.72443042 16:1.3822657 17:1.5205394 18:-0.10971538 19:-0.55191296 20:-0.057575327 21:1.7793935 22:2.1092865 23:-0.41681713 24:-0.27048066 
0.0675448950192899 1:0.55191296 2:1.4055348 3:-0.45264539 4:-0.16299926 5:0.92817043 6:-0.66964096 7:1.0931534 8:1.7107252 9:-0.5163063 10:1.4764129 11:2.9581947 12:-0.26218076 13:2.3261829 14:-0.33129208 15:0.72443042 16:1.3822657 17:1.5205394 18:-0.10971538 19:-0.55191296 20:-0.057575327 21:-0.56192732 22:2.1092865 23:-0.41681713 24:-0.27048066 
0.5 1:0.55191296 2:1.4055348 3:-0.45264539 4:-0.16299926 5:-1.0772697 6:-0.66964096 7:-0.91468391 8:-0.58448303 9:-0.5163063 10:-0.67724272 11:-0.33800678 12:-0.26218076 13:-0.42984145 14:-0.33129208 15:0.72443042 16:1.3822657 17:-0.65758891 18:-0.10971538 19:-0.55191296 20:-0.057575327 21:1.7793935 22:-0.47404174 23:-0.41681713 24:-0.27048066 
0.04205442674093385 1:0.55191296 2:-0.7113946 3:-0.45264539 4:-0.16299926 5:0.92817043 6:1.4931731 7:1.0931534 8:1.7107252 9:1.9366214 10:1.4764129 11:-0.33800678 12:-0.26218076 13:-0.42984145 14:-0.33129208 15:0.72443042 16:1.3822657 17:1.5205394 18:-0.10971538 19:-0.55191296 20:-0.057575327 21:-0.56192732 22:-0.47404174 23:-0.41681713 24:-0.27048066 
0.07096004592917034 1:0.55191296 2:-0.7113946 3:2.2089916 4:-0.16299926 5:0.92817043 6:1.4931731 7:1.0931534 8:-0.58448303 9:1.9366214 10:1.4764129 11:-0.33800678 12:-0.26218076 13:2.3261829 14:-0.33129208 15:0.72443042 16:1.3822657 17:-0.65758891 18:-0.10971538 19:-0.55191296 20:-0.057575327 21:1.7793935 22:-0.47404174 23:-0.41681713 24:3.6967147 
0.1698968764060235 1:0.55191296 2:-0.7113946 3:-0.45264539 4:-0.16299926 5:0.92817043 6:1.4931731 7:1.0931534 8:1.7107252 9:1.9366214 10:1.4764129 11:-0.33800678 12:3.8137423 13:-0.42984145 14:-0.33129208 15:0.72443042 16:1.3822657 17:1.5205394 18:-0.10971538 19:-0.55191296 20:-0.057575327 21:1.7793935 22:2.1092865 23:2.3988694 24:-0.27048066 
0.05856847134367665 1:0.55191296 2:1.4055348 3:-0.45264539 4:-0.16299926 5:0.92817043 6:1.4931731 7:-0.91468391 8:-0.58448303 9:-0.5163063 10:-0.67724272 11:-0.33800678 12:-0.26218076 13:-0.42984145 14:-0.33129208 15:0.72443042 16:-0.72337024 17:1.5205394 18:-0.10971538 19:1.8116803 20:-0.057575327 21:1.7793935 22:2.1092865 23:-0.41681713 24:3.6967147 
0.04402999843516004 1:0.55191296 2:1.4055348 3:-0.45264539 4:-0.16299926 5:0.92817043 6:1.4931731 7:1.0931534 8:-0.58448303 9:1.9366214 10:1.4764129 11:-0.33800678 12:-0.26218076 13:-0.42984145 14:3.018152 15:0.72443042 16:1.3822657 17:1.5205394 18:-0.10971538 19:1.8116803 20:-0.057575327 21:1.7793935 22:2.1092865 23:2.3988694 24:-0.27048066 
0.07410352978950824 1:0.55191296 2:-0.7113946 3:-0.45264539 4:-0.16299926 5:0.92817043 6:1.4931731 7:-0.91468391 8:-0.58448303 9:-0.5163063 10:-0.67724272 11:-0.33800678 12:-0.26218076 13:-0.42984145 14:-0.33129208 15:0.72443042 16:-0.72337024 17:-0.65758891 18:9.1134881 19:-0.55191296 20:-0.057575327 21:-0.56192732 22:-0.47404174 23:2.3988694 24:-0.27048066 
0.07322462779108879 1:0.55191296 2:1.4055348 3:-0.45264539 4:-0.16299926 5:0.92817043 6:1.4931731 7:1.0931534 8:-0.58448303 9:1.9366214 10:1.4764129 11:-0.33800678 12:-0.26218076 13:-0.42984145 14:-0.33129208 15:0.72443042 16:1.3822657 17:-0.65758891 18:-0.10971538 19:1.8116803 20:-0.057575327 21:1.7793935 22:2.1092865 23:-0.41681713 24:3.6967147 
0.07612866942271412 1:0.55191296 2:1.4055348 3:-0.45264539 4:-0.16299926 5:0.92817043 6:-0.66964096 7:1.0931534 8:1.7107252 9:1.9366214 10:1.4764129 11:-0.33800678 12:-0.26218076 13:-0.42984145 14:-0.33129208 15:0.72443042 16:1.3822657 17:-0.65758891 18:-0.10971538 19:-0.55191296 20:-0.057575327 21:1.7793935 22:2.1092865 23:-0.41681713 24:-0.27048066 
0.06016929247349323 1:0.55191296 2:-0.7113946 3:2.2089916 4:-0.16299926 5:0.92817043 6:1.4931731 7:1.0931534 8:1.7107252 9:1.9366214 10:1.4764129 11:-0.33800678 12:-0.26218076 13:-0.42984145 14:-0.33129208 15:0.72443042 16:1.3822657 17:1.5205394 18:-0.10971538 19:-0.55191296 20:-0.057575327 21:1.7793935 22:2.1092865 23:2.3988694 24:-0.27048066 
0.04249822399373687 1:0.55191296 2:-0.7113946 3:-0.45264539 4:-0.16299926 5:0.92817043 6:1.4931731 7:1.0931534 8:-0.58448303 9:1.9366214 10:1.4764129 11:-0.33800678 12:-0.26218076 13:-0.42984145 14:-0.33129208 15:0.72443042 16:1.3822657 17:1.5205394 18:-0.10971538 19:-0.55191296 20:-0.057575327 21:1.7793935 22:-0.47404174 23:2.3988694 24:-0.27048066 
0.06635061349092719 1:0.55191296 2:1.4055348 3:-0.45264539 4:-0.16299926 5:0.92817043 6:1.4931731 7:1.0931534 8:1.7107252 9:1.9366214 10:1.4764129 11:-0.33800678 12:-0.26218076 13:-0.42984145 14:3.018152 15:0.72443042 16:-0.72337024 17:1.5205394 18:-0.10971538 19:-0.55191296 20:-0.057575327 21:1.7793935 22:2.1092865 23:2.3988694 24:-0.27048066 
0.07240971245022616 1:0.55191296 2:1.4055348 3:-0.45264539 4:-0.16299926 5:0.92817043 6:1.4931731 7:1.0931534 8:1.7107252 9:1.9366214 10:1.4764129 11:2.9581947 12:-0.26218076 13:-0.42984145 14:-0.33129208 15:0.72443042 16:-0.72337024 17:-0.65758891 18:-0.10971538 19:1.8116803 20:-0.057575327 21:-0.56192732 22:-0.47404174 23:-0.41681713 24:-0.27048066 
0.07016732143579585 1:0.55191296 2:-0.7113946 3:-0.45264539 4:-0.16299926 5:0.92817043 6:-0.66964096 7:1.0931534 8:-0.58448303 9:1.9366214 10:1.4764129 11:-0.33800678 12:3.8137423 13:-0.42984145 14:-0.33129208 15:0.72443042 16:1.3822657 17:1.5205394 18:-0.10971538 19:-0.55191296 20:-0.057575327 21:1.7793935 22:2.1092865 23:2.3988694 24:-0.27048066 
0.5 1:0.55191296 2:-0.7113946 3:-0.45264539 4:-0.16299926 5:0.92817043 6:1.4931731 7:1.0931534 8:1.7107252 9:-0.5163063 10:1.4764129 11:-0.33800678 12:-0.26218076 13:-0.42984145 14:3.018152 15:0.72443042 16:1.3822657 17:1.5205394 18:-0.10971538 19:-0.55191296 20:-0.057575327 21:1.7793935 22:2.1092865 23:-0.41681713 24:-0.27048066 
0.5 1:0.55191296 2:1.4055348 3:-0.45264539 4:-0.16299926 5:-1.0772697 6:-0.66964096 7:-0.91468391 8:-0.58448303 9:-0.5163063 10:-0.67724272 11:-0.33800678 12:-0.26218076 13:-0.42984145 14:-0.33129208 15:-1.3802428 16:-0.72337024 17:-0.65758891 18:-0.10971538 19:1.8116803 20:-0.057575327 21:-0.56192732 22:-0.47404174 23:-0.41681713 24:-0.27048066 
0.09570328822107139 1:0.55191296 2:1.4055348 3:2.2089916 4:-0.16299926 5:0.92817043 6:-0.66964096 7:1.0931534 8:1.7107252 9:1.9366214 10:1.4764129 11:-0.33800678 12:-0.26218076 13:-0.42984145 14:-0.33129208 15:0.72443042 16:1.3822657 17:1.5205394 18:-0.10971538 19:-0.55191296 20:-0.057575327 21:-0.56192732 22:-0.47404174 23:-0.41681713 24:-0.27048066 
0.08277792646868608 1:-1.8116803 2:-0.7113946 3:2.2089916 4:-0.16299926 5:0.92817043 6:1.4931731 7:1.0931534 8:1.7107252 9:1.9366214 10:-0.67724272 11:2.9581947 12:3.8137423 13:-0.42984145 14:-0.33129208 15:0.72443042 16:-0.72337024 17:-0.65758891 18:-0.10971538 19:-0.55191296 20:-0.057575327 21:-0.56192732 22:-0.47404174 23:-0.41681713 24:-0.27048066 
0.5 1:-1.8116803 2:-0.7113946 3:2.2089916 4:-0.16299926 5:-1.0772697 6:-0.66964096 7:-0.91468391 8:-0.58448303 9:-0.5163063 10:-0.67724272 11:-0.33800678 12:-0.26218076 13:-0.42984145 14:-0.33129208 15:-1.3802428 16:-0.72337024 17:-0.65758891 18:-0.10971538 19:-0.55191296 20:-0.057575327 21:-0.56192732 22:-0.47404174 23:-0.41681713 24:-0.27048066 
0.1488422074987556 1:0.55191296 2:-0.7113946 3:-0.45264539 4:-0.16299926 5:0.92817043 6:1.4931731 7:1.0931534 8:-0.58448303 9:1.9366214 10:1.4764129 11:-0.33800678 12:-0.26218076 13:-0.42984145 14:-0.33129208 15:0.72443042 16:1.3822657 17:-0.65758891 18:-0.10971538 19:-0.55191296 20:-0.057575327 21:1.7793935 22:2.1092865 23:-0.41681713 24:-0.27048066 
0.5 1:0.55191296 2:-0.7113946 3:-0.45264539 4:-0.16299926 5:-1.0772697 6:-0.66964096 7:-0.91468391 8:-0.58448303 9:-0.5163063 10:-0.67724272 11:-0.33800678 12:-0.26218076 13:-0.42984145 14:-0.33129208 15:0.72443042 16:1.3822657 17:1.5205394 18:-0.10971538 19:-0.55191296 20:-0.057575327 21:1.7793935 22:2.1092865 23:2.3988694 24:-0.27048066 
0.06826829602618324 1:0.55191296 2:-0.7113946 3:2.2089916 4:-0.16299926 5:0.92817043 6:1.4931731 7:1.0931534 8:1.7107252 9:-0.5163063 10:1.4764129 11:2.9581947 12:-0.26218076 13:-0.42984145 14:-0.33129208 15:0.72443042 16:1.3822657 17:-0.65758891 18:-0.10971538 19:-0.55191296 20:-0.057575327 21:1.7793935 22:2.1092865 23:-0.41681713 24:-0.27048066 
0.0492195773926902 1:0.55191296 2:1.4055348 3:-0.45264539 4:-0.16299926 5:0.92817043 6:1.4931731 7:1.0931534 8:-0.58448303 9:1.9366214 10:1.4764129 11:-0.33800678 12:-0.26218076 13:-0.42984145 14:-0.33129208 15:0.72443042 16:-0.72337024 17:1.5205394 18:-0.10971538 19:-0.55191296 20:-0.057575327 21:1.7793935 22:-0.47404174 23:-0.41681713 24:-0.27048066 
0.06656810476384567 1:0.55191296 2:1.4055348 3:-0.45264539 4:-0.16299926 5:0.92817043 6:-0.66964096 7:1.0931534 8:-0.58448303 9:1.9366214 10:1.4764129 11:-0.33800678 12:-0.26218076 13:-0.42984145 14:3.018152 15:0.72443042 16:-0.72337024 17:1.5205394 18:-0.10971538 19:-0.55191296 20:-0.057575327 21:1.7793935 22:2.1092865 23:2.3988694 24:-0.27048066 
0.07231923999788975 1:-1.8116803 2:-0.7113946 3:-0.45264539 4:-0.16299926 5:0.92817043 6:-0.66964096 7:1.0931534 8:-0.58448303 9:-0.5163063 10:-0.67724272 11:-0.33800678 12:-0.26218076 13:2.3261829 14:-0.33129208 15:0.72443042 16:1.3822657 17:1.5205394 18:-0.10971538 19:1.8116803 20:-0.057575327 21:-0.56192732 22:2.1092865 23:-0.41681713 24:-0.27048066 
0.06822961317238352 1:0.55191296 2:1.4055348 3:-0.45264539 4:-0.16299926 5:0.92817043 6:1.4931731 7:1.0931534 8:1.7107252 9:1.9366214 10:1.4764129 11:-0.33800678 12:-0.26218076 13:2.3261829 14:-0.33129208 15:0.72443042 16:1.3822657 17:1.5205394 18:-0.10971538 19:1.8116803 20:-0.057575327 21:1.7793935 22:2.1092865 23:-0.41681713 24:-0.27048066 
0.05794287696201633 1:0.55191296 2:1.4055348 3:-0.45264539 4:6.1343213 5:0.92817043 6:1.4931731 7:-0.91468391 8:-0.58448303 9:-0.5163063 10:-0.67724272 11:-0.33800678 12:-0.26218076 13:-0.42984145 14:-0.33129208 15:0.72443042 16:1.3822657 17:-0.65758891 18:-0.10971538 19:1.8116803 20:-0.057575327 21:-0.56192732 22:-0.47404174 23:-0.41681713 24:-0.27048066 
0.05623778648826839 1:0.55191296 2:1.4055348 3:-0.45264539 4:-0.16299926 5:0.92817043 6:1.4931731 7:1.0931534 8:1.7107252 9:1.9366214 10:1.4764129 11:-0.33800678 12:-0.26218076 13:-0.42984145 14:-0.33129208 15:0.72443042 16:1.3822657 17:-0.65758891 18:-0.10971538 19:-0.55191296 20:-0.057575327 21:-0.56192732 22:-0.47404174 23:2.3988694 24:-0.27048066 
0.06085326301510445 1:0.55191296 2:-0.7113946 3:-0.45264539 4:-0.16299926 5:0.92817043 6:1.4931731 7:1.0931534 8:1.7107252 9:1.9366214 10:1.4764129 11:-0.33800678 12:-0.26218076 13:-0.42984145 14:-0.33129208 15:0.72443042 16:-0.72337024 17:1.5205394 18:-0.10971538 19:-0.55191296 20:-0.057575327 21:-0.56192732 22:-0.47404174 23:2.3988694 24:-0.27048066 
0.5 1:-1.8116803 2:-0.7113946 3:2.2089916 4:-0.16299926 5:0.92817043 6:1.4931731 7:-0.91468391 8:-0.58448303 9:-0.5163063 10:-0.67724272 11:-0.33800678 12:-0.26218076 13:-0.42984145 14:-0.33129208 15:0.72443042 16:-0.72337024 17:1.5205394 18:-0.10971538 19:-0.55191296 20:-0.057575327 21:-0.56192732 22:-0.47404174 23:-0.41681713 24:-0.27048066 
0.0751217105595922 1:0.55191296 2:1.4055348 3:-0.45264539 4:-0.16299926 5:0.92817043 6:1.4931731 7:1.0931534 8:-0.58448303 9:1.9366214 10:1.4764129 11:-0.33800678 12:-0.26218076 13:2.3261829 14:3.018152 15:0.72443042 16:1.3822657 17:1.5205394 18:-0.10971538 19:1.8116803 20:-0.057575327 21:1.7793935 22:2.1092865 23:2.3988694 24:3.6967147 
0.06214333456197574 1:0.55191296 2:-0.7113946 3:-0.45264539 4:-0.16299926 5:-1.0772697 6:-0.66964096 7:-0.91468391 8:-0.58448303 9:-0.5163063 10:-0.67724272 11:-0.33800678 12:-0.26218076 13:-0.42984145 14:-0.33129208 15:0.72443042 16:1.3822657 17:-0.65758891 18:-0.10971538 19:-0.55191296 20:-0.057575327 21:1.7793935 22:-0.47404174 23:-0.41681713 24:3.6967147 
0.06289449566818098 1:0.55191296 2:1.4055348 3:-0.45264539 4:-0.16299926 5:0.92817043 6:1.4931731 7:1.0931534 8:-0.58448303 9:1.9366214 10:1.4764129 11:-0.33800678 12:3.8137423 13:2.3261829 14:-0.33129208 15:0.72443042 16:1.3822657 17:1.5205394 18:-0.10971538 19:-0.55191296 20:-0.057575327 21:1.7793935 22:2.1092865 23:2.3988694 24:-0.27048066 
0.5 1:-1.8116803 2:-0.7113946 3:2.2089916 4:-0.16299926 5:-1.0772697 6:-0.66964096 7:-0.91468391 8:-0.58448303 9:-0.5163063 10:-0.67724272 11:-0.33800678 12:-0.26218076 13:-0.42984145 14:-0.33129208 15:-1.3802428 16:-0.72337024 17:-0.65758891 18:-0.10971538 19:-0.55191296 20:-0.057575327 21:-0.56192732 22:-0.47404174 23:-0.41681713 24:-0.27048066 
0.06721724816498749 1:0.55191296 2:1.4055348 3:-0.45264539 4:-0.16299926 5:0.92817043 6:1.4931731 7:1.0931534 8:-0.58448303 9:1.9366214 10:1.4764129 11:-0.33800678 12:-0.26218076 13:2.3261829 14:-0.33129208 15:0.72443042 16:1.3822657 17:1.5205394 18:-0.10971538 19:1.8116803 20:-0.057575327 21:-0.56192732 22:2.1092865 23:-0.41681713 24:-0.27048066 
0.07548562228351963 1:0.55191296 2:-0.7113946 3:2.2089916 4:-0.16299926 5:0.92817043 6:1.4931731 7:1.0931534 8:1.7107252 9:1.9366214 10:1.4764129 11:2.9581947 12:3.8137423 13:2.3261829 14:-0.33129208 15:0.72443042 16:1.3822657 17:1.5205394 18:-0.10971538 19:-0.55191296 20:-0.057575327 21:1.7793935 22:-0.47404174 23:2.3988694 24:-0.27048066 
0.1379747398688018 1:0.55191296 2:-0.7113946 3:-0.45264539 4:-0.16299926 5:0.92817043 6:1.4931731 7:1.0931534 8:-0.58448303 9:1.9366214 10:1.4764129 11:-0.33800678 12:3.8137423 13:-0.42984145 14:-0.33129208 15:0.72443042 16:-0.72337024 17:1.5205394 18:-0.10971538 19:-0.55191296 20:-0.057575327 21:1.7793935 22:2.1092865 23:2.3988694 24:-0.27048066 
0.04404031543799761 1:0.55191296 2:1.4055348 3:-0.45264539 4:-0.16299926 5:0.92817043 6:-0.66964096 7:1.0931534 8:-0.58448303 9:1.9366214 10:1.4764129 11:-0.33800678 12:-0.26218076 13:-0.42984145 14:-0.33129208 15:0.72443042 16:-0.72337024 17:-0.65758891 18:-0.10971538 19:1.8116803 20:-0.057575327 21:-0.56192732 22:-0.47404174 23:2.3988694 24:-0.27048066 
0.5 1:0.55191296 2:1.4055348 3:-0.45264539 4:-0.16299926 5:0.92817043 6:1.4931731 7:1.0931534 8:-0.58448303 9:-0.5163063 10:-0.67724272 11:-0.33800678 12:-0.26218076 13:2.3261829 14:-0.33129208 15:0.72443042 16:1.3822657 17:1.5205394 18:-0.10971538 19:-0.55191296 20:-0.057575327 21:-0.56192732 22:-0.47404174 23:-0.41681713 24:-0.27048066 
0.07057346082436637 1:0.55191296 2:1.4055348 3:-0.45264539 4:-0.16299926 5:0.92817043 6:1.4931731 7:1.0931534 8:-0.58448303 9:1.9366214 10:1.4764129 11:-0.33800678 12:3.8137423 13:-0.42984145 14:-0.33129208 15:0.72443042 16:1.3822657 17:1.5205394 18:-0.10971538 19:-0.55191296 20:-0.057575327 21:1.7793935 22:-0.47404174 23:2.3988694 24:-0.27048066 
0.05161877981492036 1:-1.8116803 2:-0.7113946 3:-0.45264539 4:-0.16299926 5:0.92817043 6:-0.66964096 7:1.0931534 8:-0.58448303 9:-0.5163063 10:-0.67724272 11:-0.33800678 12:-0.26218076 13:2.3261829 14:-0.33129208 15:0.72443042 16:1.3822657 17:1.5205394 18:-0.10971538 19:-0.55191296 20:-0.057575327 21:-0.56192732 22:2.1092865 23:-0.41681713 24:-0.27048066 
0.07104015463310148 1:0.55191296 2:-0.7113946 3:-0.45264539 4:6.1343213 5:-1.0772697 6:-0.66964096 7:-0.91468391 8:-0.58448303 9:-0.5163063 10:-0.67724272 11:-0.33800678 12:-0.26218076 13:-0.42984145 14:-0.33129208 15:-1.3802428 16:-0.72337024 17:-0.65758891 18:-0.10971538 19:-0.55191296 20:-0.057575327 21:-0.56192732 22:-0.47404174 23:-0.41681713 24:3.6967147 
0.07539517194443146 1:0.55191296 2:-0.7113946 3:-0.45264539 4:-0.16299926 5:0.92817043 6:1.4931731 7:1.0931534 8:1.7107252 9:1.9366214 10:1.4764129 11:-0.33800678 12:-0.26218076 13:-0.42984145 14:3.018152 15:0.72443042 16:1.3822657 17:1.5205394 18:-0.10971538 19:1.8116803 20:-0.057575327 21:-0.56192732 22:2.1092865 23:-0.41681713 24:3.6967147 
0.06333803329865006 1:0.55191296 2:-0.7113946 3:-0.45264539 4:-0.16299926 5:0.92817043 6:1.4931731 7:1.0931534 8:1.7107252 9:-0.5163063 10:-0.67724272 11:2.9581947 12:-0.26218076 13:-0.42984145 14:-0.33129208 15:0.72443042 16:1.3822657 17:1.5205394 18:-0.10971538 19:-0.55191296 20:-0.057575327 21:-0.56192732 22:2.1092865 23:2.3988694 24:-0.27048066 
0.06499099704217551 1:-1.8116803 2:1.4055348 3:-0.45264539 4:6.1343213 5:0.92817043 6:1.4931731 7:1.0931534 8:1.7107252 9:1.9366214 10:1.4764129 11:-0.33800678 12:-0.26218076 13:-0.42984145 14:-0.33129208 15:0.72443042 16:-0.72337024 17:-0.65758891 18:-0.10971538 19:-0.55191296 20:-0.057575327 21:-0.56192732 22:-0.47404174 23:-0.41681713 24:-0.27048066 
0.06148589922309205 1:0.55191296 2:1.4055348 3:-0.45264539 4:-0.16299926 5:0.92817043 6:1.4931731 7:1.0931534 8:1.7107252 9:1.9366214 10:1.4764129 11:-0.33800678 12:-0.26218076 13:2.3261829 14:-0.33129208 15:0.72443042 16:1.3822657 17:1.5205394 18:-0.10971538 19:-0.55191296 20:-0.057575327 21:-0.56192732 22:2.1092865 23:2.3988694 24:3.6967147 
0.08240082308386922 1:0.55191296 2:1.4055348 3:-0.45264539 4:-0.16299926 5:0.92817043 6:1.4931731 7:1.0931534 8:1.7107252 9:-0.5163063 10:1.4764129 11:-0.33800678 12:-0.26218076 13:2.3261829 14:-0.33129208 15:0.72443042 16:1.3822657 17:1.5205394 18:-0.10971538 19:1.8116803 20:-0.057575327 21:1.7793935 22:2.1092865 23:-0.41681713 24:3.6967147 
0.0761692661272528 1:-1.8116803 2:-0.7113946 3:-0.45264539 4:-0.16299926 5:0.92817043 6:-0.66964096 7:1.0931534 8:-0.58448303 9:1.9366214 10:1.4764129 11:-0.33800678 12:3.8137423 13:-0.42984145 14:-0.33129208 15:0.72443042 16:1.3822657 17:-0.65758891 18:-0.10971538 19:-0.55191296 20:-0.057575327 21:-0.56192732 22:-0.47404174 23:-0.41681713 24:-0.27048066 
0.05100611248453646 1:0.55191296 2:-0.7113946 3:2.2089916 4:-0.16299926 5:0.92817043 6:1.4931731 7:1.0931534 8:-0.58448303 9:1.9366214 10:1.4764129 11:-0.33800678 12:-0.26218076 13:2.3261829 14:-0.33129208 15:0.72443042 16:1.3822657 17:-0.65758891 18:-0.10971538 19:-0.55191296 20:-0.057575327 21:-0.56192732 22:-0.47404174 23:2.3988694 24:-0.27048066 
0.5 1:0.55191296 2:-0.7113946 3:-0.45264539 4:-0.16299926 5:0.92817043 6:1.4931731 7:1.0931534 8:1.7107252 9:1.9366214 10:1.4764129 11:-0.33800678 12:-0.26218076 13:2.3261829 14:-0.33129208 15:0.72443042 16:1.3822657 17:-0.65758891 18:-0.10971538 19:-0.55191296 20:-0.057575327 21:1.7793935 22:2.1092865 23:-0.41681713 24:-0.27048066 
0.07471018155410893 1:0.55191296 2:-0.7113946 3:-0.45264539 4:-0.16299926 5:0.92817043 6:1.4931731 7:1.0931534 8:1.7107252 9:1.9366214 10:1.4764129 11:-0.33800678 12:-0.26218076 13:-0.42984145 14:3.018152 15:0.72443042 16:-0.72337024 17:-0.65758891 18:-0.10971538 19:-0.55191296 20:-0.057575327 21:1.7793935 22:2.1092865 23:-0.41681713 24:-0.27048066 
0.102028477427319 1:0.55191296 2:1.4055348 3:-0.45264539 4:-0.16299926 5:0.92817043 6:1.4931731 7:1.0931534 8:-0.58448303 9:-0.5163063 10:-0.67724272 11:-0.33800678 12:-0.26218076 13:2.3261829 14:-0.33129208 15:0.72443042 16:-0.72337024 17:1.5205394 18:-0.10971538 19:1.8116803 20:-0.057575327 21:-0.56192732 22:2.1092865 23:-0.41681713 24:-0.27048066 
0.06576863436338568 1:0.55191296 2:1.4055348 3:-0.45264539 4:-0.16299926 5:0.92817043 6:-0.66964096 7:1.0931534 8:1.7107252 9:-0.5163063 10:-0.67724272 11:2.9581947 12:-0.26218076 13:-0.42984145 14:-0.33129208 15:0.72443042 16:1.3822657 17:-0.65758891 18:-0.10971538 19:1.8116803 20:-0.057575327 21:-0.56192732 22:-0.47404174 23:2.3988694 24:-0.27048066 
0.06745936150110146 1:0.55191296 2:1.4055348 3:-0.45264539 4:-0.16299926 5:0.92817043 6:1.4931731 7:1.0931534 8:1.7107252 9:-0.5163063 10:-0.67724272 11:2.9581947 12:-0.26218076 13:2.3261829 14:-0.33129208 15:0.72443042 16:1.3822657 17:1.5205394 18:-0.10971538 19:1.8116803 20:-0.057575327 21:-0.56192732 22:-0.47404174 23:2.3988694 24:-0.27048066 
0.1141382202090216 1:0.55191296 2:-0.7113946 3:-0.45264539 4:-0.16299926 5:0.92817043 6:1.4931731 7:1.0931534 8:-0.58448303 9:1.9366214 10:1.4764129 11:-0.33800678 12:-0.26218076 13:-0.42984145 14:3.018152 15:0.72443042 16:1.3822657 17:1.5205394 18:-0.10971538 19:-0.55191296 20:-0.057575327 21:1.7793935 22:2.1092865 23:2.3988694 24:-0.27048066 
0.0716775093331036 1:0.55191296 2:-0.7113946 3:-0.45264539 4:-0.16299926 5:0.92817043 6:-0.66964096 7:1.0931534 8:-0.58448303 9:1.9366214 10:-0.67724272 11:-0.33800678 12:3.8137423 13:2.3261829 14:-0.33129208 15:0.72443042 16:-0.72337024 17:-0.65758891 18:-0.10971538 19:1.8116803 20:-0.057575327 21:-0.56192732 22:-0.47404174 23:-0.41681713 24:3.6967147 
0.0753102515526691 1:0.55191296 2:-0.7113946 3:-0.45264539 4:6.1343213 5:-1.0772697 6:-0.66964096 7:-0.91468391 8:-0.58448303 9:-0.5163063 10:-0.67724272 11:-0.33800678 12:-0.26218076 13:-0.42984145 14:3.018152 15:0.72443042 16:-0.72337024 17:1.5205394 18:-0.10971538 19:-0.55191296 20:-0.057575327 21:-0.56192732 22:2.1092865 23:-0.41681713 24:-0.27048066 
0.06877282146937816 1:0.55191296 2:1.4055348 3:-0.45264539 4:-0.16299926 5:0.92817043 6:1.4931731 7:1.0931534 8:1.7107252 9:1.9366214 10:1.4764129 11:2.9581947 12:-0.26218076 13:-0.42984145 14:-0.33129208 15:0.72443042 16:1.3822657 17:1.5205394 18:-0.10971538 19:1.8116803 20:-0.057575327 21:-0.56192732 22:2.1092865 23:-0.41681713 24:-0.27048066 
0.06604317189299835 1:0.55191296 2:1.4055348 3:-0.45264539 4:-0.16299926 5:0.92817043 6:1.4931731 7:1.0931534 8:-0.58448303 9:1.9366214 10:1.4764129 11:-0.33800678 12:-0.26218076 13:-0.42984145 14:-0.33129208 15:0.72443042 16:1.3822657 17:1.5205394 18:-0.10971538 19:1.8116803 20:-0.057575327 21:-0.56192732 22:-0.47404174 23:-0.41681713 24:3.6967147 
0.06414782881634803 1:0.55191296 2:-0.7113946 3:2.2089916 4:-0.16299926 5:0.92817043 6:1.4931731 7:1.0931534 8:-0.58448303 9:1.9366214 10:1.4764129 11:-0.33800678 12:-0.26218076 13:2.3261829 14:-0.33129208 15:0.72443042 16:1.3822657 17:1.5205394 18:-0.10971538 19:-0.55191296 20:-0.057575327 21:-0.56192732 22:-0.47404174 23:-0.41681713 24:-0.27048066 
0.5 1:-1.8116803 2:-0.7113946 3:2.2089916 4:-0.16299926 5:-1.0772697 6:-0.66964096 7:-0.91468391 8:-0.58448303 9:-0.5163063 10:-0.67724272 11:-0.33800678 12:-0.26218076 13:-0.42984145 14:-0.33129208 15:-1.3802428 16:-0.72337024 17:-0.65758891 18:-0.10971538 19:-0.55191296 20:-0.057575327 21:-0.56192732 22:-0.47404174 23:-0.41681713 24:-0.27048066 
0.5 1:0.55191296 2:-0.7113946 3:-0.45264539 4:-0.16299926 5:-1.0772697 6:-0.66964096 7:-0.91468391 8:-0.58448303 9:-0.5163063 10:-0.67724272 11:-0.33800678 12:-0.26218076 13:-0.42984145 14:-0.33129208 15:0.72443042 16:1.3822657 17:-0.65758891 18:-0.10971538 19:-0.55191296 20:-0.057575327 21:1.7793935 22:-0.47404174 23:-0.41681713 24:-0.27048066 
0.06211600385477061 1:0.55191296 2:-0.7113946 3:2.2089916 4:-0.16299926 5:0.92817043 6:-0.66964096 7:1.0931534 8:-0.58448303 9:1.9366214 10:1.4764129 11:-0.33800678 12:-0.26218076 13:2.3261829 14:-0.33129208 15:0.72443042 16:1.3822657 17:-0.65758891 18:-0.10971538 19:-0.55191296 20:-0.057575327 21:-0.56192732 22:-0.47404174 23:2.3988694 24:-0.27048066 
0.06913744900514202 1:0.55191296 2:-0.7113946 3:-0.45264539 4:-0.16299926 5:0.92817043 6:-0.66964096 7:1.0931534 8:-0.58448303 9:1.9366214 10:1.4764129 11:-0.33800678 12:-0.26218076 13:-0.42984145 14:-0.33129208 15:0.72443042 16:1.3822657 17:-0.65758891 18:-0.10971538 19:1.8116803 20:-0.057575327 21:-0.56192732 22:-0.47404174 23:-0.41681713 24:-0.27048066 
0.5 1:0.55191296 2:1.4055348 3:-0.45264539 4:-0.16299926 5:-1.0772697 6:-0.66964096 7:-0.91468391 8:-0.58448303 9:-0.5163063 10:-0.67724272 11:-0.33800678 12:-0.26218076 13:-0.42984145 14:-0.33129208 15:0.72443042 16:-0.72337024 17:1.5205394 18:-0.10971538 19:1.8116803 20:-0.057575327 21:-0.56192732 22:-0.47404174 23:-0.41681713 24:-0.27048066 
0.06705431412299086 1:0.55191296 2:1.4055348 3:-0.45264539 4:-0.16299926 5:0.92817043 6:1.4931731 7:1.0931534 8:1.7107252 9:1.9366214 10:1.4764129 11:2.9581947 12:-0.26218076 13:-0.42984145 14:-0.33129208 15:0.72443042 16:1.3822657 17:1.5205394 18:-0.10971538 19:-0.55191296 20:-0.057575327 21:-0.56192732 22:-0.47404174 23:-0.41681713 24:-0.27048066 
0.07126115606954209 1:-1.8116803 2:1.4055348 3:-0.45264539 4:-0.16299926 5:0.92817043 6:1.4931731 7:1.0931534 8:1.7107252 9:-0.5163063 10:1.4764129 11:-0.33800678 12:-0.26218076 13:-0.42984145 14:3.018152 15:0.72443042 16:1.3822657 17:1.5205394 18:-0.10971538 19:1.8116803 20:-0.057575327 21:1.7793935 22:-0.47404174 23:-0.41681713 24:-0.27048066 
0.5 1:0.55191296 2:-0.7113946 3:-0.45264539 4:-0.16299926 5:-1.0772697 6:-0.66964096 7:-0.91468391 8:-0.58448303 9:-0.5163063 10:-0.67724272 11:-0.33800678 12:-0.26218076 13:-0.42984145 14:-0.33129208 15:-1.3802428 16:-0.72337024 17:-0.65758891 18:-0.10971538 19:1.8116803 20:-0.057575327 21:-0.56192732 22:-0.47404174 23:-0.41681713 24:-0.27048066 
0.07121317411637103 1:0.55191296 2:1.4055348 3:-0.45264539 4:-0.16299926 5:0.92817043 6:1.4931731 7:1.0931534 8:1.7107252 9:-0.5163063 10:-0.67724272 11:2.9581947 12:-0.26218076 13:2.3261829 14:-0.33129208 15:0.72443042 16:1.3822657 17:1.5205394 18:-0.10971538 19:1.8116803 20:-0.057575327 21:1.7793935 22:-0.47404174 23:-0.41681713 24:3.6967147 
0.07176287167391673 1:0.55191296 2:1.4055348 3:-0.45264539 4:-0.16299926 5:0.92817043 6:-0.66964096 7:1.0931534 8:-0.58448303 9:1.9366214 10:1.4764129 11:-0.33800678 12:3.8137423 13:2.3261829 14:-0.33129208 15:0.72443042 16:1.3822657 17:1.5205394 18:-0.10971538 19:1.8116803 20:-0.057575327 21:1.7793935 22:2.1092865 23:-0.41681713 24:-0.27048066 
0.07408623760855261 1:0.55191296 2:1.4055348 3:-0.45264539 4:-0.16299926 5:0.92817043 6:-0.66964096 7:1.0931534 8:-0.58448303 9:-0.5163063 10:-0.67724272 11:2.9581947 12:-0.26218076 13:-0.42984145 14:-0.33129208 15:0.72443042 16:1.3822657 17:1.5205394 18:-0.10971538 19:1.8116803 20:-0.057575327 21:1.7793935 22:2.1092865 23:2.3988694 24:-0.27048066 
0.07209325300654537 1:-1.8116803 2:1.4055348 3:-0.45264539 4:-0.16299926 5:0.92817043 6:-0.66964096 7:1.0931534 8:1.7107252 9:1.9366214 10:-0.67724272 11:2.9581947 12:3.8137423 13:-0.42984145 14:-0.33129208 15:0.72443042 16:1.3822657 17:1.5205394 18:-0.10971538 19:-0.55191296 20:-0.057575327 21:-0.56192732 22:-0.47404174 23:-0.41681713 24:-0.27048066 
0.07500684556836323 1:0.55191296 2:-0.7113946 3:-0.45264539 4:-0.16299926 5:0.92817043 6:1.4931731 7:-0.91468391 8:-0.58448303 9:-0.5163063 10:-0.67724272 11:-0.33800678 12:-0.26218076 13:-0.42984145 14:3.018152 15:0.72443042 16:1.3822657 17:1.5205394 18:-0.10971538 19:-0.55191296 20:-0.057575327 21:1.7793935 22:2.1092865 23:-0.41681713 24:3.6967147 
0.06085275972525847 1:0.55191296 2:-0.7113946 3:-0.45264539 4:-0.16299926 5:0.92817043 6:1.4931731 7:1.0931534 8:-0.58448303 9:1.9366214 10:-0.67724272 11:-0.33800678 12:3.8137423 13:-0.42984145 14:-0.33129208 15:0.72443042 16:-0.72337024 17:1.5205394 18:-0.10971538 19:-0.55191296 20:-0.057575327 21:1.7793935 22:2.1092865 23:2.3988694 24:-0.27048066 
0.07066299884053548 1:0.55191296 2:1.4055348 3:-0.45264539 4:-0.16299926 5:0.92817043 6:1.4931731 7:1.0931534 8:1.7107252 9:1.9366214 10:1.4764129 11:-0.33800678 12:-0.26218076 13:2.3261829 14:3.018152 15:0.72443042 16:1.3822657 17:1.5205394 18:-0.10971538 19:1.8116803 20:-0.057575327 21:-0.56192732 22:2.1092865 23:-0.41681713 24:-0.27048066 
0.05525600692034049 1:0.55191296 2:1.4055348 3:2.2089916 4:-0.16299926 5:-1.0772697 6:-0.66964096 7:-0.91468391 8:-0.58448303 9:-0.5163063 10:-0.67724272 11:-0.33800678 12:-0.26218076 13:-0.42984145 14:-0.33129208 15:0.72443042 16:1.3822657 17:1.5205394 18:-0.10971538 19:-0.55191296 20:-0.057575327 21:1.7793935 22:2.1092865 23:-0.41681713 24:-0.27048066 
0.07491729054784724 1:0.55191296 2:1.4055348 3:-0.45264539 4:-0.16299926 5:0.92817043 6:1.4931731 7:1.0931534 8:1.7107252 9:1.9366214 10:1.4764129 11:-0.33800678 12:3.8137423 13:2.3261829 14:-0.33129208 15:0.72443042 16:1.3822657 17:1.5205394 18:-0.10971538 19:-0.55191296 20:-0.057575327 21:-0.56192732 22:2.1092865 23:-0.41681713 24:3.6967147 
0.06352446689064065 1:0.55191296 2:-0.7113946 3:-0.45264539 4:-0.16299926 5:0.92817043 6:-0.66964096 7:1.0931534 8:-0.58448303 9:1.9366214 10:-0.67724272 11:-0.33800678 12:3.8137423 13:-0.42984145 14:-0.33129208 15:0.72443042 16:-0.72337024 17:1.5205394 18:-0.10971538 19:-0.55191296 20:-0.057575327 21:1.7793935 22:2.1092865 23:2.3988694 24:-0.27048066 
0.06630648716357605 1:-1.8116803 2:-0.7113946 3:-0.45264539 4:-0.16299926 5:0.92817043 6:-0.66964096 7:1.0931534 8:1.7107252 9:-0.5163063 10:1.4764129 11:-0.33800678 12:-0.26218076 13:-0.42984145 14:3.018152 15:0.72443042 16:1.3822657 17:-0.65758891 18:-0.10971538 19:-0.55191296 20:-0.057575327 21:1.7793935 22:-0.47404174 23:-0.41681713 24:-0.27048066 
0.5 1:-1.8116803 2:-0.7113946 3:-0.45264539 4:-0.16299926 5:0.92817043 6:-0.66964096 7:1.0931534 8:-0.58448303 9:-0.5163063 10:-0.67724272 11:-0.33800678 12:-0.26218076 13:2.3261829 14:-0.33129208 15:0.72443042 16:-0.72337024 17:-0.65758891 18:-0.10971538 19:-0.55191296 20:-0.057575327 21:-0.56192732 22:-0.47404174 23:-0.41681713 24:-0.27048066 
0.0723310800698202 1:0.55191296 2:1.4055348 3:2.2089916 4:-0.16299926 5:0.92817043 6:1.4931731 7:1.0931534 8:-0.58448303 9:-0.5163063 10:-0.67724272 11:-0.33800678 12:-0.26218076 13:2.3261829 14:-0.33129208 15:0.72443042 16:1.3822657 17:1.5205394 18:-0.10971538 19:-0.55191296 20:-0.057575327 21:-0.56192732 22:-0.47404174 23:-0.41681713 24:3.6967147 
0.5 1:-1.8116803 2:-0.7113946 3:2.2089916 4:-0.16299926 5:-1.0772697 6:-0.66964096 7:-0.91468391 8:-0.58448303 9:-0.5163063 10:-0.67724272 11:-0.33800678 12:-0.26218076 13:-0.42984145 14:-0.33129208 15:-1.3802428 16:-0.72337024 17:-0.65758891 18:-0.10971538 19:-0.55191296 20:-0.057575327 21:-0.56192732 22:-0.47404174 23:-0.41681713 24:-0.27048066 
0.1277374849534122 1:0.55191296 2:1.4055348 3:-0.45264539 4:-0.16299926 5:0.92817043 6:-0.66964096 7:1.0931534 8:-0.58448303 9:1.9366214 10:1.4764129 11:2.9581947 12:-0.26218076 13:-0.42984145 14:-0.33129208 15:0.72443042 16:1.3822657 17:1.5205394 18:-0.10971538 19:-0.55191296 20:-0.057575327 21:1.7793935 22:2.1092865 23:2.3988694 24:-0.27048066 
0.05570671888015996 1:-1.8116803 2:1.4055348 3:2.2089916 4:-0.16299926 5:0.92817043 6:-0.66964096 7:1.0931534 8:1.7107252 9:-0.5163063 10:-0.67724272 11:2.9581947 12:-0.26218076 13:-0.42984145 14:-0.33129208 15:0.72443042 16:1.3822657 17:1.5205394 18:-0.10971538 19:-0.55191296 20:-0.057575327 21:-0.56192732 22:-0.47404174 23:2.3988694 24:-0.27048066 
0.5 1:0.55191296 2:1.4055348 3:-0.45264539 4:-0.16299926 5:-1.0772697 6:-0.66964096 7:-0.91468391 8:-0.58448303 9:-0.5163063 10:-0.67724272 11:-0.33800678 12:-0.26218076 13:-0.42984145 14:-0.33129208 15:-1.3802428 16:-0.72337024 17:-0.65758891 18:-0.10971538 19:1.8116803 20:-0.057575327 21:-0.56192732 22:-0.47404174 23:-0.41681713 24:-0.27048066 
0.07007300805199876 1:0.55191296 2:1.4055348 3:-0.45264539 4:-0.16299926 5:0.92817043 6:-0.66964096 7:1.0931534 8:1.7107252 9:-0.5163063 10:1.4764129 11:2.9581947 12:-0.26218076 13:2.3261829 14:3.018152 15:0.72443042 16:1.3822657 17:1.5205394 18:-0.10971538 19:-0.55191296 20:-0.057575327 21:1.7793935 22:2.1092865 23:-0.41681713 24:-0.27048066 
0.5 1:0.55191296 2:-0.7113946 3:-0.45264539 4:-0.16299926 5:-1.0772697 6:-0.66964096 7:-0.91468391 8:-0.58448303 9:-0.5163063 10:-0.67724272 11:-0.33800678 12:-0.26218076 13:-0.42984145 14:-0.33129208 15:0.72443042 16:-0.72337024 17:1.5205394 18:-0.10971538 19:-0.55191296 20:-0.057575327 21:-0.56192732 22:-0.47404174 23:-0.41681713 24:-0.27048066 
0.07492165014245422 1:0.55191296 2:-0.7113946 3:-0.45264539 4:6.1343213 5:0.92817043 6:1.4931731 7:1.0931534 8:1.7107252 9:-0.5163063 10:1.4764129 11:-0.33800678 12:-0.26218076 13:-0.42984145 14:-0.33129208 15:0.72443042 16:1.3822657 17:-0.65758891 18:-0.10971538 19:1.8116803 20:-0.057575327 21:-0.56192732 22:-0.47404174 23:2.3988694 24:-0.27048066 
0.08557279263575997 1:0.55191296 2:1.4055348 3:-0.45264539 4:-0.16299926 5:0.92817043 6:1.4931731 7:1.0931534 8:1.7107252 9:1.9366214 10:1.4764129 11:2.9581947 12:3.8137423 13:-0.42984145 14:3.018152 15:0.72443042 16:1.3822657 17:1.5205394 18:-0.10971538 19:1.8116803 20:-0.057575327 21:1.7793935 22:2.1092865 23:-0.41681713 24:-0.27048066 
0.07549135517352268 1:0.55191296 2:1.4055348 3:-0.45264539 4:-0.16299926 5:0.92817043 6:1.4931731 7:1.0931534 8:-0.58448303 9:1.9366214 10:-0.67724272 11:-0.33800678 12:3.8137423 13:2.3261829 14:3.018152 15:0.72443042 16:1.3822657 17:1.5205394 18:-0.10971538 19:1.8116803 20:-0.057575327 21:1.7793935 22:2.1092865 23:-0.41681713 24:-0.27048066 
0.06416881125234954 1:0.55191296 2:1.4055348 3:-0.45264539 4:-0.16299926 5:0.92817043 6:1.4931731 7:1.0931534 8:1.7107252 9:1.9366214 10:-0.67724272 11:2.9581947 12:3.8137423 13:2.3261829 14:-0.33129208 15:0.72443042 16:1.3822657 17:1.5205394 18:-0.10971538 19:-0.55191296 20:-0.057575327 21:1.7793935 22:2.1092865 23:-0.41681713 24:-0.27048066 
0.1372992091143637 1:-1.8116803 2:1.4055348 3:2.2089916 4:-0.16299926 5:0.92817043 6:1.4931731 7:1.0931534 8:-0.58448303 9:1.9366214 10:1.4764129 11:-0.33800678 12:-0.26218076 13:-0.42984145 14:-0.33129208 15:0.72443042 16:1.3822657 17:1.5205394 18:-0.10971538 19:-0.55191296 20:-0.057575327 21:-0.56192732 22:-0.47404174 23:-0.41681713 24:-0.27048066 
0.5 1:-1.8116803 2:-0.7113946 3:2.2089916 4:-0.16299926 5:-1.0772697 6:-0.66964096 7:-0.91468391 8:-0.58448303 9:-0.5163063 10:-0.67724272 11:-0.33800678 12:-0.26218076 13:-0.42984145 14:-0.33129208 15:-1.3802428 16:-0.72337024 17:-0.65758891 18:-0.10971538 19:-0.55191296 20:-0.057575327 21:-0.56192732 22:-0.47404174 23:-0.41681713 24:-0.27048066 
0.5 1:-1.8116803 2:-0.7113946 3:-0.45264539 4:-0.16299926 5:0.92817043 6:-0.66964096 7:1.0931534 8:-0.58448303 9:1.9366214 10:1.4764129 11:-0.33800678 12:-0.26218076 13:-0.42984145 14:-0.33129208 15:0.72443042 16:-0.72337024 17:-0.65758891 18:-0.10971538 19:-0.55191296 20:-0.057575327 21:-0.56192732 22:-0.47404174 23:-0.41681713 24:-0.27048066 
0.07603130440565806 1:-1.8116803 2:-0.7113946 3:-0.45264539 4:-0.16299926 5:0.92817043 6:1.4931731 7:1.0931534 8:-0.58448303 9:1.9366214 10:1.4764129 11:-0.33800678 12:-0.26218076 13:-0.42984145 14:-0.33129208 15:0.72443042 16:-0.72337024 17:-0.65758891 18:-0.10971538 19:-0.55191296 20:-0.057575327 21:-0.56192732 22:2.1092865 23:-0.41681713 24:3.6967147 
0.06932377866609397 1:-1.8116803 2:-0.7113946 3:-0.45264539 4:-0.16299926 5:0.92817043 6:-0.66964096 7:1.0931534 8:-0.58448303 9:1.9366214 10:1.4764129 11:-0.33800678 12:-0.26218076 13:-0.42984145 14:3.018152 15:0.72443042 16:-0.72337024 17:1.5205394 18:-0.10971538 19:-0.55191296 20:-0.057575327 21:-0.56192732 22:-0.47404174 23:-0.41681713 24:-0.27048066 
0.5 1:-1.8116803 2:-0.7113946 3:2.2089916 4:-0.16299926 5:0.92817043 6:-0.66964096 7:1.0931534 8:-0.58448303 9:-0.5163063 10:-0.67724272 11:-0.33800678 12:-0.26218076 13:2.3261829 14:-0.33129208 15:0.72443042 16:-0.72337024 17:-0.65758891 18:-0.10971538 19:-0.55191296 20:-0.057575327 21:-0.56192732 22:-0.47404174 23:-0.41681713 24:-0.27048066 
0.05247223322281914 1:0.55191296 2:1.4055348 3:-0.45264539 4:-0.16299926 5:0.92817043 6:-0.66964096 7:1.0931534 8:-0.58448303 9:-0.5163063 10:-0.67724272 11:-0.33800678 12:-0.26218076 13:2.3261829 14:-0.33129208 15:0.72443042 16:-0.72337024 17:1.5205394 18:-0.10971538 19:-0.55191296 20:-0.057575327 21:1.7793935 22:-0.47404174 23:-0.41681713 24:-0.27048066 
0.09964841847441851 1:0.55191296 2:-0.7113946 3:-0.45264539 4:-0.16299926 5:0.92817043 6:1.4931731 7:1.0931534 8:1.7107252 9:1.9366214 10:1.4764129 11:-0.33800678 12:-0.26218076 13:-0.42984145 14:-0.33129208 15:0.72443042 16:1.3822657 17:1.5205394 18:-0.10971538 19:-0.55191296 20:-0.057575327 21:1.7793935 22:2.1092865 23:-0.41681713 24:-0.27048066 
0.06840593241406123 1:0.55191296 2:1.4055348 3:-0.45264539 4:-0.16299926 5:0.92817043 6:-0.66964096 7:1.0931534 8:-0.58448303 9:1.9366214 10:1.4764129 11:-0.33800678 12:-0.26218076 13:2.3261829 14:-0.33129208 15:0.72443042 16:1.3822657 17:1.5205394 18:-0.10971538 19:-0.55191296 20:-0.057575327 21:1.7793935 22:2.1092865 23:2.3988694 24:3.6967147 
0.07526455391305296 1:-1.8116803 2:-0.7113946 3:-0.45264539 4:-0.16299926 5:0.92817043 6:-0.66964096 7:1.0931534 8:-0.58448303 9:1.9366214 10:1.4764129 11:-0.33800678 12:-0.26218076 13:-0.42984145 14:-0.33129208 15:0.72443042 16:1.3822657 17:1.5205394 18:-0.10971538 19:-0.55191296 20:-0.057575327 21:1.7793935 22:2.1092865 23:2.3988694 24:3.6967147 
0.07797008754988415 1:0.55191296 2:1.4055348 3:-0.45264539 4:-0.16299926 5:0.92817043 6:1.4931731 7:1.0931534 8:1.7107252 9:-0.5163063 10:-0.67724272 11:2.9581947 12:3.8137423 13:-0.42984145 14:-0.33129208 15:0.72443042 16:1.3822657 17:1.5205394 18:-0.10971538 19:-0.55191296 20:-0.057575327 21:-0.56192732 22:-0.47404174 23:-0.41681713 24:-0.27048066 
0.5 1:-1.8116803 2:-0.7113946 3:-0.45264539 4:-0.16299926 5:0.92817043 6:-0.66964096 7:1.0931534 8:-0.58448303 9:1.9366214 10:1.4764129 11:-0.33800678 12:-0.26218076 13:-0.42984145 14:-0.33129208 15:0.72443042 16:-0.72337024 17:-0.65758891 18:-0.10971538 19:-0.55191296 20:-0.057575327 21:-0.56192732 22:-0.47404174 23:-0.41681713 24:-0.27048066 
0.05909299446865901 1:0.55191296 2:-0.7113946 3:-0.45264539 4:-0.16299926 5:0.92817043 6:1.4931731 7:1.0931534 8:1.7107252 9:1.9366214 10:1.4764129 11:-0.33800678 12:-0.26218076 13:-0.42984145 14:-0.33129208 15:0.72443042 16:-0.72337024 17:-0.65758891 18:-0.10971538 19:-0.55191296 20:-0.057575327 21:-0.56192732 22:-0.47404174 23:-0.41681713 24:3.6967147 
0.212337099980237 1:-1.8116803 2:1.4055348 3:-0.45264539 4:-0.16299926 5:0.92817043 6:-0.66964096 7:1.0931534 8:1.7107252 9:-0.5163063 10:1.4764129 11:-0.33800678 12:-0.26218076 13:-0.42984145 14:-0.33129208 15:0.72443042 16:-0.72337024 17:1.5205394 18:-0.10971538 19:-0.55191296 20:-0.057575327 21:-0.56192732 22:-0.47404174 23:-0.41681713 24:-0.27048066 
0.07152921124341961 1:-1.8116803 2:-0.7113946 3:-0.45264539 4:-0.16299926 5:-1.0772697 6:-0.66964096 7:-0.91468391 8:-0.58448303 9:-0.5163063 10:-0.67724272 11:-0.33800678 12:-0.26218076 13:-0.42984145 14:3.018152 15:0.72443042 16:-0.72337024 17:-0.65758891 18:-0.10971538 19:-0.55191296 20:-0.057575327 21:-0.56192732 22:-0.47404174 23:2.3988694 24:-0.27048066 
0.2259252710923483 1:0.55191296 2:-0.7113946 3:-0.45264539 4:-0.16299926 5:0.92817043 6:1.4931731 7:-0.91468391 8:-0.58448303 9:-0.5163063 10:-0.67724272 11:-0.33800678 12:-0.26218076 13:-0.42984145 14:-0.33129208 15:0.72443042 16:1.3822657 17:-0.65758891 18:-0.10971538 19:-0.55191296 20:-0.057575327 21:1.7793935 22:2.1092865 23:-0.41681713 24:-0.27048066 
0.0641997483231735 1:0.55191296 2:1.4055348 3:-0.45264539 4:-0.16299926 5:0.92817043 6:1.4931731 7:1.0931534 8:-0.58448303 9:1.9366214 10:1.4764129 11:-0.33800678 12:-0.26218076 13:2.3261829 14:-0.33129208 15:0.72443042 16:-0.72337024 17:1.5205394 18:-0.10971538 19:-0.55191296 20:-0.057575327 21:1.7793935 22:-0.47404174 23:-0.41681713 24:-0.27048066 
0.05066351082855051 1:-1.8116803 2:-0.7113946 3:2.2089916 4:-0.16299926 5:0.92817043 6:1.4931731 7:1.0931534 8:1.7107252 9:-0.5163063 10:1.4764129 11:2.9581947 12:-0.26218076 13:-0.42984145 14:-0.33129208 15:0.72443042 16:-0.72337024 17:-0.65758891 18:-0.10971538 19:-0.55191296 20:-0.057575327 21:-0.56192732 22:-0.47404174 23:-0.41681713 24:-0.27048066 
0.05902076913520821 1:0.55191296 2:-0.7113946 3:2.2089916 4:-0.16299926 5:0.92817043 6:1.4931731 7:1.0931534 8:1.7107252 9:-0.5163063 10:1.4764129 11:2.9581947 12:-0.26218076 13:-0.42984145 14:-0.33129208 15:0.72443042 16:1.3822657 17:1.5205394 18:-0.10971538 19:-0.55191296 20:-0.057575327 21:1.7793935 22:2.1092865 23:-0.41681713 24:-0.27048066 
0.04065108410013984 1:0.55191296 2:-0.7113946 3:-0.45264539 4:-0.16299926 5:0.92817043 6:-0.66964096 7:1.0931534 8:-0.58448303 9:-0.5163063 10:-0.67724272 11:-0.33800678 12:-0.26218076 13:2.3261829 14:-0.33129208 15:0.72443042 16:-0.72337024 17:1.5205394 18:-0.10971538 19:-0.55191296 20:-0.057575327 21:1.7793935 22:-0.47404174 23:-0.41681713 24:-0.27048066 
0.03858937549684179 1:0.55191296 2:1.4055348 3:-0.45264539 4:-0.16299926 5:0.92817043 6:1.4931731 7:1.0931534 8:-0.58448303 9:1.9366214 10:1.4764129 11:-0.33800678 12:-0.26218076 13:-0.42984145 14:-0.33129208 15:0.72443042 16:1.3822657 17:1.5205394 18:-0.10971538 19:-0.55191296 20:-0.057575327 21:1.7793935 22:2.1092865 23:-0.41681713 24:-0.27048066 
0.04689223996048676 1:0.55191296 2:1.4055348 3:-0.45264539 4:-0.16299926 5:0.92817043 6:-0.66964096 7:1.0931534 8:1.7107252 9:1.9366214 10:1.4764129 11:-0.33800678 12:-0.26218076 13:-0.42984145 14:-0.33129208 15:0.72443042 16:1.3822657 17:1.5205394 18:-0.10971538 19:1.8116803 20:-0.057575327 21:-0.56192732 22:-0.47404174 23:-0.41681713 24:-0.27048066 
0.0504503894067992 1:0.55191296 2:1.4055348 3:-0.45264539 4:-0.16299926 5:0.92817043 6:-0.66964096 7:-0.91468391 8:-0.58448303 9:-0.5163063 10:-0.67724272 11:-0.33800678 12:-0.26218076 13:-0.42984145 14:-0.33129208 15:0.72443042 16:1.3822657 17:-0.65758891 18:-0.10971538 19:1.8116803 20:-0.057575327 21:-0.56192732 22:-0.47404174 23:-0.41681713 24:-0.27048066 
0.5 1:-1.8116803 2:1.4055348 3:-0.45264539 4:-0.16299926 5:0.92817043 6:-0.66964096 7:1.0931534 8:-0.58448303 9:1.9366214 10:1.4764129 11:-0.33800678 12:-0.26218076 13:-0.42984145 14:-0.33129208 15:0.72443042 16:-0.72337024 17:1.5205394 18:-0.10971538 19:-0.55191296 20:-0.057575327 21:-0.56192732 22:-0.47404174 23:-0.41681713 24:-0.27048066 
0.05604217660762356 1:-1.8116803 2:1.4055348 3:2.2089916 4:-0.16299926 5:0.92817043 6:1.4931731 7:1.0931534 8:-0.58448303 9:1.9366214 10:1.4764129 11:-0.33800678 12:-0.26218076 13:2.3261829 14:-0.33129208 15:0.72443042 16:1.3822657 17:1.5205394 18:-0.10971538 19:-0.55191296 20:-0.057575327 21:1.7793935 22:2.1092865 23:2.3988694 24:-0.27048066 
0.5 1:0.55191296 2:1.4055348 3:2.2089916 4:-0.16299926 5:0.92817043 6:1.4931731 7:1.0931534 8:-0.58448303 9:-0.5163063 10:-0.67724272 11:-0.33800678 12:-0.26218076 13:2.3261829 14:-0.33129208 15:0.72443042 16:1.3822657 17:1.5205394 18:-0.10971538 19:-0.55191296 20:-0.057575327 21:1.7793935 22:2.1092865 23:-0.41681713 24:-0.27048066 
0.07288871361823707 1:0.55191296 2:-0.7113946 3:-0.45264539 4:-0.16299926 5:0.92817043 6:-0.66964096 7:1.0931534 8:-0.58448303 9:1.9366214 10:1.4764129 11:-0.33800678 12:-0.26218076 13:2.3261829 14:-0.33129208 15:0.72443042 16:-0.72337024 17:1.5205394 18:-0.10971538 19:1.8116803 20:-0.057575327 21:1.7793935 22:2.1092865 23:-0.41681713 24:-0.27048066 
0.07427492833251942 1:0.55191296 2:1.4055348 3:2.2089916 4:-0.16299926 5:0.92817043 6:1.4931731 7:1.0931534 8:-0.58448303 9:1.9366214 10:1.4764129 11:-0.33800678 12:-0.26218076 13:-0.42984145 14:3.018152 15:0.72443042 16:1.3822657 17:1.5205394 18:-0.10971538 19:-0.55191296 20:-0.057575327 21:1.7793935 22:2.1092865 23:-0.41681713 24:-0.27048066 
0.5 1:0.55191296 2:1.4055348 3:-0.45264539 4:-0.16299926 5:0.92817043 6:1.4931731 7:1.0931534 8:-0.58448303 9:1.9366214 10:1.4764129 11:-0.33800678 12:-0.26218076 13:2.3261829 14:-0.33129208 15:0.72443042 16:1.3822657 17:1.5205394 18:-0.10971538 19:-0.55191296 20:-0.057575327 21:-0.56192732 22:2.1092865 23:-0.41681713 24:-0.27048066 
0.07605195647969895 1:-1.8116803 2:1.4055348 3:2.2089916 4:-0.16299926 5:0.92817043 6:1.4931731 7:1.0931534 8:-0.58448303 9:1.9366214 10:1.4764129 11:-0.33800678 12:-0.26218076 13:2.3261829 14:-0.33129208 15:0.72443042 16:-0.72337024 17:1.5205394 18:-0.10971538 19:-0.55191296 20:-0.057575327 21:-0.56192732 22:-0.47404174 23:-0.41681713 24:3.6967147 
0.5 1:-1.8116803 2:-0.7113946 3:2.2089916 4:-0.16299926 5:0.92817043 6:1.4931731 7:1.0931534 8:-0.58448303 9:1.9366214 10:1.4764129 11:-0.33800678 12:-0.26218076 13:-0.42984145 14:-0.33129208 15:0.72443042 16:-0.72337024 17:-0.65758891 18:-0.10971538 19:-0.55191296 20:-0.057575327 21:-0.56192732 22:-0.47404174 23:-0.41681713 24:-0.27048066 
0.0519702895795143 1:0.55191296 2:-0.7113946 3:-0.45264539 4:-0.16299926 5:0.92817043 6:-0.66964096 7:1.0931534 8:1.7107252 9:-0.5163063 10:-0.67724272 11:2.9581947 12:-0.26218076 13:-0.42984145 14:-0.33129208 15:0.72443042 16:-0.72337024 17:1.5205394 18:-0.10971538 19:-0.55191296 20:-0.057575327 21:-0.56192732 22:-0.47404174 23:-0.41681713 24:-0.27048066 
0.07261976684581428 1:0.55191296 2:1.4055348 3:-0.45264539 4:-0.16299926 5:0.92817043 6:1.4931731 7:1.0931534 8:1.7107252 9:1.9366214 10:1.4764129 11:-0.33800678 12:3.8137423 13:-0.42984145 14:-0.33129208 15:0.72443042 16:1.3822657 17:1.5205394 18:-0.10971538 19:1.8116803 20:-0.057575327 21:1.7793935 22:2.1092865 23:-0.41681713 24:3.6967147 
0.07594088393093247 1:0.55191296 2:-0.7113946 3:-0.45264539 4:-0.16299926 5:0.92817043 6:-0.66964096 7:1.0931534 8:-0.58448303 9:1.9366214 10:1.4764129 11:-0.33800678 12:-0.26218076 13:-0.42984145 14:3.018152 15:0.72443042 16:-0.72337024 17:1.5205394 18:-0.10971538 19:-0.55191296 20:-0.057575327 21:-0.56192732 22:2.1092865 23:2.3988694 24:3.6967147 
0.5 1:-1.8116803 2:-0.7113946 3:-0.45264539 4:-0.16299926 5:-1.0772697 6:-0.66964096 7:-0.91468391 8:-0.58448303 9:-0.5163063 10:-0.67724272 11:-0.33800678 12:-0.26218076 13:-0.42984145 14:-0.33129208 15:0.72443042 16:-0.72337024 17:1.5205394 18:-0.10971538 19:-0.55191296 20:-0.057575327 21:-0.56192732 22:-0.47404174 23:-0.41681713 24:-0.27048066 
0.06011298304457084 1:-1.8116803 2:1.4055348 3:-0.45264539 4:-0.16299926 5:0.92817043 6:1.4931731 7:1.0931534 8:1.7107252 9:-0.5163063 10:1.4764129 11:-0.33800678 12:-0.26218076 13:2.3261829 14:-0.33129208 15:0.72443042 16:-0.72337024 17:1.5205394 18:-0.10971538 19:1.8116803 20:-0.057575327 21:-0.56192732 22:2.1092865 23:-0.41681713 24:-0.27048066 
0.5 1:0.55191296 2:-0.7113946 3:-0.45264539 4:-0.16299926 5:-1.0772697 6:-0.66964096 7:-0.91468391 8:-0.58448303 9:-0.5163063 10:-0.67724272 11:-0.33800678 12:-0.26218076 13:-0.42984145 14:3.018152 15:0.72443042 16:-0.72337024 17:-0.65758891 18:-0.10971538 19:-0.55191296 20:-0.057575327 21:-0.56192732 22:-0.47404174 23:-0.41681713 24:-0.27048066 
0.5 1:0.55191296 2:-0.7113946 3:-0.45264539 4:-0.16299926 5:0.92817043 6:1.4931731 7:-0.91468391 8:-0.58448303 9:-0.5163063 10:-0.67724272 11:-0.33800678 12:-0.26218076 13:-0.42984145 14:3.018152 15:0.72443042 16:-0.72337024 17:1.5205394 18:-0.10971538 19:-0.55191296 20:-0.057575327 21:-0.56192732 22:-0.47404174 23:-0.41681713 24:-0.27048066 
