svm_type c_svc
kernel_type rbf
gamma 0.5
nr_class 2
total_sv 7196
rho -0.82989
label 2 1
nr_sv 4224 2972
SV
0.1616690107587931 1:0.54104109 2:1.5955196 3:-0.4513487 4:-0.11744416 5:1.0906687 6:1.7543418 7:1.2908092 8:1.9958782 9:2.3034199 10:1.6927522 11:3.5623381 12:-0.19118631 13:-0.35496304 14:-0.2627018 15:0.84682671 16:1.6210634 17:1.7906229 18:-0.10118519 19:-0.51717917 20:-0.028873531 21:2.0177377 22:2.6443089 23:3.0236389 24:-0.21420514 
0.1406679976863947 1:-1.8480318 2:-0.62666803 3:-0.4513487 4:-0.11744416 5:1.0906687 6:1.7543418 7:1.2908092 8:-0.50096301 9:-0.43407681 10:-0.5906719 11:-0.28067553 12:-0.19118631 13:2.8168035 14:-0.2627018 15:0.84682671 16:1.6210634 17:1.7906229 18:-0.10118519 19:-0.51717917 20:-0.028873531 21:2.0177377 22:2.6443089 23:-0.3306814 24:-0.21420514 
0.2301683248095579 1:-1.8480318 2:1.5955196 3:-0.4513487 4:-0.11744416 5:1.0906687 6:1.7543418 7:1.2908092 8:1.9958782 9:-0.43407681 10:1.6927522 11:-0.28067553 12:-0.19118631 13:-0.35496304 14:-0.2627018 15:0.84682671 16:-0.61679335 17:-0.55838733 18:-0.10118519 19:1.9332974 20:-0.028873531 21:-0.49553573 22:-0.37811813 23:-0.3306814 24:-0.21420514 
0.169464307341375 1:0.54104109 2:-0.62666803 3:-0.4513487 4:-0.11744416 5:-0.91674143 6:-0.56993519 7:-0.77460025 8:-0.50096301 9:-0.43407681 10:-0.5906719 11:-0.28067553 12:-0.19118631 13:-0.35496304 14:-0.2627018 15:0.84682671 16:1.6210634 17:1.7906229 18:-0.10118519 19:1.9332974 20:-0.028873531 21:2.0177377 22:-0.37811813 23:3.0236389 24:-0.21420514 
0.127908345407254 1:0.54104109 2:1.5955196 3:-0.4513487 4:-0.11744416 5:1.0906687 6:-0.56993519 7:1.2908092 8:1.9958782 9:-0.43407681 10:1.6927522 11:-0.28067553 12:-0.19118631 13:-0.35496304 14:-0.2627018 15:0.84682671 16:1.6210634 17:-0.55838733 18:-0.10118519 19:-0.51717917 20:-0.028873531 21:2.0177377 22:-0.37811813 23:3.0236389 24:-0.21420514 
0.1604821780035013 1:0.54104109 2:-0.62666803 3:-0.4513487 4:8.5135028 5:-0.91674143 6:-0.56993519 7:-0.77460025 8:-0.50096301 9:-0.43407681 10:-0.5906719 11:-0.28067553 12:-0.19118631 13:-0.35496304 14:-0.2627018 15:-1.1807152 16:-0.61679335 17:-0.55838733 18:-0.10118519 19:-0.51717917 20:-0.028873531 21:-0.49553573 22:-0.37811813 23:-0.3306814 24:4.6677739 
0.2098161191306163 1:0.54104109 2:1.5955196 3:-0.4513487 4:-0.11744416 5:1.0906687 6:-0.56993519 7:1.2908092 8:-0.50096301 9:2.3034199 10:1.6927522 11:-0.28067553 12:-0.19118631 13:-0.35496304 14:3.8060689 15:0.84682671 16:1.6210634 17:-0.55838733 18:-0.10118519 19:-0.51717917 20:-0.028873531 21:2.0177377 22:-0.37811813 23:-0.3306814 24:-0.21420514 
0.5 1:0.54104109 2:1.5955196 3:-0.4513487 4:-0.11744416 5:-0.91674143 6:-0.56993519 7:-0.77460025 8:-0.50096301 9:-0.43407681 10:-0.5906719 11:-0.28067553 12:-0.19118631 13:-0.35496304 14:-0.2627018 15:0.84682671 16:1.6210634 17:1.7906229 18:-0.10118519 19:1.9332974 20:-0.028873531 21:2.0177377 22:-0.37811813 23:-0.3306814 24:-0.21420514 
0.5 1:0.54104109 2:1.5955196 3:-0.4513487 4:-0.11744416 5:-0.91674143 6:-0.56993519 7:-0.77460025 8:-0.50096301 9:-0.43407681 10:-0.5906719 11:-0.28067553 12:-0.19118631 13:-0.35496304 14:-0.2627018 15:0.84682671 16:1.6210634 17:-0.55838733 18:-0.10118519 19:-0.51717917 20:-0.028873531 21:2.0177377 22:-0.37811813 23:-0.3306814 24:-0.21420514 
0.1703188086010626 1:0.54104109 2:1.5955196 3:-0.4513487 4:8.5135028 5:1.0906687 6:1.7543418 7:-0.77460025 8:-0.50096301 9:-0.43407681 10:-0.5906719 11:-0.28067553 12:-0.19118631 13:-0.35496304 14:3.8060689 15:0.84682671 16:-0.61679335 17:-0.55838733 18:-0.10118519 19:-0.51717917 20:-0.028873531 21:-0.49553573 22:-0.37811813 23:-0.3306814 24:4.6677739 
0.1676561621367441 1:0.54104109 2:-0.62666803 3:-0.4513487 4:-0.11744416 5:1.0906687 6:1.7543418 7:1.2908092 8:1.9958782 9:-0.43407681 10:1.6927522 11:3.5623381 12:-0.19118631 13:-0.35496304 14:-0.2627018 15:0.84682671 16:1.6210634 17:1.7906229 18:-0.10118519 19:-0.51717917 20:-0.028873531 21:2.0177377 22:-0.37811813 23:3.0236389 24:-0.21420514 
0.5 1:-1.8480318 2:-0.62666803 3:2.2152742 4:-0.11744416 5:1.0906687 6:1.7543418 7:-0.77460025 8:-0.50096301 9:-0.43407681 10:-0.5906719 11:-0.28067553 12:-0.19118631 13:-0.35496304 14:-0.2627018 15:0.84682671 16:-0.61679335 17:-0.55838733 18:-0.10118519 19:-0.51717917 20:-0.028873531 21:2.0177377 22:-0.37811813 23:-0.3306814 24:-0.21420514 
0.1542945915167962 1:0.54104109 2:-0.62666803 3:-0.4513487 4:-0.11744416 5:1.0906687 6:1.7543418 7:-0.77460025 8:-0.50096301 9:-0.43407681 10:-0.5906719 11:-0.28067553 12:-0.19118631 13:-0.35496304 14:-0.2627018 15:0.84682671 16:1.6210634 17:1.7906229 18:-0.10118519 19:1.9332974 20:-0.028873531 21:-0.49553573 22:-0.37811813 23:3.0236389 24:-0.21420514 
0.1683533872971456 1:0.54104109 2:1.5955196 3:-0.4513487 4:-0.11744416 5:1.0906687 6:-0.56993519 7:1.2908092 8:-0.50096301 9:2.3034199 10:-0.5906719 11:-0.28067553 12:5.2297737 13:-0.35496304 14:-0.2627018 15:0.84682671 16:1.6210634 17:-0.55838733 18:-0.10118519 19:-0.51717917 20:-0.028873531 21:-0.49553573 22:2.6443089 23:-0.3306814 24:-0.21420514 
0.1473705883342873 1:-1.8480318 2:-0.62666803 3:2.2152742 4:-0.11744416 5:-0.91674143 6:-0.56993519 7:-0.77460025 8:-0.50096301 9:-0.43407681 10:-0.5906719 11:-0.28067553 12:-0.19118631 13:-0.35496304 14:-0.2627018 15:0.84682671 16:-0.61679335 17:-0.55838733 18:-0.10118519 19:-0.51717917 20:-0.028873531 21:-0.49553573 22:-0.37811813 23:3.0236389 24:-0.21420514 
0.5 1:-1.8480318 2:-0.62666803 3:-0.4513487 4:-0.11744416 5:1.0906687 6:-0.56993519 7:1.2908092 8:-0.50096301 9:2.3034199 10:1.6927522 11:-0.28067553 12:-0.19118631 13:-0.35496304 14:-0.2627018 15:0.84682671 16:-0.61679335 17:-0.55838733 18:-0.10118519 19:-0.51717917 20:-0.028873531 21:-0.49553573 22:-0.37811813 23:-0.3306814 24:-0.21420514 
0.5 1:-1.8480318 2:-0.62666803 3:2.2152742 4:-0.11744416 5:1.0906687 6:1.7543418 7:-0.77460025 8:-0.50096301 9:-0.43407681 10:-0.5906719 11:-0.28067553 12:-0.19118631 13:-0.35496304 14:-0.2627018 15:0.84682671 16:-0.61679335 17:-0.55838733 18:-0.10118519 19:-0.51717917 20:-0.028873531 21:-0.49553573 22:-0.37811813 23:-0.3306814 24:-0.21420514 
0.1225109259300572 1:0.54104109 2:1.5955196 3:-0.4513487 4:-0.11744416 5:1.0906687 6:-0.56993519 7:1.2908092 8:1.9958782 9:-0.43407681 10:1.6927522 11:-0.28067553 12:-0.19118631 13:-0.35496304 14:-0.2627018 15:0.84682671 16:-0.61679335 17:-0.55838733 18:-0.10118519 19:-0.51717917 20:-0.028873531 21:-0.49553573 22:-0.37811813 23:3.0236389 24:-0.21420514 
0.1652624198514765 1:-1.8480318 2:-0.62666803 3:2.2152742 4:-0.11744416 5:1.0906687 6:1.7543418 7:1.2908092 8:1.9958782 9:-0.43407681 10:1.6927522 11:-0.28067553 12:-0.19118631 13:-0.35496304 14:-0.2627018 15:0.84682671 16:-0.61679335 17:1.7906229 18:-0.10118519 19:-0.51717917 20:-0.028873531 21:2.0177377 22:2.6443089 23:3.0236389 24:-0.21420514 
0.1698916255956364 1:-1.8480318 2:1.5955196 3:-0.4513487 4:-0.11744416 5:1.0906687 6:-0.56993519 7:1.2908092 8:-0.50096301 9:2.3034199 10:1.6927522 11:-0.28067553 12:-0.19118631 13:-0.35496304 14:3.8060689 15:0.84682671 16:-0.61679335 17:-0.55838733 18:-0.10118519 19:1.9332974 20:-0.028873531 21:-0.49553573 22:-0.37811813 23:3.0236389 24:-0.21420514 
0.1620292090920612 1:0.54104109 2:-0.62666803 3:2.2152742 4:-0.11744416 5:-0.91674143 6:-0.56993519 7:-0.77460025 8:-0.50096301 9:-0.43407681 10:-0.5906719 11:-0.28067553 12:-0.19118631 13:-0.35496304 14:-0.2627018 15:0.84682671 16:-0.61679335 17:-0.55838733 18:-0.10118519 19:1.9332974 20:-0.028873531 21:-0.49553573 22:-0.37811813 23:3.0236389 24:-0.21420514 
0.5 1:0.54104109 2:-0.62666803 3:-0.4513487 4:-0.11744416 5:1.0906687 6:-0.56993519 7:1.2908092 8:1.9958782 9:-0.43407681 10:1.6927522 11:-0.28067553 12:-0.19118631 13:-0.35496304 14:-0.2627018 15:0.84682671 16:-0.61679335 17:-0.55838733 18:-0.10118519 19:-0.51717917 20:-0.028873531 21:-0.49553573 22:2.6443089 23:-0.3306814 24:-0.21420514 
0.5 1:-1.8480318 2:-0.62666803 3:2.2152742 4:-0.11744416 5:1.0906687 6:-0.56993519 7:1.2908092 8:-0.50096301 9:2.3034199 10:1.6927522 11:-0.28067553 12:-0.19118631 13:2.8168035 14:-0.2627018 15:0.84682671 16:1.6210634 17:-0.55838733 18:-0.10118519 19:-0.51717917 20:-0.028873531 21:-0.49553573 22:-0.37811813 23:-0.3306814 24:-0.21420514 
0.5 1:-1.8480318 2:-0.62666803 3:2.2152742 4:-0.11744416 5:1.0906687 6:1.7543418 7:-0.77460025 8:-0.50096301 9:-0.43407681 10:-0.5906719 11:-0.28067553 12:-0.19118631 13:-0.35496304 14:-0.2627018 15:0.84682671 16:-0.61679335 17:-0.55838733 18:-0.10118519 19:-0.51717917 20:-0.028873531 21:-0.49553573 22:-0.37811813 23:-0.3306814 24:-0.21420514 
0.5 1:-1.8480318 2:-0.62666803 3:-0.4513487 4:-0.11744416 5:1.0906687 6:-0.56993519 7:1.2908092 8:-0.50096301 9:2.3034199 10:1.6927522 11:-0.28067553 12:-0.19118631 13:-0.35496304 14:-0.2627018 15:0.84682671 16:-0.61679335 17:-0.55838733 18:-0.10118519 19:-0.51717917 20:-0.028873531 21:-0.49553573 22:-0.37811813 23:-0.3306814 24:-0.21420514 
0.5 1:0.54104109 2:-0.62666803 3:-0.4513487 4:-0.11744416 5:1.0906687 6:-0.56993519 7:1.2908092 8:-0.50096301 9:2.3034199 10:1.6927522 11:-0.28067553 12:-0.19118631 13:-0.35496304 14:-0.2627018 15:0.84682671 16:-0.61679335 17:-0.55838733 18:-0.10118519 19:1.9332974 20:-0.028873531 21:-0.49553573 22:-0.37811813 23:-0.3306814 24:-0.21420514 
0.5 1:-1.8480318 2:-0.62666803 3:-0.4513487 4:-0.11744416 5:1.0906687 6:-0.56993519 7:1.2908092 8:-0.50096301 9:2.3034199 10:1.6927522 11:-0.28067553 12:-0.19118631 13:-0.35496304 14:-0.2627018 15:0.84682671 16:-0.61679335 17:-0.55838733 18:-0.10118519 19:-0.51717917 20:-0.028873531 21:-0.49553573 22:-0.37811813 23:-0.3306814 24:-0.21420514 
0.5 1:-1.8480318 2:-0.62666803 3:-0.4513487 4:-0.11744416 5:1.0906687 6:-0.56993519 7:1.2908092 8:1.9958782 9:-0.43407681 10:1.6927522 11:-0.28067553 12:-0.19118631 13:-0.35496304 14:-0.2627018 15:0.84682671 16:-0.61679335 17:1.7906229 18:-0.10118519 19:-0.51717917 20:-0.028873531 21:-0.49553573 22:-0.37811813 23:-0.3306814 24:-0.21420514 
0.5 1:0.54104109 2:-0.62666803 3:-0.4513487 4:-0.11744416 5:-0.91674143 6:-0.56993519 7:-0.77460025 8:-0.50096301 9:-0.43407681 10:-0.5906719 11:-0.28067553 12:-0.19118631 13:-0.35496304 14:-0.2627018 15:0.84682671 16:1.6210634 17:-0.55838733 18:-0.10118519 19:-0.51717917 20:-0.028873531 21:2.0177377 22:-0.37811813 23:-0.3306814 24:-0.21420514 
0.1518340059961568 1:0.54104109 2:1.5955196 3:2.2152742 4:-0.11744416 5:1.0906687 6:1.7543418 7:1.2908092 8:1.9958782 9:2.3034199 10:1.6927522 11:3.5623381 12:-0.19118631 13:-0.35496304 14:-0.2627018 15:0.84682671 16:-0.61679335 17:-0.55838733 18:-0.10118519 19:-0.51717917 20:-0.028873531 21:-0.49553573 22:-0.37811813 23:-0.3306814 24:-0.21420514 
0.1702325253814684 1:0.54104109 2:-0.62666803 3:2.2152742 4:-0.11744416 5:-0.91674143 6:-0.56993519 7:-0.77460025 8:-0.50096301 9:-0.43407681 10:-0.5906719 11:-0.28067553 12:-0.19118631 13:-0.35496304 14:3.8060689 15:0.84682671 16:1.6210634 17:1.7906229 18:-0.10118519 19:-0.51717917 20:-0.028873531 21:2.0177377 22:2.6443089 23:3.0236389 24:-0.21420514 
0.168177277478347 1:0.54104109 2:1.5955196 3:-0.4513487 4:-0.11744416 5:1.0906687 6:1.7543418 7:1.2908092 8:-0.50096301 9:2.3034199 10:-0.5906719 11:-0.28067553 12:5.2297737 13:2.8168035 14:-0.2627018 15:0.84682671 16:1.6210634 17:1.7906229 18:-0.10118519 19:-0.51717917 20:-0.028873531 21:-0.49553573 22:-0.37811813 23:-0.3306814 24:-0.21420514 
0.1392080160446808 1:-1.8480318 2:1.5955196 3:-0.4513487 4:-0.11744416 5:1.0906687 6:-0.56993519 7:1.2908092 8:-0.50096301 9:2.3034199 10:1.6927522 11:-0.28067553 12:-0.19118631 13:-0.35496304 14:-0.2627018 15:0.84682671 16:1.6210634 17:-0.55838733 18:-0.10118519 19:-0.51717917 20:-0.028873531 21:-0.49553573 22:-0.37811813 23:3.0236389 24:-0.21420514 
0.5 1:0.54104109 2:-0.62666803 3:-0.4513487 4:-0.11744416 5:-0.91674143 6:-0.56993519 7:-0.77460025 8:-0.50096301 9:-0.43407681 10:-0.5906719 11:-0.28067553 12:-0.19118631 13:-0.35496304 14:-0.2627018 15:-1.1807152 16:-0.61679335 17:-0.55838733 18:-0.10118519 19:1.9332974 20:-0.028873531 21:-0.49553573 22:-0.37811813 23:-0.3306814 24:-0.21420514 
0.1449538445856059 1:0.54104109 2:1.5955196 3:2.2152742 4:-0.11744416 5:1.0906687 6:-0.56993519 7:1.2908092 8:-0.50096301 9:2.3034199 10:1.6927522 11:-0.28067553 12:-0.19118631 13:-0.35496304 14:-0.2627018 15:0.84682671 16:1.6210634 17:1.7906229 18:-0.10118519 19:-0.51717917 20:-0.028873531 21:2.0177377 22:-0.37811813 23:3.0236389 24:-0.21420514 
0.2512076436317531 1:-1.8480318 2:-0.62666803 3:-0.4513487 4:-0.11744416 5:1.0906687 6:-0.56993519 7:1.2908092 8:-0.50096301 9:2.3034199 10:1.6927522 11:-0.28067553 12:-0.19118631 13:-0.35496304 14:-0.2627018 15:0.84682671 16:1.6210634 17:-0.55838733 18:-0.10118519 19:-0.51717917 20:-0.028873531 21:2.0177377 22:-0.37811813 23:-0.3306814 24:-0.21420514 
0.2130069761504494 1:0.54104109 2:1.5955196 3:2.2152742 4:-0.11744416 5:1.0906687 6:-0.56993519 7:1.2908092 8:-0.50096301 9:-0.43407681 10:-0.5906719 11:-0.28067553 12:-0.19118631 13:2.8168035 14:-0.2627018 15:0.84682671 16:-0.61679335 17:-0.55838733 18:-0.10118519 19:-0.51717917 20:-0.028873531 21:-0.49553573 22:-0.37811813 23:-0.3306814 24:-0.21420514 
0.2472707986358284 1:0.54104109 2:1.5955196 3:-0.4513487 4:-0.11744416 5:1.0906687 6:1.7543418 7:1.2908092 8:1.9958782 9:-0.43407681 10:1.6927522 11:-0.28067553 12:-0.19118631 13:-0.35496304 14:-0.2627018 15:0.84682671 16:-0.61679335 17:-0.55838733 18:-0.10118519 19:-0.51717917 20:-0.028873531 21:-0.49553573 22:2.6443089 23:-0.3306814 24:-0.21420514 
0.1904924523833438 1:-1.8480318 2:1.5955196 3:-0.4513487 4:-0.11744416 5:1.0906687 6:-0.56993519 7:1.2908092 8:-0.50096301 9:2.3034199 10:1.6927522 11:-0.28067553 12:-0.19118631 13:-0.35496304 14:-0.2627018 15:0.84682671 16:1.6210634 17:-0.55838733 18:-0.10118519 19:1.9332974 20:-0.028873531 21:-0.49553573 22:-0.37811813 23:-0.3306814 24:-0.21420514 
0.1685968666898581 1:0.54104109 2:1.5955196 3:-0.4513487 4:-0.11744416 5:1.0906687 6:-0.56993519 7:1.2908092 8:-0.50096301 9:2.3034199 10:1.6927522 11:-0.28067553 12:-0.19118631 13:-0.35496304 14:3.8060689 15:0.84682671 16:1.6210634 17:1.7906229 18:-0.10118519 19:-0.51717917 20:-0.028873531 21:-0.49553573 22:-0.37811813 23:3.0236389 24:-0.21420514 
0.1573613163376885 1:0.54104109 2:-0.62666803 3:-0.4513487 4:-0.11744416 5:1.0906687 6:-0.56993519 7:1.2908092 8:-0.50096301 9:2.3034199 10:1.6927522 11:-0.28067553 12:-0.19118631 13:-0.35496304 14:-0.2627018 15:0.84682671 16:1.6210634 17:1.7906229 18:-0.10118519 19:1.9332974 20:-0.028873531 21:2.0177377 22:2.6443089 23:3.0236389 24:-0.21420514 
0.5 1:-1.8480318 2:-0.62666803 3:-0.4513487 4:-0.11744416 5:-0.91674143 6:-0.56993519 7:-0.77460025 8:-0.50096301 9:-0.43407681 10:-0.5906719 11:-0.28067553 12:-0.19118631 13:-0.35496304 14:-0.2627018 15:-1.1807152 16:-0.61679335 17:-0.55838733 18:-0.10118519 19:-0.51717917 20:-0.028873531 21:-0.49553573 22:-0.37811813 23:-0.3306814 24:-0.21420514 
0.5 1:0.54104109 2:-0.62666803 3:-0.4513487 4:-0.11744416 5:-0.91674143 6:-0.56993519 7:-0.77460025 8:-0.50096301 9:-0.43407681 10:-0.5906719 11:-0.28067553 12:-0.19118631 13:-0.35496304 14:-0.2627018 15:-1.1807152 16:-0.61679335 17:-0.55838733 18:-0.10118519 19:1.9332974 20:-0.028873531 21:-0.49553573 22:-0.37811813 23:-0.3306814 24:-0.21420514 
0.5 1:0.54104109 2:-0.62666803 3:2.2152742 4:-0.11744416 5:1.0906687 6:1.7543418 7:1.2908092 8:-0.50096301 9:2.3034199 10:1.6927522 11:-0.28067553 12:-0.19118631 13:-0.35496304 14:-0.2627018 15:0.84682671 16:1.6210634 17:-0.55838733 18:-0.10118519 19:-0.51717917 20:-0.028873531 21:-0.49553573 22:-0.37811813 23:-0.3306814 24:-0.21420514 
0.5 1:-1.8480318 2:-0.62666803 3:2.2152742 4:-0.11744416 5:-0.91674143 6:-0.56993519 7:-0.77460025 8:-0.50096301 9:-0.43407681 10:-0.5906719 11:-0.28067553 12:-0.19118631 13:-0.35496304 14:-0.2627018 15:0.84682671 16:1.6210634 17:1.7906229 18:-0.10118519 19:-0.51717917 20:-0.028873531 21:2.0177377 22:2.6443089 23:-0.3306814 24:-0.21420514 
0.1065016324376179 1:-1.8480318 2:1.5955196 3:-0.4513487 4:-0.11744416 5:1.0906687 6:-0.56993519 7:1.2908092 8:-0.50096301 9:-0.43407681 10:-0.5906719 11:-0.28067553 12:-0.19118631 13:2.8168035 14:-0.2627018 15:0.84682671 16:1.6210634 17:-0.55838733 18:-0.10118519 19:1.9332974 20:-0.028873531 21:-0.49553573 22:-0.37811813 23:-0.3306814 24:-0.21420514 
0.1567594746189644 1:-1.8480318 2:-0.62666803 3:-0.4513487 4:-0.11744416 5:1.0906687 6:-0.56993519 7:1.2908092 8:-0.50096301 9:2.3034199 10:1.6927522 11:-0.28067553 12:5.2297737 13:-0.35496304 14:-0.2627018 15:0.84682671 16:-0.61679335 17:-0.55838733 18:-0.10118519 19:-0.51717917 20:-0.028873531 21:-0.49553573 22:-0.37811813 23:3.0236389 24:-0.21420514 
0.1681761419271773 1:0.54104109 2:1.5955196 3:2.2152742 4:-0.11744416 5:-0.91674143 6:-0.56993519 7:-0.77460025 8:-0.50096301 9:-0.43407681 10:-0.5906719 11:-0.28067553 12:-0.19118631 13:-0.35496304 14:-0.2627018 15:0.84682671 16:1.6210634 17:-0.55838733 18:-0.10118519 19:-0.51717917 20:-0.028873531 21:2.0177377 22:-0.37811813 23:3.0236389 24:-0.21420514 
0.5 1:-1.8480318 2:-0.62666803 3:2.2152742 4:-0.11744416 5:-0.91674143 6:-0.56993519 7:-0.77460025 8:-0.50096301 9:-0.43407681 10:-0.5906719 11:-0.28067553 12:-0.19118631 13:-0.35496304 14:-0.2627018 15:-1.1807152 16:-0.61679335 17:-0.55838733 18:-0.10118519 19:-0.51717917 20:-0.028873531 21:-0.49553573 22:-0.37811813 23:-0.3306814 24:-0.21420514 
0.5 1:-1.8480318 2:-0.62666803 3:-0.4513487 4:-0.11744416 5:-0.91674143 6:-0.56993519 7:-0.77460025 8:-0.50096301 9:-0.43407681 10:-0.5906719 11:-0.28067553 12:-0.19118631 13:-0.35496304 14:-0.2627018 15:-1.1807152 16:-0.61679335 17:-0.55838733 18:-0.10118519 19:-0.51717917 20:-0.028873531 21:-0.49553573 22:-0.37811813 23:-0.3306814 24:-0.21420514 
0.5 1:0.54104109 2:-0.62666803 3:-0.4513487 4:-0.11744416 5:-0.91674143 6:-0.56993519 7:-0.77460025 8:-0.50096301 9:-0.43407681 10:-0.5906719 11:-0.28067553 12:-0.19118631 13:-0.35496304 14:-0.2627018 15:-1.1807152 16:-0.61679335 17:-0.55838733 18:-0.10118519 19:1.9332974 20:-0.028873531 21:-0.49553573 22:-0.37811813 23:-0.3306814 24:-0.21420514 
0.1695981591143686 1:0.54104109 2:-0.62666803 3:2.2152742 4:-0.11744416 5:1.0906687 6:1.7543418 7:1.2908092 8:1.9958782 9:-0.43407681 10:-0.5906719 11:3.5623381 12:-0.19118631 13:-0.35496304 14:-0.2627018 15:0.84682671 16:1.6210634 17:1.7906229 18:-0.10118519 19:-0.51717917 20:-0.028873531 21:-0.49553573 22:-0.37811813 23:-0.3306814 24:-0.21420514 
0.5 1:0.54104109 2:1.5955196 3:-0.4513487 4:-0.11744416 5:-0.91674143 6:-0.56993519 7:-0.77460025 8:-0.50096301 9:-0.43407681 10:-0.5906719 11:-0.28067553 12:-0.19118631 13:-0.35496304 14:-0.2627018 15:-1.1807152 16:-0.61679335 17:-0.55838733 18:-0.10118519 19:1.9332974 20:-0.028873531 21:-0.49553573 22:-0.37811813 23:-0.3306814 24:-0.21420514 
0.5 1:0.54104109 2:-0.62666803 3:-0.4513487 4:8.5135028 5:-0.91674143 6:-0.56993519 7:-0.77460025 8:-0.50096301 9:-0.43407681 10:-0.5906719 11:-0.28067553 12:-0.19118631 13:-0.35496304 14:-0.2627018 15:-1.1807152 16:-0.61679335 17:-0.55838733 18:-0.10118519 19:-0.51717917 20:-0.028873531 21:-0.49553573 22:-0.37811813 23:-0.3306814 24:-0.21420514 
0.5 1:-1.8480318 2:-0.62666803 3:-0.4513487 4:8.5135028 5:-0.91674143 6:-0.56993519 7:-0.77460025 8:-0.50096301 9:-0.43407681 10:-0.5906719 11:-0.28067553 12:-0.19118631 13:-0.35496304 14:-0.2627018 15:-1.1807152 16:-0.61679335 17:-0.55838733 18:-0.10118519 19:1.9332974 20:-0.028873531 21:-0.49553573 22:-0.37811813 23:-0.3306814 24:-0.21420514 
0.5 1:0.54104109 2:-0.62666803 3:-0.4513487 4:-0.11744416 5:1.0906687 6:-0.56993519 7:1.2908092 8:-0.50096301 9:2.3034199 10:1.6927522 11:-0.28067553 12:-0.19118631 13:-0.35496304 14:-0.2627018 15:0.84682671 16:-0.61679335 17:-0.55838733 18:-0.10118519 19:-0.51717917 20:-0.028873531 21:2.0177377 22:-0.37811813 23:-0.3306814 24:-0.21420514 
0.5 1:-1.8480318 2:-0.62666803 3:2.2152742 4:-0.11744416 5:1.0906687 6:1.7543418 7:1.2908092 8:-0.50096301 9:-0.43407681 10:-0.5906719 11:-0.28067553 12:-0.19118631 13:2.8168035 14:-0.2627018 15:0.84682671 16:-0.61679335 17:1.7906229 18:-0.10118519 19:-0.51717917 20:-0.028873531 21:-0.49553573 22:-0.37811813 23:-0.3306814 24:-0.21420514 
0.5 1:-1.8480318 2:-0.62666803 3:-0.4513487 4:-0.11744416 5:-0.91674143 6:-0.56993519 7:-0.77460025 8:-0.50096301 9:-0.43407681 10:-0.5906719 11:-0.28067553 12:-0.19118631 13:-0.35496304 14:-0.2627018 15:-1.1807152 16:-0.61679335 17:-0.55838733 18:-0.10118519 19:-0.51717917 20:-0.028873531 21:-0.49553573 22:-0.37811813 23:-0.3306814 24:-0.21420514 
0.1623842551864047 1:0.54104109 2:1.5955196 3:-0.4513487 4:-0.11744416 5:-0.91674143 6:-0.56993519 7:-0.77460025 8:-0.50096301 9:-0.43407681 10:-0.5906719 11:-0.28067553 12:-0.19118631 13:-0.35496304 14:-0.2627018 15:0.84682671 16:-0.61679335 17:-0.55838733 18:-0.10118519 19:1.9332974 20:-0.028873531 21:2.0177377 22:-0.37811813 23:-0.3306814 24:4.6677739 
0.1414102336170598 1:-1.8480318 2:-0.62666803 3:2.2152742 4:-0.11744416 5:1.0906687 6:-0.56993519 7:1.2908092 8:-0.50096301 9:-0.43407681 10:-0.5906719 11:-0.28067553 12:-0.19118631 13:2.8168035 14:-0.2627018 15:0.84682671 16:1.6210634 17:-0.55838733 18:-0.10118519 19:-0.51717917 20:-0.028873531 21:2.0177377 22:2.6443089 23:-0.3306814 24:-0.21420514 
0.5 1:0.54104109 2:-0.62666803 3:-0.4513487 4:-0.11744416 5:-0.91674143 6:-0.56993519 7:-0.77460025 8:-0.50096301 9:-0.43407681 10:-0.5906719 11:-0.28067553 12:-0.19118631 13:-0.35496304 14:-0.2627018 15:-1.1807152 16:-0.61679335 17:-0.55838733 18:-0.10118519 19:1.9332974 20:-0.028873531 21:-0.49553573 22:-0.37811813 23:-0.3306814 24:-0.21420514 
0.1636293153802099 1:0.54104109 2:1.5955196 3:2.2152742 4:-0.11744416 5:1.0906687 6:-0.56993519 7:1.2908092 8:-0.50096301 9:2.3034199 10:1.6927522 11:-0.28067553 12:-0.19118631 13:-0.35496304 14:-0.2627018 15:0.84682671 16:1.6210634 17:1.7906229 18:-0.10118519 19:-0.51717917 20:-0.028873531 21:-0.49553573 22:-0.37811813 23:3.0236389 24:-0.21420514 
0.1676472766058781 1:0.54104109 2:-0.62666803 3:2.2152742 4:-0.11744416 5:1.0906687 6:1.7543418 7:1.2908092 8:-0.50096301 9:2.3034199 10:1.6927522 11:-0.28067553 12:-0.19118631 13:-0.35496304 14:-0.2627018 15:0.84682671 16:-0.61679335 17:-0.55838733 18:-0.10118519 19:1.9332974 20:-0.028873531 21:-0.49553573 22:-0.37811813 23:-0.3306814 24:-0.21420514 
0.5 1:0.54104109 2:-0.62666803 3:-0.4513487 4:-0.11744416 5:-0.91674143 6:-0.56993519 7:-0.77460025 8:-0.50096301 9:-0.43407681 10:-0.5906719 11:-0.28067553 12:-0.19118631 13:-0.35496304 14:-0.2627018 15:0.84682671 16:-0.61679335 17:1.7906229 18:-0.10118519 19:-0.51717917 20:-0.028873531 21:-0.49553573 22:-0.37811813 23:-0.3306814 24:-0.21420514 
0.170469261036565 1:0.54104109 2:-0.62666803 3:-0.4513487 4:-0.11744416 5:1.0906687 6:1.7543418 7:1.2908092 8:1.9958782 9:2.3034199 10:1.6927522 11:-0.28067553 12:5.2297737 13:-0.35496304 14:3.8060689 15:0.84682671 16:-0.61679335 17:-0.55838733 18:-0.10118519 19:-0.51717917 20:-0.028873531 21:-0.49553573 22:2.6443089 23:-0.3306814 24:-0.21420514 
0.1687334715584853 1:0.54104109 2:-0.62666803 3:2.2152742 4:-0.11744416 5:1.0906687 6:1.7543418 7:-0.77460025 8:-0.50096301 9:-0.43407681 10:-0.5906719 11:-0.28067553 12:-0.19118631 13:-0.35496304 14:3.8060689 15:0.84682671 16:-0.61679335 17:-0.55838733 18:-0.10118519 19:-0.51717917 20:-0.028873531 21:2.0177377 22:-0.37811813 23:-0.3306814 24:-0.21420514 
0.13829846040429 1:0.54104109 2:1.5955196 3:-0.4513487 4:-0.11744416 5:1.0906687 6:-0.56993519 7:-0.77460025 8:-0.50096301 9:-0.43407681 10:-0.5906719 11:-0.28067553 12:-0.19118631 13:-0.35496304 14:-0.2627018 15:0.84682671 16:-0.61679335 17:1.7906229 18:-0.10118519 19:-0.51717917 20:-0.028873531 21:2.0177377 22:2.6443089 23:-0.3306814 24:-0.21420514 
0.1650222640821918 1:0.54104109 2:1.5955196 3:-0.4513487 4:-0.11744416 5:1.0906687 6:1.7543418 7:-0.77460025 8:-0.50096301 9:-0.43407681 10:-0.5906719 11:-0.28067553 12:-0.19118631 13:-0.35496304 14:-0.2627018 15:0.84682671 16:-0.61679335 17:1.7906229 18:-0.10118519 19:-0.51717917 20:-0.028873531 21:-0.49553573 22:2.6443089 23:-0.3306814 24:-0.21420514 
0.1732886770010275 1:0.54104109 2:1.5955196 3:-0.4513487 4:-0.11744416 5:-0.91674143 6:-0.56993519 7:-0.77460025 8:-0.50096301 9:-0.43407681 10:-0.5906719 11:-0.28067553 12:-0.19118631 13:-0.35496304 14:3.8060689 15:0.84682671 16:1.6210634 17:-0.55838733 18:-0.10118519 19:-0.51717917 20:-0.028873531 21:-0.49553573 22:2.6443089 23:-0.3306814 24:4.6677739 
0.1693984381511867 1:0.54104109 2:-0.62666803 3:-0.4513487 4:-0.11744416 5:1.0906687 6:-0.56993519 7:1.2908092 8:1.9958782 9:-0.43407681 10:1.6927522 11:-0.28067553 12:-0.19118631 13:2.8168035 14:-0.2627018 15:0.84682671 16:-0.61679335 17:-0.55838733 18:-0.10118519 19:-0.51717917 20:-0.028873531 21:2.0177377 22:2.6443089 23:3.0236389 24:-0.21420514 
0.1352571219094814 1:0.54104109 2:1.5955196 3:-0.4513487 4:-0.11744416 5:1.0906687 6:1.7543418 7:1.2908092 8:-0.50096301 9:2.3034199 10:1.6927522 11:-0.28067553 12:-0.19118631 13:-0.35496304 14:-0.2627018 15:0.84682671 16:1.6210634 17:-0.55838733 18:-0.10118519 19:-0.51717917 20:-0.028873531 21:-0.49553573 22:-0.37811813 23:3.0236389 24:-0.21420514 
0.5 1:0.54104109 2:-0.62666803 3:-0.4513487 4:-0.11744416 5:-0.91674143 6:-0.56993519 7:-0.77460025 8:-0.50096301 9:-0.43407681 10:-0.5906719 11:-0.28067553 12:-0.19118631 13:-0.35496304 14:3.8060689 15:0.84682671 16:-0.61679335 17:-0.55838733 18:-0.10118519 19:-0.51717917 20:-0.028873531 21:-0.49553573 22:-0.37811813 23:-0.3306814 24:-0.21420514 
0.5 1:0.54104109 2:-0.62666803 3:-0.4513487 4:-0.11744416 5:-0.91674143 6:-0.56993519 7:-0.77460025 8:-0.50096301 9:-0.43407681 10:-0.5906719 11:-0.28067553 12:-0.19118631 13:-0.35496304 14:-0.2627018 15:-1.1807152 16:-0.61679335 17:-0.55838733 18:-0.10118519 19:1.9332974 20:-0.028873531 21:-0.49553573 22:-0.37811813 23:-0.3306814 24:-0.21420514 
0.1585599332107265 1:0.54104109 2:1.5955196 3:2.2152742 4:-0.11744416 5:1.0906687 6:-0.56993519 7:1.2908092 8:-0.50096301 9:2.3034199 10:1.6927522 11:-0.28067553 12:-0.19118631 13:-0.35496304 14:-0.2627018 15:0.84682671 16:1.6210634 17:1.7906229 18:-0.10118519 19:1.9332974 20:-0.028873531 21:-0.49553573 22:-0.37811813 23:-0.3306814 24:-0.21420514 
0.1303852798172139 1:0.54104109 2:-0.62666803 3:-0.4513487 4:-0.11744416 5:1.0906687 6:1.7543418 7:1.2908092 8:-0.50096301 9:2.3034199 10:1.6927522 11:-0.28067553 12:-0.19118631 13:-0.35496304 14:-0.2627018 15:0.84682671 16:-0.61679335 17:1.7906229 18:-0.10118519 19:-0.51717917 20:-0.028873531 21:2.0177377 22:-0.37811813 23:-0.3306814 24:-0.21420514 
0.0897080368593591 1:0.54104109 2:1.5955196 3:-0.4513487 4:-0.11744416 5:1.0906687 6:-0.56993519 7:1.2908092 8:1.9958782 9:-0.43407681 10:1.6927522 11:-0.28067553 12:-0.19118631 13:-0.35496304 14:-0.2627018 15:0.84682671 16:-0.61679335 17:1.7906229 18:-0.10118519 19:-0.51717917 20:-0.028873531 21:-0.49553573 22:-0.37811813 23:-0.3306814 24:-0.21420514 
0.1706598180806841 1:-1.8480318 2:1.5955196 3:-0.4513487 4:-0.11744416 5:1.0906687 6:-0.56993519 7:1.2908092 8:1.9958782 9:2.3034199 10:1.6927522 11:3.5623381 12:-0.19118631 13:2.8168035 14:-0.2627018 15:0.84682671 16:1.6210634 17:-0.55838733 18:-0.10118519 19:-0.51717917 20:-0.028873531 21:-0.49553573 22:-0.37811813 23:-0.3306814 24:-0.21420514 
0.5 1:-1.8480318 2:1.5955196 3:-0.4513487 4:-0.11744416 5:1.0906687 6:-0.56993519 7:1.2908092 8:-0.50096301 9:2.3034199 10:1.6927522 11:-0.28067553 12:-0.19118631 13:-0.35496304 14:-0.2627018 15:0.84682671 16:-0.61679335 17:1.7906229 18:-0.10118519 19:-0.51717917 20:-0.028873531 21:-0.49553573 22:-0.37811813 23:-0.3306814 24:-0.21420514 
0.5 1:-1.8480318 2:-0.62666803 3:2.2152742 4:-0.11744416 5:1.0906687 6:-0.56993519 7:1.2908092 8:-0.50096301 9:2.3034199 10:1.6927522 11:-0.28067553 12:-0.19118631 13:-0.35496304 14:-0.2627018 15:0.84682671 16:-0.61679335 17:-0.55838733 18:-0.10118519 19:-0.51717917 20:-0.028873531 21:-0.49553573 22:-0.37811813 23:-0.3306814 24:-0.21420514 
0.5 1:0.54104109 2:-0.62666803 3:-0.4513487 4:-0.11744416 5:-0.91674143 6:-0.56993519 7:-0.77460025 8:-0.50096301 9:-0.43407681 10:-0.5906719 11:-0.28067553 12:-0.19118631 13:-0.35496304 14:-0.2627018 15:-1.1807152 16:-0.61679335 17:-0.55838733 18:-0.10118519 19:1.9332974 20:-0.028873531 21:-0.49553573 22:-0.37811813 23:-0.3306814 24:-0.21420514 
0.1560358929123332 1:0.54104109 2:1.5955196 3:2.2152742 4:-0.11744416 5:1.0906687 6:1.7543418 7:-0.77460025 8:-0.50096301 9:-0.43407681 10:-0.5906719 11:-0.28067553 12:-0.19118631 13:-0.35496304 14:-0.2627018 15:0.84682671 16:1.6210634 17:-0.55838733 18:-0.10118519 19:-0.51717917 20:-0.028873531 21:2.0177377 22:2.6443089 23:-0.3306814 24:-0.21420514 
0.2099034606722054 1:0.54104109 2:-0.62666803 3:-0.4513487 4:-0.11744416 5:1.0906687 6:-0.56993519 7:1.2908092 8:-0.50096301 9:2.3034199 10:1.6927522 11:-0.28067553 12:-0.19118631 13:-0.35496304 14:3.8060689 15:0.84682671 16:1.6210634 17:-0.55838733 18:-0.10118519 19:-0.51717917 20:-0.028873531 21:-0.49553573 22:2.6443089 23:-0.3306814 24:-0.21420514 
0.1703140477424592 1:0.54104109 2:1.5955196 3:-0.4513487 4:-0.11744416 5:1.0906687 6:1.7543418 7:1.2908092 8:1.9958782 9:-0.43407681 10:-0.5906719 11:-0.28067553 12:5.2297737 13:-0.35496304 14:-0.2627018 15:0.84682671 16:1.6210634 17:1.7906229 18:-0.10118519 19:1.9332974 20:-0.028873531 21:2.0177377 22:2.6443089 23:-0.3306814 24:-0.21420514 
0.5 1:0.54104109 2:-0.62666803 3:-0.4513487 4:-0.11744416 5:-0.91674143 6:-0.56993519 7:-0.77460025 8:-0.50096301 9:-0.43407681 10:-0.5906719 11:-0.28067553 12:-0.19118631 13:-0.35496304 14:-0.2627018 15:0.84682671 16:-0.61679335 17:1.7906229 18:-0.10118519 19:-0.51717917 20:-0.028873531 21:-0.49553573 22:-0.37811813 23:-0.3306814 24:-0.21420514 
0.5 1:-1.8480318 2:-0.62666803 3:2.2152742 4:-0.11744416 5:-0.91674143 6:-0.56993519 7:-0.77460025 8:-0.50096301 9:-0.43407681 10:-0.5906719 11:-0.28067553 12:-0.19118631 13:-0.35496304 14:-0.2627018 15:-1.1807152 16:-0.61679335 17:-0.55838733 18:-0.10118519 19:-0.51717917 20:-0.028873531 21:-0.49553573 22:-0.37811813 23:-0.3306814 24:-0.21420514 
0.5 1:-1.8480318 2:1.5955196 3:2.2152742 4:-0.11744416 5:-0.91674143 6:-0.56993519 7:-0.77460025 8:-0.50096301 9:-0.43407681 10:-0.5906719 11:-0.28067553 12:-0.19118631 13:-0.35496304 14:-0.2627018 15:-1.1807152 16:-0.61679335 17:-0.55838733 18:-0.10118519 19:-0.51717917 20:-0.028873531 21:-0.49553573 22:-0.37811813 23:-0.3306814 24:-0.21420514 
0.5 1:-1.8480318 2:-0.62666803 3:2.2152742 4:-0.11744416 5:-0.91674143 6:-0.56993519 7:-0.77460025 8:-0.50096301 9:-0.43407681 10:-0.5906719 11:-0.28067553 12:-0.19118631 13:-0.35496304 14:-0.2627018 15:-1.1807152 16:-0.61679335 17:-0.55838733 18:-0.10118519 19:-0.51717917 20:-0.028873531 21:-0.49553573 22:-0.37811813 23:-0.3306814 24:-0.21420514 
0.5 1:0.54104109 2:-0.62666803 3:2.2152742 4:-0.11744416 5:-0.91674143 6:-0.56993519 7:-0.77460025 8:-0.50096301 9:-0.43407681 10:-0.5906719 11:-0.28067553 12:-0.19118631 13:-0.35496304 14:-0.2627018 15:-1.1807152 16:-0.61679335 17:-0.55838733 18:-0.10118519 19:1.9332974 20:-0.028873531 21:-0.49553573 22:-0.37811813 23:-0.3306814 24:-0.21420514 
0.1512825657810176 1:0.54104109 2:-0.62666803 3:-0.4513487 4:-0.11744416 5:1.0906687 6:-0.56993519 7:1.2908092 8:-0.50096301 9:2.3034199 10:1.6927522 11:-0.28067553 12:-0.19118631 13:2.8168035 14:-0.2627018 15:0.84682671 16:1.6210634 17:-0.55838733 18:-0.10118519 19:-0.51717917 20:-0.028873531 21:2.0177377 22:-0.37811813 23:3.0236389 24:-0.21420514 
0.5 1:0.54104109 2:-0.62666803 3:-0.4513487 4:-0.11744416 5:-0.91674143 6:-0.56993519 7:-0.77460025 8:-0.50096301 9:-0.43407681 10:-0.5906719 11:-0.28067553 12:-0.19118631 13:-0.35496304 14:-0.2627018 15:-1.1807152 16:-0.61679335 17:-0.55838733 18:-0.10118519 19:1.9332974 20:-0.028873531 21:-0.49553573 22:-0.37811813 23:-0.3306814 24:-0.21420514 
0.0860121746510988 1:0.54104109 2:-0.62666803 3:-0.4513487 4:-0.11744416 5:-0.91674143 6:-0.56993519 7:-0.77460025 8:-0.50096301 9:-0.43407681 10:-0.5906719 11:-0.28067553 12:-0.19118631 13:-0.35496304 14:-0.2627018 15:0.84682671 16:-0.61679335 17:-0.55838733 18:-0.10118519 19:1.9332974 20:-0.028873531 21:-0.49553573 22:-0.37811813 23:-0.3306814 24:-0.21420514 
0.5 1:0.54104109 2:1.5955196 3:-0.4513487 4:-0.11744416 5:-0.91674143 6:-0.56993519 7:-0.77460025 8:-0.50096301 9:-0.43407681 10:-0.5906719 11:-0.28067553 12:-0.19118631 13:-0.35496304 14:-0.2627018 15:0.84682671 16:-0.61679335 17:1.7906229 18:-0.10118519 19:1.9332974 20:-0.028873531 21:-0.49553573 22:-0.37811813 23:-0.3306814 24:-0.21420514 
0.1560990878973463 1:0.54104109 2:1.5955196 3:2.2152742 4:-0.11744416 5:1.0906687 6:1.7543418 7:1.2908092 8:1.9958782 9:-0.43407681 10:1.6927522 11:-0.28067553 12:-0.19118631 13:-0.35496304 14:-0.2627018 15:0.84682671 16:-0.61679335 17:1.7906229 18:-0.10118519 19:-0.51717917 20:-0.028873531 21:-0.49553573 22:-0.37811813 23:-0.3306814 24:-0.21420514 
0.1717088527996737 1:0.54104109 2:1.5955196 3:-0.4513487 4:-0.11744416 5:1.0906687 6:-0.56993519 7:1.2908092 8:-0.50096301 9:2.3034199 10:1.6927522 11:-0.28067553 12:-0.19118631 13:-0.35496304 14:3.8060689 15:0.84682671 16:-0.61679335 17:1.7906229 18:-0.10118519 19:1.9332974 20:-0.028873531 21:2.0177377 22:2.6443089 23:-0.3306814 24:-0.21420514 
0.2035235218336736 1:0.54104109 2:-0.62666803 3:2.2152742 4:-0.11744416 5:1.0906687 6:-0.56993519 7:1.2908092 8:1.9958782 9:-0.43407681 10:1.6927522 11:3.5623381 12:-0.19118631 13:-0.35496304 14:-0.2627018 15:0.84682671 16:-0.61679335 17:1.7906229 18:-0.10118519 19:-0.51717917 20:-0.028873531 21:-0.49553573 22:-0.37811813 23:-0.3306814 24:-0.21420514 
0.1708759020858145 1:0.54104109 2:-0.62666803 3:-0.4513487 4:-0.11744416 5:1.0906687 6:1.7543418 7:1.2908092 8:1.9958782 9:2.3034199 10:1.6927522 11:3.5623381 12:-0.19118631 13:-0.35496304 14:3.8060689 15:0.84682671 16:1.6210634 17:1.7906229 18:-0.10118519 19:-0.51717917 20:-0.028873531 21:2.0177377 22:-0.37811813 23:-0.3306814 24:-0.21420514 
0.1278371289427372 1:0.54104109 2:1.5955196 3:-0.4513487 4:-0.11744416 5:1.0906687 6:1.7543418 7:1.2908092 8:1.9958782 9:-0.43407681 10:1.6927522 11:-0.28067553 12:-0.19118631 13:-0.35496304 14:-0.2627018 15:0.84682671 16:1.6210634 17:1.7906229 18:-0.10118519 19:1.9332974 20:-0.028873531 21:2.0177377 22:-0.37811813 23:-0.3306814 24:-0.21420514 
0.1728618849378505 1:-1.8480318 2:1.5955196 3:-0.4513487 4:-0.11744416 5:1.0906687 6:1.7543418 7:1.2908092 8:1.9958782 9:-0.43407681 10:-0.5906719 11:3.5623381 12:-0.19118631 13:-0.35496304 14:-0.2627018 15:0.84682671 16:1.6210634 17:1.7906229 18:-0.10118519 19:-0.51717917 20:-0.028873531 21:2.0177377 22:2.6443089 23:-0.3306814 24:-0.21420514 
0.5 1:0.54104109 2:1.5955196 3:-0.4513487 4:-0.11744416 5:-0.91674143 6:-0.56993519 7:-0.77460025 8:-0.50096301 9:-0.43407681 10:-0.5906719 11:-0.28067553 12:-0.19118631 13:-0.35496304 14:-0.2627018 15:0.84682671 16:1.6210634 17:-0.55838733 18:-0.10118519 19:-0.51717917 20:-0.028873531 21:2.0177377 22:-0.37811813 23:-0.3306814 24:-0.21420514 
0.1178343077559147 1:0.54104109 2:-0.62666803 3:-0.4513487 4:-0.11744416 5:1.0906687 6:1.7543418 7:1.2908092 8:1.9958782 9:-0.43407681 10:1.6927522 11:-0.28067553 12:-0.19118631 13:-0.35496304 14:-0.2627018 15:0.84682671 16:1.6210634 17:1.7906229 18:-0.10118519 19:-0.51717917 20:-0.028873531 21:-0.49553573 22:-0.37811813 23:-0.3306814 24:-0.21420514 
0.1381100257906429 1:0.54104109 2:-0.62666803 3:-0.4513487 4:-0.11744416 5:1.0906687 6:1.7543418 7:1.2908092 8:1.9958782 9:2.3034199 10:1.6927522 11:-0.28067553 12:-0.19118631 13:-0.35496304 14:-0.2627018 15:0.84682671 16:1.6210634 17:1.7906229 18:-0.10118519 19:-0.51717917 20:-0.028873531 21:-0.49553573 22:-0.37811813 23:-0.3306814 24:-0.21420514 
0.1602638107606242 1:0.54104109 2:-0.62666803 3:2.2152742 4:-0.11744416 5:1.0906687 6:1.7543418 7:1.2908092 8:-0.50096301 9:2.3034199 10:1.6927522 11:-0.28067553 12:-0.19118631 13:2.8168035 14:-0.2627018 15:0.84682671 16:1.6210634 17:-0.55838733 18:-0.10118519 19:-0.51717917 20:-0.028873531 21:2.0177377 22:-0.37811813 23:-0.3306814 24:4.6677739 
0.1276682546930017 1:0.54104109 2:1.5955196 3:-0.4513487 4:-0.11744416 5:1.0906687 6:1.7543418 7:1.2908092 8:1.9958782 9:-0.43407681 10:1.6927522 11:-0.28067553 12:-0.19118631 13:-0.35496304 14:-0.2627018 15:0.84682671 16:-0.61679335 17:-0.55838733 18:-0.10118519 19:1.9332974 20:-0.028873531 21:-0.49553573 22:-0.37811813 23:3.0236389 24:-0.21420514 
0.1695618662536549 1:0.54104109 2:-0.62666803 3:-0.4513487 4:-0.11744416 5:1.0906687 6:1.7543418 7:-0.77460025 8:-0.50096301 9:-0.43407681 10:-0.5906719 11:-0.28067553 12:-0.19118631 13:-0.35496304 14:-0.2627018 15:0.84682671 16:-0.61679335 17:-0.55838733 18:9.8814966 19:-0.51717917 20:-0.028873531 21:-0.49553573 22:-0.37811813 23:3.0236389 24:-0.21420514 
0.182234654116467 1:0.54104109 2:-0.62666803 3:2.2152742 4:-0.11744416 5:1.0906687 6:1.7543418 7:1.2908092 8:1.9958782 9:2.3034199 10:1.6927522 11:-0.28067553 12:-0.19118631 13:-0.35496304 14:-0.2627018 15:0.84682671 16:1.6210634 17:1.7906229 18:-0.10118519 19:-0.51717917 20:-0.028873531 21:2.0177377 22:2.6443089 23:3.0236389 24:-0.21420514 
0.1330141517179579 1:0.54104109 2:-0.62666803 3:-0.4513487 4:-0.11744416 5:1.0906687 6:1.7543418 7:1.2908092 8:-0.50096301 9:2.3034199 10:1.6927522 11:-0.28067553 12:-0.19118631 13:-0.35496304 14:-0.2627018 15:0.84682671 16:1.6210634 17:1.7906229 18:-0.10118519 19:-0.51717917 20:-0.028873531 21:2.0177377 22:-0.37811813 23:3.0236389 24:-0.21420514 
0.1634808364973803 1:0.54104109 2:1.5955196 3:-0.4513487 4:-0.11744416 5:1.0906687 6:1.7543418 7:1.2908092 8:1.9958782 9:2.3034199 10:1.6927522 11:3.5623381 12:-0.19118631 13:-0.35496304 14:-0.2627018 15:0.84682671 16:-0.61679335 17:-0.55838733 18:-0.10118519 19:1.9332974 20:-0.028873531 21:-0.49553573 22:-0.37811813 23:-0.3306814 24:-0.21420514 
0.5 1:0.54104109 2:1.5955196 3:-0.4513487 4:-0.11744416 5:-0.91674143 6:-0.56993519 7:-0.77460025 8:-0.50096301 9:-0.43407681 10:-0.5906719 11:-0.28067553 12:-0.19118631 13:-0.35496304 14:-0.2627018 15:-1.1807152 16:-0.61679335 17:-0.55838733 18:-0.10118519 19:1.9332974 20:-0.028873531 21:-0.49553573 22:-0.37811813 23:-0.3306814 24:-0.21420514 
0.1752804885134102 1:0.54104109 2:1.5955196 3:2.2152742 4:-0.11744416 5:1.0906687 6:-0.56993519 7:1.2908092 8:1.9958782 9:2.3034199 10:1.6927522 11:-0.28067553 12:-0.19118631 13:-0.35496304 14:-0.2627018 15:0.84682671 16:1.6210634 17:1.7906229 18:-0.10118519 19:-0.51717917 20:-0.028873531 21:-0.49553573 22:-0.37811813 23:-0.3306814 24:-0.21420514 
0.1311916650217218 1:-1.8480318 2:-0.62666803 3:2.2152742 4:-0.11744416 5:1.0906687 6:-0.56993519 7:1.2908092 8:1.9958782 9:-0.43407681 10:1.6927522 11:-0.28067553 12:-0.19118631 13:-0.35496304 14:-0.2627018 15:0.84682671 16:1.6210634 17:-0.55838733 18:-0.10118519 19:-0.51717917 20:-0.028873531 21:2.0177377 22:-0.37811813 23:-0.3306814 24:-0.21420514 
0.1741719225384238 1:-1.8480318 2:-0.62666803 3:2.2152742 4:-0.11744416 5:1.0906687 6:1.7543418 7:1.2908092 8:1.9958782 9:2.3034199 10:-0.5906719 11:3.5623381 12:5.2297737 13:-0.35496304 14:-0.2627018 15:0.84682671 16:-0.61679335 17:-0.55838733 18:-0.10118519 19:-0.51717917 20:-0.028873531 21:-0.49553573 22:-0.37811813 23:-0.3306814 24:-0.21420514 
0.5 1:-1.8480318 2:-0.62666803 3:2.2152742 4:-0.11744416 5:-0.91674143 6:-0.56993519 7:-0.77460025 8:-0.50096301 9:-0.43407681 10:-0.5906719 11:-0.28067553 12:-0.19118631 13:-0.35496304 14:-0.2627018 15:-1.1807152 16:-0.61679335 17:-0.55838733 18:-0.10118519 19:-0.51717917 20:-0.028873531 21:-0.49553573 22:-0.37811813 23:-0.3306814 24:-0.21420514 
0.2073495444148191 1:0.54104109 2:-0.62666803 3:-0.4513487 4:-0.11744416 5:1.0906687 6:1.7543418 7:1.2908092 8:-0.50096301 9:2.3034199 10:1.6927522 11:-0.28067553 12:-0.19118631 13:-0.35496304 14:-0.2627018 15:0.84682671 16:1.6210634 17:-0.55838733 18:-0.10118519 19:-0.51717917 20:-0.028873531 21:2.0177377 22:2.6443089 23:-0.3306814 24:-0.21420514 
0.1676964881570906 1:0.54104109 2:-0.62666803 3:2.2152742 4:-0.11744416 5:1.0906687 6:1.7543418 7:1.2908092 8:1.9958782 9:-0.43407681 10:1.6927522 11:3.5623381 12:-0.19118631 13:-0.35496304 14:-0.2627018 15:0.84682671 16:1.6210634 17:-0.55838733 18:-0.10118519 19:-0.51717917 20:-0.028873531 21:2.0177377 22:2.6443089 23:-0.3306814 24:-0.21420514 
0.1268895719433011 1:0.54104109 2:1.5955196 3:-0.4513487 4:-0.11744416 5:1.0906687 6:1.7543418 7:1.2908092 8:-0.50096301 9:2.3034199 10:1.6927522 11:-0.28067553 12:-0.19118631 13:-0.35496304 14:-0.2627018 15:0.84682671 16:-0.61679335 17:1.7906229 18:-0.10118519 19:-0.51717917 20:-0.028873531 21:2.0177377 22:-0.37811813 23:-0.3306814 24:-0.21420514 
0.1573144915663252 1:0.54104109 2:1.5955196 3:-0.4513487 4:-0.11744416 5:1.0906687 6:-0.56993519 7:1.2908092 8:-0.50096301 9:2.3034199 10:1.6927522 11:-0.28067553 12:-0.19118631 13:-0.35496304 14:3.8060689 15:0.84682671 16:-0.61679335 17:1.7906229 18:-0.10118519 19:-0.51717917 20:-0.028873531 21:2.0177377 22:2.6443089 23:3.0236389 24:-0.21420514 
0.1627555681645412 1:-1.8480318 2:-0.62666803 3:-0.4513487 4:-0.11744416 5:1.0906687 6:-0.56993519 7:1.2908092 8:-0.50096301 9:-0.43407681 10:-0.5906719 11:-0.28067553 12:-0.19118631 13:2.8168035 14:-0.2627018 15:0.84682671 16:1.6210634 17:1.7906229 18:-0.10118519 19:1.9332974 20:-0.028873531 21:-0.49553573 22:2.6443089 23:-0.3306814 24:-0.21420514 
0.5 1:0.54104109 2:-0.62666803 3:-0.4513487 4:-0.11744416 5:1.0906687 6:1.7543418 7:-0.77460025 8:-0.50096301 9:-0.43407681 10:-0.5906719 11:-0.28067553 12:-0.19118631 13:-0.35496304 14:3.8060689 15:0.84682671 16:1.6210634 17:-0.55838733 18:-0.10118519 19:-0.51717917 20:-0.028873531 21:-0.49553573 22:-0.37811813 23:-0.3306814 24:-0.21420514 
0.1908498239813646 1:0.54104109 2:1.5955196 3:-0.4513487 4:-0.11744416 5:1.0906687 6:1.7543418 7:1.2908092 8:1.9958782 9:2.3034199 10:1.6927522 11:-0.28067553 12:-0.19118631 13:2.8168035 14:-0.2627018 15:0.84682671 16:1.6210634 17:1.7906229 18:-0.10118519 19:1.9332974 20:-0.028873531 21:2.0177377 22:2.6443089 23:-0.3306814 24:-0.21420514 
0.2045230206086159 1:0.54104109 2:1.5955196 3:-0.4513487 4:-0.11744416 5:1.0906687 6:1.7543418 7:1.2908092 8:1.9958782 9:2.3034199 10:1.6927522 11:-0.28067553 12:-0.19118631 13:2.8168035 14:-0.2627018 15:0.84682671 16:1.6210634 17:1.7906229 18:-0.10118519 19:-0.51717917 20:-0.028873531 21:-0.49553573 22:2.6443089 23:-0.3306814 24:-0.21420514 
0.5 1:-1.8480318 2:-0.62666803 3:2.2152742 4:-0.11744416 5:1.0906687 6:1.7543418 7:-0.77460025 8:-0.50096301 9:-0.43407681 10:-0.5906719 11:-0.28067553 12:-0.19118631 13:-0.35496304 14:-0.2627018 15:0.84682671 16:-0.61679335 17:1.7906229 18:-0.10118519 19:-0.51717917 20:-0.028873531 21:-0.49553573 22:-0.37811813 23:-0.3306814 24:-0.21420514 
0.1696641980951743 1:0.54104109 2:1.5955196 3:-0.4513487 4:-0.11744416 5:1.0906687 6:1.7543418 7:1.2908092 8:-0.50096301 9:2.3034199 10:1.6927522 11:-0.28067553 12:-0.19118631 13:2.8168035 14:3.8060689 15:0.84682671 16:1.6210634 17:1.7906229 18:-0.10118519 19:1.9332974 20:-0.028873531 21:2.0177377 22:2.6443089 23:3.0236389 24:4.6677739 
0.2391598574543907 1:0.54104109 2:-0.62666803 3:-0.4513487 4:-0.11744416 5:1.0906687 6:-0.56993519 7:1.2908092 8:-0.50096301 9:2.3034199 10:1.6927522 11:-0.28067553 12:-0.19118631 13:-0.35496304 14:-0.2627018 15:0.84682671 16:-0.61679335 17:-0.55838733 18:-0.10118519 19:-0.51717917 20:-0.028873531 21:-0.49553573 22:-0.37811813 23:-0.3306814 24:-0.21420514 
0.1701702467667802 1:0.54104109 2:-0.62666803 3:-0.4513487 4:-0.11744416 5:-0.91674143 6:-0.56993519 7:-0.77460025 8:-0.50096301 9:-0.43407681 10:-0.5906719 11:-0.28067553 12:-0.19118631 13:-0.35496304 14:-0.2627018 15:0.84682671 16:1.6210634 17:-0.55838733 18:-0.10118519 19:-0.51717917 20:-0.028873531 21:2.0177377 22:-0.37811813 23:-0.3306814 24:4.6677739 
0.1684630832998403 1:0.54104109 2:1.5955196 3:-0.4513487 4:-0.11744416 5:1.0906687 6:1.7543418 7:1.2908092 8:-0.50096301 9:2.3034199 10:1.6927522 11:-0.28067553 12:5.2297737 13:2.8168035 14:-0.2627018 15:0.84682671 16:1.6210634 17:1.7906229 18:-0.10118519 19:-0.51717917 20:-0.028873531 21:2.0177377 22:2.6443089 23:3.0236389 24:-0.21420514 
0.5 1:-1.8480318 2:-0.62666803 3:2.2152742 4:-0.11744416 5:-0.91674143 6:-0.56993519 7:-0.77460025 8:-0.50096301 9:-0.43407681 10:-0.5906719 11:-0.28067553 12:-0.19118631 13:-0.35496304 14:-0.2627018 15:-1.1807152 16:-0.61679335 17:-0.55838733 18:-0.10118519 19:-0.51717917 20:-0.028873531 21:-0.49553573 22:-0.37811813 23:-0.3306814 24:-0.21420514 
0.2129373983583789 1:0.54104109 2:-0.62666803 3:-0.4513487 4:-0.11744416 5:1.0906687 6:1.7543418 7:1.2908092 8:-0.50096301 9:2.3034199 10:1.6927522 11:-0.28067553 12:5.2297737 13:-0.35496304 14:-0.2627018 15:0.84682671 16:-0.61679335 17:1.7906229 18:-0.10118519 19:-0.51717917 20:-0.028873531 21:2.0177377 22:2.6443089 23:3.0236389 24:-0.21420514 
0.5 1:0.54104109 2:1.5955196 3:-0.4513487 4:-0.11744416 5:1.0906687 6:1.7543418 7:1.2908092 8:-0.50096301 9:-0.43407681 10:-0.5906719 11:-0.28067553 12:-0.19118631 13:2.8168035 14:-0.2627018 15:0.84682671 16:1.6210634 17:1.7906229 18:-0.10118519 19:-0.51717917 20:-0.028873531 21:-0.49553573 22:-0.37811813 23:-0.3306814 24:-0.21420514 
0.1679064376360834 1:0.54104109 2:1.5955196 3:-0.4513487 4:-0.11744416 5:1.0906687 6:1.7543418 7:1.2908092 8:-0.50096301 9:2.3034199 10:1.6927522 11:-0.28067553 12:5.2297737 13:-0.35496304 14:-0.2627018 15:0.84682671 16:1.6210634 17:1.7906229 18:-0.10118519 19:-0.51717917 20:-0.028873531 21:2.0177377 22:-0.37811813 23:3.0236389 24:-0.21420514 
0.137580531788471 1:-1.8480318 2:-0.62666803 3:-0.4513487 4:-0.11744416 5:1.0906687 6:-0.56993519 7:1.2908092 8:-0.50096301 9:-0.43407681 10:-0.5906719 11:-0.28067553 12:-0.19118631 13:2.8168035 14:-0.2627018 15:0.84682671 16:1.6210634 17:1.7906229 18:-0.10118519 19:-0.51717917 20:-0.028873531 21:-0.49553573 22:2.6443089 23:-0.3306814 24:-0.21420514 
0.1703553079530814 1:0.54104109 2:-0.62666803 3:-0.4513487 4:-0.11744416 5:1.0906687 6:1.7543418 7:1.2908092 8:1.9958782 9:2.3034199 10:1.6927522 11:-0.28067553 12:-0.19118631 13:-0.35496304 14:3.8060689 15:0.84682671 16:1.6210634 17:1.7906229 18:-0.10118519 19:1.9332974 20:-0.028873531 21:-0.49553573 22:2.6443089 23:-0.3306814 24:4.6677739 
0.1735992166758042 1:0.54104109 2:1.5955196 3:-0.4513487 4:-0.11744416 5:1.0906687 6:1.7543418 7:1.2908092 8:1.9958782 9:-0.43407681 10:1.6927522 11:-0.28067553 12:-0.19118631 13:2.8168035 14:-0.2627018 15:0.84682671 16:1.6210634 17:1.7906229 18:-0.10118519 19:1.9332974 20:-0.028873531 21:2.0177377 22:2.6443089 23:-0.3306814 24:4.6677739 
0.1689193078148888 1:-1.8480318 2:-0.62666803 3:-0.4513487 4:-0.11744416 5:1.0906687 6:-0.56993519 7:1.2908092 8:-0.50096301 9:2.3034199 10:1.6927522 11:-0.28067553 12:5.2297737 13:-0.35496304 14:-0.2627018 15:0.84682671 16:1.6210634 17:-0.55838733 18:-0.10118519 19:-0.51717917 20:-0.028873531 21:-0.49553573 22:-0.37811813 23:-0.3306814 24:-0.21420514 
0.5 1:0.54104109 2:-0.62666803 3:-0.4513487 4:-0.11744416 5:1.0906687 6:1.7543418 7:1.2908092 8:1.9958782 9:2.3034199 10:1.6927522 11:-0.28067553 12:-0.19118631 13:2.8168035 14:-0.2627018 15:0.84682671 16:1.6210634 17:-0.55838733 18:-0.10118519 19:-0.51717917 20:-0.028873531 21:2.0177377 22:2.6443089 23:-0.3306814 24:-0.21420514 
0.1386792701542661 1:0.54104109 2:1.5955196 3:-0.4513487 4:-0.11744416 5:1.0906687 6:-0.56993519 7:1.2908092 8:-0.50096301 9:2.3034199 10:1.6927522 11:-0.28067553 12:-0.19118631 13:-0.35496304 14:-0.2627018 15:0.84682671 16:-0.61679335 17:-0.55838733 18:-0.10118519 19:-0.51717917 20:-0.028873531 21:-0.49553573 22:-0.37811813 23:3.0236389 24:-0.21420514 
0.5 1:0.54104109 2:-0.62666803 3:-0.4513487 4:-0.11744416 5:1.0906687 6:1.7543418 7:1.2908092 8:-0.50096301 9:2.3034199 10:1.6927522 11:-0.28067553 12:-0.19118631 13:-0.35496304 14:3.8060689 15:0.84682671 16:1.6210634 17:1.7906229 18:-0.10118519 19:-0.51717917 20:-0.028873531 21:2.0177377 22:2.6443089 23:3.0236389 24:-0.21420514 
0.5 1:-1.8480318 2:-0.62666803 3:2.2152742 4:-0.11744416 5:-0.91674143 6:-0.56993519 7:-0.77460025 8:-0.50096301 9:-0.43407681 10:-0.5906719 11:-0.28067553 12:-0.19118631 13:-0.35496304 14:-0.2627018 15:-1.1807152 16:-0.61679335 17:-0.55838733 18:-0.10118519 19:-0.51717917 20:-0.028873531 21:-0.49553573 22:-0.37811813 23:-0.3306814 24:-0.21420514 
0.5 1:0.54104109 2:-0.62666803 3:-0.4513487 4:-0.11744416 5:-0.91674143 6:-0.56993519 7:-0.77460025 8:-0.50096301 9:-0.43407681 10:-0.5906719 11:-0.28067553 12:-0.19118631 13:-0.35496304 14:-0.2627018 15:0.84682671 16:1.6210634 17:-0.55838733 18:-0.10118519 19:-0.51717917 20:-0.028873531 21:2.0177377 22:-0.37811813 23:-0.3306814 24:-0.21420514 
0.1549738945313869 1:0.54104109 2:-0.62666803 3:2.2152742 4:-0.11744416 5:1.0906687 6:-0.56993519 7:1.2908092 8:-0.50096301 9:2.3034199 10:1.6927522 11:-0.28067553 12:-0.19118631 13:2.8168035 14:-0.2627018 15:0.84682671 16:1.6210634 17:-0.55838733 18:-0.10118519 19:-0.51717917 20:-0.028873531 21:-0.49553573 22:-0.37811813 23:3.0236389 24:-0.21420514 
0.1656265054264464 1:0.54104109 2:-0.62666803 3:-0.4513487 4:-0.11744416 5:1.0906687 6:-0.56993519 7:1.2908092 8:-0.50096301 9:2.3034199 10:1.6927522 11:-0.28067553 12:-0.19118631 13:-0.35496304 14:-0.2627018 15:0.84682671 16:1.6210634 17:-0.55838733 18:-0.10118519 19:1.9332974 20:-0.028873531 21:-0.49553573 22:-0.37811813 23:-0.3306814 24:-0.21420514 
0.5 1:0.54104109 2:1.5955196 3:-0.4513487 4:-0.11744416 5:-0.91674143 6:-0.56993519 7:-0.77460025 8:-0.50096301 9:-0.43407681 10:-0.5906719 11:-0.28067553 12:-0.19118631 13:-0.35496304 14:-0.2627018 15:0.84682671 16:-0.61679335 17:1.7906229 18:-0.10118519 19:1.9332974 20:-0.028873531 21:-0.49553573 22:-0.37811813 23:-0.3306814 24:-0.21420514 
0.1545213917772755 1:0.54104109 2:1.5955196 3:-0.4513487 4:-0.11744416 5:1.0906687 6:1.7543418 7:1.2908092 8:1.9958782 9:-0.43407681 10:1.6927522 11:3.5623381 12:-0.19118631 13:-0.35496304 14:-0.2627018 15:0.84682671 16:-0.61679335 17:-0.55838733 18:-0.10118519 19:-0.51717917 20:-0.028873531 21:-0.49553573 22:-0.37811813 23:-0.3306814 24:-0.21420514 
0.1613579054328472 1:-1.8480318 2:1.5955196 3:-0.4513487 4:-0.11744416 5:1.0906687 6:-0.56993519 7:1.2908092 8:1.9958782 9:2.3034199 10:-0.5906719 11:3.5623381 12:5.2297737 13:-0.35496304 14:-0.2627018 15:0.84682671 16:1.6210634 17:1.7906229 18:-0.10118519 19:-0.51717917 20:-0.028873531 21:-0.49553573 22:-0.37811813 23:-0.3306814 24:-0.21420514 
0.13345768862961 1:0.54104109 2:1.5955196 3:2.2152742 4:-0.11744416 5:-0.91674143 6:-0.56993519 7:-0.77460025 8:-0.50096301 9:-0.43407681 10:-0.5906719 11:-0.28067553 12:-0.19118631 13:-0.35496304 14:-0.2627018 15:0.84682671 16:1.6210634 17:1.7906229 18:-0.10118519 19:-0.51717917 20:-0.028873531 21:2.0177377 22:2.6443089 23:-0.3306814 24:-0.21420514 
0.1380844505505716 1:-1.8480318 2:1.5955196 3:2.2152742 4:-0.11744416 5:1.0906687 6:-0.56993519 7:1.2908092 8:1.9958782 9:-0.43407681 10:-0.5906719 11:3.5623381 12:-0.19118631 13:-0.35496304 14:-0.2627018 15:0.84682671 16:1.6210634 17:1.7906229 18:-0.10118519 19:-0.51717917 20:-0.028873531 21:-0.49553573 22:-0.37811813 23:3.0236389 24:-0.21420514 
0.5 1:0.54104109 2:1.5955196 3:-0.4513487 4:-0.11744416 5:-0.91674143 6:-0.56993519 7:-0.77460025 8:-0.50096301 9:-0.43407681 10:-0.5906719 11:-0.28067553 12:-0.19118631 13:-0.35496304 14:-0.2627018 15:-1.1807152 16:-0.61679335 17:-0.55838733 18:-0.10118519 19:1.9332974 20:-0.028873531 21:-0.49553573 22:-0.37811813 23:-0.3306814 24:-0.21420514 
0.5 1:0.54104109 2:-0.62666803 3:-0.4513487 4:-0.11744416 5:-0.91674143 6:-0.56993519 7:-0.77460025 8:-0.50096301 9:-0.43407681 10:-0.5906719 11:-0.28067553 12:-0.19118631 13:-0.35496304 14:-0.2627018 15:0.84682671 16:-0.61679335 17:1.7906229 18:-0.10118519 19:-0.51717917 20:-0.028873531 21:-0.49553573 22:-0.37811813 23:-0.3306814 24:-0.21420514 
0.2088002581334133 1:-1.8480318 2:1.5955196 3:2.2152742 4:-0.11744416 5:1.0906687 6:1.7543418 7:1.2908092 8:-0.50096301 9:2.3034199 10:1.6927522 11:-0.28067553 12:-0.19118631 13:-0.35496304 14:-0.2627018 15:0.84682671 16:1.6210634 17:1.7906229 18:-0.10118519 19:-0.51717917 20:-0.028873531 21:-0.49553573 22:-0.37811813 23:-0.3306814 24:-0.21420514 
0.5 1:-1.8480318 2:-0.62666803 3:2.2152742 4:-0.11744416 5:-0.91674143 6:-0.56993519 7:-0.77460025 8:-0.50096301 9:-0.43407681 10:-0.5906719 11:-0.28067553 12:-0.19118631 13:-0.35496304 14:-0.2627018 15:-1.1807152 16:-0.61679335 17:-0.55838733 18:-0.10118519 19:-0.51717917 20:-0.028873531 21:-0.49553573 22:-0.37811813 23:-0.3306814 24:-0.21420514 
0.5 1:-1.8480318 2:-0.62666803 3:-0.4513487 4:-0.11744416 5:1.0906687 6:-0.56993519 7:1.2908092 8:-0.50096301 9:2.3034199 10:1.6927522 11:-0.28067553 12:-0.19118631 13:-0.35496304 14:-0.2627018 15:0.84682671 16:-0.61679335 17:-0.55838733 18:-0.10118519 19:-0.51717917 20:-0.028873531 21:-0.49553573 22:-0.37811813 23:-0.3306814 24:-0.21420514 
0.1696246940364627 1:-1.8480318 2:-0.62666803 3:-0.4513487 4:-0.11744416 5:1.0906687 6:1.7543418 7:1.2908092 8:-0.50096301 9:2.3034199 10:1.6927522 11:-0.28067553 12:-0.19118631 13:-0.35496304 14:-0.2627018 15:0.84682671 16:-0.61679335 17:-0.55838733 18:-0.10118519 19:-0.51717917 20:-0.028873531 21:-0.49553573 22:2.6443089 23:-0.3306814 24:4.6677739 
0.169069506698734 1:-1.8480318 2:-0.62666803 3:-0.4513487 4:-0.11744416 5:1.0906687 6:-0.56993519 7:1.2908092 8:-0.50096301 9:2.3034199 10:1.6927522 11:-0.28067553 12:-0.19118631 13:-0.35496304 14:3.8060689 15:0.84682671 16:-0.61679335 17:1.7906229 18:-0.10118519 19:-0.51717917 20:-0.028873531 21:-0.49553573 22:-0.37811813 23:-0.3306814 24:-0.21420514 
0.5 1:-1.8480318 2:-0.62666803 3:2.2152742 4:-0.11744416 5:1.0906687 6:-0.56993519 7:1.2908092 8:-0.50096301 9:-0.43407681 10:-0.5906719 11:-0.28067553 12:-0.19118631 13:2.8168035 14:-0.2627018 15:0.84682671 16:-0.61679335 17:-0.55838733 18:-0.10118519 19:-0.51717917 20:-0.028873531 21:-0.49553573 22:-0.37811813 23:-0.3306814 24:-0.21420514 
0.1322540744840462 1:0.54104109 2:1.5955196 3:-0.4513487 4:-0.11744416 5:1.0906687 6:-0.56993519 7:1.2908092 8:-0.50096301 9:-0.43407681 10:-0.5906719 11:-0.28067553 12:-0.19118631 13:2.8168035 14:-0.2627018 15:0.84682671 16:-0.61679335 17:1.7906229 18:-0.10118519 19:-0.51717917 20:-0.028873531 21:2.0177377 22:-0.37811813 23:-0.3306814 24:-0.21420514 
0.1648003684821775 1:0.54104109 2:1.5955196 3:-0.4513487 4:-0.11744416 5:1.0906687 6:1.7543418 7:1.2908092 8:1.9958782 9:-0.43407681 10:1.6927522 11:3.5623381 12:-0.19118631 13:-0.35496304 14:-0.2627018 15:0.84682671 16:1.6210634 17:1.7906229 18:-0.10118519 19:-0.51717917 20:-0.028873531 21:2.0177377 22:-0.37811813 23:-0.3306814 24:-0.21420514 
0.1706028080790032 1:0.54104109 2:1.5955196 3:-0.4513487 4:-0.11744416 5:1.0906687 6:1.7543418 7:1.2908092 8:1.9958782 9:-0.43407681 10:-0.5906719 11:3.5623381 12:5.2297737 13:-0.35496304 14:-0.2627018 15:0.84682671 16:1.6210634 17:1.7906229 18:-0.10118519 19:-0.51717917 20:-0.028873531 21:-0.49553573 22:-0.37811813 23:-0.3306814 24:-0.21420514 
0.5 1:-1.8480318 2:-0.62666803 3:-0.4513487 4:-0.11744416 5:1.0906687 6:-0.56993519 7:1.2908092 8:-0.50096301 9:2.3034199 10:1.6927522 11:-0.28067553 12:-0.19118631 13:-0.35496304 14:-0.2627018 15:0.84682671 16:-0.61679335 17:-0.55838733 18:-0.10118519 19:-0.51717917 20:-0.028873531 21:-0.49553573 22:-0.37811813 23:-0.3306814 24:-0.21420514 
0.1607773895335932 1:0.54104109 2:-0.62666803 3:-0.4513487 4:-0.11744416 5:1.0906687 6:1.7543418 7:1.2908092 8:1.9958782 9:2.3034199 10:1.6927522 11:-0.28067553 12:-0.19118631 13:-0.35496304 14:-0.2627018 15:0.84682671 16:-0.61679335 17:-0.55838733 18:-0.10118519 19:-0.51717917 20:-0.028873531 21:-0.49553573 22:-0.37811813 23:-0.3306814 24:4.6677739 
0.3008340075966415 1:-1.8480318 2:1.5955196 3:-0.4513487 4:-0.11744416 5:1.0906687 6:-0.56993519 7:1.2908092 8:1.9958782 9:-0.43407681 10:1.6927522 11:-0.28067553 12:-0.19118631 13:-0.35496304 14:-0.2627018 15:0.84682671 16:-0.61679335 17:1.7906229 18:-0.10118519 19:-0.51717917 20:-0.028873531 21:-0.49553573 22:-0.37811813 23:-0.3306814 24:-0.21420514 
0.131121289635713 1:0.54104109 2:-0.62666803 3:-0.4513487 4:-0.11744416 5:1.0906687 6:1.7543418 7:1.2908092 8:1.9958782 9:-0.43407681 10:1.6927522 11:-0.28067553 12:-0.19118631 13:2.8168035 14:-0.2627018 15:0.84682671 16:1.6210634 17:-0.55838733 18:-0.10118519 19:-0.51717917 20:-0.028873531 21:-0.49553573 22:-0.37811813 23:-0.3306814 24:-0.21420514 
0.182918503992233 1:0.54104109 2:1.5955196 3:-0.4513487 4:-0.11744416 5:1.0906687 6:1.7543418 7:1.2908092 8:-0.50096301 9:2.3034199 10:1.6927522 11:-0.28067553 12:-0.19118631 13:2.8168035 14:-0.2627018 15:0.84682671 16:-0.61679335 17:1.7906229 18:-0.10118519 19:-0.51717917 20:-0.028873531 21:2.0177377 22:-0.37811813 23:-0.3306814 24:-0.21420514 
0.1183763110182105 1:0.54104109 2:-0.62666803 3:-0.4513487 4:-0.11744416 5:1.0906687 6:-0.56993519 7:1.2908092 8:-0.50096301 9:-0.43407681 10:-0.5906719 11:-0.28067553 12:-0.19118631 13:2.8168035 14:-0.2627018 15:0.84682671 16:-0.61679335 17:1.7906229 18:-0.10118519 19:-0.51717917 20:-0.028873531 21:2.0177377 22:-0.37811813 23:-0.3306814 24:-0.21420514 
0.1516526175020088 1:0.54104109 2:1.5955196 3:-0.4513487 4:-0.11744416 5:1.0906687 6:1.7543418 7:1.2908092 8:-0.50096301 9:2.3034199 10:1.6927522 11:-0.28067553 12:-0.19118631 13:-0.35496304 14:-0.2627018 15:0.84682671 16:1.6210634 17:1.7906229 18:-0.10118519 19:-0.51717917 20:-0.028873531 21:2.0177377 22:2.6443089 23:-0.3306814 24:-0.21420514 
0.1512154127614332 1:0.54104109 2:-0.62666803 3:-0.4513487 4:-0.11744416 5:1.0906687 6:-0.56993519 7:1.2908092 8:-0.50096301 9:-0.43407681 10:-0.5906719 11:3.5623381 12:-0.19118631 13:-0.35496304 14:-0.2627018 15:0.84682671 16:-0.61679335 17:-0.55838733 18:-0.10118519 19:-0.51717917 20:-0.028873531 21:-0.49553573 22:-0.37811813 23:-0.3306814 24:-0.21420514 
0.1542419076272318 1:0.54104109 2:1.5955196 3:-0.4513487 4:-0.11744416 5:1.0906687 6:-0.56993519 7:1.2908092 8:1.9958782 9:2.3034199 10:1.6927522 11:-0.28067553 12:-0.19118631 13:-0.35496304 14:-0.2627018 15:0.84682671 16:1.6210634 17:1.7906229 18:-0.10118519 19:1.9332974 20:-0.028873531 21:-0.49553573 22:-0.37811813 23:-0.3306814 24:-0.21420514 
0.1220214839390898 1:0.54104109 2:1.5955196 3:-0.4513487 4:-0.11744416 5:1.0906687 6:-0.56993519 7:-0.77460025 8:-0.50096301 9:-0.43407681 10:-0.5906719 11:-0.28067553 12:-0.19118631 13:-0.35496304 14:-0.2627018 15:0.84682671 16:1.6210634 17:-0.55838733 18:-0.10118519 19:1.9332974 20:-0.028873531 21:-0.49553573 22:-0.37811813 23:-0.3306814 24:-0.21420514 
0.1197756024553536 1:0.54104109 2:-0.62666803 3:-0.4513487 4:-0.11744416 5:1.0906687 6:1.7543418 7:1.2908092 8:-0.50096301 9:2.3034199 10:1.6927522 11:-0.28067553 12:-0.19118631 13:-0.35496304 14:-0.2627018 15:0.84682671 16:1.6210634 17:-0.55838733 18:-0.10118519 19:-0.51717917 20:-0.028873531 21:-0.49553573 22:-0.37811813 23:3.0236389 24:-0.21420514 
0.5 1:-1.8480318 2:1.5955196 3:-0.4513487 4:-0.11744416 5:1.0906687 6:-0.56993519 7:1.2908092 8:-0.50096301 9:2.3034199 10:1.6927522 11:-0.28067553 12:-0.19118631 13:-0.35496304 14:-0.2627018 15:0.84682671 16:-0.61679335 17:1.7906229 18:-0.10118519 19:-0.51717917 20:-0.028873531 21:-0.49553573 22:-0.37811813 23:-0.3306814 24:-0.21420514 
0.1430144060690282 1:-1.8480318 2:1.5955196 3:2.2152742 4:-0.11744416 5:1.0906687 6:1.7543418 7:1.2908092 8:-0.50096301 9:2.3034199 10:1.6927522 11:-0.28067553 12:-0.19118631 13:2.8168035 14:-0.2627018 15:0.84682671 16:1.6210634 17:1.7906229 18:-0.10118519 19:-0.51717917 20:-0.028873531 21:2.0177377 22:2.6443089 23:3.0236389 24:-0.21420514 
0.170232127768586 1:0.54104109 2:1.5955196 3:2.2152742 4:-0.11744416 5:1.0906687 6:1.7543418 7:1.2908092 8:-0.50096301 9:2.3034199 10:1.6927522 11:-0.28067553 12:-0.19118631 13:-0.35496304 14:3.8060689 15:0.84682671 16:1.6210634 17:1.7906229 18:-0.10118519 19:-0.51717917 20:-0.028873531 21:2.0177377 22:2.6443089 23:-0.3306814 24:-0.21420514 
0.5 1:-1.8480318 2:-0.62666803 3:2.2152742 4:-0.11744416 5:1.0906687 6:1.7543418 7:1.2908092 8:-0.50096301 9:2.3034199 10:1.6927522 11:-0.28067553 12:-0.19118631 13:-0.35496304 14:-0.2627018 15:0.84682671 16:-0.61679335 17:-0.55838733 18:-0.10118519 19:-0.51717917 20:-0.028873531 21:-0.49553573 22:-0.37811813 23:-0.3306814 24:-0.21420514 
0.1828671994609127 1:0.54104109 2:-0.62666803 3:-0.4513487 4:-0.11744416 5:1.0906687 6:-0.56993519 7:1.2908092 8:1.9958782 9:-0.43407681 10:-0.5906719 11:3.5623381 12:-0.19118631 13:-0.35496304 14:-0.2627018 15:0.84682671 16:-0.61679335 17:1.7906229 18:-0.10118519 19:-0.51717917 20:-0.028873531 21:-0.49553573 22:-0.37811813 23:-0.3306814 24:-0.21420514 
0.5 1:-1.8480318 2:-0.62666803 3:-0.4513487 4:-0.11744416 5:-0.91674143 6:-0.56993519 7:-0.77460025 8:-0.50096301 9:-0.43407681 10:-0.5906719 11:-0.28067553 12:-0.19118631 13:-0.35496304 14:-0.2627018 15:0.84682671 16:-0.61679335 17:1.7906229 18:-0.10118519 19:-0.51717917 20:-0.028873531 21:-0.49553573 22:-0.37811813 23:-0.3306814 24:-0.21420514 
0.1987673389844619 1:0.54104109 2:-0.62666803 3:-0.4513487 4:-0.11744416 5:1.0906687 6:1.7543418 7:-0.77460025 8:-0.50096301 9:-0.43407681 10:-0.5906719 11:-0.28067553 12:-0.19118631 13:-0.35496304 14:-0.2627018 15:0.84682671 16:1.6210634 17:1.7906229 18:-0.10118519 19:-0.51717917 20:-0.028873531 21:-0.49553573 22:-0.37811813 23:-0.3306814 24:4.6677739 
0.1464499281495121 1:0.54104109 2:1.5955196 3:-0.4513487 4:-0.11744416 5:1.0906687 6:1.7543418 7:1.2908092 8:-0.50096301 9:2.3034199 10:1.6927522 11:-0.28067553 12:-0.19118631 13:-0.35496304 14:3.8060689 15:0.84682671 16:1.6210634 17:1.7906229 18:-0.10118519 19:-0.51717917 20:-0.028873531 21:2.0177377 22:2.6443089 23:3.0236389 24:-0.21420514 
0.1455632498006308 1:-1.8480318 2:-0.62666803 3:-0.4513487 4:-0.11744416 5:1.0906687 6:1.7543418 7:1.2908092 8:1.9958782 9:-0.43407681 10:1.6927522 11:-0.28067553 12:-0.19118631 13:-0.35496304 14:-0.2627018 15:0.84682671 16:1.6210634 17:1.7906229 18:-0.10118519 19:-0.51717917 20:-0.028873531 21:-0.49553573 22:2.6443089 23:-0.3306814 24:-0.21420514 
0.1569337246563323 1:0.54104109 2:-0.62666803 3:-0.4513487 4:-0.11744416 5:1.0906687 6:1.7543418 7:1.2908092 8:-0.50096301 9:2.3034199 10:1.6927522 11:-0.28067553 12:-0.19118631 13:-0.35496304 14:-0.2627018 15:0.84682671 16:1.6210634 17:-0.55838733 18:-0.10118519 19:-0.51717917 20:-0.028873531 21:-0.49553573 22:2.6443089 23:-0.3306814 24:-0.21420514 
0.160047947630193 1:-1.8480318 2:1.5955196 3:-0.4513487 4:-0.11744416 5:1.0906687 6:1.7543418 7:-0.77460025 8:-0.50096301 9:-0.43407681 10:-0.5906719 11:-0.28067553 12:-0.19118631 13:-0.35496304 14:-0.2627018 15:0.84682671 16:-0.61679335 17:-0.55838733 18:-0.10118519 19:1.9332974 20:-0.028873531 21:-0.49553573 22:-0.37811813 23:-0.3306814 24:4.6677739 
0.5 1:0.54104109 2:-0.62666803 3:-0.4513487 4:-0.11744416 5:1.0906687 6:-0.56993519 7:1.2908092 8:-0.50096301 9:-0.43407681 10:-0.5906719 11:3.5623381 12:-0.19118631 13:-0.35496304 14:-0.2627018 15:0.84682671 16:-0.61679335 17:1.7906229 18:-0.10118519 19:-0.51717917 20:-0.028873531 21:-0.49553573 22:-0.37811813 23:-0.3306814 24:-0.21420514 
0.1713946737346049 1:0.54104109 2:1.5955196 3:-0.4513487 4:-0.11744416 5:1.0906687 6:1.7543418 7:1.2908092 8:1.9958782 9:-0.43407681 10:-0.5906719 11:3.5623381 12:-0.19118631 13:-0.35496304 14:3.8060689 15:0.84682671 16:-0.61679335 17:-0.55838733 18:-0.10118519 19:-0.51717917 20:-0.028873531 21:-0.49553573 22:2.6443089 23:-0.3306814 24:-0.21420514 
0.5 1:0.54104109 2:1.5955196 3:2.2152742 4:-0.11744416 5:1.0906687 6:1.7543418 7:1.2908092 8:-0.50096301 9:2.3034199 10:1.6927522 11:-0.28067553 12:-0.19118631 13:-0.35496304 14:-0.2627018 15:0.84682671 16:1.6210634 17:1.7906229 18:-0.10118519 19:-0.51717917 20:-0.028873531 21:-0.49553573 22:-0.37811813 23:-0.3306814 24:-0.21420514 
0.1706848350243022 1:0.54104109 2:1.5955196 3:-0.4513487 4:-0.11744416 5:1.0906687 6:-0.56993519 7:1.2908092 8:1.9958782 9:-0.43407681 10:-0.5906719 11:3.5623381 12:-0.19118631 13:2.8168035 14:-0.2627018 15:0.84682671 16:1.6210634 17:-0.55838733 18:-0.10118519 19:-0.51717917 20:-0.028873531 21:-0.49553573 22:2.6443089 23:-0.3306814 24:-0.21420514 
0.5 1:-1.8480318 2:1.5955196 3:2.2152742 4:-0.11744416 5:1.0906687 6:1.7543418 7:1.2908092 8:-0.50096301 9:2.3034199 10:1.6927522 11:-0.28067553 12:-0.19118631 13:-0.35496304 14:-0.2627018 15:0.84682671 16:-0.61679335 17:1.7906229 18:-0.10118519 19:-0.51717917 20:-0.028873531 21:-0.49553573 22:-0.37811813 23:-0.3306814 24:-0.21420514 
0.5 1:-1.8480318 2:1.5955196 3:-0.4513487 4:-0.11744416 5:-0.91674143 6:-0.56993519 7:-0.77460025 8:-0.50096301 9:-0.43407681 10:-0.5906719 11:-0.28067553 12:-0.19118631 13:-0.35496304 14:-0.2627018 15:0.84682671 16:1.6210634 17:-0.55838733 18:-0.10118519 19:-0.51717917 20:-0.028873531 21:-0.49553573 22:-0.37811813 23:-0.3306814 24:-0.21420514 
0.1480231829101068 1:0.54104109 2:-0.62666803 3:-0.4513487 4:-0.11744416 5:1.0906687 6:1.7543418 7:-0.77460025 8:-0.50096301 9:-0.43407681 10:-0.5906719 11:-0.28067553 12:-0.19118631 13:-0.35496304 14:-0.2627018 15:0.84682671 16:1.6210634 17:-0.55838733 18:-0.10118519 19:-0.51717917 20:-0.028873531 21:-0.49553573 22:2.6443089 23:3.0236389 24:-0.21420514 
0.5 1:-1.8480318 2:-0.62666803 3:-0.4513487 4:-0.11744416 5:-0.91674143 6:-0.56993519 7:-0.77460025 8:-0.50096301 9:-0.43407681 10:-0.5906719 11:-0.28067553 12:-0.19118631 13:-0.35496304 14:-0.2627018 15:0.84682671 16:-0.61679335 17:1.7906229 18:-0.10118519 19:-0.51717917 20:-0.028873531 21:-0.49553573 22:-0.37811813 23:-0.3306814 24:-0.21420514 
0.1733894695418467 1:-1.8480318 2:1.5955196 3:-0.4513487 4:-0.11744416 5:1.0906687 6:-0.56993519 7:1.2908092 8:1.9958782 9:2.3034199 10:1.6927522 11:-0.28067553 12:-0.19118631 13:-0.35496304 14:-0.2627018 15:0.84682671 16:1.6210634 17:-0.55838733 18:-0.10118519 19:1.9332974 20:-0.028873531 21:-0.49553573 22:2.6443089 23:-0.3306814 24:-0.21420514 
0.5 1:0.54104109 2:-0.62666803 3:-0.4513487 4:-0.11744416 5:1.0906687 6:1.7543418 7:1.2908092 8:-0.50096301 9:2.3034199 10:1.6927522 11:-0.28067553 12:-0.19118631 13:-0.35496304 14:-0.2627018 15:0.84682671 16:-0.61679335 17:1.7906229 18:-0.10118519 19:-0.51717917 20:-0.028873531 21:2.0177377 22:2.6443089 23:-0.3306814 24:-0.21420514 
0.1697238244947742 1:0.54104109 2:-0.62666803 3:-0.4513487 4:-0.11744416 5:1.0906687 6:1.7543418 7:1.2908092 8:1.9958782 9:2.3034199 10:1.6927522 11:-0.28067553 12:5.2297737 13:-0.35496304 14:-0.2627018 15:0.84682671 16:1.6210634 17:-0.55838733 18:-0.10118519 19:-0.51717917 20:-0.028873531 21:2.0177377 22:-0.37811813 23:-0.3306814 24:4.6677739 
0.1802423817720456 1:0.54104109 2:1.5955196 3:-0.4513487 4:-0.11744416 5:1.0906687 6:1.7543418 7:1.2908092 8:1.9958782 9:-0.43407681 10:1.6927522 11:-0.28067553 12:-0.19118631 13:-0.35496304 14:3.8060689 15:0.84682671 16:-0.61679335 17:-0.55838733 18:-0.10118519 19:1.9332974 20:-0.028873531 21:-0.49553573 22:-0.37811813 23:-0.3306814 24:-0.21420514 
0.2128534978604459 1:-1.8480318 2:1.5955196 3:-0.4513487 4:-0.11744416 5:1.0906687 6:-0.56993519 7:1.2908092 8:1.9958782 9:2.3034199 10:1.6927522 11:-0.28067553 12:5.2297737 13:-0.35496304 14:-0.2627018 15:0.84682671 16:1.6210634 17:1.7906229 18:-0.10118519 19:1.9332974 20:-0.028873531 21:-0.49553573 22:-0.37811813 23:-0.3306814 24:-0.21420514 
0.5 1:0.54104109 2:-0.62666803 3:-0.4513487 4:-0.11744416 5:-0.91674143 6:-0.56993519 7:-0.77460025 8:-0.50096301 9:-0.43407681 10:-0.5906719 11:-0.28067553 12:-0.19118631 13:-0.35496304 14:-0.2627018 15:-1.1807152 16:-0.61679335 17:-0.55838733 18:-0.10118519 19:1.9332974 20:-0.028873531 21:-0.49553573 22:-0.37811813 23:-0.3306814 24:-0.21420514 
0.1791137670676921 1:0.54104109 2:1.5955196 3:2.2152742 4:-0.11744416 5:1.0906687 6:-0.56993519 7:1.2908092 8:1.9958782 9:-0.43407681 10:1.6927522 11:-0.28067553 12:-0.19118631 13:-0.35496304 14:-0.2627018 15:0.84682671 16:1.6210634 17:1.7906229 18:-0.10118519 19:1.9332974 20:-0.028873531 21:-0.49553573 22:-0.37811813 23:-0.3306814 24:-0.21420514 
0.1990651691239768 1:0.54104109 2:1.5955196 3:-0.4513487 4:-0.11744416 5:1.0906687 6:-0.56993519 7:1.2908092 8:1.9958782 9:-0.43407681 10:1.6927522 11:-0.28067553 12:-0.19118631 13:-0.35496304 14:-0.2627018 15:0.84682671 16:-0.61679335 17:1.7906229 18:-0.10118519 19:-0.51717917 20:-0.028873531 21:2.0177377 22:2.6443089 23:-0.3306814 24:4.6677739 
0.5 1:0.54104109 2:-0.62666803 3:-0.4513487 4:-0.11744416 5:-0.91674143 6:-0.56993519 7:-0.77460025 8:-0.50096301 9:-0.43407681 10:-0.5906719 11:-0.28067553 12:-0.19118631 13:-0.35496304 14:-0.2627018 15:-1.1807152 16:-0.61679335 17:-0.55838733 18:-0.10118519 19:1.9332974 20:-0.028873531 21:-0.49553573 22:-0.37811813 23:-0.3306814 24:-0.21420514 
0.1609321033965741 1:0.54104109 2:1.5955196 3:2.2152742 4:-0.11744416 5:1.0906687 6:1.7543418 7:-0.77460025 8:-0.50096301 9:-0.43407681 10:-0.5906719 11:-0.28067553 12:-0.19118631 13:-0.35496304 14:-0.2627018 15:0.84682671 16:-0.61679335 17:-0.55838733 18:-0.10118519 19:-0.51717917 20:-0.028873531 21:2.0177377 22:-0.37811813 23:3.0236389 24:-0.21420514 
0.5 1:0.54104109 2:-0.62666803 3:-0.4513487 4:-0.11744416 5:-0.91674143 6:-0.56993519 7:-0.77460025 8:-0.50096301 9:-0.43407681 10:-0.5906719 11:-0.28067553 12:-0.19118631 13:-0.35496304 14:-0.2627018 15:-1.1807152 16:-0.61679335 17:-0.55838733 18:-0.10118519 19:1.9332974 20:-0.028873531 21:-0.49553573 22:-0.37811813 23:-0.3306814 24:-0.21420514 
0.1609473738141027 1:0.54104109 2:-0.62666803 3:-0.4513487 4:-0.11744416 5:1.0906687 6:1.7543418 7:-0.77460025 8:-0.50096301 9:-0.43407681 10:-0.5906719 11:-0.28067553 12:-0.19118631 13:-0.35496304 14:3.8060689 15:0.84682671 16:-0.61679335 17:-0.55838733 18:-0.10118519 19:1.9332974 20:-0.028873531 21:-0.49553573 22:-0.37811813 23:3.0236389 24:-0.21420514 
0.1722493804542947 1:0.54104109 2:-0.62666803 3:2.2152742 4:-0.11744416 5:-0.91674143 6:-0.56993519 7:-0.77460025 8:-0.50096301 9:-0.43407681 10:-0.5906719 11:-0.28067553 12:-0.19118631 13:-0.35496304 14:-0.2627018 15:0.84682671 16:-0.61679335 17:-0.55838733 18:-0.10118519 19:1.9332974 20:-0.028873531 21:2.0177377 22:-0.37811813 23:-0.3306814 24:-0.21420514 
0.5 1:0.54104109 2:1.5955196 3:-0.4513487 4:-0.11744416 5:-0.91674143 6:-0.56993519 7:-0.77460025 8:-0.50096301 9:-0.43407681 10:-0.5906719 11:-0.28067553 12:-0.19118631 13:-0.35496304 14:-0.2627018 15:-1.1807152 16:-0.61679335 17:-0.55838733 18:-0.10118519 19:1.9332974 20:-0.028873531 21:-0.49553573 22:-0.37811813 23:-0.3306814 24:-0.21420514 
0.1695527319247299 1:0.54104109 2:1.5955196 3:2.2152742 4:8.5135028 5:1.0906687 6:1.7543418 7:-0.77460025 8:-0.50096301 9:-0.43407681 10:-0.5906719 11:-0.28067553 12:-0.19118631 13:-0.35496304 14:3.8060689 15:0.84682671 16:-0.61679335 17:-0.55838733 18:-0.10118519 19:1.9332974 20:-0.028873531 21:2.0177377 22:-0.37811813 23:-0.3306814 24:-0.21420514 
0.5 1:0.54104109 2:1.5955196 3:-0.4513487 4:-0.11744416 5:-0.91674143 6:-0.56993519 7:-0.77460025 8:-0.50096301 9:-0.43407681 10:-0.5906719 11:-0.28067553 12:-0.19118631 13:-0.35496304 14:-0.2627018 15:-1.1807152 16:-0.61679335 17:-0.55838733 18:-0.10118519 19:1.9332974 20:-0.028873531 21:-0.49553573 22:-0.37811813 23:-0.3306814 24:-0.21420514 
0.5 1:0.54104109 2:1.5955196 3:-0.4513487 4:-0.11744416 5:1.0906687 6:-0.56993519 7:1.2908092 8:1.9958782 9:-0.43407681 10:1.6927522 11:-0.28067553 12:-0.19118631 13:-0.35496304 14:-0.2627018 15:0.84682671 16:-0.61679335 17:1.7906229 18:-0.10118519 19:1.9332974 20:-0.028873531 21:-0.49553573 22:-0.37811813 23:-0.3306814 24:-0.21420514 
0.5 1:0.54104109 2:1.5955196 3:-0.4513487 4:-0.11744416 5:1.0906687 6:-0.56993519 7:1.2908092 8:1.9958782 9:-0.43407681 10:1.6927522 11:-0.28067553 12:-0.19118631 13:-0.35496304 14:-0.2627018 15:0.84682671 16:1.6210634 17:-0.55838733 18:-0.10118519 19:-0.51717917 20:-0.028873531 21:2.0177377 22:-0.37811813 23:-0.3306814 24:-0.21420514 
0.5 1:0.54104109 2:-0.62666803 3:-0.4513487 4:-0.11744416 5:-0.91674143 6:-0.56993519 7:-0.77460025 8:-0.50096301 9:-0.43407681 10:-0.5906719 11:-0.28067553 12:-0.19118631 13:-0.35496304 14:-0.2627018 15:0.84682671 16:1.6210634 17:-0.55838733 18:-0.10118519 19:-0.51717917 20:-0.028873531 21:2.0177377 22:-0.37811813 23:-0.3306814 24:-0.21420514 
0.1683206489537346 1:0.54104109 2:-0.62666803 3:2.2152742 4:-0.11744416 5:1.0906687 6:-0.56993519 7:1.2908092 8:-0.50096301 9:-0.43407681 10:-0.5906719 11:3.5623381 12:-0.19118631 13:-0.35496304 14:-0.2627018 15:0.84682671 16:1.6210634 17:1.7906229 18:-0.10118519 19:-0.51717917 20:-0.028873531 21:2.0177377 22:2.6443089 23:-0.3306814 24:-0.21420514 
0.5 1:0.54104109 2:-0.62666803 3:-0.4513487 4:-0.11744416 5:-0.91674143 6:-0.56993519 7:-0.77460025 8:-0.50096301 9:-0.43407681 10:-0.5906719 11:-0.28067553 12:-0.19118631 13:-0.35496304 14:-0.2627018 15:-1.1807152 16:-0.61679335 17:-0.55838733 18:-0.10118519 19:1.9332974 20:-0.028873531 21:-0.49553573 22:-0.37811813 23:-0.3306814 24:-0.21420514 
0.1225303539809864 1:-1.8480318 2:1.5955196 3:2.2152742 4:-0.11744416 5:-0.91674143 6:-0.56993519 7:-0.77460025 8:-0.50096301 9:-0.43407681 10:-0.5906719 11:-0.28067553 12:-0.19118631 13:-0.35496304 14:-0.2627018 15:0.84682671 16:-0.61679335 17:1.7906229 18:-0.10118519 19:-0.51717917 20:-0.028873531 21:2.0177377 22:-0.37811813 23:-0.3306814 24:-0.21420514 
0.1698018637333879 1:0.54104109 2:1.5955196 3:-0.4513487 4:8.5135028 5:1.0906687 6:1.7543418 7:1.2908092 8:-0.50096301 9:2.3034199 10:1.6927522 11:-0.28067553 12:-0.19118631 13:2.8168035 14:-0.2627018 15:0.84682671 16:1.6210634 17:-0.55838733 18:-0.10118519 19:1.9332974 20:-0.028873531 21:-0.49553573 22:2.6443089 23:-0.3306814 24:4.6677739 
0.5 1:-1.8480318 2:1.5955196 3:-0.4513487 4:-0.11744416 5:1.0906687 6:1.7543418 7:1.2908092 8:1.9958782 9:-0.43407681 10:1.6927522 11:-0.28067553 12:-0.19118631 13:-0.35496304 14:-0.2627018 15:0.84682671 16:-0.61679335 17:-0.55838733 18:-0.10118519 19:-0.51717917 20:-0.028873531 21:-0.49553573 22:-0.37811813 23:-0.3306814 24:-0.21420514 
0.1660580051081669 1:0.54104109 2:1.5955196 3:-0.4513487 4:-0.11744416 5:1.0906687 6:1.7543418 7:1.2908092 8:1.9958782 9:-0.43407681 10:1.6927522 11:3.5623381 12:-0.19118631 13:2.8168035 14:-0.2627018 15:0.84682671 16:1.6210634 17:1.7906229 18:-0.10118519 19:-0.51717917 20:-0.028873531 21:2.0177377 22:-0.37811813 23:3.0236389 24:-0.21420514 
0.5 1:0.54104109 2:1.5955196 3:-0.4513487 4:-0.11744416 5:-0.91674143 6:-0.56993519 7:-0.77460025 8:-0.50096301 9:-0.43407681 10:-0.5906719 11:-0.28067553 12:-0.19118631 13:-0.35496304 14:-0.2627018 15:0.84682671 16:1.6210634 17:-0.55838733 18:-0.10118519 19:-0.51717917 20:-0.028873531 21:2.0177377 22:-0.37811813 23:-0.3306814 24:-0.21420514 
0.5 1:0.54104109 2:-0.62666803 3:-0.4513487 4:-0.11744416 5:-0.91674143 6:-0.56993519 7:-0.77460025 8:-0.50096301 9:-0.43407681 10:-0.5906719 11:-0.28067553 12:-0.19118631 13:-0.35496304 14:-0.2627018 15:-1.1807152 16:-0.61679335 17:-0.55838733 18:-0.10118519 19:1.9332974 20:-0.028873531 21:-0.49553573 22:-0.37811813 23:-0.3306814 24:-0.21420514 
0.5 1:0.54104109 2:-0.62666803 3:-0.4513487 4:-0.11744416 5:-0.91674143 6:-0.56993519 7:-0.77460025 8:-0.50096301 9:-0.43407681 10:-0.5906719 11:-0.28067553 12:-0.19118631 13:-0.35496304 14:-0.2627018 15:-1.1807152 16:-0.61679335 17:-0.55838733 18:-0.10118519 19:1.9332974 20:-0.028873531 21:-0.49553573 22:-0.37811813 23:-0.3306814 24:-0.21420514 
0.1472035025150981 1:0.54104109 2:1.5955196 3:-0.4513487 4:-0.11744416 5:1.0906687 6:-0.56993519 7:1.2908092 8:1.9958782 9:-0.43407681 10:1.6927522 11:-0.28067553 12:-0.19118631 13:-0.35496304 14:-0.2627018 15:0.84682671 16:1.6210634 17:1.7906229 18:-0.10118519 19:1.9332974 20:-0.028873531 21:2.0177377 22:2.6443089 23:3.0236389 24:-0.21420514 
0.5 1:-1.8480318 2:-0.62666803 3:2.2152742 4:-0.11744416 5:1.0906687 6:1.7543418 7:1.2908092 8:-0.50096301 9:2.3034199 10:1.6927522 11:-0.28067553 12:-0.19118631 13:-0.35496304 14:-0.2627018 15:0.84682671 16:1.6210634 17:1.7906229 18:-0.10118519 19:-0.51717917 20:-0.028873531 21:2.0177377 22:2.6443089 23:-0.3306814 24:-0.21420514 
0.5 1:0.54104109 2:-0.62666803 3:-0.4513487 4:-0.11744416 5:-0.91674143 6:-0.56993519 7:-0.77460025 8:-0.50096301 9:-0.43407681 10:-0.5906719 11:-0.28067553 12:-0.19118631 13:-0.35496304 14:-0.2627018 15:-1.1807152 16:-0.61679335 17:-0.55838733 18:-0.10118519 19:1.9332974 20:-0.028873531 21:-0.49553573 22:-0.37811813 23:-0.3306814 24:-0.21420514 
0.2694212194040442 1:0.54104109 2:-0.62666803 3:2.2152742 4:-0.11744416 5:-0.91674143 6:-0.56993519 7:-0.77460025 8:-0.50096301 9:-0.43407681 10:-0.5906719 11:-0.28067553 12:-0.19118631 13:-0.35496304 14:-0.2627018 15:0.84682671 16:1.6210634 17:-0.55838733 18:-0.10118519 19:1.9332974 20:-0.028873531 21:-0.49553573 22:-0.37811813 23:-0.3306814 24:-0.21420514 
0.1789035013561971 1:0.54104109 2:1.5955196 3:2.2152742 4:-0.11744416 5:1.0906687 6:1.7543418 7:1.2908092 8:1.9958782 9:-0.43407681 10:1.6927522 11:-0.28067553 12:-0.19118631 13:-0.35496304 14:-0.2627018 15:0.84682671 16:1.6210634 17:1.7906229 18:-0.10118519 19:1.9332974 20:-0.028873531 21:-0.49553573 22:-0.37811813 23:-0.3306814 24:-0.21420514 
0.140540860014775 1:0.54104109 2:-0.62666803 3:-0.4513487 4:-0.11744416 5:1.0906687 6:-0.56993519 7:1.2908092 8:-0.50096301 9:2.3034199 10:1.6927522 11:-0.28067553 12:-0.19118631 13:-0.35496304 14:3.8060689 15:0.84682671 16:1.6210634 17:-0.55838733 18:-0.10118519 19:-0.51717917 20:-0.028873531 21:2.0177377 22:-0.37811813 23:-0.3306814 24:-0.21420514 
0.5 1:0.54104109 2:1.5955196 3:-0.4513487 4:-0.11744416 5:1.0906687 6:-0.56993519 7:1.2908092 8:-0.50096301 9:2.3034199 10:1.6927522 11:-0.28067553 12:-0.19118631 13:-0.35496304 14:-0.2627018 15:0.84682671 16:-0.61679335 17:-0.55838733 18:-0.10118519 19:-0.51717917 20:-0.028873531 21:-0.49553573 22:-0.37811813 23:-0.3306814 24:-0.21420514 
0.2699375742430829 1:-1.8480318 2:-0.62666803 3:-0.4513487 4:-0.11744416 5:-0.91674143 6:-0.56993519 7:-0.77460025 8:-0.50096301 9:-0.43407681 10:-0.5906719 11:-0.28067553 12:-0.19118631 13:-0.35496304 14:3.8060689 15:0.84682671 16:1.6210634 17:-0.55838733 18:-0.10118519 19:-0.51717917 20:-0.028873531 21:-0.49553573 22:-0.37811813 23:-0.3306814 24:-0.21420514 
0.1191119737895264 1:0.54104109 2:1.5955196 3:-0.4513487 4:-0.11744416 5:1.0906687 6:1.7543418 7:-0.77460025 8:-0.50096301 9:-0.43407681 10:-0.5906719 11:-0.28067553 12:-0.19118631 13:-0.35496304 14:-0.2627018 15:0.84682671 16:-0.61679335 17:1.7906229 18:-0.10118519 19:-0.51717917 20:-0.028873531 21:2.0177377 22:2.6443089 23:-0.3306814 24:-0.21420514 
0.1343690635282736 1:-1.8480318 2:1.5955196 3:-0.4513487 4:-0.11744416 5:1.0906687 6:-0.56993519 7:1.2908092 8:-0.50096301 9:2.3034199 10:1.6927522 11:-0.28067553 12:-0.19118631 13:-0.35496304 14:-0.2627018 15:0.84682671 16:1.6210634 17:1.7906229 18:-0.10118519 19:-0.51717917 20:-0.028873531 21:2.0177377 22:2.6443089 23:3.0236389 24:-0.21420514 
0.1482039376818235 1:0.54104109 2:-0.62666803 3:2.2152742 4:-0.11744416 5:1.0906687 6:1.7543418 7:-0.77460025 8:-0.50096301 9:-0.43407681 10:-0.5906719 11:-0.28067553 12:-0.19118631 13:-0.35496304 14:-0.2627018 15:0.84682671 16:1.6210634 17:1.7906229 18:-0.10118519 19:1.9332974 20:-0.028873531 21:2.0177377 22:-0.37811813 23:-0.3306814 24:-0.21420514 
0.2079427617787541 1:-1.8480318 2:1.5955196 3:-0.4513487 4:-0.11744416 5:1.0906687 6:-0.56993519 7:1.2908092 8:-0.50096301 9:2.3034199 10:1.6927522 11:-0.28067553 12:5.2297737 13:-0.35496304 14:-0.2627018 15:0.84682671 16:-0.61679335 17:1.7906229 18:-0.10118519 19:1.9332974 20:-0.028873531 21:-0.49553573 22:2.6443089 23:-0.3306814 24:-0.21420514 
0.1713112846399311 1:0.54104109 2:1.5955196 3:-0.4513487 4:-0.11744416 5:1.0906687 6:-0.56993519 7:1.2908092 8:1.9958782 9:-0.43407681 10:-0.5906719 11:3.5623381 12:-0.19118631 13:-0.35496304 14:3.8060689 15:0.84682671 16:1.6210634 17:1.7906229 18:-0.10118519 19:-0.51717917 20:-0.028873531 21:-0.49553573 22:-0.37811813 23:3.0236389 24:-0.21420514 
0.5 1:-1.8480318 2:-0.62666803 3:-0.4513487 4:-0.11744416 5:1.0906687 6:-0.56993519 7:1.2908092 8:1.9958782 9:-0.43407681 10:1.6927522 11:-0.28067553 12:-0.19118631 13:-0.35496304 14:3.8060689 15:0.84682671 16:1.6210634 17:-0.55838733 18:-0.10118519 19:-0.51717917 20:-0.028873531 21:2.0177377 22:-0.37811813 23:-0.3306814 24:-0.21420514 
0.169414661150829 1:-1.8480318 2:-0.62666803 3:2.2152742 4:-0.11744416 5:1.0906687 6:1.7543418 7:1.2908092 8:1.9958782 9:2.3034199 10:1.6927522 11:3.5623381 12:-0.19118631 13:2.8168035 14:-0.2627018 15:0.84682671 16:1.6210634 17:-0.55838733 18:-0.10118519 19:-0.51717917 20:-0.028873531 21:-0.49553573 22:-0.37811813 23:3.0236389 24:-0.21420514 
0.5 1:0.54104109 2:-0.62666803 3:-0.4513487 4:-0.11744416 5:1.0906687 6:-0.56993519 7:1.2908092 8:-0.50096301 9:2.3034199 10:1.6927522 11:-0.28067553 12:-0.19118631 13:-0.35496304 14:-0.2627018 15:0.84682671 16:-0.61679335 17:-0.55838733 18:-0.10118519 19:-0.51717917 20:-0.028873531 21:-0.49553573 22:-0.37811813 23:-0.3306814 24:-0.21420514 
0.5 1:0.54104109 2:1.5955196 3:-0.4513487 4:-0.11744416 5:-0.91674143 6:-0.56993519 7:-0.77460025 8:-0.50096301 9:-0.43407681 10:-0.5906719 11:-0.28067553 12:-0.19118631 13:-0.35496304 14:-0.2627018 15:-1.1807152 16:-0.61679335 17:-0.55838733 18:-0.10118519 19:1.9332974 20:-0.028873531 21:-0.49553573 22:-0.37811813 23:-0.3306814 24:-0.21420514 
0.5 1:0.54104109 2:-0.62666803 3:-0.4513487 4:-0.11744416 5:-0.91674143 6:-0.56993519 7:-0.77460025 8:-0.50096301 9:-0.43407681 10:-0.5906719 11:-0.28067553 12:-0.19118631 13:-0.35496304 14:-0.2627018 15:-1.1807152 16:-0.61679335 17:-0.55838733 18:-0.10118519 19:1.9332974 20:-0.028873531 21:-0.49553573 22:-0.37811813 23:-0.3306814 24:-0.21420514 
0.1693576338821199 1:0.54104109 2:1.5955196 3:-0.4513487 4:8.5135028 5:1.0906687 6:-0.56993519 7:1.2908092 8:1.9958782 9:-0.43407681 10:1.6927522 11:-0.28067553 12:-0.19118631 13:-0.35496304 14:-0.2627018 15:0.84682671 16:-0.61679335 17:-0.55838733 18:-0.10118519 19:-0.51717917 20:-0.028873531 21:-0.49553573 22:-0.37811813 23:-0.3306814 24:-0.21420514 
0.1691082894643235 1:-1.8480318 2:1.5955196 3:2.2152742 4:-0.11744416 5:1.0906687 6:-0.56993519 7:1.2908092 8:-0.50096301 9:2.3034199 10:1.6927522 11:-0.28067553 12:-0.19118631 13:-0.35496304 14:-0.2627018 15:0.84682671 16:1.6210634 17:1.7906229 18:-0.10118519 19:-0.51717917 20:-0.028873531 21:2.0177377 22:2.6443089 23:-0.3306814 24:-0.21420514 
0.2005210097131289 1:0.54104109 2:-0.62666803 3:2.2152742 4:-0.11744416 5:1.0906687 6:1.7543418 7:1.2908092 8:1.9958782 9:-0.43407681 10:1.6927522 11:3.5623381 12:-0.19118631 13:-0.35496304 14:-0.2627018 15:0.84682671 16:-0.61679335 17:-0.55838733 18:-0.10118519 19:-0.51717917 20:-0.028873531 21:-0.49553573 22:-0.37811813 23:-0.3306814 24:-0.21420514 
0.1704765140374649 1:0.54104109 2:1.5955196 3:-0.4513487 4:8.5135028 5:1.0906687 6:1.7543418 7:1.2908092 8:-0.50096301 9:-0.43407681 10:-0.5906719 11:-0.28067553 12:-0.19118631 13:2.8168035 14:-0.2627018 15:0.84682671 16:1.6210634 17:1.7906229 18:-0.10118519 19:-0.51717917 20:-0.028873531 21:2.0177377 22:-0.37811813 23:-0.3306814 24:4.6677739 
0.1721660567671057 1:0.54104109 2:1.5955196 3:2.2152742 4:-0.11744416 5:1.0906687 6:1.7543418 7:1.2908092 8:-0.50096301 9:-0.43407681 10:-0.5906719 11:3.5623381 12:-0.19118631 13:-0.35496304 14:3.8060689 15:0.84682671 16:1.6210634 17:1.7906229 18:-0.10118519 19:-0.51717917 20:-0.028873531 21:2.0177377 22:2.6443089 23:3.0236389 24:-0.21420514 
0.5 1:0.54104109 2:1.5955196 3:-0.4513487 4:-0.11744416 5:-0.91674143 6:-0.56993519 7:-0.77460025 8:-0.50096301 9:-0.43407681 10:-0.5906719 11:-0.28067553 12:-0.19118631 13:-0.35496304 14:-0.2627018 15:-1.1807152 16:-0.61679335 17:-0.55838733 18:-0.10118519 19:1.9332974 20:-0.028873531 21:-0.49553573 22:-0.37811813 23:-0.3306814 24:-0.21420514 
0.5 1:0.54104109 2:-0.62666803 3:-0.4513487 4:-0.11744416 5:1.0906687 6:1.7543418 7:1.2908092 8:1.9958782 9:-0.43407681 10:1.6927522 11:-0.28067553 12:-0.19118631 13:-0.35496304 14:-0.2627018 15:0.84682671 16:-0.61679335 17:1.7906229 18:-0.10118519 19:-0.51717917 20:-0.028873531 21:-0.49553573 22:-0.37811813 23:-0.3306814 24:4.6677739 
0.5 1:-1.8480318 2:-0.62666803 3:2.2152742 4:-0.11744416 5:-0.91674143 6:-0.56993519 7:-0.77460025 8:-0.50096301 9:-0.43407681 10:-0.5906719 11:-0.28067553 12:-0.19118631 13:-0.35496304 14:-0.2627018 15:-1.1807152 16:-0.61679335 17:-0.55838733 18:-0.10118519 19:-0.51717917 20:-0.028873531 21:-0.49553573 22:-0.37811813 23:-0.3306814 24:-0.21420514 
0.1702837667075656 1:-1.8480318 2:-0.62666803 3:2.2152742 4:-0.11744416 5:1.0906687 6:-0.56993519 7:1.2908092 8:-0.50096301 9:2.3034199 10:1.6927522 11:-0.28067553 12:-0.19118631 13:-0.35496304 14:3.8060689 15:0.84682671 16:-0.61679335 17:1.7906229 18:-0.10118519 19:-0.51717917 20:-0.028873531 21:-0.49553573 22:2.6443089 23:-0.3306814 24:-0.21420514 
0.159377811023846 1:0.54104109 2:1.5955196 3:-0.4513487 4:-0.11744416 5:-0.91674143 6:-0.56993519 7:-0.77460025 8:-0.50096301 9:-0.43407681 10:-0.5906719 11:-0.28067553 12:-0.19118631 13:-0.35496304 14:-0.2627018 15:0.84682671 16:-0.61679335 17:-0.55838733 18:-0.10118519 19:-0.51717917 20:-0.028873531 21:-0.49553573 22:2.6443089 23:-0.3306814 24:4.6677739 
0.1662200493082868 1:0.54104109 2:1.5955196 3:2.2152742 4:-0.11744416 5:1.0906687 6:1.7543418 7:-0.77460025 8:-0.50096301 9:-0.43407681 10:-0.5906719 11:-0.28067553 12:-0.19118631 13:-0.35496304 14:-0.2627018 15:0.84682671 16:1.6210634 17:-0.55838733 18:-0.10118519 19:1.9332974 20:-0.028873531 21:2.0177377 22:-0.37811813 23:3.0236389 24:-0.21420514 
0.5 1:0.54104109 2:1.5955196 3:-0.4513487 4:-0.11744416 5:-0.91674143 6:-0.56993519 7:-0.77460025 8:-0.50096301 9:-0.43407681 10:-0.5906719 11:-0.28067553 12:-0.19118631 13:-0.35496304 14:-0.2627018 15:-1.1807152 16:-0.61679335 17:-0.55838733 18:-0.10118519 19:1.9332974 20:-0.028873531 21:-0.49553573 22:-0.37811813 23:-0.3306814 24:-0.21420514 
0.1703935930167838 1:0.54104109 2:1.5955196 3:-0.4513487 4:8.5135028 5:1.0906687 6:1.7543418 7:1.2908092 8:1.9958782 9:2.3034199 10:1.6927522 11:-0.28067553 12:-0.19118631 13:-0.35496304 14:-0.2627018 15:0.84682671 16:1.6210634 17:-0.55838733 18:9.8814966 19:1.9332974 20:-0.028873531 21:-0.49553573 22:-0.37811813 23:-0.3306814 24:-0.21420514 
0.1694488584381371 1:0.54104109 2:-0.62666803 3:-0.4513487 4:-0.11744416 5:1.0906687 6:1.7543418 7:-0.77460025 8:-0.50096301 9:-0.43407681 10:-0.5906719 11:-0.28067553 12:-0.19118631 13:-0.35496304 14:-0.2627018 15:0.84682671 16:1.6210634 17:-0.55838733 18:9.8814966 19:-0.51717917 20:-0.028873531 21:2.0177377 22:-0.37811813 23:-0.3306814 24:4.6677739 
0.5 1:-1.8480318 2:1.5955196 3:2.2152742 4:-0.11744416 5:-0.91674143 6:-0.56993519 7:-0.77460025 8:-0.50096301 9:-0.43407681 10:-0.5906719 11:-0.28067553 12:-0.19118631 13:-0.35496304 14:-0.2627018 15:-1.1807152 16:-0.61679335 17:-0.55838733 18:-0.10118519 19:1.9332974 20:-0.028873531 21:-0.49553573 22:-0.37811813 23:-0.3306814 24:-0.21420514 
0.1695112946676057 1:0.54104109 2:-0.62666803 3:-0.4513487 4:-0.11744416 5:1.0906687 6:-0.56993519 7:1.2908092 8:1.9958782 9:2.3034199 10:1.6927522 11:-0.28067553 12:5.2297737 13:2.8168035 14:-0.2627018 15:0.84682671 16:1.6210634 17:1.7906229 18:-0.10118519 19:1.9332974 20:-0.028873531 21:2.0177377 22:-0.37811813 23:-0.3306814 24:-0.21420514 
0.5 1:0.54104109 2:1.5955196 3:-0.4513487 4:-0.11744416 5:-0.91674143 6:-0.56993519 7:-0.77460025 8:-0.50096301 9:-0.43407681 10:-0.5906719 11:-0.28067553 12:-0.19118631 13:-0.35496304 14:-0.2627018 15:-1.1807152 16:-0.61679335 17:-0.55838733 18:-0.10118519 19:1.9332974 20:-0.028873531 21:-0.49553573 22:-0.37811813 23:-0.3306814 24:-0.21420514 
0.5 1:0.54104109 2:1.5955196 3:-0.4513487 4:-0.11744416 5:-0.91674143 6:-0.56993519 7:-0.77460025 8:-0.50096301 9:-0.43407681 10:-0.5906719 11:-0.28067553 12:-0.19118631 13:-0.35496304 14:3.8060689 15:0.84682671 16:1.6210634 17:1.7906229 18:-0.10118519 19:-0.51717917 20:-0.028873531 21:-0.49553573 22:-0.37811813 23:-0.3306814 24:-0.21420514 
0.1678341765286513 1:0.54104109 2:1.5955196 3:2.2152742 4:-0.11744416 5:1.0906687 6:-0.56993519 7:1.2908092 8:1.9958782 9:-0.43407681 10:1.6927522 11:-0.28067553 12:-0.19118631 13:-0.35496304 14:-0.2627018 15:0.84682671 16:-0.61679335 17:-0.55838733 18:-0.10118519 19:-0.51717917 20:-0.028873531 21:2.0177377 22:-0.37811813 23:3.0236389 24:-0.21420514 
0.5 1:-1.8480318 2:1.5955196 3:-0.4513487 4:-0.11744416 5:-0.91674143 6:-0.56993519 7:-0.77460025 8:-0.50096301 9:-0.43407681 10:-0.5906719 11:-0.28067553 12:-0.19118631 13:-0.35496304 14:-0.2627018 15:0.84682671 16:1.6210634 17:-0.55838733 18:-0.10118519 19:-0.51717917 20:-0.028873531 21:2.0177377 22:-0.37811813 23:-0.3306814 24:-0.21420514 
0.1692199657151998 1:-1.8480318 2:1.5955196 3:2.2152742 4:-0.11744416 5:1.0906687 6:1.7543418 7:-0.77460025 8:-0.50096301 9:-0.43407681 10:-0.5906719 11:-0.28067553 12:-0.19118631 13:-0.35496304 14:-0.2627018 15:0.84682671 16:1.6210634 17:-0.55838733 18:-0.10118519 19:1.9332974 20:-0.028873531 21:2.0177377 22:-0.37811813 23:-0.3306814 24:-0.21420514 
0.1568956542409763 1:0.54104109 2:1.5955196 3:-0.4513487 4:-0.11744416 5:1.0906687 6:1.7543418 7:-0.77460025 8:-0.50096301 9:-0.43407681 10:-0.5906719 11:-0.28067553 12:-0.19118631 13:-0.35496304 14:3.8060689 15:0.84682671 16:1.6210634 17:-0.55838733 18:-0.10118519 19:-0.51717917 20:-0.028873531 21:-0.49553573 22:-0.37811813 23:-0.3306814 24:4.6677739 
0.1702428369247881 1:0.54104109 2:-0.62666803 3:-0.4513487 4:-0.11744416 5:1.0906687 6:1.7543418 7:1.2908092 8:-0.50096301 9:2.3034199 10:1.6927522 11:-0.28067553 12:-0.19118631 13:2.8168035 14:-0.2627018 15:0.84682671 16:1.6210634 17:1.7906229 18:-0.10118519 19:-0.51717917 20:-0.028873531 21:-0.49553573 22:2.6443089 23:-0.3306814 24:4.6677739 
0.1684772186354056 1:0.54104109 2:1.5955196 3:-0.4513487 4:-0.11744416 5:1.0906687 6:1.7543418 7:1.2908092 8:1.9958782 9:2.3034199 10:1.6927522 11:-0.28067553 12:-0.19118631 13:2.8168035 14:-0.2627018 15:0.84682671 16:-0.61679335 17:1.7906229 18:-0.10118519 19:1.9332974 20:-0.028873531 21:2.0177377 22:2.6443089 23:3.0236389 24:-0.21420514 
0.1929045534996749 1:-1.8480318 2:1.5955196 3:-0.4513487 4:-0.11744416 5:1.0906687 6:-0.56993519 7:1.2908092 8:1.9958782 9:2.3034199 10:1.6927522 11:-0.28067553 12:-0.19118631 13:-0.35496304 14:-0.2627018 15:0.84682671 16:-0.61679335 17:-0.55838733 18:-0.10118519 19:-0.51717917 20:-0.028873531 21:-0.49553573 22:-0.37811813 23:-0.3306814 24:-0.21420514 
0.5 1:0.54104109 2:1.5955196 3:-0.4513487 4:-0.11744416 5:-0.91674143 6:-0.56993519 7:-0.77460025 8:-0.50096301 9:-0.43407681 10:-0.5906719 11:-0.28067553 12:-0.19118631 13:-0.35496304 14:-0.2627018 15:-1.1807152 16:-0.61679335 17:-0.55838733 18:-0.10118519 19:1.9332974 20:-0.028873531 21:-0.49553573 22:-0.37811813 23:-0.3306814 24:-0.21420514 
0.1662492977833321 1:-1.8480318 2:-0.62666803 3:-0.4513487 4:-0.11744416 5:1.0906687 6:1.7543418 7:-0.77460025 8:-0.50096301 9:-0.43407681 10:-0.5906719 11:-0.28067553 12:-0.19118631 13:-0.35496304 14:3.8060689 15:0.84682671 16:1.6210634 17:-0.55838733 18:-0.10118519 19:-0.51717917 20:-0.028873531 21:2.0177377 22:-0.37811813 23:-0.3306814 24:-0.21420514 
0.136980518863825 1:0.54104109 2:-0.62666803 3:-0.4513487 4:-0.11744416 5:1.0906687 6:1.7543418 7:1.2908092 8:1.9958782 9:-0.43407681 10:1.6927522 11:-0.28067553 12:-0.19118631 13:-0.35496304 14:-0.2627018 15:0.84682671 16:1.6210634 17:1.7906229 18:-0.10118519 19:-0.51717917 20:-0.028873531 21:2.0177377 22:2.6443089 23:3.0236389 24:-0.21420514 
0.1295563019250102 1:0.54104109 2:-0.62666803 3:-0.4513487 4:-0.11744416 5:1.0906687 6:-0.56993519 7:1.2908092 8:-0.50096301 9:2.3034199 10:1.6927522 11:-0.28067553 12:-0.19118631 13:-0.35496304 14:-0.2627018 15:0.84682671 16:1.6210634 17:1.7906229 18:-0.10118519 19:-0.51717917 20:-0.028873531 21:2.0177377 22:2.6443089 23:-0.3306814 24:-0.21420514 
0.5 1:0.54104109 2:-0.62666803 3:-0.4513487 4:-0.11744416 5:-0.91674143 6:-0.56993519 7:-0.77460025 8:-0.50096301 9:-0.43407681 10:-0.5906719 11:-0.28067553 12:-0.19118631 13:-0.35496304 14:-0.2627018 15:-1.1807152 16:-0.61679335 17:-0.55838733 18:-0.10118519 19:1.9332974 20:-0.028873531 21:-0.49553573 22:-0.37811813 23:-0.3306814 24:-0.21420514 
0.5 1:0.54104109 2:-0.62666803 3:-0.4513487 4:-0.11744416 5:-0.91674143 6:-0.56993519 7:-0.77460025 8:-0.50096301 9:-0.43407681 10:-0.5906719 11:-0.28067553 12:-0.19118631 13:-0.35496304 14:-0.2627018 15:-1.1807152 16:-0.61679335 17:-0.55838733 18:-0.10118519 19:1.9332974 20:-0.028873531 21:-0.49553573 22:-0.37811813 23:-0.3306814 24:-0.21420514 
0.5 1:0.54104109 2:-0.62666803 3:-0.4513487 4:-0.11744416 5:-0.91674143 6:-0.56993519 7:-0.77460025 8:-0.50096301 9:-0.43407681 10:-0.5906719 11:-0.28067553 12:-0.19118631 13:-0.35496304 14:-0.2627018 15:-1.1807152 16:-0.61679335 17:-0.55838733 18:-0.10118519 19:1.9332974 20:-0.028873531 21:-0.49553573 22:-0.37811813 23:-0.3306814 24:-0.21420514 
0.5 1:0.54104109 2:-0.62666803 3:-0.4513487 4:-0.11744416 5:-0.91674143 6:-0.56993519 7:-0.77460025 8:-0.50096301 9:-0.43407681 10:-0.5906719 11:-0.28067553 12:-0.19118631 13:-0.35496304 14:-0.2627018 15:-1.1807152 16:-0.61679335 17:-0.55838733 18:-0.10118519 19:1.9332974 20:-0.028873531 21:-0.49553573 22:-0.37811813 23:-0.3306814 24:-0.21420514 
0.5 1:0.54104109 2:-0.62666803 3:-0.4513487 4:-0.11744416 5:1.0906687 6:-0.56993519 7:1.2908092 8:-0.50096301 9:2.3034199 10:1.6927522 11:-0.28067553 12:-0.19118631 13:-0.35496304 14:-0.2627018 15:0.84682671 16:-0.61679335 17:-0.55838733 18:-0.10118519 19:-0.51717917 20:-0.028873531 21:-0.49553573 22:-0.37811813 23:-0.3306814 24:-0.21420514 
0.5 1:0.54104109 2:-0.62666803 3:-0.4513487 4:-0.11744416 5:1.0906687 6:-0.56993519 7:1.2908092 8:1.9958782 9:-0.43407681 10:1.6927522 11:-0.28067553 12:-0.19118631 13:-0.35496304 14:-0.2627018 15:0.84682671 16:-0.61679335 17:-0.55838733 18:-0.10118519 19:-0.51717917 20:-0.028873531 21:-0.49553573 22:2.6443089 23:-0.3306814 24:-0.21420514 
0.5 1:0.54104109 2:-0.62666803 3:-0.4513487 4:-0.11744416 5:-0.91674143 6:-0.56993519 7:-0.77460025 8:-0.50096301 9:-0.43407681 10:-0.5906719 11:-0.28067553 12:-0.19118631 13:-0.35496304 14:-0.2627018 15:-1.1807152 16:-0.61679335 17:-0.55838733 18:-0.10118519 19:1.9332974 20:-0.028873531 21:-0.49553573 22:-0.37811813 23:-0.3306814 24:-0.21420514 
0.5 1:0.54104109 2:-0.62666803 3:-0.4513487 4:-0.11744416 5:-0.91674143 6:-0.56993519 7:-0.77460025 8:-0.50096301 9:-0.43407681 10:-0.5906719 11:-0.28067553 12:-0.19118631 13:-0.35496304 14:-0.2627018 15:-1.1807152 16:-0.61679335 17:-0.55838733 18:-0.10118519 19:1.9332974 20:-0.028873531 21:-0.49553573 22:-0.37811813 23:-0.3306814 24:-0.21420514 
0.2376614901044629 1:0.54104109 2:-0.62666803 3:-0.4513487 4:8.5135028 5:1.0906687 6:-0.56993519 7:1.2908092 8:-0.50096301 9:2.3034199 10:1.6927522 11:-0.28067553 12:-0.19118631 13:-0.35496304 14:-0.2627018 15:0.84682671 16:-0.61679335 17:-0.55838733 18:-0.10118519 19:-0.51717917 20:-0.028873531 21:-0.49553573 22:-0.37811813 23:-0.3306814 24:-0.21420514 
0.1698006113871419 1:0.54104109 2:-0.62666803 3:-0.4513487 4:-0.11744416 5:1.0906687 6:1.7543418 7:1.2908092 8:1.9958782 9:2.3034199 10:1.6927522 11:3.5623381 12:-0.19118631 13:-0.35496304 14:-0.2627018 15:0.84682671 16:-0.61679335 17:1.7906229 18:-0.10118519 19:-0.51717917 20:-0.028873531 21:2.0177377 22:2.6443089 23:-0.3306814 24:-0.21420514 
0.1692805390410235 1:0.54104109 2:1.5955196 3:-0.4513487 4:-0.11744416 5:1.0906687 6:1.7543418 7:1.2908092 8:1.9958782 9:2.3034199 10:1.6927522 11:3.5623381 12:-0.19118631 13:-0.35496304 14:-0.2627018 15:0.84682671 16:1.6210634 17:1.7906229 18:-0.10118519 19:1.9332974 20:-0.028873531 21:2.0177377 22:2.6443089 23:-0.3306814 24:4.6677739 
0.160905707581794 1:-1.8480318 2:1.5955196 3:2.2152742 4:-0.11744416 5:1.0906687 6:1.7543418 7:1.2908092 8:1.9958782 9:-0.43407681 10:1.6927522 11:-0.28067553 12:-0.19118631 13:-0.35496304 14:-0.2627018 15:0.84682671 16:1.6210634 17:1.7906229 18:-0.10118519 19:1.9332974 20:-0.028873531 21:-0.49553573 22:2.6443089 23:-0.3306814 24:-0.21420514 
0.1927642591211146 1:-1.8480318 2:1.5955196 3:-0.4513487 4:-0.11744416 5:1.0906687 6:1.7543418 7:-0.77460025 8:-0.50096301 9:-0.43407681 10:-0.5906719 11:-0.28067553 12:-0.19118631 13:-0.35496304 14:3.8060689 15:0.84682671 16:-0.61679335 17:1.7906229 18:-0.10118519 19:-0.51717917 20:-0.028873531 21:-0.49553573 22:2.6443089 23:-0.3306814 24:-0.21420514 
0.5 1:-1.8480318 2:-0.62666803 3:-0.4513487 4:8.5135028 5:-0.91674143 6:-0.56993519 7:-0.77460025 8:-0.50096301 9:-0.43407681 10:-0.5906719 11:-0.28067553 12:-0.19118631 13:-0.35496304 14:-0.2627018 15:-1.1807152 16:-0.61679335 17:-0.55838733 18:-0.10118519 19:1.9332974 20:-0.028873531 21:-0.49553573 22:-0.37811813 23:-0.3306814 24:-0.21420514 
0.1707089373704883 1:0.54104109 2:1.5955196 3:2.2152742 4:-0.11744416 5:1.0906687 6:-0.56993519 7:1.2908092 8:-0.50096301 9:2.3034199 10:-0.5906719 11:-0.28067553 12:5.2297737 13:2.8168035 14:-0.2627018 15:0.84682671 16:1.6210634 17:-0.55838733 18:-0.10118519 19:1.9332974 20:-0.028873531 21:-0.49553573 22:-0.37811813 23:-0.3306814 24:-0.21420514 
0.241387307662048 1:-1.8480318 2:-0.62666803 3:-0.4513487 4:8.5135028 5:1.0906687 6:-0.56993519 7:1.2908092 8:1.9958782 9:2.3034199 10:1.6927522 11:-0.28067553 12:-0.19118631 13:-0.35496304 14:-0.2627018 15:0.84682671 16:-0.61679335 17:-0.55838733 18:-0.10118519 19:-0.51717917 20:-0.028873531 21:-0.49553573 22:-0.37811813 23:-0.3306814 24:-0.21420514 
0.5 1:0.54104109 2:1.5955196 3:-0.4513487 4:-0.11744416 5:1.0906687 6:-0.56993519 7:1.2908092 8:-0.50096301 9:2.3034199 10:1.6927522 11:-0.28067553 12:-0.19118631 13:-0.35496304 14:-0.2627018 15:0.84682671 16:-0.61679335 17:-0.55838733 18:-0.10118519 19:-0.51717917 20:-0.028873531 21:-0.49553573 22:-0.37811813 23:-0.3306814 24:-0.21420514 
0.5 1:0.54104109 2:-0.62666803 3:-0.4513487 4:-0.11744416 5:-0.91674143 6:-0.56993519 7:-0.77460025 8:-0.50096301 9:-0.43407681 10:-0.5906719 11:-0.28067553 12:-0.19118631 13:-0.35496304 14:-0.2627018 15:0.84682671 16:-0.61679335 17:1.7906229 18:-0.10118519 19:-0.51717917 20:-0.028873531 21:-0.49553573 22:-0.37811813 23:-0.3306814 24:-0.21420514 
0.1190892219003224 1:-1.8480318 2:-0.62666803 3:-0.4513487 4:-0.11744416 5:1.0906687 6:1.7543418 7:1.2908092 8:-0.50096301 9:-0.43407681 10:-0.5906719 11:-0.28067553 12:-0.19118631 13:2.8168035 14:-0.2627018 15:0.84682671 16:1.6210634 17:-0.55838733 18:-0.10118519 19:-0.51717917 20:-0.028873531 21:2.0177377 22:-0.37811813 23:-0.3306814 24:-0.21420514 
0.1582315269339751 1:-1.8480318 2:-0.62666803 3:2.2152742 4:-0.11744416 5:1.0906687 6:-0.56993519 7:1.2908092 8:1.9958782 9:-0.43407681 10:-0.5906719 11:3.5623381 12:-0.19118631 13:-0.35496304 14:3.8060689 15:0.84682671 16:1.6210634 17:-0.55838733 18:-0.10118519 19:-0.51717917 20:-0.028873531 21:-0.49553573 22:-0.37811813 23:3.0236389 24:-0.21420514 
0.1688075211550297 1:-1.8480318 2:-0.62666803 3:2.2152742 4:-0.11744416 5:-0.91674143 6:-0.56993519 7:-0.77460025 8:-0.50096301 9:-0.43407681 10:-0.5906719 11:-0.28067553 12:-0.19118631 13:-0.35496304 14:-0.2627018 15:0.84682671 16:1.6210634 17:1.7906229 18:-0.10118519 19:-0.51717917 20:-0.028873531 21:2.0177377 22:2.6443089 23:3.0236389 24:-0.21420514 
0.5 1:0.54104109 2:-0.62666803 3:-0.4513487 4:-0.11744416 5:-0.91674143 6:-0.56993519 7:-0.77460025 8:-0.50096301 9:-0.43407681 10:-0.5906719 11:-0.28067553 12:-0.19118631 13:-0.35496304 14:-0.2627018 15:0.84682671 16:1.6210634 17:-0.55838733 18:-0.10118519 19:-0.51717917 20:-0.028873531 21:2.0177377 22:-0.37811813 23:-0.3306814 24:-0.21420514 
0.1606603619105705 1:-1.8480318 2:-0.62666803 3:2.2152742 4:-0.11744416 5:1.0906687 6:1.7543418 7:1.2908092 8:-0.50096301 9:2.3034199 10:1.6927522 11:-0.28067553 12:-0.19118631 13:2.8168035 14:-0.2627018 15:0.84682671 16:1.6210634 17:-0.55838733 18:-0.10118519 19:-0.51717917 20:-0.028873531 21:2.0177377 22:-0.37811813 23:-0.3306814 24:4.6677739 
0.5 1:0.54104109 2:-0.62666803 3:-0.4513487 4:-0.11744416 5:-0.91674143 6:-0.56993519 7:-0.77460025 8:-0.50096301 9:-0.43407681 10:-0.5906719 11:-0.28067553 12:-0.19118631 13:-0.35496304 14:3.8060689 15:0.84682671 16:-0.61679335 17:-0.55838733 18:-0.10118519 19:-0.51717917 20:-0.028873531 21:-0.49553573 22:-0.37811813 23:-0.3306814 24:-0.21420514 
0.1845631473395812 1:-1.8480318 2:1.5955196 3:-0.4513487 4:-0.11744416 5:1.0906687 6:1.7543418 7:1.2908092 8:1.9958782 9:-0.43407681 10:1.6927522 11:-0.28067553 12:-0.19118631 13:-0.35496304 14:-0.2627018 15:0.84682671 16:1.6210634 17:1.7906229 18:-0.10118519 19:-0.51717917 20:-0.028873531 21:-0.49553573 22:2.6443089 23:-0.3306814 24:-0.21420514 
